CenteredRBM{Binary{1, Matrix{Float64}}, Binary{1, Matrix{Float64}}, Matrix{Float64}, Vector{Float64}, Vector{Float64}}(Binary{1, Matrix{Float64}}([0.01586294030177476 0.00923168575828737 1.1615377731137073 -0.36627574917293637 0.0929740161949742 -1.0840920664745777 -2.226768703494561 0.03540093007453921 -0.35199032065361713 -0.5685146301391256 1.6846213871691034 -0.7434855042464575 -0.01178882558553091 -0.7162961373805945 -0.7158950638196496 -0.6195314852167214 0.19165884962104854 0.615526988280571 0.6551055564024117 -0.528985767482213 0.20937971938957098 -0.20835065019361243 0.6383133061224695 0.4442639103359816 0.06684816157616613 0.7676041278863173 0.10889509930418864 0.435589522804007 0.2485849194110783 0.5877041259185621 -0.18420728846036422 0.4437368241646845 1.9450535139107774 -0.5262121862205027 -1.6442816326204188 0.5880778695442629 0.4190655299642156 -0.14025396597241807 -0.11265922635998062 -0.8402535612652512 2.623766239788905 0.3744913224821191 0.30056626037770573 -0.4705734100538568 0.834817053625856 -0.2822478295233773 -0.3920871089365869 -0.05152198060344612 2.3158909423192022 0.8311821976989415 0.18355641279174106 -0.40473100367893305 0.4179140938513124 -0.1509286894941881 -2.473719857048218 0.10610294455179708 1.7502986859218592 -2.1752035268199825 -0.5063915768874324 -0.5086070306056173 0.25647616315291943 -1.0831556599576901 0.7965134396979766 1.4484837997596975 -0.013438077768795948 -0.8847445253560674 0.4735552131709044 -0.8876786083269029 -0.19730373649856225 1.1828386381133003 -0.20989370400360247 0.842447176717953 0.7252920944006934 0.7259853446842595 0.830202814249874 -0.4853169285955679 -1.0317889769975699 -0.6475067601777313 -7.48017234065611e-5 0.8708905450546797 -0.4306724302798661 -0.6860674967936041 0.4507469340355423 0.05620675372754324 0.3897522367076007 -1.2071882668432856 -1.6781042031432034 0.01299572212691909 1.6470694839432802 0.4799638722148706 0.042460030732541225 3.8878019217981197 0.755072130827345 0.07316338729302607 -0.3810351519189337 -2.349007355593475 0.5610179459396298 -1.0016432869351704 -0.6880525992261359 0.26784771393581686 -1.2845076804606033 -0.7880661289026262 -0.30503922961312596 -0.37782619657663796 -0.0058640111572060725 0.3342602785937888 0.12396599272862514 -1.5365396625863534 1.0043692532267714 2.3133196132468212 -0.17861031111307432 0.011995274522071357 0.46373039677938066 -4.108452703239178 -0.3802617052203171 0.2233910687783011 -0.19539372007124847 -0.15912186812002443 0.503960170715976 -0.9152669413124233 -0.12567183853020122 3.016677196192929 -0.48696922453286806 -0.26832680879429255 0.03415497946026011 -0.4388502263770416 0.159371046854141 -0.23355645084166202]), Binary{1, Matrix{Float64}}([0.3089863068887791 0.07337515350223282 0.07207079757654618 0.29683610200192995 -0.21708755130327168 0.2568168290191888 -0.6143249126269087 1.4121935729076092 -0.05450022771902182 -2.0509048874785796 -3.0726071246924453 2.326210539470534 0.6183951926454946 -0.9049677098650848 0.5307552624506429 0.3758687678764654 2.5845184750489487 -0.36169904586792984 -0.08714862434458519 0.0001373988470185193 -0.17943534462128669 -0.4873727664712814 -0.21023184432291658 -0.12889072923544775 0.6452287000518347 1.037840084238377 -1.1154186374217256 1.0427726559793986 0.10516471456724351 2.3387587370734195 2.2267179594457005 -0.11474523216677565 -0.004341111503830752 1.871328642278468 -1.404776140610512 -1.655194028544206 -0.45683876765380943 0.36926857642132055 3.7042956018168867 -0.3454965821999342 0.3311700852810055 -3.921096118928854 -0.7739696250992617 -0.927268264853038 0.2468580769718957 -0.35022612006040454 0.2313514109522134 0.3978686751595396 1.393590055467934 -0.14521653819425576 0.7579043146391319 -0.8497091377140428 0.05600557038261812 0.7850713791963606 0.7599418492302806 -0.8247742894229455 -0.9629263977110633 1.054836302836546 2.408593543479575 -2.6548091288601787 -0.3875744562738264 0.7747908859389725 -0.7656016003749203 -0.578407918404576]), [0.9714045432000222 -0.5676883551719116 0.3197973791126193 -0.08087256590942914 0.04330498856344554 -1.3440199360879925 -0.05101938597833303 -0.4331214896442739 -0.038922833087575555 0.36861509617623506 -0.5471304033583307 0.339319200881672 -0.042473909656922625 -0.6973733737485014 -0.6265076469240177 0.046870731497536865 -0.11378270148209933 0.041616231648591934 0.16977367514898295 -0.619491523679009 -0.34767523484629026 -0.19761701693834416 -0.19038668009371892 -1.3015197823594244 0.7319864010690031 0.5408135654469686 -0.4331738078195708 -0.28995403068242526 0.3376004866871953 0.9842418254126931 -0.7268248944167999 -0.5542014388183577 -0.2142146743186206 0.32871784034102197 0.6030653348145613 0.004483273264416524 -0.08268061575193685 -0.004972518810010161 0.419867529946281 1.4516726397816622 -0.22181166092696522 -0.5842552171386672 1.0472101357556343 -0.34123174199557427 -0.2584547488365337 1.378536709118164 0.6986176852256147 0.22078427274383355 -0.06117701436248169 1.0297346643086798 -0.7406692672622178 0.09264317951716827 0.472284829539888 0.3329629460474501 -1.0997041240154055 -0.596468780080178 1.150279027209276 0.42103700920426634 0.0030098880139600537 -0.13659546816198204 0.15037185136354023 0.13461882627479493 0.01633933643240137 0.3131540389185942; 0.15789146427045772 0.13932945934701946 -0.6834052055473271 0.17213407807988243 -0.30536709458968436 -0.26958482243742105 -0.0190432624091502 0.4573798524569618 -0.01559899199922368 0.7979583429612062 -0.03159776479133489 -0.5705739859812494 -0.014272860808217804 -0.5737771356442976 0.596463762115284 0.3788072641614287 -0.0984324225490368 0.01607690998283717 0.20212450992811554 -1.1928957067562127 0.7611349156705617 0.3040868910562708 -0.7362608500986139 -7.985302852723316e-5 -0.2320299819497532 0.1116102235045327 -0.07383420817614994 -0.6416449456350445 -0.5957314620436647 -0.22402756399410126 -0.934945405698312 -0.8146941574133068 0.7524344853842666 0.5141779335830349 -0.11983414323608285 0.06945962509329126 -1.3773025693383583 -0.3670347011670258 0.6482212449601622 -0.8226036179644793 0.5942410465818239 0.13154476295270606 0.3416465148526347 -0.039134357826871136 0.2367777949524544 -0.2375978551845498 0.44539206823512506 -0.7016956161119882 -0.26852247107790506 -0.1632761529423236 0.07069520777655337 -0.5990614315996173 0.14211835401125608 0.32062350452098004 0.3903718198069255 -0.9096548304675838 -0.004721494258284921 0.633870874251158 -0.010882392615238122 0.9292304870707685 -0.137968369178978 -0.06957719864372351 -0.006295639274092525 -0.04640776139371858; 1.770794397031733 -0.3419481864233315 -0.13422440775698344 0.5829824405722167 0.4503790769303875 -0.46422945100427865 0.562933005882969 2.3659583941716202 0.5787319914568931 -0.006136278601384039 0.03742987594034071 0.5884401752933003 0.2585800455801104 0.505424915171673 -0.008675315413823178 0.8088364958903699 1.201405072350735 -0.0021786401233696777 -0.29919949749527436 -0.11342243582943973 2.20576519343988 0.25621346642507914 0.2798153719783728 -0.3344952970658604 0.09706520089286003 -0.6185423852476081 0.17281103970313474 -0.19159429819805004 -0.36237841647956565 0.003394133134135823 -0.38239837731476317 0.14576753741542478 0.8037004936062249 0.0071376629828684 0.05776271041429255 -0.40095726673142595 0.98196730104828 1.0255650159584317 1.7506660330903412 -1.0297893448026174 0.17202095162562406 -0.9765277954134853 -0.30923886247882354 0.5937875906223422 0.2813791254973749 1.2223073721992639 0.1841421064222156 0.4907728569787803 0.5080912017710416 -0.6205138732305111 0.040492293016407145 -0.002445448746106412 -1.610823535984337 -0.27818800888796114 -0.06140650460789029 -0.24391086380651858 0.6525141610599339 0.8740895967663772 0.07929548936947713 0.8309022861993759 -0.3471881560533544 -0.9398622745407196 -0.9285040766300344 -0.9894154489501479; 0.0808113184201989 0.3353893297224847 -0.09091754834229596 0.26225081526827587 0.3285992559453992 0.5326159773370824 0.30595513938637997 -0.5811475849444744 -0.09667880032161978 -0.39134668677740087 0.4688559749039415 0.028385079926072775 0.05243957143515686 -0.2703142596193992 0.18004151420508266 -0.25522509703566393 -0.2163691195468499 -0.14667408765845105 0.13992680592919085 0.6732282765524941 -0.7808941776795584 0.09990491038498767 -0.323447023696369 -0.04360641492322558 -0.8285682923362835 -1.0484176819826418 0.006376860477866145 1.0581760855110423 0.16456928113615632 0.623054813012482 0.13648481704771742 -0.24350762335204013 0.007841195605162655 0.3506989946103625 0.5072512786287938 0.003491522320533967 0.5268609571507893 0.5275411005345237 -0.12914229812736314 -0.014407332787905241 0.6876840496847727 -0.1443118095138056 -0.04803413688395424 0.15565067756076062 0.48529498162567114 -0.1668055815087115 -0.38097947996367654 0.522562971229356 -0.4458052412549128 0.108285090619302 0.11515908499079586 -0.6792732837677413 -0.28937365720864305 0.254397265003458 -0.37681113710439557 0.09757114282191463 0.6251491703069366 0.18759209897109977 1.3529046606822397 -0.5934998828891764 -0.1393302727539968 0.03752788147043642 0.7930261303046152 0.49821462667022326; 0.05476117276975213 -0.5171028758882984 0.6842951121171621 0.11663643044295223 -0.5494480616319057 -0.01763847355200915 -0.5879218607881758 -0.23191533618537014 -0.02485093483190404 -0.3488991887092629 -0.9552411649756345 0.23080428195876215 -0.1911013251907999 0.437595407428696 -0.007557381489809006 1.2737351366339342 0.4509168175695771 0.6022909800797762 0.2577594399900255 -0.1598187966650199 0.13245857299535152 0.42640762903829554 0.25190448499426016 0.05333815479136958 0.32869343703434367 -0.7307847216441955 -0.005926939721854816 0.3555702340782999 -0.0812620959900304 -0.21403939978989303 -0.32293779663897104 -0.0039059956340063645 -0.11452751552122528 -0.605390952661467 -0.7497722634472794 0.027709601906991618 -0.2887716395704826 -0.36533811865524873 0.5024272821457652 -0.5608719293776534 0.1931039153243365 0.016518098049089668 -0.37664838716217797 -0.0793204524484707 -0.2764059435899112 0.3340316092867528 0.6384784288999745 0.1857119819828186 0.8005072056905114 -0.7060207894073205 -0.8324102441472504 0.7677928364552317 -0.006031079370801203 0.7404457015624497 -0.8160366377724008 -0.33312928621115406 1.0016271182774394 -0.0006228286728054081 0.00938671113285538 0.002926888626909466 -0.24578284896049696 0.08331980925233094 0.3997525563868892 -0.3043122110560417; -1.0157371458588977 -0.21074868937069857 -0.862443871083953 -1.4304935541600534 -0.23784754610128758 -0.2910906304628995 -0.0018034295230528851 -0.17291853810657082 0.0025688394515902763 0.43809812985708974 -0.28149005566549223 -0.9135732494366517 -0.06930805066576026 -0.002199957189997124 -0.22331363775603502 -0.2826168056658633 -0.10846403139309527 0.1932390006226133 -0.0979485872173892 1.0840290481752357 -0.4530504289057682 0.2718713403430354 0.48481751456456307 -0.651341333983277 0.4860321756210599 -1.3950073296680792 -0.009053528705136421 -0.6001953518326036 -0.8065682352908433 0.968842118728237 -0.9473724532166358 0.4939454545670526 0.8335654363564883 0.5068533123026036 0.42376669812959405 -0.2253917862651835 -0.35845131400444413 -0.8366789188527648 0.41034733097736203 -0.5694944183854111 -0.8033770017813897 1.0725202033752725 -0.2586695407575978 0.013416245604859064 0.24503526439639528 -0.7697024213454196 0.22149919530857676 1.1260686571930885 -1.1052835277891726 -0.043349007269283375 -1.064750982874195 0.05883715582247492 0.15121553030150744 -0.008956935836858327 0.020742861828336005 0.07781180401967489 0.46389417247547293 -0.06550416797815078 -0.05555250598793223 0.16818607512929784 -0.0018636281668014136 -0.872257402692386 -0.08235164028141932 -0.8460945723736004; 0.5331854404207613 -0.6784643274170501 -0.16064606250049654 -0.09415748091086264 0.502512526532793 -0.11237470573378931 -0.20788641403897232 -0.3717481697586471 -0.027343896542597713 -0.3654000448572476 -0.08098452873910156 -1.7371903066036958 0.4617429408749746 0.0319946805627265 0.28204923828507683 -0.8415976685091301 -1.0409456674376827 0.4133183418017242 0.25647440078068096 -1.5583898150213724 -0.2373290273648886 0.09178404018225407 -1.0685891186143412 -0.19541543142379825 0.4602441752069073 -0.16871223786460596 -0.7466170089127574 0.03227270088023621 -0.7033366852984749 -1.4972266113944779 -1.351205104129334 -0.3086115525130293 1.7342552807162372 0.03851180736621218 -0.00019963720899898328 0.6951719771149443 0.6939473476890057 -1.3538193825953986 0.8194698612100161 -0.30013998996762997 -0.4750905134795438 1.0193560226691092 1.0472206216126363 -0.7627724257824694 1.2393227017967576 0.15356160615847986 -0.10822878942613706 0.2505592933493712 0.0019767607681122376 -1.3363361981996442 0.0408022565211905 0.14565887695715365 -0.20994399909444 -0.0950019998693599 -0.02111161286073777 0.7051642212317263 0.9101196859657158 -0.3857089031395696 -0.9442229327848847 -0.06443855948824176 -0.06997839013034621 1.0657646381926604 0.5893256386163617 0.04416160966439416; -0.2187267301421913 -0.33416073691245635 0.17559121546489367 -0.09822788854245315 -0.2873167962958524 -0.6814856479885016 -0.06371974783288142 0.02397371843695013 -0.0011145772391421087 0.38720369585646847 -0.6337337069944621 -0.08192668263198039 0.0003912882188452525 0.39068792500390215 -0.19278679268549645 -0.00538787963453611 0.19171648585470136 -0.1519354988527654 0.1606473627553213 0.6765406967863324 0.5194464454146626 0.1606083109789674 0.3643529003616207 -0.1755866781122954 0.3910933717262074 -0.4315203937889901 -0.03009566742691845 0.6522357555528233 0.5246085679196019 0.25028321089296174 -0.3699766938664849 0.11357722902879855 -0.04653705681950429 -0.01077298986766813 -0.5698570342052597 0.35219897366941966 0.26728931725385713 -0.007850510226887441 0.6887852477189875 -0.1426428724142193 0.07541997014684404 -0.07768391637143557 0.33390282026578105 -0.5513283965028597 0.008402406422956196 -0.13979940681219405 -0.6342476230129214 -0.06070021731044925 -0.024607274559308556 -1.0132397173894638 -0.5988955940377543 -0.04291363928651646 0.3741377001392183 -0.223560770784889 0.20454941262868337 0.3288125028705531 0.23124203324985615 -0.28711128350598814 0.5473974710214039 0.8918098238286567 0.3474003443111428 0.08125784341857917 -0.6900830747012426 0.013640477158445812; -1.0741198920637869 0.3978769045187202 0.030134592587386433 0.2300598875167015 0.33921893769882655 0.12501572796551008 -0.013045921322938891 -0.5715547857567685 0.11064178944467455 0.13279971682127958 -0.3575026732107507 0.21325543351494142 -1.340482651152629 -0.4755404664302841 -0.5118419030961167 -0.014500382648197432 0.6354746365915488 -0.5186072141038982 0.38870950512314323 -0.4510625244543978 -0.753192382662433 -0.5242495695533743 0.24990354485121352 -0.6956026737424104 0.733752613796236 -0.7202692945594023 0.5499979393096961 -0.5503496801802712 -0.0031027489836549585 0.2830495540722305 0.05485443275720625 -0.4969348760399503 -0.9226262786303724 -0.02477649261297113 -1.6342009161932007 0.5178610854250003 0.20078479703341218 0.0036447741672455797 -0.44716487483022627 1.619264134230855 0.7042926784521913 -0.1014930240067007 0.2731751055753769 -0.3893549320525803 0.5718424308891426 -0.28006968029764734 1.2165931298698187 -0.7484254639334802 0.06810247684564309 0.6211629609297619 0.9235704785065594 -0.39989799930402753 0.10973946946963907 0.19370946720646573 1.0399722186629126 -0.06355719693789735 -0.40711919608143904 -0.4158375402202486 0.7814884969672594 0.6732463343799604 0.741538867977965 -0.6562727104139254 0.3383329981212938 -0.734752711312809; -1.1427008941652927 0.4221613886238179 -0.005275033790008268 -0.4426182042906592 0.5153040788504947 -0.8288695502075046 -0.002537825622575568 -0.21935331383713627 -0.594406494763147 -0.2865089830766761 -0.18353626653193061 -1.5893789620698882 -0.05940700921165791 0.39806978622082667 -0.05888155114947454 -0.5805937138788488 0.2986145599941933 0.030891570597664664 -0.251202156623539 0.15278162392083175 0.09599737394776416 -0.04770618830696856 0.009839274941034157 0.35471743677243717 -0.2788702525667291 -0.24891750719241618 -0.3774190378122207 0.15610229455536564 0.004572869707398876 -0.12702253993595408 0.9807465147827594 -1.0529163639223456 -0.4757126756168829 -0.30562348587536164 0.09699561626053951 -0.9638537586220352 0.42527055643792483 0.6881442634034981 -0.8143415526552515 0.889168553063574 0.21432693245035 -0.21131971573750952 -0.979133242911649 -0.7501050435217536 -0.09874760065230098 0.39493462562997694 -0.5919681767082832 0.8813380822511905 -0.13919706574989585 -0.0171708495814321 0.41058216310488715 -0.006731758050290085 -0.02018157539684717 -0.28352182428453443 0.275651778979759 0.33813817281819575 0.8464062112982284 1.085127058363327 0.21117508492232087 0.004175055437698584 0.3929912848097731 0.6403641768919862 -0.5360644129004302 -0.39388164671069914; 0.7636174803270839 -0.4013689542146629 -0.19682804790349093 0.5703575590777441 0.6414443254796044 -1.5999995033043026 -0.5692746633230695 0.29527990907081914 -1.0345487895543526 1.3960879720174444 -0.2300436343309657 0.025039514858218967 0.5726202725683459 0.34600345547541855 1.966604723624377 -0.1675357506368386 0.03058108657158991 0.10587698435374782 0.02523195501681353 1.0054981095822226 -1.1453344702388153 -0.18924521484854542 0.00725548237031129 -0.8633455071709173 -0.5326819899279748 -0.06412392344215977 0.4622165333004592 -0.34595140049295614 -1.4775138443745746 0.9087745371308015 0.009698781222989996 0.6005329943524356 -1.0394094345095617 -0.2363626697743858 -0.01353647148839338 -0.4660446003908974 -1.1334525137007758 -0.07348496859011984 0.4472040581837644 0.5840541661522383 -0.2262403447095607 -0.16892298768110683 0.07553504581807603 0.014785841123416252 -0.2814142241485438 0.7390364114136981 1.3907963287732337 1.2247265783512624 0.8854693134983291 -0.009787579528565344 -0.8135131556796096 1.5619326316925624 -1.3287085969255408 -0.37978999830471893 -0.20632798944709105 -0.16817111545858768 0.8968881839573719 -0.192935037910655 -0.19265220175569434 0.002960820119907208 0.3266140574857791 2.300759671785034 0.8438468090707935 0.03643903796138282; -0.19609286050689861 -0.6173142794458746 -0.3695114804734146 -0.5457741238748015 -0.5892786126100816 0.106204089948213 0.0009531433970291391 -0.23578862778522405 0.05882130092170667 0.3906909657573044 0.6266431293835928 0.15986003094744722 0.6327095308953519 0.5737152822919782 0.3956134130634262 1.0080778596949076 -0.601261032569719 0.3458193496686392 0.5999566849094468 0.9295071199381255 0.013663098304060019 0.010231619231612045 -0.25489590367318865 0.7381744444494619 0.0012152667948687867 -0.5771830649049741 0.28176972781716003 -0.9486575222455861 -0.017023506564130455 -0.5446637384088674 0.5651446309102781 0.0973118074329974 -0.22711565214013207 -0.18319759109684108 -0.3714522810464244 -0.17901332606815967 0.9191719712149022 -0.03159077296428181 0.01105462968359175 0.6024921732094293 -0.31674504180474844 1.322382955607112 -0.5951651067893265 -0.24841883156713138 -0.3841791356857217 -0.5029593097979763 0.2558432433503496 -0.4235494403669016 0.2839172052247486 0.3937281685415036 1.5690287085078511 -0.6229775061079174 0.5212923661626939 -0.5463767160460298 -0.20418805119107716 -0.8177575031011719 1.5646725527190513 0.9869331199127331 -0.08306933566373796 0.023136382562914958 0.9207823443559139 0.107046803698416 -0.32239276249233156 -0.17885093134205418; -0.23858800632673374 0.5993704266112766 -0.043893897971318936 0.3356551524777561 -0.016874513825891526 -0.10810361735263117 -0.01803014140036551 0.0793526351229897 0.23348246368839354 -0.23397143133300655 -0.9356557733824507 0.30962006069953046 0.29577200428747785 -0.18712022017866597 -0.8317717811755853 0.983218839561699 -0.7096634434549819 0.17546798132789176 0.29169646057671345 0.6567199193993973 0.5166028487887258 0.09434778384378634 -0.003432982343421992 -0.07514219246630628 0.46812851107261566 1.0044482160446988 0.4758632010518296 0.04012498230236062 -0.4806028249339628 0.7036789751693009 0.09114108099253826 0.16324960440504335 0.5068669406966535 -0.7494590988392629 -0.37345204471581195 0.07875961347134464 -0.20880594864607802 -0.8530054893319341 0.21159515127926165 0.16624751112394462 0.07866467331648294 -0.0020944350270850963 -0.699787270098963 -0.2753769577060677 0.004309171996881631 -0.04415149626601805 -0.19464457007284572 -0.4049361163473086 0.5047305165799103 0.11420036582575926 0.009497282007946617 -0.31933563020936084 -0.18182214959915058 -0.23906437536428674 0.2011509237893539 0.8660447900123124 0.439537965392372 0.28551877432953726 0.5148297630573054 0.24981889153254333 -0.6001252332697845 0.8755365495926025 -0.3292045275370632 -0.17102063735499565; -0.6128825274655034 -0.008449191348349353 0.06951226827906824 -0.8248252293945397 0.3228268799400591 0.004350878031475757 1.0148824635233824 0.09774187436658097 -0.03723496868711102 -0.018579275058098584 0.011041675445455043 0.748706400422359 0.7417749269747594 0.00629221589714276 -0.38261255731640836 -0.17638448527057035 -0.7817814786782025 0.39340672339912813 0.13775196496689457 0.5180424627298977 -0.1527639856713065 0.06174972982190157 -0.2799465454394633 0.47008272159006614 0.5279658542971178 0.6261986515381229 0.21010838425542921 0.6789694694258172 -0.09976400051498237 0.9470063440275659 0.28448850676342513 -0.15467063780771179 -0.10368394406263819 0.5102982836744515 -0.5385531510990376 0.5294958121966654 -0.03541334824104696 -0.7137073206887349 -0.6905353386336422 -0.6994807782073227 1.3060270319453324 0.3392388348286971 -0.8304083311727145 -0.7342313021767691 0.39462750299344174 0.6488940711516376 0.4651674187281488 -0.3017936505045909 -0.9607332709950405 1.1444113156586222 -0.14167002662294187 0.7737844149784506 0.005476236055479765 -0.38836469095293796 0.7140388449179753 -0.009787036423923092 0.004622538047982795 0.43634824862346505 0.5719851841795089 0.005046001424705379 0.6338704038697038 -0.17401694522077812 0.39775153825298437 0.7711257615900271; 0.28883219796227344 0.04126793400486131 0.26684194802163347 -0.29350275805293496 0.3877120321706513 1.173053871965911 0.2318851730112333 -0.3907852198969636 -0.02433244154216085 1.6847672161323266 -0.36871785510303795 0.26758041158724993 -0.09916217074280845 -0.23597863087028345 -0.12161192360686747 0.568433053097765 -0.6456202057944075 -0.6282526481626397 -1.0426747191628565 -0.16750229818701629 0.22477065305346436 -0.8531430539322652 -0.06078330265800881 -0.44679481651657915 -1.142318225182515 0.17726518123343982 -0.5051448667611482 -0.2831763041818946 -1.055668560031908 -0.4788005672858757 0.06364685451614496 -0.6903767019661552 -0.6295055440035613 -0.9371718698418812 0.13739379064758753 0.14813673061434768 0.6479454119210472 0.09999963199461688 -0.9002031933746327 -0.02262325358763565 -0.9383097651722719 0.0060094536980453105 -0.13173744915240884 -0.27480154020749387 -0.013527749151983357 -0.013746415039222633 -0.1020410278418979 0.2324567650427124 0.3095174043400461 0.3051005144704459 0.12657030978831954 0.039147275865566766 -0.4978902176245215 -0.025862467654565548 0.27488698124993255 -0.14102071776415723 0.07612194312449427 -0.1634335961786849 1.2946573801527321 1.1955718147532364 0.9877374696084882 0.1406966308150821 -0.04700452270670161 -1.1319239904180471; -1.0710129702607167 0.21767930211472497 0.6009326690397426 5.84368836571402 0.02099583213608949 -0.5376155487139858 0.4249629674967081 0.5157471157650665 1.6260445719236802 0.5762161185019529 -0.17578730881374605 -0.23065123222881193 0.6014507686251107 0.7515759682764522 -0.35254619279238225 -0.33532780016719876 0.36714705587871366 0.41071390198607255 -2.2073468945751697 0.4977450150134046 -1.737380674197685 0.6515681854539163 0.6070953054345144 -0.3635735587929844 1.813743499331836 -0.1816593814575572 0.7952551554068181 0.1857630484258941 0.7856063705098498 0.052813428811472746 -0.28403956790269663 -0.4193036663467831 -0.6598505593235668 0.6811337945954221 0.1337423636545571 0.0684112991088229 -0.5913764980596932 -0.8860366647508927 -0.8015481151428203 0.004489920981794753 -0.2159069699986916 1.4559889570989037 0.463469971599294 0.30448520521313255 -1.8192590867021392 0.3441114453104343 0.19672336571248303 -0.03012748319276257 -0.8512842653424894 1.6914824218869913 0.8623432412908396 -0.05006490521334918 0.32937026158469535 0.9885199898307037 0.7289267752300028 -1.049639447868954 2.4288981707281097 -0.3723705561871339 -0.4812234177094123 -0.7631726772418228 1.1611747873305753 0.5623242414632341 0.6085770767318256 -1.4922218191595809; -0.3670690017838025 0.00034672929019043445 -0.14367349592042988 0.22494151718138 -0.030922905624042814 -0.4400515824719778 0.994992488961678 0.616667540821764 0.7806481409883264 0.2626859277074107 0.03201287767548369 0.011249554146154948 0.0049737446398843135 -0.9540618528078989 -0.4886351093430498 -0.5655918994492104 0.16179872204065462 0.010822795687396572 -0.013458229364665649 -0.21700702608337247 0.07860062030719343 0.2014821638978617 -0.25220160188868546 0.4190241356629247 -0.726031537700182 -0.4876306561686356 0.01482133429258624 0.30451143350155074 -0.14707993186980353 0.19855077126700577 0.0626582219342488 -0.12109239339987557 -0.3393085677537444 -0.5484367965709197 0.051522180664648136 0.343108319459612 0.35002635935004456 1.119961140816382 0.7052240552005321 0.765323019501143 -0.01187419661315455 -0.4434899196803299 0.39319965755681163 0.22109394616899405 -0.3659855445850407 0.6006704578595319 -0.8797144450804891 -0.4253934081584484 -0.17273214461401304 0.027563016551224343 -0.5979346860313344 -0.151042019873302 -0.8280660454592959 0.8993054524539776 -0.628241012293593 -0.3045764204517424 -1.206698106747249 -0.288754365903464 0.21429853209347527 0.820930208810595 -0.16358657692068343 0.10377164473909638 -0.5328013061246649 0.20173980283544965; -0.007633098287215491 0.9225051212402001 1.5560551408635954 1.073368372994234 -1.3780508819271984 0.299788439575071 -0.8245122993609688 1.2677604873741974 0.3158923901949239 1.0043992037527076 0.575272501647343 -0.056787273671342085 1.8955138611590638 1.069826090355624 0.09225931070072592 0.6975542587802408 1.0003045342430563 -0.10398292884958091 0.18716220000454725 -1.0094821968953247 0.7160872758466559 0.3414779277645562 -0.13490354962030165 -0.7704507358480341 0.05666907673657155 -0.34378088412706814 -2.1155577254232982 0.7386928739329313 -0.3650653148296349 -0.013052971987425752 0.9360161761933181 0.21695217962947916 -1.4232387256923764 -1.6165660688189953 1.9689954584785612 -1.167960156345143 -0.536176721528993 -0.46984040908784985 1.4191851792814985 -1.228288359647368 -0.7175056724835513 2.7535137826636022 1.0261482303648415 -1.5774879534533304 0.19582737279002915 0.3693796807196015 -0.03030857680146562 0.30239599403737694 -1.2488873746479139 1.1632363807802075 -0.2098367022021353 1.3316767452944995 -0.28870838531135246 0.4584859130494873 0.9490607752629007 -0.24798057830647435 -0.586801277690782 0.5762051654950583 -1.1956615550530718 -1.2753102259917506 -0.15121127244622182 0.44325664970122053 0.7437154633108428 0.29745417882170816; -0.8007546855822258 0.4509394625535969 -0.3457172321036446 -1.1075746197254044 0.37039582637470614 0.006035564504296359 0.7441378300128969 0.10680508839965554 1.1579593554586571 0.19634438403191784 -0.8640979328266337 -0.6504398040531634 0.15935983986531746 -0.6800907050487637 1.0028945502898516 0.6219334385144077 0.833352340431619 -0.9173468224634562 -1.165655270325043 0.5350156645624675 -0.35799138082962556 1.273931542747515 0.534128288431123 -0.3019268136632582 -0.28948055092075115 -0.8215672633799216 0.0012975305794439276 -0.9104011548388375 0.8929474155142508 0.9156732688629445 0.33773985823087777 -0.19628913365055958 1.0198938177840957 -0.9466189159021511 -0.8589645992697836 0.8797329982487887 -1.3881212754072252 1.425953357470043 -0.020473774783992617 0.3225518935438988 -0.5649610978894746 0.8899750504869256 -0.8045865104907421 -0.7615714619963933 -0.22882307786486922 -0.15418144990987032 0.6898273656029362 -0.3435847056123011 0.8458852005660102 -0.001856629678240455 0.525121427330166 -0.06309375994826355 -0.01218305951365328 0.26456663521229107 0.6534830135632023 -0.11082957960702013 0.5811942611968908 0.5785166119706676 1.094509087154581 0.42493195699346803 -0.18427104989171897 -0.6085234331278447 0.31157310574990366 0.6205066199276904; -1.3924641982037709 -1.6876633677054225 -0.9725039836467918 1.3117347923882552 1.4346320646053723 -0.14663382838880878 0.6420711020511373 -0.20944633124127768 0.24798004412206517 -2.78718427542218 0.011541725639460942 1.6669095420003102 0.1269146626548435 0.12952601748259493 0.8305417902642217 -0.8840366013265876 0.6209237966680234 -1.0457240445882139 -0.055308505175747445 -0.1418802421516554 -1.4054959145315193 -0.055331795119159435 -0.020588559008285986 0.37811173714677054 0.31413607520027653 -0.4783652421441001 0.10464155401470202 -0.6021498892959205 -1.6090737264533208 -0.9629431370561655 0.2646997188994758 -0.4916821987005048 0.3554623665612612 0.03121497956263702 -2.9848421609489937 -2.022697558024537 -0.4655764076320012 0.31026489040159927 0.20698873240483254 0.6913156655318577 -0.5029681622103404 0.026899103630778166 0.455812587706555 1.0603349612126103 0.018320359632275546 0.5785979913524413 -0.006887299101790403 -0.12283014543303403 0.25856869816189565 -0.1852984973370602 -0.09012841941122364 -0.3290121596235825 0.10532387523259876 -0.28887873666337155 -0.24143210285278005 -0.2088524417592701 -0.1925997964705767 0.013782247228907512 0.10894877321037279 0.06347191577363538 0.3170362310513073 1.0673201357360929 0.9290501803299976 0.004900709559742909; -0.48868375829791705 0.0007739006687634805 1.0240602621979062 -0.22721131267491568 0.28089206357250274 -0.364161327055978 -0.21224169986467945 -0.6441545466002011 0.6734012830295822 -0.2660294335752316 0.272499103932939 0.3728124699951297 0.06825252922322884 -1.1439896413085662 0.23861477628079394 1.7777251494535085 -0.23512065157682896 -0.23138309606218282 1.3977015056650657 0.6671763682661186 0.6917549063980832 -1.9224348589290816 0.016352031025880582 -0.15488242425164467 -0.47457072113938364 -1.027941015242072 -0.37050252096782194 0.4722855730314365 1.137848684153501 -0.012328541743844679 -0.5895235488939384 1.3876158913621373 -0.013879357282647498 0.4054512190201969 -0.5834345270868525 0.006405236450522348 -0.31581675532352194 -0.01973885663774036 0.41562703718196226 0.20258432925203662 0.1765712358684949 0.3217959357326065 0.926442340125111 0.5419007222061653 0.3433004515510819 0.04758167563937532 -0.61099623778548 1.278694721894375 -0.21624020878524558 -0.20257526486128086 -0.9813829138193317 -1.3651921422604425 -0.34163939776244096 -0.0038489646429384463 0.36164924942091337 -0.7272170837904839 -0.009169599357316873 0.7249670569216579 2.0502905110871277 0.6144209932269138 0.6136452259816868 1.0017813825629351 -0.1851531556252641 0.6872935672244634; -0.11429983454172798 0.3323436167801245 0.12401512600760077 -0.06085526131363481 -0.5749294263925817 0.028534935505026376 0.23315182291606829 0.726270265991 0.3687194960883789 -0.22890601167536376 -0.3261716424749717 -0.37613579612118503 -0.023379538142967483 0.34778016799374417 -0.7918023646149095 -0.05621770427283848 0.20474338511669882 0.244835931772607 -0.020640057940085808 -0.33722244743321483 1.4471953903588715 0.6648567097430703 -0.546464052533584 0.33866877298336423 0.7610017346959457 0.2514604875383727 0.0168106627096647 -0.5182658293465274 -0.5624640861179409 0.9247705003251221 -0.0014210162903607144 -0.9390582231125737 -0.022657406173814284 -0.2610325611282704 -0.4747869489949035 0.21842068372394718 0.07078813780245677 -0.22538403081912803 0.24686787519498707 0.00047742721398536924 0.008583062594959306 -0.0007182445783025864 -0.18872821485561855 0.5044361979248603 -0.29175603336195294 -0.8873287659963176 0.08551346804513277 -0.8969276468758495 0.28387375297428913 -0.2719233577235741 0.5381817294764717 -0.031960818594000795 0.2644479284175546 0.38707080711153813 0.03861220671356209 0.6595557584539711 0.2119022924485473 -0.036099455923581734 0.3037930450381694 -0.746149728704131 0.10889668243557404 -1.3350426764036658 -0.32653986886057845 -0.00823504469878426; -0.25690755744576266 0.044017369890688975 -0.9478210809391845 -0.31502041940059894 0.0012577620009656015 1.473518925061773 0.29229568242025034 0.08944936479992584 0.49715053033631473 0.3015856498298128 0.07787268352301167 -0.07234454693286642 0.14278347529910132 0.2693337283665903 -0.6202710406377574 -0.5033434513699326 0.2873595863373588 0.08215999525387457 0.322140950942386 -0.2901128828721347 -0.026710242047599777 -0.47806403732079544 -0.07814287114229197 -0.3195982607161377 0.8344251527118905 0.12076594968644516 0.009906203583732082 -0.6781096995156835 -0.7890507872634088 1.5370845074000499 0.3736638141511147 -0.7050926856956952 -0.8001258771282681 0.9934426855589086 0.14452836051849305 0.3258892636026755 -0.3940265180017777 -0.16702007741343003 -0.47029600117285447 0.6982949965034582 -0.046132804128176344 0.26342450276582724 -0.5389623931515224 0.6051501101604715 -0.5106200190954947 -0.3248160125233079 -0.01985577242850056 -0.26227825326401083 -0.16319558932830144 -0.7579880479439971 0.04304857006933392 0.5411319931857642 -0.5748403425876589 0.4873983202463891 0.5717506757414658 -0.00605692788556942 -0.9141066568040247 1.2288762882027522 0.003295498486209648 -0.455025754035336 -0.5778587368430078 -0.1422149356927275 -0.04502510012084633 -0.40354355252855256; 0.024124009939306 1.0424072690022157 -0.3869478304270675 0.23993681216771845 -1.2898168710561653 0.7129216458853951 -0.09757572567307572 0.20623096851419093 -0.21127754883059632 0.15680022360942522 0.11419298904738957 -0.17675181768647155 0.022225583813595507 0.4258853476038058 -0.007588165770101011 0.1141248338798218 0.007701432720577218 -0.34071358448689776 -0.22573945039266566 0.30652832879772857 0.699394406521881 0.47304740482011076 0.19338999110701574 0.41787157904589906 -0.08364802658299174 0.11863330306900853 0.4405490114338412 0.1642520763843023 0.0134762800489026 -0.019282091064632086 -0.007270277834408314 0.5122332289421028 -0.04595332213213953 0.6941395274400636 -0.7978577440871372 -0.16260846938655982 0.2820086261579657 -0.23368569841254527 -0.020315391281092 0.9354383827368424 -0.17348574862808713 0.3704090494290379 -0.07040549706874996 0.20910479308339022 -0.08216262141174753 -0.006777913965329467 -0.7971094290379813 0.007906014771988558 1.7521431232593627 0.003266522271768076 -0.34416703340532395 0.2070181234645617 -0.8390931247883778 0.8195686419149304 0.9254683046448458 -0.042771974706200706 0.17181349482531436 0.2801456261754026 0.005905610917308951 -0.44377233030210417 -0.19180760997263577 0.33100196342230565 0.22676923930934398 0.3793463526812296; 0.17654056073138577 -0.6905840455397362 0.6377632139343539 -0.26444153541318427 -0.5798480288250872 0.6425695441283727 0.2435098351213307 0.21094191178786723 -0.19937791024440474 0.09229096571218827 -0.46599274590236844 -0.38109578285832085 -0.44514486750897275 0.331823767814023 0.6729340713380146 0.27710592139248374 -0.9858820376043658 -0.14621647094155044 0.07324035930872189 -0.7247221150853058 0.04501662262139803 0.7041668167451405 -0.22104489519193854 -0.6513901909908993 -0.1928208644204093 0.04643021582452568 0.1776571645764398 0.9301635874917792 -0.21806470684374032 -0.9560209152491844 0.07840175164948453 0.8872757178988416 -0.2418123297808533 0.6800386592107354 -0.5254723597318466 -0.798242337669426 0.03135044260497447 -0.41067164110618554 0.9501777601798689 0.7559133228902444 0.23400101257098313 0.5364771041852283 -0.020646630664038792 -0.17259876345613598 -0.6605105868411387 0.14516202779179246 -0.03622471592795155 -0.19451920615715237 0.0018677138117688284 -0.034831258545461985 -0.21881647766486656 0.149909047232337 0.61218378582821 -0.2730837487476279 0.004559355139651887 -0.1761483856903539 0.015949713881050077 -1.0729911137542585 -1.0419725119500665 -0.39225810557193186 0.18433657428193453 0.31721092761108116 -0.42583820131992267 -0.09896732664345183; 0.18258525927009928 0.06483972448975373 0.10172216946134628 0.17958697056598727 0.25845419915527157 -0.4127619098722006 0.21356173494547914 -0.28944419852206205 -0.8666521433438626 0.30700751593907 0.0033478083358460986 0.3781148208650844 -0.026826026447928603 -0.00012370947390018705 0.2675553051819365 -0.01433006431268261 -0.17134234162854103 0.5652922568419171 -0.766949582600583 -0.3541527617129842 0.00835812759526285 0.6089946592767809 -0.35273543829925175 0.8457490884793968 0.19467080216440152 -0.18212360902477379 -0.541007742888335 -0.11493212636059108 -0.02322774188648443 0.6094761999553779 0.07366431023359092 -0.002061857344144714 0.1101474988859833 -0.408408349079739 -0.059086832928483914 -0.014107655885829937 2.8435168219562244e-5 -0.3385938970725404 0.051130706464243725 -0.09959831137135433 -0.07004265360261264 0.21341079679725175 0.2986124954487759 0.21804196539088222 0.34825058286289673 0.9707184077611962 0.009724798871435165 0.27160598608554243 -0.20765294483610913 -0.46341238553845804 -0.0018299109295951406 -0.700071627532782 0.2667205840185812 -0.18603905531712814 0.530085589725383 -0.7103343277772936 0.7197052241848864 -0.28599093086670074 -0.3606180759447199 0.02452039423898233 -0.1921042913765322 0.45372822341389346 -0.0016779799527386415 0.34304077933222965; -0.012772304521089668 -0.30740811258811424 -1.331400314314897 0.3766613055183425 0.685319942091156 -0.013747546946619331 0.6653285839841157 -0.7730767093962947 -0.4599496840267695 -0.019507628402759422 -0.1661788824266122 -0.2835111671418852 -0.2820693179053883 0.8084924668281854 -0.25849967597728657 1.1213573526416947 0.825393904649393 -0.14482307115716034 0.0049729731491120295 -0.005132731084895259 -0.5644060931616984 0.4620294291489186 -0.005591922922376227 0.38856872822935 0.21486044856833836 0.80284831603228 -0.011353763155359062 -0.07682114245484893 0.327366095177441 -0.5107081742472588 -0.5415159133876384 -0.4118863831672952 0.09187363944991982 0.3278059619380608 -0.02046333375368251 0.0034172795735427754 0.20158062577981553 -0.05970532522023638 0.363542335518823 -0.13587530231763983 -0.288467161032481 -0.648631248277641 -0.06441519469973223 -0.9426848780858599 0.6081641680491622 -0.6284346246770001 -0.4252964358343241 -0.39735356831543567 -0.27319820803363487 0.1290458841907308 0.5014153143110804 0.3000348269749025 0.10508489633332056 0.056715671095089445 -0.7615187467282042 -0.29349774232148806 -1.4502731756278155 -0.12868068856760823 0.0008762564225077989 -0.5024602401041404 -0.2844509375079735 -0.17617065221922337 0.5563481881677778 0.31550721408469345; 0.14781072716117563 0.13449666673497834 -1.0837237526768173 -0.6047355955896203 -0.09785195555758933 0.6627105760503376 -1.3736926529175562 0.07371571592591278 -0.8382613738680534 -0.4256556931778497 0.1103839230508377 -2.1778451806177377 0.5575164690443285 -0.9370474604870723 -1.132910367570763 0.11387400218907122 0.23361954825653058 0.9511143662129579 -0.5548539027444509 0.6191738343217312 -0.32213293057194947 0.01593048257560951 0.7654990967581635 -0.5210871635281763 0.3629044711805575 -0.6416929416208778 -0.3571438137412729 -0.6484090667257968 0.4412023089473841 0.10960566059115881 0.9201259529959294 0.8333550208780157 0.11350865014397199 -0.07270956349958979 0.12966326334599274 0.0626706412019747 0.7254851220707169 1.4082872281280614 -0.35356865165991835 -0.2724854730941718 -0.44291306042015305 0.028674321625022824 -0.42679059418491216 -0.5525118605527662 -0.317776646815988 0.5846985447180905 0.6293147668618654 -0.07600205213039435 0.9935086484509486 0.3373924046790264 0.98139057583664 0.04570889995669258 0.537895579162973 0.22408618933653385 -0.027174590852271873 -1.131614994051653 0.037162235033960746 0.31753171491113863 0.010413928329629908 -0.3034016338283799 1.1234604155680148 -0.565796261234205 1.3906895928370528 -0.012980601884796926; 0.7673962190772081 -0.14063281848056505 -0.1115371290082496 -0.010028367153975341 0.43148555100004754 0.5337670012941973 -0.26305274358946773 0.3220881087375483 -0.09583163674029999 0.8262181747822755 0.5552180330998193 -0.09711073985100233 -0.7263964902399961 -0.08626903835186595 -0.16528235218775247 -0.27728154443195796 0.5104569451108736 -0.7725581440021234 -0.59637159377868 -0.5567112887585386 -0.5206355775722348 -1.298050756899361 -0.2674694900564947 0.12380266350494033 0.9197798139063991 -0.011356514009128441 0.08712864277018603 0.38265435095946293 -0.6209699191398548 0.9545852670111495 0.2424487025366124 1.2227125406537678 -0.43727443445839864 -0.5140670460373495 -0.20962410228175224 -1.3893778663936205 0.4221476478680256 -0.1500412917549846 -0.42506108702570816 -0.49596927681097686 0.15501628056846564 -1.0604679288130812 -0.4363763581216973 0.24573549332450076 0.35278135693435664 0.5533617085020153 -0.6887240247765041 -0.38571319737172743 -0.2210127962184863 -0.029756384064416073 0.130981719744322 -0.7651640528151525 0.8830354379129045 0.02684534531214514 -0.35819136111001304 0.11526158295060107 -0.3997137654026101 -0.6645499051590207 0.9970900443966394 0.37745499272634486 0.20532747407698057 -0.6226388077052841 0.04155837363540744 -0.11748856062770148; -0.1670868938502746 -0.30917088262495124 -0.040433699231610186 -0.1594967022140207 0.06989081280471428 0.11476467123558577 0.10613648731266755 0.12307013012614632 -0.6078149113668131 -0.017912551178442294 0.13461101076174453 -0.02142062847372643 -0.5385372249138408 -0.1554987027817411 0.15125122287940718 -0.0010193463979736917 -0.4692059542866682 -0.1712477296103447 -0.31858138696478194 -0.503079222190354 0.28006008861837917 -0.03337816196730066 -0.6343695369651597 0.1865797263028711 1.8934331833647042 0.007369810790009765 -0.007935970590185682 0.020988438879119546 -0.03826578979674694 0.49668040787423956 -0.2839933099844424 -0.24571261557298713 0.2705274566460384 -0.43719761747447083 -0.00543427710150142 0.46958676682324446 0.012355536256694851 0.45444957031941635 0.34833161306803856 0.17820913336056782 0.09831579750833412 0.2030616158628716 -0.1756357419099427 0.10196228423029362 -0.028264615849276063 0.19677097424954249 0.16728238915389754 0.47818627465824765 -0.3080357461571269 -0.2580809937732285 0.35545848826125664 -0.6303384805370391 -0.650458766866727 0.3788360259735793 0.3571687048262681 0.1848345129718342 -0.0009514140333576583 0.7446544319240932 0.01760410327863736 -0.20986134959406144 0.26721383885620464 1.500499263934026 0.08714245087857198 -0.3943418779373303; 0.1974362896458864 0.014740547307865679 0.2621978698174696 0.2565109770336914 -0.02123081805721807 -0.00778159186459768 0.26393405601196507 0.43181543826853 -0.4440948632359327 -0.2334172397239072 -0.25169543866131744 0.1765647489991963 -0.32023167303471767 0.44043199922521703 -0.17584746851851013 -0.9842536799642392 -0.02515163101611377 0.01011570093982309 0.8447404984787504 -0.4626290869818439 0.08538485973735521 -0.3280243317263927 -0.06491837750336052 0.18224524086965674 -0.6849173225185028 1.0829082072877332 -0.026418018048489044 0.659572180081944 0.42124197544812975 -0.36828953903445794 -0.3660008712520142 -0.31780717569451633 0.09589121446035564 -0.04763489216197823 -0.21679553581614108 0.27927007561019596 -0.3394119577290627 0.01115437351106506 -0.12486680192474679 -0.7504674947566942 0.2573542628967641 -0.4753560047598352 0.2039100064777636 -0.19688110777845896 -0.33426891946194515 0.5387951849486761 -0.01187352998099287 0.4047094304950261 0.7775804126973554 -0.41146388778412496 0.19480484895273045 -0.05474863710534681 -0.28067980433219847 0.0065838545199589996 0.1771767005708734 -0.9408544739950131 -0.2730170238203626 0.9440385952409616 1.02340653505591 -0.6552094298338496 0.16777645547891223 0.054057882304899524 -0.012965958362131066 0.22082363386744858; -1.1518504878429034 -0.41892847764039454 -0.4367567151261496 0.7988133823291235 -0.14561274501871155 -0.40409892124314517 -0.5740544304822014 0.1182230521077112 0.1333040781098549 -0.43437563710475685 -0.0035565709752111243 0.08973280535403856 -0.43068177597806717 0.30164985126643484 -0.7214574838815444 0.6790275792717475 0.38948791219765516 -1.1036598576987215 -0.23636918709158675 0.5047709885961446 0.7731543194662075 0.9448425240734599 -0.3332027306818911 -1.6748536684864404 -0.9825967626368971 0.419240619508518 0.0791567633638415 1.0324517500285315 0.062472124040131104 -0.3258534038510521 0.02876071761184091 0.2363732575605798 1.289599407204831 -0.002290373745681845 -0.2513098976208946 0.2111164912409876 -1.6477002348768954 -0.1085399202840091 -0.32844704915505 0.04251399526483586 1.0451542005029424 -0.28276935686681914 -0.1302479737848126 -0.029598474599469217 -0.602875829120518 0.13636812675965723 0.9603919042745906 0.9469862013722442 0.0822874163567489 0.09536723306138527 -0.015040256843268183 -0.251257678772372 -0.37379467203772443 0.4164503642683332 -0.015235754105315026 -0.11055036595774423 -0.012685268861378727 0.0036798225602348027 1.1531889250836724 0.1083923419002194 -0.329380703892791 0.5131077391884102 -0.24674463802271546 0.09590375828396654; 0.766468885831612 -0.19343471074459237 -1.190254629340666 0.13998708182100525 -0.8849240509655583 0.4378965169430049 1.3515328184135766 0.47076821940173535 -0.26724921455273104 -0.31900363561029127 0.44468382764426323 0.46606743779732374 -1.090333025353897 0.26452182469978613 0.3713846851025372 0.2712889418577895 0.7339741687013849 -0.878934346699189 0.04214831051328677 -0.5568021428149752 -0.09747398520751462 -0.07439029468141502 -0.931649350278621 -0.847237135711629 -1.2042593555845853 0.05310036604687255 -0.18555112252573436 -0.7749106688900143 -0.2298298381606822 0.18227572285013122 0.6399059569639588 0.9756715412262837 -1.2941214013470113 0.0412092167399419 -0.0021697535207112362 0.3743650477535881 0.41032427926994436 -0.008957135874572078 0.12556102694442872 0.061928312600397474 0.9293338097412844 0.05307912688899051 -0.2586769914949707 1.817148098149567 1.5588092862905585 -1.8621214455664565 0.022174779110017043 0.8273331150960561 0.8149276494497557 0.9258957727734989 -0.49270737629188244 0.12956916251766334 0.862208790002376 9.807843915589247e-5 0.6603453929012384 -2.4483909893367843 0.41747933398530035 -0.5804761214158212 -1.0886390886339934 0.19919429978189748 -1.2935370398862316 -0.18298860408177614 -1.1840147468523896 0.966550172638651; 0.4507012338570939 0.877206757164331 1.536336258249733 -0.12301050464443004 -0.13129625351163854 1.460699678010473 1.2615906986913907 0.7697811381035992 0.27716826828053004 -0.8358079550840022 -0.04214294739610553 0.08577673798628022 -2.3753850074745015 1.6395316043169201 0.0008233277443267024 0.9658647769475027 0.005655265567288809 -0.1684403916399271 -0.0197897530520392 1.2684400749915477 -0.2504617327722845 0.042760655323392155 -0.7243689147426352 0.09787412172023667 0.017495562007101118 0.3365450490577928 -0.3968183180777081 -0.6836022486297524 1.2227936560901373 -0.34520567378073425 0.0019257830104913904 0.004332684557929322 -0.3382085939534362 -0.7020024065607283 -0.6750112524582861 -0.39877953391031273 0.34742809090597776 -0.2506949501294699 -1.6011693158477938 -0.6713945395263557 -0.7522684728752029 1.0605193392231997 -2.155613840885112 -1.4403288381871835 0.8808892323411452 -0.11146218867505846 -0.07133420918889061 -0.16542138058712308 0.6021098290091171 0.6618279560447597 -0.8021657229961399 0.10435052396267128 -0.01420057973700928 0.16116329756109102 -0.004241665854444501 -0.5526696145266362 -2.823326829628579 0.010016164880445915 -0.5290634739268235 0.05510645705276225 0.30750893990521017 -0.23490582225943824 0.6339776279016909 -0.003515437871227924; 0.06844622864608571 0.7016128898404098 0.7975517386719055 -0.050508597004238785 0.034447676942643626 -0.864065649820602 0.02472802909304534 -1.4741740025066532 0.12288087987632945 0.30581110216353113 -0.2700687025087154 0.3773942374124053 0.4102422729255844 0.8417310961805695 -0.05182556904311825 0.7317918024639796 -0.30277373643845 0.2071265599594651 -0.64027506460389 -1.400066701161753 -0.7665183337604593 0.4133639021991279 -0.5836609170669047 -0.3553959340432561 0.07447458443536957 -1.4313947974120271 -0.11443897411571438 0.3373701478083852 -1.1372195479966358 0.3264202290408193 0.8309212983995171 -0.8668300676929165 -0.004925351316180121 -0.31937019815500317 0.22852474071469994 -0.041385921215473694 0.006062448659553915 0.02441935767158565 -0.08206804354585305 -1.1155736571245107 0.4100920817510242 -0.0005031543516205128 0.3511655606424954 0.035224464449684426 -0.0035475137916306325 0.6825601292272678 -0.24477305106371172 -0.2257305659578186 0.5842816670074603 0.002107553040144934 -0.6080405077227755 -1.0947632050755145 -1.0662305509248169 0.5783111414437875 0.3347782575815378 -0.03995949368635608 -0.41141365200652436 -1.9656605886789316 0.2639695359908407 -0.056355056319534955 -0.8396538809699866 -0.8406550959663465 0.10106506386127874 -0.9363172387015072; -0.043533703417235184 -0.3232879619518286 -0.0054700309283778 0.01683222855512945 -0.06306001178183562 -1.1486035379409285 -0.43573345569449534 0.4083459792809021 0.18093284571664894 -0.6766337811015009 0.07186954821880055 1.0461312608401443 0.08770123786596846 -0.034924282429780004 -0.4723861813941686 0.7051962997562833 0.7557766203271787 0.6306562810741639 -0.11791293565545094 0.6029447893111247 0.0004016052944287318 0.42867762246237584 1.326665338858164 0.16606874348045436 0.24704911562758813 -0.32200849697785816 -0.43549069044029637 -0.13165364812258193 -0.2692199642873286 0.2748680811409571 0.060337115697425656 0.26899375174679574 -0.5586869100946392 0.06644981073166747 0.4246611995732245 0.772912014419777 -0.17359671156294337 1.3490409299825536 0.5388536083721863 -0.48356632552216494 -0.5666074922184279 0.747101347513608 0.35608521977024654 -0.03330941268559631 0.5522066188449584 -0.4250173952252445 0.2912651470768452 0.20557698884819486 0.49113967489212673 0.04990521635337547 -0.011138239411202852 0.5341658925634118 0.27527195552913825 -0.8847380683049971 0.37084946025979226 -0.9365109131651561 0.21382527420537872 -0.5875899368853812 -0.8904765778940575 -0.4078611632194766 -0.2546660435373533 -0.4771728811836871 -0.14872525079086701 -1.0518985313250528; 0.25447234803119656 0.9606339080998534 0.9829946730628527 0.07257013592068183 0.4120664879611916 -0.16506151463130966 -0.21574023040092205 -0.6826196495274232 0.0935002342594218 0.686766433161998 0.34022972240895727 -0.14113499958690426 -0.050561265495277175 -0.17121867919063355 0.38595438954734773 -0.0005581658311974032 0.4866852679750198 -0.9618057513824579 -0.05228483971923942 -0.3977520020788206 0.35451130044004475 -0.001889474382793578 -0.056336037566711974 -0.12791971915449477 -0.228026180998554 0.15434510044561206 0.049074370635127665 -0.01870303262003499 0.33264160017041444 0.3083016524152774 -0.10284392070381917 -0.07169718431001255 -0.4021718923089238 0.0016137786387188065 -0.028411733585354093 0.029060742686252083 0.3258536701729487 -0.1623745712605436 -0.41356275292585704 0.07455354629848716 0.17537825506185986 -0.034029420662362336 0.12194747013075699 0.7166041002649096 0.3118064174690057 -0.2110177454177295 0.5879748652628392 0.05615528565426846 -0.7424527766307755 0.004960193164446014 0.2514229040154777 0.0010935732121224791 0.025173803542205875 0.7438270744733588 0.8542488854138048 0.2949292077112777 0.3781185590621343 -0.2210098686891627 0.4779715458135885 -0.2522181494218655 -0.27945800168575613 0.13224339323932052 0.038411036305537265 0.06859808847814003; 0.34247244197519716 0.07730766472909387 0.021802266673788474 -0.3131318061454632 0.07348223231581348 -1.6904882509625858 0.6911639963589107 0.0955937999137122 -0.21348909779257988 -0.2509295098520423 -0.014548392776385973 -0.591919739536147 0.11552169971093629 0.5402985934019494 -0.29010556563507084 0.08708675486750858 1.1812342958161237 -0.07536729980416416 0.006096063048409527 -0.09121485263569304 -1.0740514163087274 -0.5614800488095791 0.27748419756522735 -0.03538045812769275 -0.05434251744093723 -0.20310181131020438 1.1061881789144223 -0.002055190981442944 -0.06485284887922298 0.02928885133187694 0.6251906674602274 -1.0757674870742473 0.9932202129080822 -0.5760988114348987 -0.3111621488890326 0.1013245448181343 -0.2407946539527873 -0.31295619748224707 -0.7868047366967438 -0.29915915608289595 0.40707774068577324 -0.5509554811876237 -0.012090691182188336 0.2148829649615588 -0.06538402314845321 -0.11752455298475678 0.180288798463599 -0.12683954872062278 0.00015745764124471684 0.6578610740215359 0.15898186489394978 0.33858537682717826 -0.006782166812552848 0.09957015502941993 -0.6744625895689536 0.5365482064597852 0.090194904240671 0.8319134677160159 -0.7947721734549117 0.511668976263137 -0.0868029954629048 -0.7951137115379588 0.43463622063068574 -0.24784728809845533; -0.10344714822913179 -0.013197686055139414 -0.6479099812319226 0.03345527688146694 0.8529943098595137 0.09397083062164176 0.2833190385485286 0.21179528765799366 -0.2980310782181892 0.011920706486420955 0.27783611667301705 -0.9587999233267636 0.1097467438778367 0.009444632201850196 0.6944440115201611 -0.2981267079562456 0.8278738888549197 0.7805971742145749 0.390055074213597 0.6498206571852085 1.1615607047250003 -1.1921436755342951 -0.014777479450772802 0.23898017709914934 -0.31229573576127295 0.5349439503369056 -0.5308126617031068 0.27782612005497304 -0.7665885574406046 -1.8773671495216093 -0.08717646056189134 -0.012113317192902711 -0.18028085787620193 -1.1790446139453183 -0.38950853862567425 -0.18209253187134364 0.005724314838299258 0.04221751093204136 0.41552946896536297 0.040525496553672984 1.1943724085966307 0.07031219011096781 0.007969716125243963 0.49932368846850145 -0.51823012142298 -0.2686332436406131 0.5554326622966294 -0.6709446476058535 -0.6278305083875895 -0.32275247380496086 0.8378080267499306 -0.34474536458173033 -0.22160718309077929 -0.3976917361541642 0.0808328563171037 0.10747292667884394 0.4495974259979672 0.0014892420259605323 0.0294181685085721 0.9476004381020372 0.26885259932053857 -0.037665687028618555 0.15910732791039 -0.538615896561201; 0.3701062937617904 1.5847612815270589 0.5346323147317462 0.17256798662179776 0.3856903151455939 0.29725934703741597 -0.1738980615694216 -0.137395483070615 -0.1552770778972585 -0.637134158611157 0.05722376162277874 -0.48684662041775967 -0.3368584469489955 0.009968148171908192 -0.1661115776353725 -0.3037552071157268 0.7698486397709935 -0.46826883718164714 0.25991576276725226 0.043193148160092815 0.7248150351045443 -0.002734762905866451 0.11187797034449602 1.8241386630905283 -0.3540885385417815 -1.543642915608358 0.1138470278787692 1.4618660505403507 0.04282199514614192 -0.5797202236900796 0.20708894618696638 -0.06660224779199354 0.4270947503712673 0.318084121835585 0.2538985655541085 -0.08836756452657832 0.5472385260232078 1.2199257847133766 -0.05033702944164972 -0.14604427623311933 -0.19496592443194927 0.4310055920507664 0.45185290293926544 -0.07381784630359094 0.5990315489909029 -0.8338765929921256 -0.7552153653625515 -0.023627027739761036 -1.1308276637234782 0.019550467405234903 -0.05686712486473922 0.029786598047497767 0.6108455919835212 0.023063943537678832 0.6675436322477173 0.05143294871253496 0.4209647914397126 0.2014012236208061 -0.006032329987357039 -0.0014626161293829671 0.19091234919679204 -0.4550602574708538 0.007186098573473897 -0.4293114893065454; -0.429370813463158 0.7775229438737182 2.1192451889119592 0.5838454824762978 -0.7463949157237936 0.0711838305735359 -1.4529955408805966 -0.908518612488392 -0.19963659354843763 0.2711455298572483 -0.2776587874731642 0.7311250477941624 0.17743385060602923 0.3379571964269413 -0.000680706980236568 -0.16969712317730293 0.37155449551001063 -1.1200269576256268 0.01671677433047477 -0.32030377874140714 0.7160906482309943 1.1852479941447929 2.704269991966881 0.23524427989524502 1.3140335259863898 0.4894917063557655 0.004969061013600923 0.2435650849951102 0.5550445316846058 -0.07999132835843557 0.008319452649775627 -1.4182698783307828 0.6845341167762757 -0.7766012333025659 -0.605746911415142 0.1563125173148438 1.2634299153169288 0.15369319014852623 0.0968261073075241 -0.6984274733695903 -1.5713408038397931 -0.7646671334583154 -0.33693935248110324 1.175499881524474 -1.786028335159212 -1.118754222553389 -0.17268369857112464 -0.8457169812341246 -0.6385924807771366 -0.9358561759255887 0.5754393619023269 -1.090266076943688 0.2488061239155277 -0.236146054371147 -1.2097488608437779 1.5187161498578299 -1.2671168132276784 -0.27547417175012057 0.3491174945690573 0.5331773233348076 0.06340013660292282 3.9192249042307212 0.16428099416113617 0.051098656494804495; -0.21665340280564913 0.5689541993104308 -0.38388033907674124 0.007184955864925743 0.37873114369215166 -0.08939280013733672 0.21401785864576217 1.788080788968793 1.434430842462295 0.0044184434723535705 -0.16984895545707804 -1.6471673465826864 -0.718651960329665 -1.3305124908365273 0.0872697000563858 1.1545476612103147 -0.7609384214611281 0.18611051250076718 -0.4466304919950094 -1.032376593514079 -0.8181242192720457 -0.5453500047398234 0.4859201836164054 0.8912499834886516 -0.0722949177484535 -0.6807190415448556 1.1142300739603326 -0.5030010687788155 0.7799945463324638 0.0911938880118413 0.23313249080469092 0.3023359045415905 -0.1179836889482178 0.4426487965086776 -0.060092974733187546 0.5607442331950456 -0.4320133357172978 0.22638195282631995 0.5541927761640063 -0.0482276097311505 0.31856784652323356 0.004333913442776228 -0.6858187829412868 -0.11029891908783947 -0.008280953428908814 0.20631168233251845 -0.12133371255342006 -0.7381646458961839 0.07249446658107081 -0.023607059719786796 0.48649421973842544 1.3044066743329354 -1.0235917630871325 -0.014680942317454294 -0.4112825898717417 0.2354912501414511 0.23526844484611398 -0.5478433673954954 0.06751354422580752 0.39673360909338323 -0.009144156647932222 0.7129530972183553 -0.010499714159130202 0.09639090998855707; 0.21093352655860484 -0.054581841120935996 -1.3061956604124036 -0.00664551027534161 -0.01717262184153171 -0.4182656958243993 -0.5549965080483873 0.6263178169009898 0.000591005404723599 0.005678206261976402 -6.1675674186829115 -0.02252815271892464 -0.2539139664402618 0.09350721337964114 -0.6709135872088546 -0.0399619798527588 0.2911202482959327 -0.04735453447161356 -0.04303580954608978 -0.24932749185389547 -0.32935448708095244 -0.22445943890595368 -0.035647214463371275 -0.5391192268537691 -0.40491451546624535 0.03235693862460128 -0.09602692959627299 -0.01328297350052373 -0.0036165413519768804 0.30002428217118454 -0.011741052937414752 0.41916874293361694 -0.4308896166327819 0.2816941463914785 0.19252188633475606 -0.1641551238006984 0.4167516439173589 0.3476949904568594 -0.23005746759486012 -0.31854319448501295 -0.03245178313907145 0.008934648679106682 0.2902348292643395 -0.08934589593840148 0.004923749001329897 -0.06452187995307482 -0.478467668455784 0.03072079197536906 -0.03148969264379087 -0.10555668207937013 0.34912662606155553 -1.42333950000568 0.4439611422557397 -0.5810400790387928 -0.46894666676917124 -0.08914823091757541 -0.0946056690763169 0.8278443347144697 -0.7505606950427793 -0.7350516540504494 -0.052802446208869896 0.07393782302112153 0.34459774652539943 -0.0333585407633058; 0.17936339647812818 0.2891101334038662 -0.366279857163845 0.005640182067510734 0.029003437166795487 -0.47786984115809134 -0.1761535354394709 0.6047933741494429 0.23475340966645514 -0.02589423188753713 0.9249744529065649 -0.3506202881795293 0.9759049106076225 -0.21726064765633057 0.21751254934449096 -0.0018055239120286551 0.3879633710805985 -1.295844064784991 0.6491557363560927 0.6389510388369772 0.34161928288370647 -0.5949434726786256 0.9903881369531669 0.11086644298732713 -0.6775335506591835 -0.25216970275871786 -0.0044216684250719725 0.018153002964956075 0.33971581519745453 -0.2929488642460372 -1.1647003337408004 -0.41483252653810665 0.08196947801462294 0.6040074640140326 -0.28215346309827755 -0.41401168920771114 -0.2911877937179783 0.0006694543855440267 -0.06631156371119896 0.19023370118004596 0.836563254945228 0.13170536615181222 -0.0041890724970791715 -0.023331941648517065 0.47428062792503983 0.6589919503458217 0.28765543301863666 0.2501863329138709 0.0031291916692651996 0.6201955082730276 -0.00413113307461516 -0.47655964649122495 0.20566919366271585 0.2318055461442886 -0.21266222006181648 -0.09056276707479251 -0.19655802613932688 -0.2280229567005207 0.5475343010013812 0.2678306709780493 0.1444721838794165 0.07630065590239002 0.8455548956028425 -0.1986227481985099; -0.031110535979693387 -0.3319256428207352 0.20948827361875186 0.1856547731545075 0.6859117941424206 0.561074272809631 -0.6290715077426585 -0.26288041641559734 -0.16804473238865342 -0.7462031735151583 -0.37739206226278865 -0.7273811225715242 0.22825569422663097 -0.05891347594961049 0.6427140010706747 -1.8092308682977232 0.45977437398031196 0.01978795889910297 0.43564636347344526 -0.2720125465697299 0.3772748709187415 -0.11693338925133688 -0.006249523146040912 -1.7536815357624294 0.4230400988164892 0.5114522850601807 0.06064785671880393 0.16171841677748888 -0.760371330314298 1.151262054994494 0.7489366164983374 -0.12612250038506662 0.0405398419396885 -0.14788940485795865 -0.13662402739099455 -0.669987124418206 0.599724156942833 0.43536202463249285 0.4343400288910179 -0.517418771975421 -0.9261853583316689 0.010814982258597122 0.8604637790186911 -0.14383518590315375 0.2695299631026233 0.16998817087984452 -0.009293467262554457 -1.1304885554845179 1.1260551640642447 -0.45579457326617384 -0.03495943165169811 -0.43977558960765467 0.2735302367516254 1.4521533511496632 -0.3681921374701703 -0.5850040205511124 -0.008008184509966225 -0.6899636830515737 0.4046018295451202 -0.29371566156613604 -0.42742230088826816 -0.04348089031063029 0.14653533400590224 0.07624071253622319; 1.2237204563057862 0.003594416727271303 0.36236080235438256 0.3907083135642186 0.03739441503521969 0.2778543070055376 -1.0845398435665108 -0.5949543990866919 0.878982939155333 0.1982309348978719 -0.3271228324446617 0.6277597262383167 -0.29981607172868296 0.0565624436875028 -0.1486439976080056 0.13884678544536277 -0.975936789220769 0.009292116787236276 -0.5357742237389381 0.7166841777534606 0.11298870970834059 0.5883835836667002 -0.24426921452856223 0.7839592534718061 0.20485818189195013 -0.25699845064611365 0.37535242660339524 1.231857667061658 0.13574495634701114 -0.18020124437173854 -0.991731456089119 -1.463602308163366 -0.7945138550148674 0.44208400262845177 0.5617384949827371 0.44643022751675177 -0.7499353146986908 -0.4675358211815301 0.5825052434412694 0.5339188140885509 0.6435150466350706 -0.9393416446399473 0.005097699019892301 0.2668859650130934 -0.532015664480959 0.3727987207070869 -0.14823554700304986 -0.4357023208102425 -0.196414222114174 -0.3565417161107445 -0.2172174396041101 0.6372723601055725 0.3793753056521491 -0.5932082213996789 0.5755819365108967 -0.5600386858352266 -0.5753364818584324 -0.0906296950461334 -0.2838752847640784 -0.03189298445826644 -0.057967107823873654 -0.5366807442180799 0.00030160061524175816 -0.06542357579235054; -0.4366378085620081 -1.336255047270743 -0.01721787784339703 -0.006780015091795925 -0.4591210160889788 0.23041818224278907 -0.0007510917506761978 0.30332046384594186 -0.9444708386996228 0.3290339827879918 0.3069129367970166 -0.7680937818669826 0.22914100201689683 -0.41169448809655224 -0.3359274052387191 0.7749302455554195 0.35460089800051253 -0.014710656911765046 0.14529300588178648 -0.04727987949509107 0.018039480407129587 0.797277103929864 -0.34201967549784895 0.05345141714665408 -0.239180134778276 -0.372984783373262 1.0411232608626468 -1.1024657946862677 -0.009586595483766905 -0.014868643135051209 0.41649434216334846 0.01521767449989916 -1.468300282182917 0.4840231506007987 0.24855588983197804 -0.2912120246233103 -0.00722980850900529 0.004844754585487698 0.5422555556789187 0.028360218587933562 0.1258575898826681 0.11328802674371424 -0.9107774650098807 0.18566221322854431 1.1028330869961385 0.39738191509476267 0.1892764622994906 -0.28047924182872225 -1.1042282651346056 0.7664188558539886 -0.03720311293815496 0.023775602462182573 -1.598213463899081 0.8237113721009633 -0.5926774351428856 0.44500019257756473 0.3352827175999053 0.1750796637797947 1.2879466840244178 -0.7057588929051094 0.15803555239859926 -0.07115784449760158 -0.6170405372387175 -0.5491729922563447; 0.4694874096690661 0.600410082923591 -5.3698745342380696e-5 0.9768157026860187 0.04782131281091649 -0.20497361794231703 0.781868563377454 0.1342709957093449 -0.5864619442288037 0.4823717272198302 -0.2665906971800276 -1.0712493376454983 -0.3088101967220796 0.011249197129517207 0.687044757807862 0.8028880305596471 0.24076083399937953 -0.581304397071455 -0.0001694713521712473 0.08235846298646603 -0.5400518781137149 -0.22220396442551 -0.004712475782795726 0.006725736084620146 -0.26410316089593294 -0.035781793458871836 -0.001673622809145354 0.10069331662451227 -0.1878879793062997 0.012840351636688445 0.006543710140711975 0.40249090825819256 0.7383344262376973 0.28040340147530224 -0.18336015071653802 0.01386090758496046 0.008704397711776776 -0.6622871143080301 0.33692941941134313 0.5158625934148224 -0.3506093486648496 -0.2371169945505884 -0.006053247067366892 0.30341556998339675 -0.2680597130611883 -0.012398766687680486 -0.9410534645739377 -0.7011576587342926 -0.03368522439971681 -0.08807490045212318 -1.1910178565404594 -0.053658242623755736 -0.5977822119070058 -0.04099593670591986 0.46420018764788795 0.19231009298002333 0.0019857490282719622 0.07707079338077609 -0.0606762869202881 -0.006212052420372287 -0.10419681667536118 -0.7975647303410921 -0.9152995488537604 -0.01128564097805716; -0.2719799604966091 -1.5601574270774305 0.1381999718610229 0.7378836661263031 0.18087345313226363 1.6546152746852245 -0.010113169776874858 -0.8255362317643137 0.12898951813135698 0.3476825341663359 -0.20951616281591015 -0.2856746399598284 1.1066424982894432 0.22274891979036646 0.6023507119016178 1.900901157457474 3.6219348088408436 -0.14073061460978542 0.4764096068979903 0.027462126872348842 0.9496238148297438 -0.3174621909173642 0.4909687055585176 1.3832756050870143 0.6837126981274276 0.7306257953342854 2.1036607555507914 1.965214093231992 0.26998803342820327 1.1899267498908361 2.2653764319889835 0.264375127542028 -1.5357499773209666 -0.6874995433191063 -0.5928689103990824 0.09940010905790271 0.2266655795741099 -0.9614356758834262 3.598631607093661 0.9354664661322188 0.03906581894013665 -4.527187357511218 -0.6338640593249668 -0.9179574407841041 0.19772724017689897 -0.12164725046006696 3.3493206979784365 -0.7708602277349597 0.8292911399924063 0.0034436191417620762 0.3611446176982522 -0.013676524963923596 -2.0364127016239766 -3.527592032228378 -1.0433148217939299 -0.12707610182373635 0.8345520002402018 -0.7195926759728993 1.9895015376488356 -0.1603309952028635 -0.5415129170989529 -1.4796530595420554 -1.1195612521126166 2.0128779807016133; -0.6729559496886484 0.18240323804725025 -0.2647843270220478 -0.5269323431571911 0.23026557455999663 -0.4308782708732995 0.3422595190401694 0.20158909694717903 0.005961719311641836 0.32042360932267616 -0.6598369224040755 -1.1725469690218557 -0.4939672819610536 -0.16016031623769256 0.0032905953733502334 0.07543875298099019 -0.2903135565531046 -0.01079892288500523 -0.5660155464970982 -0.10376050078405814 -0.6446475900999415 -0.8153397649046763 -0.11895522395241627 -0.6182797036649692 -0.016567564317221305 0.9596200101577278 -0.1099799410149542 -0.11328768297968018 0.45639546816969107 -0.040343594154986305 0.08989236269691471 0.32034590134172647 -0.37346247436542507 0.30577590359831197 0.5095894601547739 0.06641541106399891 0.5348045802267535 0.04368251739126335 -0.8169475138886932 0.41397648259922465 -0.05775116591896121 0.36435121864338116 0.4524923405037345 -0.1683071170027794 0.14721241985992986 -0.5082225136568811 -0.06605167420545395 -0.012596475537205255 0.109845949675592 0.4638560327757239 -0.7097431756174093 -0.03836239880076114 -0.6468430632428464 0.5298807375227541 -0.3574851483244505 0.3121726966947803 0.27026104062784484 -0.5133202069616248 0.5251142209432963 0.1677105331797306 -1.4768121174376825 -0.1067538602490355 -0.850521361784288 0.23764499290724542; -1.2544952421098923 1.8166687437620852 1.601389668686557 0.15731811575851257 1.0458261075975206 -0.4637213234749373 -1.1005497820590249 -1.1704954732892865 -0.9240792630792289 0.5104725737305349 0.034363045215371785 -0.14184000727548735 -0.669039392338835 0.14484767805368748 0.5968720808024597 0.9231879429957484 -0.1953167329330329 1.939910754505191 0.7125751118194674 0.27535415683294223 0.2957261561942331 -1.1189455463399571 0.833979297778594 0.03481880852553694 -0.4881381201616072 -0.7362812291084154 -1.9778607342164776 -3.010531008777862 -0.35357439840632937 -0.013801888042186395 0.0396641520241445 0.011604425139430876 -0.9323410579338577 1.1631264827084333 -0.41787744627100476 1.9471542521309018 -0.2146864834759281 0.8215681181203185 0.007386657119259992 1.083767421595597 1.4056373443363557 0.0684360253575468 1.4552970777276566 0.9049519974905789 -0.016990288051221446 -0.9868493072524861 -0.49693566202018413 -1.2799662271222327 -0.7843314431815555 -1.207733486664953 1.20967423978087 1.8020667149868674 -0.7244511775092277 0.3454916965037433 0.6857419011344442 -1.1135873677708883 0.09428654778850055 0.015663688114856755 -0.5241828924639783 -0.7018196641925174 -0.13304806999957738 -0.42816423648393276 1.4720225231116004 0.6377140311826128; 0.3127959544975948 0.321550340606624 0.8703869449352374 0.20275657404561284 1.3139758296120077 -0.03789382088433012 0.50056273535697 -1.5320628817678335 0.7999592439374096 -0.14460070047233364 0.2640461956708736 -0.7717428077959466 1.0240993913716079 0.7106819863120544 0.17941803530408612 -0.04086126113452555 0.7100712082195044 0.6170819943428366 1.0555908014045576 -0.018193862338419266 0.6017635388114274 0.020180569666610304 -0.21469279980770464 -0.8595814311954307 -0.04904433818484431 0.0917672376826971 0.6635284605007207 1.0945685275348453 -0.6136273576834262 -1.0003793664449352 -0.622625456485814 1.219420497730249 -0.7048088150941907 -0.1703010281705749 -0.6206054038326353 0.01669721555587675 -0.6350438364123658 -0.18866943390704555 0.6139728864188402 -0.33358394924945106 0.11620231509788428 0.16929976470397629 -0.3136104335128901 -0.4802936476869822 0.7363616154800765 -0.06068685941036007 -0.16443081887240416 -0.4516366872108163 -0.33005716565584786 -0.3710839557197975 -0.8365060010826028 0.7506856483253112 -0.07137410204671292 -0.8760628806840679 0.712384020051882 -0.15423405194544945 0.2852963593293086 0.34096925219487484 -0.3405289944425021 -0.8764983425527523 0.31091675419916937 0.2568609731078625 0.11444241829246328 -0.06096310740472459; -0.007833422717032265 -0.7745230176962657 0.5539527507481208 -0.024473352677111326 0.12441347877787445 0.006170727308294722 -0.17490458379885696 0.0015117649261007044 0.1421279832294544 -0.6304395536328281 0.42776561542282854 0.2937873296230567 0.014625866640504253 -1.100807122466232 -0.071088988802837 0.001971425206259978 0.009220945242103921 -0.4815108791930711 -0.1630413837817709 0.04056731684999612 0.5255889081669141 0.017892698809795198 -0.014359892264949742 -0.30755429463447137 0.6751750744984552 -0.9445672668844438 0.5058367041005241 -0.0183367005208854 0.07512611682043877 -0.4274298186042803 -1.0046890593776516 0.07260383669473726 0.18643657903274516 -1.546467514336764 -0.08950879907820995 0.08713895413016365 0.5863836117557256 0.26138348316684706 0.3723240870246583 0.26814417683234043 0.17036199800099977 -0.7621832157040793 0.1440443668167779 -0.07611375753229122 -0.10880567043977125 -1.2318119568570345 1.2103737957002823 0.6861412926080784 -0.22759917832021817 0.7884190735037532 -0.26123296448545213 -0.6259588418624806 -0.8091241503185901 0.004457312458426419 0.10049235890554059 -0.5223933051008933 -1.0643817001131248 -0.2060721815971213 0.6711413374139957 0.3831919831451625 0.7375354595156632 -1.0368319097179761 -0.6002054688288229 -0.5923711866170495; 0.36639820178584864 -0.9144179969396953 0.3632557501279416 0.352658150948022 -1.2985594719385092 0.24708972168081098 -0.6595715139338697 -0.24024911115313655 -0.2372125900786025 -0.35274902028656663 0.3866297747404895 0.1676521382952165 -0.12940979381096424 0.0006071992155324997 -0.6457221235649968 -0.13247308464032437 0.46949754225438217 -0.31943521316912926 -0.08936787594377263 -0.3670913534831724 0.0730075287018569 -1.3988841245612231 0.9194246403704512 -0.1336572114904675 -0.5868162584103822 -0.015868345142449877 -0.4014970862470818 0.4240562479075069 -0.31500224859350195 -0.2810430729310743 -0.4117238332044861 0.1682450793614972 0.7088253014781349 -0.28887240616769677 -0.005930220448319431 0.6499697633970748 0.01143884857297509 -0.19843506939153574 -0.6652892260550417 0.04189158710117478 -0.6724470143822237 -0.34849844496304294 0.34802033365982427 -0.3733803148842147 0.792297053613337 -0.8528503375820056 0.42119124956653875 -0.6564166305106109 -0.30897707983510053 0.09392575286109421 0.00919183553856968 -0.3645517498332969 0.1278739944453307 0.3016268203212319 0.4355990290047045 0.7309711588302588 0.20678640783415222 0.4151351031280068 0.7904408811343825 0.35422532753815494 0.33154583997089004 -0.5336455605037914 -0.020683231619304025 -0.08370659881660819; 0.38782574497017613 1.5689491517138088 2.0588553236745075 -0.08563720792533373 0.8711620840313316 -0.012519962234655756 0.5609688470679765 -1.8793465504849245 -0.937989353950154 2.2650890868141564 -0.1750135827166792 -0.2889621629576145 2.0253669730960415 0.002633528604143247 -1.5185047710052133 -1.5781058074682057 -1.5849328015152828 0.0033111627946870504 1.2818243431492307 0.7985421713953755 2.34646051405286 0.03402808621245924 -0.7506476369213929 2.17580347083438 0.0010532456040704178 1.4267792544097846 0.37760830731048045 1.0901851836120726 -1.3436123687677606 -0.1479615921956227 -2.0662479656744543 0.8279130203551661 -0.018646183323936725 -0.26470368262709587 2.815606853269895 -0.6425005121742254 -1.6393411815840688 -1.116804240328737 -0.6599890759063848 -1.8044178214460616 -1.3625863627155503 -0.16119086930914256 -3.294244919014369 -0.9181742244469784 0.34652319829685774 0.07130141317033581 -1.388166788016901 0.08139434127948644 -0.38167896491802944 3.479563623324494 -0.0029970476651535695 -0.6352249501315119 1.1975995464825686 1.1013057414323728 -0.413911556046115 -0.6242672087138166 -0.0678065248676623 -0.00649776358100111 -0.008858691283406824 1.161038288511406 -0.4923651536386842 0.2859125399321997 -1.5036645655221095 -0.011394930235292708; 0.7012455533162425 0.01569540349418018 0.381835575968211 0.009759733065353562 -0.4392400857460324 0.620407321041773 -0.18429443170982 -0.05022860209405447 -0.21718127301795578 0.25909064357506395 0.02537464119481184 -0.90702763892264 0.17351596422649257 0.0027228869033643463 0.15378434276258787 -0.44955955164345374 -0.11720476997151204 -0.02039821959924251 0.23684884870177084 0.6631105445525872 -0.22307433000929214 -0.06947907175799098 2.1472502158823246 0.11731223554107173 -0.319695787929476 0.5231423588374352 -0.08261683936727204 0.06837029098804988 0.43789292118851164 -0.032201653243984905 0.7221891236298768 -0.9449798975338898 -0.6422695111239293 -0.004975278775786106 0.6760357552471822 -0.57154281750041 -0.4528060452830873 0.07883169642308528 0.5417395755283011 0.011332960728313581 -0.6477909241251678 0.027415127425399127 -0.9402765675210233 -0.014923796400393988 -0.6685599109450153 0.49621133514366955 -0.07705308690328727 -1.5628983192591264 0.0928014413773259 -1.0132069945216289 1.1257434934689785 0.1031952232711481 0.9713335053198999 0.017363492991056103 -0.4590217304716173 -0.04210138525143368 -0.2581437237381796 -0.3193214397722136 0.6100896461468853 -0.9973418068207219 -0.03769075750303683 0.56365752546008 -0.08382546864776537 -0.04697446249862791; -1.1811487057107979 -0.039933684687032636 0.4796656115491458 0.3183764800682306 0.6943670075733255 -0.6186822214691453 -0.8682707160854732 1.3540276699100653 -1.1546596961012925 0.5332091544349622 -0.09059687602030511 -0.007055822351364897 -0.5409196687038029 1.2185075874511393 -1.0734829453315116 -0.7605212919047605 1.4518316816776125 -2.745093565270224 0.15905423655682957 0.185535979329351 1.494636478143046 0.09255547609482745 -0.8366815945924575 1.1707130238177728 0.10696424532079526 0.0884808656418943 0.6650059664594309 -0.19635759487280882 0.2054532999644185 -0.5954922919303427 1.4930918346613216 -0.7378427262421117 -0.49921191853009955 1.0280614481392896 -0.525182813910849 -1.4216127729364958 -1.069784168313428 0.6296190725938537 0.4695058212678174 0.44887086504613877 -1.29161539767034 0.5354195989592235 -1.3136863790924769 -0.7832607997142531 0.1738132646538237 -0.18143592167882763 0.598803560782823 -0.7520610430113636 -0.9611832055536067 0.5719896726345856 0.20733294053633494 0.42198138125850515 1.0138196470942265 0.6922631593045487 0.7803930990834367 -0.6718542942035728 -1.2090985172358693 -1.1614778615444028 -0.27097677868831144 0.24328137957949325 0.011880307554870014 -0.220497309130602 -0.7696301782288815 -0.09327911435373194; 0.20142479762919716 0.0640493521193646 -0.6174926124638893 -0.5171578955180585 -1.5693920426970518 0.6726661400431269 -0.4517557938251322 -0.1794923646566124 0.07862225152145175 0.8861968130884075 -0.1655655235998032 -0.5591454350892812 -0.7077953209930578 1.0935800062645258 -1.5763303907755057 1.275222628019016 1.6252223487267943 -1.0665577427657906 0.0011362311420905012 -1.199470695506221 0.012024124763676206 -0.16182901483215345 -0.5184348614036813 -0.6995177431705137 0.02641129082848162 -0.5245860242465137 -0.9925181383176751 0.2600316532395076 -1.1541800629650814 0.008475724303953774 -1.4905000150301564 -0.32765576027174986 -0.9651389837062173 -1.3976520458387212 -1.2450637640837863 0.2283673006869648 0.2669371405972315 -0.8380113964754808 -0.20705086575271076 -0.14774813411734844 0.5270946871229353 0.22608583093891502 0.4060844385900531 -1.3400084886250785 1.217104146069876 -0.8120188299548126 1.0779260532370079 0.4409003128418251 -2.4417065085887932 1.6466913032733446 -1.5713521035937976 0.5868931308646911 0.3121806741481264 -0.1889947974664249 0.31144215014298504 0.007873750187957189 0.09225405531396326 0.5708856422255281 -1.0796204879791762 0.43156184136123715 0.5959180368192312 -0.3310890382481103 3.9321193609846032 -0.03514359228067835; -0.8348658445292563 -0.2362998723147238 0.051010279131586345 -1.1419860503380252 -0.828121041572005 0.895769561258206 -0.013561825672947097 -0.039260565836470016 -0.6370525588644541 -1.3481693431377968 1.2080272676842223 -0.4103165083487347 0.1630383198065769 -0.48225601619462694 -0.020494863311480812 0.36963559260255413 -0.5484146631736471 0.41818173277737386 0.977734704909914 1.045223265133056 0.6859913419740082 -0.21800556189069323 -0.6835090238666168 0.0022569616494450898 1.0489207657573048 -0.9613914190218845 0.3277112668576155 -0.00800112158325883 0.8786974104694648 -0.885794408772969 -0.6452771320447458 -1.6985132408226664 -1.0568028599961035 0.33778772332373497 0.6638347297245432 -0.18144951021930075 0.4019488484667891 -1.025500737835685 1.4987638863706865 -0.7662129102402703 0.26446685593267816 -0.44652091197291 -0.32281830358916236 -1.155013494922424 0.35763948666234346 0.030110859767589777 0.004563820527961883 -0.6289129606415305 -0.2953748098976121 0.15898432900987194 -1.0945048215974178 0.4553455247882491 0.05796677997250373 -0.025126877297298567 -0.29230346715173333 -0.750979442476708 -0.030940392253544117 -0.25143480870030327 -0.3146836539285477 0.3427631000881578 -0.5497856308738119 0.09208823051558329 -0.89946366755439 -0.520866380001983; -0.37780983540380825 0.07055688478483019 -0.40377414549320095 -0.07655851539051398 0.08543714302807268 0.5871229829505078 -0.22460864189807206 0.16844442788335456 -1.0227842937892735 -0.7769346701627966 -0.05435910599530214 -0.35692085560637 0.01997383295267029 -0.45899617315985686 -0.02133720499523115 -0.20717278685811555 0.08934570642413443 -0.6478268594336499 -1.229963517522913 1.2519229273465713 0.44063176197889303 0.23460167540839671 0.48549278771039067 1.0193987879234527 -0.6315346396895334 -1.5606825240536188 -0.49440556243459916 2.327344367495728 -0.693357467427893 -0.3807873717180197 -0.1432852711484232 0.046294992764279744 -0.1827048287007297 0.1545850165242095 0.008667453056919254 0.2769968846762378 0.5908504695997355 -0.08775531060432383 0.2464465253605674 -0.7075315402992902 -0.41108324574128075 -0.4816762427579814 -0.1660545729711768 -0.13398853691920093 -0.01574802960891826 -1.268753729398141 -1.0298683967388422 0.38152770125097957 -0.007648115380294531 -0.9519942272945979 0.5464862621307309 0.43616356484640834 -0.7663439800335412 -0.4848462102990085 2.901224412794958 -0.21793652610594577 -1.3223333269069721 -0.30905877139253074 0.3964174765687086 -0.35719972679053746 0.5230677291534928 0.02339555559301869 0.07517214277693642 0.006431779187159806; 0.9748558911056973 -0.026213925755398226 0.40301795710928773 -0.7132625920995529 0.2656563872821976 0.12078806068618143 0.16847545766323957 -0.26951470486774615 0.125896281189769 -0.28471830400352816 0.22278366484401166 -0.25500819380753176 0.2142307044449257 -0.031437457569617716 0.7012374556035947 0.7383343876976081 0.0013051849845585428 -0.27870438727671076 -0.26826175604819874 -0.36504383337847257 -1.153482319297526 0.34735036227781657 -0.310078005688253 0.004680194906237809 0.13780734727623575 -0.15355621455485335 0.4718669038779135 -0.10011727710945498 0.5789246850857122 0.40211548090342375 -0.34973346897214685 -0.9246895915779658 0.35041511146874493 0.6134862794781084 0.4870736116058385 -0.1304668178117796 0.07341893055794801 0.022413249645988356 0.16467983737555017 -1.0986182787037098 -0.0018937900342814572 1.0475601479973293 -0.03824433052622498 0.18543912933052767 -0.7257586870276559 -0.04048998070236705 -0.554798759908072 0.3497383105748701 -0.1948684461993649 -0.4108425850705153 0.12801057710167033 0.4395959822815609 -0.6714042540516865 0.20012334581519278 1.1078466860602352 0.42019693438599204 -0.07986613404935794 -0.3106770918072427 -0.037880116274184285 -0.19509118788707402 1.0959035408621922 0.22835690378234008 0.0020999172683320347 0.09278079901683099; -0.6273298774444197 0.345322872377038 0.2752402632416272 0.2067700486297965 -1.0542217135200984 -0.42836655538807417 0.10194196345116967 -0.5428105697283618 0.6807312437750337 1.227791932356091 0.6965095317704927 -0.7971037256853819 0.5309745658156648 0.8428683055917376 1.2124257930939222 0.2525976939022477 0.3773107116207512 -0.14982878669528366 -1.0407638727498774 -1.4090731015102747 -0.39619054146755023 0.09289403187471598 1.2194845759394946 0.5940012854930411 0.01063250713936557 -0.14999755484338556 0.00797539295503333 -0.23862005801619926 0.4312665843395427 0.5368912685157662 0.6411844754800594 -0.2271759207766316 -0.4124935638547296 -0.27846760160236306 0.47766004088614333 -0.007942429180903317 0.03198496876963572 -0.18686368423960714 0.5756617673325902 0.015564724384815834 0.176042382998144 -0.6107886445884008 -0.27636138135136673 -0.36385378394017776 0.1691992323420517 -0.38084361282042967 0.26801444577332584 0.8281786460691117 0.7027207059866711 0.9151241254167437 0.009249186051408929 -0.04188086928795326 -0.2875708196936635 -0.07168323665310905 1.7493051291890853 -0.2945533094058163 -0.0564070875211795 0.0978053970883934 -0.0750421657927616 0.18283938379544387 0.2453146686393664 -0.32401682415378086 -0.17836891953021045 0.13021530628911096; 0.44164629850613785 -0.550137827924182 0.7957004349666339 0.5968147276755711 0.4199145389152275 -0.05117641690688181 -0.4866175124487849 -0.14586718151577485 0.34343567314413015 -0.6737195988870407 -0.7339056399447617 -0.0691144523255605 -0.1784789782242833 -0.4581144486343589 0.11999696003325488 0.5649838344661549 0.6377473205510299 -1.2883712139249055 0.9437995164038744 0.4367633758634593 0.23518641355574055 -0.14107504739232923 0.6853557126747745 -0.0847449423765398 -0.645233850422747 -0.007027817445127797 0.23509521337404665 -0.4567033502214979 -0.9190450113885987 0.4596410132523106 -1.0054329484491529 0.4726157793486861 0.7866408581368262 0.6246224186181055 -0.7256557771813646 -0.3690546501714603 -0.3656153500991223 -0.03735834143681134 0.5115319818908916 0.04978487297137612 -0.41302432364144426 -0.1497514061320558 -0.35999243640490947 -0.5201132992289277 0.4326304964770335 -0.19154997017936495 -0.10778275241420195 1.4593570099881574 -0.4084291234607894 0.027178369596655736 0.3947542702457237 2.0328533437142005 -0.5283999272427234 0.5110390298530298 -0.5382593588449833 -0.38145131867215865 0.2915653899763229 0.17468249150881432 0.005306021220453574 -0.009202302213899338 0.015415833270760246 0.26934755793784176 0.14468700081485725 0.5081134689779612; 0.8174199993633285 -1.4614553746590337 -1.0433563350109967 -0.5582170628770291 -0.3390343488737524 0.6614825922064969 -0.15857270941098275 -0.45893292682881176 -0.25641698310296024 0.10660172689564595 0.4807495142595135 1.2721978003240073 -0.9547498030865808 -0.7517928874688551 1.6265928496073552 0.3298039629299655 -0.7633379382972408 0.4423534250550842 -1.6476581665046077 1.4116807355033671 -0.18586791186935248 -0.4505537875389719 -0.3811639530831205 0.9746521754850015 -0.310258828315578 -0.5877515203805593 0.950866726533781 0.8338732579478356 0.4400825156389024 0.0005490046853238032 -0.6621372883845787 0.12383876337750245 0.031215564716460458 -0.190705036545487 0.004674764231399674 0.1263122870761092 0.8593777948709554 0.26680552702901766 0.9192949698296603 1.0355306674218905 0.8284537826278864 -0.5298534694846949 0.4262250244149544 -0.08470255876588087 -0.6215582078300677 -0.6449187895486014 0.4122587530862919 -0.32142950252624325 -1.0563050739812057 -1.789738710337178 -0.7600649413109498 -0.15277727141961003 0.3736234231272476 -0.4642081389541051 -0.7069350606262623 0.8034138033594532 0.8846096764949376 1.2826947359241483 -0.1839248127066641 0.0970628249602557 -0.016670042008818112 -0.5475344660407611 -1.046560026639556 0.6185861913609297; 1.465725966424265 0.9562798337157793 -0.3765182958610622 -0.4270681923298003 0.5350164906891712 0.20522169414618163 -0.010302813928470628 0.9654651375135161 -0.2539677271752405 0.13382154465989843 -0.13747067913957672 -0.5557174744728982 -0.3314518938446103 -0.7290504253822834 0.6667129139981991 -0.07763510855823998 0.19218923557299797 -0.4201966792555717 -1.2645654446243573 -0.04519976329426774 -0.9907839142874851 -0.292623537299081 0.48865852562782414 0.30877849640116045 0.536389092756893 -0.6071996523618064 -0.027890270420866243 0.43711560515514836 -0.2786608421317344 0.05461683168120862 0.45939594565792835 -0.581276792920626 -0.6696435377396232 0.14576603651006773 1.1065291138877895 0.1848291834661971 -0.028058037999524586 -0.20847970135491126 -0.2308120478967345 0.7465953773060336 -0.23970236841883522 -0.7818035100517562 -1.3576893002241026 -0.8223064274961065 -0.1708195747156994 0.005403191184369546 1.272775218491249 1.4341620558091401 1.7178383119419536 0.002539164460512757 -0.47309034785743753 0.29041956000657754 -0.18813846208154278 0.11365317777378003 -0.4277650145809096 0.1139929578712114 -0.7606304456748335 -0.03470887868003912 0.8193447920730885 0.8573867103370663 -0.6548994802441067 -0.44059513648936716 -0.9065709054203123 0.5812447250154534; 0.11473628607768135 0.015948474247164727 1.1179498408060298 -0.7485657992753996 0.5989217623594735 -0.01336143953875198 0.6373316840801693 -1.4021471450016427 -0.6482073299791127 0.8224667739243038 0.27735212654757274 -0.3623978360031774 -0.46108587994260936 0.9593297859859763 0.530713113044971 0.03639932404877921 -0.576163811568063 0.020963881689903492 0.0010545756838342797 0.8265326991499986 0.4317566299566761 -1.5606668261891021 0.22516480164684918 0.3901226810000164 -0.45766079212930416 0.5409067256412785 -0.6920325132811201 -1.8667903543240725 -0.4450745711427498 -0.30551607807851666 -0.6042038407915927 -0.0015492540026560715 0.09302514074172115 -0.0993396563896668 -0.37464305765606837 1.641090064576747 0.891600443311295 -0.12108152975528721 0.09158526842885648 0.10744773620487941 -0.08054892572026119 -1.5681724025029051 -0.013436020938781355 0.33071307464754984 -1.0404847204442034 -0.3704746982236897 -1.2120477571690418 -1.6412638327163693 -0.280170316929103 -0.41280900929944875 0.3320125021957095 0.20311067487282222 -5.486700916094056e-5 0.1479107109847618 -0.93140133046379 -0.6518725160539582 0.20668569457805505 -0.6747343119679208 -1.3993766031400343 -0.006673467011110433 0.014036010187502758 0.2403085688040392 0.581955190629829 0.2078402885479565; -0.2712479755732827 0.038286017441597556 0.0028711102992824726 -0.12218701034492391 0.002024823798661318 0.17338366927709076 0.13506736429462382 0.02477982111998814 -0.4500568720546044 0.5594209936190689 0.04157932670955582 0.27661200403784625 0.016001800598610092 -0.08882466086502996 -0.2140634552620403 0.9051250860394549 -0.5091473002998438 0.6477391394514181 0.002139561305608913 0.030951094441224385 -0.06493564082781746 0.08835442952735055 0.016091334942898716 0.17691599520182485 0.3946884935770222 0.22180125113403001 -0.5210107091006139 0.47038813942426233 0.28579886188025283 -0.7970006240680548 0.9503503219771977 -0.3231642948958407 0.013180558076093302 -0.5382407639248785 -0.31415379501602275 0.27718385490047787 -0.1248114287477828 -0.21625885699693023 -0.4442367449681469 0.9526617201313197 -0.6747327004000371 0.8551117595926059 0.3516111470764523 -0.05175834130956886 -0.8358891206317849 0.6975242966439732 0.028090415853243574 -0.1933230947995626 0.3624521157072543 0.16338592511032476 -0.19487603059869954 0.2764112358116544 -0.27943217185002917 0.023852900136144068 0.8200264243548582 0.30766873606137257 -0.3760407469125946 -0.00984517201735486 0.30897316842232214 0.08050653893602679 -0.0882903458902682 -0.9047747396229038 0.2327160980835577 0.3445077462965061; -0.27242566947747165 -0.3882395170473885 -1.8512219598741249 0.9770830001038807 -0.44323092718777257 -0.40122199749204923 -0.35493093434691214 -0.009842280269569985 0.34350549929339486 2.027122157051812 0.32253019962475615 -0.37750951215942863 -1.1277061569767306 0.9035791382184847 -0.051416329325658205 0.8004214766545945 -0.48649889133218516 0.12017894186628426 0.5847980904693368 0.013866017720344554 0.06256957115803594 0.189132741561124 0.404760068403048 0.910204907779151 -0.1436969991266396 0.11168151870331812 0.004866537064440604 0.37067736152833203 -1.0469251419969012 0.7355140920692269 -1.05457799945134 0.087720176021133 0.48527774360975773 -0.0019405431606544393 0.844387938460576 -0.19080311934335273 -0.8229756848863937 -1.4399717485345815 -0.33235723298878106 0.608422796012128 0.7759845237928906 0.8251533138604505 -0.5908442095717082 0.13639847165038244 -0.019859961358117656 -1.1960534320739165 0.15594443937618777 0.36210298395882584 -1.6786030858079097 -0.9120242085107014 0.37317597593391205 -1.2221642743530536 -0.04463072813386559 1.6954258732045604 0.6899573363629744 0.7611790082034101 -1.2524521301687923 0.749936905638767 -1.6377396995433025 1.075393717844586 0.41004690505887836 -0.8942818740070276 -0.0011505057978985927 0.1309507420856783; 0.1451388453614992 -1.0794913025667527 0.10777227686310592 0.10082049892764781 -0.5730567983463204 -0.06076711035970336 0.0201631284486676 -0.008791272624450518 0.26155175402119657 -0.15477770720012898 0.22892048647701038 0.16327250020333736 -0.21153950223359527 -0.10366840082420878 -0.21832987427121373 -0.07567623733766746 -0.41236296765645014 -0.03592914617128491 -0.6749447331400342 -0.06305613981006354 -0.3640484690510829 0.3122981320735739 0.21468896874647533 0.7834174861783105 0.20497663484106482 -0.2627344514488057 0.18577197397507905 0.5065530787775375 -0.6985307782964796 0.7546456180893548 0.0185659849392973 0.06674104796934746 0.5416519195483936 -0.24270360869778285 0.06052874455220778 0.1597527408040575 -0.16958378899015789 0.18448843702204404 1.0946393652383328 0.32743993403623173 -0.5101548967709558 -0.4711965951995568 -0.22455821227077158 -0.6869491037391718 0.08203474107347969 0.6681207710181235 -0.004416488211343905 0.01496643225958779 -0.6064795413932268 -0.2700280556537245 0.027052672827547666 -0.427464217411038 0.5543074020009525 0.5975073418488464 0.10859004763987516 -0.7107273312615919 -0.5614638130207719 -0.25217197119816526 -0.5959591513112872 -0.18341895425518231 -0.5603573449597234 0.19727780128038808 0.5207632099536526 0.9258276523192235; -0.4297085051651752 0.039079235454740825 1.0623059364667038 4.399249833926874 -0.06374839960876356 0.5957531277184798 1.3162641602921135 0.08460301096893483 0.24750364109637052 -0.10187536324213695 -0.4387725865734654 0.07232028284326424 -1.5924551355761682 -0.8942468437469965 -0.09165697962064231 -0.27224432730113957 0.17476393234177823 0.16318891288080944 -1.509642667190279 1.9986653672648924 -0.5778438077789941 0.11716758143916772 0.16522711348646815 -1.2842970410781307 1.1063367937782251 0.1184600111790779 0.3909596275577349 0.10492072944167836 0.7645396574362646 -0.718506913221833 -1.6073609073790425 0.5284723829361834 -0.46983059046783865 -0.3703289481910325 0.17303406046883932 0.735484637232219 0.1076165891007873 0.05448791327454645 -2.122976746253316 -1.2860922470002953 -0.5677413185757142 0.7684736068532718 -0.06883406383186741 -0.16838554783945556 -1.9193508061310436 -0.5142301360836282 -0.2849312391653446 0.10390930089269966 -0.37714182318820477 1.0002690225066488 -0.13229376416222907 -0.13444376935728028 0.9771600114073893 1.1832201861146774 -0.5683442654733717 -1.2863682801143104 2.474825367981151 -1.4068270731151573 -1.4033016015664836 0.7299273374372569 1.681072855166819 -1.09068403620466 0.026623025922473065 -1.0423057639739688; 1.0084557746008989 -0.7888749479742511 -0.6230589642616091 0.5006308635591857 0.22842177703785915 -0.08153561189347412 -0.255499374870111 -0.18701723293328978 0.0003532642541587757 -1.0380842871198717 0.6745084957994317 -0.5525142059323749 -1.1483378871616328 0.0009599770384824745 -0.8545613754005952 -0.4295513247686873 0.4945655757369918 -1.617950515232645 0.26805934343423177 -0.36848172284579667 0.18068149066581773 0.8561076236282141 -0.03494513747586 0.2282737467484901 -0.45868030088317946 0.7769446036787281 -0.5136917905276587 -0.16638964589164693 -0.4781853280730115 0.47970291570374135 -0.6944530787540992 -0.4734933189709056 -0.05994272172138311 -1.0063537466742625 -0.14822305261040902 0.3063913403818842 0.2586428419466154 0.8708751022330004 0.001260665121372181 -0.040847750797497216 -0.15104829009835388 0.0350845929409222 0.5036529221903109 -0.0342562213604031 0.3894064338049153 0.4507502218279147 -0.9871164942106088 0.9256403992451353 0.2803771455764151 -0.5630734201331725 -0.14316391822829935 0.0713438391246656 -1.1977076636596264 0.2353483130921404 0.6555040692693153 0.4907753662993788 -0.34434086802952196 -0.8354377527418805 -1.286097408302493 -0.8659839101878821 0.8815163036923163 -0.6153475618222439 0.467912217462463 -0.2478981800360379; -0.3403472600406679 -0.3368412564900561 1.063958481029824 -0.13744155499351673 0.7139157127759097 -0.586512430500616 -0.19152421294898567 -0.08702800293980752 0.24859682945200082 -0.056022658364896 -0.6670076997460898 0.37748205252013367 -0.9575008572782729 0.005363966789880888 0.8612957815357508 -0.3599550437844789 -0.3442392056780427 -0.3808575487267985 0.538730680631926 0.046618745918515045 0.6156212686831267 0.05371233701477272 0.6322044197920439 1.8160957908524535 0.0648044851373125 0.14661396785511802 -1.150001325766212 0.08580805614576936 -0.14628756878283944 -0.14860940752891974 -0.47692832092798393 0.7876710572641727 -0.1269783140246112 0.3175948059800702 -1.575600911065982 -1.1316475346292405 -0.512231507136029 -0.4554602205745981 -0.011083230514066447 1.3204881319176571 0.1199883459434475 0.752148057551032 -1.2124737387142952 -0.16177359328517657 -0.46085994122730023 -0.17838329499891192 0.809679315922488 -0.6817325688861494 -0.29630248035962936 -0.2692113905857317 -0.02158726164086549 -0.8216212977438623 0.0016592192332557055 -0.13675025604971147 0.20097579373470334 -0.6200205337088008 0.012715517038198077 0.059637696430609156 0.9249097876742252 0.3211843238944193 0.26722637867552856 -0.7978583419380431 0.013807982094030124 -0.3484163993217717; -0.2830307062975794 0.007765488049865952 -0.05011936844054714 1.1732580518890245 1.0346457131692717 0.77851102823397 -0.07296593542264802 -0.4090676988336364 2.034845205013807 -1.0492230353781988 0.008802515428930643 -0.21484992915589504 1.0325194288907074 0.17735477069156974 -0.00712991241252005 1.5106827912838738 0.7578244385530309 0.42193002895285675 1.694994685794823 -1.2818345299787817 -0.3711215828390263 -1.5709908974230307 0.0219908729395689 0.0002571982232445979 1.1227421603545868 -0.3909025047672419 -0.65815667723263 0.35542984252118476 1.3379955824433583 -0.6085479383475942 0.9334603066203302 0.19985986535056224 0.45586460276836904 0.4640104977665906 0.0798899617036448 0.14174597454213547 0.011447369964345304 -0.7028742983866406 1.2666696311363452 -0.2562372769125054 -0.4184770663107564 0.41216318116964606 0.7394956884781669 0.5506633535364198 0.0003589986121053046 -0.04701034405575628 0.05387959616410113 0.2331042538339573 -0.7588583055570569 -0.27030497094870365 -0.2155608160138291 -1.6192654262485808 -0.2140359920987932 -0.9199419065760394 0.13135209371069587 -0.4834609834378724 -1.1792728865298594 0.9423844272461361 0.5049372079070672 -0.1936848903901727 -0.5217193658523298 0.010633533432658418 -0.10146459558755799 1.0009291664223559; -0.19121635286732372 0.1634756511787069 0.0003241338809477583 0.6863325075858403 0.0034230079725524752 -0.07684936648800912 0.3733454284393295 -1.0532829705544706 -0.17035464459407104 0.3440436187421524 -1.319855335789454 0.17827892434459633 0.053509127368481006 -0.40494643410101505 0.2703075516733389 0.6697869363446697 0.2118532333814173 -0.022440948884359505 -0.12591475274820763 0.378148778342889 -0.24901059047638063 0.4255374278455682 -0.14054398812470106 0.6362494004451346 -0.5105796856889087 -0.773280330521322 0.04827675532379579 0.5095506008042587 -0.1484727211151649 -0.21289665901944935 0.7378150625181294 -0.12837330135290617 0.1560621697616877 0.03248676369515136 -0.37083394506230527 0.15731786158470112 -0.03383627697299181 -0.4420755687044122 -0.9112801445878033 -0.9700191664875062 0.44679388543230525 0.25090438934058423 0.12043557206497692 -0.0033623724336724423 0.06979416594186462 0.652004030787076 0.09812633875865787 -0.8808560057099619 -0.03816870078231832 -0.2095489895050692 -0.05306902905608987 -0.19670771625355757 0.0006521837392273433 0.08711104578247396 -0.019319013433367817 -0.22403821662126075 -0.8766387982508776 -0.06547876946499635 0.5964802450170283 0.21580633790956225 -0.5265806392988364 -0.5608955942408269 -0.42984380940217076 -0.08822608769643438; -0.6193074820222144 0.8659766174725114 -0.5189053110386964 -0.00584170763877312 -0.09959730176668269 0.3581653965411002 0.34809797596059516 -1.6651810057833505 0.35063298412735877 -0.249588788524 0.09714947169411667 -0.051760412570372026 -0.3473296443543201 0.7847143705481252 -0.24380189435194208 -0.49511528188900455 0.9382712297249957 0.3571492456195565 -0.488607891574688 1.1443479805308805 0.196097576445107 0.20074968923063322 -0.2770009157369751 -0.31048805417612385 -0.014522934715291957 -1.2119072133174893 -0.3925298921184684 -0.4192883908108825 0.18584775587727353 1.4926485558541311 0.3582328304667688 0.2759936646133072 0.8272567672964742 0.22918996297590966 0.538747286540432 0.5045159121468509 -0.33460690867206777 -0.0060148402509375256 -0.7946470320027608 0.4735437768322606 0.4204010282033886 -0.9181642325163558 0.08076234615397954 0.17623954152167282 0.1537273015621326 0.688062973651492 1.4249535012576222 0.40989647931620815 -0.2183277245635814 -0.8742286599187207 -0.6617787298837434 -0.8839716999986484 0.21800744304367792 -0.5694267630050196 -1.465034635254183 0.060889488323608534 -0.6849063941943273 -0.8626196517482092 1.7710328050512545 1.4100724023292754 0.6303054644538155 0.5333030965340398 0.4994135974740045 0.4002262113496679; 0.28799305015084503 0.6021584953947098 0.05325953001244855 -0.11904322449761356 0.5968679840767522 0.515181664669583 