[-0.004126605809451074 -0.1879643341456205 0.11955089090341635 0.3134509795172322 -0.010909504773351671 0.7811170032769514 -0.0017448534450006626 0.15881212433548475 -0.01371230883028466 0.23430635642136283 -0.00012039438080628718 0.5695350260634042 0.06055006489554162 0.43266737808102157 -0.12572617933546695 -0.3570159984331364 0.033867331075834346 0.0376138321596217 0.365664027523819 0.0004378555032260581 0.015419024329548748 0.21489991812624026 -0.045463601261844906 0.10710721033212474 -0.27999851321872116 0.49212893184892337 -0.17212664528893135 0.2285535634883333 0.050474165602868416 0.005428085019989643 0.0013387023372496473 0.047219530270039986 -0.09876863484962357 0.05623037872919908 -0.0030843028256415154 -0.25321756662335293 -0.2442102072705732 -0.04459948728806786 -0.05732663102486695 0.12946209068787906 -0.05044564270596466 -0.0016955298165920742 -0.2141840478588203 0.015159700310030652 0.003404873843134365 -0.0011070912625384844 0.15068669301168391 -0.01620095042812581 -0.326083705561746 -0.24501450107927739 0.16110777481344563 0.16067915414739442 -0.07405075480016461 -0.3943179368965982 0.29735281436492633 -0.10351351592632566 0.0032473949125304716 0.028243192563334015 0.2082810971360303 0.021531867766507857 0.09134315169254476 -0.5599459779722813 0.0671493415956351 -0.09607214941638267 -0.42200219654795734 0.19224785407502276 0.2072866088940993 0.014896086001948378 -0.0017728204000675772 0.0005091523992291551 0.00017608777522133305 -0.00207369732352713 0.017862396134713857 0.039403296019115686 0.03229854519935748 0.002209695498884337 0.00410524998016739 0.16331746269663622 0.4453051270376248 0.04787670790691684 0.29285627987166785 0.12181133414552027 -0.2801461984692408 0.12406280444055463 0.29604877019550546 -0.34059752630696016 -0.18216388390688404 0.17827651223108848 0.020176046895200226 0.13643542600012645 0.10021207771754302 0.9891927516833371 0.7873013107863625 -0.4175862711630623 -0.38063848030604835 -0.2624582915586364 -0.18647262456959274 0.06864446841120317 0.2690847536349291 -0.16036457062271592 -0.3839593843343866 0.09516133189459981 9.199150758524312e-5 -0.12193327129910723 0.06542103313569697 0.20137043816934366 0.22282679268830474 -0.08549103861428055; -0.3332285080167234 0.1656396223869074 -0.053366751694086015 0.43468894394940355 0.30305160657900704 -0.3132953303803112 -0.03145511694126822 0.13521867293494563 0.3029685006546404 0.05891351793363856 6.760307698518503e-5 -0.26787650290811965 -0.0770066601649074 -0.2659353966392477 -0.04816298236951971 -0.1319563720306809 0.0872726880832464 0.040043230447482495 -0.0018815761345491904 -0.17019888550319134 0.0002170845823433174 -0.0786409758284861 -0.14672054139363272 -0.014860272578026181 0.12106553810395457 -0.2543321588408424 0.17337643708944322 0.2154889968478885 0.011080606382886632 -0.07025048170447135 -0.009123225341779924 0.0018640179945042048 -0.024223053627505313 0.1352442984913051 -0.0012505949396731917 0.22523325557567925 0.2747271722796121 -0.049686429178034994 0.373443676853212 0.1767756973138443 0.01664433869861063 0.3893578259481412 0.46480910901096084 -0.0009971717040625455 0.002058446195809773 0.0032671362174995005 0.08700349626475713 0.002632481800222787 0.20381104342502154 -0.040159663621946264 -0.22132212742016907 0.15660013189927163 -0.08950792587847406 -0.0315452776133618 -0.20713081271083744 -0.34681687084407553 0.18676301654340105 0.07371625674322141 -0.1795845319043185 0.3362741280360891 0.028725956747714654 0.2831365132386043 -0.2744581286902188 0.24028409154553831 0.14397679436041705 0.004358299164398215 -0.14882276255801558 -0.00040630169739539255 -0.001398341657527368 6.682150419680795e-5 0.0408634090842734 -0.18298104415113417 -0.0020921232748414295 0.2072108124527503 -0.2931497404471934 -0.051355232625525556 0.02693393537320046 -0.009020424724096613 -0.22053776173232406 0.006534220880425666 0.011363065282136651 0.3401008691405416 -0.019821469279360474 0.28659320560165225 -0.6672617869922995 -0.6942633339068724 0.29252364048989066 -0.18463638500066804 -0.11257515930979628 -0.008623467020325359 0.3891646544584834 0.2072451341140639 -0.004676038404286254 -0.47018546816181434 0.7408642107653922 -0.3278463639918164 0.23517938468474453 -0.04331163174822936 0.3843250180914249 -0.11195613774600661 0.5070436525421349 -9.58452402986633e-5 -0.2734604007875642 0.00012614068158689796 -0.007857480629680322 -0.18533533806756522 -0.37762776455384206 -0.01908790499247602; 0.019141345364008633 -0.09893782793048453 -0.05167830749966031 -0.3435317326710621 -0.18970608058979507 -0.27463881645271465 -0.001078746948275714 0.0366012700128226 0.0007192910811270307 -0.0019240048929413482 0.2200892318897353 -0.0003981989767755749 0.48968043892944235 0.12228628930716182 0.12800120234099138 0.5363135620031696 -0.09899083196783796 -0.03401846563767932 -0.2846814405422474 0.1698698963800325 -0.016388742943668523 -0.12892046246149536 0.1227533426317182 -0.004617291640574272 0.045390577583233345 -0.2905465322957606 -0.0208566331018107 0.03589818951068423 0.0045591889874471055 -0.1774533453636597 -0.0001280615301817671 0.044113834255952 0.1028839002296299 -0.005532422356536601 0.019744101764815506 -0.0001079891616951888 -0.12004386578769514 0.08029592787735379 -0.1947476801052801 -0.06567891668572537 -0.5764865366757138 -0.25551197346026916 -0.2564791590922605 -0.014342732822583089 -0.0039060779044782757 -0.001949476677729934 -0.23905777431898548 0.0005485907732973665 -0.04638130725939039 0.5455740298367615 -0.025982143662368767 0.4686317007659252 -0.039163246749389743 0.2847342175600916 -0.060879727233400016 0.08427150350980749 -0.004990394726792953 -0.03837900814667882 0.18138818471438442 -0.13521962197227846 0.12263915360141583 0.01282460129002679 0.05623132203745507 -0.10992663477229882 0.17926878747849406 -0.21809936532487598 0.22106851470940517 -0.005205394500710652 -0.0002973069998717903 0.002881484931804237 0.008454275419294355 0.5718237753813288 0.17430016208922394 -0.00024194481993350853 0.28436594839673773 0.0712311047883868 0.009215592318263062 -0.07844955652550575 -0.1760096777479638 -0.08816653919135459 -0.09591291220901957 -0.3790144890910381 0.6059528275251794 -0.1908846896887612 0.08204553705006769 0.16939934578355523 -0.029438382708609632 -0.02081832109769819 -0.07471189830265387 0.18677869766943234 -0.1562273024791278 -0.9358944614053973 -0.594410764591144 0.6406452981301812 -0.10828204236531597 0.5162178005384306 0.10030309081667406 0.4837282776551683 -0.021058263480900237 0.2754601242969649 -0.057344914722582636 0.0022234348856878246 5.1872864123809096e-5 0.112336991335569 -0.008696884278099013 -0.01843050822891818 -0.022733008097315304 -0.3174096428878937; 0.3098056401750654 0.12255338302266248 -0.01567592877380638 0.0253028317698511 0.15970943174022822 -0.002858306385902517 0.3828528631439016 0.07230894233110109 0.20287206948743705 0.13904580334332609 0.002888778316065499 -0.007362900154390577 -0.006239790026208611 -0.2871634039906867 0.045835769974399976 -0.047186212674176754 -0.02237823017561353 -0.03770989816509 0.02133044794134463 0.0003452875969838917 0.0012164707734783808 -0.004064784966001982 0.0696499309983593 -0.0863840955258829 0.1161246448048212 0.05343412053252087 0.031247845402177312 -0.4783175953559865 -0.06478334319933379 0.2474889976742995 0.008330378887075995 -0.09268611482651587 0.01974034823666248 -0.1855899758734311 -0.015481811290647133 0.02595899021087827 0.08843220808732724 0.013639856692990358 -0.11813682868401798 -0.2375186858022556 0.5373940718708758 -0.019604051655336727 0.005869005059663733 9.440729420593927e-5 -0.0013779872345647888 -0.0002168262961674895 0.0016859991412218238 0.003064454370780605 0.16524483042893584 -0.25133695309350207 0.1420189297138284 -0.5215011529939328 0.2258289098730339 0.02804370322058422 -0.027730804390993017 0.2656933329402098 0.031999801504525416 0.09069597452916532 -0.15686061975361615 -0.12175431653693049 -0.22403012559030516 0.2866224521560912 -0.08959021752020299 0.09554521579435907 0.2031659108653867 -0.14279327324746602 -0.2821929357952272 -0.0053816753461652595 0.014040023562130147 -1.5908406897170957e-5 0.04424874944195227 -0.1229165284252372 -0.12195120488992353 0.0007758333759455394 -0.0747428101760238 -0.05158662011737873 -0.04096258005568719 -0.07672517222300809 0.32208241403956994 0.03988213531625734 -0.09399626659978778 -0.044207225515692186 -0.32802754315594196 -0.26943854204746237 0.3173310714441377 0.6323663049080475 -0.061912268902866316 0.3783645311324355 0.4290371142432334 -0.19684513521424504 -0.29360880979552395 -0.38287770839829827 -0.2558053093231243 0.21037567114663333 -0.30404511323266015 0.09824978634939202 -0.1547746822168538 -0.5057137566683411 -0.6035694179486818 0.0649414984307767 0.048821489619831536 -0.13056273783533268 0.23174044609492683 -0.0026234960604049535 -0.07423874901995502 -0.027921240894687796 0.11038641317238206 0.3938475699338432; 0.008408128287100409 -0.0012908433334648313 0.001170097064136359 -0.42991102256542485 -0.2621454529560885 -0.19032455005802304 -0.348574145809357 -0.4029410096143541 -0.4928475523929199 -0.4303416728053861 -0.2229252189019797 -0.2938974240241184 -0.46698405363386786 -0.0018548667582489746 5.218938959531553e-5 -0.00015497886517549955 0.00022904298437075962 -0.005928698804334872 -0.10043145878836703 -0.0004541539770511416 -0.0004638367417019241 -0.0032736948702568364 -0.00021913097459986766 -0.0012455505876413898 -0.002582247273287913 -0.0006843612448411953 -0.011641004100878467 -0.0016231544909194977 -0.0013306177738683647 -0.005213255626158098 -0.0004177943523639519 -0.0005112676939803304 0.00036744001083650153 -0.0003522789905364934 7.260729114633208e-5 0.0021333099984905926 0.001094692691329075 0.00035013189575869655 -0.003232537039046986 -0.0030401855137423646 0.07289376881219199 -0.11254627101594329 -1.4907119543790924e-5 8.57969224090436e-5 -0.00017925489990107364 6.25801893640734e-6 -0.00031841409867738055 0.009955423483825056 0.0034091389671789445 -0.00906291204203579 -0.0558224334447362 -0.26440983381865846 -0.023106982445005492 0.11308529372928425 -0.0016114700296958673 0.10036555032038386 -0.217019818233664 -0.1542764156890419 -0.05322413019248002 -0.10083205729338802 -0.01867813645137009 -0.02263758871244101 0.24066768257733162 -0.1298305231512159 -0.10440929615634051 0.164286485332921 0.0026605747497382938 -0.003902714457677074 -0.01057155450466341 -0.0034415504283330295 -0.09374252172074135 -0.2638525054814302 -0.06811923005917285 -0.247147997027878 0.05122805702712203 0.02950105245563315 0.0007078023840562809 0.0008776907759742502 -0.37084010159690695 -0.006126524912245246 -0.11431016634499716 -0.03869048867933163 0.022042383379363862 0.04966722169401674 -0.028163591697411252 0.23309520952222995 -0.019009104971530667 -0.3511863372651578 -0.2619261035259835 -0.11774552143498843 -0.03954061990137471 0.12233428400629456 0.06759080153219209 0.03675077004806206 0.05210142513863223 -0.02416293133736982 0.005764831285027982 -0.0033473576498010537 -0.028782090296772 -0.06808091435901911 -0.11456084310499733 0.0332738162953437 0.04157609032092831 0.012093635342356284 0.02537208079203738 0.03031664902182756 0.06714756679047058 0.02814101656080715;;; 0.07141747767607387 0.02236537593867864 0.04454488486421458 -0.0046954294135666255 -0.00869034682965914 -0.0021740467529160743 0.004228548945019321 -0.33632025996453146 -0.108267654645093 0.3081166662883799 -0.00048595776386449403 -0.011362349563243966 -0.32386578376368413 -0.39824289227491066 -0.17895323211589595 0.010340655552497083 0.22671792093338247 -0.13197576909149847 -0.1535664313081807 -0.012287528664528103 0.0076380992462986245 -0.027891343453676408 -0.003355527340818595 -0.6780189434599857 -0.10062291606370914 -0.8145211729113335 -0.27119381152755 -0.11935920404916013 -0.13722451669117375 -0.008202866972261849 0.0007172156313769083 0.09286091108137828 -0.09436728611353375 -0.14707378061816406 0.006689283873875193 -0.004309193663379806 -0.36413928649466715 -0.4009360025694567 -0.011942931222118171 0.2535957183945091 -0.15720790002094243 -0.1403509872959244 -0.1506618095801734 -0.2797869093954829 0.003697719782398725 -0.007244140385335498 -0.03188764870880473 0.0016798075630199147 -0.25856743559182194 0.13932198057212491 -0.17492174002747585 0.18402263449065873 0.38255889576937707 0.1593536917189157 0.0002934200434979145 -0.26046615610911633 -0.1587798600369007 0.06557065579093858 -0.3569221834960711 -0.0041331825708865195 0.032538193037424314 -0.10478869709417214 -0.21009296077385922 0.10099023629460999 -0.41368428067801655 -0.052026960347380316 0.12097349944807324 -0.31248282801019106 -0.00017207426172500647 0.0010679880635776136 1.1299010346116258e-5 -0.0013251729682986439 -0.3325957454803902 0.02957042711188028 -0.30571568418393963 0.06462577821540318 0.7936437704091778 0.25112955965195005 0.024410135469851293 0.020371997468007563 0.10100177904376714 0.6061932643344203 -0.44776529000746645 0.17511029087183091 0.19168636539757278 0.14375855642515104 -0.028911205810963608 -0.5007326558060379 0.02284310096228333 -0.29408054166034986 -0.005426118538896008 -0.005629448338596006 0.09217823897802636 0.13143328300104942 0.016760919714450616 -0.7434361074027763 0.35773158299858493 0.4011448469188278 -0.2640794394563803 0.20022477942152217 0.0011781880740511306 0.22493329461205827 -4.41653867229155e-5 -0.6186905751847194 0.11896533080950322 -0.046610445005597 0.0009893356947705983 -0.020675192446820513; 0.10492338215046688 0.3563417730160015 -0.009631664956152355 0.022527151944666132 0.2212601621858621 -0.007525218776653773 -0.004341691394443558 0.2557205081302736 -0.21341406542419136 0.06354127639290705 7.454487775491149e-5 0.0013337224583873973 0.01955317967622799 0.952067522448182 -0.3174359351911313 -0.07636505798150722 0.030263900971873633 0.48491263927566175 0.14802668654811232 0.0037278779793252447 0.00019443974538911187 -0.007524992220740354 -0.00904221679656538 0.01563483289800031 0.29199044337996627 0.04059939137041505 0.3345710527132302 -0.0055485222482639105 -0.28661893378113773 0.0435295059937676 0.09446913520657067 -0.12638089644904105 -0.005957299576723824 0.20357465679756506 4.463921965656182e-6 0.004878489515464139 0.45463998713113796 -0.24459650213551085 0.08543468544651622 0.23941330900586888 -0.2933293114134278 0.2415367734748227 -0.00011638215631132591 -0.09633092570852508 -0.006713381187001894 0.0001899410830143658 -0.00010285346164773593 -0.0017977661468915375 0.24953474191400304 -0.27357837358391596 0.6339608129058127 0.3673352304952776 -0.809117102498413 -0.32644952217559625 -0.02514322948055488 -0.04245848823869523 -0.11136227571101284 0.11464996710956107 0.6534315498822297 0.1458328429785416 -0.3176859370328648 0.0014846755677596197 0.05474981135202261 0.4291622524811128 0.5408556110444154 0.003767269323026399 -0.31044781892360834 -8.267856453550272e-5 0.2370706074820874 0.0001358222658962479 0.12352546011318254 -0.18372710656647948 0.7260317590170621 0.15285646351629753 0.07414322873945726 -0.20024951626763612 -0.279975779319198 0.2317747073147772 0.30725195107325637 0.036463432368503225 -0.29513461447023315 0.1643877059505721 0.300453559844271 0.5035646251996271 -0.15021719542568984 0.02194441702200741 0.14482781441540565 -0.004545506449848731 0.13657817459321064 0.33418181675032815 0.013684851706039149 -0.028665821552766497 -0.11913208589351039 -0.5134949944162532 0.31109952744063935 -0.05588111210882292 -2.1494377922361856e-5 -0.011174134893509055 -0.0002424774445213511 -0.34991166699096043 0.4427853408133493 -0.0003173783198429552 -7.41794409520317e-5 0.0017083841999624325 -0.12070732352680359 -0.03587058644584522 -0.13422452961945897 0.20762714203184182; 0.018111853275363292 -0.04979544968359785 0.09476073600252448 -0.05909537623302388 -0.0014628853907071248 -0.0013793655147860864 0.0023651573228231997 1.4548965379547864e-6 0.3519952588886037 0.26826661292758663 -0.06448140232010349 -5.916700691219736e-5 0.10993848367750331 -0.36994351763790245 0.23476295701179262 0.09119734338618987 -0.2819632370328718 -0.004007522042609739 0.12046887144188917 0.010047570527541719 -0.008190231865842347 0.04110803322441651 -0.2200221712829729 -0.47813451368378174 -0.49515537342936367 -0.10585553305978701 -0.3381742726104921 -0.11461471798872747 0.0004373594749562732 0.005148904360017823 -0.0001183384541510102 -0.042288980012712835 -0.1312039334342959 0.005194509382357799 0.005364606742027194 0.00030974085057218 -0.0031004468750343833 0.3577648197225269 -0.09213588062995193 -0.2402125703132505 0.7630274820555124 0.03519750533163723 0.14873550475095748 0.3761733162327693 0.0020493602111313755 0.0070621641431130415 0.03267384078471506 0.0012795845683110062 -0.1274281005496265 0.07143718319986883 -0.28989065563604877 -0.0044089610091755825 0.06678888878401189 0.04183957509942115 0.0024648798309698885 0.05471407834095323 0.46959180153905566 -0.0363332030634835 -0.053594896993980796 -0.24839275357696833 -0.0611458555890442 0.08115174384755201 0.05989849776789009 -0.09778732216667682 0.25968129972668613 0.30334560243278536 0.33440524899741686 0.35874795860895126 5.6948101504516385e-5 0.15570741830249535 -0.14566531636190325 -8.94622804157031e-5 -0.21433037044069958 0.006757813757397977 0.19722678298639 0.27145890128176225 0.005154570971024106 -0.04655826842166194 -0.11681654434904461 0.18533728078398468 0.050920965384848665 -0.12932226076257813 0.22567435046929327 -0.5026347354737477 0.2532960125735163 -0.0011818199915768735 -0.02622291151902698 0.1917939920235668 -0.5303487155699798 0.002910574853515115 -0.14143418077949535 0.0845728342743556 -0.12499173747657676 0.605169316833883 0.3147945334386206 0.2354166685167435 -0.3370595793154994 0.302591077921668 0.42824165063094555 -0.05311285928404641 -0.041838048623216925 -1.4783238494521777e-5 0.0001411154057901271 0.658136358212152 -0.01618303778719179 -0.0877540671740519 0.6898421969798076 0.05198346139015548; -0.1920468004545359 -0.32911544511200286 -0.13079432999022036 0.03929492544806002 -0.21707698238772316 -0.0028652707471055316 -0.003716022937934692 0.08019133725152656 -0.03081484260166287 -0.6446796694581473 0.0035663398130244307 0.00029534422998169575 -0.002908643102040036 -0.1836121006441416 0.2616456027087214 -0.024712094865311986 0.024903344959373724 -0.12663719344678442 -0.11460550335192245 -0.001343155644137924 0.000226639178819617 -0.002580522775992548 -0.11702439389318899 0.8920536687562303 -0.15092037107420975 0.4514254824436461 0.24560412635567092 -0.2773046819120316 0.11383466154501426 -0.037667343058931796 -0.09754248202184417 0.07705792378889578 0.23167397931002495 -0.06164769178147624 -0.011983572385117866 0.00044930962372030355 -0.08820422029097089 0.2879023290501821 0.0174780202803845 -0.25432037913671063 -0.5289621635666506 -0.1441002836379789 0.001848212263370981 1.6170598654780048e-5 0.0009993469432573057 1.399185055316146e-5 -0.0004468859292581818 -0.0004389644398927647 0.1420632708089079 0.10531592274869221 -0.12326896647713272 -0.5214705175845356 0.07844388809976856 -0.030442295789483122 0.027026182145009472 0.09606513527289212 -0.11582002518693295 0.17711106080074215 -0.05293576964102818 0.10088310825661985 0.40784876610699244 -0.02067465958136767 0.22108919749537995 -0.5700687858212087 -0.14226241582832663 0.1105293834444433 -0.1386939165913553 0.005305971894069574 0.015117986184261582 0.00010579853877921839 0.21190778752929423 0.27480741950544946 -0.0997038455328772 -0.1894543173897786 0.17963159781076546 0.1765863084028861 -0.3060631065386384 -0.43128389712246923 -0.20083310554790507 -0.2338114886510965 0.3061071558498747 -0.6303922854010584 0.11729389516842831 0.1494568979964411 -0.0038192961510865853 0.22611505791487735 0.008007225735993469 0.09573171160472559 0.19415304221128335 -0.1490320047060539 0.13736510482457034 0.3486132424057252 0.5371992970688605 0.11391936143935248 -0.3861721118824197 0.5814008890683061 0.14257224690639053 -0.9915756970435226 -0.043692717699978754 0.31925178982411473 -0.3331308114164947 -0.2433098671875998 0.005406015890661932 -0.013245575110617807 0.0006236157743756789 0.36735817649229385 -0.449998096974783 0.003011064585161191; -0.0024059126473681596 0.00020374584092057915 0.0011203740796336455 0.0019687282538643548 0.00597005242222732 0.013943901791461464 0.001464008064535729 0.0004069596861933271 0.0005013037823435136 0.004755113849273693 0.061326475393188654 0.00979244988178707 0.1972827635119929 -0.00026901189122739396 -1.9392413486789675e-5 -0.00046084609186775564 7.807016824197636e-5 -0.22229215469476915 -0.0003236233298983148 -0.0001447641982009354 0.0001310536953349933 -0.003111174774007201 0.34944430931354586 0.24846495548953687 0.45470821718731624 0.42835183215705946 0.029192905069140993 0.5168271261981832 0.30957142945234095 -0.0028082003225917817 0.0024744696380476043 -0.0012489584085201798 -0.0001454601854714538 -4.7693780282547666e-5 -7.478215275017663e-5 -0.0013283463263768158 0.0008039665295345074 -0.00013464406774134195 0.0011661061251693676 0.001523922049583106 0.2164718929455083 0.0077169921274433785 0.00019447472215627224 -7.165172741608559e-5 -3.304574978551302e-5 -2.195669134507064e-5 -0.0002364526850044148 -0.0007226615445466183 -0.005602476581462469 -0.04249671293676998 -0.04587945076515535 -0.02547838639222522 0.2813254298452554 0.15569855114674255 -0.004641252538922398 0.15214543073396625 -0.08362964060420923 -0.3209984806377583 -0.18997869975114962 0.005809984912693411 -0.06155516652250771 0.042826937260228175 -0.12564454584143342 0.13770361921216276 -0.2445902142647583 -0.36561529485287475 -0.006237012930526484 -0.05148842392829423 -0.2520734675061285 -0.15701702717074842 -0.18977923029091961 -0.08966567769025566 -0.07940179756309508 0.00026961300420283733 -0.14528592535267304 -0.31242147163241546 -0.2127594555223655 -0.005062101422596032 -0.014012436646157991 -0.00836122196939897 -0.16289528580825732 -0.010866424121355852 -0.19565651547452614 -0.3254970785941514 -0.2909458863943126 -0.3906362113704589 -0.09770092282140852 0.2177524586275942 0.17677439780320242 0.10602015476256049 -0.004189657212218147 -0.39889080678871836 -0.38525371267679975 -0.3370269668580317 -0.25648286871129095 -0.01750033807345043 -0.16322275621155366 0.2990139070965357 -0.12022701603006518 -0.11645204297063003 -0.06899466884768887 0.018708734133879024 -0.005428786468777111 -0.02790859211677714 0.01730141473011648 -0.19712307786679975 -0.10660890608033631 -0.24194647556033796;;; 0.7450106701246566 -0.14630657495262392 0.09401432091699821 -0.7249526934226959 -0.4700688189676059 0.2784954408142546 -0.05521911315698048 0.12182104622933256 0.015922601105269833 -0.1347050024460745 0.0008148944855678558 0.008278744158234172 -0.25529072446191237 -0.07480315653750763 -0.002175785072804983 -0.5149351952511393 0.16668709841816126 0.5223726559437969 0.22746757953098326 -0.06349431928515561 0.0066497124893462566 0.29652803095841795 0.3270761499269909 -0.156398139295799 -0.05441208291861322 -0.4480035078619784 -0.1654788554195308 0.1611775170692052 -0.02321199172349306 -0.09719477753109003 0.0012587382788460484 0.20438410669739904 -0.3388678725819213 0.07448859115691171 0.5003948982694687 -0.005434593947117136 -0.26407032720269924 -0.025661166890748283 -0.0011616045241501173 -0.23151455296979828 -0.25007179865862283 -0.003243827371086866 0.20234983559782824 0.06963172021144907 0.002252280633656055 0.0008567784133347926 0.055304852306978146 0.0026707211225076204 -0.030130110751093158 0.04477638768360756 -0.28205413969045673 -0.31494483155490105 0.24708551414397759 0.20895593577417176 0.15775432583456034 0.30799112318121685 0.2776459560614478 -0.2361109160400579 0.11541905528285246 0.14868593799622398 -0.5561178729136221 0.37672497710469643 0.9519427420352397 0.08068241257111852 0.07110071547105369 -0.4513578257787224 0.579055911234052 -0.0015304873703808025 -0.0016828815826971536 0.0026032941410277003 1.8039361142171033e-5 -0.006087134908383972 0.007964287688098539 -0.026641888456868063 -0.19129956510479437 -0.014343578352398757 0.10300140962464724 -0.10838801593693304 -0.7704175980590943 -0.14800573814667173 0.0784398197252798 0.05705010863810275 -0.0777857401060786 -0.0015136754970118081 0.02158720824147674 0.3201304167249417 0.37327848935834945 0.061527882896392126 -0.13780024080630118 -0.12208187418314735 0.05503896558019022 -0.3265316767229639 -0.23557780035864037 0.07862196071131594 -0.5225164336353947 0.3223685183141555 0.03829678856290179 0.4712438781144146 0.45247880227529697 0.07429619673755482 0.036665506748806115 -0.042850035800094166 7.34639103888274e-5 0.05462325547737097 0.5745975117800881 0.014117815133933937 -0.09103601369739549 0.3425381183685813; -0.06542936214159537 0.7722595392941785 0.541599536888463 -0.3216893936482423 0.0906550402443378 0.014077126689635133 -0.18242623321991774 -0.05807450239342053 0.002890114309043132 0.12107622713644552 -0.00013200105123864126 -0.005600461760738685 0.17147548498387927 0.1549810490737884 0.013648314074061245 0.0865507849648744 -0.2580098032409819 -0.0030505607359155593 -0.0016152542449662099 0.016241212288785226 2.6273478990124112e-5 0.0035460192703999087 -0.21566234097134246 -0.001573091590340886 -0.09763870642202577 0.5927978207771067 0.006795834945631086 -0.5603010012143341 0.010029356576020556 -0.1855000111643743 -0.1600253936211289 -0.011822133399659724 0.16952753117007063 0.06979576327430878 -0.010346704872862263 0.006679099496880203 0.1382159422462735 -0.20948464980673784 0.5194063869841208 0.18201683376210753 0.1942352700721492 0.25856619839664907 0.00020459372250533533 -0.05254300241135491 -0.0006599213729696739 0.0004760317910397359 0.0036419580833354295 -0.0023290314015060633 -0.3337562130038591 -0.10432650084159187 -0.39951427932151135 0.597958770176669 0.09835044924266853 -0.4538841775359964 -0.4896021141465555 0.006697958083212663 0.009085116207665096 0.49589463355194796 -0.17604457168442722 0.2750683049050994 -0.17665123961299678 -0.16082849269497212 -0.4620986955167831 -0.036179762794034134 -0.047854572835080024 0.6464030681886175 0.5246732549909222 -0.00040783057185761836 -0.0010492311553259729 -3.9146334546709204e-5 -0.11511794053884984 -0.08007986843137968 0.07012832757217156 -0.17502187111556045 0.11464129571521729 -0.030902228724199225 -0.036157853182717234 -0.0727044846751898 0.1469250998104927 0.28518223798869 -0.16324274495093222 -0.2028172026554902 -0.0598868170619209 0.7927937659685971 0.16290094041651632 -0.4158228181185253 -0.016378919457807662 -0.22348569934195828 0.08981999102184882 -0.09819166403275302 -0.38263308601736046 0.48524354650988494 0.03163885143652813 -0.544010871917364 0.3486919182887468 -0.02867968174185786 -0.050502780704815835 -0.06549558233222569 -0.5819657823342591 0.020287008490764466 -0.007900103369879908 0.00028366376671706746 -0.1315259484996228 1.810100309847142e-5 0.36143697625211935 -0.20388934270567546 -0.1718367751089339 -0.3817186829552082; 0.04599196956976794 0.11356124883355993 -0.007513235793830571 0.11907863404332641 -0.0015921330413155486 -0.003499538639220921 -0.0047041947044993504 -0.3580866483818557 -0.2516699715897017 -0.0012481306336526415 0.016447715482876175 3.871922280467551e-5 0.25163521845620546 0.22957333619883866 0.11496385464762036 0.4209598028203781 -0.14321348785175683 -0.19619320249049624 -0.34108926286057195 0.04661980396357569 -0.006928046968844556 -0.19444059157844118 -0.16548446934946634 -0.057703795886366184 0.0017691267210913715 0.16454493528099384 0.07600270503031047 0.09344718434360602 -0.30165472837329277 6.128369402055193e-5 7.310856408013666e-5 -0.24658431600137512 -0.31269018903803186 -0.03566465265056063 -0.49730449919800673 0.0003434776724594319 -0.008523113738070683 0.20136028163708297 0.0681576421681867 0.06080558935175167 0.3371561880443308 -0.00876536406401572 -0.20206957692617375 -0.018635428374405075 0.00019802684746392105 -0.0014153040486109265 -0.060064250469727846 0.0011905761120643427 0.3520458747302366 0.10362970890570919 -0.023208604040471807 -0.08406715526412596 0.11245318555713153 0.3306018026456654 -0.04901500365031528 -0.24002628219945624 0.11954039247771267 -0.37678621335075496 -0.00023181775990221496 -0.716351688581174 0.20100441397828206 -0.16831198875145462 0.2213773141058999 -0.10587177620869496 -0.32201436654680654 -0.05224866870908149 -0.6720114004449492 -0.003926620008695511 -0.0001314696206824968 -0.10904851022565293 -0.058729197365094694 0.0025891110110038387 -0.1273962248080376 -0.2661864044989655 0.05351557751828004 0.018319658392979443 -0.15028780903959904 -0.14093759381763032 0.6575688089460976 0.06788519527555076 0.10570128347549915 0.024974121169287645 0.13051577265010253 -0.8328168415807403 0.09236206306371944 0.5834010548434482 -0.22573025257165216 0.02587040864745176 0.06112157415519143 0.012067471667688848 0.11253649521085665 -0.21850943501646986 0.10181138858021173 0.6059298011674503 0.16598134003844356 -0.21482137273584723 -0.14219396277813479 0.12841894728767447 -0.09386198916912084 -0.3560058734414066 -0.08056905197464131 0.0015487882520973076 -5.5003042265228374e-5 0.3795136789475857 -0.13695633429480988 -0.04657045929380305 0.24945700047135164 -0.08868533651270241; -0.2243727541952718 -0.06236032797876435 -0.17958392593269337 0.9596623498796404 0.38239158004678814 -0.28135640379058824 0.3168493954564791 0.29493049924041975 0.23466038075472573 0.015386562864142535 0.000932761948071192 -0.0006175795149604938 -0.16927154040859785 -0.30543087879478087 -0.12675895740198864 0.007413157942566194 0.23424163126898512 0.2640466963833923 0.23089104838710325 0.00039061237814102157 -2.69928729776619e-5 -0.10542233924916476 0.003840413171856357 0.20924630779311695 0.09451851218938472 -0.3556688563283323 0.07551967241105315 0.007671602365971186 0.23184446674304382 0.2825626018342868 0.14868571119149573 0.05151826321859663 0.4821271061114605 -0.10889745318063983 0.006756192905799706 0.0002714993256444862 0.13500901302093052 0.0340223399418372 -0.5864138372474045 -0.010639724339446238 -0.019386217859847104 -0.2347751439361914 -0.0006276047781285875 -0.00012194868366166907 -0.001579643275964538 -0.00017612115588198904 0.0009737358867619641 -0.0011516805360225822 0.012346149467656975 -0.03942410225055164 0.709255214248677 -0.13483849093454323 -0.46427470723327613 -0.04480785234552901 0.4738563120758035 0.1867464848430659 -0.35267926217584966 0.26862706181456986 0.12432143790700168 0.3281400658504 0.37210224641626194 -0.16852906549992647 -0.7105996405445105 -0.01773162517246715 0.178398033437314 -0.2568889364892959 -0.43283287396664927 0.0023525308600863557 -0.09939310553708706 0.00023880872678510033 0.04804401779894517 -0.09678039428936165 -0.519060946684271 0.00028629112350407 0.009522054016989741 0.021478552828487207 0.06171640222856949 0.18627574764238056 -0.04024230122950051 -0.01463754181874801 0.05766906917214684 0.128850782902416 -0.0002088113679169053 0.15890595478336453 -0.34698106894276465 -0.34980427290618 0.16051521207587444 0.12415648409415384 -0.2541191757272869 0.13408443842931894 -0.06964692329443523 -0.009939810518205729 -0.08961081566180731 -0.12310178115489312 -0.019722942942474907 -0.06594837664096936 0.24763892441912722 -0.39252611731543957 0.1806618025401414 0.030433250915524193 -0.012509053637641435 -0.0069845665148439585 -0.009534834961073572 -0.7132611797515652 -0.8911990541638944 0.23613579276668084 -0.007726175948320597 0.13255379633770467; -0.5012005233575574 -0.6771538851963502 -0.4485166960789373 -0.03209889685202856 -0.001385668282204514 -0.007716625074080573 -0.07449985437508153 -0.0005903946944761126 -0.0018031245793369444 -0.0005096569208608926 -0.018063370865276582 -0.0020994221053396685 0.0014515614304254738 -0.004320349940338556 0.00032257375311200173 1.1449523320568403e-5 0.00029456140559231845 -0.5871755891007774 -0.11565411081254837 0.00024269065465367247 0.0002790538734858373 -0.00021111940121193467 0.05023024722196155 0.006428718979389125 0.05576315043016289 0.04632960813221005 0.007160643032536109 0.2980046974355517 0.08299289677772145 7.090316715702045e-5 0.010007835586706964 0.0025040794850392087 -9.657566157784104e-5 0.0002777513999799738 0.0005001128956006184 -0.0018594825478669857 -0.0006315143264340544 -0.00023680488143404112 1.1412619247194868e-5 -0.0006681458046146741 -0.26193344159800996 -0.011781863025355069 0.000142752383968792 0.0016686592579725735 -0.0002107428321857641 0.000258615000118387 0.0001437041926523037 -0.00038058529704331737 -0.0005057004429413292 -0.004655493497173248 -0.004478191196237154 -0.0641082924230987 0.006385558289498446 -0.040865708538311785 -0.09299352011349298 -0.2614092839080392 -0.053592202570975925 -0.151624565975705 -0.0634641037455247 -0.03554262017054937 0.1596624521320749 0.12094456984165676 -0.000621720079845842 0.07910075160407773 0.12037019047351886 0.1140923627884823 0.0011151081866241732 0.003512407090847576 0.10225668789579269 0.10624555369238683 0.12578508074385722 0.18035828661812148 0.5683645562320386 0.46756387294788987 0.013620637854307284 0.005447595855131328 0.02172785036909955 0.13575434678737264 0.006165990532004482 -0.19042415329882106 -0.07856742742199357 -0.008057810054316186 0.007365595885813883 -0.11736920367420946 0.07013085722105214 -0.1379043805436846 -0.291684529404764 0.011930923703960556 0.2409778513565478 0.07412162811889257 0.2847045485207488 0.06973737574775452 0.19173837600370786 -0.017439108806509007 0.027566118250679207 -0.012919087195481068 -0.09323896949907842 -0.1416411257544238 0.042687166687941584 0.23098941729756314 0.06431270223335654 0.04800215029612375 0.14104232259257274 0.2791061443235101 0.09212090042649697 0.00020619409886375923 0.02114196428329829 -0.004687895238375326;;; 0.4152307359488735 0.15999888158384143 0.04319509090131804 -0.12584919601909428 -0.011178298950876249 -0.0021238035219722034 -0.002766759138540112 -0.11362532363557142 -0.2909603168544733 -0.7654018175816618 0.0032424715439248585 -0.0020835721001649875 -0.37720006170334264 -0.6976652470132931 0.06451610446288364 -0.2506577585427819 -0.009504084223328529 0.32272117683730994 0.08858072711877316 0.044162497064563336 -0.18018833629937173 0.10831439471182071 0.00409382843455732 -0.2899715274020888 0.06093047905318255 -0.0009138039950971129 -0.1967212248124357 0.10972728520628974 -0.07936135297837522 0.10806870705034284 -0.006835715578727544 -0.08790039958580095 0.06439115169613749 -0.07367354958585882 -0.0031598777301248336 0.009387266693435046 0.35531944263387205 0.2190037189926865 0.004213778574737868 -0.10669098983010951 0.5185552252458281 -0.6056491827122584 0.19463425260077546 -0.019291010160430378 -0.0023908280559803707 -0.004528079971560099 -0.07583704631692856 0.08681141532957107 -0.7181635152877488 0.3757315211984519 -0.3627686090083345 0.008599347976357771 -0.4234328113921749 -0.5197649185424018 0.16226615618743703 -0.4074274746717356 -0.017680470950656835 -0.08431383330551695 0.4757149565670886 0.16863496404460326 0.11451728091605952 -0.010555372041755755 0.19379074275135197 -0.00538685491979057 -0.016344685695520444 -0.0006663948826127775 0.40095838626477276 -0.0029534783887941118 -0.0011240951123618387 0.003074741300713786 -7.236985062558292e-5 0.00412693097094002 -0.6920460489196971 -0.24177511927185685 0.01057283963452885 0.1534342839978612 0.12390771114391148 0.1689813512636095 -0.30370662818586247 -0.17700435269337753 -0.002274100108461521 0.008319434943509785 0.37317095923104837 0.09020887438434463 0.12648829328936084 0.15725587664247148 -0.08945525816607543 -0.394226659873986 -0.09790780313383587 -0.114351315906929 0.011316264486589955 -0.4352791043495647 0.005533671190772247 0.005557003042873637 -0.0027887778579805916 -0.28160170760792813 0.15965426834907875 -0.08290529008362142 0.3009125749830781 -0.2347628044281558 0.00973385893281925 -0.03460052285188659 0.00015870911432536925 -0.10803959546981522 0.04063080258108234 -0.26742977596378115 0.19425677149753737 -0.2961185425936352; 0.1727695339253668 0.3301779469573244 -0.03606993356986028 0.18218628533822567 -0.21136191217462572 0.0020122969705505104 0.0043674739896185765 -0.051220676712756444 0.05850366699386765 0.1615982614588744 0.0002496776850609826 -0.00018427014956574444 0.1699317137833486 0.03108663509854309 0.29608923383994495 0.4199539822889506 -0.43225354353512596 -0.06633566835961029 0.3041803683038841 -0.04680403002589201 8.051035424495116e-5 -0.010801165241066467 0.13395191207233123 0.21673032923519667 0.0017627773158822864 0.3221551925426245 0.0016751634164675702 0.03656118085299583 -0.08536508364608812 -0.20440963592178849 0.22272860302118916 -0.4387182842689742 -0.08153106621792844 -0.1286236561405975 -0.0004362181991361761 -0.007968278367011555 -0.13111060539503858 0.42533125703310787 -0.08809579653171452 -0.4300038785152366 -0.32465305975464454 0.6423395931358683 0.0680858461846841 0.0056711451874198624 0.0029708816246942567 0.00013677436902525842 -0.026681921378408937 -0.026931695549215998 0.4745037512960884 0.1841711176823945 0.37551788801532826 -0.6610484357250809 -0.22367547858487263 0.3167109359978463 -0.3600892874918576 0.3609939158698637 -0.27939425432783144 0.06886997724524778 -0.3388778099573166 0.2893455961738514 0.8644200245245302 0.3452680209318406 0.08756294550260803 -0.12681635406867167 0.1309897972723249 -0.5451579261417158 0.017415058252548455 9.456380214487785e-5 -0.000566945317938856 2.03583627345697e-5 0.36681852569239554 -0.4903426050202535 0.3921963268715229 -0.007925464453986075 -0.23705166284850307 0.2072433952957349 -0.21478255988154796 -0.09178336934857699 -0.0750898295109592 0.44713164916795156 -0.22811458618982933 -0.0830711336384424 -0.005319094388792337 -0.20762348500643957 0.012083250614804341 -0.3211003490786453 0.11193679290186419 -0.16302758115712784 -0.44847557117254805 0.05551541414645143 0.3756761528778975 -0.01449323790283797 -0.28481784707174684 -0.09413010406073542 -0.4736955282856872 0.2915022299563997 0.0035312452193611682 0.4209659456504673 0.09603044048552228 -0.10146933596710224 -0.32249569938929923 8.621969522740842e-6 -0.0026775711956096653 0.0007423547028902299 -0.003975262450936835 0.2646987562500288 -0.27723836284857734 -0.030116941518760477; -0.41750726458876586 -0.516943114178917 0.40620181564068536 0.0049380012109849596 -0.0010865029241940403 -0.004021834648218413 -0.0005136624627486302 -0.1714732894062031 0.2250215031225014 0.5486115913615549 -0.06256066760806399 0.00011567829891832133 0.5869001481121713 -0.4468561507947824 -0.1884203637423279 -0.1736165113859592 0.4623649258788446 -0.16648982846288182 -0.01090657360331705 0.0042075246194285595 0.18132570738069226 -0.2164178638577129 -0.12361826595248265 0.4548379459510422 0.17987000800985836 -0.13383442353859043 0.04947647989743226 -0.15818947461148397 0.027991839950172216 -0.01179292513668276 0.00015211202171356832 0.20216373815176636 -0.3849967991023315 0.026568355705151685 -0.005744127256980923 -0.00010071399917442001 0.011707225818235387 -0.6737561827462828 0.4286006389325206 0.2770081722476574 0.05148761953579604 0.23231507749419444 -0.26186354370843945 0.013184424872302541 0.0009109548347792954 0.004516976199625134 0.1327941666133345 0.0009086240457311103 -0.007665128536343306 -0.34826396462737236 -0.3673366848460952 0.5024323490477068 0.5930980010477269 -0.00526668710847941 0.4783610669700875 -0.21760314488415258 0.0035603732342508985 -0.24272000032722496 -0.08556943661891311 0.20768293582052852 -0.34763380320214915 -0.07724845645353723 -0.14780429177670334 0.2535817119872195 -0.28529143418691383 0.22882327009750517 0.3258207022637278 -0.00928034611640291 -5.709268552162941e-6 -0.03295445678221155 0.052883446590320016 0.30439836674198145 -0.08515077541601801 0.0019938573497829465 0.23602823904426376 0.0020644916444513633 0.001381635455305997 0.003944274532096833 0.31241735556459543 -0.0518309256600098 0.12166852680638217 0.2634625509065657 -0.3853776569445626 -0.18049390066593668 0.14469099659866558 -0.0420272419070906 -0.47930622845657106 -0.012915724804893247 -0.2342330614753905 -0.23201403692707287 -0.5795622742094878 -0.001129570327414451 -0.27544862017773825 0.010031968283065105 0.04570901997177157 -0.03045734603614049 -0.22050949106508116 -0.4593384652454155 -0.6070912283838904 -0.17901627447540752 0.0526455773742245 0.0014086231737420027 -0.00010084219622584763 0.004675802830379817 -0.047625871690286085 -0.5250551045004854 -0.20676339241420516 0.32935041084238736; -0.1795689439730395 0.028522205110335024 -0.4087937488217622 -0.09280576536172874 -0.14250131244667424 -0.005976866242198442 -0.0031391799098377006 0.1376931544350545 -0.23917429621107814 0.053495270526857125 -0.0007557535989133221 0.0002707984756324247 -0.38504151661195357 0.5060007816844182 -0.17198957104456236 0.00424072847065551 -0.02055316358818039 -0.09061848601750375 -0.3902344266196706 -0.0018424177985048075 -0.0009501934681858771 0.11518644874768404 -0.01632784036987796 -0.33395248421001783 -0.24503092177952251 -0.18796974230052182 0.14071399234675888 0.00811690467234107 0.1344573484231859 0.10327586307922748 -0.16879443432064953 0.3263572235612433 0.40213373833383687 0.17553640685987826 0.00953810757304171 -0.002350032326280043 -0.23501795377267562 0.029677005331307158 -0.34544523253190906 0.26280865564124817 -0.3889520249054746 -0.26638375605442477 -0.0007389792971691488 -3.2732750236485056e-5 -0.001600846755568415 -0.00023945135943049503 -0.030203301182783818 0.000689431577152651 0.25013242601914887 -0.07915582159006875 0.45207027361450697 0.3573395603978652 0.08573530934107704 0.25158720433613285 -0.12654058394032863 0.1450396194533523 0.3091787319654636 -0.018695498042039082 -0.010076294055602465 -0.5089466319986468 -0.46696989630193503 -0.14583880978284317 0.05458049566999024 0.107071573437891 0.3694380915141743 0.6194292764027663 -0.7483114208271806 0.0045492719626388485 -0.03446607728283117 -0.00022643892222425156 -0.44227483854672545 0.17299694011140765 0.3513351684548256 0.01956794002140519 -0.2913729726533842 -0.42620647772386366 0.07365638660589727 -0.07760241266846618 0.06368420694633956 -0.1725577155582477 0.1702963391369552 -0.180810807383313 -0.009145468295466442 0.1888160080369987 -0.3727230746025446 -0.006952965466445886 0.011700384474251044 -0.06362223687456092 0.35500280243394694 -0.009909522455484328 -0.15652599581331506 0.2598210446390748 0.2390796073525131 -0.09581511422748291 0.305901998405547 0.011189779002329774 0.1541547007126791 0.10325242414685763 0.034846351107985195 0.3305668407229332 0.09795772138003696 -0.01665154813925164 -0.07409102793773018 -0.010556412024133455 -0.14699355258032878 0.5294303744549056 0.07373137867109095 -0.16810259198775235; 0.009075938687565017 -0.0017559194725838253 -0.004533224150380903 0.0315306748316124 0.3661280264963702 0.010110207441838546 0.002052127521507866 0.19862613531947645 0.24660944294918238 0.00169669423437547 0.059824271977991464 0.0018813654751799857 0.00540971641977636 0.6074339810251143 -0.00019540351593831895 7.955916913495432e-5 -5.413453220973533e-5 0.0007228060026859228 0.00837990480033034 0.0002764261404049243 -0.00026768796737959956 0.0037181856392745996 0.0019003658154720592 -0.047644263574132255 0.002467657400599356 0.0005627772915848984 0.004855589151777024 0.003784103879857316 0.002277248251105228 0.0048579909289009435 -0.04725056514352564 -0.0019022778582345602 2.9752902855071054e-6 0.0001924431614264052 -0.00019788438679977638 0.0010317579990309729 -0.0008981092843932628 -0.000255798610818771 0.0007266115563650457 -0.0031219595435595165 0.14356223987849498 -0.002621731863379619 -0.00011757577985098435 0.00046817285094445974 0.00010983835207523346 0.00011378076234020194 -7.189773521321204e-5 -0.06147777540323882 0.0011924665088548097 -0.13248285266340523 -0.09748286777540557 -0.20732282169684893 -0.03172502041175643 -0.04326653468309792 -0.1539973517253383 0.11899708423267216 -0.01566437992122617 0.27685935442953324 -0.041191415935256485 -0.15671686404033644 -0.16433360593650553 -0.11162538265370443 -0.18812989214724687 -0.22845007643664828 -0.19879176890406489 -0.302428225475943 0.0041172740461316035 0.007589988740413295 0.03616282698168403 0.030085796040987448 0.02264523611463547 0.008820367195924309 0.0336653290093665 0.22813878635465482 0.2818235568230946 0.0634643067858162 0.015836826676433234 -0.003539843778663153 0.002694895185886736 -0.04573865525631649 -0.06157617964504648 -0.007900044828320092 0.02667126039777303 0.10909250325103291 0.08946053409971384 0.21282467980971032 0.4451243092465313 0.633792202710568 0.42561363334782754 0.30075946114303476 0.3490958526583154 0.1910808679407423 0.3156531887061998 0.17435624696227958 0.12487328776634918 0.009367044685339112 -0.09683072321603783 0.01802538553171191 0.17530186180730478 0.1846815741477324 0.16215854170221855 0.049834825847873486 0.07671073221524032 0.11317784996067863 0.15796388414046936 -0.0016442502406678844 0.21601360509415415 0.16498766525776065;;; 0.11042804527985516 0.5423789586874317 -0.03126839230671747 0.008894563431829944 -0.018692420101018306 0.006912081872763524 0.0007196714152538194 0.062134789760890284 -0.06570344195672728 0.26480622342342997 2.4242776714915993e-5 5.2568400565936895e-5 -0.20757528260639307 -0.15890092374577408 0.007560229850963658 0.20602618677773898 -0.01647922749186011 0.22242766528707233 -0.018851621212462647 0.0018440358219783846 -0.007687726646079887 0.021408780069342173 -0.4748546765697777 0.39173520555634506 0.09323833547299701 -0.31265514996875077 -0.03350486546641147 -0.20984387033411195 0.02599270656778631 -0.0017707227174002538 0.00010388316333782578 -0.11235103480617553 0.008161205410729616 -0.2556200593168393 0.004217445238323757 -0.011859739719390236 -0.5067478578940281 -0.02833481296486872 0.157070415226402 0.41901979779400395 0.3010853324349293 0.007813487924573457 -0.22943224310446517 0.552690088310491 0.002314885313773115 0.0021014807431625642 -0.5525595609256206 0.01629872617742739 -0.6034058777805641 0.604446634573937 0.3187052040518098 0.005691304683912406 -0.37892704768732244 0.12392634411188186 0.26171897921142934 -0.19831241503330369 -0.2709226501288008 0.06894119736346974 -0.07578241669969112 0.06964692285252447 -0.13738558324952715 -0.13259434094577685 -0.3728690001696217 -0.4398125756650521 -0.7761771547582687 -0.43800032011806045 0.00030468719852566487 0.002413564301065398 -0.002506552850067501 -0.0006980523726590092 -0.00012488946352092912 -7.84875082201954e-5 0.025821930731900433 0.185335337427761 0.01592041599919863 0.44806867603165895 -0.00588385124915395 -0.3581203419712026 0.2028906930784653 0.13206675382780814 0.08684190393672324 0.1963616075264301 -0.15648393318510495 0.08189881673227613 0.38323763367862024 -0.20156400261573298 -0.2684439278191403 0.15097459515193767 -0.1033982407007002 -0.07307469381580356 -0.024149474837563495 0.0875783051851541 0.24524042277561348 0.4003611774566186 -0.08787699671695176 -0.14173041439122921 -0.1662851099767002 -0.218866462637077 0.17850967351530567 -0.025076918427501472 0.019930530510293674 -0.20130264076197546 -7.707966811707699e-5 -0.11077148688509555 0.05991444207204224 -0.18528235759362574 -0.730666099382164 -0.016305183368042233; -0.19680510357749084 -0.4652013176129997 0.29629519003522814 -0.0891254151718901 0.18652983950207866 0.004714064052020051 0.0005392006803663326 -0.08738321430350043 -0.1916126603991689 -0.17115926414383195 0.00019626613051454086 6.269509448181503e-6 0.1411959380355846 -0.06820246563200374 -0.31256734984592 -0.20827048803335835 0.040754535043803594 -0.019092974283533463 0.21119519149154828 0.0006418811174813692 -0.0001971876674165582 0.0028257946273019256 0.09173506220446022 -0.0017211245467908356 -0.09165895949851773 0.10553907227749285 -0.02146329706754069 0.16850678205557135 0.37102199044106743 0.03334710943670741 0.21879160166810963 0.13322124315159256 -0.00014189853896422902 0.01824223543315462 0.003070455788581346 0.008361231172036718 0.23313067840456625 0.0873078899459105 -0.2667616789318164 -0.12537693014755857 0.3131150141138895 -0.1670292562271536 0.0486245266131484 -0.049093760943949974 -0.0023276401920398686 -0.0027127629368236283 0.00021707359578905378 -0.01847594616403618 -0.001939855885168002 -0.5416880178501616 -0.6852737656159271 0.0059300661163780395 0.8945683609556558 0.364619263215637 -0.40990841698808617 0.1820309373334918 0.10947673955435169 -0.21074515799543178 -0.03265236547400313 -0.5272323372098676 -0.031635552060542964 -0.006165449133770519 0.5055516303724339 0.3695529982732348 0.0009960258155411925 0.4200548930576835 0.2022474571763078 -0.004980722279504979 0.0009072760894358409 -9.517371010645196e-5 -0.4166662947491966 0.06729615013526655 -0.017791814435922922 -0.22194463655349828 -0.04625575406091132 -0.28365524693657945 0.19435282800106676 0.47872855072752707 -0.06267695389069902 0.12175141698552083 -0.035207547013636833 0.09264314146117796 0.33955480554823003 0.3469077525243568 -0.07539616458542976 0.0730374435765065 0.45642313734525364 -0.0024364293634880456 -0.21296748922762632 -0.011532176945574336 0.20433155461748456 -0.07861900307703633 -0.3151482124583714 -0.33781129480060934 -0.02003863126842796 0.3045499199915025 0.7714760926598325 0.7044606439727971 -0.18187166021836093 -0.3907478818714883 0.0033598193926761737 -6.157536629585048e-5 -0.006299610408366865 -0.0004824775121738594 0.011697184466935873 -0.37598283221290135 0.1480422619632037 -0.38656202907916765; 0.3129293202955026 0.4660678203732665 -0.270582582609015 0.00800549427883939 0.000930279130153952 -0.006679153789714972 0.0011722200685714383 -0.1518723755347003 0.37302640952125526 0.02065077719957366 -0.0005056211341781941 -2.2744198644232656e-5 -0.24156407776755567 0.25961500188176995 -0.20729772143565453 -0.16641357303804497 0.09920701182882945 -0.01120832019549691 0.023519882936394395 -0.0012278833024972123 0.007587858543833483 -0.016094222991988223 0.3445643027931894 -0.07669000950895766 -0.008265752528874955 -0.11193825683568798 0.3391095396667528 0.04736801190902738 0.0018799310981376823 -0.09614587344285655 0.0001851752776744212 -0.17815402832155236 0.056681389145108466 0.041347227050198915 -0.04488237550411798 0.0001633512469865572 0.038623470737796345 -0.039821049171336255 -0.19754736607337484 -0.210974407424504 -0.009207981669274052 0.1555095241633452 0.1784454628189096 -0.5042054832441736 -0.0007363497897298994 0.0004771558146633723 0.49016733340308855 -0.000266275098303965 0.40669911592339697 0.30779804217329126 0.8945840335495079 -0.11941881161598088 -0.25740037877994554 -0.578537284689585 0.049912675104739825 -0.039938353017640524 0.22302339421841247 0.14052411328598774 -0.21289532284461735 -0.041253398531883964 0.5429889218426798 -0.07339076698718261 -0.3885905321687511 -0.6845326210499529 0.3635465995966614 0.028769925551621608 -0.008625660159596612 -0.07589783548816471 2.2229104166892102e-5 -0.2726602359520803 -0.01246077049312624 0.27279603951158093 -0.15433588009914082 -0.009693139351341876 -0.24946776505998483 -0.048220643995972735 0.004831743115443975 -0.019005455396988762 0.40772887367582594 -0.14793593522355136 0.5245895833335833 0.09312676099307288 0.12770881964792374 -0.3030525741708465 0.006868238718188441 0.0282165771874124 -0.08401574411494708 0.32417061082042486 0.1874410614584169 0.30368394516427577 0.14172322881831673 0.05749954370624359 -0.042273421375230276 0.13738155569324967 0.33120709087561817 0.1297417138266984 -0.06363598651509444 0.07790843121105709 0.3224063463557951 -0.34937202480465773 -0.2972184165221839 -0.01462018169016295 -0.0001917732009804304 -0.05530855589568354 -0.3200856870749396 0.10166838865591715 -0.5280950933896068 -0.19420497378736953; -0.23293274111729265 -0.5473711880767936 0.004790891037220751 0.07286341807590793 -0.17271938968886716 -0.005033070974324984 -0.003940918104543916 0.17432002933884688 -0.11671915180772659 -0.11787846760827778 -2.3336310240181874e-5 -0.0008648647472738816 0.30965925894346424 -0.05607814028577131 0.5121584073375047 0.16915595777910003 -0.12329722378571163 0.08506819619653243 -0.08491467214406673 -0.0010306063188740215 -1.3305549272188112e-5 -0.003497383588861886 0.04328621235575482 -0.13676646353359406 0.017656224343887358 0.3387071328459381 -0.25660342663458263 -0.0034881256972388564 -0.39209101918425787 0.0720370177180504 -0.21934975626471173 0.15499515057164592 -0.06460039218987645 0.1958401877852151 0.03751147755913495 0.00304209789593179 0.23453533008614894 -0.018917999262706372 0.30788606387550516 -0.08311576173366848 -0.3251423546655527 -0.12101594996227501 0.0021270592815821935 0.00021236480825597218 0.00020400493187323036 0.00017277153991448422 0.06226058707858118 0.0021969900195423107 0.19779650734378648 -0.37301526050227474 -0.33791196116830774 0.2087498957609622 0.014222659893130346 0.10422040273495026 -0.09670360908773115 -0.04962695298320209 -0.02531841008486382 -0.007640863539538671 -0.1320160780316231 -0.14719250859529195 -0.37822792398120025 -0.035868293534533295 0.22414238333224573 0.7041713677348709 0.4222273581979435 -0.32870329244606206 -0.3372949505663998 -0.0018112145740956651 -0.06910443019230789 5.004247571426345e-5 0.2485511617716708 -0.3565131522563633 0.13316604683245054 -0.06190693197434505 0.26765814501007074 0.16174788729140688 -0.18712333245078366 -0.09487197350436433 -0.12838758060975874 0.2893447259126592 0.010757422856089148 0.002595238539101435 -0.03877489673561417 0.2021479731038397 -0.09984605615935793 0.01913597431357324 -0.10351509748474255 -0.38944155843307593 0.12092080409070893 -0.03979627618045339 -0.20945102557413112 -0.042977894052510596 0.18938542421811458 -0.053842564865672196 -0.09926327561959555 -0.00326668041697133 0.004027443184980904 0.027109263477719723 -0.012947806919031454 0.5936298581554587 0.12468813291533405 0.002587185703139894 -0.18527801585533443 -0.011565621887514612 0.015525983027818518 0.15611839187612594 0.8990618398332033 0.1678310682511352; 0.006380479119425705 0.0041257266290951064 0.0007648938432836489 -0.000638060614687156 0.003951691157652851 8.607883925638288e-5 0.0015098259403523255 0.0028007707384635635 0.0010088446423674846 0.00358073112910611 0.0003084485371889191 0.000828771035903996 -0.0017158366051000557 0.023566527781779166 0.00014643409310617506 -0.0004980834854357084 -0.00018509559506131837 -0.2771945670045744 -0.1309487810714133 -0.00022742731808852009 0.00031036131893515074 -0.004642968115793989 -0.004730900783626763 -0.1765576079670025 -0.010969847789491689 -0.01965279831899222 -0.027537950498217955 -0.0025427979332479397 -0.00680360892273355 -0.007467530994501005 0.0002690961555898535 0.002288669404489357 -0.00010030382699740348 0.00019040904827064166 8.299691807793815e-5 0.0002930594044351693 0.00045837866551659426 -0.00023402854699914666 -0.0006474340967159158 0.00044730151172710925 -0.2798500102139919 0.12472219410150992 0.00023519439082497144 0.00039679106937650814 0.0005450997361234229 -3.864516091679277e-5 -8.54331518381077e-5 0.00024650506537044647 0.0008501103985486159 0.002458601605208143 -0.1901035108170828 -0.10095245494527179 -0.2724635943815181 -0.014228725372884138 0.19498037175964816 0.10584678370065452 -0.03625907355909956 0.00892071088551297 0.4533461830499347 0.6460313214845191 0.004260137448590581 0.24801885060126325 0.0317655186336932 0.050620830706899496 -0.010592828851877406 0.3178787939548175 0.14336846635116296 0.08027620804069996 0.07068147784877266 0.2734034195591315 0.18070079293417293 0.016499450117736066 0.01313971697071278 0.10820937045142422 0.01214495811162675 -0.2779406723905136 -0.006177387416573125 -0.006730779854971316 -0.4195550322538335 -0.3952269615024368 -0.5869813631127588 -0.38472674851978234 -0.2720047952754346 -0.327901968189626 -0.21486365165202098 0.08117400753824085 -0.0004483679264236944 -0.08326721817579857 0.008003864379200656 -0.17928079822244447 -0.11245428302410665 -0.023480951761850773 -0.0772042131601264 -0.14608887348358673 -0.12402818727064292 -0.28929453901000035 -0.5455824393530188 -0.5906118760244969 -0.3060965527337084 0.17156696694818885 0.14923993370388 0.21339721211529436 0.19184647913279881 0.17812814218046757 0.23294807750814298 0.303478409274484 0.2116570909753638 0.4292411179834442;;; -0.21431974236428672 -0.2985635424699237 0.31388369042102904 0.1256849393620056 -0.011182202432188499 0.0027453721026128365 -0.00184467597505737 -0.0011620569836762672 0.15665307599372194 0.1324713907759142 0.0012718556524236877 0.012904420981824585 -0.07159175838821166 -0.4788711127336269 -0.13028111525409733 -0.28129665372944096 0.11996607428282212 0.10183042300771207 -0.2750145833882855 -0.018368432902316996 0.23992529671806348 -0.13141439112784636 -0.008859689646133193 -0.28446060051198485 0.4433013661942802 -0.007870627733826071 -0.04870706416254589 0.07155329498875611 -0.08483760310514221 0.06860428835696546 0.0009345794724813223 -0.24989822478113663 0.006911922555745773 0.010277646794679763 0.050515324099367924 0.2932094062167695 0.010441361347953246 -0.11302601736535318 -0.24267545923340933 -0.21699799904576744 0.22819524014691864 0.007650753677400292 0.33909090420797183 0.0011559312754470686 -0.0010885180303737121 0.0011376302197732664 0.18273505478623392 0.002184941546830731 -0.01652526748093441 0.15267745954906461 -0.4607221100327342 -0.22461559949331916 -0.09609234253121958 0.5916169763172022 -0.367145481558421 -0.1748651923418097 0.2347039284770795 0.5946441349222633 0.16249374913429296 0.18607433054263847 0.44972158629798203 -0.015267133521496522 0.13108576655112142 -0.45221424202628685 -0.47810561121897205 -0.6591270027738884 0.10622827195041412 5.0628559128923246e-5 -0.00016231920151338905 0.0017864018510106085 0.00034320093755278356 0.0073410820438600255 -0.1462730639353654 -0.13485742185638808 0.032396861298086645 0.2888058399316255 -0.0029780189875833083 0.2680332790466782 0.28561529939410524 -0.11980875700768397 0.3945592667758676 0.10224304149603641 -0.1854432216699258 0.11048932741901611 -0.21706053911872547 -0.04864570922698032 -0.06542982076583102 0.16784275703737742 -0.0012685652068157847 0.030044283461991537 0.19714615284535947 0.3415106264394048 0.10452844279622925 -0.13450746583340384 0.01903463486403477 -0.3311100333699779 0.0016829472444476953 0.13275321303630266 0.5297816927522024 -0.26134854121194556 0.05722573435100399 -0.12616228168728172 -6.565383956689348e-5 -0.4276869519321934 0.19007501977780772 0.011940677674667648 0.0334583236915974 -0.04740656775396548; 0.29646463251438365 -0.16746407675459338 -0.3534996047780581 -0.2498053621747948 0.0775614155712556 -0.0009601930184442984 -3.4389680637211643e-5 -0.1176192759192919 -0.06291812048852279 -0.10053159722860398 3.2083358002323855e-5 -0.10135299140233267 -0.0194719429009065 0.40639542492456104 0.14538682462821553 0.5426355539324128 0.08456827672224584 0.018804089181398434 -0.003890909382375416 -0.0062571002455591935 -0.0001761234910066343 -0.019228978288110498 -0.01886827810069257 -0.19829535956632838 -0.37771880803158475 -0.26306960110971866 0.0013534125232097043 -0.0109490456439156 0.1927936117254988 0.07991916883243853 -0.4115805921305642 -0.006196104153400702 -0.23732684510541183 -0.0884717789122861 -0.0002991004068501414 -0.2924175540009482 0.22628095005513651 -0.06900076204372142 0.07647970590149016 0.28014905586987027 -0.2854832505181786 0.11244901502206363 -0.6520633505333508 0.002023715639587157 -0.0016071466795536686 -0.0022792079900635157 -0.2001906775278271 -0.0077032261293580335 -0.13480952679435543 0.4183148294533762 0.1302803621349121 -1.0637958845907596 0.6324071355109345 -0.26993233362473906 -0.011258689064541649 0.025586254679471333 -0.06303568645805828 -0.2926488969097907 0.5429663374003948 -0.3112270511388699 -0.18003309180117916 0.4037509155238838 -0.3054450723938781 0.06932005715079366 -0.30614633090627574 0.32039884786625433 -0.006411567614761946 -0.0018181245580336052 0.07473454335675678 -7.947796593783257e-5 -0.050351295327923457 0.3085767311817632 -0.024424708821201485 -0.22369987382522286 -0.19977562447834826 0.038696237459946464 -0.04296940566213523 0.04067849438395069 -0.25683440543480357 0.0034579328355066902 -0.10044530081000713 0.0075395157057971274 -0.05458684270300016 -0.3916428949642942 -0.3752973269364219 -0.4405957702777573 0.06003246938777722 -0.004118363902056431 -0.16430995086501826 -0.29044771131728275 -0.050340902567177916 0.28207007287025654 0.13097678711408053 0.29635755136448977 0.19888051347225266 0.1515844682064612 0.11599823079173471 0.5807138787654994 -0.24038566901304173 0.15723012987445947 0.00825763524021814 -0.000142682880074261 -0.011252890001280245 0.0016451251877880888 0.18781442071169005 0.0004700502616321563 0.07843941379758844 0.6207079261230051; -0.03116515088040553 -0.3378100633487729 -0.04427309794270424 -0.0022627775711518945 -0.09812911251168445 -0.014848371540814068 -0.002144952853651741 -0.11496308793313774 -0.10290320069130883 -0.46738139437916004 -0.2220826396346491 7.548356119073144e-6 0.08833185250900649 -0.3163436424519034 0.15061785058241436 -0.0002220884078199568 -0.11856034119352214 -0.07359099934086998 0.0921796054733789 0.0254987566955366 -0.23950153215564418 0.08421011838302574 0.05656437075201731 0.1358716437527899 -0.023442676271051434 0.004455507626214192 0.01850608401226102 -0.05774555154615915 -0.010488136311765655 -0.02048891623935876 -0.0002810660728099031 -0.0662206598947555 0.2919349160938751 0.06610425403916607 -0.04939254434769368 -6.279017815583607e-5 -0.24722850776943114 0.1740938275302636 0.5350525156572294 0.2132498925487745 0.3295691893015443 -0.05542914251148156 0.3114871609960772 -0.0034174781207321576 0.00028104182169431886 0.0010522769748383142 0.013831384529604751 0.00432254011125026 -0.18477894549138915 -0.06161755187051031 -0.07329586991606704 0.3363326815965251 -0.9590204702699962 -0.16461118869734973 0.06682877637567469 0.21967568355014738 -0.12931547091445048 0.26307236710086745 -0.2756499753433097 0.21678554886922827 0.0058228278047207154 -0.10368475473903305 -0.06934647844132895 0.1629781922039541 0.08764261899204417 0.106263007491016 0.0009610494228035169 0.02070793537619242 -1.4943270134893765e-6 -0.01829613937707349 0.004694431245200572 -0.6103142038416612 0.19281524634094652 0.0643924262778273 0.38788025887013255 0.31867279427792217 0.006923200362526417 0.13132937612584725 -0.4445650193048783 -0.32152753413433266 -0.04516038794876094 0.20957200373126808 0.2523199588208294 0.24187302845375855 0.5656996622899336 0.18012271645428152 -0.00326650884719359 -0.2478422069562872 0.04666500449405818 -0.08859733947106069 -0.24005899384291274 -0.5841966389290728 -0.08028110767007533 -0.33269320423465115 0.0166949002293469 0.027945128357447384 -0.2056871421239214 -0.05606342192649944 -0.12968808417388325 -0.02029289095401612 -0.007132259154699059 -0.0015857934996541872 -0.00010760778993223584 0.3837364715654889 -0.36728128364242624 -0.12391399761241048 -0.265736631124794 -0.0915067676850661; -0.3315231083651838 0.3291893064568208 -0.19526329396215858 -0.04544630525567781 -0.3281234343728555 -0.0017131952579622304 0.0011714855161346419 0.2301762512524913 0.0053452684621777295 0.3423712558509775 0.0010128506194873245 0.0006560686708831206 0.003382102507577061 0.3925901503053162 -0.16558069387676222 -0.2610022188123365 -0.08599926778516552 -0.046851977637324904 0.0016326007767493338 -0.0006641069824506369 -9.809988141038345e-5 0.06225119711001985 -0.026835098605410026 0.3525386119396926 -0.03920798230673693 0.2718881857128928 0.020816796493550168 0.0059431135664438535 0.0030546397693795367 -0.13501902095061305 0.32325779833747253 0.32231222272764504 -0.06155973194231388 0.012748602960388105 -0.0004959794274237016 0.00026884989311946476 0.011751769838202857 0.00801954694367043 -0.3711868150313411 -0.2821765987556669 -0.46756892294300356 -0.06870660894354186 0.0015255901752003784 0.000213915768797458 0.0024616097096059725 2.4155190758804696e-5 0.003573176092247953 0.0015396088083757223 0.34184007188988447 -0.5284612083358574 0.36484174180407913 1.2013044659659358 0.6995549447541997 -0.1350666641911965 0.5734687919758193 0.13884391823578812 0.17875764651210654 -0.13018579446868303 -0.1866655657411607 -0.10107180546469796 0.1726666515036438 -0.42358412132365236 -0.24557072944183503 0.6585974516874109 1.0036485886054882 0.37779499647335496 -0.09784528828795824 -0.0024837541802727394 -0.07037889488562564 -1.7838078310399985e-5 0.043859698408786105 0.2976550671946366 -0.04410188135215882 0.04947165310137639 -0.026092571812348073 -0.03509975049397803 0.03873364120005105 -0.4615742819512907 -0.06449442065015153 0.4782551103098343 0.02556760688988766 -0.1938184475873412 0.005642437059539016 0.007923022830049937 0.02186853080565933 0.26354771153176 0.2462106681585561 0.07063010410420303 0.05277085393233302 0.09171294012894039 -0.1287851175266734 -0.0402070335323271 -0.1353063377383282 0.16072609068204902 -0.2545822953617239 0.157445466070585 0.4718068811312507 0.0010108744061466865 -0.13711171203567618 0.09263720382170787 -0.08323459759698291 0.11784460758946336 -0.019105754110344392 0.0025582371059002526 0.0014775265200936444 0.08384580998004246 0.14646705215851047 -0.5012200354088104; 0.28054336909549243 0.47464837611646915 0.2791523062618918 0.17182950563961888 0.35987333374547287 0.014776387714607762 0.002852532993211681 0.003568169583614586 0.003822976723931952 0.09307034498087235 0.21976585000473575 0.0877849533935059 -0.0006502537274653913 -0.003770820044346898 -0.00014286607977033572 -0.00011459298281536063 2.525797361972097e-5 -0.00019153521091563476 0.18509328652053267 -0.0002091165652097722 -0.0001495411900022849 0.004182053922911273 -0.0020013043997815193 -0.005654295614169308 -0.0029318995849070325 -0.005403464495562218 0.00803077113352499 -0.008801811365125208 -0.10052251207797049 0.0069844800005678335 0.0876692803934202 2.7661016478058886e-6 3.9738398104814025e-5 -0.0006587248819478491 -0.00032769991740039803 -0.000997911930784908 -0.0012455734718614722 -8.659506485940443e-5 0.002330052706030864 0.005775649382789559 0.19528774401271926 0.004035982755559509 -4.030484589864723e-5 2.3915436900473757e-5 -4.6986821372910564e-5 6.514560469313057e-5 5.106211974050469e-5 -0.00034386433709867974 -0.005726332123205504 0.019086471203926855 0.038895876009810024 -0.24922566347838196 -0.27684926746391847 -0.022006789803916883 -0.2618933977285314 -0.20924066412359715 -0.2211104176166773 -0.434881810644657 -0.2431445454502173 0.009438977191701087 -0.44817797380516733 0.13878509406029813 0.4892765137259207 -0.4386814590158719 -0.30703926547228444 -0.1453298490567369 -0.0029324654704974513 -0.016456685197015 -0.004191834942604246 0.016607053570311114 0.0014539647363840023 -0.0032586765785985058 0.021984407767779206 0.24469321630240723 -0.19440892387752284 -0.6110751211755162 0.00029058308714106847 0.02153313239481458 0.48027854599572817 -0.04037675200332442 -0.2745211849069872 -0.12553611334576043 -0.017932331507442487 0.031357516261469605 0.0047896729595543605 0.045571051518696185 -0.23754680793330873 0.013487709716763168 0.06614265764544286 0.25728782719741156 0.22203886109140458 0.0008229731517385446 -0.01991778450190625 0.010117028021516185 0.019972246796089548 -0.005865029264515705 -0.38380091704351177 -0.6584145442814494 -0.02259622752960129 0.03177409846979435 0.024883487160459843 0.010046150477546825 0.030531905741123768 0.039747118073016126 -0.01208568336716516 0.02765745969606823 0.007371841477097667 0.01942544472483691;;; 0.05956363756991853 -0.37719842854986485 -0.1921593047563801 -0.0022601128715640816 -0.13924596672711578 0.003933813700572951 0.00029915543249759314 -0.13547263599746603 -0.293296548571142 0.10827955983371132 -0.00016127112086491513 -0.0002535098261944014 0.07525665612778887 -0.6179783112977975 -0.024060304320713304 0.14663623419507427 -0.03953779635789843 0.05262427576357364 0.0308384645819649 -0.0012750195592985969 0.19728751645131792 9.586674925160537e-5 0.0035817395112070945 -0.10041450173593755 0.024545064459312035 0.32188797195418556 0.3916279451056169 -0.014890440280847184 -0.21152067246944237 -0.3738933486570305 -0.0005256282587141965 0.4957973989349903 0.22006836094229248 -0.12748725554089543 -0.05848382205962456 0.006076359111548479 -0.3128849435923761 0.20733599599377214 -0.12383671530612188 -0.006829883698768993 0.34550879483234087 0.01754318615114859 0.12400880839034163 -0.010638363827523431 0.0020318015554006822 0.013560049234908358 -0.2389382929057669 -0.1370972587383171 0.4947132905491621 -0.057052132396818424 -0.35969086522291416 -0.2555835610027924 0.23592308673973827 -0.2992696116202938 -0.17671521085238637 -0.17456783235148865 0.03340185292119916 -0.35847294678893027 -0.3819318454254357 0.044266939316707984 0.032383287304529114 0.7414229805357965 0.9545333810269927 0.17157549800886382 0.23611598960460523 -0.3426309225386864 -0.4692685808405943 0.0008139384618209358 0.00162998264814463 -0.0006724329450359044 0.00021788012818570323 -0.02370791321293487 -0.0443192989955292 -0.012931977342492547 -0.1845182097292184 -0.007260662326342329 -0.0006006686315265529 -0.1971465683801229 -0.3502047070916255 0.2699199536902357 0.06849768417791231 -0.3014540068515049 0.29104859503784297 -0.41618947365385867 0.06727050812577882 -0.4455015879128398 -0.1560184547844414 -0.0007286609757720657 -0.03819529639894851 -0.009762483051743324 0.16845011142178562 0.7119252316173315 -0.11951751004386939 0.0011232501858724812 0.08444485169264974 -0.0545766503757308 0.21159587441868022 -0.31163362084247437 0.10993107825627434 -0.2247856898555997 -0.1476434632042768 0.18233896437594133 -2.4919916694996126e-5 0.5241781270748912 -0.3626577177037688 -0.2804400180225685 0.11114192828381243 -0.14371910097650992; 0.24771627320582504 0.07484018475719272 -0.0815466083815813 -0.0013354255300419178 -0.011210689504689854 -0.0008187514324365965 0.0021926611524891683 -0.03364648555871452 -0.0568293901146585 -0.18254639534249678 -2.2797902006331788e-5 0.0005694923039530818 -0.13187289952166795 0.05191732198444105 0.04054049583167208 0.07853316941961794 -0.009989446581251001 0.09153847580417872 0.3456461581975342 -0.0018367201155961496 5.198818859419669e-5 -0.010679703409851422 -0.01676182501966966 0.1495648873197563 0.18202790086308998 0.0021054008675432155 -0.39140514580821284 -0.001529086816761375 0.5642618724715024 0.5289950994736452 0.011477082414136766 0.016036633191682623 0.11652111124963213 0.055057998091023706 0.0006932989327650791 4.0252955256456056e-5 0.29565465319132156 0.09944828351467924 -0.003650248006637887 0.260307367894353 -0.0052155635229558 0.35423636682198456 0.1617338059471796 0.09933528663222985 -0.00201333128060005 -0.0036644788880167206 0.0021735830612870433 0.13673062383628376 0.19213588889082553 0.09645774133817012 -0.05273631414790101 -1.0216923877489106 -0.21021446074224762 0.6139457271984143 0.3661685023574451 0.17882307621238278 0.0030566699661886995 -0.13740207247827027 0.0359368632814678 0.09903492672589946 -0.2080336321294286 0.4879351528174856 -0.3084424772268962 0.7727642561933513 -0.12212445670203972 -0.12465032725709699 0.04719350284188388 -0.0005099247800352995 0.09297416511573496 -0.00027702263341364963 -0.020728268051606488 -0.29923206175427697 -0.2056811011015534 -0.6404827279209087 -0.13193353021242654 0.03284897554224954 0.3524441646804853 0.049173467377074336 -0.008634603275840074 -0.09223730124932782 -0.0915208298963602 0.3018918628407224 -0.5193582598935775 0.07628188648787382 0.11542929090929763 0.030909642329129235 0.21465142550144356 -0.12015084235346274 0.3614570729217316 0.2876625533103934 -0.14647858536744493 0.1705908038223072 -0.02257526966920284 0.033339304511485056 0.24138755397537826 -0.0012245740756873505 -0.038948661769898946 0.09254682729723522 -0.10174466197195407 0.06575303092606227 0.3593045176156795 4.337340733001374e-5 -0.05373500616441144 -0.0010560518166296362 0.0436292071226843 0.35344262205970195 0.010320936559262795 0.21233753253867707; -0.3078213968656041 0.038601509058269805 0.11917335358936657 0.34923776535928736 -0.001007016054151442 -0.0012284311973039582 0.0023791668333435325 0.05092455299351394 0.1635433038877486 0.05619924879411874 0.004780443695584359 0.0002915753034725637 0.5121421222920162 -0.09259616307455125 -0.01169714390601136 -0.09834431665775045 0.02828105440744845 -0.5281153281109541 -0.42805892335787593 0.0016001650027897716 -0.1972155946727881 0.44993565357194326 0.2524995378490357 0.05616902552700093 0.006021438366879417 0.0720337251913946 0.6354408556371199 0.22462225197653357 -0.1330524473435208 -0.1920328550173967 -0.00011348490662352619 -0.1271968943267465 0.030398573547517422 0.08007865495628444 0.05648254167981028 0.00010054057962421761 0.5462226553702534 -0.23891583641883907 0.08753585903316437 0.07824241322342435 0.08114048823330454 -0.2798934591934066 -0.2855564441702833 -0.08836407172933369 0.00014556646663568324 -0.010166327306197353 -0.005187631810520012 -8.409682345120631e-5 0.014839079724568856 -0.12664699955353928 -0.5185413544136495 0.347677684112597 -0.3854659732953704 -0.09549079532682248 -0.3702366654726686 0.26995688624189224 -0.18085700900263896 -0.08003864189674649 0.45154117921088854 0.1521136767114372 0.11103150619543314 -0.36777060825109514 -0.06010457592764091 0.0259897301155679 0.030678360267463275 -0.24213962552503607 0.04803121987089602 -0.010382708144469625 0.00013305172934644554 -0.011069390375236852 0.15027102369808712 0.1898835006752482 -0.02639913972731804 0.09409885531129648 -0.09539979045479724 0.05284261441892561 -0.019746641514654852 -0.16014409545524033 0.08566093386121354 -0.23913092409834671 -0.004010113247518613 -0.110866765126545 -0.031478043326040026 0.2948999222592041 -0.08704992256872471 -0.0402914626028601 0.16077686753946452 0.2981795392512055 0.153079456579921 -0.25680100405717765 0.13587904651111268 0.0013133151186774617 0.08605922337311686 0.26801703117048115 -0.46484150983395384 0.3936674254121199 0.05039046925915885 -0.03932738278163373 0.04945138853114793 -0.18097967562079917 0.03954979561712105 -0.0037573513427754156 -0.0004301561134949576 -0.3134384607062345 -0.01552001685077475 0.04971404346092935 0.111305180645531 -0.13988355519920573; -0.005966199727774185 0.26401843737838965 0.15462062982244393 -0.3436421502951962 0.15096374404631763 8.471387930463801e-5 -0.0009404208199508493 0.11902910278512856 0.19439900495992818 0.024613846313923205 -9.70400223939731e-5 0.0004188742350765781 0.005601799381748762 0.28339380254114166 -0.004961205177448505 -0.1270143714682545 0.02124452979300138 0.3814184312210181 0.06747862653354585 0.000985908549515217 3.826032996018952e-5 -0.4390210711424838 0.0008091838254080334 -0.08481392002452232 0.06017953708995826 -0.12036050262682119 0.013820722526625914 0.002799227726301159 -0.20992492891147915 0.04265166858950208 -0.0111025575041636 -0.3847892081879353 -0.367013316452587 -0.007640665063434036 0.001244820066003905 -0.006569084665124777 -0.528852717656953 -0.06785714511840135 0.043482497734974056 -0.3318200196334345 -0.5446349076448492 -0.08855210171154218 -2.0469368134320835e-5 2.5252945262300056e-5 -8.397276253960802e-5 0.0003807621460784873 0.24186102869712348 0.00025406899753535497 -0.7272710333918835 0.15493182253745677 0.8611961338723769 0.9147829488397903 0.14000665138638024 -0.47099260727311676 0.09796529721604659 -0.3626973206134956 -0.3600215277805156 -0.09857629519588376 -0.5658620174192929 -0.3201633049758084 0.2835979991456731 -0.17803611000416686 -0.15844405302374884 -0.37095637005510357 -0.14572880499945104 -0.07615665437538477 0.32823200927653484 0.001260760866375466 -0.1281548142983247 0.00010786662980711063 -0.13293888115311508 0.1173411499802314 -0.07762682493708435 0.0022283457624947068 0.10615291102300244 -0.18352178934921062 -0.29316133748362566 0.461308154033096 0.27179189867344755 0.06001325198120388 0.09532450167190207 0.11543400987540096 0.16901532517171491 -0.0456976841325846 0.004869221081556876 0.5011584878644018 -0.01564281000553507 -0.02569319768674188 -0.5623103448093602 -0.14555715826129484 -0.2925376316494946 -0.874673919780667 0.002516673767816427 -0.4006331227492004 0.13638666819823705 -0.13533676480956489 -0.11115118442577702 0.36550931241159446 -0.03773172328988273 0.5531914464263953 -0.13203993989338614 -0.16705483132364857 0.07729175810920359 -0.17455492653626106 0.5218071581376117 -0.12660426609948675 -0.2394559806917886 0.08251614632762043; 0.006507685817634765 -0.0002617026439873783 -8.807027384908966e-5 -0.002000076662485221 0.0004999282396394315 -0.0019713449501370345 -0.003930562598379444 -0.0008345342224619239 -0.007816370161876262 -0.006546259599256489 -0.004499334650319139 -0.0010264320163078221 -0.4611276782798859 0.375263349846766 0.00017815757250108226 0.00018928451131273362 1.6587386996056385e-6 0.002534145322183557 -0.015904325955168948 0.0005256661225897577 -0.0001621702970842093 -0.00033074576885961185 -0.24012863616598118 -0.020505491086297376 -0.2727739407792397 -0.2756665953863022 -0.6494843774611498 -0.21100195260522617 -0.009763823747060025 -0.005720564388720107 0.0002645882553645563 0.00015207038800886 2.5270713144995348e-5 -8.732442978684679e-6 6.316138104529882e-5 0.0003519320186956249 -0.00013964731224589717 -1.129797121096748e-5 -0.0035313934553786604 0.00010012221442614111 0.12320118810215966 -0.0033339920681843328 -0.00016570079910363514 -0.00035810402063501365 -8.006397889670744e-5 -0.00011000518677277144 9.131295787641557e-5 0.00019666272794916672 0.02558277422732704 -0.06769043192526922 0.06977239991208767 0.014815315799315772 0.21975069591149948 0.2518072870218187 0.0828180767515633 0.08848519051070926 0.5044200138957667 0.6744899563598308 0.4603158203523723 0.024747762221763763 -0.21897916051620675 -0.6835514150980201 -0.4275422748487067 -0.5993731142626795 0.0010589118294222848 0.7855775296962042 0.04581184885127955 0.008817933596308525 0.03341761480509867 0.011910979323879294 0.0031782453784487802 0.015715324311732254 0.354026364761485 0.55708750418961 0.30569861937343973 0.1050908617143778 -0.03893551705067824 -0.15319095757480714 0.001386477832804406 0.0014350196762349708 -0.06829124270593553 -0.0050051007380734255 0.09077238301005973 0.09070534903936532 -0.10051909754790862 -0.0462750796778311 -0.2037670282509316 -0.15160683823522877 0.085969111706656 0.12445809205982243 0.13468705908404124 -0.009155430777649047 0.053516882572138935 0.09815353688136168 0.0026224359676887314 -0.20252943615113686 -0.11188649748216309 -0.10709513608472149 -0.01990608152558548 -0.21317911187605865 -0.11917091013513759 -0.011570155116847365 -0.023101675914602205 -0.035128688015766026 -0.18725863070575244 0.003887618601423919 0.0066879352031824135 -0.01125102269058191;;; -0.17588898924562105 -0.9017229686042867 -0.1250763768728868 -0.3535035982161585 -0.008606006584518489 -0.0010546691334815312 0.0013183086010572754 -0.09006432676699022 -0.04091526565710331 -0.11553203998833995 -0.0017851558156858054 0.0014999367275985629 -0.05934651204147031 -0.06901085898340786 -0.4164049325540283 0.39071372967596674 0.01112092331267058 0.06895619224979531 0.018684892714152117 0.25871422887296497 -0.052992388937127585 0.5563504050846474 0.011575833966583076 -0.4177278862047655 0.012907431173070633 0.08971361522599483 -0.13889496745169647 -0.029413095709535878 0.13502376291898294 -0.35617800922056 0.0003596227057871419 0.3239237185722589 0.07101902310379862 0.12234321982617224 0.00828812373097571 -0.01662020615207134 0.3948037962792855 0.38978500002763294 -0.28510448093308294 0.22065033266861228 0.0025925062030273125 -0.013525668094942598 -0.2880257300283384 0.06179584642552686 -0.0016263535878253549 -0.00048627437593519506 0.016398678265601697 0.0787024034621452 0.10640924165369658 -0.15534513708596126 0.5577875503787559 0.2656511342357888 -0.19314123168204206 -0.09754985348846223 0.0030860023923018915 -0.20060227557262 -0.09646034381754169 -0.03294805978699389 0.010686635081339607 0.19777895247736518 -0.27624579778164515 0.13640052702620417 -0.46483036236362035 -0.5663830869073858 -0.09059426176283313 0.37593439008528934 -0.10871404558684257 0.00819372302543603 0.0004866135483688551 -9.428251469701553e-5 0.0002994501709645282 0.005891385891580121 0.12372147382619428 0.3105688080323801 0.03399625872871845 -0.26901164568050073 -0.38568659297113056 -0.01961363513695963 0.31882913406005603 -0.0001222900685524197 0.17407965866707187 -0.07140829480635452 -0.20131275876466345 0.1309562508704447 0.34630204534730985 0.8346070239274791 0.13908207197457512 -0.014290692238179864 -0.013780502511017633 0.025985263916311625 -0.19685159417334525 -0.6876871892692582 0.0881238074316404 0.6394756089456873 -0.09308489970762343 0.24726626712104313 -0.5472160202680341 -0.09816048635313512 -0.334866260353007 -0.05968102306301913 0.2374526388759953 -0.12263492551696788 2.0721208166314664e-5 -0.3042192915112729 -0.10925217444334322 0.8092742227344784 -0.06936813037830779 -0.021840373898502463; 0.021476669097614743 -0.13030885448845292 -1.0171866497811557 0.161885858355136 -0.00835559097551101 0.004630405947492359 0.0015953684244369918 0.2375643202622423 0.1834676243155026 -0.05098826139907291 6.62633733799903e-5 -0.0013966712971587283 -0.2967200763274566 0.0007282407295347863 0.2040710965836147 -0.15791722661538016 0.038004461973672264 -0.49236262108287576 -0.054263090900871065 -0.11674619415386149 5.790329921039281e-5 -0.016256255731943885 -0.31526887556249195 -0.3082799811154725 -0.08926863136406149 0.013431219109209388 -0.0010216949720154747 -0.048685620446287804 0.35376229255610764 -0.2426253793361241 0.16562640177627538 -0.2505429078466162 0.19713630855793604 -0.2455456947010107 0.3096684226745768 0.01815551925092624 -0.5746886740763008 -0.07838623600733825 0.04913383669971125 0.010810831823160753 -0.21978625116670486 0.14251897482882198 0.001453004773014264 0.2373064908125612 0.0022148110429522296 -0.00013103416291750079 0.002867193868336489 -0.07878579831442646 -0.08862844937785683 0.281919117790049 0.031525045142369326 -0.2639010784419747 -0.4158947852843938 0.39895461994884673 -0.0010504875048248394 0.07801519313592495 -0.29704386041123026 -0.5515580206551038 0.010149198731475262 -0.019945158458839193 0.43349921784111517 -0.16365884735495134 -0.0842708353090152 0.0428101171166325 0.1597164185675095 0.017491609657130727 -0.010441589796741287 0.000817843493678207 0.005919673656702801 1.5341901587016674e-5 -0.18788829086346148 0.16945132108201127 -0.1217353849558837 -0.3773648402971177 -0.17646164229889214 0.04401302715049288 0.15067264202453565 -0.31003477183004746 -0.8455759988238322 0.285196978913685 -0.048215582821252004 -0.008758056692683399 0.03149243744102117 -0.11981928207926683 0.019312114576545913 -0.09043605887317144 -0.201474991255231 -0.0988493732890502 0.0034848307511792837 -0.0181159093022633 -0.02754815865313696 0.006426698826900158 0.45724166485143297 -0.18919138331558844 0.027625680360634113 -0.24859287112176623 0.22756720455130572 -0.2523308800481187 0.35069720539187765 -0.10380997817410871 -0.482051060670242 0.00011695027690764934 -0.05313270212749233 -0.001529686654552961 -0.09858582873809521 -0.051836459466913835 -0.3248944625979638 0.3153274228672012; -0.45980094933914606 -0.1981518818138407 -0.0049066459483447 0.560132175825966 0.023125775341497918 -0.009382761994774854 -0.0021581819706262407 -0.1334686321014838 -0.12011947433116225 0.15824443220366385 0.00023242472186006316 -3.582701314568724e-5 0.01957477055147467 -0.06366992202724622 -0.013173357339442159 0.055602860415440304 -0.21251618827113644 0.39501583445596045 -0.04093277988522628 -0.00029317787318493087 0.05268610917500074 -0.18632485064590257 0.2058527688830248 0.4868537416215947 -0.05817154276536574 -0.4587780945164715 0.03125891887349228 0.08451494241219082 -0.1592322627526784 0.06620825872622081 0.0001449187964620465 -0.119382362594906 -0.19039355682579695 0.034593837667336855 0.0011045182564673609 -0.00011550850216415114 0.013676389968731552 -0.14158750997407735 -0.19428186014442725 0.2685759899558354 -0.0038700653902045967 -0.17212922666850472 -0.004806340762605128 -0.29873452195472294 0.0009573048818266534 0.0003813410199203424 -0.018667557701206476 0.0011007665267527003 -0.2756076565681135 -0.1885460490001891 -0.19875804291775379 0.04131134997408593 0.5548638122035989 0.11727575080468616 0.04330027930599041 -0.11215072344487148 0.21323685475689746 -0.17141704404388164 0.04697201919169637 -0.20737920980381672 -0.2939182258488654 -0.007232718471149033 0.11523890388157645 -0.053989759806327545 -0.3312463192007145 -0.07330628394673319 -0.08268616714153011 -0.11991023493744661 0.00013378283176503569 -0.014818211035205971 0.1885030834661209 0.1299101379562356 -0.33640155312454706 0.01194606539765564 0.02370809625777848 -0.07534620608093628 0.0013477149571752903 -0.004196312767200561 -0.43579761754096735 -0.16029883365138506 0.003544930455221137 -0.16611732928296763 0.3225723841840978 0.1080175073269521 0.00829257928095965 0.08362345208136603 -0.25094343006468506 -0.015534344049346624 -0.08869664556122173 0.032418007645256146 -0.03167639182667602 0.30359383650350513 -0.264146440318872 -0.06967363535444701 -0.19571634398280555 -0.06867967136530596 -0.03211507487620407 -0.01906440352546906 -0.4251968025519022 -0.04566913547495153 -0.010199538386523727 0.006274124318012138 -0.0003776587389752627 -0.08215304089539723 0.009846810777246721 -0.9216898430063775 0.09579555364816193 -0.30135873604829677; 0.2839660678116975 0.7212174195538364 0.9457370976704673 -0.36888678331563357 -0.00556436496574325 0.004766886304174892 -0.0006915192567306462 -0.013878780045565765 -0.024316498693073136 0.008157572344417595 0.000674288981264198 -0.00022614089139670574 0.3350008025402815 0.014543660339035805 0.22572326059010858 -0.2885634208786179 0.1633498563028594 0.02382002022450985 0.0035046842787211712 -0.14113542879979438 0.00011650253748044328 -0.3538229466287439 0.09961011189192114 0.302690875677861 0.14056761042206734 0.3621840150206154 0.10922165938604966 0.000198419054476316 -0.32437218045871286 0.5293330805317067 -0.1661102031293667 0.046064953617449285 -0.07787844945003335 0.08959945382222606 -0.3191709666322016 8.401963834548466e-5 0.16490526247341067 -0.16970236209533957 0.4323356665689238 -0.4957275801683022 0.1231426581722104 0.04341805733951666 0.2914494015965337 -4.019258806758764e-5 -0.0015292762933859945 5.7778173077267065e-5 -0.0005884054106200882 -0.0019971983806490344 0.07137006533580202 -0.6408361423569384 -0.4020134276585596 0.22684122013022465 0.15658664957659835 0.1133883553585799 0.04649122783904056 0.17969788758820338 -0.39398878929142384 -0.009714759409009602 -0.38265751785042235 -0.06727692521811439 0.07154209709800537 0.16962089189195934 0.363414034653305 0.015489494240905503 -0.017452697465979106 -0.16914795089322765 -0.0067206572086661595 -0.00043264868337328515 -0.030396307693367656 -3.6952353600728865e-6 -0.021291256202093076 -0.3167934110028998 0.054416515926024076 -0.003646382332862629 -0.1593879132620714 -0.15644667984471897 -0.1335182259008759 -0.03177960031302649 0.23794473351863712 -0.24311296960435494 -0.3096414558147224 0.22686029943514718 -0.12788876443680752 0.2925427450733409 0.0747573783699403 -0.18767849096716874 0.4810440796423313 0.044339178922068456 0.19366537015170623 0.2560964038496644 0.3923499934912357 0.9129284164559445 0.10557019160429791 -0.039268103795877383 0.13552663357821357 -0.32750269759459116 -0.05203764521302089 -0.25269181008928143 0.2052487247427781 -0.05066003272242391 0.015276314368630832 0.0003304668816069727 -0.06789546976261576 0.2682773555804993 -0.07362477096259314 0.037910506206226435 -0.055304564175917045 -0.2566394199222185; 0.3302472016754549 0.5089662853527439 0.20143257493192 0.0003723473506901284 -0.0005998128157251694 0.0010401388765891354 -6.397579813738055e-5 -0.00015258134820250648 0.0018836143658361106 0.00011829683933140046 0.000812178739181554 0.0001587024741025583 0.0014910152771707378 0.1174088799420835 -0.00021606728025285208 0.000164057402591064 4.094668193418028e-5 0.00457057415261016 0.07300629379322406 -0.0005394280461241628 0.00013187392543600662 5.3647921942948725e-5 -0.0017698391790370795 -0.0635367499792178 -0.00603486746571074 -0.006550754839348122 -0.0005639158358300011 -0.006614645310843452 -0.005181612263699281 0.0032620492987566066 -2.0740149157899852e-5 -6.340174818599105e-5 0.00011667461409563625 -0.0009908166147244535 0.00010990197018172264 -0.0015038242350362305 0.0013032253548730557 -0.00010889195087776583 -0.002083162191124886 -0.0043095742793062665 0.09792115218167176 -0.0002821374048913568 -7.033557860442381e-5 -0.0003276226952975443 -1.648604356753356e-5 0.00017818934585508642 -9.909022111619198e-6 0.0009798267061775841 0.18645679895647166 0.7028082106530397 0.011458875055188066 -0.26990262589812475 -0.10241444481376145 -0.5320688726236507 -0.09182702203250803 0.055039918293363216 0.5742561387632983 0.765637883894989 0.31484966484591115 0.09682234100340513 0.06512270869139003 -0.13512985309206318 0.07044825913775404 0.5620732353561755 0.2795768598620172 -0.15097176490245928 0.2085624597337801 0.11133131710170566 0.02385623765653096 0.014900846883676043 0.020377013428469096 0.011540566073072817 0.2799989483282124 0.05849634919994455 0.2781452005744666 0.4567915044556631 0.3671844618902955 0.3656243200472341 0.7245997487861063 0.11833711441060739 0.18023244951368142 0.019423381346858344 -0.02486329842364799 -0.41169722119147084 -0.44866411757475577 -0.640115926168505 -0.16770773029699032 0.08433523065450825 -0.09467305283064614 -0.2963837661089689 -0.13627384883807753 -0.5352617625170917 -0.38678922356849926 -0.34134248647977444 0.1256489297515813 0.3975089729606202 0.40380153580595335 0.6222475800160044 0.2041171327702534 0.25982016943450326 0.2395216458121396 0.11591338404044112 0.12138510942091703 0.11962466348072376 0.27161596336678484 0.12634157353258652 0.35377160350402664 0.26451110700181657;;; 0.023165628642267934 -0.23120116692998996 -0.005252243806879074 -0.14147873850952433 0.11943854271094488 -0.0034059331219484217 0.00047202107764109536 -0.06729448780963666 -0.10494820770025654 0.4863287136701887 -2.4155607852119667e-5 0.00016709125313187737 0.29989904906712617 0.47814616516679115 -0.04544167987931767 0.1885258498835803 0.29064801356531195 0.13033413006983 -0.10096138674447232 0.002809831007928376 0.322053186052737 -0.1691089868426901 -0.2357622682940666 0.050638712692319635 0.10641341809316689 -0.3086179881748262 0.07003298156137241 0.10180346723429168 -0.006886118832487742 0.12980497995756726 -0.0006620293858529926 -0.07290061369787441 -0.24145472042387814 -0.13854054496071558 -0.20749075369731826 -0.008708535518583117 -0.1522479454984644 -0.07487758407662115 0.07213409398006665 0.10514958381012166 0.19397165182744597 0.01902633392765097 0.25510850926364037 0.4961560073746958 0.0005147785469231586 -0.0032450653849552444 0.033135053873922994 4.8454415928379744e-5 0.1111256200267923 -0.6555931081748113 -0.016505798574192466 0.10061207364584016 0.05435917421003606 -0.4243532946697663 0.19334495005056848 -0.07890236507555391 0.2752668207554963 -0.024049139095773175 -0.19963970049266155 0.1084582472982433 0.10671703910333825 0.2570000605574038 -0.6981778335551939 0.14557541660509277 -0.30010873155861806 0.20831315347770385 -0.3625710781030768 -0.1848028093040339 0.000578054170580125 -0.0004479491859894341 7.376425808267541e-5 -0.004175615652912524 -0.10972195185800208 -0.09640804397546722 -0.14617134364812867 -0.33842990661306377 0.3210425526071596 -0.14946513405438988 0.08896661393211015 -0.2366587496605438 0.0990883304004452 0.16128740766462174 -0.12006198168898821 -0.13094774281707133 0.18920817410939797 -0.1472281318999168 -0.08886068287393814 -0.12995841734684113 -0.6585078968987367 -0.3468234686336302 -0.3181578458363257 -0.16799562791820874 -0.03462433188277851 -0.11116927029536211 0.007038983619281206 0.11143146725469985 -0.003822614787101627 0.2799858025859294 0.10641047537961149 0.457780327954634 -0.021769806860602727 0.1544613320290454 4.703387492125286e-6 0.1854966729024498 0.04396586404982234 -0.010547845412480487 -0.17733764266450974 -0.15596898208824658; 0.06020612232231151 0.3718591218582266 -0.1526030162399117 0.0519885239322125 -0.10681618564424655 0.0017877739812876996 0.0009317306562297664 0.09449794143493159 0.45058985435401183 -0.18956277217900522 -0.00017896989911912379 0.0005848875447169158 -0.03325793831520953 -0.19218056493574542 0.017570351682821853 0.0019692697695095907 0.049621408479617164 0.2922576592139578 0.07353730215588648 0.003145655605795237 -5.704672203483101e-5 0.013525691939441252 0.20370576818307515 -0.2894932280720193 -0.17273620376119908 0.6814396885688285 -0.0015700186964394667 0.07457779915456694 0.0007506056842241315 0.038220865963848064 -0.5441582469582966 -0.006933116964225102 -0.018060111851985177 0.05488027389818803 0.014416337623322254 0.006050955910785077 0.059251506979453125 -0.16381395994903797 -0.3151978584704775 -0.05798781869000347 0.04246164824578576 -0.2540733952651487 -0.00420394297267613 0.15455793448806324 -0.002518237076634588 0.0037182370512964247 -0.00019680924667785644 0.0005146317095278716 0.19884674644367178 -0.04383031190938745 0.29557405226231503 -0.3556082721205718 0.057153906641474586 0.01983302284615074 -0.7923796574171625 0.09935748786481884 0.1591696944697618 0.12638051319382712 0.22402502128355897 -0.07793018675813075 0.17361263447062095 -0.13229012631540088 -0.058278572260561164 -0.20721314282517508 0.609419685079552 -0.5478722911924668 0.016063582148296153 9.305401391321771e-5 -0.0017335184779171359 -7.960408680082013e-5 -0.3520707071278072 0.0008311903530172817 0.13182475344047548 0.09842424008293969 0.2749646882589526 -0.018752908047849806 -0.2050354393853497 0.22944892247654078 -0.12998058331071624 -0.17225029357858604 -0.4856481612884308 0.2036330191963855 -0.10753372653589337 0.6165395982227987 -0.19912498767055123 0.3648388103357396 0.002056199654555269 -0.4391319443693314 0.2588676741569478 0.011354036823212335 0.18435451604653783 -0.8009762139589002 0.3308567526397449 -0.25934156443144174 -0.08121543497863341 -0.5552454402013899 0.7591544483127814 0.014180900687949844 0.0024250506779375687 0.010606877302406437 0.1361869737417043 0.00021477877731356675 0.0014084907562231517 0.0030512387203148585 0.009650885097497763 0.0690452680024063 -0.04401088667226834 -0.05331166237645692; -0.33568151796283124 -0.039819380855390926 0.040461994893285676 0.05431195495997883 -0.004697126976113441 0.00017666984501395173 -0.002675756033608391 0.016524912352033308 -0.34916762163858045 -0.004052429099590947 0.0037438682869119955 -0.0002881070142546392 -0.26114635057519775 0.06270287344723667 -0.007373942888326274 -0.25024815838143344 -0.06153751213895062 0.011244491781652783 0.18490767605918657 -0.005283908234822337 -0.3225994313268102 0.02926782393580599 0.014971993742276422 -0.2443893102931223 0.012438451797655696 -0.4108286413280606 0.03185206137698524 0.1543615620659834 -0.0004311376540132638 0.0044104330567511915 9.073142070546895e-5 -0.11939801181500717 0.2429842456873764 0.002703835284166563 0.15558379755924864 3.619059563180119e-5 0.0022153278017847337 -0.12014566739110771 0.005559932666727749 0.009819526317953834 -0.13219712550379242 0.006794294785236213 -0.16729824927683493 -0.6506746131544485 0.0035613245074291398 -0.0003146259677249935 -0.038048117767767724 0.0012397002400328077 -0.1802747840578479 0.14340081776466704 0.07053963704128469 0.2028563971957872 -0.0014146258858929377 -0.0545217886460373 0.30395118995610027 0.038154823362440436 -0.014510534899088462 0.13988293882024025 0.20008391823350793 -0.021879740589533434 -0.28362665428795514 -0.4865124568843104 0.419942407500415 -0.0980001929116075 -0.22480426595111655 0.28952432551075546 0.28259674249684985 0.17075250860869545 3.153703607848176e-5 -0.024238086949432667 0.18617574441762574 -0.0038482862264585093 0.11538664847863689 0.2664102992522907 -0.04459196849773726 0.255114733349783 -0.0065856798745038345 0.07024829742410603 0.3616879670324154 0.05950182008133539 0.3338264570214443 -0.6862442598488425 -0.0409229793311971 -0.3348577496843988 0.35004599852148355 -0.26048604046843254 -0.6865387150051009 -0.30327526578787706 -0.24846778366610037 0.33810121738293986 -0.12327175842054136 0.7246998149075782 -0.5956882634437846 0.38826905518412275 -0.030546719673163303 0.3317463845835225 -0.778954060210573 0.0390814575222348 0.0627697648083553 -0.014331320201598049 0.14095198654945418 -0.06020762111079138 5.541844476049883e-5 -0.11991076241042474 -0.012232346810252643 -0.06503524793268793 0.47199952944602797 0.42681767977008733; 0.2532795475947389 -0.10381995457304165 0.11231226473299953 0.03741069323355752 -0.009106949749685291 0.0033566352688769903 0.001161726773134313 -0.04089815913434152 0.0050028995241937204 -0.294081569648934 -0.0033060348501063415 0.00031887396423215805 -0.00680626664200427 -0.3225637050686656 0.03544752859795657 0.05951267046694358 -0.27875676231579544 -0.31822202436760727 0.006862558763702288 -7.240383769467901e-5 0.0002033449081548873 0.12758117248116035 -0.011514404626679086 0.34182751592285876 0.03447729159577733 0.020544605318766104 -0.10716650601051132 -0.3991812834003917 -0.010786229998275224 -0.16788003932451856 0.7489784941340261 0.20068447593891284 0.01635410179976028 0.08068254743931688 0.037652865103451186 0.0030368420549051257 0.08890072887046992 0.3587027931052874 0.23661581611057014 -0.04987325196166635 0.8761824845792375 0.32691160684057663 -0.0834815350876359 4.119741437650584e-5 -0.001658020437074825 -7.315135261163747e-5 0.004902543496494002 -0.0011437425809126607 -0.13010630215171715 0.5447953895566243 -0.29109560018354 0.02946632883271093 -0.22460412280417116 0.26114383704366445 -0.12395164371966928 -0.13686350315695364 0.012822503691690294 0.09776055392507847 0.24860642487156062 -0.13763101051322024 -0.3696981568938666 0.0018990873571303867 0.21239061392252673 0.005146979379600306 0.00981685314621458 0.2459635631293051 0.05981694477751769 0.005351852647895773 -0.016476332287847756 -0.00010272362412471443 0.13933350303658704 -0.009614004255656141 -0.018782769168518496 -0.2061167039934408 0.059743126446153975 0.21710501314434602 -0.11690295967707746 -0.2010171498217036 -0.3243947287045993 0.2258071126329345 0.0018521457863289502 0.00902220499581827 0.1174977666593345 -0.23443062602001513 -0.4701550143383334 0.01805240370933432 0.10128854277516053 0.10069504864930329 -0.0028664002182902373 -0.3150575132626835 -0.034461795775673675 0.14818302861309252 0.2801360369008468 -0.009382633780582607 0.07688048946537128 0.07746053663319485 0.35475728578738075 -0.6706012148192947 -0.05048476263944324 -0.44023062465561574 -0.1507691075058124 -0.0035439117524360742 0.05091433838918608 0.09223391327363151 -0.02057792167024706 0.1454619827598381 -0.2510847916476777 -0.20315924332487617; -0.0009697805964871467 0.002981380500195945 0.005081000420505564 -0.002232433616224535 0.00118171965910041 -0.0019151459732302206 0.00011027752660321617 -0.0028302068429867104 -0.00147692453936855 0.0013680572573415008 -0.00023470792983441065 -0.000782745747826312 0.001311506465285379 -0.026104768609616736 -0.00020225751313448132 0.00024036826139997575 2.4852409816971457e-5 -0.11561425669783329 -0.164346150234303 -0.0005991745412065967 0.00039994708795317133 -0.0012657015137175348 0.028598910995394154 0.14141630974996328 0.01940704227459916 0.01746233561529215 0.006851481768593128 0.06843845494554968 0.0173528808005521 -0.004556239653647957 -0.2042489492105819 -0.001452733461806162 0.00017648478872665175 0.00027388833904411073 -0.00016224658870383362 -0.00041545304273888815 0.0018803818467566177 0.00013441831147941932 0.0008880157131129476 -0.0071080394764056745 -0.9804186591486769 -0.09865884028831504 -0.0001247819264934178 -8.052612268702807e-5 0.00010015445935711432 -8.539434600454936e-5 0.00020732964402858013 -0.0006590437845763984 0.0004087197391009675 0.011227212762907468 -0.058512290545867277 0.022673472446233488 0.11450566783855345 0.19789822342598845 0.41903516113016304 0.07825355700524828 -0.4327484840178599 -0.33997486684337264 -0.473075663895966 0.12898269056264114 0.37299513760786246 0.359903435285177 0.12412338439281338 0.15449093975208952 -0.09432354071603202 -0.19592875092529757 0.004093808680413152 0.008605394033529454 