CenteredRBM{Binary{1, Matrix{Float64}}, Binary{1, Matrix{Float64}}, Matrix{Float64}, Vector{Float64}, Vector{Float64}}(Binary{1, Matrix{Float64}}([0.6935398998843935 -0.39512216998956246 0.37847391272489395 0.11620556964795563 0.8988154546809464 0.6686143228086826 0.49379971568688497 0.986165775872564 1.1472268939720578 1.1530503235123348 0.5083209373154421 0.11070738402596231 0.1884360712004742 -1.3789117164730462 -0.46435120892704673 -0.3447350006630769 -0.40570036284378685 -3.023490005864052 -1.5219052569190412 -0.6147876007134039 -0.3857415840283599 -0.42146647886737587 0.21986074156690774 -0.7348448595055352 0.9400390633764891 2.3934228562998574 0.37622897592291715 1.2694884305592289 0.35359287848285786 -0.1853714738677781 0.9594445216709976 -2.394894200241736 1.7210973108656258 0.07651067982406061 1.2938401504571295 0.38058946343837463 -2.237197340096851 1.0863333952189334 0.8434913194033352 -0.11075219411242651 0.2777063110736481 -2.5039201051723885 1.0067703993697632 -0.45345903916825203 0.4863791789560624 1.7253559146631947 0.19825399171538524 0.19551314180585733 -0.6253697278411718 -0.9925549303587932 -1.4791346645666335 1.3623383463158032 1.758301908461729 1.0443705349203063 -2.331172371656967 0.011349927851893728 -2.0914606981432735 0.4483409963772387 -2.943058506029087 0.5896793253232308 0.3770319356958479 -1.8983690757231775 -0.3982086818130013 -0.7509996438397674 -1.503253225005593 -0.5869595395095797 1.2568746828122803 -0.8145648264597256 0.2410096427477535 -0.2583440487162035 -1.582216415883394 0.1974128947335945 -1.5474370470489371 0.6320352823546013 -0.7783122382244648 -0.42433135846862136 -1.046198099512266 0.9677849293323084 -0.6639201674724975 -1.2643643337554549 0.007956971960438727 0.031223810556359838 3.236337075752014 -0.5567686629638398 1.6837141070043211 0.19471165400034177 1.1154355017338258 -0.7263741247811157 -0.545285736883066 -1.4880554458114466 -1.4965436529557243 0.9789665193958755 0.5572713411367229 0.9889577465489524 0.059444922524148666 1.376078944635332 -0.9220024684328976 -0.9233487248819675 1.0939298860758366 0.20674989969691598 1.2896130310392044 3.4907770424612004 -2.6646529169150157 -1.8783577681885626 0.3633584305146565 1.6286535467836512 -0.6628847493092507 0.15200871033975405 0.1429327360344536 -0.6256682395621473 0.8756611292203419 -0.6408839834439266 -1.9791690445612993 0.06070221753566903 -1.0249334076354322 -2.247756373677891 -0.8222535214691343 0.33350465669406953 0.9702651212942379 -0.8677386561035679 -0.21624837684727574 0.6355446927490217 -0.7454570420834901 -1.0668541107844147 -2.485685460376897 -3.203459485264623 -0.007054657214565206 -1.641922616149315 0.45319951783418677 0.6986679646611893 -0.649792782890258 -0.9685172736972403 -0.39867693648976527 -0.2327749270389409 2.287371182554826 -0.27199592812341644 0.2711383880047128 0.9557847116776972 -1.0795220171779916 -1.1989725561452937 0.07299425512353294 2.6227351353157733 0.13622836771767266 0.15893479635432228 -1.5126725840599724 0.35330110170135476 -0.1706614605812042 -0.08324474869987518 0.2885035964923309 1.1423651250224593 -0.7370623046411778 0.3352336272178216 -0.3360961833230342 -1.894900395837936 1.9441597340764187 -0.233720755555247 0.5809733936535009 -0.3878523556522129 -0.5984694075652494 0.7543989008727995 1.8266357286360024 -0.4198661034373763 -1.4307231399996574 -0.3722551734003861 -0.1886826445929527 0.22620887991259853 -0.02430490375691816 0.19500960158811426 -0.7659229311385478 0.21234031819053423 2.536874419113443 -0.5882645914813767 -1.5890131296252827 1.306943956132716 0.12499805736519404 -1.2418715126304705 -0.7194106423446444 -2.5800694616958917 1.6090378701926022 -0.5966407326566698 -1.0501924722736422 0.12763739684813685 -1.0711255709975007 -2.611870031685697 0.35424934692716475 -2.0518022078001237 -0.9807306027649084 0.43672919698019974 0.17552532126860823 -1.4633769423388718 -0.02587731261812288 0.8673176635054538 -1.716763191876679 -0.5930428804969413 0.726316409613634 -0.11740611524727995 0.08261695403583497 -0.14682777467753988 -1.078027579892635 -0.5619326596753281 1.5228867311059695 1.8911529372337004 0.27164019805651746 0.1339342710123401 1.1190514364904713 1.2320495014201875 -0.12455633710600707 -1.519167093727056 0.05679538811818432 -0.17545421292093608 0.8926794877545856 -1.2887578669958086 -0.6900086731584113 0.36010636026925186 -1.68379104801722 -0.8443748227497212 0.22604286120991157 0.13028849945911544 -1.0069711660610048 -1.2108791782265853 -0.7537915603231822 0.282408249201882 0.5085267975632539 0.1171753627281241 0.6212426048937132 1.255557863585617 1.577485504452482 -0.1137116936764452 1.1122338093921151 -2.5176364984315938 -0.549098239932004 0.5039529921713227 -1.6702759062023405 0.8604692558671322 0.050272387412548886 1.2983026667302937 2.1264597594444976 -0.5368309012437739 -1.5343650067860455 0.8009242926012875 -1.8501287741220376 -1.5606699642438264 -1.0004968992111045 -2.707503829827083 1.1702446518966507 -0.9343062489978552 1.7203738885929094 -0.026431822328305293 0.622720656398369 1.7018276995723491 -0.1662837002228743 -0.3776106800057819 -1.6283995942817149 -0.6080184010122355 2.26239841725346 0.9697565620293784]), Binary{1, Matrix{Float64}}([-0.07909017736520405 -0.02699764015127573 1.4574928610433484 -0.6528082229088908 0.1546395837258981 -1.5354924439702322 -2.8709324621119174 0.07219625889086381 -0.4153993890893629 -0.8577380286184468 2.763072069738359 -1.1423772664176814 -0.0136370367353627 -1.0745553522067006 -1.0287633099338949 -0.36202385183624947 0.2921147492165663 0.47708120249806 1.0147733200287707 -0.35345851112580484 0.3420208950521441 -0.35855231329407444 1.0157695395987472 0.840012836733643 0.10240732114178036 1.4288263072828165 0.14833399915772574 0.6470995540608251 0.4900506687917707 1.0558072922816304 -0.37759878259744367 0.6479516796148392 2.9281606287677384 -0.6456043233908119 -4.019391623879859 1.0145934036234137 0.7811981349610493 -0.2618852313245604 -0.1507552926171187 -1.2814371355114942 3.913264372465124 0.6145111026349434 1.2681067596087188 -0.8475592409062781 1.2384242750791243 -0.5399031336479125 -0.652684301878506 -0.1613982639943936 2.0218464992641887 1.4309116446127532 0.14930596934538554 -0.6501861781754571 0.7395849153813041 -0.2092099548787642 -1.930600547723184 0.15276909074307218 1.963311360037622 -2.5823898222851107 -0.6206700105745193 -1.281356012356338 0.45367790531482155 -1.5945464004257897 1.1166249881504275 1.8417056423110578 -0.038631375445226664 -1.1983840429514518 0.8602807314587825 -1.101740512355885 -0.4476344350551536 1.7528741666230836 -0.138968800860144 1.210198923954252 1.3412866594473127 1.3070712203415746 1.1766068754155004 -0.8401330728155205 -1.269763664647334 -1.148540908533969 -0.052312047289347095 1.1903874711055469 -0.6871847226253399 -1.1014648048624989 0.73685293123309 0.1264367507466311 0.7205876139251054 -1.4733592603915675 -2.8168981795084194 0.0720921974183985 2.1516178262849137 0.6959883531609183 0.08868597460258604 5.32380075093655 1.1071682944597026 0.12054514167819934 -0.3673812366106284 -2.672117027076286 1.0551754915772762 -1.5664952069176539 -1.2783505105230653 0.49057995776788593 -1.9154894009051113 -1.2206759907808866 -0.4853579946402293 -0.5115251018080219 -0.04528075948094276 0.6458952270088711 0.2255908778734073 -2.3501130269251367 1.3703771802222815 2.782025171087006 -0.2697699004633112 0.05657591054452237 0.9531703979702727 -5.214762728316545 -0.5956918861480652 0.3634167144557583 -0.21034256151041528 -0.21417632058313812 0.793051609023337 -1.6912247649684486 -0.22909652236349262 4.627525022802058 -0.7777517696059524 -0.48096361069758736 0.029411028146955676 -0.6643707393421535 0.16843167585302082 -0.421700102761727]), [-0.2148789658569966 -0.317985868876992 -0.008292560641995524 -0.17967619834182844 0.013399837497157811 0.03180534687198806 0.008359881749712344 -0.06275707823522221 0.440210166508599 0.3067073899110783 -0.1882647040158539 0.11632615538585157 0.09795832267940462 0.5405105262929831 0.012186989825100303 0.44460892546073977 0.05877118221780531 -0.5390156992339586 0.5222957615218289 -0.007204392649416581 0.3205520361949291 -0.20422680762534504 -0.18447842575762588 0.11543928918302182 0.4502595039289481 -0.14088107419211526 -0.538961576919295 0.48439854981062713 0.11584964112871803 0.26289104606330777 -0.9919987618238885 -0.686392263245105 0.49571244871290604 0.544788820170219 0.3758591066097722 0.4905571893387956 -0.03447071328837772 -0.9082242655566962 0.09268937779253716 -0.05573242659792518 -0.5382452798501205 0.1199392220696014 1.2617002646917657 -0.2724063185653253 -0.17138204602375665 -0.03587204094249462 -0.09137217056543682 -0.465026382030381 -0.1793841969674726 0.21020043562103383 -0.6095744613134412 -0.06568673843043171 0.2221273342740016 -0.6181796984793604 -0.46559111061085456 -0.3669783577636756 -0.18083104321809923 -0.3107267662412353 -0.675699092658849 -0.4502280584478413 0.2537837620010952 0.015376254979976812 -0.2926261533901565 0.08732811679118709 0.8865895478240658 -1.0060090886013682 0.5984128911073143 -0.9611117570968742 -0.4517204470875904 0.4790837129744253 0.026862130871483248 0.10261756837313094 0.7496937220693815 -0.02167439160565504 0.33339818440270536 0.15576073091715517 0.358162535496893 0.32615483524583 -0.31461833240086184 0.29140222002255683 -0.3871136987096487 -0.2972380445686251 0.23538323370255826 0.8329192818148101 -0.17021933397381622 0.05401847105895126 0.1895476502856215 -0.10416974527189014 -0.7018388054823558 0.04300650388002282 -0.10199081042276911 -0.7517194529062453 -0.2776144043508668 0.30291098412605133 0.08638328793905185 -0.013967844910911633 -0.361201659609824 -0.1304777862962165 -0.6221567390266775 0.29357599526896544 -0.5589596933325207 -0.7753513159430812 -0.3362944108433662 -0.01969234345697288 -0.06604688491624468 1.0645116094153801 -0.1977624553900285 0.4115447878212911 -0.6993668865428103 0.47408297895767926 -0.1148045236233383 -0.16699652279068888 0.0019645342535403055 0.5563175242187888 -0.1926344456983074 -0.2794370425028868 -0.2987757606415909 0.012779851031460192 -0.01777887224498943 0.031673444213247984 -0.006899079724259324 1.5925549236087722 0.3529377333394317 0.16853755582440358 -0.3067795615563993 0.3376518289251837 -0.31922031205564955 0.20238281961376064; -0.17242377224434005 -0.9815063689553855 -0.2868693558518396 -0.49981027613506324 0.28428278159607157 0.023737016304062105 0.050870954012689776 0.4842534434578371 0.6096055828316782 0.06481345720780583 0.12107213602207065 0.434741525198333 -0.006215194741262915 -0.3782921268069777 -0.947810687300716 0.0050315959462926265 -0.46736000974968495 0.6367521405039883 -0.14725077027481864 -0.5133972350286148 -0.006409169275885542 -0.38029886964460374 -0.35339934114414306 -0.486002164431706 0.5162277917763428 0.1815412322575621 -0.4185222313821682 -0.04743653284959839 0.4114835116107715 0.1020964203191558 -0.32982026776512197 -0.07236990501941686 0.37817582905369357 -0.05300345636207002 -0.13293427383547513 0.16761641104865804 0.2804821160466782 0.18590154579355905 1.0837988711507294 0.004284216486778411 0.5316649982744494 -0.15685064226713427 -1.1111764428376762 0.019032793692439803 -0.5659955275830528 -0.5430398117162709 0.4587914812138778 0.3897989892754457 -0.273329944049969 0.028511050476537708 0.8263961650700575 -0.5636892129082334 -0.20565730216741487 0.10394884316709177 0.3296472382019438 -0.4029703220239231 0.9907006088380748 -0.6239825632892982 0.10926526185975165 0.2327780866492337 0.23643917989809513 -0.029807493600530602 -0.11711808931468513 -0.3996907872355815 -0.42209592656105205 0.22945200561165988 0.021666889588197152 0.2447030926304857 -0.6727454206480327 0.25015456848018947 -0.009769258803645672 1.4557593092105026 -0.5078970962606218 0.18163712248692077 -0.40482629429477013 -0.33465071549354874 0.14483809928365238 0.7082841835548488 0.03702962811430134 -0.15142621082112653 -0.3261176582794349 0.12106575474595535 0.3917118068175033 0.13214808248225046 -0.4189731069007424 0.1563526690939461 -0.37510160218771255 -0.3413322535457304 0.024342233382872145 -0.46525741437695084 -0.398276887392143 -0.3003603614600921 -0.2909546590926263 0.08159192672529675 -0.2922618860651644 -0.5769109768646065 0.49455526206393186 -0.059087543821661426 0.18039785442418624 0.0013987834836501187 0.2294952824433878 -0.14613557811508818 -0.8518932240080843 0.4516625653930627 0.4025371209623516 -0.04886301420484576 0.218565428019394 -0.5250204736026773 -0.2950342277266526 -0.25152050580149765 0.28950356085982415 -0.16628723751552843 -0.4576382530561024 -0.019567852115725575 0.5147945957769678 0.8224040047807722 0.12982102503651716 -0.11351358124489747 -0.02307939585111917 0.30439067747534515 0.20992433373591293 -0.6437677085303466 0.5575247533513824 0.8124967904939961 0.4622429062309616 0.0740340591306404 0.07404106100680909 -0.1490466452747329; -0.2817184945103296 0.014385057202499978 0.013182677877551875 -0.006819762128967508 0.3217949320450663 -0.8260106637122463 -0.32622697284075725 0.07450387302080642 -0.09753474744221627 0.05199696095885843 -0.37502546058830966 -0.022456336599655995 0.7222860076045786 -0.7478722313525272 0.552575416278768 0.14927198759182694 0.02950671857023613 -0.43560260878674495 -0.19258972378602798 0.5926898582641905 -0.38810577656679157 0.572983073411921 -0.07881295860485418 0.6876140576538489 -0.05915990109696618 0.04980093839833817 -0.13116471785489256 -0.4003444288267794 0.014649714236829316 -0.40458961540227245 -0.1562719038597969 0.0062439384548611775 -0.3462469954580922 -0.5416995299111678 0.5914565356206 -0.11098831469506143 -0.05072503035694299 -0.30292026965964286 -0.001407309384761143 -0.007006092411646257 0.38977505668434315 -0.38867635470183604 -0.5212428142328775 0.5040575012462748 0.6457316770848466 0.2848706930144404 -0.8138410253054984 -0.18467440321478434 0.4834111599512105 0.12787201495545164 -0.5118456158449335 0.07287343830456763 0.6210576314472288 0.08667597727179431 0.1567321471067294 -0.31519659636297703 0.1966736009048202 0.007019662502106507 0.4960445454898529 0.8825488974029007 -0.22773819684949587 0.3901747564180354 0.15692330083212463 0.36156038393444967 -0.11567311756614057 0.0059124335273565065 -0.2632736822466201 -0.31502887400980534 0.37619241814669224 0.14569799929892877 0.19600827891954153 -0.4596727381449842 -0.7698740716747099 0.003938279993125329 0.13116656082244435 -0.11352834377469519 -0.3853915169617728 0.6215832733060933 0.29305955252515997 -0.6109134951505403 -0.6426573936745476 0.21017024480143096 0.09573626972827616 0.62967204644418 0.7897647283227242 0.9666387403317084 0.5570240147644616 -0.5448044850518378 0.16904334775768662 -0.6124466725142436 0.20048480328185223 0.16315671004836263 -0.06378688586356422 -0.008513764122249495 -0.8691889831090316 0.21596932170351119 0.09562132082077242 0.5093542904387758 -0.8638892739136999 -0.14368636465307105 0.3234694044068228 0.425806259802727 0.5648471220690615 -1.1733979852245422 -0.03995451975446758 0.8805697596072238 -0.6222669936789125 -0.13793475202792102 -0.29639298342539827 0.005170516569914232 -0.11676173163647734 -0.32315425351830446 0.5971899623206871 0.4425894937253585 -0.000528373980801328 -0.6146896341627336 -0.19146452744293738 0.5021389718876228 0.15916596376017625 0.27571165989298574 0.4110400627000362 -0.6708372526644129 0.26372644783974203 -0.4537514904264541 0.08689118151336525 -0.0031909660667597804 0.7280268770358864 -0.26052737789706787; -0.43221946368320857 0.006025268027349414 0.23982451252536818 0.16467973956330326 -0.48049042032701794 0.4408392112097395 0.34275375783710865 -0.20663295244439686 -0.22647821673431365 -0.6332214012905792 -0.4593055913634877 -0.4895239879037117 0.22238154855605402 0.8369815653419036 -0.14958017088548003 0.23706263531855318 -0.664122608063218 -0.05853539727037108 0.3758576082935618 0.2484130075779566 -0.6426191181081699 -0.16727866290354293 -0.09153898158842841 -0.42593588154615664 -0.18495154451239681 0.020164179430744708 0.4286820618863614 -0.11114418407904342 0.06409051103969436 0.6546591183392941 -0.04981827206823521 0.024625557077030867 -0.15436961523385592 0.7834355591142308 -0.4520190243892234 0.4701969841262873 -0.03831921600035986 -0.0980673389556577 0.2668907099633606 0.06466073895543868 -0.0298906953050997 -0.2731646790599952 -1.2535707770426818 0.006516183809193647 -0.01299490623506518 0.2998664846990698 -0.3829930592240105 -0.47449258580316755 0.6974752866893904 -0.41464886314874305 -0.10245773717114709 0.3744910890134203 0.03568331228218851 0.09000589134691153 0.005284071816168473 0.7463825638549069 0.36821878625935134 0.0134073087524545 0.12583854622682555 0.011576378162483173 0.17774222405363252 -0.2909739355723424 -0.008355875964163336 1.0315650597322956 -0.01952117358599333 -0.021673094767725172 -0.430520581438214 -0.2964245264860376 -0.0708531741236323 -0.09861911807394896 0.2620657127524918 0.32451167558122684 0.2217538954734855 -0.7843688957486837 -0.09852339478234769 -0.19156618849269713 -0.19482036110722073 0.02758862735938829 -0.5145614632937554 0.4112431872030522 0.24676172623125375 -0.0010018222023022417 0.4536033120789156 -0.1829134490891792 0.012547827586541136 0.2591115029253289 -0.6394105084509275 0.6160363538759616 -0.0018126213809287624 0.2527567634001087 0.24787935134950687 0.19107867685914415 -0.32604707226126906 0.08260575356335546 -0.00231246170331876 -0.12852893925894507 -0.16161097919473802 0.44116268727871455 -0.5585140088814708 0.009743292564366453 -0.24442800678582938 -0.1851771021171589 -0.22729855710126862 -0.3281893375996574 0.03306398850811446 0.07904376784207771 0.04662602231408575 0.031712588449500395 -0.49187936788438025 0.07876566643861663 0.2571162780616828 0.7597745017693257 0.10471748403841162 -0.5045021335945181 -1.119836007641522 0.056232648956015596 -0.35425799715850975 0.27353042681362516 0.3863462758620157 -0.011416410641160156 0.41050577993328674 -0.3241228627174845 0.5208440761186465 -0.8268783293099491 -0.3245487793316143 -0.004833825159472772 0.3417405384688971 -0.0011356848692206179; 1.2423478454271204 -0.803171550256855 0.07495301984430358 0.0320135343124035 -0.38679486216822756 -0.02739974303432667 0.24099995729706977 0.5063149967690335 0.41933627202407325 0.5019279906231712 0.24610885311416272 -0.9375167904253033 -0.1567248933511077 -0.35748052045871725 0.0066444185838899945 -0.35819402219890617 0.20823716857220811 -0.5542029088687722 0.06251148493702255 0.46406816359500264 1.0912001871372667 0.011392657424633496 -0.18630405696275731 0.0012737280446393428 0.057849714143247244 -0.049137490272988325 -0.014335273019120194 0.10885777256547238 0.1033947287728055 -0.17441078386784065 -0.06856369118474386 0.876656951052847 -0.09890469189323163 -0.5121681929863323 0.0052150077243436725 -0.22116536457101257 0.9449815207644847 -0.09029322647908479 -0.08391233339501797 0.29436254466845896 -0.11597267082928474 -0.08419075171902557 0.10538263891248845 0.23897375476413268 0.5868747212652516 0.09216099783855636 -0.6084821194808644 0.09316538798034045 -0.9383453086015022 0.7465069858538991 0.5385280972193571 -0.79820245512998 0.007816408518154738 -0.4838948645034033 -0.898568655883823 -0.4148789128525693 -0.45574310871802903 -0.012541267158859212 -0.795319318832081 0.19661391514546517 -0.3826068374790767 -0.04225293024475301 0.37934890500624835 0.2300969713650273 0.05703218289853129 -0.013591310594849108 0.24533385720907488 -0.5546275414634385 0.23117108141386336 0.06178004541559812 0.6443064653440982 -1.2272617514876003 -0.48627307875819037 0.4055222625265897 0.3959861575306217 -0.29869642631329607 0.39990443983420126 -0.5517329740660201 -0.04133798561537325 -0.2930778183324196 0.33153537248180154 -0.5434201954898624 0.6655499229303943 0.005751908467834475 -0.16370336353155512 0.5034635353384237 -0.9222430239977166 0.26295336639527267 0.7027080305800344 0.07337381946994577 -0.033666204493306484 -1.1117821233230047 -0.87455932683421 -0.9682183470062936 0.0006103402827808727 0.7543794132917259 -0.002407370634655059 -0.010151846993386868 -0.8464230882317024 -0.2112413415356728 0.48218297505827223 -0.04105407270235042 -0.042863090997954545 -0.23043589992154323 -0.3048750479572115 -0.579476087773553 0.4374694422888184 -0.14384560130330581 0.23598730864210457 -0.020699290185946417 -0.2877953730149845 0.6941693838232635 0.240374704805806 1.466412393202478 -0.04210729183141358 -0.38155544159801325 -0.3472850798164962 0.38108304160039436 0.09319936573203906 0.7828398870589972 1.0494551210618968 -0.10807925868301776 -0.16905646334786043 0.17725005757326837 -0.3864083978834823 -0.669260990559903 0.9297663752611566 0.046293604124652374; -0.13307187266389256 0.5837743180825422 -0.13709352344321002 -0.3645062106964914 -1.1997607994774049 0.11038127041886889 -0.0037090656442327645 0.16456012199885273 -0.06384108316224667 -0.28586868575631197 0.34226648883771493 0.052482648689276615 -0.29912883954712965 0.03144354609628542 0.2457678304593162 0.02694558827263616 -0.18670317355634714 1.1785651094001788 -0.2630357763206292 0.004902665605656857 -0.3204465765198674 0.1135233949150418 0.2583020507908749 0.9981406682584862 -0.5956718801410233 0.7796970155124038 -0.8194272149497942 0.0053210081752047686 -0.0030398740990254963 -0.08626189746339707 0.5575597454175917 0.8563090311162572 -0.23701439412066105 0.0017753496251456495 0.1942884008479503 0.026476943601976815 0.6584388336454947 -1.0828683778854717 -0.23877007460172153 0.4488758277637192 -0.4315790358749587 0.00750238729074116 -0.5699488671687148 -0.46459405938696674 0.012436586351308664 -0.1278781183427129 -0.9385917632923955 0.37321097471858633 -2.06281545576702 -0.009626286166733604 1.329187939307083 -0.36855296733739784 -0.3123946512097262 0.11178867184764979 0.14681160049768902 -0.5175086879729833 0.22843282695217967 0.10542693392148869 -0.18318169966152123 0.72485951377459 -0.1196869330544494 0.7012495619799702 0.08283557121985093 -0.8789308764464843 -1.054157910248804 -0.6938810436107103 0.05566249574919481 -0.032245522425147034 0.2149606772157543 0.17074595179178076 0.7332818549227857 -0.06533396823246831 -0.9461008406574755 -0.6996833192251043 -0.44656462100771477 0.007463431671835597 0.21939462804666815 -0.4724120157157511 -0.4391491268888689 -0.494242721334373 -0.23817718682394423 -0.17817318902165463 -0.001966480660403667 -0.5061479299768366 0.35946626954227034 -0.48887836478517327 -1.2253014936929494 0.04576496768201597 -0.476869228086178 -0.027235454575721307 -0.006758491805175721 0.09446378580354951 0.4458980231866645 0.39402129373676587 -0.2570924313849206 0.45501798281044603 -0.45704775192493113 0.26112059522658004 -0.34458561078466904 0.06963260239939266 0.32098118680158483 -0.8979090263388751 -0.2859551907723382 0.17640904899718787 -0.2901701365630712 0.014665823359647176 -0.9052253269815516 -0.2070884867678329 0.566724433329553 -0.08573866268709973 -0.047383596734387294 0.3114302772956389 -1.339830492886303 -0.0014380100890029968 -1.16290650051276 -0.012048944904678007 -0.09898892610612356 -0.41488259216801443 0.5198029591114107 -0.36739189496619745 -0.11485444456254704 -0.5906708311028219 0.6866484055117784 -0.2875300636136958 -0.43328668544482185 0.08512966976411224 -0.28740967387965816 0.009117720625314626; -0.4852143443905106 -0.0728040293740772 0.017074511238099194 0.08765280291504066 0.13405781760097335 0.08035712155896255 -0.20381132311634909 -0.30453196812472005 0.044611064636896 0.0005260505041185038 -0.6323979414544895 0.25043841889229 -0.22537439592853556 -0.3462683634649114 -0.3472206049869055 -0.6061401318440026 -0.8986861316587422 -0.515935495542496 -0.007754153993021676 -0.31543068119115797 0.6353124071250521 0.6523928908633517 -0.5573110188856526 -0.1927866855003286 0.2897764397718843 0.0492823568909385 -0.18107759327123032 0.5567230559067392 0.7063309188515241 -0.0718889405953458 -0.23005945558049082 -0.20683913735732706 -0.5765708994199401 -0.2384900521700402 0.7577620221284803 0.8783499020189249 0.31463292954277067 0.23577591428458405 0.16988503837729926 0.23855367499624128 -0.9516911490825481 0.4937760226565828 0.13666538991150276 -0.7747790844857891 -0.01717693476237904 0.6903263069778112 0.2563751094937139 0.12019698441375269 1.006065154779489 -0.25846461153340106 0.050655783905575194 0.0036414443346741085 1.107838902282677 0.17903619687430483 -0.285299544928389 0.0491053965704277 -0.8985796314592915 0.21926758951340708 -0.07971400682780848 0.5302639046011173 0.019350282611461152 -0.005501670616452479 0.002947171385556819 0.13089187269838526 -0.7900520525485645 -0.0254057313632446 -0.17261160263045458 -0.31190351651952825 -0.07104052974747041 -0.5876172976772527 -0.1704911948302416 0.007092603332827451 0.5263014362979386 0.1056795423584282 0.004656304326364749 -0.06885372813687167 -0.43723575993403396 0.24090620364657672 -0.2255542883477587 -0.5768767713406638 0.008188006813642746 0.08553943538951324 0.3143577497177044 -0.12825713900545058 -0.12516425200355513 -0.110114234187078 -1.69649198957664 -0.19381278362311957 -0.39142459417626607 0.4337980278534089 -0.08776212772232556 -0.23119091540639092 -0.023084188612889103 -0.2033054747542296 -0.14502161269317973 -0.014435505683306094 -0.18674865183133407 0.12352787585155248 0.37952572591127415 1.1270495649890115 0.634741393155176 0.5763373242232698 -0.5340770122154166 0.0038286099771930693 -0.4202109754479438 0.4880884827517925 -0.0041672275691939185 0.36849874472761596 0.39534163835776226 -0.4372581975501516 -0.20161977202431977 0.1643459023506838 0.6156536952330772 1.275508647191194 0.05793260197026162 -0.11670396764005424 -0.11304241624777495 -0.19851607861163545 0.15038876292012007 -0.5460693176024545 -0.5120541715396597 0.19818189549005455 -0.18023576100367583 -0.5540154779942754 0.08906102425841182 0.04079947913231357 0.0032144069777781123 0.6543669305907956; -0.4527463185330055 0.3353244740183795 0.05533212221436718 -0.08479145071204561 -0.4317135387218373 0.06581785821634024 -0.2315032352887255 0.12337528651192345 -0.024694483835110293 -0.12082255983743408 -0.006356781711448346 0.4094913982394858 0.18105662336221737 -0.4221674758696627 -0.024193291434263298 0.1521927539118547 -0.25993367105946236 -0.5366173372333105 -0.3306072970313825 0.2710480244246135 0.09720874001748313 0.1334619959803116 -0.41804416068606565 0.2142804748991889 -0.5030757832862904 0.004840567582901781 0.8309924615299481 -0.1476613299621056 -0.004155093975921865 -0.3967830601780501 0.6937193914208505 0.42323608169000143 0.8785616002590713 -0.0068449960659808145 0.025580441597258613 0.6903864998772467 0.3310184625976965 0.5110181750152958 0.01716746445935118 0.2919110966636905 -0.009977529883603141 -0.15424309427174263 -0.158073477191109 -0.39876001209481327 0.5442343194403694 -0.1381937447434669 0.3565524880399812 -0.0011856082907626625 0.3350136949305805 0.42771073720525027 -0.7267424128032401 0.004257458758749362 -0.07305524063723419 0.29365004861907384 -0.004722995920259083 0.693273649661072 0.40885459944058433 -0.28875864176981925 0.012233915097191524 0.7327919634344181 0.3823313716823094 0.0373756052901048 -0.3409604424013391 0.441811227612734 -0.10214150340102914 0.35577973496584664 0.30297685837373983 0.14052672494899193 0.35287083725064267 0.2805834443832503 0.5040557684199527 0.36208516132858004 -0.22938405618625374 0.5577901146010255 0.15991121142158904 -0.48399668776716176 0.003899978877732684 0.268951915366741 -0.46620177667452817 0.27697533106452793 -0.6588227412673792 0.10364144809952795 1.4723069262521402 0.0796916986020703 0.9232941303776772 0.8042138452012527 -0.14153153945286906 0.5513949888527855 -0.3499852221448496 -0.5606298784373319 -0.3509694282673914 0.30749671070573376 -0.033269900278127984 0.1418402611634381 0.0031021683298502944 -0.34398349634895836 -0.01818534731398585 -0.26233785689705347 0.2911478712833346 0.48287285727445156 0.2926533975606471 0.48819505948352143 0.06748482848922295 0.7939104101067755 -1.111903078640671 -0.032020827563918816 0.1633401075883174 -0.012970590233214592 -0.41914773429165886 0.7257439448122887 0.3793067384340353 -0.08207991292534314 0.4010736182825722 -0.4431735191526616 -0.015938417843184248 0.15552330105924309 -0.49298782197005186 -0.33590805640889 -0.2561054820428771 0.21518214065074948 0.12141079393467027 -0.10275266345935143 -0.45875763743478365 -0.48629724260103907 0.14757907057710476 0.18039841258080141 -0.0161254393413627 0.7124406964007386; 0.5897058230799676 -0.003609726174758745 -0.08825236743781453 -0.36838797653093025 0.04689690246555138 0.3498625976007034 -0.3929869934007317 0.20602817447132007 -0.3999824237943444 -0.5523050960900449 0.831184340541434 -0.04942641238170348 0.6893550523143257 0.7136150845204242 0.06766243263784073 -0.412317780525105 -0.3057354634005349 0.17611496494216747 -0.060543978240543396 -0.19083625214445968 0.24641935884816488 -0.7892782896746439 -0.006622371307699031 0.5356050363721266 0.7172132202467667 0.17841423418632382 -0.6069526956297194 -0.2406500211194867 -0.08004194013341268 -0.3291221187990872 0.7140001169767564 0.04347788937483601 -1.5768572310845839 0.36007625578171426 -0.043199947138196776 0.19413306800191912 0.7851065864422642 -0.06703557260341482 -0.08296696019726674 -0.30715033338210884 0.4496501673486218 -0.03348665552678606 0.6754599708569629 0.007835329679861 -0.24957456231953012 0.18082131474376076 0.20814499709632223 0.7309607623171827 0.1784475469864745 -0.35652301538280723 -0.029413491156404806 -0.1413305023474122 0.009573708400459707 0.34200184655025856 0.36917402340924227 -0.45851249135374317 -0.43477394604584857 -0.151846179206624 0.4835575861530597 -0.000704063414875071 0.05864349209597128 0.0074197573797720835 0.08276197455718431 0.300343678463177 0.07105926391620579 0.0009195395584979069 0.465799058023587 0.16769382031782842 -0.09177377425838333 -0.4602900967153497 -0.26103024973084976 0.016930144208661083 -0.687461789044026 0.8429762070766469 -0.18134586716175613 -0.1679329675325872 -0.18093488798862692 -0.00035971479352438934 0.024985235936718912 0.3746252825364129 -0.3588048985689242 0.2690317788685972 -0.5639553148288451 -0.11893788426291058 0.14861415733309685 0.20066239320102283 -0.5190401435287919 0.6915049221467989 0.20196021831613797 -0.2540733286509163 -0.14619948350163786 0.5606121774996621 0.6288378473878905 -0.5708343846319139 -0.2985171046015573 -0.47431241625089476 0.20987844589855062 -0.24071651002483815 0.4760085856604586 -0.245613507128106 0.6339744929208547 0.030785970122333663 -0.1939909212846903 -0.1439808635424923 0.8499120011051452 -0.47481794444893877 -0.23851947153517714 1.0120001583303957 -0.6539071532908509 0.643771230329386 0.3049578222871794 0.16734585962914478 -0.7070158530932008 -0.2851557865302055 0.2370782766254986 -0.2692640282334791 0.2509782201461324 -0.3053118893498434 -0.5662995542911785 -0.38889417078662036 -0.3094110173842855 -0.10390425401245351 0.014940510568489178 -0.04494104289415185 0.8495849325710412 -0.3307978982528076 -0.5769094354173281 -0.3004358811620573; 0.5708290127326721 0.1634798255318766 0.7206645028472777 -0.8646711361896378 -0.7140635058753785 0.25340283790831675 0.19823483306524992 0.2829911130869093 0.2867539225937494 -0.7571622419666577 0.07864935131148013 -1.2813338127366005 -0.8222905920311743 0.2514847243472542 -0.1713096528033894 -0.6018550876858183 0.19468738023739268 -0.2401904518672532 -0.8108310745472987 0.6495768397385298 -0.6664651376424139 0.14834361972066215 0.26959460859335865 0.10741719185532903 -0.002568997616727157 0.0055803655208671475 0.6749404097810271 0.12838414016816813 -0.1568259701260812 -0.4053358165312489 0.0125738914675624 0.1763873984187377 0.44766556917605654 -1.1328985311587667 1.5054929186199209 0.01565668807776372 0.14555482368765307 -0.12162415378563551 0.8484269741275248 -0.8431053093226917 -1.2484587056121574 -0.3793959062735106 1.12682228384494 0.1070798745322416 0.5959945540959725 0.5102573264523581 1.5457866840564567 -0.7661109397099195 0.23970623642419533 -0.30669841004802506 0.5836556322669629 -0.941672662042354 -0.06179810519488076 0.006608037956713583 -0.9638332720653414 -0.6711012725778793 0.2286163973649435 0.23043623432071314 0.4269479665433431 -0.10683731300946404 -0.27423690380047183 0.0174818317422038 -0.4129334856457799 0.0244012551883697 -0.20588208270387912 -0.03197387759690338 -0.04331139055644198 -0.048773056670189815 0.05587862411834734 -0.8473639823053498 -0.4185249535751106 0.3563724129856833 -0.5992983429468096 -0.4119506221153912 0.12850096339131514 -0.03263453897003605 0.014225102758683104 0.5956904444274322 -1.1072218941583634 -0.6786691612427089 -0.5068378504856375 -0.07269610430481814 -0.47876915023667155 0.2614073578821402 0.39450806522526743 0.9494581340271048 -0.032424776110374295 0.11409448250513726 -0.15780952236722984 0.40945472685946505 -0.2880902838640071 0.13245718961222983 -0.18373236224634265 0.3182233067509824 0.7710750701328835 -0.44240665831797454 -0.34806074297127504 0.2567391483780903 -0.08661410804193595 -0.31682235994225333 1.496786768622157 -0.028040272189074626 0.35301202704340945 -0.36768344085458055 0.4997658991427294 0.07664608810529938 -0.06940544057163704 -0.009814921107669917 0.7163050071450185 0.8100925007882519 0.5367431083079024 -1.0251642348919103 0.8987744555539539 0.41727674919027546 0.024042818352677273 -0.017221344318726118 -0.5447445161496335 -0.982311092801621 0.5144772213885138 -0.08871765075430414 0.6895929465850035 0.8181161727783844 -0.22944512928591415 0.2440540261172818 0.5302977656840233 -0.6622419757117785 0.223597521494374 0.21052190769369217; 0.29157702301266225 0.5931239609897683 -0.15215993737262407 0.12002298686848903 0.03670201952525195 0.6471134327302722 0.3018699452601016 0.8921698347881983 -0.0968012198386007 0.01948089946655597 -0.0028169382764845633 0.23493562806544377 0.06860304572235013 0.35856779237788533 -0.24277760177681998 0.010631275534667499 -0.050985232016671794 -1.027172694017529 -0.03577516421849704 0.23436707624653608 -0.19816849149107385 -0.10123935826668387 -0.333425251004167 0.4213607192549058 -0.44353260919050047 0.3635414539751668 -0.03125635653526387 -0.3762775965531334 0.06014629486752058 -0.3048368239118039 0.871791530632244 -0.0008609456237760245 0.9116439953284584 -0.08847136712591228 1.0462936067413748 0.2691853493766011 0.04654478077673795 0.43914110188657113 -0.00657764301075221 0.326029623630028 0.08169140384491834 -0.7446218527558844 -0.020919602496361607 -0.1962905696632622 0.3786343567252219 -0.9970511154538034 -0.030946130853446253 0.2139219012313387 -0.11937642890044288 0.5454651420326261 -0.982289714323749 -0.08974148887036827 -0.7066474900059315 0.12396167894073665 -0.057750309938276054 0.008268146435023757 -0.3967511798498609 -0.08947821109085652 0.19165272391259797 -1.1203834688307976 -1.1279459903501274 -0.3423285089707002 -1.5024841288044137 -0.4097013638001555 -0.10723539880246827 -0.3185493276808873 -0.3506709506456295 -0.12635965276817354 -0.34416526865136865 0.28243201842642396 -0.5703120067237608 -0.16082908333512547 -0.44657522574360414 1.0553534030819294 0.5823181256771761 -0.6386167456544531 0.0024139538913003737 -0.1299479592677337 -0.6380438884316557 -0.002972083110061532 -0.3774011320974468 -0.5944028346780855 -0.6533439164875383 -0.0047897371433633425 0.7832198604719987 0.763411181528494 1.048792771463313 0.0014732630983237734 -0.17786123236560986 0.6755882432340079 0.6037508497926478 0.3595143215503469 0.083880008769896 0.10720033768934217 -0.30667031019154933 -0.4395356138928174 -0.3892486502945836 0.6465742484085109 0.01662288819295823 0.5954010609951592 -0.207183773307281 0.01502500606150857 0.6220183990846172 -0.048406058032706104 0.22582074374673508 -0.014120854474930732 0.1836939596192482 0.3789936237399061 0.04402844549674284 -0.39334847500556386 -0.6191978936671673 -0.6922400719486118 0.06677837967321554 -0.24907421976356348 0.8336179736564691 0.15810505853577134 -0.3677660919796549 -0.36657621174374144 -0.3807728191929064 0.4286338686025073 0.15289303944049076 -0.180377274683134 -0.7503583124342853 0.09362222185865299 -0.08867051807767813 -0.4991472692780718 -0.3619554716200546 -0.12088390708568862; 0.29676691127684035 -0.5901056724095362 0.1275895559239246 0.1724067852920618 -0.673323108192987 -0.8180543344513371 0.2649140012318313 -0.23755780562926385 0.5646957396762697 0.37790593418181434 0.32640914685733136 0.05128537751401341 -0.03197316805076183 -0.2087291972061651 0.2910588045092232 -0.4047626816476608 -0.16284571953549443 -0.6823104374765652 -0.7338822438066009 0.24252195797388285 1.0098281323677598 0.015779456310132407 0.5531136533992856 0.2912950603464943 -0.22343998809853016 0.14920781186874826 0.2583457025429898 0.12660976964895523 0.026139333181946535 -0.4033154216731053 -0.03429746167478833 0.392362456510279 -0.4439207339404783 0.7814363966704214 0.30950840573728666 -0.005471813722376818 -0.49442763134603623 0.2452104788855284 0.0337883702123415 -0.6761357487487968 0.07111845816269101 0.4020523667813305 -0.8934075755378934 0.2172540652129241 -0.008014813654329087 0.07633705419374867 -0.3342056290327129 -0.3397554899632124 0.682147700573427 -0.29206149147787064 0.10790041108305672 0.1811691379528712 0.0564269579982223 0.4347662257531635 0.03898711718141527 0.26188844481412266 -0.2871995796095012 -0.03343858573887433 0.4753684068493084 -0.33218145019645196 0.060036246677726175 -0.09912573908786591 0.5200425700496503 0.0743099004065006 -0.020841598069058817 0.313420416964093 -0.08000429775917438 -0.838054946044738 -0.0189371903604095 -0.5657292726650468 0.041639011446472925 0.1566969953160079 0.4169750302796307 0.1520844623905949 -0.10623864811146856 -0.5595006661501442 -0.011779571256229368 0.5506016518780801 0.029943109987122143 -0.5789909721425104 -0.5574155538917333 -0.7746163185546756 -0.4561711868654062 0.07720377501018805 0.5606240877601952 -0.6725311467336796 -0.7025479534933683 0.7651666653443796 -0.6235611716091821 0.34206684055884595 0.34636048036586187 0.3707765347597482 -0.4117981335276272 0.977799059751126 -1.1127300041448838 0.6678468151945924 -0.05938392515617284 0.37841365672700034 -0.7511729816253445 -0.2985845712630874 0.1450582947509416 0.10690628594482379 0.04169321590835333 -0.5126995477526989 0.2510970964886459 -0.09342961478321092 -0.09541303050408775 -0.07374175927666465 -0.3168397164649479 0.5000605231038383 -0.11354528699452406 -0.24314469212775955 0.4127832243468871 0.692981174899099 -0.2561772411397259 0.42906630811571866 -0.21654938313725497 -0.18943958095366692 -0.23203845592129774 0.44874016604061073 -0.15659429480263176 -0.14633509605963965 -0.003920018636002902 -0.0058766810559163375 0.4596547218075187 0.23142219073169085 -0.04884486104535589 0.006668363947281633; 0.002821661718247527 -0.12659546490826246 0.16842735863975702 0.27180641398412253 0.09385615720355328 0.029644543725362925 -0.45676552368975565 -0.3448419332615546 -0.28083801347117227 -0.4781789055547631 -0.2515130469051166 -0.8666064375442559 -0.18494807402071003 -0.6001462426056922 -0.18761790523808525 0.4875194049823051 0.3011698714737083 -0.030253039702682154 -0.4282045140047819 -0.35449114026575185 -0.5322632150961328 -0.000667488539334887 0.16470642788154885 0.30303843512740586 0.1762352914225695 -0.2511324056955337 -0.14278699558858068 -0.004007566251184432 -0.001796069889133027 0.3114161698518469 -0.027113144635402417 -0.010925409300934972 0.8682384374630471 0.3076731835892026 0.533768957719376 0.030443383524659483 0.7608089229248919 0.31902370139211694 -0.2265876810434467 0.4364905811386652 -0.6589160590582258 -0.05351943035986248 -0.9266610469111256 0.20556311604830227 -0.1742232278250544 0.03609049059043137 0.31391618896901397 0.31982492777705174 -0.47497262272853596 0.5223221791748519 0.5591264707671276 -0.2849574684307419 -0.537764930028828 0.01959582653024081 -0.20938669573842755 -0.37897843065469067 0.01065770759901418 -0.6572044275744643 -0.42050072119974174 -0.22826210379919445 0.43938388586978494 0.39748097217048384 0.14132044206973796 -0.011196148333526506 -0.31744088031444917 -0.078642332621991 0.29782427030842784 0.014675935512585905 -0.3506902063375328 0.2130869109912658 0.22239233068966482 -0.8728101125676232 0.058278606440491196 0.01759955813912397 -0.26086996875041724 0.2508113786383869 -0.34812649842818716 -0.31621403340599463 0.6283454278644859 -0.5270217977111971 0.085541917096916 -0.05437745291208564 0.19136075530753913 -0.14389175240406543 -0.18776949365662204 -0.880249180008313 0.0025457648014359027 -0.24470701520167246 -0.0802292891926162 -0.13153122800542266 0.9348500752596745 0.7078281316791689 0.3152443177228866 1.0275705971509532 -0.001733445309178342 -0.6848973723488105 0.23929099361479095 -0.13504182240088336 -0.34506669890895164 0.5684770892353577 -0.6383657907237484 0.24187788088972131 0.7835080456786016 0.005753371024631334 -0.41830754092610345 0.21987530539993302 0.5168438458463814 -0.8363118986155555 0.3540393172211284 -0.3328401134740517 -0.1512838871903374 0.02309740896753146 0.39175215794483986 -1.0208072458696436 0.2561531205401531 -0.1172137845984368 0.10432169385310154 0.10624585634085844 -0.20172236263480062 -0.335134261485518 -0.08714848598427649 -1.2810170019165872 0.17138895106146715 0.3405598640893339 0.2072018804150761 -0.1835233739766845 0.08661405283953473 0.11735729564173103; 0.006667086488928233 0.03931398193692321 0.0049023836485521215 -0.7133390794256645 0.08490787369316753 -0.42736345699226136 0.5854219669165965 0.525996863673065 0.004485639836963305 -0.5973774123350165 -1.5847229075795672 -0.015560467279693102 0.525012330578919 -0.27463794763726435 0.19717537463487655 -0.46190516686463906 0.7231479162309045 0.29999662955885253 -0.7215049520294605 0.45184367650912377 -0.10661161459202458 0.6843391530906613 -0.23112704511364365 -1.1595747679534478 0.298885081509446 0.7279490165591408 0.6559919592012049 -0.7164138051789685 -0.06188949025281419 0.32633664514367494 -0.27212529700330834 0.031093755505443188 0.13191011412133327 0.056810578184222256 -0.8657841510966698 -0.49214249420201217 -0.26989705894274785 -0.2851987119484203 0.7132029754753992 0.2335641740925296 -0.04451969163863096 0.08054607335478382 -0.3259736739407495 -0.5659537966266218 -0.44749229925394135 0.17674608357055352 -0.8602890103972886 0.7716952859372139 -0.021172188022021855 -0.03225960063655257 0.11333107872964442 -0.36067349859284353 0.4913301036165779 0.31333649079233067 -0.08970791368408663 -0.6669234346095224 0.19153164704093573 1.0662442421665188 -0.5505124360710245 -0.008923274305060921 -0.6268789577755861 0.4762535510245927 0.01840548976757588 -0.2668267418881133 0.03357081101832661 0.5460351475989275 -0.11616684540222202 0.0035101129074986415 -0.01968771804903418 -0.2524780875155487 0.4009946070646219 0.5927894613717182 0.5983549097081584 0.20301678829586775 0.05984363877113079 0.03546738988687144 0.1603236706493643 -0.5243782181135166 0.4657962585161495 0.6891952027446094 0.07361209634062209 0.033603559970039915 0.6230799303204807 0.3223540751020552 -0.6677024568147757 1.3717108940490703 -0.11247971202947764 0.05969868186922133 -0.04598899964872104 0.001360994479058263 0.2695083537991167 -0.4954636375630042 -0.31377792059647364 0.000879840450794976 -0.6715168329161402 -0.33649484034545574 0.5620526533579279 -0.41333475462018526 0.10335319736992275 0.36009112543904087 0.19257584419585683 0.2109271237810627 0.31720535951255197 0.8239533529038069 0.027697822597045695 -0.378802248494506 -0.22835155859529968 1.3798482289621905 0.3532714094858797 -0.654456106414126 -0.025265840955469476 0.5173890858027287 1.335851466910804 0.08881366867323869 0.3142285964322707 -0.0884946841681057 -0.4039139167760083 -0.016939289172242196 0.4048067589504845 -0.25049815048032475 0.8633711219195143 0.481164897741215 0.15167294835449796 0.12010414733009644 -0.05671105610056081 0.37593680225616144 -0.26900059473396754 0.0028125769530437453; -0.6933200156038128 -0.8140779160198146 -0.18486098393145653 0.17676710821884764 -0.3299669139523496 -0.31369120384026716 -0.14266159264259667 1.128172221358802 0.43432847918718254 -0.005417057133102772 -0.1625259138249368 0.01909835016178332 0.11808397306002923 0.2845792693672394 0.21862283326015006 -0.6232418521235772 -0.45027392386044884 0.29805221160450573 -0.6625431807084332 -0.14905307682687396 -0.24783973462254924 0.01969096124186559 -0.045427144622789774 -0.16973402596164627 -0.12860781213565822 0.33555183813092426 -0.48505245580730144 0.09045777676246324 0.6977995223195549 0.03317889855881793 -0.08655023057001388 -0.15353476052078344 -0.7370102144077405 -0.021780768396148467 0.7368603960140293 0.5647922906531078 -0.15567092469013935 -0.2715745319388491 0.9220721423792378 0.29372289179246325 0.5727440770309158 -0.07710135968087313 2.1904227870679422 0.09336753962338523 0.0361091502745609 -0.18784079579401303 -0.14514930597627632 -0.422721422855493 1.0397283982557366 0.3513136187360963 -0.33115493969405707 0.8423677750110365 0.4350268726136776 0.0008126610431613841 0.08808100687524834 -0.3330123991798497 -0.8082620443139668 1.276670144186675 0.29487457175866155 0.6618880488989944 -0.2651725840468782 0.13644792925240118 -0.9321128605852065 0.007518517757729009 -0.021305512765588695 0.17757097852906562 -0.9700712551172878 -0.5712841450125986 0.19870840557313801 -0.02158689561340559 0.05077796748053543 0.01500032301294313 0.023106147488162924 -0.4490464162523356 0.34002320925970553 0.6075364921945497 -0.2856879490046678 -0.05379190148100503 -0.23662126270535014 -0.46740221765098744 0.16902759990232782 -0.2791295552893783 0.10730365458596197 0.03396607035108274 1.1112586204003672 0.30559636732222384 -0.06651474558181132 0.04547667450517846 -0.14417254630413315 0.3113216988425792 0.15548512121407015 -0.6909627650169171 -0.2986184652699418 0.24172922580559833 -0.4212150435998283 0.4228780465694112 0.054265429114658086 -0.09289298832393678 -0.12132417763709902 0.09130223815566552 0.22029913307257257 -0.23999519776607414 -0.4600956954294803 0.4239588226666021 -0.26527890184526 -0.025594853667761836 0.20286645272508014 0.1421983254924091 -0.06620205947621886 0.11956186349483555 -0.20474398436275126 -0.18690834792826863 0.688576409346911 0.14119294928962964 0.03469741902436765 -0.03771193259691034 0.11771095472665069 0.06645581768333145 -0.5139341485351728 0.006474661152641464 -0.09882240980972117 1.3723544649753934 -0.6665682263247009 0.02449100956781664 -0.06453707871079967 0.33062348686990467 0.1335438380878749 0.0007755774680543844; -0.0676198637241759 0.5452538943957302 0.42407172661007625 0.0035162116625221374 -0.40257342114590683 0.2826689841949447 0.4201292067096929 -0.37833246452436065 -0.40840409666948735 -0.306076953994895 -0.9021093063461182 -0.1243639308261556 -0.036296104579516604 0.41484413312356533 0.7078722324547919 -0.7223382161183663 -0.09592697572010259 0.03737394389826158 -0.2696504399458088 -0.34131137651715227 0.1749348826229272 0.784398893200526 0.5169006053249582 0.09812932743372338 -0.16275871588585727 0.0005819968354689425 -0.05586486095285625 0.28289787881026196 0.15127963540794015 0.1432826710539483 -0.5057872523264649 0.6154921798410666 -0.48614855099795645 0.24604297769467726 0.0002242946269922403 -0.14742099773576808 -0.28840560901106055 -0.05417439360098461 0.9616532135642222 0.0019118439663988627 -0.0041022664271941536 -0.00014420675894087558 0.0005424493528029044 0.23697214316197793 -0.632635519798416 -0.6376532403524383 -0.47375023519810333 -0.4686579617319064 -0.5486109361958988 -0.013628291234890823 1.104330265201976 0.09161254013529982 -1.287714353676592 0.5266206007851809 -0.26025319765771976 0.595097740477275 -0.033971435601442605 0.32504827244198287 0.001325404076365765 -0.25281918394308966 -0.2754760338893406 -0.17397685873331484 0.12522550173851046 0.08743360171814957 -0.00948295097557628 0.41239056118358747 -0.25197633979941364 0.927767013398205 -0.6518826595563735 -0.31961590841317306 -0.4003978399923148 0.37298520388571177 0.6721878797676261 -0.3924533973387793 -0.5471732552452806 0.10531349884806751 0.004247829027782065 -0.23788790101461707 0.232559110231796 0.011921689023428881 0.04612450484505464 0.15297773363449338 -0.0030034187442576224 0.009202644368978635 -0.001426992571066332 0.03770335899564249 -0.8431556009006297 -0.7230453419475271 -0.15347252155498287 -0.2495308993520811 0.5390609067489905 -1.191942222394362 0.011955533580396522 -0.18607977182229124 0.16988844286111493 -0.02187633170815139 -0.7698712503298496 0.12873098577866682 -0.5787578808427896 0.5064069768175946 0.4794513244372787 0.4347956953423535 -0.5953443215351764 -0.11341686402728482 0.05695267479904849 0.609560589524316 -0.15462808742386175 0.4360287090484231 0.323976264046519 -0.011163059813640625 0.06700582556908537 0.34203087543491417 0.2434918378722495 1.2903920762160341 0.7373203481748399 -0.8181138191580658 0.4037077079182419 0.030573691598628903 0.004219994235585053 0.5430624224402496 -0.10239201986876514 -0.5918929498710369 0.08352521196395114 0.0007832134458290657 -0.0494228818373192 -0.10649560931726212 0.4526231149172598 -0.8743727109848531; 0.3146722815377984 -0.04641154352247481 0.08084367318148536 0.004918777317243114 1.075197367677107 -0.32574222767031136 -0.0742523568882167 0.41729941601252213 -0.22421088127379415 0.030367785345145032 -0.1740816334655706 0.3546850134862789 0.3749932463576279 -0.004805092839311651 0.5327838824544261 0.0742639806527649 0.0007713270217090725 0.8420956733823641 0.217319296222471 -0.2748413436182701 0.7124483014494813 0.7211354239640096 0.04664885881514152 0.920573590091648 -0.36109668797532984 0.7673510521222167 -0.0986414684529408 -1.206528872432001 0.015907026254128816 0.25612080908429163 0.48213406657605146 -0.6597984807985108 -0.036740669214852244 1.075324549355381 -0.11554091859958665 -0.7309030152716978 -0.0013226245589179164 -0.28472656619502923 -0.1676506468857842 0.0052555734295871345 0.07402633214984455 -0.18290984345553166 -0.27332465296267167 0.15789955273422776 0.2282466838162905 -0.214754336313011 0.04733783583920934 -0.40397562649800545 0.5849842594738078 -0.15161013799612283 0.1410420984991261 1.108553374792983 -1.070691539394089 -0.16251601711516292 0.7830316140264018 -0.35654039451279407 -0.10550563869424213 0.0018749934651704772 0.9059350779796571 -0.275584126440128 -0.6926882414566601 0.6801574699016887 -0.4236095503316842 0.015957450553498363 0.6673268191697213 0.3338559653037022 0.03794250439204733 -0.36038527172635065 0.0641946850420676 -0.23765650092845544 -0.2713385762601937 0.008121230672672976 -0.0029955042140689006 0.6696863875806233 -0.4736524449997952 0.17384495069404535 1.0984255533948406 0.6804534290076796 0.43757456893533353 -0.5132758695353424 -0.06568288754591253 -0.8916661644268471 0.21545109196570952 0.27307066111494943 -0.8213530116478229 -0.4085604443483368 -0.6005489497039406 0.8177842085074248 -0.7707721683032466 -0.11720470878624764 0.2766643771332496 -0.8232774075679258 0.7047227006202654 1.0339262330339802 -0.6632692225056094 0.13144346056863007 -0.4710840598249776 -0.3140823394692371 0.1535228582539397 0.786935285789566 -0.06963511774745192 -0.523764292221647 -0.12334095139694125 0.6408208537309341 0.37759778146849 -0.522893665372127 0.4041539546981233 0.4256319920015827 -0.0445481182302283 -0.9249657713613055 -0.7002798378758911 -0.0194401059534931 0.8725423678546553 1.0556459956445607 0.20141701252665703 -0.23331570618611064 0.38190831569985034 0.39517955178008607 0.09472542980263234 -0.40285859609530045 -0.3527861804889532 -0.26392070362380154 0.028842952447882597 -1.0461694179635412 0.5332653275198972 0.2805644443426528 -0.8257576794987692 -0.1117134643761966; -0.13019835912691757 -0.02142658320712599 0.1515717824497274 -0.13212177547754175 0.2998329834778831 -0.5566839983656677 -1.1482487846061917 0.19753269245839059 -0.024335385828643304 -0.2506751054991764 0.23611804611993503 0.01190184822530201 -0.484220725880179 0.34053721403664805 1.0548515520691601 -0.8400620850842694 0.021243350275339457 0.9336574461830157 -0.5376889600293716 -1.3690591931401905 0.23325437520457765 -0.06660334816218264 -0.09691226291888234 -0.13230332131248743 0.22521815940382311 -0.07221578242669947 -0.37759433783982665 0.21469068077281453 -0.17277710335207475 -0.45423094306569245 -0.7054914149456725 -0.39500222627633175 0.5641438418735462 -2.534850503062248e-5 0.9373368315139842 -0.3896241922979057 -0.7480817025623228 -0.14256400905317818 -0.5301326222293873 -0.49147439155708816 0.6711200478701967 0.06049346791303961 0.5354993281616629 -0.06608889278933257 -1.362768677153041 0.055313527361000876 0.4020459029153636 0.15818308122274527 0.3913391482894329 0.15107781634275427 0.10281635114996843 -0.12393200745252093 0.3384729994445412 -0.4117294700683768 0.08626054694147701 0.3342902261430833 -0.015693061688913625 1.3013078297641494 0.05620563782271317 0.012296037023115984 -0.011708874930419824 0.21284660866890884 0.1829077604461359 0.009019053451478905 -0.21167516727706587 0.4219073373261148 -0.15715388122593607 0.5174329703733418 -0.654864961268131 0.008805522015996482 0.003907935795937559 0.33150726293270893 -0.33331677651093217 1.2280170611097994 -0.07106066770291576 1.1285471480338323 -0.2650880195673348 0.3089840837800914 0.0002803247573066269 0.5970232185606352 -0.4046441598560497 -0.3913018694364739 0.022645669293843117 0.42706833202892364 1.3969878037366874 0.17560595921719752 0.4850441935614161 0.22895832899713622 -0.39825119359409816 -0.12798142023958864 0.11739005098230906 -0.4576977411918936 -0.1154262600694486 0.09836533488579956 0.6937740251825497 -0.6704195097377218 -0.08516182030541744 -0.22553326620828865 -0.4000729552244219 0.48389062215715484 0.22277818815225697 1.133739092534561 0.2384243041498631 0.9093513376486261 -1.3808439076784111 0.07602405328409946 -0.37493458770702404 -0.5476150791341184 0.6293934529053249 -0.008286789669252772 0.4655941329978296 0.9307730168739392 -0.8319229863037666 0.35890034728428405 -0.4208044730182106 0.6529637241904584 -0.12417445589726382 0.012741674340565034 0.0671560667495811 0.35344604891037174 0.05251086523528159 0.6539658575457635 -0.4054131193612208 0.48004104631377775 0.30170873422419814 -0.5720371703840191 -0.002585088726881305 0.6413821537258934; 0.4787218497347862 -0.41578805870685737 -0.7493671718924989 0.5862212395077195 0.2856983965430521 0.04962867138944059 -0.7435817137728279 0.0026967724200460483 0.894057373348627 0.5661462455604019 -0.03702257302337279 -0.2042201979242646 0.31090079564176987 0.0742524072990967 -0.6802687359069628 0.6675900000279475 -0.43774038708159707 -0.0038677900299777185 -0.07932789022227019 0.2365026581088913 -0.22252196702834823 -0.6216313002989159 0.23964241037013712 0.016672907856325147 0.44648021733399246 0.17431352699257127 0.03437621853465178 0.036448568599931896 0.006992437293178872 -0.6032261495895004 -0.0557487156446664 0.7638670688550148 0.04805600938264484 0.8828974056853772 -1.111829034380885 0.33143226242325463 0.9119075661796433 -0.5067445282482426 -0.39573968402453574 -0.7153033057310841 -0.01218768883933145 -0.8135623482397293 -0.1643644339578118 0.11706325548210131 0.40382244649758403 0.31357712636996155 0.5213287243924691 0.3755983027885802 0.019785488301551187 0.12926126991065756 0.6753038074416111 0.7037616994197072 -0.02960927808210423 0.10412260444901156 -0.21832771486663333 0.10575232779730669 0.8436147037920475 0.24655832887444978 0.36933792989180037 0.7343456890159221 -0.6701468774433197 0.03039248004720107 0.43117511147079857 0.15680307276624267 -0.38621957958371667 -0.05847635171413755 -0.10651939573343898 -0.16988535641567412 0.5157526258849491 1.0153800101419042 0.5491836595235415 -0.017398403967267384 -0.021376083276339476 0.10905648615989445 0.7747354350935391 -0.4770712251510936 0.32774438700583874 -0.7781329048833603 0.26002759241650825 0.15336506668750732 0.13580743905032425 0.2231115617309422 0.06863010211497317 0.2344469721952653 0.3267094955203897 -0.000301828100835278 -0.25722432769637443 0.14264055787013946 0.2494304234347863 0.006653727646198879 -0.4577910919795111 -0.1765589055350454 -0.6662583679219161 -0.27308726544596285 -1.0758233175120238 -0.019466687880906178 -0.10161176505305691 -0.09203973353527999 0.01056256675656059 -0.2986368602269947 -0.07322513940214406 -0.03755263361528915 0.19151948481968809 0.4314083375470418 -0.5165601039003456 -0.35702007603077685 0.2652538857721463 -0.33773151303617355 -0.5926262724055136 0.09299775220357526 -0.2644540376833874 0.15302675380099215 0.001575048073001385 0.06050672050125498 0.680900608011871 0.7787070453469697 -0.24387042867662984 0.36622635177523444 -0.5597562443397668 -0.060435616751738225 0.45907253573511386 -0.08678625172542191 0.1925589167960483 -0.2540174181412645 0.2305509629225078 -0.364196849950035 0.0916961332976245 0.7369659538827136; 0.07072065037811338 -0.36568803214595547 -0.32317354141152665 -0.14295807797313334 -0.23076890417602205 0.38725926381273673 0.2938571016541186 0.09623215113427132 0.26678700336173017 1.0579502923658741 0.576028003829019 0.18462827729527403 -0.2630683466787048 -0.12047888062262187 -0.11819129081889747 -0.006027572131140342 -0.5004874090300677 -0.9684854953507614 -0.43129225006276656 0.319729517509612 -0.020628750458105503 0.30531373063632583 0.08741104280961662 0.08448439730183202 -0.013749582683175712 0.8671758651910336 -0.014282613024902104 0.21014393846732177 0.2670801276078399 0.09186939773234368 -0.4842305293532342 -1.2074244851863625 -0.4066346055648712 -0.8308284510744821 1.715623615803994 0.04720709917758818 0.47421816416867674 -0.004091615233179425 -0.5080244680727076 0.03546253185320144 -0.797112879822548 0.589528132892572 0.2225010475116635 -0.13381149259068106 0.006134843267986804 -0.2714099371176712 -0.00497727122539548 0.23060424402358484 0.031508645911452186 0.5840456377055822 0.3809701473749499 0.6454041321276519 0.25113574652120496 0.011475223931648864 0.11156466662935502 -0.20356231775784164 0.004263859373225959 -0.17737375609285166 -0.015070432288061715 -0.2060386785213506 0.5208291546358566 -0.00020857836034915585 0.2557162260140023 0.3666958708412834 0.34585234115084623 0.2405428037600546 -0.08730304884992243 0.13419812210389315 0.1630744018554013 -0.29746382866176646 0.008380377449467949 1.118639613316058 0.5479969136359115 -0.03852295229599353 -0.08283292541299957 -0.5940149658608288 0.5216588422127431 0.2420967045784423 -0.10777040717478556 0.5878692627856925 -0.11006072915340423 0.2275920858164255 0.10382915622555651 0.2767000563476114 0.014280068077239793 -0.310431675922205 -0.3443296643900554 0.034991024312560126 -0.2723166107503043 -0.08030711365259585 0.19346090321434534 0.056482187340937365 0.01319256077461104 0.0328179414781468 0.028637482589467616 0.02555482194053021 -0.7353642467690895 0.008832385136632299 -0.016831020502673096 -0.20174616240988313 -0.4319266024602222 0.13172306164292566 -0.4048885026775231 -0.24171316296985718 -1.1880946410466684 0.7920504321897747 0.002340684723706184 -0.09090312170675396 -0.46016658690549445 -0.40138263313784117 -0.3152158211084326 -0.1420506818481356 -0.25536301232442055 -0.07534919434806786 -0.5279335877748689 -0.31576640499903985 0.1559315618655412 0.34304891077768435 0.24518654883506005 -0.41239546173280034 0.03578568792445509 0.5767377013374207 0.3666576011791993 0.0033273279429535873 -0.5701077574503487 -0.41723747925173177 0.0932901950786415 -0.7177827860058759; 1.0150022541422914 0.3645584605349236 -0.40925595119527863 -0.045416120249605986 0.048939082819021124 0.2283416437513552 -1.0050670486598257 0.11019183923331663 0.006683253738048239 -0.013021449668289747 0.25902603118427553 0.5284454848957331 0.20535836572368646 0.26177485822768753 0.20261974905274482 0.13167562776814873 0.06861813981008033 -0.3035358985586244 1.6668827076668724 1.0234981025574803 -0.3161037537323379 0.28655869749206053 -0.18504104703487453 0.02785063861308225 0.23660994612044248 0.19381026137273638 -0.23979822124103553 -0.042906340026900705 -0.057769924351959594 -0.4127495296721001 -0.5502372574599643 -0.02051007718378433 -0.2370096783006762 0.11351845413448705 -1.1190114260473878 0.05037286167283018 0.09873273335694907 -0.1241006222288185 -0.5661979828687442 0.5187347270418923 1.094742476086203 0.5366439486575182 0.194314345362874 -0.4837026044111064 -0.08817721985455625 0.4161230654162747 -0.5715186946815146 1.152697553849637 -0.037101648177279054 -0.30839369815965284 -0.18078385309670483 -0.30971590206815036 0.5257126614194408 0.28233635380248523 0.015476856612483204 0.26705376778554807 0.4876192142347746 0.3786229483132956 -0.3186688561431843 -0.4159299616185889 -0.46706470088679797 0.10803439454407408 0.9917103992849515 0.06564642025141583 -0.2615585361869418 -0.014537512256432909 0.035105184520405175 -0.16188540964125728 0.10819154072646213 1.120248484765936 0.22640573506620748 -0.1475707770490607 -0.49543512573453957 0.05435775428576495 -1.0709763051935832 -0.8732073221807113 -0.24125389888772353 -0.42037178927529306 0.0046928997510365085 0.39912081336503996 -0.07529039102302328 0.6118282701730228 -0.010830425158341837 0.43250166013846125 -0.354335778003308 0.9519696886135276 0.29523882846701 -0.21614054605362878 -0.4942262181554803 -0.7930534328526371 0.006859227949040687 0.6375798602401169 -0.21735738183037057 -0.0030041004776435263 0.4737226308785605 0.04141317890299834 -0.4833974077824995 -0.18129942956796408 0.2651949881877534 -0.12000395017323259 -0.004565746700696399 0.4848607115188902 0.04966016706111311 -0.3918561406646652 0.17785411677635046 -0.11678184496554758 -0.014898323340472095 0.9203807547629116 0.6668615812652201 -0.002738867386651908 -0.0984991554316319 -0.1325602041269759 -0.44495066507631253 -0.022329035832617274 -0.6683700111682244 -0.23245222077562502 0.05445301080655802 0.4540788788253844 0.2634679920458261 -0.454252257035007 0.12398708860667008 0.48700367363769875 0.5113601341565309 -0.06289552540980302 -0.10914047400891579 0.04816724004461566 -0.47115481838943984 -0.09509399981820452; -0.2262935433257198 0.16238835015958344 -0.2012686332423116 0.11228974324685186 -0.07376059929187989 -0.4285075537810167 -0.055860781646838574 -0.00910755234552503 -0.574878231853903 -0.46303279243258316 -0.20870621067479092 -0.10961174474761551 -0.1000577179291199 0.021549635849854264 -1.2128425167618726 -0.8960447085483026 -0.09264958017217238 0.14427700128010848 0.8874543732499384 -0.4175942477813708 -0.08234249817548306 -0.5177710007255487 -0.17890169560068084 -0.8895511517932709 -0.6443718708048846 0.54959327666353 -0.014427595535377005 0.5209874474482213 0.07423654938253528 0.6269198879736902 0.05353010091398348 0.35936517659630995 0.1390446762513058 -0.05162101395535895 -0.1665230267963616 -0.662322971911152 -0.36675706883121206 -0.06062388991922035 -0.9611826227053095 -0.42997016631723267 -0.7431140428152742 -0.12880949554447219 -0.07761994004917934 0.010442703064825023 0.2868832413214083 0.0021746940700911846 0.5339743270121268 -0.0490633090154977 -0.040114683435491204 0.0035956627265250197 -0.3204137555936419 -0.6565610095447768 -0.5665564534386778 0.23378356577739312 0.12480583173100743 -0.22232224621174515 0.22051013813669873 0.004725194191427411 -0.10655362342378823 -1.8954072889573579 -0.4808120281543276 0.034810654164686435 0.13951687961819828 0.29824282094309307 0.48991354546447985 -0.456754264189804 0.2620241901155651 0.2825966951924511 0.440002058906857 -0.4276372929726277 -0.2733616759697891 -0.0661411867471535 0.2760780732649315 0.22055516545598414 0.1832860713609392 0.11633338921858408 -0.017069745330386937 -0.15252964739234912 -0.25279713230910117 0.16858158078076102 -0.11701209653728506 -0.031236261619814243 -0.2035271112326277 0.27405520948065126 -0.34453951350321793 -0.030737449404903826 -0.8692985480387455 -0.3018134975567519 1.194516013166692 -0.050790629572948304 0.5532600741776915 0.00825904103673924 0.9434044686660181 0.8140938449126635 -0.008881043507336015 -0.4205951796831808 -0.5259359530175942 -0.669241089784524 0.10084524023516152 0.07404197333431901 0.25572421352532354 -0.23426879713330867 -0.41210317675022745 1.007243562839675 0.5551206066985009 0.2094796770320333 0.2866823305438572 -0.4400006207100625 -0.1553365363038734 0.004602094193643607 0.032793632913189784 0.26219859800852885 0.000900625384240535 0.6369996097479732 -1.0553943285379876 0.44790517760206794 -0.3830156638148161 0.15846407493768933 0.0027719905095541543 0.9193974814182367 -0.3402615078589903 -0.21003830282867583 -0.7019147997198393 -0.4384357567142694 -0.21340681128888775 -0.1535629633522581 0.25418471939892173 0.3256923461738201; -0.016148221972561324 -0.4802437392648291 0.022934154353261016 -0.23891883404835967 0.4465107542038645 -0.4993844304302486 0.9186198472218884 -0.044947838173959254 -0.6398113481718927 0.3868684391782941 0.07907288628797339 -0.5509184164022456 0.07217637533832576 -0.0542483031933508 0.4883490489923519 -0.40653656863449644 0.010469771889793098 0.3181254531451732 -0.4803378299636686 0.583255337464558 -0.8406714798011033 0.817890084697094 -0.2197776208179264 -0.7509902020861695 -0.06450477296681563 -0.08965463274126947 -0.29951178729061123 -0.07409611647609345 0.7684017133620408 0.6457049580092107 -0.9105969184342511 -0.7134089091374969 -0.8951732730515127 0.07125986190897302 0.08193484712062891 0.0640373510274617 0.36564965511768227 -0.13254633297636556 0.2604529759529483 -0.010178579314820222 0.3589148602398089 0.20546025210340152 -0.07622816640231972 -0.36407924979482165 0.30869073048491374 0.07897730301565374 0.05758487199969773 -0.18626707292254777 0.0006034213926287659 0.0580578320291335 -0.413356266084707 0.011198835232705519 -0.9761585866424975 -0.30698409361507817 -0.48563242261502115 0.21535649311508379 -0.295202193300848 0.42022512914944543 0.4140584510414326 -1.3426911615701467 0.3366235291709454 -0.7929268307707905 -0.5162683753149001 0.52802483294984 0.11981586856496199 0.3548319259055921 -0.13835333864403285 -0.7895454807989458 -0.08000360445162194 -0.5094358555530702 1.0548910580653132 -0.18360143157692005 -0.9553953687676113 -0.2502392722356236 -0.05527165840832205 0.7727645071830197 -0.1338165928920818 -0.26445019594113284 0.3080632979650064 0.6043899340471016 -0.002900865536241302 -0.4349118116730345 0.4861595485620343 -0.7590761353483703 -0.13887126968706107 1.4372965792671508 -0.5772752896619849 -1.3221733143910046 0.2242620216506858 0.19305398307584043 0.0026002350108661034 -0.24467496820680673 0.5555272762759332 -0.26104218289440756 -0.19287853417893872 -0.06578861668825037 0.3137819072644191 -0.2040015918170196 0.20533877192407232 0.06962615131421822 -0.020491272269037453 -0.2615196990902971 0.06524808771054223 0.1545226384939784 -0.039732262144052545 -0.4786121989131118 0.10975500640468808 0.2544024438953536 -0.9816809939723028 -0.4920826393942868 -0.3265108855229925 -0.46132855654752125 0.15392867985399375 0.5554222143714802 0.28323883988670034 0.3695176994828773 -1.1509399143970835 -0.03069218790347754 0.4277321124013489 -0.2615107828670954 0.27231412360606855 0.3113461144910694 0.09927926591704951 0.055666253268436786 -0.5656590678374215 0.20599787488375085 -0.2879466176614444 0.01012139969482821; 0.9833986625684186 0.47222685042434825 -0.447729121324818 -0.05432399943217036 -0.005368583421888501 -0.4420132098305395 1.2251338780618093 -0.2370530508461476 -0.19437130997823995 0.012393892250541244 0.09352489971562114 -0.6824437415806982 0.35590433505506786 -0.242933206125147 -0.33178467177739135 0.5739826945217467 -0.4790884308493571 0.36699169512892493 -0.20603563831887806 -0.2852407012152858 -0.4905888109736396 -0.13814436478958278 0.02132220042580098 -0.27631354320326734 0.14358232272921936 -0.7924496654896421 -0.18416503585740554 -0.3213705328541479 -0.4957416099413994 0.22512137373594443 0.4321940476875616 0.4030803002418045 -1.0650995345503047 -0.7703991197894025 -0.1690803529348293 0.22330771618775616 -0.5421111096684246 0.40187499855303127 -0.13508154243518047 -0.52814168572363 0.49509663084428995 -0.02536378141071054 -0.1540036563785739 -0.5878426109184337 -0.01245455104939712 0.84590276897392 0.012217919462909442 -0.21946900712995526 -0.2711852397292403 0.42563620152884424 -1.0627056077532244 -0.5381060594670313 0.17957816567458004 -0.4583933285731165 0.01147516577557228 -0.6955519199442135 -0.24700301905746447 -0.019873545516707274 1.3345468316367088 -1.050774062680669 0.3257561289186994 -0.34170024951777966 0.6055825668635875 0.04493074453237614 -0.09657630991707619 -0.37920964132021234 -0.3083571136667861 -0.20646291728088564 -0.31379189047668743 0.28263001124463255 -0.5885767662328383 -0.5957505439272992 0.3247640124240346 0.18030196460131892 0.09542745227956702 -0.3123283316483144 0.6478014501280851 -0.03213589919994525 0.7474840505593798 0.7038507147928083 -0.9735776394701033 0.0646579714667721 0.7345600845157898 0.3105045529969728 -0.9206960332364046 -0.4319973015274139 -0.6524735313576823 0.32521939291763374 0.22152928682186093 0.591952113584317 -0.4190094859797986 -0.08493506783080085 -0.3025371452233652 0.2986083332899447 0.0021023424762766536 -0.39349465803842015 -0.3374533151418037 -0.24216938524291298 -0.06767820408426356 0.22386418251340312 0.5671376722148901 0.0057232736682440895 0.46861921773575355 0.23456327657762677 0.9445023371548922 0.09181744982533735 -0.6145299643391624 -0.765834571808269 -0.20308094876851593 0.5019524170935233 0.23057027995750173 -0.019620328632028842 0.6403719440138833 0.09595150268683057 0.15834609127727986 0.7375640218133205 -0.0010491248642274565 -0.10045656542149455 -0.6359209166235283 0.8420951617433369 -0.10179277342161233 -0.00691223286244338 -0.12057452315573051 0.3159274926338681 0.4523525550396953 -0.05305147490928416 0.30343001000167147 0.3571864980740733; 0.1371873125904628 -0.8474997178482937 -0.5624755011407833 -0.5297053828681962 -0.007334473852445457 -0.5514501476087444 -0.40596973653343216 -0.14558586349878375 -0.42494413708478634 -0.2837393021119632 -0.038150787111311674 0.12015407469030998 -0.35237506159239085 -0.14103400159697688 -0.21487460857122961 -0.041833061697162374 -1.7436455514941278 -0.010117661087491066 -0.02205601850017035 -0.08150729297950889 0.07477779361423265 0.22232940639036478 -0.10811404007413479 0.6000198603827642 1.0602952718183662 0.638983936398977 0.6276077399013795 0.18715800308581843 -0.5471302596145416 -0.7132468976624604 0.0502634295379186 -0.375293014715484 0.0422484319707454 0.5082569378798064 -0.2984280068516802 -0.112986599561181 0.09858642909661508 -0.2205467154037025 -0.20050813316311322 -0.09570554819299443 -1.1449912666706197 -0.4782382697186479 0.025310778377808804 0.12320865765899423 0.3804579385734895 -0.024489189724321563 -0.497537480465615 0.812282789577965 0.21067687427824835 0.31281760518915913 0.2582985137153168 0.3053015111778803 -0.035883855620074165 0.3276582842858049 0.29855861896337527 0.05266805737244698 -0.2882567186985296 -0.2789008547717122 -0.06348324405074039 -0.1835523687013667 -0.13520805212361978 -0.0341381909377935 0.6005465363176727 -0.3352250483692318 -0.08786763233297827 0.5185387815045839 0.6929540329093266 -0.8087037706563442 -0.17579424471136393 0.6177254286518066 -0.4995991358319157 0.6986785816192628 0.6134584814519096 -0.004381286761517022 0.006216160627475789 1.4439828280996476 -0.6639490130734634 0.20008938415279326 -0.15048278546395638 -0.41356005091486014 0.4088197811881102 0.3023634474403296 0.5646910813807631 0.584549015703264 -0.18540960023135386 0.4265387194649205 -2.0198291427572106 -0.18468109947595712 0.36330923210178057 -0.13846039949614738 0.0314704622259924 0.10704759852007353 -0.3354916720210489 -0.5141449015341613 0.028722451054313324 -0.5647428561625065 0.16260315948925103 0.41908748313751837 -0.5280419884911207 -0.3125712045204423 -0.02821120975845729 0.07536337734134782 0.5912440462131713 0.0467731788600503 -1.274918184917067 -0.149910509147966 0.12520951336775674 0.00550049343852688 0.03343071855455245 0.013571608045954496 -0.08366242248085151 0.946136787169307 0.02984561757382327 -0.45533748603451774 -0.6658623209537801 -0.07913434237084438 0.236698576812686 -0.5500621980824618 0.06513038155807875 -0.6548910492208594 0.08022788601174417 0.3364134593056324 -0.24322753779581183 -0.245565351502214 0.2770399817247303 0.10143057148915641 0.52534236676145 0.39629585763246983; 0.0030307414242391703 -0.3875162829734167 0.17555882627118383 0.10281732512415476 -0.8234449784334833 0.3933442751311025 0.44506182659634913 0.5039943073149006 -0.0570294459855485 0.47605725159683027 -0.21216855378039548 0.008921673682233691 0.2818734225964821 -0.24218956226062918 -0.6207711324429794 -0.4022522770210596 -0.1761938688749851 -0.8990337644717543 0.8117819384666556 -0.16657454638065583 -0.3023335554779085 0.5299678330287624 -0.464046900047731 -0.400584140679094 0.019414163542403443 0.3201656548260506 -0.25872056076766636 -0.2010085327238729 -0.3399829280442706 0.39565038139682085 -0.1631888467054316 -0.0895095369704479 0.22911023243149767 -0.21717022744756553 0.07648839158329522 -0.03031360426128723 0.407594795626814 -0.5581169319606567 -0.027101037557368545 0.7023084445817113 0.24621778755854473 0.45300614214779217 0.46255360443155774 -0.10365068789892261 0.15378316876319512 -0.34356230333300625 -0.22136310344239438 -0.18428938181509374 0.7527421399179556 0.08425737357461828 0.3960429169742921 0.49510148040258867 -0.7187390884927636 0.193853325934741 0.03730079855195672 0.0289625772327073 0.007711011244770302 -0.7591052558527125 0.23962169802501912 -0.37396915704534184 -0.218351621839664 -0.1477794811396807 0.11875181223350072 -0.7467319871724024 -0.5193891957452289 0.42982836575771743 -0.3515357247228224 0.07059242985339026 0.045432554858508264 -0.06491187121064555 0.45814697001835647 -0.00411903977626505 0.17229273783597002 -0.07119722555744062 0.5480097902717925 0.6473227330180792 -0.020677788868743472 0.014098252216194861 0.25913588620828476 -0.4600704781592535 0.5657681661730523 0.45268069945552747 1.039369901100275 0.3297205222764017 -1.1639930298630876 0.025400303100997876 0.4184085664933853 -0.05248523817174155 0.7955229489064826 0.42603806751964846 0.7647736089254311 1.027682548983055 -0.022464534864656355 0.253585673296615 0.07362748958731079 0.7917553629426077 0.5063607621312165 0.002524693537415895 -0.15525632690010546 -0.44007758327797264 -0.5140209989945733 0.024131104744701173 -1.4633867397614473 -0.9403187666964845 -0.4208582137011249 0.006018941028742887 0.32902307979787326 0.7159287136235235 0.021000680648506617 -0.37183486485553774 1.2070482788156682 -0.13041653694547622 0.8651031349584457 -0.3641635557164081 0.08874408070639025 0.15022597931387735 -0.23675939161451953 0.5900908602764645 0.0006167888890819173 0.0012606699102228518 0.03491061675210418 0.24716520800355946 -0.002804202123704442 -0.5586103702331947 -1.0248349122792992 -0.25004088416008124 0.0006327636465443421 1.388490580313176; 0.059755938924418994 0.27502125831499274 0.46267887294400484 -0.4259940697926339 -0.2723655903328665 -0.12006304219531805 0.42525146771654276 -0.1339566679438841 1.0527753624976477 -0.3504632021128497 -0.5146023151106744 -0.1976252257259238 0.09365644188049393 -0.050948668002651146 0.3840361492131932 0.6248283178708295 0.27279334042568554 0.43297773475882273 0.2546598812788527 -0.08274667471185783 0.3727462232130535 -0.14818804348901346 0.04191349251335715 0.1656026048538747 -0.09874297674023508 -0.15262755465500685 0.3289813113008524 0.6925493525252656 0.4996042381428376 0.5571386574715792 0.661370043183037 -0.27906708256123375 -0.9296456394917824 0.013716598246482177 -0.23975148548367428 -0.07267830849214844 -0.029034390150508706 0.03231010596647087 0.006560168909341978 -0.047023996039124195 0.22736015184964875 0.11350325186149161 -0.2623784762944487 0.15265720530791188 1.5196152821733597 -0.6610778566094115 -0.7255265027394296 -0.491777102318256 -0.1825658202694021 0.64021864596378 0.2914362424392708 0.1325994146905435 0.5587121531663396 -0.42743974444847577 -0.0576402717724878 -0.013091340620697767 -0.39308810543512596 0.13621380376049358 -0.7685045403084889 -0.9681861902520084 0.299484087770256 0.24346837016341297 -0.4362441152594739 -0.38122321645480073 -0.29459257562648955 0.7720144844052944 -0.09177718983440486 -0.8091231033270246 -0.39332960384236715 0.4995900906948601 -0.1717928724122144 -0.13489449204464019 0.8981023138795153 -0.16508031074856336 0.6685906986237387 0.8601404844669827 -0.13792450959052321 0.013142869552345142 0.2708919465148481 0.007041101207056887 0.18519660782994107 0.6035806058621542 -0.5762134172241956 0.10001200717685566 -0.7966252472469091 0.579912620472513 -0.3130633426769238 -0.3248340089511179 0.18174411346118488 0.07170434638899194 0.2814642381968085 0.09752224061009968 -1.2558322690443111 0.08745791062517182 -0.7130181390111285 -0.0007932969361732224 0.14942613853710673 -0.62344441798478 0.7817107128667198 0.9880924581105989 0.33156420243559265 -0.009039495708147983 0.15781435422173082 -0.16308435442263108 -0.22303398222242896 -0.6812289111840135 0.09679463762542799 0.08506056533939177 0.28038551660617705 -0.07788836804627372 -0.8802036542236931 1.0820754569233957 -0.7398748319157169 -1.341835030056822 0.2997355306517063 0.04960894656894861 -0.07928097209274705 0.0013900056305946862 0.6948667022642122 0.11208897935866412 0.16912531437878303 0.08444343360632156 0.26728467969061076 -0.6515356383509594 0.5600876447044804 -0.20286059160646594 -0.005475848662576908 0.23133804017081483; -0.4089625328575263 -0.24723381323371876 -0.07582665058598052 -0.9533794714597186 0.27815796691494726 -0.7851804288177393 0.3187296300193447 0.26364101644461063 0.1400289429087479 -0.2286959732153048 0.6478937456735477 -0.37464238796831506 0.015120225860156496 0.13198408696199795 0.16287596841138394 0.46821011228596043 -0.027473858630972018 -0.8053231430300796 -0.4268029553030253 -0.001617603981087885 0.12660702646884395 -0.3634770487244165 -0.020388321241288816 -0.40605836609175583 -0.47656583793918106 0.8017531013970568 0.18114178488789354 -0.5370310694819859 0.32720474827917606 -1.0340878178495672 -0.40546372099204675 -0.5872788316394871 -0.1451535157666948 -0.991628588557152 -0.35527101391735094 -0.9244219961987794 1.4391541556178769 -0.10580131095409483 -0.01256182879709262 -0.20678989529684477 -0.1235920267828006 0.10356784579459677 -0.1255223194976991 0.005370931170993339 -0.10182793396913621 0.5723990856914012 -0.030385367659630562 -0.027180145874247056 0.826947125556853 -0.13295833985957034 -0.00993782213988118 0.06398428015904259 -0.6731133301613232 0.08089657708329955 -0.04335002869992844 -0.1307144635404389 -0.0008654605081831242 -0.3345451967502649 -0.33354528031857866 0.01188050737465941 0.1091624775482906 -0.010052599352846907 -0.4087255779260757 -0.0795911407122656 0.01154437056846878 -0.14596400711143837 0.1770173273499154 -0.21797601955903664 0.10859497124375006 0.0653976618325874 0.30176538050466 -0.2539210804463769 0.4463480297844388 -0.11869971316256678 -0.8868895997977512 -0.2655774916074136 -0.12765271502760853 0.4011782257370648 0.9388237847329972 -0.011113431336743964 -0.6192630725286413 0.06137938593889035 0.4539339761414351 0.5906855439393386 0.010509565886147059 -0.19737407253516429 -1.078866373127147 0.4695452774231163 -0.08119383238771771 -0.8671184644000405 0.4697127018247802 -0.005145422210562316 -0.23224862856496348 0.5379652821601639 0.3359701592653168 -0.21156145747574528 -0.3247241448203634 0.34543434750548785 0.4054286797144808 -0.01818999775159905 -0.5426052794913103 -0.7797263491589655 -0.3145985118182201 0.012204402156606765 0.019114980245733444 0.1685864096685866 0.008617253944263228 0.1533385617963977 0.40966777948268857 0.009139318108757316 0.3983974228647801 0.43878243730939986 -0.601377661892476 0.22841448678519743 -1.3118179683694595 0.8275994931269277 -0.004043384363550576 0.19311284878408286 0.37945988490295185 0.7560683152850179 -0.1829084209924628 0.4461472837493893 0.7888426008797627 -0.22088076698047918 -0.0011405913119716385 -0.4933299621894484 -0.20832422092375538 0.7321710468713457; -0.32197629848068665 0.11410544248553267 -0.5725944316048855 -0.3180616113455218 -0.03289024886246366 0.008471788225836125 0.5522856419883666 -0.2401563634386914 0.4709342102383018 0.32852617356520897 -0.5203761689335673 0.09502054630807436 -0.27566514329153063 -0.14759149478631114 0.023656319858341338 -0.06916566371869576 -0.23754936294993914 -0.49480230667612607 -0.18010486669895792 0.3454563883989131 -0.32148781436732177 -0.39124959697667544 -0.14362695973691317 0.8135270543705279 -0.644461175052891 -0.3323897450056169 0.5188701724651867 -0.28575675836668174 -0.36034622721623333 -0.30314153536840954 0.36570289242950327 -0.04942610033752337 -0.1081408404298763 0.16235765635939534 0.031281877378890405 -0.48060014101213006 -0.42777882715449167 -0.2999781223440504 0.11466212769123743 -0.004149335118818995 -0.523430451219187 0.5151260645668628 0.8094383768918292 -0.03910706168833995 0.6397020005949264 0.11214807539067576 -0.18586501233256764 -0.08458789879642202 -0.2964468363874864 -0.07942307380442036 0.3048969595675734 -0.12009841128160276 -0.07466980588084852 -0.2016335786328892 -0.002336283731101946 -0.5106253405247242 -0.003239353809327344 0.002518363847814802 -0.017292565816590208 0.4329340846269075 -0.24665739329183278 -0.5119196244849579 0.2264318492113088 -0.7110992953815158 -0.5024044094035668 -0.4547837032151661 -0.22795012397398554 -0.006375841721702175 -0.5363010022168971 -0.2335042202296897 0.5190937461515253 -0.300845310878185 0.0005455695937547667 -0.18148048466290342 -0.22490052701007576 -0.45989349817181496 0.2868969247990227 -0.37445232949814683 0.005647108427989226 -0.24546819481588433 -0.38623047990802534 -0.7609432006569012 0.5882804225337211 0.3355533658189888 -0.06868223115429435 0.2370168084643419 -1.1004821171610046 -0.17792535654620972 0.0015353807524336298 0.36640445836533675 -0.35726957956317373 -0.21499365896152883 0.21112539288178225 0.3492099718846485 -1.514639162631961 -0.016354762619489142 -0.5115310983469977 0.309266228283658 -0.48435948638155174 0.2862182858497998 -0.0319639889164592 -0.14763418756567748 -0.05001104660069241 -0.44982270002330993 0.2789323108364574 0.5350540159797963 -0.499129434600441 -0.13578461023738495 -0.28146308918417523 0.3085548699791003 0.47333809614973466 -0.6798343856555408 0.16986996918338806 0.4415953840358033 -0.5285381711874204 -0.005753529311950968 -0.10497527625148252 0.21403385021066534 -0.00907211938550085 0.2622508612030209 0.1726447677674109 -0.21261603449109917 -0.24375751353783345 -0.44441227199146005 -0.613741101059998 -0.9114133535426461 -0.018361622187115657 0.33042502537985724; 0.009146046126178019 0.041766498239430835 0.28078457225288245 0.7234791689401313 0.35677983629962406 0.10606121900113603 -0.9465876395717786 0.308971918393506 -0.42256166647744514 0.14725133573853172 0.03927930963397454 0.15137861439289274 0.27983224665511813 -0.42523157225096647 -0.4001238898514959 0.6962664080662228 0.6017938850744905 0.2656817250257527 -0.5321934473941562 0.02464104441203876 0.7088904215079473 -0.11465154066502287 0.7975576285029539 -0.005152774563706448 -0.9115843048449529 0.2092393399535738 -0.36083651154453156 -0.24787484589083345 -0.7128482977374222 -0.28911544220717367 0.12667952578998254 0.013567222718462339 -0.498268431078417 -0.12013799801628179 -0.003177404271936266 0.28445857564191573 -0.3393172999998839 0.19619600408550375 0.01398174427807586 0.2646131080570982 0.11906522052254326 0.44723332759362205 -0.005556794557027737 -0.010244792004215207 -0.3461865957208684 0.28089280410408424 -0.32235630056937303 -0.19662235783055496 -0.2606285307402728 -0.13394316974857345 0.35256729483296406 0.16979274565657657 -0.2608606514685418 -0.13670196806296797 -0.2992613601231133 -0.06006705727209548 -0.7509732455891717 0.560992507491901 0.07227341816658477 0.004315473831045625 -0.09443483233818249 0.11570880165430183 -0.04145919629629194 0.2697749972211167 0.14739657514015572 -0.03658523871837459 -0.30225682288969946 0.4681617527605451 -0.06968505842766826 0.39432271651528894 0.2467970398409102 0.00436073676557782 0.9446727325597607 -0.29135637391785646 -0.0017565751912540055 0.3419794562101832 0.07473686668198694 0.14210207669043193 0.2395667301886336 -0.26779083121936637 0.17476489359262246 -0.012200191553968207 0.06712145164546854 -0.025854455152059773 0.5439559495167351 0.005382355856355806 0.22522573265001922 -0.25384777258495994 0.19447430175145694 -0.10885508066027809 -0.320585976623024 0.5423953804660913 0.3485717588358642 0.15487044914293238 0.11938072571512043 0.9262595825012528 0.6079706600748948 0.35172124765769963 0.14758461596056544 -0.09443530222780855 0.15638988168956192 -0.1441639030216408 0.2624629831481126 0.37154304773886393 0.11612028074866494 -0.3734364370898774 0.20120758328761879 -0.181779774989403 -0.783550922721984 -0.014502877592666543 -0.0014528903495180745 0.6052648704986779 -0.4159013359049172 0.4718056532604633 0.0015155205154199043 -0.18229568776180385 0.002311482141215576 -0.19485536895304043 0.34611235616125186 -0.3541747670405379 0.35900171801783676 0.002725911375111307 -0.30154085156847144 0.6192729512633923 0.0735082159695096 -0.1440462953891881 -0.014268528440419431 -0.39809317948675144; 0.23897316827177806 0.43096902136247384 0.3086230697639859 -0.11956162165764388 -0.11328711957710708 -0.03800211534534984 -0.4407254473946982 0.1043254650184953 -0.5571923815993065 -1.0254396517579523 -0.7463465661568031 -0.44247590773814044 0.004203342751921596 0.09594793668372627 -0.3017739572600806 -0.20120986939674737 0.2871100583194672 0.22279681800868514 0.1307917978077636 -0.8093758979056492 0.7212756206589749 -0.0060549158953064714 0.13178928057060307 0.8934821704934861 0.4991966127321375 -0.7834340818087575 0.49773239445779976 -1.0610231922513005 0.04661864326811941 -0.3419413513737258 0.4687814189940994 0.4571996043280384 0.6522751870326515 0.14705957643367368 1.2294437154121047 0.038550725918975653 0.5888624189694824 -0.6853707511641699 -0.4448279422674455 0.1975623393795913 -0.50278978577096 0.11008629810097713 0.0776913142002984 -0.4686255917852007 -0.5175723976878001 0.33942609570756604 -0.15476565972138903 0.18189637570329562 0.21148622101563347 -0.009299792248585697 0.07548940353390256 0.6232635435530292 0.20029276281230662 -0.011521870118009533 0.6864847902777198 -0.6144716992490595 0.001266784677979497 0.34480374317459656 -0.29067095042769436 0.26858575476348995 0.11130635010017488 0.27571189503699833 -0.2418503624434081 -0.3974793224785125 -0.5545407015046635 -0.0064194419185135175 0.3436218426467386 0.43426603486152454 0.5431339253924031 0.008197081497801541 0.12100154243656314 0.5857334321770552 0.12654802958825168 0.5210178524882993 0.26763141907981247 0.1544167404639664 -0.7530928214641625 0.10482853164810169 0.5267674202802176 0.4071309053254618 0.19410226670790812 -0.14871290018167016 -0.05119342051027373 0.5055827605524276 -0.2824727546799057 0.010902741176418792 0.16875071008884618 -0.9905276942610135 -0.20985810635484903 0.007438829268212928 0.00023372252186867 -0.8424574613075034 -0.26102042160053873 -0.08044940968668025 -0.09764698227443959 0.21309756835867005 0.6904295138718292 -0.4553924391426647 0.15388259168074397 -0.3378629064927853 0.002567628945494265 0.1533097324907253 -0.9742519893230903 -0.10322269737033006 -0.09524175735104339 0.5685437001379845 -0.04949594823504895 -0.7816331578169058 0.33646850033776 0.5712109459649548 -0.20424323109943096 -0.06576800694445664 -0.2683547689894059 1.5970131708565403 0.1441462274332797 -0.21710997753280697 0.2488675874383688 -0.9095491814408657 -0.5691377228906553 0.11468114696002595 -0.7337959224578394 0.9875293745643428 -0.2703852613964516 0.20885853775673016 0.0633340490251831 0.09236348387199626 0.19626731565129876 0.06966048196046905; -1.093256069105876 -0.6225468726826557 0.15930651608042912 -0.15624151547448306 0.4207496934026952 -0.20888573963696824 0.43069545320511154 0.024239190136562356 -0.4542718018630508 0.04051474446374846 -0.3539540457387028 0.02856382643711281 0.38225936889340023 -0.07646300825068728 -0.3147055457773865 0.1692866861987158 1.1208337864465898 -0.018263792032575967 0.34753130774523533 -0.26489476557469993 -0.0031625236970487425 -0.07871245604358475 -0.33801570627732896 -0.7339767820744894 -0.18034628709952322 -0.055049431475793525 -0.04959861775408171 0.0087959637449074 0.0029134661577609896 -1.6513256120869317 -0.2963743819042143 0.12157677778346578 -0.4766793777431545 0.48388528000867786 0.762415902213219 0.5817310298192248 -0.43877528858600673 0.04670605269030801 0.9773450703777884 0.32386731071740565 0.028675869748208682 0.3272350544266004 -1.0502324819111384 0.1376263467271289 -0.6302941765002521 0.36641870133467713 1.1961568847958226 0.6209681927285555 -1.0035918804158692 -0.5935349565299012 1.1373632422852307 -0.13141347375589296 0.07196492577536476 0.31662320137576994 0.15104859539880933 0.25030960721480283 -0.006389129996730214 -0.848240184934048 0.04415747314428115 0.8833678753426873 0.02236605782116841 -1.3172992781408461 0.012047959300083197 0.24193859414951152 -0.3008511018943625 -0.22147252474657175 0.06993535607467787 0.012314757193178382 -0.7464186303601235 1.2107212638516345 -0.6935855996093784 0.1783547458713902 -0.511530162358677 -0.050437531941631294 0.14898532222029576 -0.35603263258993184 0.6216374759401875 0.26640445096815446 -0.575293126106504 0.0004995575077549898 0.6332050309456821 -0.9178949522723877 0.16189006977137285 0.007940558642247075 -0.5067643580291082 0.5262317513597927 0.6765059590181901 -0.39638049610122844 0.38002264416256565 0.0013924232162169728 -0.3381777273460896 -0.3982132684090182 -0.011504999499616909 -0.4723400648296229 -0.5251888154763495 0.3338522678128309 -0.632902982605005 0.044566503330589154 -0.15913038752293376 -0.6793599284824322 -0.5937928191375405 -0.31558519705263816 0.00013308318074678412 -0.5176626952126044 -0.5702599710071048 0.5484276194515412 -0.01367041265784022 0.24272124448208457 -0.41461922177883404 -0.6563335774268735 -0.6278628534103913 0.2020440918349617 -0.5555645839614144 0.7867926415653586 -0.05546084833577039 -0.9422623016612622 0.14541790327698859 -0.14748056243142801 -0.01699460858017316 0.5720263445665836 -0.19581210441364258 -0.3209612637694149 0.9287730916901731 -0.18830858847837567 -0.16320155945008946 0.37957432075302494 0.003899526965224914 -0.506983525131691; 0.5335069297813547 -0.17525452671305142 0.514037487798569 -0.2632902655270813 0.6870303995341664 -0.7639141380240009 0.5404770103345962 -0.13835505776846643 0.19633227318395707 0.24309598128333842 0.1282544125089911 -0.17207242419471674 -1.1245877983664798 0.16163988429555168 0.4988866184184066 0.08165211303572038 -0.17998705700465056 -0.20594082956548806 -0.2799172495320075 -0.4496127538347035 0.4174286375438546 -0.15970141354044537 -0.2494635997161155 0.5082703241349039 -0.008449778663675168 0.1417015125022051 0.456255375920367 -0.05854428391732 0.08803153705177234 -0.523051188442958 0.5094909314019151 -0.2526332791515221 0.49861138563059915 0.5307132211878727 -0.511602917250503 -0.3720442752041269 -0.062157903049392504 -0.39909908255349186 -0.10533532013025661 0.7861469989781984 0.02102228234334839 -0.14121650425662394 -0.9779934558388044 -0.40473631864746545 -0.11402745076146645 -0.006037815517549687 -0.0653013477749368 0.6062203085016581 0.1952009100731513 0.717294885530162 -0.44333817415565036 -0.037041166887572044 -0.6321881118877459 -0.0021697073409524094 -0.6050000055888823 0.0018585551448099865 0.2113057310534045 -0.002290162827699913 -0.12217120114555523 -1.4722210338397723 -0.021743657958783507 -0.12057269418761683 -0.3772523125928699 -0.1554046330903498 0.8035577822341394 -0.1704056835641711 -0.03218050731928512 -0.34633358282608434 0.0765895890832773 0.6243326074595148 0.42915733151878094 0.21686506465224212 0.2186906417764655 -0.6488520205306455 0.24104518961811786 -0.026632176510705492 0.26294813191138927 0.3595071322748141 0.5506466354944133 -0.08651098602179148 0.24460335388885482 -0.08475836465263664 -0.10783389465218551 0.3385655862691865 0.4663303934230092 0.8491034741249163 -0.08783931484236779 -0.3210306762476856 -0.6341923393236626 0.12514235576773947 -0.00046144635598220054 0.5020755976065823 -0.18895394216070158 0.042602552161961384 0.004266470551633012 -0.5299038803288286 -0.14893746945220188 -0.5091104635922139 0.16609879838422892 -0.5958830388294762 0.46977807835359053 -0.14339446221854088 -0.0545535338283488 0.05676658747048704 1.4400400941463676 0.21271566600131278 0.366817957524928 -0.09985040672378866 0.5196881990439808 0.30614916482496934 0.21214571342950742 -0.12079519706037377 -1.2955894966202672 0.012132535394384318 0.009411654076969356 -0.11649592083685938 -0.2935468335570012 0.15104637266046253 0.3644313935478795 0.3703587398315035 0.005722524929065484 -1.0864841480618403 0.26143418121441564 0.006357069910583706 -0.20611562443493103 -0.8465628501029243 -0.25605776531867724 -0.13597656801563368; 0.3069872728257884 0.31415670752057095 0.30420490502323927 -0.06141730563683337 0.0410623193524254 0.16545687540630966 0.21202961897238684 0.038453610400653086 -0.13971103988722192 0.29119928482658297 0.6307365492333445 0.08113070297180948 -0.24315304439043553 -0.29875541195191185 -0.0026406432608025105 -1.2128526558382118 -0.20162335068428044 0.36314684624965976 -0.08873727679671815 0.06201303195281644 0.6799062266007383 -0.7419478222620715 -0.12377168004278732 -0.020560628583847468 -0.9450842651914074 -0.07950079475437576 -0.037628314853989896 -0.008492537974305976 -1.3230239580511804 -0.4046329830201462 -0.27005415661160076 -0.05703208292400414 -0.1416740395412981 -0.021192543564447622 0.21912500062762497 0.44657784274484347 0.34302392796256215 -0.5372618643328404 0.6696281288649631 0.8579418379799556 -0.21858750877893657 0.33417176293085676 -0.17948170701334998 0.6787952517323576 -0.48888180946510074 0.38854613135090593 -0.2044350867056398 -0.18821428450597671 -0.6323872023989343 0.04517777837943014 0.717921992209693 0.5339410638324205 -0.5465417928505919 0.6955871880763483 0.3023963102177408 0.10074262471448034 0.42793314139941885 0.002816411712926499 0.3199168431132249 0.45199307611112266 0.43949018684988717 -0.061254876529992675 0.34926948000543634 -0.0006820237718634043 -0.08460405363866123 -0.14301314622115552 -0.05828408352941385 -0.2997321808689507 -0.34051830550624157 -0.8826224329946496 -0.28942991097838683 0.25977057257713754 -0.1407537369647832 -0.057471253517478074 0.3131977576499632 0.20465331848400414 0.3158747205517377 -0.08753255787982449 -0.10755729670559733 0.08053990891476956 -0.08445523983115137 0.08777509175035549 -0.11649107553902774 0.7675468084598931 -0.5100364052265508 0.0019975735493642983 0.13753341035010289 -0.4670271420489041 0.5524797070856897 0.003556541406598411 -0.007307301203317123 -0.01817100525934715 0.9639754629500087 0.1015770617469 -0.004220160963071414 -0.33218468665947254 -0.2532091310552786 0.24578541957353733 -0.09723033054433781 0.10378840675922331 -0.005622289795398185 0.4552736238259007 -0.23968333386670015 -0.6411265568332316 -0.21579266643493736 0.3162307014940616 -1.253238998637727 -0.1600373974979173 0.014160967875398556 -0.22028842096089413 0.4006267033288199 -0.12806474147032 -0.553148779604598 -0.6511534794189756 0.6158561407170093 -0.484841303460846 -0.4536162201057276 -0.2995014298554759 -0.21262608250415851 -0.27994674516997914 0.8780328622969942 -0.32732375162932636 0.4756714312718316 -0.474784432963161 -0.35048232525523115 -0.28784762104283756 -0.14257147236015152 0.15505168377354112; 0.5127940463733924 0.0821743211633841 -0.5048736940021881 0.8370994489088213 -0.3389873771421092 -0.00732639215126288 -0.2905538817408775 -0.13577101172317702 -0.5906844821049686 0.007895483884296449 -0.6345008652108864 -0.3805493013283884 -0.3069607545101504 0.2757894270484771 -0.30759378168446966 -0.35592860154916917 -0.005810734405357632 -0.6713630584511483 0.08818294036861095 -0.22953887959486627 -0.31503337388912256 0.002452977253598216 1.1349177843519351 -0.07134096072561971 -0.49091262315513456 -0.44139375951353016 0.2847374794770664 -0.1601643474119528 0.3918520289756347 -0.6210694971574109 0.506023745579274 -0.36185127526214905 0.5931986059834464 -0.8247721851858969 -0.6806141683134768 -0.4034570085110249 -0.1914982970601977 0.43324537312858125 -0.011987147746267739 -0.3294817048801738 -0.6292127181526146 -0.13506211935088036 -0.39332500752507205 -0.07059519465100568 0.4281595052753286 0.9085997093038205 -0.25252910541473106 -0.009125875287040152 0.6798468490929146 0.5103596181606544 -0.09113787404960032 -0.42147364743136223 -0.030274211155979378 -0.32801367838007406 0.12017438989532457 0.487706676237209 -0.1866262308886139 -0.4645031994133526 0.39379356749491456 -0.06632762966371016 0.8407529579496015 -0.3132183226946576 -0.45117360397347067 1.0502924185399343 0.6769622742991017 0.06202474920090801 -0.6852849561596958 -0.12764492303902025 0.837444909091848 -0.13504163016619888 -1.5386961389411886 -0.6603335948556595 0.272769319876659 -0.5633802837537377 -0.38027444491533 0.6127457921716034 0.146337209414383 -0.45113587379123654 0.17033496087072056 -0.6652902261637701 -0.3657864974718305 0.03876216123911259 -0.2150865631277243 0.7752480708334907 0.3388568965700442 0.28511938464047976 0.482117265660282 -0.6935228299869369 1.0456040641516307 -0.04562194884257432 0.0863263484838586 -0.5277874749103036 -0.3245753768646731 -0.2193432647231455 0.031061088598227853 -0.8525942044221408 -0.12723794703652508 0.7443277949839723 0.6001453124869884 -0.36472766150332103 -0.9672501431397672 -0.5928921231699837 0.16433944008709958 0.14101056975797666 -0.5991203423383844 -0.1273475472499407 -1.1874021138946598 -0.6520473748376286 0.5499336783325381 -0.9607484450676463 -0.18051070264616956 -0.5159267879203049 0.3956935129485554 0.14130102144554668 0.2725278627864541 0.10151819529136907 0.9639496746295593 -0.008767484524086022 0.32156081236916956 0.6173159778517022 0.7920041059610086 -0.4097966275154382 0.5215775173433772 -0.2958823176791352 0.3708580791186301 -0.13756156351845816 -0.37534436587957726 -0.27459435218155553; -0.3820294379409187 -0.03961792667084733 0.5452378029454129 -0.10149574229768406 0.2549281222082547 -0.7634294689324581 -0.017893786124441882 0.26939156353462834 0.09009400414940782 -0.36534774203236275 0.5113811018020098 0.4037248179655148 -0.5095650069068696 -0.25057201213431923 0.3205243378908524 1.0379575834825767 -0.009257233138959042 -0.004783264847248999 0.6063527678833606 0.1151317355867809 -0.14637273772746115 0.1382376875303906 -0.21139392899045065 -0.012463926648933423 0.4854258278988709 -0.9168684150183096 1.060850444240949 -0.1558257684985315 0.19450359121997268 -0.16626197930309602 -0.37498561495653476 -0.35449362230990034 -0.9868854338895288 0.08018507123362568 0.21825118754303763 0.2702614687739505 0.8932836797948216 0.6058393693448618 -0.6381232185047571 0.13307630307100998 0.800639254679306 0.7142866699874604 1.1129712122397075 0.0601936032794148 -0.0702466189332164 0.3081936990268701 0.13785392646047007 0.3476699161431622 0.02373701859880834 -0.2487226854830839 1.077549307473619 -0.24849855658065698 0.18532086112479954 0.8999624201313111 -0.7001562253403303 -0.03468195412579115 0.23061546743425074 0.2860596958138974 -0.09791999813855055 0.6160746124589104 0.733148267749942 0.23276364032299027 0.06214584843206335 -0.11360832422300766 0.3632728688746936 -0.16605176000558758 -0.1002988065446222 0.5471643529708382 -0.13980102550270165 0.2573756711396574 -0.19134011051313599 0.39619369795186166 0.06904598777419363 -0.007435639080744213 -0.9434102087535641 -0.5937068493180363 0.2919916166701943 0.4315654172426806 0.4405284298991593 0.020350314983865216 0.007056369710580577 -0.13659232798937695 -0.11162284256751406 -0.14736975798409097 0.123542947964845 -0.15984708771242387 -0.19384416665081755 -0.218303342579289 -0.3110556231324986 0.013084786111275311 -0.3097430705952757 0.240738740457897 -0.030550447718309483 0.4606871545816228 -0.8161221585932307 -0.30410841041270226 -0.007987884361060033 0.3363268690133939 0.3596424981638592 0.13202890418070007 0.059150029914970904 -0.1378787049504921 -0.19626253205476543 -0.18691703873243093 -0.527298211987946 0.16581843561218854 0.241439422057788 -0.05939340717884445 -0.5430981369129819 0.6792633945750228 -0.5246245312798645 