CenteredRBM{Binary{1, Matrix{Float64}}, Binary{1, Matrix{Float64}}, Matrix{Float64}, Vector{Float64}, Vector{Float64}}(Binary{1, Matrix{Float64}}([0.49548256508803284 -1.7802451456762534 -0.010132432543057485 -0.33453385566420446 0.13085157367627162 -0.2697908031269765 -1.3273659104090707 1.9136649818581895 1.3433647300111053 -2.120443726919283 -2.421671916371823 1.8803537575959943 -1.0695464414687956 1.2662713907959522 0.07932472393925694 2.2220593518783893 1.8994736845342521 -1.014035686742578 -0.05893688227483758 0.5215852779083014 -0.3335919319347161 0.6600869762983425 -1.1202760309381865 0.23871672871317082 0.9386512048457492 -0.0826495273147171 -0.7242299733811267 0.7509809092461694 1.2076526898214062 0.8394407822275812 -0.4860426723759763 -1.403412490124267 1.078720258222776 0.8038833622430558 -1.0829093232093872 0.9030027220146599 0.1684751884437364 -0.35113672872528967 0.25263642263054276 -0.09903445404553518 -0.5423544557706129 0.2536344290265395 -1.678170252007746 -0.9281650447603547 2.3235167895583784 -2.1202115104036334 1.459558927348732 -4.769318504634446 -0.514435127979038 -0.3861332361473187 3.3110301143099834 -2.856605158264771 0.6605226074637047 -0.42523203864705555 0.3057173526867253 -0.915785886014519 0.18614341383036687 -1.482554804885449 -0.683669647700442 0.2893340378974506 -0.6941979811700661 0.6241394600667278 3.1671634437004337 -0.05438664614026891 0.08424318710707022 0.08429808724238805 1.280605128707415 -0.07377891151809952 1.9669933945450728 0.39262218575949814 0.31085719909467374 -0.4960193482749256 -1.591316522503629 -0.7172469155421891 -0.049771249388450955 -0.8705989016982073 -0.5767234475773281 1.2188822181698946 1.5313673313348828 0.8716019513300509 0.6608653585492005 -1.0249482707273934 -0.6799828322915682 2.3297980809064667 -1.2847823620003027 0.5717601043437114 2.62073083934948 1.0558088315194722 0.8242968702444372 -0.5648936215728717 -1.9679359178945606 0.19788735883850336 0.6730699361765101 0.5843385103923237 0.9042098985678848 0.2468396471562652 0.6475163621156862 -3.3071218462487493 0.7348278892656375 0.4305746552985222 -0.056472600155565836 0.1789320786821818 -0.35206329949882603 1.0762716794254283 -1.630331311310264 -1.734691025965722 -0.5637145234166804 0.963871460501581 0.6560528911067289 -0.9502574054169689 0.6266818536034844 -0.7901306185153153 1.1221199459530646 0.5057271057078654 -0.717528790501612 0.6655191489893244 2.6686408885293926 0.7521878636284458 -1.0105394924305031 0.19626669316587977 3.11811344522734 1.096613645262397 -0.764592370316081 0.061964416002076486 -0.9539310222772475 -1.4209619817462245 -0.6413991836032424 -0.302790109835618 -0.5627947940683842 -0.6218262429380603 -0.6526680722077228 1.8392438428063747 0.33098929415347805 0.6726598133927925 -0.5028787234522387 -0.22848743602990818 0.8552929433297575 0.1485666357065167 -0.41175225040815977 2.056852603548543 0.42602713970334033 0.3087481441020035 0.7385242606834513 1.6195970432915725 -0.5399064001963964 -1.4926199748759243 2.2659943226479276 -0.15726555573632456 0.16380835343973926 1.0912422747033634 -0.7787501582761321 0.2970485911738737 -0.2261240093996292 -2.0421444160910056 1.195537982741145 0.7152504562421456 0.24188946313932377 -0.8910844087786564 0.5325743040178372 0.6136046229941032 1.0364410052732866 -0.021268022136633685 -0.1701103947506158 1.5832606075371922 -0.0018291231503362888 -2.4596010315140275 -0.893947597550498 -0.6572385333624057 -0.7205470569149245 0.06430113438048182 0.25699737475321527 0.800399428986917 0.032313201034974065 0.347288230921254 0.07590417963907602 0.1476540391814969 2.0171104575073566 0.0859621653015552 0.8051798550021648 -1.9346121467363655 1.8307289832996758 0.7658277284879983 -0.17759473560975755 -0.8958802787826688 0.41129072663107874 -0.5666684540965142 0.5344329942223138 0.27214454828465495 4.096871868298771 0.678108549090792 0.19961691562358613 0.33901442037110696 -1.1202755510382876 1.020462842250968 0.31097501807997413 1.1673050557095044 0.4534088782550307 0.7203063037419885 0.852249650225971 -0.8267870319917954 -1.0313833989424712 1.9583928018793748 -0.16226536732969318 -0.02321578764679553 -0.9300057063823051 -0.9072719768253394 0.8311673445311301 -0.5063188333345987 0.3088256254612526 0.28627679426625713 -0.28931542224399087 -0.5312588922399603 -2.7500353440390763 0.8183578249147948 0.9852692679448622 0.5948965590809139 1.7379680053132929 -0.5812368725969345 0.09933859466094284 0.4636199404869241 -0.3809451824151822 -1.167410888716652 -0.7043354414470463 -0.9741882792899885 -0.9578091782283776 -1.3436918458213372 -1.7363432029238461 -0.18512620948381409 -1.3891927941764544 0.6241043817416762 -0.49745120838592427 -2.935180406349989 -0.5098224327807491 1.8465046243899854 0.1865247951121829 -0.6724711304108296 -1.2525236643636994 -0.6999214922283626 0.26727895945410196 -1.1616438134404834 -0.4401536419408194 -0.8035063013499282 2.6720892060140016 -0.674179408128788 -0.13220281612023727 0.0028645859447545795 0.35604035306752324 0.8607576635825412 0.5637155428998732 -0.46540107403369885 1.2741466214003514 0.4955839815607276 0.04594893293589802 1.0916733566278365 1.1052721711379916 2.0416644730306897]), Binary{1, Matrix{Float64}}([0.04721995791075029 -0.14989621554566426 0.3890313814170813 -0.8540704857981963 1.8233789294866098 -0.955003026191141 -1.7635375965669948 -1.5790314056060335 -0.28864311140358 0.24155075441544996 0.6624364593463202 1.592529975324042 -0.8519814960697362 1.345800803578645 0.08306063113313843 1.135294234025437 -1.023941106287401 0.9505189620138631 0.09832083235109784 -1.1014423872275856 -0.2928681304541499 0.8053766920807491 4.409153655292255 -0.3702199622873288 1.2251989441394895 1.196613516641121 -0.411979733517731 0.443428633398627 -2.3470339420589794 0.5565113250160757 -0.7653212454953073 4.358748912487948 2.500484493114852 0.8438748177189074 1.4681459149658957 -1.1454669815611345 0.19475385659280312 0.5283946476316004 0.7584369314392861 0.0634551593451226 1.0015492513601179 -2.1019819320378073 0.8039922122816024 -3.667156023041219 0.3603414598548001 -1.243744669823879 -0.3286254215485931 -0.5212377331591522 -0.7091651942820966 0.15664677037839872 -2.6952107270144823 4.109503790328451 0.31193895845362957 -3.3781333253226604 0.06760353880180335 -0.5555478908857615 -1.8538256998083824 0.4413573407127729 -0.49046890805168886 0.5550446232749914 0.6636057391621057 1.1106139309958094 -1.6503516358424768 -0.2549695408683402 -0.5336153007755864 3.2924017759989797 -0.3010470977642009 -0.13215409164339015 -0.3981449181596634 -0.3850885537354423 1.101817489892924 2.0659435927174528 -0.023021969392399484 0.2751823633119085 -0.055030329983403535 -0.13150918158000027 -0.02134507464190763 0.14795180719742668 -2.384790794684502 -0.30448358562697814 0.027501124264123294 -0.1787049999655327 1.4863133851213925 0.2334408785333855 0.7105798594855725 -3.992278816766257 0.7432627119914844 -2.928438777758404 -0.9741502134595975 2.8798534027064235 -0.17508607719964095 -0.5692439283173719 -1.6527586415543427 -3.023972912597459 -0.002321486334967415 -0.891487507800009 0.4951857241777502 0.1789911277279858 0.2562234890468708 -0.12165703202298739 -2.0494739325573215 1.1276911483038983 0.48268389528940403 -1.4769640513104638 0.13593618635824628 0.3262925558773048 3.3501476089413833 -0.051081598941053616 -0.5176746971785132 1.0148851303596595 0.5161914442765113 -0.6148019634128271 -0.5004179894849334 0.6121921957887105 -0.413759842869889 -0.38104301542382657 0.32852828626967673 -0.1472085414557252 -0.6083204530909276 0.5812834003102196 1.2663494133172593 0.8312664786894164 -0.039143902298120585 -0.13818227448730708 0.22783905142681013 1.8292124743480196 -0.007459284441210067 -0.16513615562140557]), [0.39157741288072334 -0.2262812055900827 -0.4042548034211902 -0.20993747999079398 0.3249478458456056 0.06730539568730604 -0.3541727149199411 1.0770446768496265 -0.1393750804864062 -0.0228049414275115 0.6485310296188984 0.1325496957021767 -0.029916907352165168 0.0810295085053764 -0.34719515668826867 -0.00108260124149244 0.07822682790990766 0.27466727489561493 0.263109350130332 -0.3297314003328853 -0.13537808727755812 -0.03411631973868303 0.04955751922468833 -0.005872580418552088 -0.1876319650156563 -0.010988949431467603 -0.2983700404903738 -0.10878829070863828 -0.3728296091588858 -0.10578767860109829 0.28541013872211635 0.6370509174350145 -0.6306495868671053 -0.21065324272035796 0.3783828367101442 -0.08457595478102334 -0.39140237998069916 0.25735448910450986 0.7671205059435622 -0.49491737812189424 -0.3852370488641833 0.16007271097950085 -0.27695279515270066 0.02733431585718509 -0.7585512636923646 0.4182948523389447 0.1127106636802373 1.4460057028851594 -0.18347739726837778 -0.2573255893121039 -0.555997025706122 0.1342075727384071 0.5974463979709351 0.15806565543453696 0.7739362940982033 -0.6117287373867099 0.5817268311879245 0.3457169630549767 -0.04117728891333766 -0.01260144263905321 0.4731316292899125 1.0419306981057748 0.36101416436498407 0.06854374420838712 0.05510958628681107 0.8402386460473025 0.32446109949971824 -0.9580951515041984 -0.13088952160527853 0.5873489199222196 0.3730359606029735 0.003817716813808151 0.27020735395182416 -0.6109187254396825 0.6284333432251503 -0.009176117642929279 -0.8933368475200197 -0.36437299804574874 0.4862210918466483 -0.012707401105406692 0.4404543749456005 -0.6623585023748816 0.19709977226513245 -0.2273372554509268 -0.46560355693160255 -0.026152080193701036 0.8704967448426392 0.35296368756453966 0.09126487385282636 0.6736938843171307 -0.3793214734842662 -0.17675297715722155 -0.31837184659644985 -0.0036311222116422134 0.16264951086829627 0.551755875627055 -0.06354949246023806 0.18704658373627583 -0.21163916333881738 0.41657203221993483 -0.2803124184633341 0.7606211533432573 0.2262075294684256 0.3913011741349065 -0.6979505910658029 0.27015120125039677 0.5516098571267793 0.017614671640490156 -0.5628478585971604 -0.39415812543268136 0.5236244676318422 -0.31505180327501536 0.6700501193429614 -0.3726533622787255 1.0378932038325372 -0.24937006172424603 -0.3219529312545449 -0.009405434989914004 0.10649557638805755 -0.0599843583175033 0.01568262890869111 -0.0014272646703107157 0.419850371655596 -0.09296734622496335 -0.3976599405847276 0.12191024259378493 0.5035087655691555 -0.12797441532525256; 0.0379726441852552 -0.15484039071290642 0.2397169016916043 -0.2849123855700197 0.4002043158759564 0.09099520517272515 0.03397566364113388 0.3379399969607161 -0.29530689037021607 0.4833482876931813 0.03386694497919754 -0.4084427440071857 -0.08934454297605 0.04910148338246229 0.6408320226628726 -0.483562796556613 -0.31691010277804743 0.794819977601826 -0.15044818557147538 0.09062612769700229 -0.60429729396074 -0.5378377914348523 -0.6119369914093296 0.013926956679706037 0.026012807674510217 -0.012790059380526525 1.2240534262988565 0.00968866895052355 0.368629253929294 0.2521440875967282 -0.594371412142401 -0.02097447991370494 -1.3232906598739984 0.07213622296557791 -0.09858895840840662 0.17147821602707125 -0.45005552530209947 1.138432585564922 0.6787235290929192 0.10416966507814222 -0.3516564803037471 0.30192408086936245 -0.14291491341124257 -0.36007692487139137 0.2092619820495565 0.38272390160635195 0.8756982284848214 -0.11864127005164252 0.7096579274433604 -0.2811106757569264 -0.23113706714354532 -0.3841408015374285 -0.5445999482072806 1.236920822765183 -0.8947491050020479 0.1559598269719344 0.3608523165395655 -0.443715466478436 -0.2541038928964097 0.29001158036720526 -0.2637909374964778 -0.02154961076609599 -0.0726216301118145 0.8220058820404177 0.24896364536008378 0.16140528987696376 -0.2582498734191366 -0.5072372550314022 0.14334855134657895 -0.006091831077702025 -0.2307127044323658 0.12334392986659236 0.5570823447156884 -0.14591405244667574 0.23627443043293295 0.3342251571261362 0.0916338788849801 0.7318518953384694 0.03946385609268949 -0.09255699107583995 -0.17250067173520836 0.14601992366535185 -0.10755116227608809 0.32992245297516426 0.3484861422673546 -0.1921986902731866 -0.7587110142144856 -0.03685692549432271 -0.0013735633784259477 -0.10058921041436035 0.14043436332834713 -0.20206537062010807 -0.3106690359818299 0.17831259113817424 -1.393834803833981 -0.340770911871063 -0.3808484460093125 -0.4778035838516471 0.1854911563866703 -0.29349677658287066 0.5772851097710767 0.13768552162549638 0.07563596531178679 -0.30959266332038576 -0.0013393777018540708 0.009895573126357766 0.7498188102142017 -0.021422290240918875 -0.19465276839044904 0.44760775634900746 -0.04993182285940051 -0.08228231268352108 -0.6315356316045536 -0.08920919293846148 -0.00394587607551615 -1.1210834934961917 -0.33521354396265685 -0.2925100683705002 0.01663935839763195 0.09171576212547437 0.4918254324375195 0.15954888529276584 -0.941548374835864 -0.10300883766763096 -0.39298262983625615 0.08087624168264336 -0.005482026145513538 0.7353740616930348; 0.5846104021871628 0.10995219686459923 0.20645705381167076 0.6221479444181272 0.14647802341578406 0.06845244498522193 0.5336292716273188 0.42559524043605224 0.3238366914911417 0.6542664905518151 0.6047400967584416 0.3315793097607784 0.3201258503809003 -0.4310556175638974 -0.4949997150759364 -0.710480627675084 0.024161331346304937 -0.32388391559672874 0.1881382711737095 -0.29492443485108 0.37361364359586546 -0.6722839137462092 -1.1628095494337563 -0.18046534238242115 0.15036731252510102 -0.002414091506954706 0.37665390851227076 -1.4452797147764422 -1.0656470169683054 -0.2598248158944582 -0.615348178996249 -0.2932443704568895 -0.001886445750141822 -0.16286234413925824 -0.3029526960308399 0.4447030987440735 -0.158678296663467 0.4221041685925032 0.06612332663284436 -0.08472274674344574 -0.3740901183726267 0.009390717845961797 0.23444150921859122 -0.6721124045459783 0.4035473279785278 -0.18034984459027656 0.05023246002375652 -0.15660813897529133 -0.34853832583824157 0.011494809696141728 -0.417462959809856 0.24084635659712522 0.05807323177928799 -0.007439539035482702 -0.14495439851562147 0.4513567006549156 -0.01940342252305888 0.02740598101504861 -0.4621671147632549 -0.7375343964306561 0.3720200835564048 0.040516158288552984 0.44834056933004623 0.45686763708805217 -0.4827276254753497 0.08190188559607581 0.4320250374378247 0.03236547598280637 0.16456867923038315 -0.24849417654016626 -0.46696816898934673 0.03408143849192789 0.8205045454825904 0.5358807868353971 0.12411328427184039 -0.30983629688247616 0.36669408978377854 -0.13859485387610218 -0.3389596126771298 0.0076807778765774996 -0.02324116240484531 0.5928800231359461 0.0008390519440513165 0.36020867715720095 0.2751281277257026 1.062071841527703 -0.527972520788316 -0.018987652247015617 0.18627340849353322 -0.747418679925273 0.11190836524541162 -0.38376546118401184 0.4239047601916582 -0.4527277474649082 -0.04121049195289918 -0.5634487933162095 0.25015777230219577 -0.7729583775929741 0.005397380135467183 0.7539548031420442 -0.04257259809272134 0.7821947253445093 -0.3124782536663135 -1.2552647869831943 0.06330945445227205 0.28083385412669054 -0.4650278599431325 0.7063399035458162 0.09026174155654992 0.808857428171029 0.03814552664766541 -0.3229484509453752 -0.40148297661915544 -0.039839645741567814 0.39817300695777935 -0.1656003091853285 0.1181650679007166 -0.04569221239971312 -0.023416066937570094 -0.005981599858218551 0.38264705199035426 0.3530593513986044 -0.625545136795388 0.11178993079699023 -0.08336767002647225 -0.22029424988258178 0.22884204060481017 -0.3987697521052627; 0.004326071651996682 -0.34638561458012024 -0.3213708201112829 -0.05255139962036007 -0.6122612877141176 0.523293663552397 -0.2934851678451439 0.3060422582790566 -0.5586459045255986 0.14625715212588733 0.874675967218232 -0.259146837499949 0.004969052675146182 -0.28068402625440736 0.010143669453806682 -0.0718723447054445 -0.6140285762248373 -0.27479479102843735 0.2811421796955275 -0.4017090486632143 -0.04957857466728272 -0.22341465803274246 0.4351551162563235 -0.03783485539767648 0.34349521387985416 0.12353160076688226 0.2000815582600016 0.11308234701788832 -0.07745735662243501 -0.2311298392541947 0.6925682976725999 -0.09497140449891389 -0.30619801647564565 0.09123524484511575 0.044072676348603616 0.44234242987346095 -0.8344707705660914 -0.12083699618318183 0.2800673724535167 -0.5163391717504654 -0.813663552841632 0.15780679484900378 -0.7145132794748119 -0.7053822102162443 0.12536180011323098 -0.5387720811904418 -0.40866766887023137 -0.010438828957750447 0.05001444473377072 -0.2237572862085034 -0.2801493831402091 0.0031113893115417854 -0.2879312668881329 -0.09795486809293555 -0.6458765510896125 0.18673016549482543 0.017888889923532027 0.48341343245615964 -0.0955384806976331 -0.005378196368773754 -0.39955560030259635 0.10190114033015744 -0.16492253919691927 -0.07848528984976079 0.05197745300330374 0.2618481887310794 -0.03867509185233609 -0.2129392420517275 0.1944249235942939 0.18945147815007687 0.453102875335038 -0.42450113553650104 0.43863429114151226 0.02983009560730414 0.035687701833688724 -0.3049446601429596 0.2588591659457823 0.10418997440346164 0.7894974089356199 0.04641553536580345 -0.4013720276096654 0.1404591833048455 -0.42841276433555 0.001960005106799772 1.0571558120315507 0.061553252323019766 0.2710564619487491 0.07318392054516898 0.3734384419725452 -0.704826473611337 0.8502072059979218 -0.13151036856120907 0.19595684712058792 -0.12241920607370974 -0.05092124330099027 0.003781144295969537 -0.15261499095231992 0.3241790276479997 0.22794263377771867 0.21940626307549715 -0.44669177817194367 0.1170709835377086 0.22214811529298628 0.41829061484309493 0.35275626324723447 -0.18189609126142522 -0.14721056344333097 -0.4127960687395483 -0.3189901997287142 0.23478387536795095 0.18814348992594293 0.15065337237087315 0.06012717455653675 0.3455809769900988 -0.5371690166927084 0.8872015349692218 -0.26123737852819146 -0.06172804467341039 0.5718260827238965 -0.18676986024936687 -0.6103615489445187 0.5661870767730449 0.5738229082467949 0.08681778675262823 0.6815634620768457 0.12345298327537924 -0.3238064804985048 0.05250187116655782; -0.13309995091772436 -0.6557056169191976 0.5834961664286006 -0.28477984628209985 -0.43713701177639325 -0.10949341475666804 -0.005180836665153528 -0.5702374764462446 0.1537417183667735 -0.0698425970947267 0.593255715703037 0.08046499820833779 0.28987685424835713 0.10016618536788956 -0.14369251142838987 0.7611194709842466 0.5662434511074251 0.09101608907223238 0.1578973025143547 -0.020849300003154526 -0.9851045831756569 -0.13613804094763873 -0.00437772292869548 0.12817369279330262 0.12935413325351625 -0.06314578444157255 -0.057101831897959636 0.285517914589198 0.15969155541854635 0.42873451829587866 0.0010344931766905106 0.9725646110683112 1.263629319156237 -0.22405118747425534 -0.3597843248733556 -0.004072258786839509 -0.33707837728201745 -0.3737888004418771 0.1876484125781778 0.18722374106542655 1.5660695822592032 -0.472846155095594 0.15041390999163703 -0.3789105758058448 -0.3826162000808741 0.7329431204871769 -0.12523880155493342 -0.34683147505660317 0.10024650251450667 0.10095529434209023 -0.21300485514332254 -0.13447306341620416 -0.07116970166596721 -0.34499213596938844 -0.15116575024082846 0.230912240274789 0.27653161803584914 0.2714845944499789 0.6229669915012586 -0.000922686432791201 0.35081922804115817 0.45281810041993986 -0.017851464527582468 0.7356387137991149 -0.19627423158680637 0.021035265348026543 -0.0026422907689388243 0.11779172540318053 -0.07175683449059006 -0.07875344053314501 -0.27194564897751966 0.8710874745086752 -0.20550681103957685 -0.4336142537528343 -0.027278605957143518 0.15135543948997368 -0.5306588731450178 1.1831206738892819 -0.16039267952337236 -0.9627453880703013 0.36672972044619545 0.016019234452798715 -0.04500154586081354 0.26904941700107504 0.47484879627275656 -0.12103163932053557 0.11796154529160874 0.4625222369485034 0.46598519057818455 -0.9688305538644082 0.017630391241279075 -0.37150877949835476 -0.27402318023299654 0.4559325290343534 0.17950987123222203 0.41189136964902523 0.5880529149623065 0.0821950805327642 -0.31176902483039226 0.2577609874924351 -0.9202459116587234 -0.272154725678427 0.7490687418735734 0.5961691253078002 0.11297677958561222 0.3954975309024239 -0.5200376777505539 -0.49107278688073935 -0.12059565335298253 0.1106925798346876 0.0028688459975480074 0.605679693957023 -0.1583754492926164 -0.0036090572161185364 -0.07351763564769762 1.3156357502980744 -0.5718118535215225 0.0890489808549822 -0.1138239262800981 0.7108412486931072 -0.3107137670084939 -0.9225668263175046 0.3133969923145101 0.8489707554358464 -0.26174933996683775 -0.5326330072422393 1.0507416076175724 0.533614717483155; -0.2754226628332917 0.3323741786802325 0.18522186762173046 -0.31015891868362433 -0.10235271287257029 -0.013229215690753448 -0.370982443237972 -0.18240517797814032 0.3601863824427899 0.41611144496545943 0.36474127251201666 0.3838801679346523 -0.6334969079218981 0.16997030848206515 -0.016500501562338746 0.4281607729422227 0.5325468812033893 0.303151091410719 -0.010615671061183198 -0.04680221912867292 0.36474410622679304 -0.3567720747496215 1.5672499355281766 -0.2516037468577253 -0.1009020960467523 0.018932959739689306 -0.33047929698015915 -0.22299869165483982 -0.1755610993767252 -0.19196724437360907 0.5081112387093822 0.07940964952462831 -1.1641968946091819 0.4934751440311902 0.186155443768604 0.3597829686666117 0.0026469649130072236 -0.33881650649444917 -0.595261466504729 -0.31495178786232714 -0.003863290764717353 0.02672497816243037 0.5184199861092579 -0.4250571505811775 0.3896519423836611 -0.6474414954518486 0.007882976664152174 0.013961087843982378 -0.7434739366520778 0.14722849255328127 0.1613025863186435 0.4998893787016533 0.330830433873243 0.123713018420846 -0.026947726350354223 -0.2782796128919491 0.5019191775461055 0.16342991883221447 -0.048159169872770996 -0.110310274899228 0.22115378208893746 -0.006183370345484858 -0.1591010025469484 -0.19894039450906736 -0.29358544507808026 -1.0864446826484229 -0.16826062933481792 0.07540460712998666 0.5379727121071866 -0.14741899521244617 0.421962529180404 0.1433110779812457 0.039483017464495444 -0.0010063682127005643 0.03624026781530999 -0.19648773911630726 0.40313550220057154 0.06719568737897923 0.12388484954691213 0.4516834095525638 0.472769300020812 0.5591419361332821 0.0067907378141934234 -0.0031079441968257914 -0.04962938131727523 -0.4241238785247693 -0.20708442279860592 -0.21359196545699374 -0.5335678872677461 0.001698424023303894 0.8010078087220115 -0.07859802477725186 0.19992261585330304 0.5415574542868683 0.34167823086117804 -0.011034019967337511 0.0685324900004285 0.24233236117678855 -0.039477039057672435 0.7247173795648311 0.013454982123451982 0.12605266713512162 0.3234126387551164 -0.15327860243385436 -0.23925291602935497 -0.02446950717801847 -0.055545614799353396 0.2744662161638558 0.02124773404818678 -0.16168511556512657 0.006464555939677013 0.39808793506343 0.529842008308198 -0.07359569566156364 0.11095625295267537 -0.4517957257044301 -0.29008806497958767 0.2583207222902366 -0.09865591761279216 -0.0545556578233211 -0.08395680373874992 0.011979667095326954 0.19795692342292798 0.17521211072831433 0.03919564338725994 -0.3070839518263889 -0.8076820407498175 -0.2948718391652357; -0.016021288765630193 -0.5081470698490385 -1.0062029041873464 0.7757754747118831 0.3825312022868229 0.17411733274742497 0.5601743985102804 0.6076722891868228 -0.6418142244683823 -0.05128542262798124 -0.051558279750975974 -0.07358303361111525 1.3124865930536123 0.271439612729187 0.6398170728851095 0.005192966268660914 -0.699057278901484 0.4705650023835698 -0.004051699344512674 0.17497660734608367 -0.11658498716535448 -0.13237289082512033 -0.5061529662337677 -0.34224154127351736 -0.01933829319286189 0.001956996853266556 0.2585666405548888 0.1625389274629862 0.5903782423218907 -0.5593281558202402 -0.3928199034581317 0.13441992423952878 -1.034150588748366 1.1471802941288378 0.049201881334109146 0.04756285338267377 -0.2956800428595674 0.06048005548056286 0.05152525100018543 0.6749728318901193 -0.542518969129469 0.0047747071419496105 0.05656380963684286 0.10490619300819758 -0.3372874822223017 0.10395920883495766 -0.05463113882225823 0.25311073732700906 0.5756926333088803 0.6083425316419627 -0.09276112090503053 0.5382989531300018 0.11025177644695101 0.40055232008159414 0.048397944837114265 0.3443370088836062 -0.7432978308411164 -0.5329089749592377 -0.937965957148409 0.03592731513076469 -0.007741303808556975 -0.06784664476524693 0.4467524569449758 -0.24023385599790154 0.8401631857969626 -0.19569033841922812 -0.509872307637093 -0.34128984941452845 -0.10152736679294977 -0.07579936928466778 -0.01756726220092478 -0.14731019721728314 1.6567476517984943 -0.009668516570936942 0.5845040668986057 -0.0031617549780721607 -0.481568789743227 -0.06624519245969587 -0.5243116400703873 0.57482321165606 0.0006969967319892383 0.4826664510158919 -0.23627228708106238 -0.44163829886964373 0.9163693964689844 0.33016508725981697 -0.07385001874898992 0.3265112199928689 0.6782648266199454 1.038202225463815 0.5067180331290432 -0.05898347481359963 -0.726639210538447 0.18120110677506143 -0.16435729084743037 0.5737702742667132 -0.1475460565337034 0.006132167218944418 -0.40545720662718154 0.23663875986654387 0.4072224318556727 -0.07109626675261237 0.4195783786767558 0.2363340077741392 0.07942494504823631 -0.1407450851383209 0.504457743716404 0.1008583388768241 0.11720652804521829 -0.2766813131525887 0.26135112474703914 0.16727780553484423 -0.45049541414987454 -0.2605705999477341 -0.05662585943484563 -0.6063137362412606 0.42388816091076814 0.5056732694741538 -0.21926590898917525 -0.016193316000673644 -0.011453451636090586 0.05419887396046741 0.20116854100505346 -0.47600885421739625 0.00040036336204702326 -0.19445471518225665 0.009850882486757879 0.47776327428267323; -0.0019775581037730187 -0.09819293194076165 -0.10868984477878817 0.17944349044227853 -0.3301236628738012 -0.10628606140029696 0.0062716366922272865 -0.8536836698182068 -0.3237312039168846 -0.09653838428466298 0.43385348659112877 0.5513549066603216 0.4363928024715589 -0.030940479413355423 0.003642671980734913 0.36124512932763014 0.08188754424595236 -0.04336028022845061 -0.048428981390960704 0.5068333181641524 -0.12827615608682785 0.17040182795390477 0.6174431627053696 0.13135063494015958 -0.003572206951123647 -0.12025943445063571 -0.1928195764293025 0.6852335060859337 -0.02184976903382206 0.5889801644102699 0.3370021155752068 -0.5889137433285091 -0.2029762602016784 -0.03554391059909703 0.35109509929644983 -0.007559645105131908 -0.0865381665282387 0.5507925518918672 -0.1993297430788272 0.13374329092808718 -0.27426811513523075 -0.3288055001800396 -0.06036187537944494 0.31554846680700793 -0.17284859881935727 0.2825322028241605 -0.47301852924326104 -0.25925161863991314 0.31101637470502336 1.0837368375252827 -0.06711172740743505 -0.723761148461959 0.5749960016629373 0.0766505118722303 -0.008662622006435331 -0.4957838020952892 -0.9457521528116141 0.28543468416357287 0.008278483632192035 0.23771015639945128 -0.04851029361392084 -0.37342363362906955 -0.275829696445796 -0.022268423232119448 0.004954579755870815 1.066283255175404 0.32922346650158363 -0.010961898898529394 0.09568760461254298 0.1528171261304893 0.6406380513603875 0.01819323877788065 -1.2524442952862662 -0.11663783921583751 -0.6210848921140552 0.47520966760510425 -0.3693174874327438 -0.7022433022455085 -0.6779532757184009 -0.08699774342252296 0.19735655605974134 -0.37578306933105526 0.410191454341833 0.07967242739866513 0.1987731764836747 -0.18974730947964552 0.05258772862887082 0.16231034676024056 0.10673474515124352 1.4508294270739654 0.7498735271388188 -0.30155094744724054 -0.1854682412887136 0.2915826408461942 0.5147561992284132 -0.004218778152268335 0.01738023502191777 0.005084897252273788 -0.41066243806739827 -0.17315498594124315 -0.06461298520180242 -0.5383394511802728 -0.4996975465760914 -0.0010671370711429263 0.38013153264723887 -0.22124207317538233 0.13004515980530623 -0.24314110134873643 0.603469556517536 0.808829610375494 0.007831946501143792 0.03768815028200153 0.9819998475879322 -0.127571573589125 -0.6492714473302386 0.18497832685249932 0.1722785258156458 0.2403661681427963 -0.3892185535581073 0.6425299910251121 0.29860669625164976 -0.6835501735324326 0.8409698562759969 0.5809204749003183 -0.5916291143236001 0.37180349855811634 0.46980505797321237 0.29087825788996796; 0.5174441530771209 -0.04490379121071645 -0.002176853531360869 0.3998411259300887 0.7748296913649958 0.41374046278080057 -0.13169952022351467 -0.14108854017967193 0.10349546104984228 -0.15596587095171546 -1.122155872353628 -0.16539738341145496 0.16690887141453348 -0.06621330267949044 0.01209244582264978 -0.9089933566108074 0.15353130410330398 -0.3486657332694961 0.4478633160095352 0.7744022077156125 0.49112483736214385 0.2500918080967592 0.11873387485738585 -0.34482195414052097 -0.7693147568051736 0.45206493132673575 0.41160741644790744 -0.11023572999114196 -0.4512080854559291 -0.0009170387393181856 0.4461323726822499 0.4273656279144892 -0.19071600864538057 0.37061674920412174 -0.4251344467194937 0.2320283079430446 0.7085927801643854 -0.4684897533408371 0.17472530187695381 -0.28631079276005994 -0.016841180781938168 -0.06422318982208057 0.8548151085844401 -0.22241088792718733 -0.05943087197088329 0.5104106450543026 -0.20974810642621644 -0.025092780735505263 0.20678499923014476 1.069201993492832 0.7963086680258745 -0.37545459034036816 -0.30079417495806693 -0.15353475246667228 -0.22584885949004646 -0.005025250288623685 0.15881239524430557 0.3955936051259744 -0.007997640177904887 -0.05615679422211173 0.29192187118105806 -0.5137610081818316 -0.1790208155447723 0.23598575498197236 -0.1802364571727368 -0.0319981886518153 0.2901135464986996 -0.9470851496911361 0.08469279342038533 0.2451661014733989 -0.6075034327312607 -0.031137559833655338 0.2689027298211637 0.8417970791065207 0.6773353712887945 -0.6557560165023661 -0.10131906617059121 -0.051351391729230735 -0.8111976022342304 0.9551059710165177 -0.643684512361296 0.21818626319390538 0.45914015693280386 -0.3976551624537758 -1.3566238573209464 -0.7349053404522347 -0.13310031401931582 0.34824443968432706 -0.8808309144940808 0.7296120261373794 -0.19315659440270475 -0.4963600180177 0.5541392513755269 -0.05354569134242501 0.17167180058062015 0.5391449538664121 0.16433771714923578 0.4373839878087615 -0.2137855159745722 1.2634218112382778 0.7009030783546609 0.3720578376215684 -0.8647462124321353 1.3297615212103397 0.1051180457515232 -0.3357508839606516 0.5401993960788096 0.22339859124447792 0.021360881415729047 -1.1373131101805447 -0.23154078635843622 0.11956893881918855 -0.16723345069791518 -0.7850998701683254 0.4578000118275289 0.000531901383792684 0.5833375110007812 0.05974060322137757 -0.038447296747508936 -0.4795660904990917 0.4055016846505829 0.45579677057388607 -1.392571537122886 -0.3097616734615358 0.11851676616975364 0.16379745535858545 0.2866903766145647 0.029487265666958046; -0.47077755586881337 -0.0007788286859604102 0.6005336054192859 -0.5965148469295862 0.007661807683361205 -0.38587785394136337 0.037326606432787145 0.3019580002627584 -1.679451283479983 0.28131031646993565 0.19974124185578593 0.20343075434934463 -0.07863626326118599 -0.03411829342385637 -0.448312523983578 -0.003296475642024001 -0.004400278904912754 0.38409160959844707 0.004265102008841429 0.7364770736532917 0.6468547284548943 0.3868819021707836 0.7068352456231154 0.012729064524184411 0.6585730768768332 0.4378285900165256 0.1366337805831306 -0.14062437876583597 -1.1758624644871898 -0.6845734805364718 0.2305416713600083 0.5883175546309757 -0.5535844977784884 -0.39345349615021785 -0.10246109510343362 0.08815036714219883 -0.18841409884111668 0.13659241311217102 -0.14814182000713177 0.06706839233873484 -0.7481301796019871 0.5860946224883907 -0.6139322133275792 -0.6429980750340152 0.2512233439618567 0.6359299199298266 -0.1917705746005922 0.12371137075870374 0.3578240644236036 -0.0052578211543606816 0.6100380341952901 -0.07240973026566067 0.0029402939691922183 -0.510620638885153 -0.05165896889804071 0.5821983889272752 0.20130790126183493 0.17883867283514748 0.24562695404268559 0.22180143939793306 -1.09148671226528 0.003971094153957748 0.41690205127066404 -0.034699186933172116 -0.15461021457777868 0.637522923179571 -0.008818450000259957 0.21595093214357722 0.22706344953755553 -0.8156454778117769 0.3753841438291591 -0.9898863077588763 0.13275004790166442 0.20379527620334664 -0.11821112190891948 -0.5406470562573359 -0.48117793248177004 0.36204939570767986 0.304445184853009 0.060518636297901204 0.37647664267322256 0.21977973323987204 -0.4403551228549249 -0.5468958698211821 -0.8856843271068122 0.5179411754025944 0.408043664087238 -0.3644817625808354 -0.07371472955189623 0.3806528842507969 0.0005710810874805603 0.11155536150741943 0.4148422855212998 0.007291971998732394 -0.6164450246600626 0.2867989026214283 0.0013038224536266606 -0.12563997355125206 0.9764510634289806 -0.009027717399639198 0.6308129645247321 -0.39244235630769114 0.4634901184343079 0.38124958162585126 -0.1445023180282944 0.7424262420284298 0.40144140018701446 0.009271368470744487 0.006706716270288478 -0.502115458918118 -0.4101007829457408 0.3908941711909016 0.12261665898831081 0.16008477977179517 0.1566127740556863 0.4443923292102816 1.1514034508757207 0.14747311164337215 -0.8500182063054065 -0.5869907819525422 0.005914683846440986 -0.07797440738138786 0.5639756954791506 0.8019933845789377 -0.036561790427660855 -0.4614639949291079 0.3957832462473547 0.5495507746034778; 0.0833225262339183 -0.25837765965279585 0.33591071303231873 -0.2300971020663167 -0.030352160952653987 -0.6369937537291864 0.8141930663902612 -1.1557413246139752 -0.45242743359071436 -0.11013505841312972 -0.044444159740557425 0.20997764976102273 0.5709506875893752 -0.0779642922457623 -0.04586025983230831 0.5698169481994116 0.8467602773295484 -0.01959642088373075 -0.10711954184717647 0.00729872769158654 -0.8214005965168175 0.1705128268250852 -0.3993497295643637 -0.34536226384732455 -0.8975897019527957 -0.2748113977194282 0.1657003208952677 -0.4722462897271448 1.3608811778662813 -0.9472820959018933 -0.5859214645374081 -0.08496597775462217 -0.260208401363562 0.019590634660665587 -1.0102385069363462 0.008125294045185824 -0.44027922079734105 0.46093925235570177 -0.02418375529961398 0.35743365058674714 -0.605815387330669 0.37215986947362845 -0.020443655775883935 0.7022504203677236 -0.9035681936383807 -0.08968560163334179 -0.21909564757686234 0.6412428401267779 0.30714520674331225 0.08841003257165217 0.10190783995022457 0.300019008499647 0.3306949591770893 0.9949465901355 0.8517884057082936 -0.7717597890682816 -0.2854732587727214 -0.8885220457558831 0.0010096870479038799 -0.17899701987235042 -0.49100608757419095 0.3498660318766462 0.006066688248209047 0.8603654662347678 0.7327212671093456 -0.5970248546717977 -0.2618100655348087 0.059692220324117404 -0.16272138929317345 -0.9194639800500155 -0.3731932360972279 0.13724780528878638 1.0637272900907149 -0.692645035825781 -0.7290728887322289 0.20951669617617505 0.6108508739594047 -0.7314050795533139 -0.0068356043103832646 -0.1900229188650551 -0.12099501941377683 0.07433080322866507 -0.005921748244213602 -0.6690018065857685 -0.016601072830388357 0.5206894405245016 -0.2494745567016159 0.7971351341820442 -0.11206929908047465 0.6659863288030617 0.07215170623804784 -0.5716222670538834 -0.06602144148642852 -0.08583604085661056 0.010866051050949344 0.31835681989675846 -0.2300135322798659 0.26228553873343957 0.5388802613530642 0.42315600916712864 -0.5718943892311262 -0.0127765025681732 0.6014074507132581 -0.002435284995910298 -0.015204348884962424 0.44238997018640985 -0.16481594279037268 -0.009801702785066323 0.8962488677149443 -0.05405166839296638 -0.8579241303246834 -0.006636131627547963 0.37143233241788304 0.7478825746108971 -0.13605061906834048 -0.45335007015981266 -1.151447589586115 0.24800028995693027 -0.2894818553174999 -1.0212731332763731 -0.5451798215864114 0.5507379217930357 -0.3410845048295923 -0.17514048289261197 0.640797666040141 0.44131157575759294 -1.197854273661063 0.036987892894147036; -0.002805000085050529 -0.3954612448261561 0.6060053983449869 0.5928337702358555 0.17353621581260378 0.008461202277479674 -0.3717487811804486 -0.05150960012610559 0.24390743371184734 0.13092834002345677 -0.23880460983578358 0.4249497222700979 -0.7406512552631097 0.22369757716957672 -0.06970939698916964 -0.7994145013678899 -0.955000386973631 0.05673069659029896 -0.1471993290074505 -0.354210974931684 0.20688463334984894 0.5551340580277325 -0.25732347861752797 -0.13172433426070554 0.3664574434997315 -0.43302040855610335 -0.2712480825596569 -0.777689476753309 0.019810806561951607 0.21455579224743004 -0.4253309346357493 0.2880494023043237 0.2476270129168757 -0.19060400679429315 -0.9431753911100765 -0.25516205230436434 0.29531118818670654 -0.7078013587597822 0.17118685589610164 0.3602795308975408 0.19647499012113712 -0.005418171837880593 -0.49227205234250787 -0.8955848021232932 0.009409038150988872 0.7199456797146356 -0.6386721707101891 0.048680494087285635 -0.2094266056027867 -0.033641246953359065 -0.015515074344765496 0.12313954042241057 -0.7419927728629033 -0.5442528241063868 -0.033965248370422946 -0.336126703630458 0.3135195928275674 0.026485158601211953 0.009861912001764053 0.2880287960290357 -0.36266187872046984 -0.0005136242175507132 0.08640903687275985 0.39582639035384976 -0.4819750674870956 -0.14757274079784438 0.6851902861202391 -0.32111039515399675 0.005065217466527907 -0.30528327024387725 0.4687570479363681 0.003641937304111752 0.41098391537915896 0.4156422063438807 -0.34746014798383 -0.4084831234530782 0.37923228722722824 -0.2974497115336067 1.0603958692770978 0.1030005372060493 -0.19046982266298945 0.10737771217901447 -0.2637725163633427 0.09202544866469733 0.41958258643254975 -0.32910789527886153 0.008722466148029157 0.28547545702494787 -0.01648245252195185 0.6025896885593865 -0.35167693671475475 -0.1387421257705858 -0.1216894370541236 0.6179239393944477 -0.39070611320418497 -0.3143669581336464 0.00651195496817038 -0.08730486232652226 -0.007915807231241119 0.6068797361221042 -0.000299738377590804 -0.4224432834414894 -0.03500519058176742 0.025477534040005134 0.32186817176755084 -0.10134161777738726 0.2486064765592968 0.8931561763762326 0.8331613020918063 -0.033775489320253996 -0.18586733899565022 -0.1659949814144855 -0.17772376247753832 -0.004068413995503706 0.34261401514592965 0.25130327999434493 0.5053864037706537 -0.5565975804652814 0.6161896659652387 0.8243297759876395 0.010542694481370815 0.533918060548636 0.028919160007800534 0.31353878369984267 0.5106586541734724 0.6559139749005815 -0.7237145087645972 -0.10993945735451399; -0.08016144356442569 0.36898932366605114 -0.4394076763056985 0.30588490641266114 1.422248027174072 0.7550518961458101 0.4628802085880731 0.5292346978361654 -0.003305673277110524 -0.3780700370714382 -0.31806945839820355 -0.40552947762804625 -0.3823473811997186 -0.5163166967833526 0.08593976755249522 -0.21816726023114172 0.5305194889120306 0.9099074195201592 0.8369414399382584 -0.8070233458241238 0.1029864456697 -0.08009194968975282 1.5597426141296873 0.47060978350450644 -0.424112210312325 -0.2866539715940437 -0.42967419795662076 0.7157194503171322 0.193043840269859 0.34382580228988846 -0.572424312938188 1.1718967631806227 0.18799029850838758 0.5445331029743123 -0.3857670773398964 0.41590613237637025 0.12105215134575008 -1.3860922971246772 0.4905017660455409 -0.38167924403315673 -0.18476570968276582 0.026547130448117927 0.7887339037073219 0.25316440943899887 0.42708179692219894 0.11797154850646568 -0.44080588732797626 -0.1634300549239295 0.3817087564805253 0.2963763755728216 -0.17583296380636382 -0.15658601123449792 -0.0411179082400253 -0.22690160435046325 -0.025243005538476852 -0.16031445943413603 0.6018120236488319 0.00832344634336694 -0.049506218367537984 -0.9851835839574969 0.0010807890748112544 -0.6018284144759843 -0.000966716924397283 0.7521574207703885 -0.40381317252092525 0.2191266635810771 0.0032531458328104337 0.8114997274955958 0.6604666241426541 -0.3066413451198258 0.485199543126172 -0.18365906811776148 -0.4326928985765515 0.3527128655367832 -0.004456055495638886 -0.02073584009221195 0.8168237986111995 -0.560010324853951 0.19077381349532674 -0.010725283721137202 -0.001162454320684574 0.3486462830267034 0.0585516981336554 0.48559170899704596 -0.08185193091714384 0.8876131337339731 0.2186462418236559 -1.0566358218332719 0.211412745906379 -0.0035539743659009585 -0.00880595416042203 -0.5260816470839742 0.4155109779277678 -0.031717259998511826 -0.3479087349925458 0.5248582140297287 -0.3688134778320215 -0.2615010434217752 0.1263109806456912 0.6508709519449412 -0.34576816392031645 -0.237341982254979 0.26683132603155924 -0.4690652390246535 -0.1413287253100236 0.13125415917071565 -0.19589334370944714 -0.07902219698513697 -0.16408592138510408 -0.47084828303755205 -0.4479778947434544 0.1471685587557138 -0.11376186347891497 -0.31494544655372925 0.49282381826208216 0.30399327564484663 -0.9340377029017985 -0.27392921750384125 -0.45377266991732074 -0.29705372047982714 -0.4102080543363218 0.6398874394803636 -0.6903215255061946 -0.7497604570221883 0.47287027921096053 0.4050516538527122 -1.4794328991260208 0.4941537011563328; 0.05321086975011533 -0.7224656396628477 0.5885426955339073 -0.9413592922776781 -0.6257135233232625 0.14981998771279129 -0.010747881199779177 -0.0034467642163154137 0.14455229221306404 0.5510585614685052 0.46406261037306995 -0.32299074860402416 -0.4091548538934 -0.23766457538742194 -0.08087245774384838 1.2703050077414428 -0.08178002898690505 0.6485219520281901 -0.32564233986542723 0.715874672103664 0.07836853367722328 -0.020351781591808994 -0.37500071324192763 -0.688860539028485 0.08226636523864066 0.8099041637981683 -0.029583293913631716 -0.4868602003634877 -0.028332478158774873 0.18030167969329988 0.3483116800263185 0.4601136981320732 0.033366415276675006 -0.3162800981627025 -0.13166266294914292 -0.007187469799800714 0.0007301751982149854 -0.6427831087781305 -0.30787691509085213 -0.1876561356576106 0.6578467443056981 -0.790448560474297 0.05923968681795415 -0.7984550255075824 -0.6505514188859999 -0.0019107354472419095 0.42340633450408005 0.33337093116737915 -0.10567263576827428 0.014138164100289794 -0.438544262531749 0.2880812089720381 -0.3242603417395701 0.5596354634360776 -0.032408152651970674 -0.13631317217437608 0.29903060695874323 -0.29455903269233097 -0.764085934940741 -0.2818318452176271 -0.02211519989483363 -0.026748803622320613 0.18576770159689723 -0.3160556849822594 -0.11383169097922417 1.025679408226498 0.08473468037761547 -0.2838706315519096 -0.2985585911792147 -0.9238279020977309 -0.39824401298561646 0.15178610147107804 0.6289112233095812 -0.548147339304293 0.27949920368331066 -0.01994953087160453 0.6976313171054893 0.15698208356123144 -0.003987705147864917 0.5521623588751774 -0.24774465532400514 -0.8527025328342734 0.25641548988930574 0.22403591938669856 0.10175359157589425 -0.21930832736885209 -0.13854834565795754 -0.6497843557111832 0.17776401828471466 1.8385758146324136 -0.510956139655748 0.3226868155189266 -0.714407175495881 -0.44520714144784823 0.038326484552833474 -0.5659724771178544 -0.12261112756837339 0.018968108368767618 -0.29542205323454984 -0.08593906499659648 0.7400328768217759 -0.6864858645860222 0.5349763530506894 0.4708125445289173 0.03527128722098125 -0.23586054320663927 0.0053934780565185764 -0.31370670146274166 -0.15955889825878233 -0.01695261041628635 0.3788234002328047 0.3813814021920188 -0.9375579133840551 -0.09291181389378314 -0.31718787505602103 0.10888129310757073 0.32586013446132905 -0.3027047026099505 -0.4000968874316333 0.42916678722585627 0.34287375900138206 0.06205624387613772 -0.5859639172007208 0.283856774622013 0.21391347588887094 -0.3958554177252076 -0.15182680415365923 -0.12128136356450876; 0.287389939083047 0.5061451209610843 0.7010496318134501 -0.5442362650768098 0.056071467781587676 -0.6777365880328634 0.12602211716755907 1.3921044979450377 0.004565969471535508 -0.13217497235003536 0.8828139730598418 0.001827952671289309 -0.1002023547113577 -0.3776067860074053 -0.23242715968454913 0.7617189310843826 -0.7257472646445421 0.22109879785125366 0.48741730417793444 0.7910395689972999 0.959138244326641 0.11620019969227595 -0.31126040325007365 -0.008553327058948842 0.3886562097229541 0.3560600939784328 0.015256934736337128 0.20298231758714708 0.21867520770716933 -0.034765075310878676 -0.047216944188327586 -0.01271213152279242 0.18573526764294546 -0.5840276551990691 0.002168333611660705 0.0662172515067733 0.32986437061477775 0.8206053940182272 -0.4755015186288022 -0.4327975295702672 -0.03944824246848507 0.31089874405412177 -0.037394175092355056 0.1048428830847274 -0.33715961704136815 0.30798648693685643 -0.23973806677609133 0.22477223427367427 -0.505952056249796 -0.8322236696551303 0.1271668656681755 0.707301568541342 -1.1052968050748222 -0.07584915017310422 0.7491714815641514 -0.0031662416595591046 0.23216707384683113 -0.39061079650097996 -0.06573706039344178 -0.041473481656550085 -0.00834696085734974 -0.33619842099127206 0.6925226868898557 -0.012654669645338991 -0.1586315216833099 0.3740479003248069 0.18805556738282742 -0.5168190801882838 -0.9001813549691831 0.3838599385391952 0.2192289905684535 0.026459751942301706 -0.005367076159249842 0.006677634236883264 0.35168146664125643 -0.03389238211080019 0.08833229550047131 0.4994550512961406 2.0774285392663465 -1.6844688562986792 0.6483919929135467 0.5278546957138095 -0.48420190882323844 -0.2747608393812364 0.16574515225265898 -0.30996053998394907 0.06995398907492384 -0.12507445427446057 -0.08298960158660097 0.8287858333441797 0.00029737554371669163 -0.1202522605389442 0.35909649464933563 0.5567085118540781 0.3860797594184328 -0.012504026905867575 0.3668389924478586 0.07038803423093092 -0.10377367229885173 0.05411767261799034 0.0839739419184008 -0.16620104735803753 0.0027230448986887592 0.7019117146416015 -0.05359060263623722 0.02392159021588414 0.5573761645453498 -0.46874208871993495 0.6916256253828256 -0.5041346139929448 0.06262349200105671 0.39586682554503055 0.34348920847776976 0.07279919757424014 -0.8138144627947946 0.15681109627103756 0.40886591813938333 -0.07110275742005719 -0.42394126768630624 0.5899299344509279 0.3006936018139145 -0.5223864178192783 -0.04429128892477455 -0.029333761454194803 -0.28398344332608483 0.3504348342470832 0.033813616320996547 0.010512907982401568; 1.6804810027124741 0.16503304755935513 -0.0005286530603122834 -1.0936191940385145 -0.4300490363273073 0.3530041505500628 -0.1788094170428894 -0.2757125075146379 -0.07215558815348248 -0.0021282596179997585 -0.33755192590772404 0.05718863756370338 -0.06332925028945653 0.2265073630819695 -0.10832185405266315 1.1407663592411323 0.25969633020247496 0.8178734110385855 1.3090573817209252 -0.2759522814107021 -0.1727024925165061 0.2987746159462576 -0.5987296648247917 -0.4047338334090477 0.40385266119741337 0.39614917227519897 -0.4714669245644984 -0.5086244010459868 -0.1798337661269071 0.7738796516352768 0.10930610189313449 0.3259754469412289 -1.71442540000256 0.5733166673226447 0.3046169921218263 -0.2803632637616789 0.3927090828989255 -0.3176285666994793 0.0035245715765325203 0.7827246624706345 -0.7826896099303872 0.4424478749921007 -0.5716222704729796 0.4799692259526809 -0.011985686987702457 0.6100949006661305 -0.636133785649561 0.17514801102388755 -0.24140707137535902 -0.35961934313568183 0.05921362008747878 0.2163643086089752 0.18082953533821428 -0.5283114728388963 -0.3425200641715697 -0.3579235570343854 -0.7328712935108974 -0.29539145869852096 -0.022528080438622408 -0.4036116205635215 0.03844254150712647 0.0023408208500968848 -0.3378352799540547 -0.01634099499291803 -0.040536939861606704 0.22074316673705016 0.21266187746738294 0.004577582088870911 -0.026117612364198847 -0.22456872204772113 0.0052822441684721045 0.8101970194266239 0.008661618608737074 0.6521894747580728 0.4394688857043546 0.7822214904468152 -0.002533224630575608 -0.42114876588073047 -0.25661856339280104 0.11618525636198294 -0.035268059394460705 0.7399154593232677 0.9471036598983176 0.2351748515326314 0.1557348037195625 -0.3589881739259713 -0.2381867044101694 0.055728164970547264 -0.2047018196036181 0.4683719398009708 0.24521950777473547 0.6479795163784531 0.07563913809426423 -0.44547648963112363 0.18017948995067926 0.676669951506439 0.05195800440505281 0.09413992174825704 0.6221570085456779 -0.031923109089089796 -0.0004888159806916416 0.20351039295910517 0.44019647244751153 0.11490668963200891 0.7153105403991374 0.15754839148730812 0.8028028033387168 -0.10178564813130847 0.05488325245173517 -0.2787019070418168 1.018809912694018 -0.09064029360717168 -0.012971054008472151 -0.19016562381274685 -0.22034505273733646 -0.06086836615664366 -0.41168672567198317 -0.030244942065985516 0.41730278550502947 0.00870551568160276 -0.3121907165021271 0.06100734714933695 0.6375079940758872 0.5114900892939833 0.34642876261603106 0.0596322154261108 0.7573507816941766 -0.0029018388590791823; 0.1935907199508963 -0.162161224509254 -0.5864244971009999 -0.12654371451082636 0.06036119022798215 0.13884028573641166 0.49514319193135475 -0.14411431014761397 -0.8943907778085698 0.6692991842732582 -0.49824069293294354 0.37651165725912306 -0.5266500114165855 -0.3722048275377593 0.13917064162154855 -0.02052608398547322 -0.9382171268770617 -0.07105658482831309 -0.007035194740371614 -0.007058900654016994 -0.15660639019193534 0.22694128648120768 -0.5902156684265617 -0.46639702112110104 -0.44614823474171933 0.007135858981222715 -0.01635891218610328 -0.26954489185101305 -0.3790213986599161 -0.4771089219068847 0.6186758040406287 0.3731043954931065 -0.4275740004961636 0.1993706916816463 0.7570437464019186 0.549688528276215 -0.32024675277709147 -0.14866216003893262 -0.4025732462655039 0.009329140160809834 -0.0008924588813982129 0.008795849453299948 0.3521247366564045 -0.01929569614336838 -0.4881336845190004 0.5040819224395648 -0.14826635137134575 -0.515028289379123 0.18724404503899125 0.44567897749651403 -0.06356964053126735 0.3906723707539233 -0.3761712113277381 0.5506573337696034 0.09058680167199398 -0.4639756446636073 -0.44041176041881447 0.011971271903037033 -0.0017907802354993224 0.20703569336278413 0.7213329445767664 0.5651017481405008 0.5306508161797752 -0.06326772198267945 -0.4965423931593371 -0.3200130547347179 0.06979641415670997 0.8053094213865917 0.007371119264513588 -0.19577487986169892 -0.7703638681062608 0.5985228005498516 -0.1429633834747109 0.007838632477000467 0.5456957936028752 0.5222675901215855 -0.5757891242296763 0.1432358649673075 0.44583401872616385 0.30819840431785234 0.013174347982597645 -0.0008382109234741314 -0.17981420680860707 -0.3794830794801025 -0.05739677004649335 -0.056408168494841884 -0.8402781189582446 0.13955372269070285 -0.46953095072615775 0.49525243875396635 -0.25706807247828223 0.30206976814486025 0.019007395538895855 -0.13968472340445062 0.1875571544064334 -0.8561555028627627 0.4009833476625162 0.02023008845377383 0.2415727028814156 -0.38525716138376404 0.24288816635211524 -0.6749187929629203 -0.26616598342902026 0.2600206703940927 0.2942339887152347 0.4925622193597662 -1.0203440944642943 -0.90968298983634 0.012024710317815414 -0.05759672986767067 1.075138011342873 0.8851803122241819 -0.011180309694646038 -0.364802876404082 -0.013748176071744875 -0.7854908438974445 0.7680896983416338 0.30508425042658677 0.5460775004492746 0.1515482877014729 -0.487135244998203 0.30114593012249974 -0.1340793743790441 -0.42485210755700337 -0.48017877359756156 -0.06151367214760076 0.26166879234907015 0.5888512905532917; -0.014343431442137707 -0.2987937176766688 -0.46456475548866694 -0.265448778709324 0.7611978193989452 0.8067197999465646 -0.2652582188201265 -0.2811384756912246 0.7049154722694093 -0.44624685584863927 -0.008388832239426118 -0.012319946076328702 0.21551416369174142 0.43287142337460077 0.01116071790477128 0.02483014666945632 -0.6965983825112388 -0.7060109944175069 -0.6338575163938693 0.20161008024549484 -0.045211047162175014 -0.3901093101849895 0.3811379713094226 -0.8945944595271024 0.7307106317737461 -0.4703090937603816 -0.004307110012425421 0.46449819780315127 0.24302168358445406 -0.1275635931152201 -0.26955073244122146 0.031488111279631026 0.6330145707112327 0.3742839660166478 -0.41333505900597267 0.99845468538979 -0.05028430347374904 0.17892598728696046 -0.4336067671180646 0.5222081226798411 0.05909611220311621 -0.6465165390763717 0.29370633119105105 -0.47793474214476567 -1.3895746025522366 -0.5731483976989374 0.44852568758929845 -0.4094997744238317 0.1756764456624233 0.3922721639728605 0.4751787610711265 -0.1809766638840401 -0.10500214001365141 0.34623136932742893 -0.17828916155772254 -0.19411849405306317 0.05878656748926871 -0.39197677381307944 -1.283318576674324 -0.5034951043102139 -0.5781236784535013 -1.167784175357539 -0.002053884323083177 1.2979271919396547 -0.09601906451205379 0.0425970296675674 -0.3119453485925197 -0.13338588993549783 0.25533341127231207 0.1506406281552666 0.08458934608468077 1.713268514806804 0.043046568235988444 0.004714260242581161 0.017882483991467024 0.5295510277075962 0.08404296823639938 -0.5073427312040453 -1.1789548130861793 -1.3560203372191377 -0.688329056731557 0.5284413501928422 0.3495683461834196 -0.15369882285350872 1.2571204985815643 0.44526973703078754 0.10744784186589826 -0.4882204811793394 0.08531647719809302 -0.42462026766351324 0.1544202952415093 0.13669055185082923 -0.31375154946268424 1.0093722528266988 -0.55199972756084 0.03420780478576812 0.699517726344962 0.17182426431936887 1.264172369157153 0.47106739014103544 0.3645333526874979 -0.42695503106078014 0.0423778953671658 0.4766883418690015 0.7624658352709657 -0.4404138279190677 0.8916446801278387 -0.3038928633717302 0.09739128007550214 -0.20049637784112415 -0.49795176263906 -0.0007251369288993015 0.11165412697234615 0.08391568757985658 0.6617914304197732 0.04909295565384304 0.6692791689298407 -0.015814058983932597 -0.3016231350094471 0.2922788854294913 0.06070644214252787 -0.12962708942038037 -0.5705762850211473 -0.5807987444881159 0.18832477047360419 0.07496680094370613 0.008652254998343214 -0.00022119926701094652; -0.25736027765843006 0.6908822766978471 -0.1697643159675632 0.1914851254975512 0.3598325209563153 0.10335939603299546 0.008592119726012301 -0.24036884746055975 0.030589239189176214 0.9911718245650909 -0.6118310628158337 -0.22959768509353765 -0.24783662519100047 0.008223447813885175 0.2642987845590931 -1.2275922069015563 -0.0023499213599635044 0.4844083812104017 0.24012553231522002 0.4269528538106079 0.418439846464386 -0.009192190578686636 -0.17455506245713875 0.06194213453608697 0.1775055110483144 0.3077050618701008 -0.27771548316608397 -0.035673785733104584 0.02260092306294927 0.44776293253664073 -0.004564635164674238 0.002247147739843545 0.8076180881521259 -0.18830282641564927 0.3506965821054379 0.3122336134989104 -0.06969323394920063 0.3402762337035798 0.9965805471667231 -0.1312564155762373 -0.190105366574465 0.3222107138656606 0.07219631738614767 -0.23228049611985763 -0.7112293850258918 0.0013706473847824815 -0.9045114962140735 0.6468106656973269 -0.3639944887807217 -0.6579774685516854 0.6345600996170159 1.367651845800458 0.6015908750731059 0.01490589346457668 0.09444456788936222 -0.042420155447965936 -0.020132854569508023 -0.0012864315960393296 -0.1594893019014912 0.5861430779487375 -0.11314479041448618 0.36191776931306546 0.15316198538941217 0.2835073132963223 -0.10425625945246839 -0.5489503445692466 0.0047687628344828354 0.00731187847842921 -0.03703269698936104 0.8136414368927382 -0.002074022434241589 0.27688155968595674 0.8207681975781635 -0.9327512022664415 0.17573303569374552 0.4246310594869089 0.3190020685419647 0.7050984959487993 -0.4827104632281485 -0.09707066979172288 -0.4060629723713972 -0.6085172824059472 0.18347653253177132 -0.21109619026394777 0.320497190688562 -0.09461161475820577 -0.34395287874151026 -0.016184497868969697 -0.6824052867447109 -0.6985859182778245 -0.44990581798452584 0.21924419973915554 0.812894168122386 0.22888282139836597 8.181719423731588e-5 0.32733243171039555 0.5084507146164056 0.05537118313394264 -0.3754289376288231 -0.00995940898619949 -0.2770909237886956 0.3441921427625586 0.1838992066104757 0.28453020298590864 0.36840458076443416 -0.28783597827903673 0.9169800992156311 0.17945093485162875 0.11624381404626108 -0.3090321519919394 0.28540512496905934 0.2648701801775695 0.8204106078621497 -0.17314899708829423 0.4336690732258174 0.3124238927493511 0.8051949827359575 0.2203993226036602 -0.007049892143788323 -0.4272034333350327 -0.22566277302283033 0.02085274102926221 -0.20645378744863727 0.018816504416557564 0.21619382161267264 0.7547250051120494 -0.23544011998263725 -0.1617890692000757; -0.12855627897714111 -0.1256088206962111 0.2916336853131253 -0.8829005877973269 -0.09641746787857416 0.14767670516194573 0.013176555926713927 0.378221307963989 0.25231151816238057 0.1539947791662952 -0.6251894546790951 1.0257451698385587 -0.10672902554479169 -0.07371242975752576 -0.0025398025275639295 0.026498145547231598 -0.566263618869579 0.04710943322212193 -0.2682637927474912 -0.45650053726965806 0.2682920213858419 -0.8082218137914025 0.3063855407272466 -0.37591266658724704 0.08545459814753799 0.8936853471054118 -0.05075451652233855 0.09776186980888778 0.23375521173896965 -0.6402517019075691 -0.7794083087197805 -0.594614488154719 -0.6146922827777093 -0.1612918988523706 -0.00017516613150885652 0.3226582558510936 0.21256972225332676 0.029866911004946185 0.12762318724133073 -0.45175992521129243 0.5276771464609061 -0.4187782265911697 -0.5021035092066206 -0.014194329792949 0.006802295177868248 -0.38124296247760453 -0.5761779782321527 0.5074965963419769 -1.3859167012044826 0.02232576169090153 -0.018266823679631044 1.0327870299436952 -0.5920187331666574 -0.12448559899745355 -0.0002658735400187873 -0.7361843278062588 0.7579978803420563 0.06785896477568225 0.034665423564582167 0.5554896631427593 0.3644078059753758 0.008039694216048339 0.006214472711095269 -0.21600077784030638 0.2034062896187795 0.31518609338003795 0.11499544022633486 -0.15635171022571584 0.44240327564319004 0.10549429351528929 -0.23173490646858994 0.2474619986587054 -0.08456201046172487 -0.044220370653503475 0.18639322715586207 0.005135287185254373 0.005606835748248304 0.08546770539544749 -0.2814800905590528 -0.18133559088193626 0.3560547215677049 0.6197146898043246 0.035811561497590676 -0.6167116772171221 -0.04466913184166828 -1.0202902426046614 -1.044077961448828 0.7878420244891468 0.29357504276522156 -0.5973808795225534 0.28004794534685723 -1.4326144313647946 0.19384869827565682 -0.8044656553178732 0.031109136795155354 -0.7582507884145459 -0.4236626237260917 0.01879288109733151 -0.010093419173317004 0.4832797142593781 0.15607231760663587 0.5282008483350774 -0.17249803682399387 0.44676729963163886 0.007204352111959289 -0.5220112386544775 0.5081429858238845 -0.011897722122380763 0.00968259548201814 0.23444440567465216 0.29111985695375864 0.36345578652775823 -0.0030649525351979456 -0.014724398296762142 -0.04246123573536316 0.033317668776699214 -0.7521616640071974 -0.4234161269540081 0.04363237901916174 0.9140611336556125 -0.041424517216550945 -0.853008715631855 0.6928534117975258 0.11832417337111867 -0.7352852977943863 -0.1378376202041198 0.5824618585485949 -0.5701776365375154; -0.16292118110364995 -0.23963308958108312 -0.3879893798462877 -0.1303098817548268 0.08992387776826449 0.8204202238986903 0.04395058933121205 0.5391437381810584 1.2827797721149612 -0.17966899268435968 1.5934072611720909 -0.06066053903551221 -0.029864662728943815 -0.1603133795526094 0.23361621930670562 0.3597178135789212 0.5916481185420007 0.1727602774949444 -0.36869704925278785 0.28379347110252834 0.12178881193763265 -0.4375063045381889 -1.8781924679146087 -0.014713732636226174 0.694146785649484 0.26602371692483595 -0.9516687237540741 0.07338711335299587 -0.3654248777248544 0.41664592236652764 0.11522235056083016 -0.06410653477928864 0.1303776861452936 -0.7336068151468345 -0.11980754837290723 -0.4825591215212131 -0.1205345732718671 -0.011119288706248408 0.6049987125910207 7.665825913537858e-5 -0.0623542721184297 -0.39964970860177523 1.0352199078925848 0.004409232884171482 -0.25507670369376606 -0.32260521168544704 1.484294225955734 -0.002569033503108778 0.2795910206291524 -0.10160523426276762 -0.0439716007679306 -0.3740145228959041 -0.25141984166318215 0.06954725235801908 0.0008534867652316244 0.598263441996997 -0.6731760441894212 0.07486833730053692 -0.11464548501423483 -0.12893411318813067 -0.04906792649182328 -0.4940153337992536 -0.4292079271451178 0.5367475809350335 0.10389468621535973 -0.6726710755114743 -0.8292804702862542 -0.29675922736370786 0.33001477839857013 1.3267774674568125 0.8952788957701537 -0.19297294441823018 0.23109984771182157 0.4882145068084991 0.1530882904446556 0.008567652348953615 -0.03896479458506338 0.26455087725263715 0.6701209241322155 0.27732135032275046 -0.05038043179404926 0.3210716562002003 -0.5099950469267559 0.13852495933689093 -0.767488973180986 0.21186631297448996 -0.01947782045007659 -0.164198256099055 -0.08352739086617816 -1.639174298218344 0.0023262438391758143 0.2527734539369483 -0.16043232115670758 -0.297601044444228 0.2671474320220629 -0.3479108012645018 -0.27285225205186026 -0.32178490724149084 -0.5800597866511014 -0.04014190113101728 0.4538014909974299 -1.2423626476397804 0.42320421041646433 -0.29109492469421305 -0.441649538493161 -0.8660098914100884 0.06664834667926975 0.47058461612706837 -0.10001319571174527 0.19618099520075447 0.08207022392248141 -0.3327975116321101 0.008258144270031223 -0.22669005538247844 -0.00038170930215741767 -0.23175230137555602 -0.5536759479061658 0.0034882845185914323 -0.0823200201520206 0.08038366563968025 0.5349126150986577 -0.11674548955836889 0.4011608930957243 0.21611321545024056 0.1969165913491999 -1.2057270695746198 0.7249656773448092 -0.07931198042943575; -0.1604118400510197 0.039913238602514806 -0.7796808624136419 0.42659654686195697 0.3749512666453467 0.012956874831855049 0.22182478590474608 0.38664159595728487 -0.2563528218817916 0.2341752872134948 -0.05351537108910762 -0.2089994438033342 0.0276163381314144 -0.08947833071390991 -0.1841608889163312 0.34223717268555004 -0.04078928010977919 0.08057980950193153 0.15900995094273618 -0.2039865348916962 0.18065226144303134 0.393305934576341 0.526531253949345 -0.27676168690598146 0.06866728967239498 0.5404360307806086 -0.4190530086952018 -0.00437442684320832 0.16218655574428711 0.24216528369268367 -0.8314662634896746 0.22615302936943488 -0.6842618213099869 -0.7448082816531372 -0.19837489636634856 0.2287602749730692 0.010191675674732892 -0.12423552379289893 0.196716086571565 0.24411508947980895 0.384681299175627 1.1741461841377756 -0.29579584588674496 1.1875515567852533 -0.03661879167390875 -0.48934657248289465 0.6398498182568557 0.30379602607307926 -0.11945819439072868 -0.1563837739918947 -0.605662670920837 0.9853316892335805 -0.1477406918353807 0.9627982572019624 -0.022545073682001503 0.00824701180383783 0.09891915262412747 -0.38798298245675056 -0.6640056161778303 -0.04186684544383239 0.4263114775377783 0.09602070585637937 0.27652376120872935 -0.08826190654317956 -0.24092089552513363 -0.3054473519349729 -0.41948898721599764 -0.622765146263023 -0.6030408654252131 -0.7110189930063547 -0.00994807578539184 -0.019573460145800747 0.2309678543427269 -0.3469955666613017 -0.6586553878962182 0.5197986913148549 -0.19544954553300964 -0.48650695772326324 0.6350323554489721 -0.049454298410767754 -0.008961666952830436 -1.0846140615254907 -0.3265471913457481 -0.29697160384140414 -0.5456845384839495 0.09849999683322003 0.24058436831527705 0.554895714883472 -0.08923598967110283 0.15921581618841468 0.08484374294950726 -0.7018173712208072 -0.18914992866246613 -0.2621201277859792 -0.12791619090541734 -0.16529309096341102 0.49395274338625333 -0.30690628985580726 -0.14308451472649072 -0.5171861029869351 0.6243235080681134 -0.13335267189170763 -0.23170485311163372 0.9900571471971479 -0.009153885755034105 0.3088118450082392 0.47276288384665033 -0.17157590458651467 -0.04840462025510247 0.10342495805181949 0.1308503005102802 -0.26857764499161974 0.1995980419707145 -0.517743140549578 -0.04647421896838765 -0.264176024615138 -0.8831738037783844 0.11734236138673722 -0.15439842555236807 0.4816627756475108 0.2767131524415259 0.44343974088082083 0.10543881283794326 0.9300837635873053 0.4547706720805887 1.016849799677462 0.8901143538984335 -0.17288752560067316; -0.3819237103974849 0.003862408972486102 -0.531504071019077 0.5518595866656577 -0.3413926811150013 0.49856651417101366 -0.051561852381913166 -0.054631256057079504 0.08626331915220949 0.8387734963489129 0.2999790443005523 -0.00928866675158396 0.36822577514229243 -0.21776368626782408 -0.15821183822457469 0.42115381836150845 -0.24432855516483717 0.18898456972071284 0.0014876976183204826 -0.22509826802838812 -0.05180742668330629 -0.0012001579803523265 -1.085787802478093 0.24011389608638167 -0.15436806418485574 0.005189852194874253 -0.0732660449265961 -0.4826784432294602 0.09014809871575089 -0.3954611809915379 0.8881993636018389 -0.007243160393303747 -0.2371561982497072 0.3280597975035106 -0.42309361458002 -0.3852328105131377 0.15868711358948148 0.5005603034199091 -0.7504909264006935 -0.14417770866591534 -0.013270292421236344 -0.012564789163166591 -0.0945032739580301 -0.2296591768908142 -0.23012018513644097 -0.37789073596954165 -0.31822464789319355 0.29925928949607283 -0.2058804035072802 0.03172888849116418 0.5534608105766868 -0.2818536850899508 -0.5382630378501667 0.17222328895384417 -0.005667183348300401 0.0057397801881075225 -0.3946859642094174 -0.5122254035158186 0.08660059976305381 0.5646558542092538 0.009177300556696176 -0.2573458590694839 -0.1507980922439008 -0.1501842780662722 -0.6078854854949239 -0.4861106476136345 -0.44127932087055066 -0.06805289990448618 0.3596304359726444 -0.12812126913031524 0.13326336911664766 0.17737540093905743 -1.3831504164852637 -0.1137708830065941 -0.3452416597890452 0.07677561641600206 0.1995755505966215 -0.48499568495384504 -0.22715492821228866 -0.3076966623591819 0.3014595821883879 0.6186584618866023 -0.3990146018080735 0.07694634555204803 0.7245052036743882 0.10520362257903379 0.9233369807594618 0.011942213642124347 0.09483415131162005 -0.8792841983027027 -0.4283922470853495 0.854270938308712 -0.2157984896808685 -0.003795506212031035 -0.32064272769146607 -0.2910939107132457 -0.32279809169902 -0.5923221836836597 0.2085585502361643 0.02314762549520041 0.12139538312800181 0.2789647647163972 0.10402994037274792 -0.9396278227516406 0.013383988302332069 -0.01164438791879422 0.22483359562536395 -0.04349657363921919 -0.5282270532943653 -0.7800200063167594 -0.4414630966717186 -0.5098870717943654 -0.33695910896449177 0.8716495056239305 -0.1620387985681889 -0.27631290071590087 -0.33253295377084613 -0.008393765562961017 0.31782425179047913 0.3044511466034782 -0.003151353264891452 -0.6044189587351934 -0.08101086741879565 0.7014138527971249 -0.0720069187955574 1.4200434764206116 -0.7224248575213261 0.1780847768491545; 0.505790183887744 0.3154146823312354 0.3829735688538144 0.8863970322300544 0.08784696351697739 0.025895449551062506 -0.03781144376517619 0.4078222134708503 0.791267140413524 0.02062390289006442 0.0849347210795952 -0.004118455479539682 0.08061678645953582 0.39782118617974915 -0.7633033771922692 -0.0506015466421855 -0.083702297291136 0.23339182857310176 0.32425837457417367 -0.01910445679653317 -0.45249299760625195 0.12029495540657348 -0.21424740800305406 0.26312773408814777 0.2449836904671368 0.017718132517197012 0.6273557784370652 -0.05599229575628667 0.5794502252207946 -0.37955704662489764 -0.025593788177287597 -0.33514884731693206 0.5147617616562291 0.5583293898838723 0.00318698858506087 -0.6105572845161092 -0.02824817112262411 -0.2998503341503842 0.17080252770786836 -0.029685379179203403 0.005561356786913494 0.18870520302810975 -0.0035499247679398266 1.829347865853255 0.014084007083910026 -0.1572185948374235 0.7271588742466139 -0.00954065498697388 -0.26304772806788185 -0.38535003736389023 -0.06049348396343886 0.738903077947354 0.34140538432088113 -0.05148293481113753 0.3622804718838445 0.13839582801246153 0.04570839288113284 0.17242148463182733 -0.37705815463906095 0.9045697397479854 0.3329146543793414 0.6003186734461519 0.44741163627224967 0.3756683246091278 0.5763729010887367 -0.37889303894659515 -0.1428440886262345 -0.16786399595805268 -0.0249082683821729 0.013019191509077266 0.5974769290185116 -0.010313680901381387 0.45069069397025624 0.33277529986014787 -0.4334268193317004 0.7273237652136687 -0.3123547409254842 0.026372773056883164 0.5277078374242731 -0.062237593718068834 -0.29592562882855006 -0.6698170955989956 -0.3789134141263993 -0.17247407694332886 0.5899892046588809 -0.8783523718073901 0.34217431049508235 1.433407065908575 0.1327922589130641 -0.06848228018761376 0.05551067566187781 -0.45904077197845905 -0.030255621024554615 0.7128059454733656 0.03107355656828803 -0.0008679853789916929 0.034236716829159256 0.37816661423893344 -0.09582200991156882 -1.2482518703530758 -0.014705327212604376 0.10137988005622019 -0.7203628950710107 -1.2522754894260484 0.21443954102914242 -0.5694098710425247 -0.0857264196743424 -0.09929001245668415 -0.6424319586316785 -0.33113307919715845 0.003382101234940405 -0.013943778212562966 -0.05720966345821328 -0.3365277602213735 0.5405926971008505 0.3556611990489847 -0.07301222323207818 0.2789121820310011 -0.7770948597081745 0.1917334988311191 0.0022408731410531535 -0.11208361366616991 -0.06969668705019957 0.5857659121944582 0.7635811026645418 -0.4080548968447857 0.06735071374399915 0.440545586733946; 0.8751965467675126 0.059554675622371996 0.265940755857156 -0.15013614466728487 -0.4604770929585138 -0.04097472596363925 -0.11650224269321727 0.37707135360239574 0.9015293461363194 -0.011149200290998654 -0.012099439166510063 -0.6889596038619608 -0.3520971567225004 0.2223620843051289 0.29696038138200664 0.27995739475835435 0.12327415428524954 0.6992594569972613 -0.2182007940938908 0.1473526498325824 0.4505112518228452 0.018066998989048105 -0.41604804631438475 -0.4177921769302212 -0.5942148044077993 0.2693788471275247 -0.011656331520017152 0.16553368437537871 0.003378835441913242 -0.40013944369646587 0.3294035692597705 0.9740936128307808 1.725422083964663 -0.007472433279282897 0.7278810415768038 0.013520020630913307 -0.7119729813047277 -0.08458463709064035 -0.22206340641355013 0.015883758843973864 0.8193863168554485 -0.16119476333427787 0.0247960476391257 -0.03882894533585739 0.04945891193432951 -0.6462455569981036 -0.6153182638721464 -0.3753639068037014 0.137291661066392 -0.6444196042644726 0.14245501825277218 -0.3007078011143323 -0.4903959650243181 -0.7333353190344806 -0.14183464557797382 -0.4207601329367184 -0.5932002528412202 -0.29230286012047657 -0.06256703669852867 -0.04426819431268843 0.03552272263835643 0.5381490115783696 0.009740867558062647 -0.05409783235811741 -0.1823977650152233 -0.606131726698723 -0.13314735472372058 0.4031046346634822 -0.7281006965659559 0.6432091210266642 0.2426331144356064 0.09454073103699803 0.2617395193944624 -0.19903035508585057 0.5025090181536229 -0.9813288560009488 -0.39101731168698367 0.7849268881427343 -0.23471061894793702 -0.031944664124366515 0.7566486070451829 -0.302429202179936 0.13742880697822907 0.18630963611306758 -0.1869130963645294 0.7933523524139544 0.44382280535993957 0.016884990980039663 0.46235367224709417 -0.9109987685298195 0.3779158441721683 0.9383900013891233 0.04609858397916703 -0.8463812047183081 0.07252950760848191 -0.26826615886651867 -0.22018239004203385 0.5545464137696247 0.5979044714307301 0.7631141140536506 0.08900145729834955 -0.09104612728866518 -0.00773825914835615 -0.4516333200520295 -0.03751610394562751 0.5677734966160478 -0.018583761995491124 0.2520933023094969 0.3825816340122458 -0.4168064240168551 -1.0876340079533913 0.3024636896899684 -0.1621391466692206 0.004325343010465033 0.20863251894094798 0.08528046431552591 -0.4034117238993398 0.07901653735939689 -0.04762678664066507 -1.0212212243204475 0.5141814826087736 0.4628678025416339 0.5207493257004897 -0.1825188753303892 0.1809644276795197 0.5098502084486046 -1.249786436710288 -0.1574085910190145; 0.31577995639243717 -0.035547921951123926 -0.02843160587021501 0.39976971765052055 0.6517482406953132 -0.0204924558771935 0.4443993466641007 1.2469491380428495 -0.2785883137512821 1.1681258058671826 0.12037311005092616 0.19422921402303872 0.6469297070937813 0.03660806770030168 -0.25094049763375825 0.021651930291053216 -0.009864604967344114 0.019677298030253674 0.4790900346676784 -0.008034779847004321 -0.24678481145072573 -0.26940597215914386 -0.3413013746491197 0.4480852066186786 0.2435091734040438 0.017311925302588085 -0.12004750014365524 0.10712226169554152 0.7300755280120861 0.04297236129806711 0.10404222161237443 -0.07559538236863472 0.676886573894049 0.06038329872034193 -0.4222003435105175 0.15885470758542233 -0.7119469613755447 0.7687291517302426 0.07433782290947831 -0.2766910249173038 0.2997274302839111 -0.1313915547301243 0.9814619411475684 -0.698661043744383 -0.04994829521706078 -0.7563400063774347 0.04858588258614166 0.6977154442665968 -9.638277909262879e-5 0.3446341795251197 0.14852189535798926 -0.711778711563698 0.2419885812834078 0.9188998865103425 -0.007981586010787573 -0.49243075277575893 0.8295693658908261 -1.0210629373562212 -0.214417788837944 -0.2606229733769778 -0.2229911449617289 -1.0712471575123903 -0.30838418245495436 0.14548622072788409 -0.08086377775031363 -0.05840460436576696 0.15770772062676405 0.8741343865221273 0.41594978604829747 0.5631876800558798 0.6215701582991102 0.17007271719194716 -0.22223687041195533 0.5094422122276353 -0.5076104117166359 0.5856004558583164 -0.7691466041258034 0.501604812190135 1.0211909824696914 -0.05404993479512292 0.18493370930548161 0.5119770651747793 0.3582787437730939 0.5039315950511285 0.17617628623312173 -0.0058875923587537494 0.9655835190624691 -0.003891305653074659 -0.12186861358647842 -0.1912923227952713 0.12083776475195843 0.3267520456164438 0.7445278259170879 -0.6380788981186215 -0.28747588718377826 -0.3754854922971226 -0.38912590009306847 0.37431267390986966 -0.8497951427069893 -1.0559490907989941 0.1144605568886043 -0.06265982044290823 -0.4298241554342232 -0.23051922495550728 -1.1178557495594277 0.7001083984198392 -0.19228417178369428 0.600918524166696 -0.31649922937466485 -0.5525295719845519 0.38210584740420206 0.3865427404818929 -0.016335927265940176 0.0016668207933453055 -0.09874836136582457 0.4411227326024785 0.46993292464891584 0.1429698326292115 -0.49350651832134895 0.046420197998145625 0.31527505106857284 -0.07711830512582465 0.4849828421189167 0.08465455303322762 -1.396833914249468 0.16932847325350672 -0.2112880207007993 0.20778890559114593; 0.3228528511203909 -0.10046055711476728 -0.13775648349132003 -0.43735721588413806 0.325313436736869 -0.14364779615917292 0.08259090035879706 -0.42396095678920204 -0.06255396915435564 0.9054503374676025 0.5249401358170341 -0.7528747693233396 -0.5078177217773719 -0.4175559368049004 -0.3441798837101222 0.8089819739988263 0.10337510023113955 -0.1309075749504541 0.8594294472463784 0.24151515245370705 -0.5716902635355947 -0.2859138227078199 -0.6627186694073539 -0.14068742017028138 -0.27165234416121126 -0.07159345109831983 0.03915054466671493 0.21762162797970808 -0.25586617311725424 -0.049905173567907746 0.6957944485509923 -0.16321800630898814 0.7552309645566766 -0.5492837735576658 -0.007846048944413493 0.4528280232949606 -0.013503814173036586 0.06857663026569645 0.02781866861971608 -0.26749834809287937 0.5479063304403907 0.35263422427100233 -0.022412564324500887 -0.7664968045140915 0.13860910631729914 -0.4257550911516719 -0.2660663192620861 -0.036604566480206845 0.29425582207353435 0.39908768701351144 -0.38113319128463014 -0.6261818591464016 0.0286883423155016 -0.13465407323570955 -0.013996986889381812 0.26907693282460443 0.002362955407829416 0.01596193365901482 0.2888828351163835 0.31062867949211953 -0.18098697431167954 0.12852760822020154 -0.5695074843342315 -0.022487533247565167 -0.3355160858784277 -0.11353337431977965 -0.07767271670881423 -0.6389423557876174 0.06269920618244255 -0.6966239893764465 1.0864372122745318 -0.012523954087170164 -0.09151671486324836 -0.0036762377018740274 0.013830062079779272 -0.4206507120558144 0.43493672939688477 0.8322963644574434 -0.26679282929948106 0.678375324440895 0.10638687570174495 -0.35652202116381065 0.23846713204809356 -0.07605536709523077 -0.01645030356999003 0.9096604046521466 0.21522944894840398 0.318546360982812 -0.07278307750702868 -0.2956313597521609 0.21938025979049944 -0.10599646257051908 -0.20692983365936113 0.30484945962350063 -0.652824753408559 0.5128397074756563 0.17777727701682022 -0.047585704830228406 0.46793074146457747 -0.2968892920165471 0.007244670730040567 -0.02734425925682962 0.007122123984923986 -0.3632028441023638 -0.3270376689955082 -0.3360290539036037 -0.5984404845208363 -0.7430047715142414 0.004291708412011236 -0.06467174330723384 0.10541841093887047 -0.5399165842620278 -0.2418399090928837 0.48574283132039947 0.44035244459504663 -0.7446032170036736 -0.27185584388776585 0.3131771399069171 0.4669282442178097 -0.010752004732673704 -0.29425853637393246 -0.11720905767036452 -0.18571765435485663 0.16521333889513512 -0.5538170059604218 0.18151984481085354 -1.2627153137454474 0.1810782383801837; -0.8045583359603301 -0.008828014295212329 0.08209466979625972 -0.1634204340227773 0.9553544399099767 0.6094624226091833 -0.10527481274292426 -0.10672627974041479 -0.003979720606985142 -0.5711663730938306 1.412091706742166 -0.1171280682160612 -0.09697768117315907 -0.21253348336988254 0.1560528942517454 0.16839639989022484 -0.024831161534200598 -0.23078755354016267 0.016915454347210295 0.5719137915206255 0.5398137187301484 -0.00785280463413363 -0.4142749671690733 1.0579026869644146 0.2635639911494807 -0.2461312138127639 -0.4511657663945843 0.2982419952459478 -0.26271544409107794 -0.10537403994449077 0.24079773362946413 1.5424001188755911 1.1250977598732312 0.5686561357614913 -0.45317952984076143 -0.15595003251376402 -0.004816309011834776 0.3925067261491493 0.10050510052191175 0.07117408022132343 -0.5840085069502549 -0.3679894440331504 0.007579749344575977 0.13915554560927512 0.9532135352597291 0.22361071489303364 0.6333263350743163 0.019163001123904413 -0.004826742913703952 0.2170634379225972 0.6642895860675623 -0.3401454440041819 0.7751738527082187 -0.044959919248286 0.2388049673922721 -0.075443835814936 -0.41059831171417843 0.1008859043533324 0.3663301132462875 0.06710052218055303 0.23753234454171157 -0.469467282190329 0.015637679955285977 0.337054851261382 -0.303203862534468 -0.21286946589919845 -0.24472721803804187 0.0011464587449656323 0.4657776526121458 -0.9543161571835339 0.33698509316605135 0.007752899854347138 -0.2583948942476954 0.29474895904844206 0.33226280736387165 0.2002205457421505 0.4441121113001365 0.569960044410347 0.7731538737358185 0.14105615097007457 0.7567870517699665 -0.09593865022950912 -0.4664684377291078 0.07494462382900535 -0.11111104171444011 0.20031101928687464 -0.2786956577309251 0.35053944029170864 -0.49152674084693376 0.7358781574268937 0.005168188929499717 0.019384830941135467 0.006915107772304838 0.5958201053810798 -0.8745684825955482 0.6597429970484684 0.08845355803828084 1.290566601194752 0.416346182538103 -0.1500497138291052 -0.32382415759976246 0.9875299866030819 0.3521485899653562 -0.3553539186154965 -0.03551658708210209 0.4361943620688652 0.20415657210937066 -0.04048177130913296 0.7827575120481464 0.3887925675771499 0.02459811456568851 0.7963258557309649 0.22553034144736014 0.6124800438301311 -0.6395975917535927 0.9252304134221336 0.14449086192540916 -0.5099589304748522 0.07908157298387213 -0.028713050819254314 -0.07929637654510345 0.418207626424687 -0.7197500786092522 0.34501283533978405 0.3500708438916796 -0.03277288566184895 0.008918361412973768 1.7524432124484841; -0.028090026789262586 -0.0719352120117722 -0.27360315272478747 0.07131880094962015 -0.34153390065624134 -0.5441922212246959 -0.12051610764706104 0.6706065499871554 -0.6288971063730193 -0.23501624338040825 0.25289203426088436 0.08820536133789465 0.6680419885577751 0.10269244557900595 0.3842648278563068 -1.625248695735031 0.5429797215502049 -0.3217098546855184 -0.13964240316870088 -0.7416288830948417 0.18498315541267918 -0.26815910624323797 0.8565953468339446 -0.019696543745760006 0.13858445862928537 0.47361259608831496 0.1116544259256033 0.08101348593787717 -0.33958956033353865 -0.012231898129798373 0.5796070638238329 0.49061824299021695 -0.2098197529588241 0.24908155431340456 -0.13823517400925192 -0.28221641984553847 -0.11943749965675729 -0.08780902205954744 -0.4728749370042461 -0.33392051424137814 -0.3727658405554294 0.18915531801249805 0.09902825208916513 -0.8904472510546653 0.3206799895984898 0.22976344698031523 -0.465227461275408 -0.003998157585161448 -0.2661932180674767 -0.2524012908853133 0.2898715946468729 -0.013006581354334693 -0.16807158142769327 -0.07016236024070971 0.5383795184927119 -0.11198189412795252 0.3839226868986234 0.07282137733822597 0.15081143253019208 -0.4537475462602761 0.8763446981603249 -0.04471813376841173 -0.40147382789433594 -0.31436227406809675 -0.18164507538825134 0.39246892464771765 0.5351318232709144 -0.5482765916057547 0.026277142173736303 -0.005638336004933334 -0.30477708059649267 -0.4970145624731635 -0.29842158444613265 0.1824517086178796 -0.675993125821772 0.4022588447770151 -0.14660189893062975 -0.3315394762361444 0.7350295717814359 -0.17009998106800134 -0.9019734008183076 -0.14017357780001646 0.5644857848553457 0.12358908691761505 0.33755026275491046 0.1056799286129918 0.004302596108099674 0.21232543749000782 0.3760099472643947 0.20009613519015493 -0.1183104201138885 0.01666091116519782 -0.19675432117286545 -0.24948087116472187 0.3132312718112044 -0.1813143726352956 -0.1442320351300019 1.150526209295694 0.41044857901015813 0.18701234266689828 -0.22144529476236938 0.04213782486085442 0.1382564381732456 -0.05795978023417089 -0.3137621290336997 0.06797969476322728 -0.16726403154167313 -0.0068602070680465 -0.06670132801126827 -0.1797401459120887 0.506468230236752 -0.8723718026540248 -0.3038809029920162 -0.5743908123901682 0.5907338710866629 -0.00997145008783721 0.49219379671649083 -0.311283232524984 0.17176400770057457 -0.5801624575196204 -0.6527736187357193 0.028117213853814476 -0.1662542946792504 -0.3040606684063624 -0.20980292171444143 -0.0910158840262696 1.1661113651236332 -0.1350697368098748; -0.2579994518996897 0.46403828771234495 0.009133735263571958 0.16777411359776034 -1.1017256669018518 0.5573127422709043 0.5097771926275468 -0.435467187840854 0.4771228401388524 -1.074704027700275 0.4516967180382379 0.190272909504464 0.4137414002339748 0.26919276927981245 -0.048174575366691195 0.11590227800486609 -0.37114195873379247 -0.7820509023049659 -1.1017317187095048 0.010674622538708354 -1.2773077204726817 -0.36701802111609977 0.33353871101155486 0.6226486110066494 0.02469250732431263 1.0810019417275094 0.4255435600153501 0.905210141269219 0.9833724872983844 -0.07989084550211763 -0.3267477009436893 -0.9242624256413986 0.3957380178901925 0.1704665972935163 0.5619290018047111 0.4188341850813084 -0.2114284210077022 -0.6143046988014514 -0.10310900027597267 -1.5220361894277648 -0.09506691819856107 0.01146174871979204 0.3318295449627264 -0.08321062148341977 -0.3053943953060443 -0.005362828954345106 0.015589713826245804 0.8424094089965043 -0.9742868174989218 -0.34995669746514885 -1.0644507680350728 1.1260625526319603 0.13678811964414048 0.12668711409751318 0.22725292699034305 -0.8097666993037415 -0.28184975613548846 0.2589595004057379 0.32966703185303303 -0.5674784805359098 -1.9538764998833562 0.3072151014939897 0.4003257273737327 -0.37919959435502054 -1.1055798277942372 0.6127172765038469 -0.2974049285694559 0.07632016722009127 -0.46722237428541535 -0.16156984170311053 -0.9131006525956505 0.14597973517642504 0.4894593760096064 -0.011421057687405032 0.8587975560158049 0.0010255943716281574 -0.6405284476476457 0.4952386237381681 1.1210201219472302 0.40699837509871295 0.11344956199199321 0.9707382797564098 0.34561817900748143 -0.18783637833199932 0.07951089065552855 -0.058928112811378934 -0.18950464173300674 0.9245927117454829 0.1046257681595452 -1.6413425071795515 0.39459798677104646 0.4204968143195474 -0.5256228768814389 -0.7152665725925452 -0.7132271984995832 0.09215561734589744 0.0320995917977631 -0.1635640032949791 -0.002757434201676631 -1.1021041308627153 -0.4920718798923467 0.5577241840802071 -0.9284765208840247 0.0403015078077661 0.5724715550794666 -0.4175098994249666 0.1462327588639388 0.5897127613322254 -0.47080086586951186 -0.7643615932737191 0.1486123726610116 0.39484943708156933 0.04876965861169204 -0.7488883361092583 -0.3087313829643078 0.2713332599163687 -0.6172623706961171 0.37068919989125676 0.8401536542419895 0.14685111748366173 0.5101918128761175 -0.5136695309373113 -0.07195777980739325 0.45302591863565567 -0.3307113492921261 0.33669323748849583 0.9267069984017001 -0.0182566940322147; 0.030675705963341012 0.598477670978375 -0.10326255055001421 0.24325107986563044 0.21317048062121993 -0.45454128485308454 0.08818424601055097 -0.3687226261759457 0.10790153708557652 0.16558513787868712 -0.9670638336748767 -0.37498363317551997 -0.06265105923596982 0.1622555978518552 0.2991858370913433 0.09461417939089796 -0.692639289791261 0.17024754369424272 -0.6009606494928748 -0.7656059478141526 -0.017781312940250035 0.04337800936855126 -0.4177004208516162 0.015358924218107636 -0.6266694707572182 -0.12137004461620711 0.639858093444411 0.5115151598270407 0.6939308089014806 0.0013668112127237727 -0.03799548582267728 -1.1155367986539437 1.2907154787847852 -0.3360935333541377 0.0897896407331269 0.07767139422840658 -0.17685857981110786 -0.5946146862378603 0.07905231502530764 0.5498482365385249 -0.015944597836558824 -0.39725152111250833 0.27213863956165935 -0.5910726450225836 0.018462024064356975 0.5292454026617158 0.04173412275315262 -0.02740775292584269 -0.3576953733124683 0.05012372728317037 -0.5143525620148515 0.9985529276850059 -0.795707962381544 -0.3426746456700259 0.3880749553394895 0.4439716543416859 -0.7782314007340012 -0.4939895963372105 -0.11329431959620986 -0.0113284546393936 0.040012127920022886 0.04071211119954187 0.4024026049848996 0.7933868473487822 0.3403154597354109 -0.35794371806467146 0.2546747402937572 0.37422830824559994 0.0034141208686254178 -0.34580905605823203 0.0002952716291070841 0.2780175091708107 0.04554119603219822 -0.2865557960751543 -0.8725006567575323 0.37971297838593376 0.04349440060642695 0.06928166281252164 -0.268179938498688 -0.017046175943923294 -0.0007232272276587079 -0.2039826217219152 -0.17462842588182792 -0.22265484847461947 0.00013899340387754785 -0.21965402413082838 -1.09245095038186 0.17105900585117653 -0.05680938990390695 -0.6903279968752294 0.5040001140337044 0.29627789450746383 0.0026558345448492674 -0.5218291313292261 -0.5913461595466201 0.26862007734184434 0.00663744883455211 -0.8104218293869478 -0.601914990499378 -1.5227243749111525 0.11378459882143117 -0.016810315731018165 -0.28169846074507665 -0.34088655596824846 -0.11469545715248165 -0.4119589715913009 -0.20222845970193554 0.23694694343109926 -0.2958522284180461 0.5717008785798348 0.008915115313554373 -0.010772225404576423 0.37986294535744736 -0.42342939076496267 0.07288295922878638 0.33724650419503505 0.06419489327105263 -0.1987999131487012 -0.3842577426203812 -1.133858458043739 0.36482284005223103 -0.32928761114415916 0.21145633320096693 0.4119671286377239 -0.23602220582575703 -0.7728117751291604 0.37073537631873216 -0.1408041171929545; 0.43771129407792697 0.49460018588099064 -0.6052375070322789 -0.07089531319420518 -0.05868239483062224 -0.3753653173438602 0.47384508223505023 -0.44741766506106095 -0.5758751545355971 -0.3944671501365151 -0.6002760430129876 0.37635135711550843 -0.2396713706079452 0.1212094236377345 0.07977012099798858 -0.018810668761463895 -0.027846458890387966 0.43942399785899855 0.05961096887041212 -0.11441453861470603 0.26044534004974534 0.5861673759370526 -0.1671723318408628 -0.06842886401206731 0.831307310814636 -0.7992478657492315 -0.09627536776985932 0.5024488294572691 -0.03990577941077544 0.6520312215182337 -0.10819036069465465 -0.1635244873715777 -0.7469361726378395 0.14604203249538572 0.4867101738492294 0.3379801991439247 0.07983049604196961 0.44282993833279866 0.8468839145071484 0.0019537622705467334 -0.14191826556606488 -0.4846702183645987 0.2675588421561819 -1.1055769621332177 0.42990362955397876 0.14850935712533328 -0.3909915625836553 -0.05143902109034015 -0.02339829276675807 -0.23614784216741286 0.9600349832700854 0.06966710610774844 -0.35274941589319236 0.26870638628075216 0.13149447047826068 -0.005791276985673185 -0.5179543832193472 -0.2759413512771186 -0.413022589020384 0.20115769286866667 -0.46212040109454555 0.18007688241766762 -0.0030864104612930076 0.3866277064110461 0.10075965198054536 -0.4872073545009416 -0.13980796115973512 -1.025882236744263 0.3998931364212952 0.3605891694682561 0.17714782478880314 0.6571999174532893 -0.4233298912571801 0.006188641130305125 0.03135302329072394 -0.11550655933441417 -0.20325962759342078 0.396784009857253 -0.2219732785824974 -0.3330348399224981 -0.4072585255390038 -0.01494311261358276 0.8191736834424587 -0.04740680328264662 0.4626630667185259 0.0009271182484060182 0.25854648534546115 -0.4647867304175295 -0.004705061110506917 0.11827362637034224 -0.12969309622716907 -0.05731607229585039 -0.014105842713834587 0.3085375993120536 -0.0221435824654426 -0.6276368428436007 0.16824202002675137 0.23883631045557074 0.20921006170691966 -1.2702371307347669 0.5389224544148213 -0.6419586065764059 -0.2691945716496778 0.0003431421644683267 0.18773899669423794 -0.044068184244924494 -1.149286126194833 0.15620516675346097 0.2535793926506368 -0.3463857576301209 0.011935015838929374 -0.39755278882591677 0.020849678654985278 0.021876944796037846 0.3925100169081201 0.06501522892297194 0.4431325736648219 0.40048338279458323 -0.02838625322148535 0.41603006541717086 0.40224037741399576 0.2659178243384623 -0.06680373764476191 -0.6977319575541271 -0.5070727188578625 0.5809060531169292 -0.4311976432826997 0.2715851381452124; -0.2103710427485142 -0.06497775659048265 0.5279457672624923 -0.030717186329259457 0.1294026781466631 0.9313959791478791 -0.14551974486404268 0.2957726066416946 -0.13159869439231256 -0.7179502395374383 -0.5678304114830613 0.38095506700677473 0.7253614270651183 -1.046041504767485 0.4363786338412749 0.5209890865495778 -0.006861563223606228 -0.14414122467452142 -0.1314123335540312 -0.041779691803487985 0.268363041685337 -0.2925615607064009 -0.5144499937965732 -0.6142856662756753 -0.7210725332675949 0.9394673796033143 0.5951593698190503 -0.38529362895343283 -0.6375859543251754 0.39296603345053016 0.09345808123814285 -0.6384777785735036 0.29668462535581636 -0.14520536867932984 0.013785989402249064 -0.0849129904306247 0.6414706513093551 -0.4854010032668771 -0.5953173289465509 -0.12654888769295194 0.04986045882458299 0.15183050800826797 0.33578947218531524 0.15046877120630367 0.18135001406230095 0.014512526490000984 -0.4007541512349268 0.444317059753679 -0.3738844648491094 -0.7369667046161047 -0.17042918266866558 -0.3956640544820137 0.3130166664732362 -0.5963543202090876 0.0005081795363701908 -0.4437599738267416 0.026064901117234453 -0.07982136909025207 -0.35504794372369614 0.5786838685895256 -0.44762006761142903 0.08336477060123347 -0.6514974747130391 0.6720014766432715 -0.14042097044470955 0.5947035311763962 0.016165748275956574 -0.42768589089600123 -0.2802329024591107 -1.0268982189258102 0.4240239753293476 -0.02730542251144192 -0.9984284421544687 0.5607798050543891 -0.07719963495772711 0.10113560009303818 0.014044675164238452 0.09697911827422209 -0.8049500792671652 0.21613810824116025 -0.11931919065136314 -0.35797567158762716 0.39852143776588533 1.0218307740971313 -0.36400369191354265 -0.04160119645260114 0.0737218671342859 0.9717476434782958 -0.07075272642487414 0.5446061838586219 0.05289604459803332 -0.16245067271545713 0.25533454670331895 0.3386312360771071 -0.015473721712305245 0.035705371428947835 0.047151394376075094 0.37019376207783006 0.14484001667607616 0.2626133235607815 0.2160878717317375 0.08717614949493994 0.5625233966862412 -0.728986266835049 0.04501833681493935 -0.14544315387300089 0.366921812878758 -0.2984020329373642 0.30033205771227306 0.3799976187682893 0.045905282945075704 -0.32449056583940683 -0.08014443745598888 -0.5076759653022449 -0.21803692986457363 0.13256746365275823 1.1374502763926522 -0.1468068395893952 0.10623389894690277 0.19447255294173235 0.27749157506988986 0.32438400248644705 -0.9968465597242341 -0.1475779034087283 0.25992931973330313 -0.27893320577414793 0.009288318977356122 0.11919779513101786; -0.8026963852877427 0.5261952601183856 -0.8734917477131761 0.7994785427576784 0.28097912770492484 -0.03182199316009579 0.01760035035211372 0.5428877789679978 0.20704337392064553 0.05842122572398262 0.1636014837070765 -0.24395090975306172 -0.23623039020993783 -0.023577336692080206 -0.6383102339721122 0.5251162036510663 -0.18994855871924196 0.5364338998455871 -0.531747141072241 -0.6992830498966246 -0.9138803771530748 -0.6053398931357828 0.826215363834614 -0.007623884613426226 0.9258605135497218 0.008287494981743351 0.014237263164843751 -0.6656567538873324 0.4083822795907732 -0.37844378913051757 0.7463617683814022 0.1772487404591218 0.7450755255018803 -0.35853425673519107 0.0009483353170287392 0.040769320776715044 0.7624815055522015 -0.4430048420347415 -0.26497076743540343 0.2472134416614959 0.3343076101708688 0.20647327922840955 0.0769554649383139 -0.4766281668057075 0.24538496226199769 -0.3480198482668449 0.40620760273986506 -0.08024825809993828 0.09773822064235298 -0.07360115900081447 -0.4337625349028177 -0.5458991958175587 -0.11051563420380209 0.011186510861726668 0.08105492224177357 0.3452098413843242 -0.7879417257368165 -0.32607547344450444 -0.1724438314448512 0.0019819258451940864 0.1504422661238941 -0.09598172883821984 -0.08633132582437368 -0.14713771282952337 -0.3635247832643688 0.25921125112133325 0.020593708805669218 0.25283832319280763 0.4030602215914997 -0.5554976657545286 -0.7270478804481665 -0.32879334541544897 -0.0018925193877161275 0.3559707620721802 -0.27227108551518225 -0.2624994753347073 -0.3412737604249329 0.3920533415309096 -0.548585215001716 -0.44359562714987993 -0.6678443164928078 -0.26362338184823014 0.39451271918349706 -0.5915969080758531 -0.2855246735673199 1.360270299119687 -0.03177722613907048 -0.005956941122241491 0.8651198616755624 1.0905135716117589 0.24562505849683453 0.6817017458874437 -0.1369648804335682 0.34853388291470644 0.47713657587458197 -0.679432238246476 0.36640480788999824 -0.3863716928175549 0.0769711666897548 -0.035025993658364084 0.6595500752976703 0.7740717884913223 0.021120438111414435 1.0176491335090143 0.10900462948152832 0.2828619362756582 0.8250325348670505 -0.009666036646739045 -0.02716865224982571 -0.4967626113925625 0.7377492217248364 0.034377540443740286 0.00837130559045945 0.28974370443686354 0.16050242768549963 -0.19057145529644548 -0.005621226730635252 0.6075463258701197 -0.06947937840518838 0.024096472043954147 0.3189535356656553 0.618346834377727 -0.4759426376702843 -0.10889919250717021 -0.18289845480664527 0.011540346376954448 -0.412163225824432 0.21000248375881855; -0.3925638019825134 -0.14343194442879942 0.0017873376281213205 -0.3182696909583807 0.6020289055894584 0.08950271195317216 0.3046018308045819 -0.006595593491500942 1.5482509857747775 -0.31620485921302793 0.0933117224340575 -0.6115861095440388 -1.2333611794906276 0.3610241225167833 0.7058896790389528 -0.41288687583374983 0.2895321685555272 -6.123056480952815e-5 -0.3872179223900333 -0.10677780589197249 -0.2851402495874305 0.6812823330428366 0.4413693109709768 0.049744390082248784 0.290314060844805 0.32279067443730297 -0.05067282477895194 -0.7374315282020456 -0.402568640571035 -0.5272770115795791 -0.11870166149012466 -0.1247356864521009 -1.4626087514579684 -0.10815252055987357 0.6232528849488885 0.15973304450798612 0.1171477742725852 -0.3084345353243267 -0.01214160507940495 0.06168356810001928 0.041524145763628825 0.5740582956139404 -0.27085298771956806 -0.6746290656774129 0.06190415741609347 0.31863359342645725 -1.099114575024333 0.34171197761039335 -0.34562692561122305 0.33659334438072774 -0.15040412233698117 1.3486122950345754 0.32029626481338536 -0.07846747300244894 0.4858684819079132 0.9219151601496387 0.01307954017253608 0.022193593885114268 0.45041664339467563 0.051664789925539266 0.3968341133470879 -0.9016319364247163 0.47446601004580696 0.08332247420317027 0.794732513392793 -0.18005818027927928 0.2501449998861572 -0.06965686647394465 -0.40251834577827456 -0.24639771111272846 -0.13818699074666485 0.718396567597004 -0.8060261116134726 -0.12228951077405217 0.3730531716880415 0.7363498054561382 0.16976616741466624 -0.7216349405070375 0.2029667816838203 -0.047967905665009726 -0.4667671796546124 -0.05960460635898538 -0.0663866232226904 0.48249190470793074 0.46735162399602287 -0.5668949948158412 0.555081173511034 -0.12453152981112538 -0.5050341426672045 -0.7929477947858712 -0.20950017913914334 -0.17132347608794332 0.3576753401490705 0.24339548622579008 0.32037977428781894 0.25712372812050444 0.1247522067982786 0.560163742775699 -1.009387207567028 -0.9392231186231661 -0.8406903076826452 -0.49404375379148185 0.755337483814552 0.2853082164862265 -0.6340379680480411 0.517295919180871 0.43927717023510204 -0.1998253302579476 -1.1157162132852179 0.41757871674719294 0.1284552092529736 0.23215037732070778 0.029674073513269558 0.49066777393148364 -0.19381639954888127 0.020577766407357936 -0.6924166540533796 0.5726100951685249 0.4176040232133588 0.3163271798329246 -0.1684071470060498 0.25076490119083544 0.14131793522833702 0.06738152615641771 -0.20214560846399104 -0.6133546830875902 -0.9575212087466842 -0.2947252699116497; -0.01730301526051542 0.0894817468137286 0.8084854534166583 -0.5414941029540316 -0.7790112299410856 0.12655620482026772 0.4848477927604698 -1.259364934154949 -0.024415123646340256 -0.004239227304519769 -0.24917018603831323 0.5986935371575769 0.5381775593538654 0.563665874391047 -0.15580739163812116 -0.41591661912514494 -1.0727595365031006 0.2788131087260361 0.4221980222809669 -0.11573445074199325 -0.058803761940695004 0.34780711438535716 -0.5565451678409649 0.05073294863771854 -0.05249705649087144 0.04275089743464148 1.5967638450989592 0.33243815668741983 -0.5105030281433185 -0.0855278708773294 -0.15942003966516732 0.5041657276381463 -0.63596363950544 0.33870469204369286 -0.2962315438254906 -0.01350072043350361 -0.007248322507978979 -0.007251295791270129 0.0780298589734966 0.4065881589413908 -0.39641895974230934 -0.0029196731210469166 0.6162164812623802 -0.27849180190609424 0.3690086362036842 0.13015891097212606 -1.08441380429748 0.6136715408210135 -0.052749360470346056 -0.7226910136334281 0.7067322175199144 0.0017397773294603321 -0.42178134850265997 -0.38717010192146484 0.0018381951415455385 -0.1252327730565391 -0.736178766831191 -0.32297898542792874 0.2162170197137495 0.23283620313984302 -0.12429050706864708 0.7497823219768005 -0.4357422127896886 0.6809382410859255 -0.8420113584639375 0.9225012591807303 -0.359389188224977 -0.16442331262894774 0.49567821952085434 -0.22172702388221516 0.5269931225722371 0.2943635247696562 -0.1754560212245932 0.36228516045268083 -0.5340062562090618 -0.68703853327759 0.18151808919437382 -0.4297217572632284 -0.6003543149210243 0.9537107522365132 0.003018417953570856 -0.459163630617742 0.25883131119193253 -0.5613633116330305 -0.7086320567708071 -0.6718517830498185 -0.08741780342578401 -0.20048299726431879 -0.388327166378699 0.15327597850490532 0.5629189911188356 -0.3082837018435242 -0.5281104857028028 -0.8602664362733174 1.4163845395960615 -0.18263847334592553 0.7377494856216964 0.9346372589712394 0.3391068865912777 -0.0027229916329612257 0.12535839054954662 -0.03413094519080471 0.8290074490163496 -0.3844077874491644 0.3180211755028305 -0.07215727076383109 -0.4618433227886874 -0.7880575963370553 -1.4009488833813963 0.40633377333281495 0.41440837957150606 0.03553602977616901 