CenteredRBM{Binary{1, Matrix{Float64}}, Binary{1, Matrix{Float64}}, Matrix{Float64}, Vector{Float64}, Vector{Float64}}(Binary{1, Matrix{Float64}}([0.17703558577973114 0.07783417399226597 0.08058984534071655 0.200353127881037 -0.2533907861725379 0.17376353677183023 -0.3790966479273195 0.9357473014918046 -0.051542463023223545 -1.6629208825135837 -1.183607556816317 1.7600548968995644 0.625958481184516 -0.6213515777903392 0.5833006123223295 0.1967729739733013 2.633395749010328 -0.3090033172834716 -0.09526963262392252 -0.022488892911745023 -0.10908452647195073 -0.23777773079802478 -0.08814988595766315 -0.22825069962473557 0.33555433253967526 0.6731743153329275 -0.8197492046137042 0.6205482283926034 -0.008120299924466754 1.6941182625833084 1.8158515831001225 -0.05808351262002159 -0.04428026087226035 1.1872425314422987 -1.076994830616528 -1.1723938432661578 -0.2911094507607004 0.23873755667243565 4.230553034426622 -0.19920056881593992 0.22556900606280567 -4.104401194299579 -0.5884105305947768 -0.6102072283665445 0.15638806020115462 -0.19247084585662672 0.24031287469907342 0.22819485834762304 0.7991580042442471 -0.012248162288781082 0.43445054654887394 -0.5066058253777462 0.03352804537710623 0.5364647608624796 0.42588847689925163 -0.4144131303133817 -0.5270517989838515 0.5801594690343813 1.8867155238772668 -2.1138768612696137 -0.22209898453311053 0.47564944341024434 -0.6059833678876039 -0.3430671636713984]), Binary{1, Matrix{Float64}}([-0.7691960453748743 -1.74896313320479 0.8192338047576686 -0.6743663723924344 0.6248022129294211 0.5877423775089403 0.34193323489944816 -0.9636240091005533 -0.1578914128103401 -0.05430438042002937 0.1515890685066756 0.23598560883142855 -0.01856407398892643 0.6073659996222865 -0.6385969697515174 0.736421872267986 -0.13960283864812045 -1.636617472066231 -1.3103610035484037 1.225378231721595 -3.122078939561489 1.960483401207169 2.41254214625368 2.2969507040789043 0.21028514764853357 -1.0147253643810503 0.8405241982968072 0.8069589957970505 -2.6636311273843303 2.7959646111888077 -0.49378198064740236 -0.7223241887064025]), [-0.9317815351971686 -1.681819516962384 -0.7446423641193968 0.9284319392113086 0.1372281705017487 0.8939902091036156 -0.9580424668946275 -0.09566514220782991 0.0011359571041505106 -1.165489115223462 -0.3954349284302214 1.0637246596610557 0.6904320525280119 -0.23717541997049146 0.4098852345791219 0.4416383754152721 -0.6457703929695993 -0.5107003348844041 -0.3326867568040134 -0.24722271279016728 -0.0010318659930994372 -1.051231799345162 0.07151601793317376 -0.21651818306599477 0.4083624094989644 1.543744030801577 -0.049351599668686984 -0.7958199172657866 -0.14650713840368373 0.0020232839532372767 0.5841680583383171 0.09059125389780964; -0.5521805633761928 2.419793575832884 0.49220358469744974 -0.2626111298712106 0.43816393639929724 -0.557980970285749 -1.2947663111894887 0.9843031515359445 -1.164266174545197 -0.11598301003141633 1.0863217408765127 0.911570650224909 -0.022333141614502408 2.6224012504683767 -1.2148187838656748 -0.9037555675977278 -1.5897691659928708 1.0060173794785214 -0.20242244818442953 -0.51828348092332 -0.5050142919506699 0.28355752819030533 -0.7828622969877508 -1.5178429642639966 -0.9548817801750519 1.8410550011705753 0.39052121690218694 -1.0676104161635165 -1.6790248416217917 0.007179122184425955 -0.7670806993303492 -0.013944365446463257; 0.7903182542217563 -0.6567567450076894 -1.72428793775249 -1.075411549076695 -1.409811753834057 -0.5048587473847568 -0.14671966173520407 0.11689791380006405 -0.2507448858888105 0.36350262391511884 0.20943168832775302 0.38295721958229145 -1.1154815184134341 0.6396856788424159 -2.038070042816383 -0.46976585336648197 0.009842200352217279 -0.5657340240813932 -0.06755408184533439 0.0015904943405665177 1.1243733332205574 -0.9064839809445195 1.2650343535204591 -1.7281687748306558 -1.2509076631336142 0.7027243954936203 0.0026691456114776254 1.4588195410567573 -2.182232691758397 -0.012526576895785792 0.766352536269418 -1.04362827677336; 0.9846928355395645 -0.31651245295181035 0.2672366271877007 -0.9960358523975441 -0.9985895510978444 -5.408207766815158 -0.20590144135761912 0.21532062694777868 2.2812191112635474 0.6319378231208512 -0.22277434340370525 -0.5534322963527532 -0.46101729861326884 0.20838727750407432 0.5401666863773332 -2.3190314500979095 -0.5804940460363869 0.4254535947629563 -0.02633829692159064 0.8927178889777153 -0.5435299166213696 -2.055313782789832 0.5556239345191963 0.019552937189383952 0.003812226418587323 -2.315584797617771 0.37469650991446174 -1.193068062714237 -0.7033982098642584 1.0481184510251493 1.5660283952055563 -0.7357602860148977; -2.041812406114979 1.8673926585694776 0.4456079383086611 -1.3189148107583004 -0.5845495307163572 0.3179598204458237 0.28694082707124435 0.6473665828794917 0.1736998981244142 0.749582481652013 0.99997950877131 -0.9420126955797722 -0.929568447966711 -0.36090420992743655 0.364830962338602 -0.11272153935259666 0.31473860936200476 -1.5801077386934137 0.023273690394165932 0.27438388016313414 0.5254003703465793 0.1738269891349174 2.2295299503576738 -0.8293407477536187 -0.8167324114094922 -1.378786644187228 0.849313055713336 -1.372161654177815 -1.397996179340866 0.0053876534831670654 -0.8285574025261079 -1.280717946786416; 0.06992187403202951 -1.0645102113984894 0.004173271601394411 -0.12091858196321591 0.6974818660178151 1.4325925265649697 -0.6759309129366211 0.7952485819752758 0.06597596169436518 -0.0022582545101207125 0.38913788433080654 1.2357828027832412 -0.25298851980395215 0.9898424099510847 -0.34428217076762646 0.0017462225700181505 0.45216438690466576 -0.00016483221468812715 0.7264406426133084 1.2570722076527834 -0.28559539754364677 -1.0258379031942406 -0.8916869664111746 0.3761368909987339 -0.4839635434684534 0.21978522905510836 -1.2748026290106746 -0.3418532625443881 0.029915921561063673 1.0366876658450592 1.696891748551979 -0.8554273303235571; -0.7703278972864291 1.4835336395282563 -0.40136405359661026 0.33849233999625916 0.2843601998478347 -0.02111027432770276 -0.06524871071432618 -0.5394980238305042 0.8655499378489157 -0.19871250155535755 0.7539627953268484 -0.6053408769355805 -1.4077342835813393 0.5978542406098113 0.49502727345294484 0.8701395526964003 -0.20466108033750857 0.6555355494456502 -0.005743418843926863 -0.003890602305085852 0.9011889052545532 0.23568133272605163 0.5195100156651319 -0.6467745915575361 1.075931416360619 0.01933360805953698 0.35428109876285835 0.65720311934539 -0.0008106825969054485 -0.0012782452910030738 1.2693768563098724 2.253003656278494; 0.7994842015997712 -1.2098369582988857 -0.5373762526851217 0.04139094632016478 -0.7187074103096671 -0.6643898652441459 -1.9204556853970884 -0.8852155395008539 -1.2325685666855775 -0.45112378312210377 0.0033164715168279334 -0.11962134604707657 -0.34054703904017863 -1.0639814227318212 0.09719602551745728 0.2821901367000943 -1.7891215684844364 -0.0015327629476342274 0.8786190682387056 -0.9282377337363875 -0.22056671831219463 0.48196732280051285 -1.0371312116676517 1.5609186915336646 1.851704819774456 0.526589821173062 -0.42709347339285775 0.03890009642287273 -0.8233571203975752 -0.17103802919941644 0.36616940834432243 0.6583172989651588; 0.08739673675707296 -0.2959534630773738 -0.010820725043777705 0.32369382373224054 -0.6835599329161626 -0.9487072559420879 -1.6860964098625548 -0.9515449415915099 0.06207620674399857 1.297294309177702 0.08762064173374375 -0.5429913129540452 -0.6021769559638211 0.5469914461209502 -1.3154263461725448 -0.1479353862433709 -0.022021015162352515 0.6096681940214683 -0.8372749662367935 0.7548850923894489 0.47481481345702725 -0.0051992904138901475 -0.11019084196206028 0.8252454919678873 0.101951355818666 -0.903822101558984 0.27586873771449316 0.7141504696633615 0.28502222569626934 0.5692892148237296 0.0033950359997302593 1.0751153896966799; -0.7287160539110474 0.0007558641538148966 -1.1150989994972054 -0.3666927776056425 -1.0470895940138454 -1.5701588657992396 -0.5729943479924701 -0.6598749513809054 0.04854515801061423 -0.21486917417809737 -2.4781365325530778 0.7468738495377512 -1.7930469616907025 0.5205174907617768 -0.8441613022019938 -0.8326584352960744 0.28856397902422987 -0.0019496825706058762 -0.6121194553559403 -0.17008944571330933 -2.708929129644037 0.9898030041187705 -0.008725882344718782 -2.199797018736274 -0.6612796298354512 1.4919988671498172 1.1303289022009375 0.47262031385764586 1.1496578801345056 1.3036639718637633 -2.841709809702963 -0.7198103970778243; 0.6482756821888365 0.00657612480093497 0.011894694766819364 0.43391266612036145 0.060731690693161686 0.479435292016244 -0.2536724050751675 -2.5420532448840216 0.425745705334186 0.8851071182499088 0.7496881034243981 0.5174677564250243 -1.432167644780504 -0.15197714207813687 -0.1952135958681046 -0.018786579433960383 0.9527692318209915 0.2939791710147736 0.005792962808590373 0.2749298681819754 0.004145089506612894 -0.002818518147068292 0.07331224479520253 0.17357120615772723 -0.06049212534487782 0.02541867940114929 -0.6923245813285129 -0.11016575312113448 0.04795846602588629 0.09575422620249693 0.40430068443210565 0.009880437000797207; 2.121149302652182 -1.6797942474993182 0.5856710281464016 0.009458787430204604 0.22281412090618033 0.6126274871589054 1.3102202081906484 -0.3941804278279445 -0.4591326130230178 0.07607778966484316 -0.008619581257560462 -0.5233546778035603 -0.18168375274408108 0.31430885538460446 1.2251668742106856 0.01893729958054112 -1.2613850080450508 2.1256179673706392 -0.3317795565810607 -0.24085869841771673 0.001920330967055872 -0.9431113034666078 2.1845741916598542 -0.30446239412797965 1.580750479543551 -1.7615088166401862 0.4938868313908806 2.2997103903327742 -1.4591173121633534 0.07911809624962104 -0.19352712995655594 -0.00043679947960534896; -1.5904253397264252 1.1978737618227144 -1.4124087529831053 3.5617428961694753 -0.6421910827414472 -1.0400792037653794 1.420007356206548 -1.6296494709852463 -2.0830509328636113 -0.2505728573656818 0.1363835640795879 0.5982204688638819 0.6170593226109398 -0.9104579131275303 2.266029540705165 -2.094651738771541 0.17050099004433591 0.0015723789473250022 -0.7621318374891896 1.2971047252529346 0.14808474778143987 0.5535197486223055 1.514209356480233 -0.5955336901370765 -0.515488579826134 -1.077008361274272 0.2731954139571931 1.6519576635593032 -0.23792892865049617 0.7660731337179143 -1.6030294848198134 -0.1110615872013533; -0.22759800431487645 -0.7296867588560618 1.0503120437657045 -1.3021746453584233 0.7565612730487623 -0.44430366678515076 1.6557229437850152 -0.31680932248333876 -1.2295663858733878 -0.8282941511313008 -2.3051674314993558 -0.07957682946157177 0.5152413805325613 -0.007934052381098759 -3.662314577896787 -2.63079151644995 0.32977970277436125 0.6227692452242578 -0.006903531591391321 0.9907464598005913 -0.5223647132414265 -0.3685478917005194 -0.7777012493591166 -0.214044481370418 -0.44108547753472455 0.029520596736706657 1.1587971734703453 0.644384490616873 0.4746817069794655 0.7815087049442384 -0.19610740882643074 0.0023788203106115797; -0.986592458359749 -0.7636937816893187 0.02767023337256578 -1.486889525412829 -0.8608026872198703 0.310271677686889 -0.31977429814667085 -1.7750742135879791 0.32367706334435453 0.7010437104018447 -0.5993482130554791 1.3147631277335876 -0.2592186993813052 1.5168935761675546 -0.44143894054277016 1.383164164073041 -0.019354069608504342 -0.3152649421441414 0.4972347639184618 0.10650850627386498 3.239124309406518 -0.633843469885531 -0.06424987140181045 0.5199364894404455 -0.9511260104303879 -1.1435850072913736 1.901305959723902 -0.34150978436976687 -1.067108633509389 1.5445352615731047 -1.256083114207471 0.9041750650955374; 0.8698937497223718 -0.4692729590302593 0.32990028749501343 0.32590846041591165 -0.06526136982175457 0.39692600515770915 -0.191688498833895 -0.05279171920043243 0.5248691527340252 -1.1513772027755873 -0.0038162407569457294 -1.9690282176510068 -0.7819179284121087 0.4998497706245627 -0.15871995998189048 -1.06297112194059 0.2622122000415459 1.0488992245355273 -0.0008807420713734726 1.2813861473862922 0.8829949394576851 0.5378176803031118 -1.0185017267613752 1.3455305230615804 -0.9294686885378375 0.705689853926805 0.5154930443457425 -0.17868193510017874 1.7602908836197806 1.4990809837685366 0.10032203418107655 -0.16012486329088924; -0.004212607380390899 -1.3465165708598148 0.7225304032119159 -0.9513439015924149 0.978056484356261 -1.3462873566904492 1.580519777093331 -0.2464390742173539 -2.8022845964378873 -0.027164883195232706 0.8421253068148564 0.1247675183535635 -1.2255413532728294 -2.118816169464247 0.4627915922539752 -1.154003230793254 -3.1665826975525317 -0.36209041278177423 0.1570557416778728 3.448686235381306 -0.3984913844654017 -0.32482280829073157 1.610272603532461 1.010875723367779 -0.2510230222798819 0.8055752545646772 -0.19894092351925166 -2.702190253934225 1.7160770583256073 -0.04149898935565592 -0.8527659006453129 0.6327879445886192; -0.7687335250833006 -0.09664801031400402 0.16932041484613403 -0.03375148287313322 -1.9840890311104695 -0.36409240285943134 -0.05753600497479287 0.0009023315203885169 0.0478563488040979 0.854299792507905 0.5571875148478639 -0.9253666971072564 1.1399957334850146 0.040545093510946886 -0.012711473988683861 0.7646060557944506 2.1669727834731165 -0.04964936064392887 -1.209945197178647 -0.005264909459700567 0.0944383259314283 0.9419308125016416 -1.9805142056023202 0.0005022027372630144 0.3913855104026434 1.6590666948633022 1.7904005512225938 0.8368203892928303 -0.9233759147150451 0.0056823824708542746 0.29814253644101996 1.27645884019972; 0.6191712886257853 0.3138740771266645 -0.6478851648412173 0.03461687038668123 -0.6759234389871688 2.34197230938117 -0.004356003469566252 -0.2680963568281054 -0.06546182955787228 0.17776974454693972 2.292512922072381 -0.1964596235837349 0.1176599345160641 0.2668545121822571 1.038556058136718 -0.9739760854728822 0.13782780152905802 0.33011513879478094 0.3011506411656047 0.20036340193311247 -0.1851058731433291 -0.7812765699817661 1.566985993904928 -0.9604965298547837 -1.0300063450502372 -1.426833572399055 2.181166017352165 0.2510989874335577 -8.93567468966485e-5 0.406197431600353 -0.2822350423927348 -0.6852935099730963; 0.3690388929862936 0.13786009055902293 -0.4621013763054365 -0.4845787730466838 -0.8670973490799722 0.02404950207560494 1.5583944572413881 -0.40140573831999676 -0.25768890306446834 0.664751011284734 -0.27879361149608606 -1.5144622309625309 -0.1381503287009779 0.0708762806791192 -1.047572227091068 1.6894321408614872 0.11891564962050247 -0.10734749565300272 -1.09862048104179 -0.3579588479585153 0.39110627930700104 0.5164644573065252 -0.2123318499837587 -0.7682251873693554 -0.1793703453231284 0.007981918567818835 -1.202265783302171 0.3608674593009322 -0.0038043185300685083 1.5008716848878594 0.5995071951485473 0.19869994015794906; 1.120705363633535 -0.7119243453152969 -1.82768178797891 -1.1173754184023201 0.2905407557151969 1.3240918992239405 0.4498708274070934 -0.5789027461778951 0.2723824514089734 -1.1952568563881178 0.6602486607531408 -1.2051454902157361 -0.4624520477209199 -1.0855258458900774 0.0022679882502953212 -0.30041155740688447 0.4793742158906228 -1.9167243709344357 0.35208463276785795 0.7061165549464717 -1.915374579744351 0.13945818970869667 0.19131809988940499 -1.701941670264661 -1.1509738061409847 1.9572743560857226 -1.494706136025845 1.937530560068424 -1.230176457031492 0.5340257360298583 -0.6086859188099475 1.0602032920242255; 0.4133541465942188 0.513884898683408 0.07593115574461196 -0.8838659858230044 -0.18712363936567372 -0.03397308984558391 -0.48676681482876727 -0.4601295852676755 -0.49810318045576474 0.5753550823500728 -1.8742535489134051 0.3178429471913732 0.609774575870535 0.7289250470042657 0.9330013897388201 -1.5021075733524445 0.03493082774790537 -0.1743899560985709 1.2503610249794794 -0.16902336837958667 0.4001759977214755 -0.330507985794936 0.19508020545473276 0.20178003206138348 0.3108967240966023 -0.3323003399999431 -0.8237803490760771 -0.0005711794902966752 0.16285069882014797 0.4607276226019786 0.6307712420250677 0.11512603075174259; 1.8021616798827556 0.03832184913327752 0.3693906140851236 -0.253675288553545 -0.722277789502114 -0.5305719140308114 -0.5015370065470371 0.693547033293689 -0.4386516796779663 0.3730375822340356 -0.6165931362934316 1.5734983985403896 -0.4684931494945466 -0.2545781524905362 1.1080609198434217 -0.019372473516514353 0.4565567816028706 0.44727968279437413 -0.5857291635015254 0.9353636198153121 0.542799779043245 0.5257269498024395 0.00017054051308330528 0.29065113522655045 -1.1805333159605818 -0.30144926535873734 -0.7930709562631709 -0.5590646028601043 -0.3861553454074993 0.4267551277894627 -0.02765480109331761 0.5251858462539181; -1.064974300309535 0.38034104910718247 0.002072623486180519 -0.8136684745484882 -1.1562570584199203 0.8564686993553748 0.15604170940363996 -0.06851395137796605 0.09998381575191508 -0.06012927806774404 1.5211985301126645 1.0981129244802328 -0.0003391213657462201 -0.2121136666106761 -0.25699575096893396 0.44445791910118526 0.42076688890134173 1.6712753162768261 0.6449423766932821 0.7146234051282515 -1.9420172716634703 -0.10992567962611821 -0.4206585631627947 -0.8880862691153647 0.2802146423264259 -1.0666242492228002 -1.7746266821058274 0.04414077580897312 0.2072476536425567 1.8052928563596455 -0.7598752061465822 0.0010073377580526624; 0.534434770356655 0.3518156474715228 -0.6082288534351593 0.672426272840402 -1.4003903436556353 -1.4140679731890824 -0.04117305856711201 0.5504256857140788 0.0900374093380877 -0.05308406152100589 0.5648176441201986 0.18908437753395052 -0.3214044537275469 -0.47940230665456207 0.052825627709832616 0.2301456864864435 0.3999086055417757 0.001252668816121203 0.5389273288989588 0.9133399171324141 -0.7022850311263029 0.4312100277146848 0.5734271527993208 -0.05340047436426713 0.4827466287217695 -1.0900056359662214 0.9123889871440198 0.26992558328175403 -0.2188782548193797 0.3490490322158486 1.0946145473474622 -0.00038558770695073304; -0.5505434071501506 -0.5311400603505894 -0.6672824644047917 -0.5432210014735892 0.058533438492774086 0.5488421741566368 -0.8173251808660789 0.5088996510188687 1.2711898039073988 -1.1643118276295794 -1.3479419000491453 0.2540970945769059 -0.1858736596377566 -0.16671489501398862 0.6547547359745035 -1.3083752620456737 0.36411407588582057 -0.16743349555043255 -1.564348950351423 0.718005178955136 -1.0748581050880137 0.3333645410148149 0.667406900773979 -0.7073845803288559 0.6980318857917857 -0.5492155797122625 1.646552758301549 -0.336372547162577 -0.9298494205288371 0.5700538031348986 0.8112976041546015 0.11493739547552784; 1.0113275494644463 0.0017098752590045676 1.2584778879359402 0.10943083250164669 -0.22505817736712724 -0.6146872709286355 -1.50992915983187 1.2672469564771465 1.8353389898490056 0.46657555125581907 -0.22096407840789672 1.1624484886462574 -0.08507429241292276 -1.0007162748263658 0.0002594391224888032 0.030973303354065312 -1.8667593818804642 -3.098506496478981 1.2803685722960036 1.2145715535215496 0.48476637556598157 0.21336366385670327 1.4858972389139347 -0.03752762371104378 1.98548349071165 -0.1447908978618173 0.47248968690197857 0.2635078144663069 -0.23461970681118366 0.40624083097795255 0.8516816618620533 -1.058201754494405; 0.5094323516940892 0.2599615472184529 -0.6142170820559862 0.6626496845886328 -0.3473398004229489 0.35437658609611966 0.9811144471228262 0.516273741452956 1.133369990944114 0.8988481521485201 -0.0002654512606759457 -0.2088709237909397 2.09434615334393 0.8950551988987582 0.619518495030554 -0.8151861986409135 -0.8956204472085668 -1.1340975244884655 0.22360965143545425 1.8414266979651264 -0.5040729386682232 -0.8321008783319499 -0.00663617994972919 -1.2641990189981822 0.3103805639767874 -0.1929867117074022 -2.554277209860405 -0.22051595941063692 -0.3548462527948693 1.2219614636036213 0.0670917446350322 -0.6128511069077578; 0.1968609201067932 0.7831565642079987 1.5113087749864482 0.20947967748350896 0.8967913439895759 -0.6046506395902477 -0.10673857414990275 -0.06026189632704408 -0.13538222500358285 0.7707987211658466 1.4008361319203972 0.9868498815349274 -0.00473211271162115 0.6913134009551615 -1.0969361663241575 0.04124128498246966 -1.0259452070451083 -0.3504979985718634 -0.5829451553411814 0.9362244193141753 0.616978381233466 1.5952120547740736 -1.5752264649091727 0.896399762299672 -0.6864223544070883 -0.02269202688179629 0.7723195307498539 0.6857547243459977 -1.254316646485161 1.4881327268123832 1.1778500106788106 -0.5890126741961698; -0.14005759481757687 -0.004390046642265192 1.2251448867082468 0.02028562987855158 0.31316923064305985 -0.0692379183239633 -2.0123928775439803 -0.01789185440618418 -0.03694912324431311 1.0044908226276035 -2.46945632027835 -0.4310319737946378 0.0032798055151665893 -1.4411091468319772 1.3084684486871543 0.006971087214646307 0.8775014887653922 -0.045322563499982364 -0.28074510714633893 0.20981968681648105 -0.42482486291864807 -0.029792384415392816 1.2797274011395907 -0.00636436839142678 1.389313136220543 0.6075153546388751 1.3566052098811996 -1.0188804012664154 0.6239450745827833 1.2128169087738723 0.2596232655270748 -1.2928204387480275; 0.25708073758498934 -0.5124059570712519 1.8126370521037076 0.15812000184808114 0.4261182648049944 0.49459298429029624 -0.9799103043238319 0.9252357456484526 -3.898448488410827 0.16642511862482834 -0.6293171915607202 -1.356642646854562 -0.01854676545950661 0.15611649602998096 -0.0829182930590094 -0.6964599106269698 -0.012618954042492313 1.2636231559498738 0.31022198241400273 2.4405200544122305 -0.37823806483534766 0.9534139520148803 -1.445429948487034 1.501234244593413 0.10294753379512729 -0.017042353409156826 -0.17053019910845454 -1.9404702144062111 -2.4853931054101914 1.6119721694048683 0.7330592323352595 -2.2858901824894526; 0.05387509841119824 -0.8025217554799448 -0.9161744742200669 0.33954009844226024 -0.9523486683011281 0.2737195895693067 -0.2583567131675155 0.7736237316568495 -0.002109492010044112 -0.13276402014000824 -0.017798158590288868 -2.0124558735826383 0.19335498874561147 -0.3462977914606215 0.07927281688894024 0.007840185610375798 -1.1866758417871157 -1.4104287722634774 -0.4423552851887893 0.14940783850772174 0.5769708148788217 -1.037241325125521 0.4616566253766522 -0.32599162443509416 -0.006528143378860535 0.8715885584456169 -0.18328908159836488 -0.48110242632798367 0.048176361782071034 0.6436914672554541 -0.5362999083157991 -0.28259854904423454; 0.17833381575483945 0.5067578596546103 -0.004364341517332404 0.31974045732669604 1.3113568269567908 0.4453539215067655 -1.4170186313690791 0.6511680218670092 0.21022538806001764 0.7422021212097979 -0.16609999450792587 -1.3845150619553512 1.2897282829888608 0.39420839384420797 0.5683831238797512 -0.0386348374264813 0.21197289681106976 -1.6785596405183203 -0.5891788106874708 -1.0085184210143863 1.306543681426424 -1.169999578352502 0.46427030215645376 -0.0009335164025774406 0.212634270640014 -0.4338828276973518 -0.3461233000140382 0.08982276672489535 0.008235879529662185 -0.46869877239561036 -0.7491773220132367 0.5219193993074689; 1.5859658849363167 -0.08249976649582964 1.866159282865536 -0.8879933093840342 0.3779518905831726 -0.28110293373392714 1.04734410922435 -0.17806240689745462 -0.45366556112779693 -0.18073377855943243 -0.09217615829592002 -0.6251149457916345 0.5897433067116574 0.008008638231755153 0.08629839619603932 -0.4085008313093456 1.0346292915049224 -0.6271662265847006 1.1743186453983223 -1.495482885685926 0.8678066424022837 1.1675283669657919 -0.148924796854752 -0.011763425148384831 1.6935636214308756 0.0008506873614004128 0.6826912685918386 1.652067146767338 -1.0835847959002387 0.15310965333754759 -0.9202678835649213 -2.0000240937454703; 0.5144672809551846 1.6686724016326313 -1.3400082342764859 2.1525606351316644 -0.0032790805857650343 -0.439036881940162 -1.0413748465859156 -2.4542804047365223 0.005740867790909575 0.6565969304763407 0.10420695017770978 0.5461153252038208 1.720852769588045 0.20686891204428412 0.19444402471891517 -0.9698013128689724 0.1386380201343203 -0.24236141089485497 -0.5303829700315017 -0.42658438276630745 -1.2785579831208054 1.8570317881882001 -1.9434665561745346 -2.8737756007647977 1.2826411758475356 3.3600777292863078 0.9557549291222495 -0.5888953834366261 -1.2939547594278098 1.5376679866913423 1.0067228851538914 -2.1674605449723807; 0.972100934738261 0.034196437072917016 -0.04689485718232077 0.8789553104140659 0.26509465414077105 -0.007310321121605848 -1.7768500580365072 -0.20724215759890074 -0.11058038294891559 0.6944275167971906 0.6426785258512957 0.0003023622134093128 -0.7545253936460136 3.8563075471130204 0.24559245206350702 1.1187816324066842 0.9107438263559796 0.29146214949364024 -1.1528779393187658 0.0019900465398603813 0.7537155711918582 0.4129711727929171 0.5302841365608798 0.5819324907452537 -0.292352983752283 1.82108376052799 -0.4713918360372615 0.5313203098677699 1.1995595365280116 -0.8039142412908148 0.3692740261265865 0.022224224588777958; -0.4633884976772782 -0.9504984020558972 -0.00880751840630537 0.7606804469224437 0.524527795618242 0.04721540275426819 1.5327888500906808 1.5572663735391121 -0.800874751564151 -0.4627091250667713 0.1200476680174173 1.1351262075022768 -0.8335374394763515 -0.7943530945861141 -0.3231141251330553 0.1601046290554987 1.9455537886844667 0.015006384129025316 0.4857685862423618 -0.0027462840361380018 0.7434485587684468 -1.1926289950773605 -0.5983928405793474 0.5039255939765371 0.9931168936264404 0.34602701828630794 -0.78906272009546 1.0919527920143979 -0.0805177150591678 -0.049201069145317494 1.0067589589560308 0.13950569142460845; 0.20012692952496497 0.724677930367374 1.2194739681270046 -1.3466128805870976 0.02552685216968684 1.0298189123092916 -1.932126977851818 0.44777941897949897 -0.5716691230633579 -0.852019645485762 0.1576145787649717 -0.08963155581533828 -1.3608805166129705 -0.576106189199666 0.8457556433629603 1.678076055402504 -2.1996519908634484 -2.3127369707469136 -1.2372353159281921 -0.4509334224250252 1.058002924411353 0.2708610659552153 0.39892906806767214 0.7660411977868028 -0.9643802387231447 0.4341569534324484 -1.6706186699375845 -0.014281969343866288 -2.4639888082035384 -1.1803443310099422 0.7620864213670339 -0.7759715152052621; 0.1398075685737608 -1.831961247392172 -0.6525839474375211 0.3801772775552958 -2.9819556889578878 0.913952994608516 -0.0949583715171159 -3.343566203852175 2.19661722368155 -1.9126071324779215 0.015578070543394449 0.01561488674809393 -0.005175633575956302 -2.2335943845958215 2.6359773688305967 0.5481034730594582 1.215330717883249 -1.995425338655161 2.682380155692373 4.4211764358592855 2.971397050374208 0.8522616472925983 0.07453012448534983 0.581860713916759 -0.7375206862714412 -0.04669817591274032 -0.19242819474086015 1.0550042805175055 0.010525730337973717 2.0686573519551184 -0.36855766381210187 0.7947584776168937; -0.024830968437592405 0.13019228534627136 0.7708614620230081 -0.3533055641682519 0.7235091270260711 0.2739949352619643 -0.37074318002396817 -0.12076122594267703 0.44794965099528505 -0.0033101802137342285 -0.0005957572643267729 -0.2347481112907251 -0.3084893016206992 0.5125284507818572 0.08824162064963255 1.0337856099072256 0.023138388943145346 0.23904436190455158 0.3822954681037632 0.20950032531751966 -0.8918174137893662 1.8196742288853816 -0.37229986587214386 1.03373504297499 -0.8391373105179888 -0.7578346413179587 -0.01754369049464957 -0.13009619114778712 0.0679439047679615 0.14764281788419412 -0.9405646907312777 -1.0168575729447296; 0.9330438745629893 0.13083517405677103 2.3738999426056244 -0.8109409968876707 0.1307695377240633 0.2484674316746767 0.020245647501572723 0.7907868875089422 0.471088514175925 1.1055491483196032 0.08189606582317582 -0.8250334076713091 0.5984529441668898 0.6694115848935467 1.0999965117621937 0.3591715515751975 1.060537367092043 0.35539761044411783 0.9721820239875697 0.0067439904904732 0.019544141908734953 -0.27086815140001624 0.44043033905732615 -0.0017544106491514618 0.3451175248500535 1.657767298298181 1.9153906598565007 0.017974419669818487 0.36112931643684437 0.004801470479215512 -0.7099923218569824 0.826928246933035; -0.44221900448271456 1.5405855782617686 -0.6453720002472382 -0.8094636852930366 -2.233832329492404 -1.5114073600082354 -0.7067169138053057 -3.321718332029033 -3.475510860455378 -0.06962319005205302 0.7191867706574351 -0.5971135647845599 -0.5624299206798773 0.7914467782162866 -2.137251381623557 -3.226884729779919 -0.46650220420361727 0.0030626409527179867 -0.48051601881772654 -4.817582462878448 0.5859725504781496 -0.07564274851245338 -3.0428159089878424 1.2581912438969682 -0.8548010508077833 -3.028909862740612 0.0059736268498124905 1.0824277571609104 0.9496548750898245 -0.28695707761916894 -0.15409384027091896 -0.6049168144737859; -0.7340712483136324 -1.3761522097373466 1.2453599818319865 0.6406130521884026 0.8057659402731469 -0.7576144134740908 -0.1341716637728178 -0.9262609745214119 1.859131222440488 -0.6210233281785642 1.5120170171316154 -0.6854388473719505 0.8933283728593483 0.5945964716386838 0.6376874216669782 -0.16736042364789636 0.6062674675086874 -0.9410540898914262 -2.216733576062574 -0.0032381075067790294 0.35816777015720436 -0.9248474782211288 -0.3907931586311595 2.530112959447504 -0.09579625421157868 -0.5114082524822797 1.022544374468236 0.5234074052056649 -1.2158978087082322 -1.2703296563511859 -0.6491817450913486 -2.6858150274331445; 1.5715556316704389 -0.5001232143537647 2.01462348505549 0.5811076601978791 0.6050815568255506 -0.5999024617865863 0.7177026771728524 0.2630205865306501 -0.44709207906013343 -1.1340865111923226 0.7631790214516896 1.1468445909282774 -1.442059862508043 -0.4463252598946685 1.652332507943329 0.3564669371444243 0.6068227897578494 1.0161140714159913 -0.06545602123316227 -0.8049156381688503 0.4009493236302644 -1.0329675022832563 -0.00766435494491368 0.7696075178613668 0.8697880155023185 -0.6167793372777456 0.005004710219115759 0.029315398102153892 -2.534252222898149 0.11179824348748739 -1.8649978435241898 1.5969709593662633; 0.07687763184607631 -0.20064702055522757 0.2041598572245584 0.12316847827302226 0.0006458646231748831 2.19344538646359 -0.7327322767655192 -0.37484714184529394 -0.06498214922826825 1.3526174225309742 0.6899933093349203 -0.42160846049804385 -1.169578995033673 -1.0329552055083777 -2.6061693470000806 -1.3648444724240039 0.4576188466307662 0.35928785000983887 1.186544320700464 0.6395832767618734 0.19596286226772822 -1.855327008713139 -0.5169153258116296 0.553319432985705 0.4870065719987563 1.1750653272308662 -0.16021051534543246 -1.2452652995608617 0.8199334731542782 -1.6493609601615176 -1.0131076206832543 -0.7692848905225325; -1.8592752372062773 -0.020011196890836337 1.0181500485258481 0.6611775453098668 -1.2762667658797329 0.4007835070598161 -0.4075147877983488 0.013167706133560497 -0.6792191575011514 0.8533688100727876 -1.1842423512346478 -1.2471342668770917 1.0949719448193167 -1.416104703006958 0.5068104932107645 -0.018860312039183796 0.03692692800588957 0.7774848440984206 0.3553508694161291 -0.0016486636435624883 0.051234518744456545 0.3719882365042776 0.7494658563245796 0.004943395177270202 -0.5085937086898906 -0.1824805854433785 0.7361099211337274 0.10754605055142838 -1.4623748100345104 -0.6570649342414336 0.6904235372005307 -0.41193780809093083; 0.6569164355336642 -2.2047071382431143 0.26661636127304333 -0.1492913227636387 1.0305706466104363 -1.1213891175067765 -0.0007600467486399222 -1.8793666418091706 -0.6053869348867007 1.919962289081489 -0.5572984832360641 0.034830274552600266 0.5010950074857063 -0.12262471957029498 -0.6294217850560314 1.543924706044406 -2.1901245352987884 0.30102562413481637 -0.2987320810877838 2.485577070274064 -0.29064767242257783 2.0065615878755367 0.06881247170557883 1.5588677778413067 -0.3670547827636594 0.4661329068290335 1.5099713966980282 0.49667730706018676 1.5390446175617083 -0.3574265978812142 -0.3627696930286052 -0.08860723438195904; 0.1238350305831918 1.5709413144372018 -0.7954530492224672 2.297053453181138 0.44880781380425677 0.04593825844674054 0.508094939933037 -1.2715094740241981 0.3226519709529348 1.0926947657521793 -0.5260672761025655 -0.3110090101960746 0.6813986714228781 0.038106572100405495 0.7762714022127991 -0.3518650839256012 -1.180934027251668 0.6980138995047963 0.7999652785339535 -0.27780604778775025 0.006249324773822848 -1.1493519749275234 1.0080534772567318 0.003964025111891328 0.004468802516006593 0.47872046016524367 0.01038849255273691 -0.9857529451343708 1.4701988789314322 -0.23720267195635608 -0.15088603365518913 -0.46607040498724683; -0.1954174930119412 -0.17182450340721728 -0.10551755557947712 0.5416549932073833 -0.7185786593935505 0.881914856813345 -1.2733412937095832 0.4155013945289938 -0.2854176295538063 -0.5849302073712085 -1.0926886966659008 -0.006068472902423171 -0.2401328137946072 0.096185959711578 0.1843062253015587 0.6758873041897248 -0.24176346432316234 1.021931019850498 0.4328291789807412 0.2210369246108884 0.690850332186842 0.21318741401215324 -0.035197369540364835 0.5591919639794979 0.0005672743842577774 -0.3914649236481519 0.2115816183227499 -0.5286205743146603 -1.9738494044978097 0.0024531590136103783 0.47086177013246966 0.7842691858943639; 1.2579409053238348 1.4442982921972498 -1.162253329822649 1.9057036276933086 0.482806611793116 -1.713880669064949 0.9030546800600481 0.09770542111590304 0.21504034221994858 0.7762010106586714 -0.08959645892236288 -0.46841476080424616 -2.05594334567326 -0.6441195427850834 -0.27656537184435803 -1.6415068410634934 -1.9162359132845583 2.7295116700035953 0.595141687985991 0.142193214938239 -0.17170558651667656 0.4532136244211048 0.5041821980790159 -2.1985440012503625 0.46525035342219534 1.6753929926776812 0.7298873525018021 0.6069701143107218 0.5507688328453616 -2.7058693929496522 1.8299344133056896 -0.24136103663081324; 0.37275053272974285 1.1909778948049838 -0.40029631430815205 -0.9775491232796225 -0.22608572672108504 -0.9430888307701587 -1.1845752028207166 0.8435589922305522 -1.9147491251726207 -0.02584669782550162 -0.3242227985206258 0.31218136341590846 -0.16990409503605292 0.3258104323777761 2.0075950392213104 -0.3290659616737231 0.49046759149720026 -0.4223764979796007 -0.39288409516469047 0.06664197938798212 -1.5131980741172784 0.8433074042215102 0.9981936468820627 -0.017569144797142607 -0.7971794418278807 0.4166956176604775 0.029599461601351906 0.4071387291986102 -0.15732446240517953 0.4259769653940452 -0.31783036699796724 -0.27862675458703456; 0.2069872350329372 -0.6345834308285574 -0.1374367011428743 -0.5832233358910659 -1.9629606250132323 0.3914353852412005 -0.2891621052712312 -1.6594866281173875 -0.8813216281236704 -0.7638178322364315 -0.028889179468085557 -0.0002798357283818458 -0.5185823157122941 0.5893964296047175 1.3081488200912013 -0.37345772052012427 0.583883506644869 0.0809601350829344 0.29032389638952677 -0.0934469190707126 0.696345749901717 1.0626370976724495 1.3875071157464611 0.2799154580552577 0.5092308320784074 1.1042214523136156 -0.25414533245389376 -0.9348184366749004 0.9346714266169764 -1.3258644951080873 1.324586082564448 -0.503542963398379; 2.0541544581105913 0.08102366327595147 -0.5364001744575237 -0.6527877217489301 -1.2930308175443799 -0.20961341812128662 1.1823738433444884 1.8903380909312695 -0.10543099880285563 0.874818892507142 0.13265814382568453 1.2899601499601852 1.4179603887814904 0.35029854335591243 -0.6727300387947498 0.9757592963516937 -1.0110582822613188 -0.115847813778431 -1.4393327756447667 -0.9171016792198022 -0.6881408162560353 0.0001787818850227057 -0.5771252954595537 -1.3009106268033197 0.3363273626775166 -0.9872521652641582 1.429314959876163 -0.6174772108639714 0.0016565958999325598 0.059181787250542406 0.2536487730185162 0.0542774403389779; 1.0012953960003543 0.8935479170482806 -0.45649688505260844 -0.1920429044040386 0.3169185106087339 -0.8272927919350449 -1.2847917292516147 0.1350227740056595 1.5806834418010367 -0.4899591371985285 -0.005598643446443123 -0.29876017353392575 -1.660659748862969 -1.0261906627725152 -0.9462913706200087 -0.33184805007666707 1.2799752066133343 -0.46565408510690565 -0.14121910462123208 -2.51459597439777 -1.2092798847864001 -0.5823036428822287 -1.0642184285146565 -1.0476367329800127 0.029963611396207894 0.14264884327121913 -0.4754192284259532 -0.9058430521024858 -0.42826444201376146 -0.7731606275357715 0.8529375150207483 -2.310137328942609; -0.09605834495718091 0.7737135537638716 1.4052832541765548 -1.1701795992526915 -0.8177739159030766 -0.4838799147493667 -0.605709995364092 -0.8979608203295898 -0.11955249640190789 -1.050565449057849 0.822736945199764 -0.395002598150564 0.00499822709542532 1.1364249951815104 -0.24957900993761342 -0.810513916618071 -0.8059340681122619 0.04440960784234377 1.2499598826571703 -0.6875389684729183 -0.73016989450017 -0.5873139033868188 0.3254079764228523 0.38422208836226396 -0.6537543921973097 0.5134022065254673 -2.3187964189028083 0.9063788161376337 0.06508384624886365 -0.7047291788907695 -0.9658506798823147 -0.2525657970342538; -0.5552872142939866 0.5268260973265694 0.1975845464079547 0.2199426250430016 0.3034596982848646 0.628327104945621 -0.634830907704868 -0.0075313048363195145 -0.4871813057003462 0.593496583961041 -0.19298409843911724 -0.40679970264825394 0.5405457990310686 -0.3527481734322724 -0.2919998692830489 -0.003917599615259021 1.247248553697497 0.9365832426323611 -0.39907485813298393 0.008142500496759611 -0.6180299702907583 -0.22194636605620835 -0.41809796649696584 0.5343477780870193 0.9222851653962756 -0.8361819987975163 -0.44375482128688715 -1.0665483563983993 0.19705302593568155 0.28861206094545605 -1.0429277292205759 -0.013841756433572371; -0.6923242006799895 -0.15236456572986737 0.04915322282722963 0.9196981554112825 -1.7495849643883827 -2.6465443478756074 0.02503033778159265 0.8316940506145062 1.2338341676880566 -0.13102009888410474 -0.9065218590755684 -0.4419133027358906 -0.05946735572298635 -0.5084841901779712 1.0237056617233204 -0.003413963564746086 1.4192300697957718 -1.0040173365279785 0.8974575037922398 0.19282504154516286 2.046850417142328 0.8327796756732343 -0.005599431123584365 1.0720925718805423 -1.1051199515585077 0.7102301725968476 0.043512655518701836 0.43674958048110135 0.48755442428942136 -0.9155129573893306 0.08027077314647528 -0.3179802876558984; -0.3092020243899945 -0.10513609604510463 0.04272521619980146 -0.15000471439578436 -0.8419017222605559 0.4005703589980755 -1.1894359090981403 0.611195486589953 -1.1226791324407066 0.4234850563281262 -0.11123265917767751 0.06358002525637434 0.4991068917081267 0.16030099500102024 0.03746838507793864 -0.09471684742166643 -0.560725449615994 -1.466323012477593 0.7198877664336064 -0.2152119047240666 -0.17796558978775534 -0.19679077573390982 0.11223634901044949 0.09331636262386496 -0.3028889770462037 -0.009342533639311866 0.6536455391467677 1.5223000199715566 1.1023887934705554 0.48428971641545004 -1.0764792723322276 0.5221512723040778; -0.44323739099568527 0.0596385389371474 1.584337794858194 1.4878997051207523 2.8577023717699483 0.8466924220010612 -0.19718126566947844 0.8038412300087023 -0.474494764862958 2.363253717110605 -1.177090812299214 -1.352417925702913 -1.164377007332367 -1.0267724690977333 1.267306398752374 0.7241812754787349 -0.2941408078716018 -0.02983586886527425 1.0881102231831428 1.7098060764946303 -0.3782425917455828 1.6766430155266399 0.9858778089115502 0.12865558052441792 -1.9420326026809058 0.9144982966461046 -1.7076481778185657 0.8110705397020537 -1.5927514848264452 1.4156351760790882 -0.524123600917471 -0.808463035302223; 0.31263293348954696 -0.0019372191406528169 -0.3003014813139227 0.010632710958574505 0.1571610503075653 0.32808574556072506 0.7413877498636684 1.0019875224372223 0.20854128789415757 3.855379462999395 -0.22846585843853082 1.1948376106443297 -1.7236902117901807 -0.14498490997925637 -1.0652905603951877 1.4110492193761204 0.041149854184039575 0.15240082157251378 1.1037236419801952 -0.2720501927134292 0.6280945955311578 -0.5767047204182187 -0.1845035056210986 -1.0086080639118749 0.5768206298174113 0.0579121503029468 0.22916354402147332 -0.7240436924605385 0.8267704554909411 -0.3213820359912002 -1.2662908937067885 1.360045311208645; 0.09753127445064817 0.27908292789338046 0.5480317994822472 -0.41645645952045646 -0.3480492134037548 -0.7546126093964867 -0.37938624636636853 -0.5503453255037009 0.09340879059727401 2.2944257974988584 -0.44530119856808514 -0.02400455874351544 0.6407767080417085 -0.13902544802709155 -0.36736927762987703 0.8835986173902132 0.24541016851217262 0.7446456398186234 0.003937327047727302 -0.34579951674727283 -0.6611560895127648 -1.9209250816901082 0.5174518771020644 0.37228843290428226 -1.3237398130140223 0.6490155962874367 -0.88149686938529 1.5072598083040096 0.5964590573792514 -0.8883027059405578 1.6467751449928312 0.0099345650176406; 2.052422987458682 0.5477988073708605 0.017730744731383592 1.2816557135785815 0.7602451042214928 -0.004031030651434618 0.3800928444498662 0.20698346043837654 -0.00977947321970669 -0.12464493587842944 -1.392458544319938 1.5127349640126806 0.1283996991588353 -0.004729927489276655 0.16767187251732898 -0.7275732042342316 0.654193347235944 -0.09352903763914827 -0.263562696723922 -0.18000024755588476 1.166975668331276 0.3501230738218861 0.12252045834821948 0.34415471140437537 -1.262271071649959 -0.308957827077441 0.14323253253585846 0.8947838002018497 -1.4039546646645822 -0.6578676967458841 -0.28790047431891863 -0.18899210796645594; -0.6931818168481035 -0.5407263277825836 0.8752476744616619 -1.4934003011384378 0.17745147830192454 -0.00010072128214497954 -0.3500090728297827 1.1521784794183503 -0.4556592775037371 -0.12690333131917234 -1.3363673164122518 -0.4076394867814318 0.8727382780453954 0.1355667423904243 -0.021780607899131464 0.0008054101726468466 0.7271283750419821 0.9886732515515774 -2.8727306780318522 -0.17384357570397593 -0.007712210617536089 -1.1709171235390128 0.5724818313566457 1.806761258238616 -1.7502025531371272 0.007228819386045941 -0.006664639457612813 0.4139004326802765 2.7696313045115875 -2.8237005365832166 1.063339142059428 1.1401165727236267; 1.3453549094828647 0.0005292749586084276 -1.234664828356227 0.47234474925210157 -0.15591573483074514 1.7205748288971912 -0.1481635546869758 0.19693120058706826 -0.8638564447521823 0.7115618205271806 -0.08202668144768342 -0.8885104773440891 -1.2802162153278729 0.6160351611535035 0.09814987348610547 0.01916437345885991 1.6645173016586865 0.4091914932807545 -0.45505011044454113 1.2676272212868502 0.5199941206758503 -0.5273655675033961 0.45606917900480237 0.32992541666526004 0.298085151686645 -0.32078316709160726 0.31098286057048774 -0.8880318983651792 -0.1351413348074621 1.1508066166409576 -0.05976455628172347 -0.7201718919902365], [0.5292866492146597, 0.4900196335078534, 0.5017997382198953, 0.5134162303664922, 0.4805301047120419, 0.5233965968586387, 0.4412630890052356, 0.6197643979057592, 0.49165575916230364, 0.36861910994764396, 0.3206806282722513, 0.6681937172774869, 0.5585732984293194, 0.4268651832460733, 0.550392670157068, 0.5278141361256544, 0.680955497382199, 0.47054973821989526, 0.4880562827225131, 0.5, 0.48445680628272253, 0.46024214659685864, 0.4800392670157068, 0.4826570680628272, 0.5508835078534031, 0.5894960732984293, 0.4543520942408377, 0.5790248691099477, 0.5024541884816754, 0.6551047120418848, 0.6521596858638743, 0.4906740837696335, 0.4975458115183246, 0.6470876963350786, 0.4206479057591623, 0.3817081151832461, 0.45778795811518325, 0.525032722513089, 0.6928992146596858, 0.47660340314136124, 0.5314136125654451, 0.2961387434554974, 0.4535340314136126, 0.43210078534031415, 0.5214332460732984, 0.47464005235602097, 0.5291230366492147, 0.524869109947644, 0.6178010471204188, 0.4818390052356021, 0.5765706806282722, 0.4213023560209424, 0.49967277486910994, 0.5664267015706806, 0.555628272251309, 0.42899214659685864, 0.43013743455497383, 0.6024214659685864, 0.637107329842932, 0.2931937172774869, 0.46220549738219896, 0.568553664921466, 0.44862565445026176, 0.4422447643979058], [0.43189266354653194, 0.39343453913846066, 0.555623893287713, 0.44523836593666866, 0.5655495518573392, 0.5291649233522787, 0.5250205292044483, 0.4316183749014009, 0.48287838625639196, 0.48192654000507434, 0.5081613550589926, 0.5244688163007546, 0.5023373167614308, 0.5218406643358683, 0.5082798135938414, 0.5588962292420186, 0.48034866565621787, 0.39847097274353027, 0.3993683019938446, 0.5851817807472762, 0.3348747301737626, 0.6586085177650735, 0.6541644842978506, 0.6100351741664851, 0.5215824078421908, 0.41980752614329453, 0.5630688584463138, 0.561278733455544, 0.3391160176886852, 0.6816812783670414, 0.4587546545291673, 0.4481501125108189]).w)