CenteredRBM{Potts{2, Array{Float64, 3}}, Binary{1, Matrix{Float64}}, Array{Float64, 3}, Matrix{Float64}, Vector{Float64}}(Potts{2, Array{Float64, 3}}([1.7631174318503056 2.1482821388249853 -0.21309518678393127 2.22289312660245 -5.92119751049381;;; 1.657367291589814 -1.0363778612240062 0.5182622556529939 4.541200117838596 -5.680451803857397;;; -1.0765509660217156 6.469954554198565 -0.5674738194597359 0.29005662254166953 -5.115986391258784;;; -2.1390574356289576 -0.5889092737993877 -3.0282046422035416 8.452605175475924 -2.696433823844036;;; -3.9723526474195743 0.8361395540450188 -1.3257275595534637 7.620961440139252 -3.159020787211232;;; 8.842715421461568 -1.4618470599101385 -3.909934754188709 -1.4578969928691876 -2.013036614493533;;; -1.670140671088506 -1.7888769167895642 -1.6715815015137268 7.670757630578384 -2.5401585411865875;;; -0.2662230046490015 6.872996624045419 -2.7359173835880988 -0.15323305661827397 -3.7176231791900447;;; 3.2636013268612265 2.0147785063882804 0.03188801606618428 -0.604424744096596 -4.705843105219095;;; 7.499108766763285 0.003292111108218012 -2.1367923763265817 -1.680871399107465 -3.684737102437456;;; -0.6269328945646006 -6.3954111995819325 8.532619055620659 0.02588692144573526 -1.5361618829198604;;; 8.82525365339829 -0.5981795556533812 -6.404559211323231 -0.796271009379463 -1.0262438770422149;;; 0.7557550724242327 -2.2633038835698844 7.177166433595518 -3.31541421219186 -2.3542034102580063;;; 3.747371493163657 0.4364892416215472 -0.5519749414135507 0.6876477624621713 -4.319533555833824;;; 0.008571716153540734 -0.5402268740880795 9.44594360333695 -0.567105845759539 -8.347182599642872;;; 0.6463308553113427 -1.7079025535711743 9.989008606183477 -1.0585200320526356 -7.86891687587101;;; -1.8292871401795185 5.1477718989838 0.15412629531341285 5.519877246579295 -8.992488300696989;;; 0.1152658751084412 -1.4046251485191172 4.238410627643881 0.5403142610311826 -3.4893656152643873;;; -1.0057563823665254 -3.095248030668819 7.873398711030951 -1.2069209399106866 -2.5654733580849207;;; 7.415644079034233 -2.047815375449444 -1.526592771978032 -1.8495819321115454 -1.9916539994952123;;; -1.7113180230367189 -7.087644726270252 9.721914992764004 -0.43814112211879097 -0.484811121338243;;; 0.2526822858537611 -2.896363757484239 7.499023776986856 -2.6603200082771137 -2.195022297079265;;; -2.5056956206235568 -3.4835079525357715 8.569821473892775 -0.45136185669872175 -2.129256044034724;;; 8.800639899436248 -3.1464622040406094 -1.4796926298909179 -1.0315064449054554 -3.1429786205992674;;; 0.981895380072757 4.687249964733051 -2.237633548996006 0.266783468993791 -3.698295264803593;;; 1.3953676626514075 -0.2849869952727988 -1.5610894946731717 4.102011422512141 -3.6513025952175777;;; -2.7022918154588496 -1.0186873041944153 8.511930980422795 -1.324889639241388 -3.4660622215281425;;; 0.03727333933757945 -2.4753828154673574 7.780821570810173 -2.725871568189268 -2.616840526491127;;; -0.3382072057306635 8.036082686254295 -2.879759046868512 -2.324603877938454 -2.4935125557166646;;; -2.854286026724361 7.358705878736028 -3.1284386709998464 0.11244474902363936 -1.48842593003546;;; -0.8652253609423259 9.167509987856366 -7.4203779000429675 -0.3627241897655333 -0.5191825371055391;;; 0.5317764020804775 -2.3883994190090814 2.5214389822445336 3.3819144138520456 -4.0467303791679745;;; 5.88072736620385 -1.7507982900899586 2.9719229199679176 2.1011369180678274 -9.202988914149635;;; 0.022460191387677464 0.9699174915026856 -1.8785089950017593 5.026875032479003 -4.140743720367606;;; -1.8539858719021396 -1.5201046185572693 8.277095321105545 -2.7217629957154403 -2.1812418349306957;;; 8.833706039030037 -1.608906391041719 -6.456424197198857 -0.2762829121180998 -0.4920925386713611;;; 5.563342658398882 0.6656865114457278 -3.4792111882398875 0.291005736571177 -3.040823718175899;;; 3.8617096162584623 0.2408888145466169 6.66835190079024 -1.9301582259507422 -8.840792105644576;;; -2.631913078563864 8.024024103261876 -3.29425425517979 -0.49581287740775093 -1.6020438921104707;;; -2.551473542267089 7.556301256081878 -2.187532492868366 -1.539287154644948 -1.2780080663014748;;; -2.6305538721578237 -0.95693567220512 -1.1446956036787344 1.2223439055029677 3.50984124253871;;; -3.4836060956582307 7.483682071383887 -2.02107141774707 1.1095136211152898 -3.0885181790938767;;; 4.597265237308139 -2.2720932945220134 7.438812519496853 -2.165412882875029 -7.598571579407948;;; -0.8486691272575019 -1.8397970532720977 10.730295491266684 -7.861021346135226 -0.1808079646018588;;; -0.8112617677904406 8.07967369867148 -0.7896565709212008 -0.3422355941504989 -6.136519765809339;;; 9.11771029500923 0.4580409264522825 0.7323926329347246 -5.186938738432558 -5.12120511596368;;; 8.924120347333707 -0.5191822568885025 0.8152031729112292 -1.6024021182303219 -7.617739145126111;;; -2.9305634466267025 7.984639923119964 -1.3028509086842865 -1.9490135752450872 -1.8022119925638875;;; -1.5524781541803727 8.753375295281598 -1.9439980752376105 -3.1075964083702767 -2.149302657493338;;; 0.8964305074890081 -0.3191577785495103 1.7889438184047683 0.7715328186307367 -3.137749365975003;;; 0.2182272788746558 0.9421150342239215 1.2092112299617819 1.2441791597623992 -3.6137327028227584;;; -1.0644929345884075 3.829192287158023 -1.8202391706852872 1.7342446862096401 -2.678704868093968;;; 0.9359444403091234 0.9614258681567719 -0.6728243559791807 1.7793423998410964 -3.0038883523278113;;; 1.589549161235654 -0.6183661079707626 0.6535026356271171 1.6825392095939178 -3.307224898485926;;; 1.600943019590275 -0.249580900582743 0.6322152886921407 2.007636985760521 -3.9912143934601936;;; 1.5193804497430052 0.19290025047027926 -0.25889423701038766 1.6667009792170586 -3.120087442419956;;; 0.5176626885787974 -0.10057899828322776 -0.9801738370215796 0.4748050870419769 0.08828505968403305;;; -0.10529262775462513 -0.8773094551200488 -0.7128837845967073 0.2040036526383203 1.491482214833061;;; 0.8040422463990452 -0.76363451376279 -0.2805461718454634 0.4569695944744822 -0.21683115526527402;;; 1.0561410010345134 -1.107142976638892 -0.4108955648005103 0.7707080893953098 -0.3088105489904207;;; 1.382495804175924 -0.5684186488139376 0.8362109972772854 1.2084282265523827 -2.8587163791916548;;; 1.65010644889168 -2.1455914012393715 3.899861588118067 -0.6471642920165026 -2.757212343753873;;; 1.7505480693021618 -1.0837304402143946 2.0360417367800916 -0.3814500803204491 -2.3214092855474093;;; 2.1928684647627974 -0.9921266079489498 0.6109053873103554 -0.31460079773494803 -1.497046446389255;;; 6.083331357461823 -0.8977328471696117 -1.8505985695265033 -0.8565802307938352 -2.478419709971873;;; 3.6587168597740787 0.9430310406315539 -3.2352386735904783 0.3411930995652597 -1.7077023263804139;;; -3.3578717630902872 -2.1362514910232413 8.799966468375212 -0.7782932006252948 -2.527550013636389;;; -3.3690506892713388 -1.5280160778625556 8.93643822621619 -1.6367818203013176 -2.4025896387809778;;; -0.7227374646797367 -0.5724618207868148 -6.6508736939813 8.701161515460257 -0.7550885360124044;;; 0.463593338458229 -5.204737591575594 9.432859690716109 -5.265013473238361 0.5732980356396167;;; -7.712215075241078 11.238514144015832 -1.7117779462973703 -1.9927951295241753 0.17827400704679155;;; -1.7932536176274412 2.497817768968117 -3.582452035712436 4.9720736192576895 -2.09418573488593;;; 8.643996737961153 -1.185146457256803 -2.2377162282124456 -1.968949363387782 -3.2521846891041215;;; 7.336024690443152 1.1833353824901909 -2.0416302294566386 -2.616665321540261 -3.8610645219364432;;; 2.1590926377903252 0.40916628689135515 -0.873368748130397 3.789555250418419 -5.484445426969702;;; -2.649010699806416 -1.2518788310021798 -0.48892394315024434 7.706761149993357 -3.3169476760345167;;; -2.980761237355259 7.851359653752074 -3.5749673610239547 1.0817616144388742 -2.377392669811735;;; -1.1234157909448395 7.723163819226661 -1.4749390015254311 -2.1199198630403813 -3.00488916371601;;; 2.0275818024645678 -1.4584353045282907 -0.10209485726602353 3.371002785284444 -3.838054425954698;;; 1.377962611446613 -2.9802065241346396 5.319606184489235 0.07151019517255275 -3.7888724669737615;;; -1.8748047151605 7.027861452897515 -3.094083866589347 -1.5245123885325786 -0.5344604826150894;;; 3.3773113036621947 -1.1603220943783803 0.058123461862298546 -0.4878590441590695 -1.7872536269870432;;; 0.9821136701338099 -0.7859905801083459 3.0712759829758607 -1.7113896391312389 -1.5560094338700856;;; 2.1664586571357116 -1.6500089025262605 2.031503522933672 -0.8307887359170129 -1.717164541626111;;; 1.3099411373928336 -0.8449011836444908 0.7196552327694311 0.6895095844681209 -1.8742047709858947;;; -0.19639796795649098 -1.0242787407486171 0.03273474285474685 0.6765071647111868 0.5114348011391746;;; -0.09931507432543682 -1.3325625013698936 -0.3389453345353033 0.014457783298702441 1.7563651269319311;;; -0.06636755045077594 -0.8209116569699293 -0.9891336092431144 0.24358845018960074 1.632824366474219;;; 0.4772607790656658 -1.3037361574601627 -0.10605914950264889 0.407417614682124 0.5251169132150217;;; 1.2759361409510854 -1.3957037951850857 -1.2096742246096053 0.8071478425856976 0.5222940362579077;;; 1.221192708394775 -0.6764031086715331 -0.5064309306271317 0.7923831706221829 -0.830741839718293;;; 1.3237420357190868 -0.35051101920952665 -0.2514047544506909 0.5525446679867728 -1.274370930045642;;; 0.5609762548025499 -0.5032979502612742 -0.1959554275286882 1.5578261918668637 -1.419549068879451;;; 0.03586946234633541 0.781211143393026 -2.0857160662386414 2.5628808712702544 -1.2942454107709744;;; -2.897295818136775 2.634837474981936 -0.7082482057150398 2.2704068178258545 -1.2997002689559756;;; -1.2094395076036093 -1.0401132415854817 -0.6193102191676301 3.953428867648629 -1.0845658992919083;;; -1.5347303840113102 -3.9350358222839423 7.415264307055403 -2.049565328591927 0.10406722783177555;;; 5.146628587175682 -3.8420897415320923 3.51106408786843 -3.753751424764096 -1.0618515087479237;;; 3.5066694853621883 -0.2624878619578164 0.7622030108357657 -0.48078227997158823 -3.525602354268549;;; 6.5684324649060155 0.3497996556223823 -2.577883063984256 -2.897608061064809 -1.4427409954793324;;; -0.42832427145079593 -5.01992393952582 7.526597687985006 -0.7057797894268213 -1.3725696875815667;;; 9.099373965008674 -7.1770744091146765 -0.1776854435274626 -2.39200322282835 0.6473891104618148;;; -7.327702044349208 -2.3184526302357367 -0.5425335630635414 9.358357250153222 0.8303309874952638;;; 4.497520525653081 -2.6105333971489157 3.4087253473184944 -3.723346169045137 -1.5723663067775226;;; 7.204974153740933 -2.835551345424648 -0.3689073710656069 -2.549423832288252 -1.4510916049624254;;; 0.1719579489904799 -0.850963141632999 6.0521006914723765 -2.9299531136975188 -2.443142385132339;;; 3.881403109758963 -1.2428309570559084 1.4441081479884104 -0.49962730235074176 -3.5830529983407238;;; 1.9256622271207564 -1.069333064759828 2.7354046163788635 -0.16255509988788716 -3.4291786788519047]), Binary{1, Matrix{Float64}}([0.4932267330797029 -1.7299050600062744 0.042501414940969144 -0.3754948943935683 -0.24996795789883275 -0.27072145000656156 -1.4000595758380296 2.301542424413167 1.2741524293085909 -2.6267078794108634 -2.234815396182491 2.487001358231543 -1.0693159264701144 1.3003749578249848 0.08355096660703003 2.220935515096586 2.4730293677993873 -1.1572949132039607 -0.09677073995922605 0.4942406812509208 -0.28749638052574283 0.7504048307239131 -1.436354484995865 0.42184558023606383 1.217897229683032 0.04455680159847833 -0.9119743515368102 0.9738373118220484 1.4564994017060253 0.8280088929501775 -0.46335346259144916 -1.9097498675288398 1.1054126713328187 0.9574442305241437 -1.277484040255969 0.7445338597957762 0.14153724542112 -0.5025510247902669 0.38297844920047547 -0.12082603114152017 -0.673559652266681 0.1514674059244788 -1.3932263157961844 -1.1390272548949234 2.2845696051685387 -2.806225199519618 1.5301659009761615 -5.159181948688655 -0.41548744114629393 -0.6133192188269562 4.014434407379205 -3.414021356337509 0.6512707460434857 -0.5718886006260845 0.4255730198698733 -1.1585395099579026 0.057778719125014845 -2.073353052606425 -0.6124518892621731 0.30405209504312536 -0.98742557348982 0.8838189589020514 3.2453004645753407 -0.07953809532222225 0.10481721890593666 0.28053882388136203 1.0050586544722633 -0.11406239613616338 2.38482871811148 0.15804561333973108 0.2479339058009868 -0.5928268568847611 -2.0960429171548633 -0.8572415294538407 -0.0613779340409767 -1.033662952007595 -0.6107409093310429 1.5735615433399242 2.000664188431088 1.0332970821778122 0.6550633909579214 -1.0910883551353416 -0.7155567577336651 2.214084196631413 -1.2862449069344464 0.5903167501090043 2.9029769848322533 0.9559897213846889 0.8954630017953307 -0.7664514604597124 -2.3138038448534792 0.3487034183509787 0.4012000903202625 0.8006758427529667 1.0812835521342286 0.1878057101334188 0.7932571916510569 -4.019005785000195 0.8416356625590764 0.6531915787260543 0.10893813084989734 0.26469884629211476 -0.4641385739966578 0.7873491419930921 -1.593019723211616 -1.9483881856742455 -0.7612092414420483 0.9469748263016529 0.8878989110727473 -1.099451545630741 0.8529528826683032 -0.7923298802570367 1.474348693608081 0.7717861694454224 -0.7527979792254405 0.6997309040344515 3.256402954127688 0.8267290543248543 -1.051066080029745 0.09168720811425231 3.7394376128148514 0.8586176742713187 -0.8471120634796376 0.3430965416422984 -1.2697558625767498 -1.7098094594586073 -0.652870950742746 -0.08349902208847654 -0.9317566070760719 -0.8754339398835081 -0.7853937475611837 1.7368005979264112 0.04431783735408814 0.5539666685860171 -0.43682709816792126 -0.31961358491089914 0.9058532071310244 0.09506440320134041 -0.3868446149550874 2.288013084865361 0.22334503987763588 0.36800181301873813 0.709953431550906 1.7213675513789 -0.6221983601198595 -1.71933585784087 2.8789054471304927 -0.28856740746933807 0.3121925155376735 1.3412950632449367 -1.0440794057096674 0.44260107848585817 -0.3275107904297089 -2.347914456799123 1.3609410602893623 0.8701373831379834 0.2063743703202678 -0.788071284553619 0.5143083856525269 0.8312740379539859 1.307643356955208 0.12657815804109876 0.20038683837869622 1.7394142141031645 0.11250076139263535 -2.521754844222046 -0.27639173284740187 -0.7440860733101496 -0.9115819584075066 0.0408719029953731 0.7242610093303442 0.6250306442816227 0.07348631034318884 0.32877436896303763 0.03695395814283342 -0.1743340541025818 1.971356753572292 -0.11730256845449158 0.6206648986977433 -2.307749896799036 1.465312269389277 0.8802912587267933 -0.19013356409371304 -1.084550071284676 0.6155748002578109 -0.6885007260627406 0.7451213384247252 0.3291204020596414 5.53093835913453 0.7569191502495625 0.24808273254270438 0.4987454848728759 -1.4588005078039945 0.7904639901461539 0.2531424724159292 1.0142725160075268 0.6545157050652378 1.0844070535697203 0.808666865252226 -0.7213049723897488 -1.165686212165792 2.3851209819057493 -0.40888107218364683 0.09380055937916829 -0.5917227795308418 -1.1891655029165482 0.8629517805314458 -0.4405458771446588 -0.02386672546302694 0.3817099100558386 -0.46913436985956036 -0.6288035515218012 -1.872736427059336 0.8261793504386145 0.8258521686113293 0.7486939276776119 1.619237280230588 -0.6196279686298397 0.15098789870008675 0.747814492186686 -0.5498601290520492 -1.6270076851532245 -0.9860525002337134 -1.0457080365046887 -1.0385800237989935 -1.1725228361226758 -2.1275115832011475 -0.1996343444853542 -1.4831876817252205 0.684946734117545 -0.5013973949339197 -2.04733803616026 -0.6797217986336547 2.300733020917277 0.03946234397625038 -0.7067029008192313 -1.5668848948615888 -1.0335738235306462 0.3675788271055111 -0.8822319134214235 -0.5025690727533295 -1.025160313360022 3.0501556660241316 -0.9188622203422391 -0.3197336999140667 0.010648758655324012 0.36037230072892557 1.0066357321045614 0.738104961278239 -0.3756126798445138 1.5398987820929833 0.5895314969764065 0.06872528915193618 0.8224259344814099 1.3444628950164157 2.1374433215599113]), [0.23910815690194753 -0.17522407004447954 0.061097702932745634 -0.041942557550340445 0.9937133801226186 -0.025159858280894384 0.0015199173260772244 -0.07392228823443603 -0.25935103456580405 0.488472640730009 0.0001998744637369472 0.0027014979980831493 -0.2223374511307614 0.10760969100876164 -0.06267676749371633 -0.32140425552916485 0.5969751479540428 0.40176972047725756 -0.3014976306916224 -0.0012062090749653124 -0.005952852632283232 0.1430195103023209 -0.49143875413901467 0.43986983910248145 0.4311091639751983 -0.6711577046472459 -0.014548229065238004 0.036763471356714005 0.043097995878727195 -0.0008186798250954435 0.001289900628667304 -0.24153881346473297 -0.6444423828843883 0.16421960053369639 -0.0021701860075545717 0.007980811340680903 -0.04061222341575087 0.04936449556055167 0.018184251693343832 0.03641696475897131 -0.00544433108622021 -0.22963818631301766 0.027376174101561686 0.860812607172618 0.004317572010505405 -0.008914260872341224 -0.04102522140353517 -0.006804348004037265 0.000938191001797028 0.05356480690246482 0.08668044786829743 0.027301857732863515 -0.014492023178288535 0.31503931653040035 0.3213335539848424 0.010439092211803516 0.3208475625341469 -0.21776548610435967 0.09423414538981674 0.04905708295314776 0.04713501958297509 -0.3518530515277678 -0.6783643404692699 -0.3812356832505866 0.5958507041607524 -0.14551997974670017 -0.387385789504896 -0.00018107748228276822 0.00015332612614354327 0.0016243652078661937 -3.0629632276584585e-5 -0.004688413050438321 0.32197978365437835 -0.22131484330481416 0.4576207916930534 -0.5446831527301008 -0.7938298296211626 0.07714348513444956 0.35479541633376144 0.09144732569536401 0.07665693282498966 0.24730581711491087 0.4996491158488178 0.3773038316556945 0.13288625787679134 -0.45017834716262983 0.2593001819838002 0.3245783897544934 -0.057225044988647354 0.4100833147250862 -0.8219647156683689 0.06618872937968917 -0.16904956467411844 -0.1992338561100384 0.8468968462465476 0.13674581520477017 -0.9021157936094607 -0.26592236863178087 0.6849727493570574 0.01888255789631277 -0.009335460571469006 -0.024308101603577697 -0.0003063754363266456 -0.115917075929302 0.16386673978559596 -0.006034473318935372 0.08041475481452591 -0.2595822617852782; -0.17704151667759793 0.09730087066734806 0.1675732004038745 -0.22718733387437842 -1.1722743387532277 0.008789868784197937 0.0009052386541884151 0.5228325810929604 0.1621701456344921 -0.6735955515124967 -0.0003899898383134617 0.0003682892116680867 -0.01719393545822411 0.2954538583015275 0.07208204448150395 -0.05713609282390619 -0.052919264314563556 0.1524682308472893 0.020538913904272125 0.004609858459221042 0.0001269132490240281 0.03133187700662618 -0.022263584201535475 -0.3413665838116875 -1.3907282277333406 0.3273288780518356 -0.13362000244044075 -0.009072397670675362 0.3644590428306999 -0.15994997147514567 0.008327900627294075 -0.03866020646801676 -0.037003326294713375 -0.1665526795343199 0.00035066681322125555 -0.007713493305293868 0.10336222142705605 -0.05132677638092801 0.40817756205159356 0.06924799070736544 -0.13531188423895724 0.3467670517345267 -0.007162646615176843 0.003493653045752067 -0.0022346103593172094 0.003390400115883128 -0.00039884224011546316 0.13896672355418008 0.7547215779754912 1.071250359172518 0.23732543636620468 0.04096180871147122 -0.02838021815492387 0.05378881036985761 0.08336285027106287 0.7961369719762403 -0.19012711097296647 0.17896209018623366 0.029505619232571514 -0.2079165889127698 0.044978377500726516 -0.28215522065789644 0.2948056568778095 -0.08921715366309176 -0.2106232069145521 -0.8935300117582717 -0.11146145334812374 0.0002377574228183714 0.15358334826842657 -5.162595526539811e-5 -0.9677356783717702 0.062171474032180284 -0.007107604956396729 0.46758907832652474 0.602270658887923 0.5158830517207152 0.03824994661172173 -0.2831552057594118 0.4152174807676419 0.46475040077049784 0.542368163246944 0.31677052172461284 -0.2804523953523668 -0.2866323086039686 0.06041441349564857 0.5915383300356449 0.3488471470551312 0.006755202181486645 -0.006374079052883601 -0.5071133450390446 0.37040374107283947 -0.5618477943197158 0.026431077853279035 -0.0025347123306243445 -0.22982966888495562 -0.3864512862252593 0.04758798669144948 0.06512000836360796 0.08450324049088725 0.07193523929150282 -0.02929159722400017 -0.00021068614694062598 0.0017347858372516276 0.0004795261153592437 0.27018495505680523 0.1259923053818783 0.25986388183755427 0.5493506787877737; -0.020241159163998497 0.2645869612896231 -0.04472884327435905 0.2943855744660843 0.0003682975837640499 0.015081373100283754 -8.174216057076045e-5 -0.21276438590961655 0.07659838053254253 0.007519173254565155 -0.00978691427562504 0.00010423216185792978 0.2365582024995101 -0.3080673720982816 -0.049200429568626115 0.3573441857756259 -0.27268036933626766 0.050304211768910596 -0.47075026048669283 -0.0012166181277311794 0.00866716821339057 -0.17070800780415082 0.5089547160349779 -0.19066659103280964 0.0023812878156271797 0.3351109213161431 -0.0007241132365350412 -0.019595239716630707 -0.018441020276044027 0.0049315255672704615 -8.56951758567496e-5 0.10501034735420986 -0.08164011739210782 -0.12183850499932988 0.00038160080792140795 0.0002345257239894 0.2676281403827979 -0.13424651607502902 -0.07470980429389017 0.003090275069885315 -0.3732882298928481 0.0758319307906682 -0.5887721917787457 -0.8671184682272841 0.0007633494999310785 0.0053950634251939845 0.04107422205931184 -0.0015914069218625787 0.005747357298835811 0.005647966512931659 0.48145142248209993 -0.413982680753905 -0.17518574341533086 0.05224783603481853 -0.29329742609276166 -0.08333140859169516 0.24636348059651145 -0.007278934354463617 0.07818816944685482 -0.08221958887997613 -0.0024131417306745375 0.9969387210940812 -0.4135231403615594 0.4938048688596328 -1.0444428285552299 0.9414811911831453 0.5769892567799212 0.11371133123705351 -0.00013953472189529622 -0.0038465574931864682 -0.013260223289317826 0.0014446654290151024 0.12713635011022512 0.003258566962163756 0.6229071192188521 0.028953779371937976 -0.004419688807051999 0.08930494524300905 0.4245763357336375 -0.7024402083687042 -0.06091066599634089 -0.2835764309130916 0.05066878223961681 -0.07245109779695218 -0.11978644513242626 -0.15573527868188716 -0.21993806556418907 -0.23460107395218904 0.5098564009798745 0.04459034331717997 0.04164992120773028 0.47416672769528667 0.246592726693403 -0.5887418360738603 -0.8534783492323962 0.2169793083754201 0.10083595657309964 0.20040746613030236 -0.2254619279874102 -0.008556770668547854 0.06902710038861282 0.04326252245704631 0.0036966995026803326 -0.503221893877145 -0.4637610679805826 0.03155753497507476 -0.22279657874984315 0.12208699642022283; -0.06330594072815073 -0.18851122100598144 -0.19504347526068466 -0.028738582608625315 0.1675208235016789 0.0018073513705388023 -0.004171590749610533 -0.23518132812770517 0.018690206174125763 0.18211568188278912 6.917712884612568e-5 -0.0034867110900963717 0.0029940503747795132 -0.09730098426899958 0.04002039373122175 0.021427529405083284 -0.2710516576629423 -0.5990222952592502 0.7516667417784184 -0.0013258075923930327 -5.861444645168998e-5 -0.002073756503609463 -0.002284548321181854 0.11753714947140824 0.9549380758335396 0.008643620003579721 0.16526575307888466 -0.008333004691887079 -0.3958191211546509 0.15616566694742312 -0.005095055308279163 0.17622357570590105 0.7634067742267763 0.12426036080359767 0.003699203996456796 0.0006951926686562206 -0.32947608857088495 0.1362197442853589 -0.34989017026496205 -0.1018112874057336 0.6550246949196209 -0.0497184095345772 0.5686527447379635 -8.253137605131445e-5 -0.002748880900777229 0.00013155634795420902 0.0003400737152123855 -0.00037661523097731064 -0.7594615380871927 -0.43900799715171446 -0.5571924400462626 0.2557638840146299 0.1966870556127643 -0.3749111993789639 0.0040847934671302075 -0.21078245378690977 -0.04877645034609275 0.36155853316722675 0.04185519698771458 0.48987303936307214 -0.08767169045006507 -0.159614478622217 0.4797598574003921 -0.04482492609098657 0.6814952555713494 0.09029275274500344 0.017962135490900134 -0.0002572329817786741 -0.009980826312752579 -9.271752341696542e-5 0.9783596371220497 -0.06529368633817714 -0.01583237069341297 -0.012010498645170207 -0.618330488769907 0.24066673961940901 0.7381297712246327 0.04062221329523745 -1.2469820114718602 0.13646928481451967 -0.5378099076396887 0.012987216570434638 -0.005056951075194841 0.0030559151593316123 -0.011152768404630475 -0.03418338734750971 -0.5239062820475808 -0.0883141500895449 -0.45106212330458756 0.031164790902642542 0.15793815010404474 -0.45372652271582287 0.05996744292776982 0.9514367059785798 0.5385640936175136 0.01426382959369771 0.7407222322093828 -0.006201858506343243 -0.63945100448683 -0.0026810084316322763 -0.039897630273447754 0.006371487479452192 -0.005063782962378559 0.6414575706325323 0.024139416476167415 -0.15020790138776088 0.05411790898858708 -0.19773497225943745; 0.02148045966779964 0.0018474590934898344 0.011101415198423586 0.0034828995672598465 0.01067183754516617 -0.0005187349741261079 0.0018281769299156537 -0.0009645788212025892 0.001892302224643603 -0.0045119443548666165 0.009907852521355428 0.00031269171848720585 -2.0866285304109764e-5 0.0023048070569920754 -0.0002252411503832656 -0.00023136682763807038 -0.000323856640269222 -0.005519867834207205 4.223549562454816e-5 -0.0008612236641315171 -0.002782614383679677 -0.0015696230011868115 0.00703217062675413 -0.025373813729392576 0.002299700108975616 7.428527568745427e-5 -0.01637340833667088 0.00023717072247913997 0.006703102721267866 -0.0003285412144524971 -0.004437050771825468 -0.0010349031273611746 -0.0003209476555668903 -8.87768036442512e-5 -0.002261285610044887 -0.0011970364280326552 -0.0009020498232181243 -1.0947389953543633e-5 -0.0017618391860851328 -0.006943943130488468 -0.14098024970159534 -0.14324238667760006 -9.408044560273705e-5 0.002894739384965388 -9.743025034204489e-5 -2.759016690098541e-6 9.767869126410577e-6 -0.1301943533973029 -0.001945588188931225 -0.6914551354362 -0.2482648666703395 0.08995513029494032 0.021370929135778934 -0.04616476355611261 -0.11548377163027386 -0.5124622018094389 -0.32830748181159913 -0.3154762028946372 -0.24378313105695765 -0.248793944523474 -0.0020285649029619943 -0.20331597028619994 0.3173219665526276 0.02147289414503207 -0.02227992426231984 0.007276047576823168 -0.09610414941780163 -0.11351077819581046 -0.14361631335992225 0.0023665357640026384 0.002666894171314884 0.006365959927420077 -0.4261761581147937 -0.23752230333870417 -1.0644680810299214 -0.24082041798196135 0.021869800591860215 0.07608456208671571 0.052392778636819286 0.009773197088322777 -0.0203045224359041 -0.2934871244968668 -0.2648085516608731 -0.021276340414105286 -0.06236145783538319 0.04855868315638165 0.13569701857283856 -0.008418367894246066 0.004804846366243986 0.021274896094135867 0.2519729032837543 0.4752188599605629 -0.16394168280033344 -0.16092630146405676 -0.30215292174670927 0.018462333051371342 0.012969618135528809 0.006596752644213815 0.09543694262629553 -0.07958001808763546 0.009497587680304113 -0.02511522218598018 -6.132694122675531e-5 -0.022798126941444556 0.005569956662014026 -0.0013074656502568382 -0.1715999668908241 -0.21412044116328083;;; -0.742746358614135 -0.5402126977084805 0.1535434030260196 -0.020548120985423895 -0.4102357682884238 0.006100151780029608 0.000503205311571417 0.24298163311138696 -0.28766041402578785 0.9620966350397469 0.0006890775723310746 -0.1147415843997178 -0.10636090554931082 -0.23388855849412013 0.9498386326126026 -0.03382390842626077 0.01505376532426517 0.2091627276226808 0.10088284363544783 0.0036877251969709684 -0.06994941940836238 0.022579899858354777 -0.007897508463086799 0.10095353011717456 0.11408114263338899 -0.03984168966588367 0.11575866288814499 0.08408255641088934 -0.013021673666911971 -0.06668241032513365 -0.00048774213161198655 0.02607248315249118 -0.22141740471609925 -0.43368429512228385 0.015825160470307256 0.0022953787441971794 0.012424464680851323 0.322686824312048 -0.0016813405712004252 -0.6989151157742124 0.6180081145027078 0.6247051755603846 0.028979202476016572 0.3279828332583898 7.657381685822924e-5 -0.0053730371194595835 0.3288103906021239 -0.004011064830554763 0.09791561017611598 0.213897770079374 0.4599941090242547 -0.13379440871159365 -0.07074962155773676 -0.08040082729769438 0.11812715801971063 0.1244138628388943 -0.1479750628662053 0.16021502921954006 -0.1342664801238198 0.30256415763935196 0.3844930815032547 0.19751236830904165 -0.565819847200794 0.8071734764042426 0.18636360702621704 0.07434736552833333 0.01084661146948933 -0.17060197436970945 -0.00027252068220218125 0.0014266161169873611 -3.4256390105660576e-5 0.001072739444546538 -0.00832394650949522 0.08596289475168045 -0.04418616542248809 0.3948129798728392 -0.008028730396213926 -0.0006804579935358108 0.9905983567446923 0.21396426682965863 -0.1592955896567523 0.14753467370456635 -0.28422873810286364 -0.10686335500977906 0.12039890096807446 0.9669766529109818 0.04391758440700134 -0.16108953247619756 0.02934325437287886 0.0715805672058232 0.3649257938521041 -0.28288013588758976 -0.1772996515819898 0.04283149931041159 0.0048455814370150785 0.036119441438318634 -0.44690638323929943 1.1140825149493099 0.015702193327355028 -0.3157943283392013 0.6629503682930112 -0.0064744214933494465 0.00021520756367747706 -0.4284553978560003 0.07363742390080658 0.019167595365530855 -0.5101928159400415 0.05168788561785716; -0.1799845106227625 -0.16978359962287554 -0.5671834487405115 -0.1611554771049734 0.036934750922798756 -0.0008736177391271549 0.0018353450659139047 -0.49442505219828664 -0.20446055156885598 -0.7696099483451373 -0.0002674442369516885 0.00010272196502375017 -0.21097741719643795 -0.01692204331479352 -0.1773564301962592 0.0037260332390630342 0.18736716065260825 -0.09107899039021906 -0.5193724904513934 -0.00030202087483476204 -4.522050421333434e-5 -0.015557037476411304 -0.013936790417312842 -0.002747640281535211 -0.7567688257195488 -0.2047554008567573 0.0012470539512441545 0.00048179850070240724 0.031544637186617444 -0.0016304901729218694 0.00498363542675925 -0.05942751051246887 0.6682051553862259 -0.2024121686743937 -0.000759589430693372 -0.0009315106759106592 -0.2669167403020587 -0.19359692391299124 0.04910065059499787 -0.017913076563441967 0.02345196619086019 -1.1003800633761824 -0.27890837155978004 0.03504751171843097 0.00032127199124070533 0.004634012011285215 -0.001144711729180692 0.0023279021829170714 -0.28910726073641957 -0.22274707015936676 0.3676495723045005 0.07905714041313901 -0.20725700112432463 0.9022261630364584 -0.0012527277699643014 -0.2548578141700288 -0.018753576051907778 0.025278882598379546 0.2652391738344012 -0.16762748644935752 -0.020440002242714188 -0.005068418494292675 -0.5018312318545861 -0.9106556812400017 -0.3217492300552184 -0.6409526532163403 -0.001009554304033393 -0.000896246266955584 0.0002602295500805176 3.57925964389616e-5 -0.12310830968094276 0.11773694907807893 0.042351001513156204 -0.13009094920319356 0.15381055354045198 0.18653294177108545 -0.1005114672204721 -0.525609508332861 -0.6383843775890111 -0.13738794951394026 0.4725070956794646 -0.1374978712938968 0.013914768857296663 -0.7552408006140191 -0.06660697419965661 0.10886324961112194 0.049770279035809634 -0.012659696502140688 -0.3372435227191624 -0.4448098098125788 -0.3375523781535444 -0.2630011679356181 0.352382954871902 0.3719178887872354 -0.4247850838699426 0.15078886530237792 -0.1257194426019368 -0.40993645380658905 0.3139596738208497 0.529885632882925 -0.7691818218351134 -0.00012512353965649531 -0.053137057305266376 -0.0016182959757919321 -0.08073655633704324 -0.44640626595471516 -0.010056784921323612 -0.08700948483026517; -0.021184577446238972 -0.418841149810861 -0.5988808170023832 -1.0193669176713083 0.0017113455997245348 -0.008198134153725865 2.430079556201057e-5 -0.4747590278494037 -0.32219365681528106 -0.18810737040929246 -0.24443017692802183 -1.8884031106782786e-6 -1.1661415572282716 0.0623299258960597 -0.0021136153550635594 0.04505715477845112 -0.31886129407076735 -0.136758639376408 -0.11065938178135816 -0.0007939736040214549 0.07123702784897785 0.0038350938254538185 0.03956399632075812 -0.0007641660535851819 0.019780588575519797 -0.09540416404773615 -0.20376630019670128 -0.15161860767211147 -0.008972984622856945 0.05097717967414428 -0.00018956782347953692 0.004132386565119667 -0.17862947568536985 0.7022613075631826 -0.008081177487949532 0.00013587852525717925 0.0033615821660497617 0.10722471156517964 -0.00871539323466324 -0.20819287328619993 -0.045690969837849635 -0.004182529023859411 0.2343768060799448 -0.36379060125205137 0.000207833673029682 0.0007366894384029604 -0.26507335562280715 0.0012764736328241026 0.020600083416861165 -0.6093859732831062 -0.7048203065851085 -0.05713635377693665 0.14308461981660625 -0.09432908058583984 -0.18204685490470524 0.17871203657416632 -0.1479002033082815 -0.301825418334919 0.17737862102507673 0.21874664525286194 -0.08451836697387152 -0.5232365853972334 0.4749692898026313 -0.21202958181124937 -0.06391242904875034 0.039913064213192746 -0.028491314219080223 0.20193426799516057 3.5602351055430374e-5 -0.007314057110323881 0.0053655086017171515 -0.1890199800740315 -0.001574291625753575 0.033535348598647687 -0.002122399319952071 0.15263133737425436 0.012233914922032957 0.4024480738775324 -0.33964660116722106 -0.039004524154164104 -0.21975921011530752 0.040392628292771494 -0.10695970857086075 0.3288401192501792 0.05702970297232622 -0.07130785341121548 -0.4210746723029157 -0.37945829238063356 0.09315602169661157 0.10778679511905655 -0.003771945462066563 0.055653919455157366 0.005595053651198343 -0.9591564452257468 0.3354261078129543 -0.4272060948981815 0.5740792655437801 -0.3476667877172012 0.41761077983026573 -0.7075044658364501 -0.0858859713669012 0.0007396076765859457 -0.0006248004972705264 0.5869625776265832 0.012512846778349162 -0.013594227903283167 0.15866829381575626 -0.019156743052412165; 0.0012558365575883977 0.045443565500340045 0.17390374869525843 0.22104211924196626 0.31708712259404587 0.0001841511054021424 -0.005460777323259675 0.24214264729388582 0.41564674750398384 -0.001217843465843591 -0.004249428253349819 -0.0012359508847213853 1.4820860928778974 0.18919165930477147 -0.7704992838577516 -0.014916264165273835 0.11615363074016335 0.011055841826273019 0.060802112276222196 -0.0019378260889411228 -6.0569089867108935e-5 -0.010038353973725345 0.01046590094392867 -0.08347982838877122 0.6489292651686508 0.3649100438967721 0.07953197217072706 0.08885095809518208 0.014271280785472913 0.010418151988709615 -0.0023191824122034896 0.029298117605598285 -0.26812202609096975 -0.06637031042656225 -0.00688580628987801 -0.001299374778115739 0.2531668555182831 -0.23633932130260416 -0.03783318424783602 0.9249012171100564 0.15904906460028384 -0.11290170421808848 0.015348304591184884 -6.44296549948709e-5 -0.0005309052772551501 -0.0002803921380569901 -0.06255978761944653 7.468699626768693e-5 0.16667407613488605 0.5315836398626994 -0.11089733368861568 0.3611697047749728 0.6267835488427385 -0.03833579010319202 0.3723838687318176 0.015138459560597317 0.10185081899286919 -0.23495256511569904 -0.3272152439960321 -0.15862843228272877 -0.5356103131513809 0.3028334088879962 0.5641472455792251 0.2862610369387845 0.1882196200885513 -0.48035789630776055 0.006291961206379413 -0.0005388034088895433 -0.014379747861654881 -7.406362280138037e-5 0.11454832508600281 0.08225557852384327 -0.03539125774679268 -0.001534380957125311 0.47151452786891657 0.05079065644697473 0.0784805208547679 0.10868460187687609 -0.01586500376982543 0.19407165503399837 -0.16084550766327982 -0.19082659290166817 5.087578491939071e-5 0.22524045348565605 -0.0981758613285598 -0.7502945783718743 0.11994936796768614 0.05901746840125644 0.25162186434435424 0.2934385136633103 -0.018593645333452497 0.6035195705892945 -0.14288092556917203 0.06148401741255538 -0.034783681223725466 0.18336099292943686 -0.023109031516767894 -0.6238017948786322 -0.4335345004320467 0.48372521773692445 0.19275245881125463 0.0021203375064018527 0.2195935274863613 -0.0028326102232465703 -0.008440815063440134 0.40670945771206596 0.3173903353746761 -0.2555148754315285; 0.9426596101255481 1.083393881641877 0.8386171140216166 0.9800283965197392 0.054502549171854625 0.0027874490074212698 0.003097926150212343 0.4840597996424176 0.39866787490594097 -0.00316147281947361 0.24825797184599224 0.11587670172252612 0.0013937870961228981 -0.0007109833919175173 0.0001306967964717891 -4.301542597955085e-5 0.0002867373537305356 0.007619060317673272 0.4683469163210815 -0.0006539046291736286 -0.001181818846535018 -0.0008196022336719489 -0.02819559838428715 -0.013961895393282952 -0.026022170658010765 -0.024908789326394988 0.007228611186585067 -0.021796705334662356 -0.023821259682321447 0.0069175688352016255 -0.001987143059464236 -7.54768107402603e-5 -3.624889378713557e-5 0.00020546666005716785 -9.85872617863417e-5 -0.00020037181542796058 -0.002036162063125454 2.4709338367813298e-5 -0.0008707325412981917 0.00011984851379780265 -0.754818175456002 0.5927591210577455 0.0002040584126338147 0.0008246859302255209 -7.477420387346645e-5 0.00028272780782839893 -3.253563068955097e-5 0.00033200201854590155 0.003917491008556381 0.08665163350039952 -0.01192604105503093 -0.2492960826995815 -0.4918615459772834 -0.6891604650497323 -0.30721144407685874 -0.06340654480362914 0.21277802323352535 0.3512840716326985 0.018863929260373908 -0.19505488416012762 0.2560756008647119 0.02795922669448825 0.028534543673523666 0.029250749708223892 0.011078431989200386 1.0070501197825747 0.012362295847244874 -0.029897243949606016 0.014356436642721113 0.005925712019698938 0.003228732383328454 -0.01204528697243722 0.002938494368885274 0.01212708680999074 -0.5790165166669284 -0.7847679154651537 0.01782576183988518 0.015157290571988339 0.0032976257813652496 -0.23164344819555266 0.06739321175587507 0.14039716219822712 0.3772228020315084 0.3080235828879629 -0.01264576841218427 -0.25423747073901387 0.20743744089241856 0.49419005295771545 -0.036877617694682216 -0.027996066175611265 -0.005007824903040676 -0.11329218622124401 -0.037797431371938535 0.4829230397155444 0.11929707584369877 0.056936795228048134 0.021655591814223996 0.2673225214531126 -0.31373814654642374 0.009687943555801961 -0.0006350339022512136 0.0037395998500181432 -0.1660468772475019 -0.15405627357154444 0.0030271007213276396 0.03412344078040154 0.04419097167093277 0.3099932176963487;;; 0.14464007969191484 0.2902840232810578 -0.015798976903575762 -0.005830981035075031 -0.008259237081421492 -0.000947335515993729 0.0003100408963952733 -0.03309752405689418 0.31090670607910587 -0.38798875221813844 0.0006487364810383752 0.0010939209634178602 0.21728638784018833 0.06050374064903017 0.05132127010132004 0.3791808505529895 0.005952597470370684 0.07190766778115237 0.01826761100646649 0.0014958398516904297 -0.008131002940594748 -0.049437321837547954 0.007669201783146148 0.17482423302366604 -0.4469911014557286 -0.4273746830061927 0.4291677552334193 -0.20241070572771364 0.01303991649369784 -0.6490776734501522 -0.0013220852324854883 -0.5217124133870408 0.15181257589149538 0.14794165820277677 0.004006097418093897 -0.003448893284600502 0.2472900782153876 0.00047223927696842254 0.003130850516885333 -0.14282973760988102 0.04820774653760265 -0.4397252338953404 -0.44065604865227403 -0.19440393644030993 0.004951275950647926 -0.005422461203144363 0.3047734245869679 -0.026636558307364208 -0.08005158437132327 -0.21850689622984015 -0.7384380411198866 -0.2089903716235219 0.22193852193292077 1.0605541225167394 0.0065134878456762245 -0.07579254464496289 -0.4972669023733311 -0.07501960985295976 0.20541945056633593 -0.19202819465704424 0.43792452961901135 0.19497947875893787 0.31575297180063916 1.0621021619058528 0.4402754398168141 0.20403815620374655 0.013697039408872977 -0.003913745966794167 7.387096566060151e-5 -0.00031912399970689717 -0.00013446777482503127 -0.0005714132821307355 0.30425268994784194 -0.01747350905693512 0.046882026624141156 -0.7090316405835181 2.360963576857692e-5 0.21932128092282735 -0.14220469260958862 0.10437194713074466 -0.2608174836112508 0.03912927811498118 -0.1826517439864265 0.5726698873522327 -0.30021944314635696 0.651348783626235 -0.5963252855914964 -0.5776112151005378 -0.2510115435425364 -0.2918284920344733 0.40367982755559095 -0.321786593071458 -0.7013961106020671 -0.4007887219177449 0.8057592676069857 -0.3635409770113227 0.1663085427941522 0.15585060580352944 -0.437429274371946 0.21407027714639926 -0.32823271526331266 -0.022590490100354268 -0.0001874597606717647 0.2418782277314745 -0.03494319937376356 -0.1284511306566913 -0.015730869239559332 0.5514238179311942; -0.4421445993013612 -0.24437189004062707 -0.2761296259741998 0.035030763470353686 0.12777430233213724 -0.0035905092784148584 -7.006603008548585e-5 -0.23066857178358566 -0.25400518270111044 -0.06524027584558793 -0.0003840320049997093 -0.0004073441294632844 -0.17057413892084322 -0.10869418733524161 -0.22279500455440296 0.0007995711301904825 0.0764909998571276 -0.03755857880348684 -0.6480294819704431 -0.00047763926623549293 0.00011098613114299949 0.01231003764058344 0.004118261424522143 0.7155494203156066 0.620602309161665 -0.025576855411737428 0.013792100468616878 -0.08703227989884456 -0.2509828343487053 0.7000329369232637 0.16787670246156644 -0.003277562803748365 0.00915579850319551 0.1471524927255136 0.0004341169849661058 -0.0002803027123280929 0.4105395679183452 -0.007206084142550764 -0.36976149734416514 0.31881634051544766 0.012560756650702498 -0.17255072994158485 -0.006621573316969888 -0.04749639954470384 0.0020421805980025886 0.0009137611647900401 -0.0014769338362359767 0.022354777272402798 0.04582002982833425 -0.47390096660577813 1.2610371093817143 0.1253680817964598 -0.48210093284399735 -0.4374898874067014 0.12797250405729926 -0.0205273462941679 0.11372945406673754 0.04190979530307004 -0.029170799506509835 0.0024208312605694966 0.3430210670679841 -0.33605149154311803 -0.9538491702027627 -0.6262122074383858 -0.03672643494233721 -0.07177912234025496 -0.03362804036559122 0.0007040365372604153 0.0060347439145980635 -3.576311558855158e-5 0.0367829893828989 0.14526307994506274 -0.2919134383636849 0.44657525659816383 0.4300991248517838 0.10680085384976307 0.12125827659795618 -0.7421843768154499 0.8408238014980867 0.15230694048683222 -0.002841478353776296 0.3223309351932667 0.031777478911468794 -0.581187242387089 0.3646009313725927 -0.5225389691384454 0.3642879643978964 -0.0017034184201785351 -0.12089585830003029 0.013853774150071897 -0.15106366143790845 0.17188027390535038 -0.024444989126560998 -0.16876667810291682 -0.5052407952617777 -0.08549244830329977 -0.006971210831616407 -0.8175241678757283 0.40464643150873825 -0.30110077940138413 0.1428305649550011 -0.00014858938103126575 0.0011175722859416426 0.00010206262037784397 0.002162775299548491 0.07840980932798229 -0.6207010210284233 -0.42042564834610696; -0.03476621092510342 -0.05565060177679777 -0.00775873795572595 0.22561533262363204 0.00038641258891082656 0.0027046657667401043 0.0016540262499524785 0.9288331550022282 -0.14050888812101722 -0.3228207236450576 -0.000808964109750692 6.52915357355473e-6 -0.03834289633883971 0.018855934981238574 0.21533838707371872 -0.37792609868835214 -0.005737197001629788 0.1860110117753112 -0.003231729365506802 -0.0002838758011457702 0.007999128901164259 0.669333234889368 -0.008916277765228823 -0.007684891554320282 -0.09474613706553946 0.0035703536440989166 -0.25641809937381027 -0.02039901991419256 0.01643199002946806 0.016026778255941006 6.31566190940037e-5 0.518480392678283 -0.39211412029812626 -0.11723951525893364 -0.0039477117799705036 -0.00010050483476725998 -0.7922183963743622 -0.0006331020291067228 0.0067517089291326375 -0.20660288808817145 -0.037152214488919665 -0.25432418671189655 0.44798421132792726 0.2417578879190217 -0.0009246796804261352 0.004383779080341479 0.05265459705047472 -0.0001571179704654162 0.01871462860676986 -0.634526641815465 -0.37059550858589163 -0.2342890849356404 0.41163935766061605 -0.25619182581840955 -0.1024727105973257 -0.038814498517416564 0.274950576888729 -0.005206236208834863 -0.35582989914738156 -0.26055272642045535 -0.218364570368649 0.6752853802405281 0.912955429619089 0.019551037426093338 -0.36631522064044525 -0.7461231917456621 0.03384561313434387 -0.006461505147868972 -9.751375648340584e-5 -0.0034461798257309556 -0.029237894892594783 -0.011138481328356323 0.007660298702075029 -0.2567559968864542 0.018112742868020625 -0.005861173704824701 -0.05448607494012968 -0.23802184002862753 0.024281941143896986 -0.4468218969623935 0.23339996604380367 -0.06587807540627247 -0.8125937801820234 -0.0885058080812617 -0.7000143329596707 0.29470454112979205 0.3488191386654709 -0.04600421340877323 0.3524331074146355 0.34883343756716784 0.007557209610438065 -0.18479001929221486 0.4448876839850318 -0.026432034879579527 0.29740218907687277 0.13323342721162004 -0.03567720828520054 0.12964541002757035 0.13794069459184288 0.6448438373511278 -0.03618979706920258 0.00424836253873026 -0.0008780845015959987 -0.238249677619651 0.025823861509618552 -0.0075690333126732685 0.6174585255572351 0.09020244870170002; 0.42703285782654427 0.1737841496232772 0.3136414005643381 -0.25634561418619045 -0.1194559539256826 0.0013950908066001956 -0.000685928413922041 -0.6297494166038059 0.09187623562116878 0.7753977180933401 -0.000541520748073356 0.0005941790909434697 -0.00810472658280095 0.4061264951249942 -0.044005587331597915 -0.0019818476423181667 -0.07698790888908946 -0.21777132106176125 0.6392933911047178 0.00015836766233528929 -0.00011995994433756695 -0.6321295047380897 0.010097102217533033 -0.8767820795030008 -0.08138819024829631 0.44860563592644986 -0.16822204130199814 0.3084849570299378 0.22875893152471632 -0.0638603074282357 -0.16779890617099122 0.006459619148206794 0.2312592419210366 -0.1780754877027526 -0.0009526462934415838 0.004039445547825957 0.133465886189349 0.007386727891465589 0.359280093989898 0.03007759776592631 0.014066065719135315 0.07125190938754375 -0.0006212061597528172 -3.999242815045193e-5 -0.00597084619860515 1.6985842488753702e-5 -0.3558818002203993 0.0004352186784947995 0.008126978757731815 1.3312971063082584 0.04549946165332808 0.3195345417117827 0.5532053387976201 -0.06874453938402852 0.3794163805665892 -0.3440094033757245 -0.2844077704816774 -0.07766569082786258 0.14251969957307237 0.5237034605107277 -0.10764081630521327 -0.7366159660876963 -0.2481860938176771 0.011247119730957031 -0.11129998246771101 0.17324016458886965 -0.020937449570363403 2.9387744934585786e-5 -0.011201361630847825 -6.534761009378702e-5 -0.010800668886266337 -0.1363576485402887 -0.02191508804281975 -0.17186475703531515 -0.49440904620374254 0.5904033583969979 -0.07841368019923825 0.7473917858078788 -0.06793443786163503 0.1838651158548965 -0.03418398161034542 -0.32250171305586994 0.7039593269292624 -0.1734815296436911 0.27499063740970875 -0.6233010098994809 -0.28776356670801145 0.08676319591589585 0.24775402800300791 0.11792374171903833 -0.09578375771138828 0.43160883273233025 0.2397231600327479 0.6266172473968079 -0.7822870848782184 0.19388234587487566 -0.20074661658370735 -0.24643583533369315 -0.11615033896540562 -0.7429036805323338 0.20371565123121096 0.0015479397137159205 -0.017710190473843326 -0.01909063405363108 -0.003821938456002447 0.04448391391027065 0.007841666892514941 -0.2351969626791896; -0.09476212729199453 -0.16404568108691017 -0.013954059730836587 0.001530499127279762 -0.00044552391394397635 0.00043808822106828786 -0.0012080727023402247 -0.035317642557942536 -0.008268870878146985 0.0006520336154438226 0.0010857803817853821 -0.0012872850784716003 -0.0002646259977044381 -0.3767919834200214 0.00014093471096210687 -7.247535250972327e-5 0.0002815085632209675 -0.0025887796912154636 -0.006299790775234409 -0.0008926924466444555 0.00014084785262505635 -7.64459543138721e-5 -0.012968287659972502 -0.005906682281951668 0.0025231196078994065 0.0007755488473814273 -0.018319715026227826 0.0013570485108129718 -0.007248003699176938 -0.0031217343008167592 0.0011811323228162877 4.9964364299395464e-5 -0.00011349601760123355 0.00022085203339587025 0.0004601436703520841 -0.00020974471613010253 0.0009228640512804426 -1.978099677652451e-5 0.0005988439082491299 0.0005386874166785524 -0.037682354418520796 0.795348241161278 -8.538319893047873e-5 0.00018244049414252502 -9.793066961922959e-5 0.00010793511552409089 -6.928758080732029e-5 0.004003680326932023 0.007389947178487354 -0.004362601657175068 -0.19750302132926417 -0.0016231669490801698 -0.7046822855471596 -0.29812786990759993 -0.411429661872239 0.4791437928322718 0.392994641899542 0.11598174158658714 0.03706154851448311 -0.07354337069379761 -0.4549402100131332 0.20240259863134852 -0.026673137399288418 -0.4666881116245174 0.07406619823367933 0.4406239932933008 0.007022837392737771 0.009641826832468137 0.005190260507072567 0.0038664145511201906 0.0033900421707872544 0.0028044632057129966 0.0019155377565876664 -0.0004809936194593283 -0.0006848481402030012 0.017688602041581875 0.01161786890564316 0.013493150113371244 -0.65496661217076 0.00627789348992012 0.06444297753156883 0.026919575153894544 0.25950871832771866 0.27050469275980904 0.3606422073237264 0.19978665428189912 0.17098174923614068 0.5385556510135937 -0.22827973357507672 -0.18878246140180477 -0.1643896180167323 -0.09691249427400762 0.04123025571084836 -0.030629812496566683 0.18436642345613766 0.12191765222812681 0.0770864929063721 0.7784639873783216 0.010992487236770435 0.1850903454361907 0.017876296146303153 0.016942777228939353 0.017658162450169452 0.015360021321429763 0.010778501020598965 0.013126440731111645 0.011131697818232617 0.013996344392402448;;; 0.6115236502401972 -0.3080576998068596 0.21134696849934623 -0.38194253580289805 -0.001578747169422551 -0.004145704231172589 -0.0009320890741414593 -0.5763484030637177 -0.08434620390526354 -0.12431798070827521 -0.0011805480208318048 0.0012064943394520721 0.33772348748855385 -0.16051510658733353 0.5637127812635273 0.10587696214359019 -0.17889994694036637 -0.1554398820139943 -0.0028565690576699875 -0.4380230652190568 -0.013366581021160688 -0.3166557267904967 -0.018638339039071177 -1.0024666378585028 -0.09943278206921645 -0.36609886860497987 -0.28691370075580364 -0.5266279819704361 0.11797191813178896 0.28770477300849634 0.0008589347834928141 -0.28246943710702255 0.05427624000343572 0.4354771792409543 0.006454816159532125 9.449298695984884e-5 0.39409240165458026 -0.3517570028037314 0.023414502662762245 0.014609839482734527 0.5959642246017297 -0.5257022477746216 -0.08296266530904049 -0.060948372260660064 8.326184985099416e-5 -0.001636714781921802 -0.12812303033086955 -0.0023778279973031237 0.10999604268083453 -0.3357780647674264 0.1586394316880272 0.09487444642062764 1.1041666884661305 -0.23209597437333707 0.1288105110927293 -0.015230920200438291 -0.28954161221768854 -0.1549134241907671 0.16824353530360545 0.060352476448214745 -0.16510264134804406 -0.1423513000399392 -0.18641349511683156 0.8498619387143281 -0.25246117473657964 0.10849071453097271 -0.00013295026147583383 -0.2730531986157872 -0.003252494263426579 0.0007828907031251629 -0.00013806762863204775 -0.0037275622005275293 0.32657419471101273 -0.03295397623857272 -0.6697492395536332 -0.3035123287357084 0.0037644068947060407 0.0015673623367284278 0.3295532547246422 0.015428227035607367 -0.003860953999044542 -0.09102960552840285 0.5016599677583748 -0.6214661551338503 0.0297408634809244 0.08912925087924828 -0.0871981359083566 0.3016344718706632 0.1455644458968992 -0.4536864822014353 0.5622508713201447 -0.13361297927910226 0.1214534515278027 0.09137340415590423 -0.41152024575508 0.004728915552997132 0.2071731583159283 -0.12269693383710008 0.16277331796867578 -0.23653428497175344 0.4700711606077295 -0.0008113415423621005 -5.190579344537702e-5 -0.17746939366259382 0.2701210208486641 -0.44888292448995903 -0.32317823922942773 0.2304021769735437; 0.4436114017287975 0.5353917508717959 -0.27480829526424416 0.3563678049007537 0.061520977401104404 0.005289551019346743 -0.0005785192586833702 0.48282745412768807 -0.18984899836638536 0.21087144294008145 -8.12011450776536e-5 -0.0007842230760014908 -0.00286816306317986 0.6141169626462685 -0.37245730938678656 0.2864915062246515 -0.07848061248670221 0.3599168221879946 -0.0055343473439024215 0.14427356665466815 1.0374610660709248e-5 -0.0063230140684367815 0.0012538565103482526 1.096406632160668 -0.30666501257899076 -0.07935159557652038 -0.0007834347715979537 -0.00227419671575541 -0.4088431667793774 0.018329033851891764 -0.0004903625044144124 0.4460454435244175 0.0884837006491219 -0.39717804273523766 6.887926052790307e-5 -0.00043727948432446654 0.2675673243096358 -0.11660618969489439 -0.33656094969269834 -0.010314036768831553 -0.488444962583534 0.7242192380630169 0.004722370773715998 0.1050909373948859 0.004035871547990035 0.0016510087485038872 0.0004674470272649609 0.0112633026043957 -0.05390564429161274 0.22605797374276893 -0.1316124031615353 -0.008039683868484714 -0.6016070142695794 0.6880414592988207 -0.38647237232318943 0.48445254652178604 -0.36489929132581955 -0.21986058711847428 0.03542314146303364 0.28790976123935713 -0.4351033744318694 -0.04048254686598979 0.06227974146113005 -0.6133320064475071 0.15976107592245678 0.09426826403775784 0.07078281246350558 0.0016987087906436204 -0.0011416558668411933 0.0001316534908275863 -0.3666710164368706 0.015179523740721085 -0.6760126753160697 -0.7204139915169324 -0.14001596223293886 0.07839455847069934 0.09118350261620554 0.05024100023802268 0.5396117669605462 -0.000686940635738406 -0.039457510510087106 -0.18865568244555259 0.256045512789358 0.4218993110073171 0.1478274627066087 0.1438726494682851 0.010604974122299991 -0.3141686564665712 -0.6737870173915927 0.00044349815398032015 -0.6505079509109266 0.6927877598777988 0.07214755550207853 -0.18739993039388103 -0.5484866149713743 0.04141006158178216 -0.5713556878017125 -0.051642663038139865 -0.27363294512113345 0.3033274448081207 0.15008413598272485 -0.00011087552545105597 -0.007450790675447722 -2.918798153329518e-5 -0.05767488983518637 0.005679610532069326 0.18447692955738276 0.18221607960595465; 0.034443379170488474 -0.6203928090468206 0.36228427267014923 -0.05587897192798955 0.005863845410312378 -0.003282635866416677 0.00021454122742239353 0.016709659756812562 0.5287600888928067 0.4513683232785375 5.617676203909655e-5 2.9795740400439704e-5 0.9262286218434658 -0.6506008649901113 -0.01790331152623961 -0.41920512524053444 0.03272560617896915 -0.23442643188506082 -0.0021889006369231636 0.0010355627475982555 0.012973916059461368 0.014068420215180273 -0.3940903135506884 -0.028956431098049063 0.1451179806476112 0.18461313495123605 0.027950336385398837 0.10674094850430185 0.0038736690347371183 -0.015054219908207093 0.0001515464730715748 -0.1539615248709847 -0.003562982056771819 -0.20736705907314942 -0.19827432003109016 -2.5453976582867188e-5 0.010259406226585614 0.5331946718622816 0.2843185024207665 -0.38950447391378956 0.09870276413446412 -0.006605233505654115 0.07691398858446584 -0.04385596462397547 -0.0004412388398487506 -2.0980906257404264e-5 0.12810395078881182 0.0024607961330717016 0.0028154283266216837 -0.04846197415303097 -0.09300641836603485 -0.05368366599138541 -0.45502254706672285 -0.404267953149224 0.03675917279888907 -0.6584735889778006 -0.19599392649412997 -0.03966809637260166 0.030198817121641863 0.04060312835352172 -0.16703907356996353 0.28894659689025015 -0.5183422044004884 0.7630510637255787 0.2581785642626994 -0.09810810449246542 -0.11858467523349521 0.29362667131171905 -4.920335657129945e-5 -0.030385893037914374 0.19366666357184484 0.010314197732311181 -0.03155502312377206 0.1365295307538836 -0.6115596284213839 0.08006759050924821 0.006342081376972757 0.46253331642836354 -0.5443348524454824 -0.3478270238668172 -0.32282840814792557 0.17147973891474316 -0.7724145176306386 0.18536889538741458 -0.009457987050092955 0.049849672802499745 0.10012004715155896 -0.0726740718588558 0.3407821559669656 -0.05862604350502182 -0.02539941802291058 -0.3825355238486434 -7.228700877079547e-5 0.40546474994515896 0.611221354155119 0.23005582420073836 0.09069250755558728 0.1008987835087333 -0.4196615600155864 -0.056366270762653645 -0.09087425550413772 0.000724339724222858 0.001012807445935608 0.17334273841102754 -0.021190136275206092 -0.34162274389512515 0.5642531362452433 -0.35519528165154; -0.9704084400923089 0.6276589774529123 -0.2806486536001361 0.08538376733492124 -0.06783141977828668 1.1566396381240708e-5 0.0003589285370883917 0.07635875803004949 -0.2623522436713822 -0.5391418586361786 -7.009860765394506e-5 -0.0004644916891641148 -1.2663773130956513 0.1972917288062939 -0.17336206693681885 0.026896692975795545 0.2248166306163767 0.02651124661352392 -0.0010878863309076593 0.29021999577043933 -0.00011780981725618727 0.30099573194099616 0.2636322382544264 -0.14906563850714402 0.006711191985126791 -0.16169561206811947 0.13902903790050525 -0.01824782993985755 -0.030598537465449313 -0.2984716557501701 -0.0008951829692768493 -0.009913264540047028 -0.13910377815857702 0.16860545882401998 0.19142800188978445 0.0006264118162459055 -0.672670296857038 -0.06496470711096136 0.02999399644385635 0.3858993069451262 -0.7035419103081568 0.046791178173655884 0.0011725705481103403 -2.2814872947071835e-5 -0.0036446302049087265 3.859374616162004e-5 -0.0002736749427705122 -0.0005854107753480236 -0.05235627534688427 0.14820429845948224 0.049669416621855755 -0.03068083130392906 -0.1679973547375532 -0.05230018801088261 -0.02699338804267574 -0.15833472846952262 0.13059885798664417 0.3647979173054834 -0.43656724421480114 0.041903349505121625 0.7688280112432532 -0.11034455438525366 0.948369282506021 -1.4969144075628598 0.09314678791051334 -0.06747695550140831 0.06474196319640411 -0.00011510775304907517 0.005524757780549927 7.170177288945373e-5 0.13442870537274004 -0.28753260382223267 -0.1367942887621649 0.00028337456349752395 0.24920327225545372 -0.1845920994885061 -0.09873865874415412 -0.5168345019339643 -0.3084457074871757 0.15808866110426867 0.16248694629504024 0.05483769968100641 0.02043491926945388 0.11687010331130443 -0.03019790091891695 -0.6897282843867802 -0.1271490043039625 -0.142586646995185 -0.030073895284602022 -0.011971547129922848 -0.22416429042538788 0.0039746124449838065 0.07705790201384233 -0.04809757317660007 0.4040309145586561 -0.2807927578439223 -0.005682565991570183 0.005433898678170815 0.19027780819833431 -0.0069306293819239185 -0.5429462931136974 -0.01185877835273873 -0.0074872204194955305 -0.002160900759565956 -0.4439656114812392 0.778542594927302 -0.44201347871410734 -0.14309812709053116; -0.11916999104717421 -0.23460021947102802 -0.018174292305115195 -0.003930064504787367 0.0020253441362924457 0.002127222681861282 0.0009371385683140442 0.0004525311491675473 0.007787357050224469 0.0012200731258348832 0.001275671011524307 1.2424685313093715e-5 0.00529336682681148 -0.0002927198751175486 9.906586317821872e-6 -6.003610350287303e-5 -0.00016167736827725406 0.003438245097536605 0.011667703369403232 0.002493940046351099 0.0005001001682947973 0.007914588702756999 0.14784255782498493 0.08408207530302768 0.25426862201546924 0.4225329412983837 0.12071776124149745 0.4404090601217472 0.3175961170783006 0.007492068797989039 0.00037506421712687284 0.0002987829936367279 -9.318043720877428e-5 0.00046246374341277327 0.0003226227212456794 -0.0002581713422984206 0.0007511646662364195 0.0001332277473055387 -0.001166051834686706 -0.0006906357452396183 0.4973198841554968 -0.23870293495639713 0.0001537354027483173 -0.00026378563730327964 -3.3264353083551876e-5 -3.190680648630106e-5 -0.00017469254243670764 -0.010760859964816254 -0.0065495513689592 0.00997776671820619 0.016309973217687197 -0.002470265256828461 0.1204602276077248 0.0006226562346229543 0.24789607647424677 0.34758669112597557 0.7198359720509939 0.049644190376359656 0.2027017503265202 -0.4307687155462152 -0.0015829218933762182 0.0042318044009324795 -0.30589332444983103 0.4973334115704603 -0.2586252533590899 -0.03717391857485683 -0.016807150164938632 -0.022157073733526385 -0.0010814042937108553 0.02939964707107217 0.0387137151209178 0.265766444549728 0.5177877924909939 0.616555062438124 1.1721215579525024 0.3296422792442669 -0.0025513321437302147 0.00249282293084958 -0.016384461752530437 0.17499707636267955 0.20365992636201696 0.05336784937820586 -0.005725882186548139 -0.10267215457218576 -0.1379124382185232 0.406876711236747 0.10362211893846016 0.2277949034499488 0.21751431081233003 0.5238405746823996 0.3378207880390804 -0.180613869195037 -0.27058662203495276 -0.2613406505305821 -0.05524540798732079 0.004597956508404696 0.27917258792176713 0.06800691468833585 0.34024337896970985 -0.0034962596917896952 0.013665252027380646 0.01205665569632903 0.013977109442453022 0.006316743992665523 0.25270961674296766 0.006283462925712805 0.01646165214090905 0.08567515216257282;;; -0.6733530547322932 -0.27547025755046517 0.33396825389785595 0.5643418875429127 -0.004206721171034255 -0.00028392400023954706 -0.0032080638286963153 0.04339205874450267 -0.30379909043795883 0.5351995029218816 -0.0006017283613931933 -0.0020617313420698965 -0.35409510550372725 -0.7072554260872641 -0.11577754852562622 -0.012438452261818427 0.03348638024389484 -0.2570724629725697 -0.23358680186282307 -0.008106122616836492 -0.00594181864921219 0.42243028941759436 -0.009726614085797326 -0.33661204665918576 0.01880617013528423 0.15569065661719114 0.11549339365553112 -0.500490867135649 0.09875165996136037 0.0001863096120546001 0.0011287805541637117 0.024183182171803274 -0.11848770402405741 -0.006928798592068896 0.02878876491010122 0.002053301756467412 0.18632410404133098 0.5574823664902233 0.009184796675753268 -0.007076787315434404 0.8665838422711147 -0.020238572882827044 0.12668917414609573 0.715940990470123 -0.0004196808198514943 0.001625766523555072 0.5992026165652548 0.002279057693425577 0.2856042202450179 -0.48231539474557017 0.6027036689315945 -0.014576960784663032 -0.24921507416106461 -0.019612399352629154 -0.05680367796306916 0.10715772781260972 -0.47604544996420656 -0.2654441111852502 0.28036436310491375 -0.1698574255408049 -0.04581778096979016 0.10644114610393667 -0.42761554414614045 -0.04301772834524922 -0.035755449739456144 0.2054550436583243 0.02305575645092269 0.004455004993122641 -0.0039838991790595605 0.0012353755060225213 -0.00025968716492348793 -0.002847432041219795 0.06541386556750507 0.19537546305318135 -0.2733856693836771 0.24267734648576858 -0.19247130767551984 -0.14926868743638602 -0.7907131076325316 -0.3493320788097243 -0.005098583771829742 0.4921109951521843 -0.05735818166206778 -0.04810204576029753 0.001128882199944333 -0.33441061461627486 0.08568643894283273 0.4396687094504361 -0.41679456891212074 0.3770115538832836 0.2823919694658791 0.0028710072565860906 0.2411123185521026 -0.020343078532398532 0.4691810690035188 -0.04746467366651963 0.7150567248134326 0.03893157485891705 0.2970280711147893 -0.3023950094783878 0.3125709753467521 0.01749582606956897 -7.692886257634688e-5 0.271729523964921 -0.03219761066567136 0.16590732942288428 0.386666664614957 -0.787885637949916; -0.0895979216512225 -0.10920002425109826 -0.5504317798972397 0.012689344536979109 -0.38392055536286485 -0.003322254835767413 -6.433077526593857e-5 -0.9042370604848637 0.72615239737078 -0.07713398360252587 6.861612866480876e-5 0.0023515413192433323 -0.20844345223074878 0.07162338867263357 0.024382970837229942 -0.5773383896847664 -0.0772406247639996 -0.0062606906940946535 -0.6073656774899203 0.005500606424923138 0.00015038799872118207 -0.011047523839145037 -0.5570115982772842 0.0016269659856821114 0.1597043207387127 0.37482841298194347 0.0003005483572966904 0.19900522266687556 0.1536657311207907 -0.4328093824004081 -0.0068877123883499545 0.03807127786959219 0.10510010291860146 -0.38470027557892006 -0.0030530447450621244 -0.002159317009772734 -0.19358214584228214 -0.411212485591012 0.6567733055255092 0.09205781441644946 0.13120718926500458 0.5674126915816582 -0.24031700536657974 -0.4103846182428224 0.0006850422284730251 -0.0017830623282628082 0.01366146475505408 0.003829964852844776 -0.16451074998063292 0.03889351837261638 0.017402694491494168 0.12036772882104475 -0.02481849765002661 -0.008671958934306265 -0.2227137455381576 -0.38866333047168794 0.007447170524612511 -0.2027904716203072 0.0004825764681573971 -0.18689106394952337 0.1490070385365322 0.006933463141488849 -0.021096388048953044 -0.6401100935780529 0.10602081662954946 0.3421623956956653 0.3166938318452317 0.00015176328304801357 -0.001415375712377024 -0.00013298753019690474 -0.13003749795440403 0.2695299942664639 0.24117408939614973 -0.21129228863069552 -0.08785394947947558 -0.10008943150884243 0.3279627579354494 -0.3023857455150775 0.015632287899773258 0.2596191712708543 0.0008583017947880778 -0.27463038630737324 -0.017352563637296127 0.4203167787227118 -0.25045973707593366 0.41726774236484243 -0.39707527457998076 -0.029483711235472422 0.0334125600590586 -0.26758649333965145 0.18204919949368695 -0.45112339052671147 0.027124640949999293 -0.12131506096890309 -0.12332969662605646 -0.5116066154002434 -0.18893510607223385 -0.3248553172552316 0.09280983394708345 -0.01642359164028696 -0.021148017219711674 -0.0002944021298290062 0.003217695292793743 -0.001523327820089742 -0.20974919341141246 -0.47256218335006467 -0.5282858533603976 -0.06556456041287814; 0.2384901305429403 -0.07193742909416109 -0.5318071038623328 -0.009657610977656718 0.0002446927016118514 0.004034612617781912 -2.7453662019558513e-5 0.12627774731653385 -0.7171363415721967 -0.4542353495477007 -0.0016505334738094676 -8.828996540557239e-6 0.5715077685021775 0.3559174628771942 0.1014672289858776 0.5692007549676105 -0.5802561191534774 0.6747087146725327 0.6122519645299586 0.0003714914658018676 0.002831622740012 -0.4156030039996059 0.3334454819560292 0.03985171599163901 0.108834187418464 0.07076451365986705 -0.14528065806802362 0.17353978616264365 -0.01148997195689415 -0.0024079408167438222 0.0002714414278563829 0.004343273535241034 -0.3368041183788419 0.27944713485885875 -0.0008227416671497028 -0.00014847389010926008 -0.009071649813496162 -0.16397872220460658 -0.6366590218279814 0.11568490633142739 -0.5222279418660621 -0.12481471951732476 0.10974285151016287 -0.3057963683108038 0.0012884015140344081 0.00021325766081198516 -0.6098784136692339 -0.005137027707759101 -0.1282384962616826 1.050480279697599 -0.19705603257437368 -0.17829894433286775 0.20093139703679924 0.30247882339276627 -0.47253492536078234 -0.290615767540575 -0.019174629653268143 0.03703925266649083 -0.04773269190315438 -0.2910480649498227 -0.5502350793482225 -0.035743664387264874 0.08970538068093155 0.6963852020425407 0.001559026088459068 -0.27750495765586247 -0.22118191964835252 -0.01621481351898918 0.0003273727341110965 0.010472368420883905 -0.5136166518061431 -0.0037166225583028316 -0.15911814738435578 0.012703940113805557 0.09705158102316963 0.0029951139329576345 0.3589016799028099 0.14728621431471375 0.07424976111414003 0.13254498864709324 0.004583622988354995 -0.0869624948699127 0.05354547673877288 -0.2205466413851291 0.25685120555272534 -0.010692744157097965 0.5569794016638804 0.18883950425908472 0.5906326055612788 -0.06527785114381383 0.6835053585184824 0.49329578876023983 -0.0996567512119633 0.5092502591446976 -0.03712714422539115 0.1135623693573796 -0.06488366501221267 0.25539070214960036 -0.37482872504619 -0.0712504089012663 -0.6634477198821084 0.003933604694339336 -0.0012997486152213369 -0.4299204672085632 -0.14434722271030018 -0.05836192914682903 -0.39910940361552383 0.4124906305944905; -0.10897608449178275 0.018042769602534793 0.22563319382850525 -0.5719417264291329 0.3890289588022681 -0.001471996400372961 0.002949183668979617 0.7344272377074386 0.2956640448611647 -0.004682157874179388 0.00037639595041958946 -0.0010400962917459457 -0.014154417565493224 0.24959221170370632 -0.010076737276030267 0.020730198246803937 0.623897865458753 -0.44043137035190943 0.22851693656655167 0.0009881586985303259 -1.4449206293069305e-6 0.001101680202570899 0.23256907300506732 -0.538826358499626 -0.2869944205608901 -0.6004924920513458 0.030146849854101997 0.1284280744356566 -0.3410534302423332 0.4305877540915247 0.005366044831931424 -0.06955969445746717 0.35003694053088197 0.11238643612024646 -0.025494836762308497 3.502277619662808e-6 0.016650184592070003 0.017663962855319904 -0.02935417034464171 -0.20234718906710022 -0.9149511204063752 -0.4266079816782446 0.0038504641847531534 0.0001779591291073573 -0.001606933893269501 7.470254960033144e-5 -0.0030595275749497864 -0.0008257734599105703 0.006477146635523591 -0.6266825611168244 -0.43000019904938547 0.0738853674236508 -0.055105093553668126 -0.4656264032842743 0.4557146645565421 0.10962844771471374 0.21320778734727241 0.21657911786409345 -0.2426348978282193 0.6492074218152557 0.009651434564112962 -0.23955211175256433 0.4921888821620426 -0.034955092657617044 -0.035256821437549164 0.1879700348449657 -0.12502400832391983 0.0006606748699953074 -0.0018228439055128815 0.00014364835342016525 0.6645588170089781 -0.25178005350940613 -0.13358629217680082 0.04966638565240282 0.2755003661383886 -0.01421458985201095 -0.5007950773008591 0.3016011589756049 0.8297044884908943 -0.05517611082725526 0.2909707360731983 0.04291886534951139 0.1853479222141239 -0.11550628520883337 0.4245704285882162 -0.07861498563542978 0.1857325559374244 0.005060612388222502 0.16668724692210996 0.3588955696811473 -0.14481195999084315 0.21555614715947713 0.0034172840872637375 -0.36421345346859363 -0.034199802885180236 0.7378225651610533 0.005457492462124623 -0.0092683412611149 -0.011428475542804004 0.041713385148351684 0.25270474681844535 -0.30325168000969355 -0.16571569844160877 -0.007312278775140515 0.3636371921422015 -0.009342368421453025 -0.02808177104011803 -0.02036107052900176; 0.6334369303323582 0.43856494129318974 0.5226374360332113 0.004568105326897743 -0.001146374969980855 0.0010435626185980088 0.0003506645970021953 0.00014001671638865204 -0.0008810102217889327 0.000851988102524406 0.0018072497561182625 0.0007591153111130676 0.005185206797791696 0.030122362833730022 4.085978548947736e-6 -0.00015411126782966406 0.0001124982148291457 0.029055809346041028 0.0001835782562331142 0.0012458660275811591 0.0029612528311083143 0.003118558218585706 0.0007236574019850407 0.8339597231814905 -0.00035025773157086625 -0.0007910912076558646 -0.000660133798906183 -0.00048221612952671823 0.10012601111707627 0.004443259513572647 0.00012144557439843572 0.0029619608808306736 0.0001547789534158692 -0.00020449680811619614 0.0005818582644191002 0.0002509868657949194 -0.0003204929776226905 4.487845007539021e-5 5.508997136064936e-5 0.0016812556346577742 0.43938803073631794 0.004248582496738259 3.451552556799501e-5 6.203695439580936e-5 5.3170970613561876e-5 -0.00013066440570458015 7.385992387491778e-5 -0.00014622137860068255 0.0006678793617740312 0.019624157792179204 0.006949868200670379 -0.001377191127164791 0.12820726832796012 0.1914319381784434 0.2963376843054671 0.4624929224849395 0.2745651217455898 0.2146162122749731 0.009520650158302491 -0.0014108673751046905 0.43739438721736745 0.1619211668944037 -0.13318233064788065 0.021697712538378423 -0.03656757154100321 -0.4580825165430928 0.006456339676117967 0.010947370372823216 0.00689474606283837 -0.011718404750129688 -0.020644980083507455 -0.011185886157535154 -0.013883515402498202 -0.0464535001886942 -0.01131232829840552 -0.13136843905787282 0.006401947138119713 0.0027670596611448985 -0.1288734298722761 0.01234402971903198 -0.29131407708451157 -0.17343697932440982 -0.1641826536535329 -0.036161806368451795 -0.4320907792649522 0.00645060204396017 -0.4313231219641568 -0.604085114862271 -0.37393784363032667 -0.40304277908096564 -1.0031345674872052 -0.26059955264959156 -0.17199749237740233 -0.0033786661748023313 -0.2745244252668909 -0.2923136454516698 -0.4666954461911108 0.039801381507829046 -0.0035807044728787393 0.34835562487158933 0.11932001493662256 0.28211665137561426 0.1638746806266127 0.16702654983887247 0.0226568346451825 0.3743591514954624 0.5688103634010824 0.4613206382973054;;; 0.09024075801216247 -0.005315097442042384 -0.2541343523873037 0.0028631896152421905 -0.0014755819846151816 0.019288487424648074 -0.0014496470321460552 -0.01926923721743862 -0.6078126106521671 -0.361069897133036 0.00013486214402859612 0.003090590126194253 -0.1760015405076408 0.3729869384229984 -0.23869888493554758 -0.17675667882556395 0.11837981291779662 -0.14881683071494178 -0.06101538154773375 -0.003248808417805333 0.1311313529321909 -0.2979616050223356 -0.020200318421382105 -0.34291550405024906 -0.3901460736470106 -0.23456186704330795 0.1192424355594825 0.04951634987481343 0.9241318110166532 -0.2319634211669569 -8.24978685689032e-5 -0.3228134792982767 -0.1840418482429152 -0.06600943430117907 -0.26487675317816656 -0.00846644327619408 -0.30767758382436855 -0.02211560908148842 -0.06263093447034355 0.03405097408198891 -0.09349425736741664 -0.07114690554092554 0.027591579298983447 -0.15373502880114692 -0.0002398375258165802 -0.18114562583065227 -0.0031305160476886866 -0.00033713761538572913 -0.003103354421933515 -0.34728090133179396 -0.2216274060564789 0.30909749886325716 0.26300820076308007 0.14204059290937998 -0.4107055751400164 -0.1626536916319669 -0.22651351057268068 0.6262648847283265 -0.38404684989564475 -0.4165922187281053 -0.46215416170058066 -0.4536855109777641 0.6907369799980425 -0.021297030909040646 -0.09794816511027071 0.4662263783880663 -0.04755874035634897 0.002675876563356281 -0.0017828596917690473 -0.0006323708701039057 -0.00013118837050560535 0.001777893260466268 -0.6291331015906279 -0.025938702658404606 -0.38862046244404264 -0.15707177736653147 0.0008275758593837337 0.14538916344077762 1.014064292932938 -0.23619261552026927 -0.9613605897951571 -0.34973490955606107 0.457149791607863 0.20457253463560615 0.5153865667800686 0.4298428467749449 0.2668508006798461 0.28313451290547154 -0.334352580454244 0.06964885516373276 -0.37279133970997314 0.015733733562232007 -0.8617029253399234 0.20250265921228328 0.1470451987187381 0.7591038544919764 0.07933334961246162 0.08066049152749788 0.2286008575384791 -0.24274604287081444 -0.20888727896684517 0.011594095116654029 0.00037071912316031 0.10190745196834396 -0.2278943989554407 -0.0191421539418361 -0.2199394586514017 0.5782161542058153; -0.047280808582156005 -0.6868493604140821 0.14571814898375818 -0.09988290524410423 0.12479978349578925 0.0011601061969679486 -0.00022502349503981714 0.4049348651573354 0.2745516554635756 -0.1626932452232371 -0.00019163969766204566 0.0008693193685929783 -0.03763883856678476 -0.0028310936535082725 0.428743830874708 -0.29311017729071454 -0.34990839036959376 -0.11154635320029466 0.010976994418031452 -0.0023629553074789515 0.00016849289715224823 0.25664160286900706 -0.26519186506765935 0.002620683393872186 -0.008111721752008395 -0.3493229595793504 -0.00011785134166006674 -0.0017359461016489587 -0.030678375839290457 0.06396212036820642 -0.0993614328300973 0.6125317153751846 -0.2845094810095849 0.2071899207142793 0.0008404074026790932 0.007563838222181009 0.17085260323095705 0.004044769655776221 0.3844797421107388 -0.0103969963824395 0.28552772292473094 0.07382622615312381 0.006607358324260675 -0.07273457558795017 -0.0014812873084893987 0.001067557060527941 0.12432698406246626 -0.00954070522790736 0.3222989578082262 0.010669905422912839 -0.5052080199724347 0.2670076076235944 -0.7259022490697143 -0.710218210367096 0.2440236424930337 0.0890860803454961 -0.08988366503448018 0.013466640588330012 -0.28730833161918473 0.329895818651183 0.8888499776491624 0.02841596147029007 0.4124975653822243 -0.0511334010216083 0.1713039766205955 0.1898900696724514 -0.011016839608516392 0.003860738589535715 -0.001939521807440994 -6.291162851315257e-5 -0.014944005581416024 -0.1705336287234035 0.0021866813852534674 0.37798625791566237 0.316278301122257 0.023558158710504006 0.411927985495524 -0.010458234138961544 0.11660577764933093 -0.002396746185402805 0.23420355279818036 -0.6923572724407843 -0.07593315716404078 0.44181416589629663 0.0017837958361123659 -0.17729486753796203 0.5429927436889171 0.1377525930385438 0.08149415877770246 0.06666422623687049 0.18757191055312358 0.23924578984494083 0.5643650309956099 -0.13781751489130625 -0.09006283497995313 0.5726050390959361 0.25530858766934195 0.09514444039370418 0.0921481709822379 0.407585796217767 0.0004005625176843518 0.00015451882994943977 -0.13174650314871245 -0.005601382760250484 0.0057171988143946305 0.23189689502376615 0.032274275827601034 -0.76701348499129; -0.06972610090166986 0.5513749840353865 0.22207882005442808 0.3669053551635087 0.00310791252070157 -0.013851208274683733 -0.0009994698589280535 0.03342599020140133 0.19676496560383658 -0.08195400313566246 -0.1807656854995316 4.401305622776164e-5 -0.0683791177167153 0.24976917906775617 -0.20870892159061194 0.532998278649667 0.02552480334177626 -0.14797439038767216 -0.029671616918279353 0.003390591811822862 -0.1321373860968285 0.21220328260193544 -0.17869420438023356 0.011016996675252501 0.007343780402949549 0.06712706310288584 0.04305662225023374 0.3275697798818975 -0.8943031014713174 0.3589014141801002 -6.466222483024769e-5 -0.4380819107811084 0.7904914760956941 -0.11466790375578406 0.26627016245681606 0.0002575702460740178 0.0020199248479569245 -0.11021994095335894 -0.33511323949673505 0.4546485678939651 0.006239935508998531 0.024255199773214393 -0.03583124939959872 0.22626543667973087 0.0024186178760534785 0.17998918397050226 -0.12154104956909095 -0.00034912932958014 -0.2151391968248915 0.3439607929353481 0.006692781089961037 -0.22527346070065934 0.53088687123619 0.3434951344631058 -0.5384247521715984 0.03944613100928978 0.004413092551200639 0.026173087255334973 0.0035108707020035665 -0.36033121720907135 -0.12123968993745086 0.7189390570360987 -1.1390116418004026 -0.0461572603362681 0.2484894710672593 -0.14426190144479117 0.10726784973053602 -0.010904672869495088 0.000122600582058817 -0.00520300247418698 -0.1599610883057548 0.0056943287227865305 -0.015667208788486854 -0.4395020530282996 0.32282030306840803 0.13266445582892725 -0.4096803377154706 -0.04227976574376006 -0.15615552042865638 0.44850758311988315 0.8825654470419639 0.6106045259124915 -0.16805098355073325 -0.5392699903333125 0.0005932908216972569 0.3738750921308813 0.06197949846843338 -0.44055979731100586 0.2174725429687604 0.12012015295956738 -0.20098470961958134 -0.7634341403206488 0.08600352567914951 0.3685245489799469 0.20488749208346085 -1.0083325694140666 0.10851997376798497 0.007228582162835103 -0.17160533007951007 0.011437403874060035 0.07468528211602643 0.004328434533044316 -1.67631766319256e-6 -0.152307554345267 0.14972045249667612 -0.18683902775290875 -0.031816380237211846 -0.3044582366566721; -0.1762057329186547 0.14257469190102065 -0.11497437086946742 -0.27074094038620705 -0.12653992531146657 -0.008431705817928688 -0.0017322562165508642 -0.9018660743078215 -0.19099456469166853 0.6070885046607357 0.0001653936377388491 -0.006051572369038945 0.010317718060356902 -0.6231392998783983 0.018691092747969006 -0.06331768158657797 0.20582463132893994 -0.18901188945534342 0.08212059438295194 0.00025984158318206044 0.00015781254224671377 -0.17504815776186045 0.47498421461836116 0.3282988416155348 0.391475177042298 0.5164447441223231 0.021610937009206865 -0.37515483102654196 0.0018745643897605999 -0.19735945837966237 0.09754807111617002 0.1462916540532799 -0.3218389148361315 -0.02661703105775916 -0.001149604717092445 0.0005295249678940355 0.1363442657137369 0.12829443373892205 0.013904594648261168 -0.47471137880461334 -0.19336767651945 -0.02190174119025993 0.0014017705233622159 5.5427900607685335e-5 -0.0006504516856289137 2.9405666972342665e-5 0.00011586058497388641 0.0012216291728590334 -0.11082216908828765 0.0017030046258399818 0.7077835127506192 -0.4242872436696313 -0.7498782370756233 -0.5057824256471208 0.15652065240700877 -0.2842840828829948 -0.06472424658444959 -0.02808929998757072 -0.1997035995104761 0.4606795397999679 -0.2122422180757614 -0.17485803594839933 0.08860394952340318 -0.2033619151898178 -0.31147448390291665 -0.5291695856598692 -0.051761121588462355 -0.00019734290588581396 0.003938258193195144 -0.00010237920188001823 0.1709318141573329 0.1605616297952791 0.63864943726279 0.08695130329082866 -0.2470792108671112 -0.0026860707322123242 -0.007950903837964833 -0.10983513302590535 -0.197208023755237 -0.11107833080532803 -0.01375308157702497 0.4297969551216119 0.004431192291183749 0.28764674900514087 -0.26502589105595353 -0.5811705829142884 -0.5752890298201031 0.23800017258127437 0.15883024304476928 -0.13536835682537082 0.23028902218889782 0.6960061271907778 0.33261594180570475 -0.11642843026180533 -0.02641352342717203 -0.3075581983134165 -0.5041155984788934 -0.0044831051507106465 -0.1503017799958154 -0.10630659203694379 0.14733005217980857 -0.0012366101860634754 0.08465363727693388 0.011029569591260722 0.012305735955248675 -0.19905637793126613 -0.025017180474591193 -0.11436320713410655; 0.2029718843903181 -0.0017852180802825986 0.001311754218584857 0.000855300851560399 0.00010781127959092299 0.001834320470996397 0.00440639660266479 0.4827744561665235 0.3274905542764235 -0.0013713591688002003 0.18065706941542622 0.002047649818023953 0.271701778730784 0.0032142760411519346 -2.7117096517512527e-5 0.00018625905318949847 0.00017914278108092138 0.597349463758252 -0.002410590334970296 0.001961330330279362 0.0006797277252386847 0.004164877313253566 -0.010897826749086173 0.0009789823655895417 -0.0005611620462285956 0.00031301939744935434 -0.18379214347726303 -0.00019535262851996427 -0.0010248980958060254 0.0064593449983126675 0.0019605218073264394 0.002072020650920493 -0.00010123200706247796 0.0001044484004430184 -0.0010842119642361235 0.00011550984004501747 -0.001539209968282322 -3.653359850935454e-6 -0.0006401627919212874 -0.0035911667889011777 -0.0049057245468628555 -0.005032779195152736 0.00023054125299237644 0.0001487398087585183 -4.70413561185859e-5 5.947913264971832e-5 0.00022872096933951094 0.009005343000014194 0.0067657625268864536 -0.009052801652306982 0.012359132188333257 0.07345559788343911 0.6818854141460674 0.7304649086417312 0.5485860324115723 0.3184055631601758 0.3767083296404098 -0.6378153125844209 0.8675479103233019 -0.01365192251397414 -0.09321390793536961 -0.11881147158022536 -0.05282685310326733 0.3219496074567349 -0.010370798674667397 0.017315039044142694 0.0030688518227917137 0.004565400622488905 -0.00033847727604391966 0.0060006641746840565 0.0041044681003435165 0.0024997769448715894 0.003964191731071263 0.0005031944802131483 -0.0033989308795111723 0.003535233559312529 0.004875680198527641 0.017183969467849315 -0.7773065263983754 -0.09883989060888305 -0.1416553284679621 0.0016907009627420157 -0.21759684318427266 -0.3947634592037311 -0.2527377623819247 -0.04525248845357578 -0.29653401301709353 -0.21832748121428389 -0.12344436433698815 -0.1210648775347998 0.1559151165875331 -0.1875515102773018 -0.12128157314054068 -0.3167812630391187 -0.23545633239507377 -0.015818125860429355 0.06095368742910488 -0.17855040893332652 0.001158081554608451 -0.06997056518406883 -0.0135286178466742 -0.014840438293584309 0.04672382306628144 0.044971915545912795 0.060151011689121264 0.1731406646022448 0.24449874353560366 0.6076187745762532;;; -0.324283158673028 -0.00253338784742803 -0.013735633005873445 0.00015275065426746106 -0.0011515931823217085 0.0019586158293199247 -0.0013565103056679228 0.0752708849398952 -0.10794399025786613 0.10720533757724544 -0.0006117079807556229 0.0005837866077706332 0.3571377892961774 0.05203859391202188 0.38001793477056134 0.007424446306410173 0.11764460760466514 0.027002859843302585 -0.0020668057617940177 -0.5525446845269294 0.3760190962133063 -0.28537825516579174 -0.04719330700374456 -0.35474441415699376 0.7781793865999114 0.6644196371498851 0.0956466588921112 -0.01930967967110261 -0.1307395750237012 -0.026460657155937612 -8.34994418763305e-5 -0.644550622419173 0.31148380906634215 -0.5027711309494968 0.07281506310472402 -0.6706748376284029 -0.5807261948560989 -0.2414218559395377 -0.023711060139318847 -0.06479108807609055 0.6940809184006912 -0.43503799136594135 -0.17451225870195347 -0.0013553146836315139 0.00043306056105944075 -0.0034365537483151657 0.02922432474863454 -0.1182128657361282 -0.17254635772881888 -0.46096366007360706 -0.2320055393229813 0.6367580007840016 0.02029458089905512 -0.06798567486891341 -0.010796467211460974 -0.3396507396624563 0.37086224963344905 -0.1598759802245931 -0.2417165562004032 -0.6574635875567678 -0.09325744333311393 -0.03129311435735933 0.07932892147283631 0.5834644053770406 0.6782661674458791 0.39804208467989466 0.05244948494829503 -0.09234971759035075 0.0010438588573606514 0.000621470689597497 -0.00017456550267562102 1.694115214430014e-5 0.18905754850620898 0.25002087808175794 0.004451868556000275 -0.8568552126291232 0.00286927251483074 -0.11388524330431171 0.6680900582861274 -0.052059735237723115 -0.23256950373242782 -0.003082187050675299 -0.7607783622225164 0.24046997799097153 0.020496041637269972 -0.3107195893036995 -0.06183989774375082 -0.012759604609710505 -0.07125193190539125 0.09689726243630621 -0.3301216151681521 0.1578792458733205 0.04984581474287507 0.52946467265822 -0.05060566281513317 -0.09960451444578275 -0.1503528599714046 0.3955303639344344 -0.49049369950521177 -0.19463626199791875 -0.26191207883132483 -0.1806274695586962 5.775104982782956e-5 -0.17693174595057176 -0.43506375810789977 0.11312221502528044 -0.345199195495302 -0.47901748631170477; 0.3265284889375815 0.8420861997017771 0.02675525632959058 -0.02224127205064621 0.49849308862592756 0.0003209754793932353 -0.0002158129207771735 -0.1555136222868488 -0.24020399981367652 -0.1414821447144347 -1.2401031657102313e-5 -0.0015565705083175564 0.5254555657714558 0.7872819025291895 -0.7101178229911835 -0.0010069755958966892 0.631589334261295 0.09180448863696553 -0.00010941458231524949 0.4441048010719399 -7.40500332119818e-5 0.01116325928095272 -0.024706809727655692 0.004896945397200993 -0.7731236144478456 -0.2993840071294138 -0.004740335591191758 -0.001953232581864329 0.15123736287509085 0.22260136851664644 -0.3721996612270149 0.4307636614560446 -0.2925278034556336 0.0962589943520258 0.023603364480227266 0.6694925187675821 0.2655210915657921 0.20497374724956516 0.001980854247512829 0.24782634271699683 -1.1798246413972717 -0.009077038455169084 -0.013031054903911723 -0.0058777102232125495 0.0017958817533621238 0.004086465441904484 -0.0013299931318780365 0.12070243335020388 -0.03658468293905788 0.560874613316445 0.2944426168783331 0.2766160446433158 -0.15889898563843569 0.02890983496255712 0.0030598681925691046 0.4419935024237051 0.1653866978391724 -0.14932201692177444 -0.12620098989007214 0.19474652595675845 -0.07199264029187227 -0.7593269375823619 -0.15300189160553554 -0.48085149933784305 0.03742052718065412 -0.5308189659148081 0.008297584408071535 0.00243555903946451 -0.0012645750383509882 -0.00024849632699682216 0.0396467751487186 -0.1753670903426674 0.02276364620357917 -0.2663165956476071 0.27109138028238167 0.5425565710578519 -0.2273465140793341 -0.5592650334309431 -0.08846077229371048 0.15222709978059593 0.09070160735795929 0.04102992642483859 0.5871111091908217 -0.04866755239965478 -0.33207131302661186 0.4087836342602167 0.26046927448788226 -0.7193975070482643 0.016554751099790824 -0.5581689215290192 0.058496238076845355 0.0024326934646150904 0.20101841083384694 -0.13728810220134374 -0.04850098747820635 -0.600633168721382 -0.3698967873400487 -0.031604265985229085 0.5361193927915715 -0.09318616307111756 0.3158672920598803 9.195991802594052e-5 -0.19079632088693982 0.010267032708167352 0.5643541775026563 -0.007564912728898358 0.3638193983995883 -0.06587962605590894; 0.599277375177422 -0.16065237810826494 -0.010582975486164105 0.4776483972219007 0.0012616331003842847 -0.002366935495707368 0.0006222911328185559 0.3128850366066333 0.3549087278269698 -0.004167231782397716 0.0010280485096326836 7.291326557851399e-5 0.18390637811179655 -0.9702990526080054 0.5978065867097169 0.023273393637673223 0.001119118671351933 -0.07811270811830413 -0.06484437831127662 7.85693407480695e-6 -0.37667346435694427 0.29827169655793373 0.06529580395514893 0.5199032594105527 -0.001348308310043434 -0.43518523088212385 -0.04583002093454294 -0.1030732528124362 -0.020676832021245536 0.013333185813876939 0.00025545518495212504 -0.41391313627492893 -0.022226258775688332 0.008973946702386187 -0.09567859056228743 7.768356601878247e-5 -0.0957630377970061 0.041505204976849536 -0.001141646893499511 -0.8574282581895665 0.4135428922419851 0.39060915181558825 -0.033792446918741226 0.006580377155956679 -0.001118457479294605 -0.0005938344855806811 0.011434938644464395 0.0011297091533138779 0.0032394776782288083 -0.765034774786617 0.7880729519643115 -0.3412518495452622 -0.28960039361823026 0.002870585906635374 0.05264751489573363 -0.05743465662616982 -0.031110093926776824 0.1707754270548728 -0.1099161339292766 0.22658323117629958 0.23154570931555632 -0.10301663014888178 0.3329504874075498 -0.11293613942301145 0.002698100832156985 0.7743551116258982 0.025937755181456072 0.10867838530063652 -9.320100774070787e-5 0.0045126172369000855 -0.008419870428914648 -9.153768099322718e-5 -0.021528654890528374 -0.006320427587725385 -0.6548782801946748 0.3093893648192966 0.20508570349376734 0.48298381562168485 -0.3007175846650624 -0.6206285900997947 -0.002513424093174226 -0.06882413449156556 -0.026333066980524237 0.030695886444736222 0.2015110258864494 0.004446716282752738 -0.6984463877098148 0.06456319066770455 -0.21787151233843616 -0.6158325060517122 -0.03185475386666818 -0.3086890302612325 -0.035209918633410324 -0.22917057829313242 0.27463645830680083 0.4601299764790353 0.23516408105849088 -0.4817976861376443 -0.4277350949282199 0.3935740456648716 0.01677348435655829 0.0007348285046194145 -0.003757500337762935 0.10359913328852247 -0.10811174315400786 0.024850240714077796 -0.16715054670344712 0.23167661129465633; 0.15931825016226359 0.12384842975997958 1.0170702047044116 -0.4513124039419983 0.07339847079491482 0.0006395967271107436 0.0015669121371479611 -0.22701060935013856 -0.000698694938844889 0.040055146508295794 0.0003141884200982063 0.0025047969627807 -0.7835405049430743 0.1344281726175329 -0.26760281107959133 -0.029664297390784748 -0.7501898165984481 0.34871305776392825 0.06596450780654825 0.1075614517096914 0.00037697682423615123 -0.024775630965908867 0.0027147082434157543 -0.162380733887803 -0.002793381980874771 0.06715517423548577 -0.1614719434693821 0.12152844544597131 -0.0017220440235912252 -0.21024793402036845 0.37179848889000844 0.626082249593768 0.003358185220946869 0.39754254947636963 -0.0001986087726855682 0.0010429694516923824 0.4077983812412513 -0.00511102296561534 0.021496365369194387 0.6753145388081863 0.07896949465249213 0.052351724339434615 0.22119883719009273 3.050267181129988e-5 -0.0013631017273601528 -0.00012918950578278356 -0.03927784243855782 0.0001688232854465187 0.2103188462333171 0.732276032795868 -0.8366110115971014 -0.5639049897432854 0.14897284475919148 0.0260073482847107 -0.039134022725241774 0.013730333346428956 0.061060089273446305 0.6102806573050978 0.46037930024677864 0.007256107841487044 -0.06513330190587263 1.1335061349066902 -0.2550704964643403 -0.00475111308466648 -0.7821082826986729 -0.8216656049534004 -0.0721175132670169 0.0001427215133524449 0.007909713202741692 -1.0348651233657038e-7 -0.02243352129973429 0.1815529414418195 -0.18252073058547386 -0.014553853663964712 0.4101525897677995 0.1159179535577547 0.013284382463751337 0.19016123470347263 -0.24259276367900345 0.5390938962474571 -0.026375165438032828 -0.024653541273257085 0.19130667411315772 -0.13499758132677747 -0.219086798607984 -0.006956660682782695 0.4265587538471195 0.6182158772511954 0.20808557852198326 0.36304152046369526 -0.22582406512461417 -0.2715049962927367 -0.747972163668991 -0.14159958486154606 -0.45834337585376583 0.03749044079178053 -0.0003744611619762068 0.12074052028714649 0.43684237875157556 -0.07928849563063617 -0.26279789391644226 0.032392672066594914 0.005683333052998413 -0.0023775794670307247 -0.02186592906701801 -0.12983345149550135 0.14728090555636705 0.030772529663204762; -0.7608409556042389 -0.8027488635060638 -1.0195068525419646 -0.004247471883523668 -0.5720015993389049 -0.0005522525401165355 -0.0006168800435214208 -0.005631689909541113 -0.006062042816582241 -0.0016111075887088322 -0.0007181279173181646 -0.0016049263278122908 -0.2829592282363554 -0.003449616450738921 -0.00010388740950318905 -2.6566957401963226e-5 -0.00016324393886410499 -0.3894076981258922 0.0010560908488376464 0.0008705748112232409 0.00035144135261373517 0.0007189302928141605 0.0038896045328355574 -0.0076750567629569385 -0.0009140818611475245 0.002994426626166796 0.1163956411030056 0.002807719619431828 0.001901088193447117 0.0007740368457827112 0.00022921659393066932 0.0016178476442894262 -8.793205596702933e-5 -4.359581284783549e-6 -0.0005412282499782811 6.166584310954309e-5 0.003169759846061518 5.3926678738320185e-5 0.0013754874161111422 -0.0009215352595261443 -0.0067686638978964615 0.0011541536660876015 0.00013692333451370038 0.0006221450790760837 0.00025261689223319336 7.311229777414582e-5 -5.1427822663078204e-5 -0.003788100052836081 -0.004427283243669152 -0.0671522112520889 -0.013899017922561862 -0.008217206138769749 0.27923195359841935 0.010197905715010211 -0.005776893151599988 -0.058638439481507945 -0.5661989428192908 -0.4718580872136032 0.01745437977297329 0.22887772258222278 -0.0011623237846974885 -0.2398694528180871 -0.004207020810510251 0.015074346468480406 0.06372348723998278 0.18008737456241541 -0.014567311270805745 -0.018906948263102727 -0.007595796014010648 -0.004885488112988424 -0.008618817917394045 -0.00611125457030318 -0.007771809233785945 0.03716999881753933 -0.030817558411506768 -0.11100867680577987 0.006107155606984673 5.226410097423841e-6 -0.03631893764835113 -0.018632670690535126 0.17075648590567563 0.055529936390659354 0.008693645899061284 -0.0875007307092755 0.3291510441108765 -0.09555410055648722 0.07325825711856385 0.04937804373907477 0.06448311462205336 0.7140626446807299 0.529304196082589 0.4198820872160336 0.5323178567256792 -0.02140640730219768 0.2828135678403045 0.2026172658963488 0.2854600274149387 -0.002868932098707506 -0.05473297710971546 -0.026463124965199116 0.1920691963313285 0.14740800906945595 0.1888127371218765 0.06544315942091265 0.000687252826269355 -0.0005740915149585468 0.0012494382427936917 0.28244797140975264;;; 0.004847869258771559 0.0716777618885067 0.20431010070848224 0.16210789909964454 0.0441444792829392 0.3895119907883908 -0.0007713755210428919 0.19494009842334828 0.144981019286216 0.1765038459782197 0.00032763323430611203 0.4601294456844716 0.01785620603958909 -0.05646956322632011 -0.5640910322868602 0.6627278488129138 -0.010898270877563869 0.3418586052287867 -0.16885434628451623 -0.00711786220083502 -0.3615217774265499 -0.3193302279175163 -0.004679695411084357 -1.0040965156824446 0.004381915790888007 0.13552440711107802 0.054014163153617005 -0.18048182580058098 0.18099842107833677 -0.004782401258818546 0.0008195856119761596 -0.2481106694193713 0.030770248750725555 -0.3061003718524768 -0.0012194357684469526 -0.0007612485624775568 0.029409567685990276 -0.33480119905140815 -0.3511737507280962 0.3106330879805561 -0.40736159424452706 0.6505961913307611 0.10563714655500382 0.4426205573687443 0.0007714848339622863 0.0037723461094241947 -0.013283178757510967 0.00016998249658735774 0.523464800400094 0.2703758556304491 0.2618306077631003 0.513428182786923 0.27614631360348246 -0.15536002986964026 0.46334619526677806 0.32763609634666785 0.014345982207499877 0.2733708053905744 -0.1202569978422344 0.692607238512333 0.2718092380735523 -0.023775465478580605 0.17435062410734617 0.03888700359563299 0.13926015434117023 -0.4672984192690723 0.04328116765343625 0.011143060208359694 -0.000282601768402515 -0.00023375556664210375 -6.265930181366798e-5 -0.6826120419708676 -0.022618612354496134 -0.5211762649134595 -0.0013265126898116988 -0.5182523371263593 0.004283031982769887 0.47685489011653087 0.07211779925179901 -0.29501620805513273 -0.07954231024489093 0.013885798617795781 -0.30238738200159826 -0.5058731028293862 0.19889737396212448 -0.006441659546922161 -0.42762922535926384 0.028247205820683727 0.32615789572622345 -0.0756632342977933 -0.2574416557054889 0.8546479373345546 0.8628378959916772 -0.12387182731177414 -0.9637791497712647 -0.057889627693930835 0.4371858974794219 0.01066348075500467 0.1175902635893079 -0.0018736800376580336 0.2628833131451223 -0.001772425370796854 0.00023043640383766208 -0.298693737232363 -0.4661030554998419 -0.26047755290785846 -0.116629742108141 -0.1082307513295203; 0.6045649778386578 0.5892271926087029 0.13765396398393553 0.2899323890304987 0.03635083000433313 -0.0015706677662292836 -0.0005707335202114659 -0.12153895263767116 -0.1431039213599116 0.24774104905073357 -3.96135818157116e-5 -0.002197307431375363 0.016794871977203467 0.18929398258998234 0.15924139568562357 0.00039683362929115773 0.10278006643139925 0.4810246995797383 0.0031239205396385193 0.007196382563286186 -0.00016519595383470394 -0.01074067727757008 0.0094098727123115 -0.011253136911979647 0.6590723623085126 0.0795211072368731 -0.001841817250135182 -0.16919029551250792 -0.6494393490680904 0.5009563734882799 0.19068528592044107 0.2555405858455366 0.034711149717804334 -0.2727210605043387 -0.00042665668706839163 0.0013811524489850246 0.4234165791361703 -0.22024781727696272 -0.06634527386267337 -0.04695640662088708 0.0015548880139046892 -0.3138485240375459 0.001392489879384401 0.01486513223239964 -0.00022045317610530152 -0.003408713473580167 -0.002757803390104118 0.0032304257688699567 0.07513983709156882 -0.3570195125971228 -0.31689299461068515 -0.06408846911013404 -0.1414638628933689 0.3369961273694339 -0.1807741435679275 -0.25756015135251165 -0.3882351695840481 -0.23825074018519843 0.04373868634818273 0.04205210409782495 -0.19636957179875572 -0.01513552241549914 -0.1290571754706485 -0.027886073118553196 0.3405397139936525 1.1804520101818226 -0.328027357115233 -0.005253050624992877 0.010742302893618803 -0.0001241137698279607 -0.7138132187112365 0.009805555622897212 -0.0008686118584833343 -0.16817658747491712 -0.36162822031665287 0.15576627335091317 0.4336053491818749 -0.5241163285670547 -0.19221397646584082 -0.25355000130105676 -0.08180661760243463 -0.1584357599250583 0.47702014419385663 -0.006446235462921301 -0.40698840479463305 0.6769186875176273 0.5141177199214082 -0.17234645915683292 0.3963258510186931 0.028088261991882097 0.7241577285079109 -0.2548427628932585 0.556463012730541 0.30493943149135977 0.3117016638662984 -0.062135518110845236 -0.009807534626231025 -0.19798114480109552 0.0290864528744802 -0.3567966670414546 -0.018743434270227143 0.00013690507912273372 -0.004737168198807079 -0.00014700114984021276 0.010614218610159867 0.008124876193262763 0.4878820687914395 0.2966089315639515; 0.03232274868969605 0.024446402531680827 -0.28524337218811835 -0.37989086419161333 -0.02331862607040579 -0.019540202942216128 0.0016250111187328532 -0.06661131515099482 0.00470603136710863 -0.25311696024393093 0.0003300305317460481 -0.00010844568083368249 -0.027760957639596354 -0.14273905418526683 -0.06283550136499494 -0.2904228668667143 0.007517956131808809 0.03859481109966348 0.5468649011741449 0.0004129449709529974 0.35890546621571756 0.3877749639654526 -0.09745312200639224 0.24117736064881712 0.00240765475408372 -0.8954104610607395 -0.43564267081910313 0.2563273447107719 -0.0030037092777079125 -0.2804122320598649 0.00014296143771094273 -0.004865515115779996 0.38861304436895777 0.13052837548146967 0.001372183504009124 -3.05237582360963e-6 -0.451498855252705 0.4868444668424745 0.006368022633539507 0.2189313812056682 0.06739094972816279 0.010380657877398133 -0.10861392478235131 -0.45701081745035926 0.00029677647971170705 -0.0003625154377990005 0.008315721644147026 -0.0026864967730392845 -0.32086527278309734 1.003520921358485 -0.014761864831175971 -0.2305045059038918 -0.37449715729703525 0.22293283488737514 -0.26668734788860016 0.3881028150471287 0.6669808384417523 1.3315453318111452 0.7979111921152825 -0.33757857961012394 0.70952577208147 -0.17173796474199549 