[0.0707247738587185 -0.534332501850608 -0.37681853908953594 0.050539727243904285 0.014714290561559968 0.015175516294608851 0.00020721139575014932 0.14006912056026613 -0.3288491538874932 -0.8439995147968877 0.0006204850614260052 0.005507928014574158 1.6001158731364742 0.5157837433455353 0.326286373941923 -0.2433104530356609 1.1553276153789531 0.5884001600170797 0.11645630509732141 -0.0028765144054480264 0.0002706222059663977 0.9562291163269764 0.0012550329303947308 -0.7449187466298277 0.3331466679611135 -0.26890702980127235 0.13698527450714904 1.0748821037625387 0.07875894449181786 -0.8064622557713351 -0.0009024382576292531 0.22500636668755616 -0.22427235177369628 0.4830211746855521 0.35060091789722014 -0.0035691187153057565 -0.1763397093832456 -0.4750947395073926 0.0007042627895070469 0.32638822493369174 0.3336935045629154 0.00046080043426930414 1.189736775136634 -0.06196283421370404 -0.0009842802528099884 0.00109485724716348 -0.06026254833363249 -0.000301039919440477 -0.3557883174409657 -0.19080725449403754 -0.2573514247039657 -0.6930269750806974 -0.44075753974868415 -0.18460431786829057 -0.5253639525669804 -0.2195497786571647 -0.06982022501615828 0.0636721624467948 0.09754914201672439 -0.061475230330103076 -0.09322142622883064 0.5076974048665492 -0.06565600872313053 -0.41963200156499575 -0.19936678570938976 0.6620066512942028 -0.01950877623654067 -0.00224240218890659 -0.0002404894334044166 -0.00020670769669352293 6.235806593449678e-5 -0.0009715550686151638 -1.0809930429330814 -0.7802585264613432 -0.11093487879433761 -0.3452098955995889 0.0013062754319775112 -0.4437691280609045 0.8616313270326933 -0.4247092338616897 -0.34320147301124765 -1.6335245131622484 0.4742948247331149 -0.8452889764274865 -1.3137228737278435 0.1784864600195733 0.3533131331723232 0.2038486117650233 0.2063755092710816 0.32326045310492246 0.0020480678908783535 -0.6644080883417811 -0.2623506919193267 -1.08444183812688 0.18434745819314263 0.6679214891474765 -0.45222674694641474 -0.16403669598499632 0.13692879019539245 -1.4976992034317074 -0.060041719292821864 -0.749290046741241 5.157619568515719e-5 0.36942870082919516 0.20896619920655304 -0.49529026961532413 0.44876388338403705 0.5529520589633974; -0.14653080495472912 -0.40769789486522523 0.2637732754513733 -0.9445155039931034 -0.9199473614923251 0.0007135235489030927 0.0011235338452164362 0.024623479311039004 0.9308111498666548 0.6960206661166121 -0.0003371606464485177 -0.001268900339301979 -2.727798111188397 -1.3355127454118996 0.6816435221913458 0.4215614054635623 -0.7688093772656971 0.04238084737970639 0.4430672106465156 -0.0002455211491608626 0.00010998973755567512 0.002678662968421405 0.21137280782675213 0.34016154616583993 -0.39703663882275714 0.9110083921586933 3.342093939426847e-5 0.0017036546771907557 -0.3981267329323917 -0.16541188235362164 -0.0006233583001306882 -0.00644145008352032 0.43992270313306386 0.16112173329820662 0.0002970205263285332 0.0023200144610330572 0.032058620012502696 0.18717461326920473 -0.19453857898103463 -1.300991309256416 1.4026281791913342 1.2487792350984863 0.001224886065430636 0.30090857656234704 0.0004648903786796537 0.00034458650140333836 0.0006891726844782456 0.0009185865891801798 -0.43508559133915475 0.4737610217563565 0.11723569779693292 -0.15725836671603835 0.4062042419552192 0.3251017561717526 0.05336357781234211 0.07775754173842339 0.3049997666946083 0.03807641774036124 0.051235560552342074 -0.27890025154893483 -0.33758905117632565 -0.04870133747056067 0.04221265331177384 0.15269952604405027 1.4276705274128276 -0.3389502444022721 0.856486827459891 -0.000496726002000696 -0.011763717190611474 -6.5102487900468495e-6 -0.31901854123303475 -0.49654133706583203 0.40801137134475096 0.4946176764472197 0.6371114914940236 1.9615241851424583 -1.2870286399372728 -0.7032570609967529 -1.3452723142841712 -0.2670335726951559 -0.5322521104945374 1.9900737924775573 1.5482331050755331 -0.5286720641358786 1.0998769723654331 -0.11052323088494245 -0.10073320170340921 0.1317204317921506 0.32986761828011746 0.19726820024048938 -0.19981033816181512 0.23939679186818785 -0.16756313674956516 1.415101674501582 -2.9493720664182947 -2.1094843936382057 0.35502940969688146 -0.7059248061816968 -0.5717069558043485 1.4960561689592407 0.009855340418248235 8.6382874466422e-6 -0.0036387502733866476 -0.00037464310506651714 0.017119699912331147 0.7244943505036319 -0.520054155289352 -1.0023302820228834; -0.4713267307541647 0.5285237493126537 1.0254562355930328 0.5261612624923176 0.0006291566044796949 -0.014907891551567068 0.00022190253284478506 -0.15540630208384681 -0.5991241230141535 -0.566865812340053 -0.0005040779432835429 0.00018995246176752408 1.3071992308787956 1.4697744214007613 -1.3059194160759346 -0.18006891474136677 0.24493774786491973 -0.3962575389595659 -0.6817097919327274 2.349087341375711e-5 -0.000501739749509908 -0.20260227648349 -0.5666253010673742 -0.19962239926696437 0.41265070372327073 -0.9862613714703982 0.7113432555531707 -1.0758801314077595 0.13884028726298286 0.0013779038298687646 -8.756602498517405e-5 0.05068558963183299 -0.019356718022116744 -0.08120558354005668 -0.4609737112459985 0.00012287882725418457 0.409588157890938 -0.8253334934583405 0.394392674446187 0.6876864207755095 -1.3659594008871832 -2.5956022475548743 -1.1866630794029072 -0.23799192592643362 0.0010013916037064311 -0.0013110100986121298 0.013669203206026383 0.00019781984609963232 0.7929947138462498 -0.1262369658692202 0.21290170203817266 -0.13589050440184947 -0.4982127408217991 -0.49847420601035053 -0.010492250976745315 0.1779705706664438 -0.03819002710510095 0.20558727295937795 0.22617034360403634 0.2957438635317711 0.39108268357525916 -0.11087405598448787 -0.025277897274697435 0.4060379257244207 -0.6256204896766379 -0.0030345223915653865 -0.6362487523180467 0.002620556901030977 4.779745778313248e-5 -0.005639128771559435 0.33585808739425266 0.0004968244756859478 0.21474718183614613 0.0354927351688957 -0.24322534595146997 0.08132153115727367 -0.006947661779987614 0.7902911995887842 0.6723530840552533 -0.22345775978614066 0.3527652292357269 -2.1270245259851985 -2.9404759348985454 1.160228258100272 -0.4829622941951202 0.5503842937957696 0.09772559899441488 0.07511370199247008 0.25851688882888113 0.24860809828189706 0.4390532508452346 -0.42888929320034275 0.7836346217380159 -0.8150876684118182 1.447388502907776 1.975074217054272 -0.4343603097687757 -0.2993972578741265 -0.8789013578421173 0.012517734198146 -0.38452374356070385 0.0004380643869194166 -0.0010622207647258523 -1.0198836970161504 -1.2279969952717 0.27990026980706373 -0.20228638572721147 -0.07035919896353293; 0.5416016764622039 0.4134631705678465 -0.9142338288436447 0.36997258362561253 0.9031873482525343 -0.0011603661727604432 0.0007069353798602172 -0.009704394428377155 -0.002978536018446765 0.7145025276263701 -0.0007552366098133306 -0.0026151181676598947 -0.1802636218576291 -0.21837286280260698 0.2978593851743855 0.00183188281509361 -0.6314966394265308 -0.23509996246184267 0.12159099685752034 0.0033826024531663167 -7.599308345507182e-5 -0.7548670908241703 0.35378008931283605 0.6047021744710781 -0.3506763990512877 0.3414100549313529 -1.252175826954004 0.0008306769381509435 0.18217421052887853 0.970372355878768 0.002498522442150113 -0.2682701231598225 -0.196407477607996 -0.5629556041950349 0.11000059455257517 0.0019784519496635062 -0.2641841992842828 1.1131488062889376 -0.19990947780110083 0.28792982537676964 2.0393937053974205 1.5164844118654166 -0.004416748126545858 -5.932770169336877e-5 -0.00034354565373550047 -3.140926160460396e-5 0.04589998182641092 -0.0003827881919480833 -0.002248954123225726 -0.15637894681275083 -0.16448728945497113 0.5485613429094521 0.06764435031716669 -0.18941457478745757 -0.033565266899511045 -0.1520584117964842 0.08479715393103295 -0.031109188712950646 -0.29661978539120937 -0.208811561053569 -0.3793813443675395 -0.7942259971481542 -0.11937283358445047 -0.07995386417468703 -0.8650380527685207 -0.5458376601772603 -0.19948019426191002 0.00023204484579729935 0.001853773618598386 5.4851077381379455e-5 -0.01749278344909067 0.49519098865135597 0.44624482802876875 0.0007047941270385311 -0.6621280077100662 -1.7020870692747057 1.292198013949859 0.09061521745199722 -1.2373333743232555 0.24702924227121853 -0.561882055824475 1.0142718434856879 0.35681893717336644 -1.158039456551656 -0.14816709387989221 -0.4590293561941306 0.2544967262612427 0.12792460740879705 -0.12436957513657583 -0.1695008954178024 -0.23566069520561309 -0.07662487479602578 -1.3725176982975578 -0.8971250028875533 0.5017211202802306 -1.5895468815013607 -0.8523896566942356 -0.419766838104926 0.0012784409165341529 -0.2721142761304846 -0.0025470633310673636 0.2115816211443988 -0.4116109142985191 0.010266904755784765 0.2506278343184269 -1.264176272543619 -0.5795901010390437 -0.32304266305284424; 0.005531085387971324 4.3476835333019974e-5 0.0018228568887746727 -0.0021580693687311076 0.0014165660737511568 0.00017921788081556674 -0.002259583153671588 0.00041809664091882584 0.00014066305343856392 0.0003421333939584429 0.0009759901381193861 -0.0018138619693798088 0.0007466290307564736 -0.43167255653179026 0.00013013476828033368 -1.3920501628226278e-5 4.0653448355152056e-5 0.0005764940246224063 0.000595279331370108 -0.000284057771971185 0.00019712088944290698 -0.0014384119877375275 0.0002173709973912794 -0.00032257474012599256 0.001915666189660584 0.0027499541816243707 0.4038138759542901 -0.0015363039701206842 -0.0016467093512876024 0.00012387841631996698 -0.0008851598594049977 -0.0009803830760462854 0.00011384427074518108 1.8279751332784178e-5 7.517826987463672e-5 -0.0008522265226449915 -0.0011228692359123347 0.00010481340759056377 -0.0006488804535585809 -0.0010131618295545859 -2.4097559882644877 -0.1701221998432979 0.00011816632738857844 -0.0008944887205160093 -0.00013845607584059597 -9.702438835008465e-5 4.190616716939736e-6 -0.00043257832389125185 0.00012814905709642612 -0.00033785458034794327 0.09170131432383125 0.43761450328913326 0.46512168829809736 0.5473913424943461 0.5160578926308945 0.11588007804878167 -0.28178666850438205 -0.2762266644335833 -0.07833526078189343 0.2534431794008358 0.41910913819743656 0.4461039857366536 0.16809408627050462 -0.059151586028788186 0.2623548007417207 0.2258157756768951 -0.0012491046433937155 -0.00011347355592098995 0.010102635547634372 0.0057974956396616255 0.0005908792219382131 0.001825079007405334 0.011989661723415488 0.24944332071818925 0.3791767409618503 0.004451248574562481 0.0004720123354238677 0.266119772016876 1.0486212775194799 0.6681713240717677 1.0845704100945333 0.7562034031842014 0.5611290679165309 1.371772239014749 0.8449752894374226 -0.1593181667362698 -0.6048022567245717 -0.538607352958441 -0.6703904412435043 -0.5996358562095064 -0.005630285368684764 0.9305254644699616 1.0187969052284336 1.3815528349246697 0.8159149850371453 1.056035568937818 1.3839473037125445 1.5891255981457455 1.3124010825345391 0.2612395764048054 0.43725718576634487 0.5372617229224761 0.41626030914094647 0.6405627345362371 0.7512832618343889 0.7550719218482477 0.8531667586715701 0.842780085075863;;; 0.7197913152180995 0.36662913437553996 1.1977449670126668 0.006935963530491654 0.2574961423493181 -0.0015544199470035823 -0.0003913525401769991 0.9275845536721377 0.6388306470440004 0.34145878936478286 -0.0008245691257644617 -0.0004259896674720741 1.321301696701111 -0.16108435149572545 -0.11297244600673986 -0.41785546142266905 1.967501203550701 0.20590795354563632 0.1244825813982738 -0.0008191076677920506 0.2630128522736419 1.3724111014277072 -0.5938027861090062 0.3707277100884053 -0.27514829461222834 -0.3897887195398206 -0.056323136095181234 0.8334518394948878 -0.6428927502331293 0.4803417587739501 -0.0002546027343178417 0.014916768094021355 0.05290420646520957 -0.11141150612694269 0.22259460016363775 -0.05636115618078437 -0.6451633564333088 -0.8485082790599101 0.5439616867532661 0.30080991295923526 -0.8603923447828655 0.0008392410237773778 0.33099926073209296 -0.37717860241723744 0.0007380661311198703 -0.0030673508528902224 0.49343503182501647 0.001757961207733842 -0.6827197082070648 -0.5924801693882538 -0.3974371056471931 -0.4351815510983693 -0.5299580812444673 -0.3070768826528141 -0.23313248754324928 -0.19406074407957652 -0.3847930023386648 -0.28444787014698747 -0.13679384882566262 0.0003685389999111817 -0.22559949480022498 -1.0712909462544415 -0.6876953292624347 0.31290262162182425 -0.29918277516065667 -0.4590356001152011 0.6601290520073818 -0.0008731146740153951 7.292917370597112e-5 2.9866461011099766e-5 -0.00011431403460622635 0.00026186344058654455 -0.5075702622266456 0.04738413073561314 0.3402679552213903 0.9573883007032471 -0.08638552244453947 -0.5589962976396112 -0.3455346186281041 0.19646064226244925 0.05650835514667707 -0.8591587393152827 -0.8840693461597485 0.6950795301225821 0.9644593107734896 -0.15222641192556507 -0.056759534548166214 -0.03125225155248361 0.01557745542613077 0.0824831583857179 -0.12421113974430494 0.1742779073510181 -0.6577175024296181 -0.12943491784713929 0.5242597404709879 1.3419911661974784 -0.17299832874967494 0.03360575276274386 -0.2824181143041452 0.20337359130219507 -1.9602080760260063 -0.619025433603717 -5.943465670153099e-5 -0.5603118867636291 -0.7753651969137844 0.6019690459304342 -1.353987851102834 -0.3950375268966165; -0.8987828618737594 0.13517556381920465 -2.192331940460082 0.9982717334465354 0.7307409358845104 0.0016629998767396885 0.0013715967139803832 0.4048930207370302 -0.24910862692928679 0.35272496757972505 6.2813729972636635e-6 0.0008606836832474533 -0.7380679263432023 -0.39507107208708986 0.41580330348559635 0.9178718699483146 -0.40443445057712063 0.9564703999605533 0.052788417864922436 0.000932475495158422 4.698567049204826e-5 -0.7956266114548197 -0.3703311862724333 0.6194337790046563 0.15345326129580275 0.3563495200832105 3.522812877494791e-5 -0.23032520735071865 1.4413075672077738 -1.2033735405557513 -0.3640259126599279 0.39889494549628235 0.7913062182128302 0.013431294871944593 0.00015688577619230802 0.0551506428614307 0.7265496889428649 -0.1970344300850803 -1.0386947234860398 -0.500253419094643 1.3327943144560017 -0.5716234738043202 0.16299000057859667 0.4843127173090434 0.0002523057394008939 -0.00010327276317484517 0.0009551554037003314 -0.006875526740372451 0.813896404423515 0.026604473783277387 -1.283496977368243 0.21107508680894535 -0.48241864511941174 -0.8109636749788904 -0.45252697553543464 -0.23995240438789137 0.004498994623860803 -0.39248469252594403 -0.4889755801146491 -0.45052223046686063 -0.986518343026896 -1.390405205652606 0.0012029197462413183 -0.5692401848960059 -0.5672046362820009 -0.7629071834209009 -1.2125208814483646 -0.0030514537134152943 0.003347760698474875 0.00019176517217380426 -0.4198084016201667 -0.5804864509404212 0.33913275174916613 1.5216726005588421 -1.5564019204083999 -2.4230058494965956 0.05040671667601445 1.3578099331245834 0.11559140871224213 0.004924175603660626 -0.3112444789311962 0.6826700054901799 0.6545702765111028 -0.029264608549719778 -0.5996817782982325 0.5198154999353195 0.16763456328279544 0.5899958876514101 0.08451834306528408 -0.002992886063862091 0.00533902171389061 -0.1370456786504346 0.22579693453108643 -0.6783667906228863 -0.7210133964873254 -1.645167937043733 -0.582099297861624 -1.375797167438919 0.403090483432959 -0.7931920455200414 -0.001958465645978792 -0.00014330794221639975 0.000761783974223747 0.0009371938857391962 0.30694575766269133 0.905688091077115 0.21348369263277092 0.9328228896705923; 0.48541443009655594 0.7383633517758584 1.0380404651071935 0.005199871771804006 -0.0001509915643864944 -0.0006459362553093963 -0.0026055968585660958 0.17910610553659978 -0.16149197982031405 -0.010876721006386215 0.0010262449661328618 4.372523221499009e-5 -0.5841822925836887 1.161584196051569 -0.44230393923441275 -1.0510963241682156 -0.1937529102014202 -1.159404356807425 -0.5593920514851698 0.0005939653830090174 -0.26300150234823216 -1.1310821001551579 2.2962665902975226 -0.9841349993131631 -0.1093896962820494 -0.00863244583975676 0.2717594122840147 -0.6061752489929931 -0.603914626513015 -0.5081518826177274 -0.00011722834409129025 0.35135827085923765 -0.8599257940493151 -0.015686124757770942 -0.22516930495343263 -0.00010810283314698577 0.44962117193547757 -0.9166399848644599 0.936961838978164 0.35805641037397085 -0.4892921367726176 -0.7962373951488951 -0.49379310444665836 -0.10632327207868805 0.0005004853224715702 0.0026075533387224722 -0.6296765040753537 0.0008360423469876585 -1.0239807536306835 -1.081699988327778 -0.2209875155599683 -1.3274906340443609 -0.8528024930807947 -0.3179131009714891 -0.6629037307359819 -0.9028656753639962 -0.573981555131414 -0.2767903366824401 -0.48467006862512013 -0.6182039575595912 -0.528698104218995 0.3998782480786708 -1.0977936635174657 0.015715615608153415 -0.08551167742259455 0.2204496704912008 0.6865266771820305 -0.2796036123528915 -0.00016456796536278465 -0.020765019424151213 0.4931944352563332 0.17846561264448352 0.009963793189694016 -1.4031851698650968 0.560735703439959 0.4699462105035996 -0.5743876277368866 -2.063379037181021 0.3633921526874787 -0.8323216834288094 -0.13664985682457645 -1.642615116419298 -0.883499754571157 -0.8604866735991772 0.009796348850164019 -0.5226786009835656 1.0158390364782697 0.21072158538926755 0.19269216345756657 -0.03337956530356478 0.12078001171332826 0.17919395678139596 -0.46431805209549626 -0.11133315683174631 0.32673027880527566 0.6144985300523287 -0.15209914027171642 0.513316472075864 -0.7908962968842091 -0.3595665479072891 0.2932796701925468 -9.700913827540316e-5 0.0016224965301543052 -0.1368286085736793 0.08130784040552712 -2.3173828789207493 0.30745815383418473 -1.3601985913755201; -0.3177302961567395 -1.2402135997604877 -0.044337998748035914 -1.0093447104572066 -0.988656288998723 -2.626042221372871e-5 0.0017394119747908005 -1.5119668663377301 -0.22861649987444496 -0.6842802945273081 0.0001543813995233368 0.0002283862453173142 0.0005301908222079211 -0.6029158866555255 0.13923158093873617 0.5511694844870672 -1.3691910563486775 0.08906461744751129 0.3828379600547703 0.0003853986639056456 -5.650932869901446e-7 0.5564744901171136 -1.5993999546840239 -0.005433245397627171 0.22156584967634738 0.03994050312695756 -0.21883520500146547 0.0014444609607500317 -0.19478509038444664 1.2308642869810602 0.3645467465718248 -0.7638873429075392 0.01579143978511424 0.11373874927453677 0.0023637176775239722 0.001977196735935865 -0.5312748675894285 1.9622516759598863 -0.44239985102900947 -0.15546821934731858 0.12748460592586436 1.3618249248722967 -8.868572853581827e-5 6.350489880897235e-5 -0.0016945471254976128 0.0004287923965391864 0.1351116803579768 -0.00022162406037954814 0.8880240769365093 0.2170825481368125 -0.25469627046773957 -1.0034031680782647 -0.6280806732153655 -0.486608112193193 -0.6618514348025812 -0.42452058574920065 -0.8075791429727873 -0.4712541565906779 -0.4542635466415324 -0.17133976609439097 -0.5542946430625602 -0.5261038568623325 0.18315006277116158 -0.906802448047958 0.803761049865372 -0.28331513881418846 -0.7259062677757033 -5.140160983573425e-5 -0.00330179390422703 -2.7481033494956527e-5 -0.07345394875031433 0.39571547503002374 -0.09736438558122719 -0.7055740414119552 0.07214828305010074 0.5217245470559255 0.0072300942750658 0.10055504639497431 -0.13074971399697735 0.18397338752602066 -0.21349219872389194 1.3821056935321674 0.562585195265701 0.12345099433947623 -0.6631670140960041 0.4626835964518516 -0.37026242917566904 -0.09114387838680706 -0.10797356719366609 -0.03384540807232433 -0.06789882807946171 -0.3131752419385785 0.6433188393374795 0.6569086972424951 -0.8345279317633525 -0.9114457978527476 -0.11988430986112979 -0.19663090526226565 0.00019849491143628586 0.6093256612487076 0.9623794637058372 0.006742192397844859 -0.5992980628637888 0.046517221443025274 0.045098486975421063 0.7997327894646438 0.3555280336950983 0.38341345634290414; 0.011307412715843523 4.554978988488696e-5 0.0008845070882576933 -0.0010628582916243439 0.000570202329281027 0.0005636167477870186 -0.00011405929002808865 0.0003831863919624082 0.00038645958004535476 0.0009732585891864905 -0.0003623386128890006 -0.0007068054933076835 0.0004183314035720516 -0.002512885813228196 0.0002415008168201083 -8.956884449727434e-5 -0.00012278642348245746 -0.09203861414627591 -0.0007169078327967182 -0.001092731874281034 -5.7770502614746736e-5 -0.0021768799348431582 0.2672673367679407 -0.0005932443822715863 0.00951887992212758 0.002131142169409248 0.0033637006838570975 0.0016041558880740283 0.00028489992281702155 0.00031937741846822023 -0.0001490028334877224 -0.0012826415420021395 -7.607041383900538e-5 -7.241326176775205e-5 5.410133607857422e-5 -0.0006585805834352094 0.00026736314439505153 -6.898195043593297e-5 0.00017104878361901796 -0.003144684891244535 -0.1105944388263827 0.005196703057141381 -0.00010747113549542985 -0.000874347711926869 0.0002036899325052783 0.0001342778808034086 0.00017463648866005528 0.004503147246030498 0.00477998047772423 1.430493135795942 2.1566178690431435 2.5550002664120495 2.4932598926600393 1.9225617707963867 2.010414628617247 1.7613994095806647 1.7618547058190053 1.4249770559460493 1.5647030442069643 1.2396974151209315 2.295110585108676 2.5879217606907092 1.6011360102624976 1.147424395713986 0.1481380389998802 1.2848082518590895 0.5917714200346557 0.28357958235015795 4.567199740896824e-5 0.02057086882446127 0.00018222914875403086 0.006043499825327385 0.25583810286901265 0.539702479982597 0.5832499786969498 0.47394679123382333 0.6031363392303456 1.164010355301074 -0.00269922877463944 0.44696347803667885 0.6048781793329875 0.43699815671223335 0.5504136289541015 0.07122075768683865 0.2885931327705831 -0.3075940834780404 -0.7564516360372298 -0.6783213431013868 -0.18481439475531536 -0.012265298945966703 0.06599093439654775 0.09674905645659901 0.25291978065654847 0.2622261680592768 0.7045513089744141 0.6001240386466733 1.027081076744145 1.025505847862577 0.670025432843959 0.3400593408764278 0.7065074077736011 0.6125235582863641 0.5969732170161123 0.6496860800085439 0.3420131118701448 0.00999295244855607 0.4775179709407801 0.43899977225863984;;; -0.07131934298992253 0.23796043576427892 -0.521310046831898 0.21578281132462443 0.053487376240622844 0.0007982333343067675 -0.0008296271749980586 0.42548022947321534 0.2690472522727353 0.2310004308779266 -0.0005733794887049753 0.0037774831078270657 2.8596059238002325 0.7851694899074632 -0.8987461056009255 -0.0985058554655233 0.9118288684379164 -0.32731754525085444 -0.0032414551682897657 -0.0005816363918660326 -0.5529692821918823 0.43870496394470615 -1.6275493536443262 -0.1573098481919052 0.2835564812431015 0.1674228419227286 -0.5049717628827042 0.6194185613505246 0.38107612459337703 0.02251054037600842 -1.8068334156434128e-5 0.09190515609742701 -0.11640725609508738 0.18754733551028865 0.0027311116547533995 -0.004311310079112534 0.7922405397849908 0.4869906347036216 0.4983482806324273 0.789495239124964 1.5089694373065177 -0.00023927410694210707 -0.18428920612684513 -0.12980285787444754 -0.0010770148266230184 -0.00020224034053837204 -0.38723174010893 -0.0013592690052936004 0.8094594103483594 -0.10193401307098024 0.1386630195698725 -0.277907714522316 0.045550553252526355 -0.2947126971162633 0.03143507894561195 -0.05924886898173157 -0.12872299080177288 -0.00459047431830782 0.2924897399832555 0.10471627410799751 0.10376871837167301 0.30496783815388445 0.09887817491774212 -0.03482364056513664 0.08593316884467132 -0.45126415151857474 -0.050438928843482785 0.02313633077342009 -0.00041101772865724556 4.616405857159893e-5 8.620301856685799e-5 0.0015898559196816373 0.055712160157669825 0.04027952538527116 0.21232362760254064 1.9220318336118287 0.003962590647558003 1.4501677067342127 -0.8452392371031523 0.3740369671115838 0.04806521483185325 -0.570844355820554 0.20375810373046988 -1.0359323011365567 -0.07028187162874008 0.015827061640872612 0.3206989571327378 0.3166080220859469 0.27862188849847647 -0.12345948792435064 0.0695597159404807 0.2543142967322001 -0.1617226310423013 0.8674647491802325 0.8749399461333078 0.6381947373167479 1.1074815535379612 0.3364547458623604 0.37076947725342624 -1.0931241788306947 1.8307847106179824 -0.04853498239088822 0.00016655551339237463 0.37017742340500415 0.35389710376287714 -0.47241414371843266 0.01876687092617004 -0.1360238480961021; -0.3508771684504704 -0.25759760437610285 -0.2720511597352401 -0.3761778479391966 -1.0035128658582368 -0.00010966799569671406 0.0027129315127171756 -1.1709435566682034 -0.12408970970823911 0.12977081872164212 -8.06890163967409e-5 -0.0013351463506837149 -1.6164804769165284 -0.9485511162716376 -0.6781954039347637 -0.00030962594289899706 -1.2139023056600167 -0.5108918244854885 -0.016872857362614197 0.0002249829985325253 2.9950278211999414e-5 -0.00040832830217467445 0.05532991929545557 0.0010994020839011247 -0.4851025546643689 -1.6114645043311475 0.001920331963075254 0.00011987829246188497 0.8987628576243533 -0.4600685350640911 0.32726952561800676 -0.04031565686631175 -0.012630699295527377 -0.29897859357186135 -0.0030924450763372456 0.0006948560898029406 -0.6617451779883156 -0.354374767224193 -0.33748398019386544 0.709276571946242 -0.5182686263998687 -1.2763403257039536 0.0005085829693928508 0.19132470783258682 -0.0010117014037028188 0.00020226839395854718 0.0006803390540357557 0.0018952222077367085 -1.3725020728468271 -1.0139014570392306 -1.1769147183283653 -0.2522141751166659 -0.6540680503349791 -0.19491599672873802 -0.5201829150724359 -0.7474355887941312 -0.45508604973075084 -0.5939915639231539 -1.0908248798349882 -0.7523410116279026 -0.8792759898071416 -1.0357061279696282 0.190930390473728 -0.22790927761148114 -0.8495520979227705 -0.013987520321904569 0.6884382130916841 0.0005812475388699824 -3.7180311244384425e-6 -0.0003347139459419686 -0.2586056320832789 0.20785957105436045 -0.650906357319602 -0.8766178276254474 0.00945597904998301 0.9084298193786167 -1.1858381654360528 -1.8633669834483637 2.8020975877116547 0.2536542734494437 -0.16721903409173447 1.1339363474858626 0.788065741566314 0.8610886652250084 -0.33835017634847914 0.17406657257238944 -0.4577688635784738 -0.6513484424061755 -0.3862884724561169 -0.25818749949454994 -0.07978215985132849 -0.5322009914450969 0.8083965595344867 -0.5324972349549305 -1.1656540498105665 -0.308198451971516 0.3160562066442931 0.9385837704240034 -0.39159584421205323 -0.04246169601402141 0.3473121373742953 -0.00013541341074679885 -0.004177364444475639 -0.0004155695591604705 -0.018440134454067274 0.7861099703380903 0.11464257052054896 -0.13436823309724738; 0.7324267667057299 -0.29914503519842134 0.5024409644781388 -0.021235990567396175 0.0002546089776585851 -0.0026967353152470646 0.000778525994749822 0.06929868259662277 -0.13600343154978714 -0.6628092493925736 0.00025320507045244515 0.00013364805200108038 -1.245895513510146 -0.4783803557811637 0.6690038694175666 -0.3575932315433589 -0.21730878080382052 1.2325623109011528 0.21215272297618346 -2.089495509660108e-5 0.5521529047460483 -0.4695432150316515 0.44420876549902394 0.11358832696434318 0.00017396301138756994 2.4997129528442645 -1.5111387727743035 -0.6189383548352332 0.10817309767940315 0.004669212312603829 0.0001298589453353956 -0.5083650275249307 0.35870435735754563 0.02496839151233885 -0.20294261872266617 0.0001818979293934185 0.014298944397373848 -0.8960399600898282 -0.006938715614181279 -0.6508944394270709 -1.5569987504657865 -1.5403704726905612 0.18300189803658903 -0.06078047628234176 0.0018410914103549009 0.0002063376208484225 0.07510441843304932 -0.0007036769980693575 0.6193727069033632 0.4801778581260817 0.4972998003107735 -0.7686252713416415 -0.7332555519271357 -0.8084478134960572 -0.8948325078401609 -0.4552618857707154 -0.6683213842378314 -0.442579575901839 -0.35667474914001696 -0.16500177511171346 -0.4064124663525219 -0.3152832648683204 -1.2996739098043402 -0.6719119382781731 0.05965365137784989 -0.6940296193737014 -1.3696019421443886 -0.024376412374569383 -0.0002383711777351832 0.003074877805487287 0.27691597243881944 0.0008844565670805284 0.6156142377590549 0.6463893297079842 -0.6043539899941813 -1.127140750501683 0.000757044820055599 0.5292980469739685 -1.139638369851836 -0.277763391278013 0.14033833582954078 -0.4150816814960336 -1.081220887692238 -0.5184072965146312 0.7673762564853144 -0.5284009618975911 -0.5667134958426973 -0.3918562376187838 -0.4721801718632281 -0.24073414351755645 -0.40562916493883583 0.1551927397300012 -0.30276429248848213 0.9841340480877144 0.9527956561962305 1.070226151007342 -0.3511791003401515 -0.1337652101729164 0.13758454353376734 0.4294889544623275 -1.3249485264696 0.0003536784236534986 0.0001425916364771746 -0.16704983729159137 -0.25661095466827016 0.09588352190522208 -0.6515782711311277 -0.25770993480607407; -0.31081724959372 0.31916711043590623 0.2884073683463575 0.181157808237908 0.9505413857891707 0.001952512705392971 -0.00035054369167989195 0.6757286845368042 -0.008789898367687088 0.3016036519586441 0.00016673303342251851 -0.0003632358423753484 0.001647147381082501 0.6422925456108997 0.908040396115289 0.45614609602617046 0.5192982547609191 -0.39627722994999853 -0.19191505946239568 0.0006764857326257799 0.0009168093940690146 0.03229969477327658 1.1283130618260417 0.03140823630521961 0.20109089822843876 -1.0552952286642325 2.0152066783950393 0.00028878920301396904 -1.3895247106473092 0.43317545588860784 -0.327988515659024 0.4569518178360178 -0.22953624555341529 0.08696339157512488 0.20407228323423934 0.002479800867759293 -0.14530993399648717 0.7632744875494166 -0.15388757068864686 -0.8477965972640554 0.016644785666302536 2.8180345550216757 0.000368840918493136 8.597798863446762e-5 0.0002150106186280725 -0.00024167594331314055 0.3114428886287904 0.0005458541618885666 -0.05577590182817045 0.13601667761957273 -0.20476251035669632 0.39282215160287604 0.35093514797238173 0.015420013093432527 -0.02292019187833007 -0.15697912770303346 0.005991908752733777 -0.05980941190379444 -0.004411401102672745 -0.08669296169899456 0.060703794276075855 -0.14890935738176306 0.16625202785118226 0.0186328128516154 0.31860845722078446 0.38653813553674743 0.7312334150054888 0.0003489527885202862 0.0005407283145683039 -0.00026731998980511284 -0.017379445124019535 -0.21182199235397692 -0.017091723895121123 0.18813905187024468 -0.08800473182642901 -1.5117711346168 1.1814134483654746 -0.11377423415414405 -0.05580885577102083 -0.4478433338940346 1.1265300707472923 0.538768635986112 0.7233027175099448 0.8475075161967358 -0.3598864749064092 0.09418701700799177 0.06912629531991867 0.19886675134307302 0.1108661688289393 0.040455521083400774 0.2358129067772495 0.10976980088276878 -0.2387086223019953 -1.0268555686641179 0.13496411867972474 -0.3981193628301516 0.26114967446841214 0.002376049394696792 0.5580229653163998 1.8065804618052088 0.37405484013000806 0.6704329816955636 0.3132773687937939 0.4258419034888213 0.37656025577929897 0.32820517852449893 0.9134005718822487 0.9443114130817308; 0.0005869943283829994 -0.0003849066256609231 0.002512873742641742 0.00047321894406036804 -0.000770505149215225 5.565727124404044e-5 -0.0023112866407890473 0.00043596006156100265 -0.00016421264702194907 0.0004343478343607856 0.00023413040122675254 -0.0022127489667690832 0.001122919245359269 -0.0005305634655616717 -0.00010275599716631006 0.00026261692561082244 8.3963265001685e-5 0.0019242887851888132 -0.00012335098288379873 -0.00029893738419567163 -0.00013038222644686827 -0.0010531153841566137 -0.0003023929761949673 0.011213882838441273 0.00028121218144108273 -0.0003760617716127358 -0.0010164747011070978 -0.0008888740107672075 0.0015126307501757668 -0.0002866735131289631 0.0006071994298382907 -0.00017628954220225867 -0.0001301564135155767 -0.0005005250258910247 -0.000768331089989285 0.0009547551921568818 0.0005156278024381213 0.00014960506098305468 -3.801413573373872e-5 -8.07743800795013e-5 0.5496531538928351 -0.001084482520218418 0.00040988420237008207 -0.0008273516644319622 3.2614201342864036e-5 3.531026904454288e-5 4.0939930546364365e-6 -0.00037813036626231763 -0.0005541425767251057 0.4996409343645565 0.7457144088044155 0.9059250093777473 0.9908379010372067 1.2826564942476262 1.4065005358453149 1.4189254712496115 1.2461385160176213 1.1009710260470953 1.1594212900944225 0.8993194743306131 1.1212159435119147 1.1949309120658274 0.8436133165616878 0.9160120436031755 0.38535682047946496 0.7727431556774333 0.0003692428906983057 0.00030988127375902545 0.0001123786229485633 -0.002519007928311805 -0.0010170982500878676 0.0014881088128543191 -0.003328316702001516 0.0018099206619473722 0.47057911516808676 -0.19154976787196226 -0.0002949183970351578 -0.002324536105673553 -0.7614111249856456 0.09791548461102009 -1.1477145873169519 -0.6867789461553869 -0.6339056751144907 -0.15425658377055612 0.0011422663983139633 0.24432031067633733 0.6346571069685146 0.5277299065959393 0.4689805869919293 0.5819256098530563 0.18003870207243414 0.012924154100126817 -0.10520101370170806 -0.2922459936488988 -0.7970456711986965 -1.0021030735224226 -1.3335083343105152 -1.1436493555081442 -0.67478114189154 -1.10048354142282 -1.2272031616526862 -0.6221162643175822 -0.30940915149918774 -0.6285539200430735 -0.4554062704198388 -0.7377845270493786 -0.39523174219784 -0.41620939708230725;;; -0.3877120447226967 -0.20508766256312586 -0.33304285863408106 -0.00162377674309919 0.023855197484836808 -0.0003826353011813981 -0.0004355348592782561 0.4183249587282275 0.004587168739279787 -0.013082885628917781 -0.0009432444934640206 -0.010587991117138236 0.7167185689966896 -0.37155802242976427 -0.3755988068831467 -0.7504164534152128 -1.5182973908962385 0.0572918304784691 -0.2150512344619976 -0.0034509683376262694 -0.011806141800183688 -0.0014412112876586772 -1.4363300847269804 -0.05906783007310436 0.5342880369301671 -0.33888497409280494 2.136090701733664 0.7220615587989211 0.6783224543768479 0.5262297091364256 -0.0016079321901865337 0.0640063994189734 -0.06742886055252327 -0.0471448270034989 -0.09767646803765735 -0.0033364454144339866 0.6503088795277411 0.5865979916658192 -0.08603960429024014 -0.003844602209301827 -0.19020280433435177 0.00477840447718282 -0.6253468583982653 0.5398639677084075 -0.0011413951444959546 -0.0004517820700188639 0.5443786141681466 -0.0034776928907343362 -0.008821949960020682 -0.8907377014958562 -0.6572523222820396 -0.4748897242381735 -1.7897044457735543 -0.5787163089100004 -0.46423891640562087 -0.2730900935207865 -0.051098914289710015 -0.037190592629873176 -0.4259581278229357 -0.3226528566223949 -0.14917634290344917 -0.4531927997772336 -1.0125453709983314 -0.6602303675769471 -0.038157776577671935 0.07080551232466509 0.09077560420925317 -0.0002867628331913518 -0.0008341942437799515 -0.0009311678797238334 0.00010023557486999089 -0.0019280291866773666 0.20617907800973959 -0.06795837011983467 -0.278470653492788 -1.636431270717699 0.011168650137675984 -1.3898904702676254 -1.1630889500008819 -0.36142623321523903 -0.5267441693858284 -1.3900541164266589 -2.073467738793954 -0.7395342644304922 0.06749132451006866 0.514653519231196 0.09766259120476045 -0.1765306541268973 0.005165246438484633 -0.004583134753202207 -0.10667692947054325 -0.712252840094036 -0.17588367662980398 0.2509892089897872 0.4797154098078564 0.244426596091461 0.7378359722389068 -0.146075896128058 -0.29438501651109983 -0.19914287763622635 -0.2727028533295677 -0.33218988440755687 -2.3933728634779726e-5 -0.04296471134838035 -0.025402962410401606 -0.07776205319828475 -0.42484713053784684 -0.7347617099006816; 0.22854043090068737 0.12212547674361345 -0.04550035912794203 -0.04175989142035252 0.37412676029624164 0.0005062994757844658 -0.00039035378804087026 -0.3426420371282818 0.5006854796834328 -1.0709259840917222 -0.0004768148207621254 -0.0001996953917847853 0.7335522353554249 -0.4424950259579662 0.7477643498799413 0.017003643189658985 0.5435560776812607 -0.325760055750417 0.1693331736421103 0.0009727348793164668 0.0003282073472273332 0.0019964026452093833 0.4932395661693842 -0.0203449500253256 -0.1338641719894555 1.0252423102592232 0.001180131620959616 -0.005651109186074802 -0.07463673760938082 -0.5475594378649246 0.36845554163784267 -0.00803578190172494 0.19792258824881984 0.4366275197961696 -0.00015273079586169608 0.0029121719037046878 -0.21322353686734674 0.18112274104204654 0.7928906131603546 -0.30426332286472074 1.2551105830167006 -1.7540874311913452 0.005914003307320337 0.46349143321268865 0.0035614474888025736 0.0006242240078235155 0.0007695697062293757 -0.000800719247960155 0.9949790240167791 1.2786089491311723 0.7629992122709827 -1.4528382531652202 -0.4161817159962828 -0.32482130440119 -0.005617333567174374 -0.2693005228886362 0.22414003866645 0.7231818032858217 0.18472083221508198 0.1941885476869759 0.3871316170512348 1.0479468456744614 -0.27768789834604485 0.6248396068513727 0.9922070180138506 -0.15461786470466132 -1.0811141739520471 -0.004345425147325581 -0.00916872129092627 -9.200912025916845e-6 -0.6490099088204753 0.421639388869155 -0.6993640977744882 -0.28022205720696025 0.2919018615781049 1.0375680617700735 -0.625195711286931 -1.0125843872150504 0.0967636165153883 0.0005827915189110412 -0.09209301652603795 1.6285765150560572 0.9938734263138757 0.7382396685360605 -0.4936346978920247 -0.28705797865571536 0.81095286689942 0.39853793863730264 0.16670178175707395 0.1958913126615331 0.12200448861298632 0.36216981996487496 -0.37505476517764486 -0.9326938067312819 0.22996699806213547 -0.22293505616623208 0.28008549776681896 0.4804221231881177 0.18049199634432622 0.5557105570375571 0.4840174217790251 2.179603845787285e-5 0.0038643082224694304 0.0014027919976198737 0.009075307299622274 0.3840251051077334 0.8581818137339245 0.3244363787672427; 0.36305042125603026 0.30884434292309515 0.1818453085933667 -0.007846199841666564 -0.0034673075585709987 -0.0007539299849065026 -0.0007389704276381585 0.12390322282961723 0.4026861166013641 1.1045784405305747 0.0014822535402452797 -0.00011234780216541759 -1.8423375269540863 1.279755274170562 -0.35903685940298696 0.7892513892601107 0.16770430843906414 0.4781881257721661 0.028871691789540636 0.0005831625116064098 0.011856664159471652 -0.534213175486347 -0.066715454070407 -0.32168093648068746 -0.28077140789098926 0.44521541639597145 -0.9360362013558456 -0.7177483278674811 0.29305110461804557 0.0017139876800358264 -0.0002361268501239857 0.10147605924105821 0.3195899451763452 -0.4889334635856501 0.3552389274710193 0.0001113787802914377 -0.4702958469325928 0.6899512510446395 0.03255684418581933 0.7189824916660725 -0.07693864303270066 1.0305371143469029 0.6214265651207175 -1.0024560292427926 -0.0017776678855324108 3.885410273763356e-5 -0.5506287692092204 0.0013789725193148542 -1.169845074885774 -0.16140549727126066 -0.6037509902941729 0.9733308200051456 0.34719887671929867 -0.1219507330402303 -0.5998903511679882 0.2511662956386102 0.18124290106503832 -0.05209500037886628 0.3214867398589586 -0.010565596131937428 -0.35018441683234397 -1.5969732565307162 0.9971657929455001 0.6277569680540462 -0.4401747888193509 1.0035366152156284 0.8178240974007531 0.0004432600799119022 -0.00014563718198000743 -0.008211823177143321 0.5841150643137494 0.002268805014807458 0.45779249490768253 0.3446869247181706 0.0452671093730369 0.9127885911144519 0.17904224468996632 0.28867540383205725 1.1751825817236916 0.20717157649087176 0.260877127971974 -0.20457558112629812 0.27845125594624875 -0.6480026389279248 -0.23857155334684693 0.5936710508294772 -0.6949462704722679 0.233606804855228 0.18373456419477624 0.046502405950438176 -0.07828641440155469 -0.37318463106969824 -0.37814964261379125 0.6743154807635775 0.9561941593188223 1.659628593906626 -0.115328569502265 -0.3977326226424786 0.09973442663455158 0.5824427151729632 -0.7820784295998918 0.002437236710914113 -0.000652330132594494 -0.20036886966630235 -0.25322992094227315 -0.34495791365006045 -0.41762716485262974 0.11666730292364665; -0.2463724793281683 -0.25838609197596757 0.19601330467812475 0.052019025884829 -0.39465697108298575 -0.0021410726861727106 -0.0002856447905349325 -0.19995002635552764 -0.9135831200637619 -0.022021287175110264 -0.0009220083401854693 0.00184074544831024 0.3896927101689234 -0.5165859090805129 -0.013331086354459266 -0.05579526057921258 0.8069406763742848 -0.20919115472220487 0.012001461014737688 0.003226285825406924 -0.0004154314868193003 0.5337273030784626 1.0090882116131608 0.20390270510383543 -0.1217202692059114 -1.133935553618031 -1.2008929791656635 0.0007012551205967021 -0.8972407804812258 0.02008083724113244 -0.3658499277740104 -0.15711179865607414 -0.44991443556369604 0.09946646303408063 -0.25750440432858257 0.0017488194778079679 0.03311955227166479 -1.457601437539029 -0.7392442797780224 -0.41050729700640826 -0.29132090086503515 0.7200276553919784 -0.002237219174980115 -0.00012193378651449816 -0.000676234843208451 -3.47017141618119e-5 0.005587080806887084 5.1398580986062155e-5 0.016547106890285913 -0.3266547007525075 -1.071695969993097 -0.5985513768785399 -0.3434736260676213 -0.7445752785940764 -0.777310031499967 -0.6923545004214093 -0.09381633941928982 -0.2716931202197143 -0.12389489101915428 -0.2140962759268365 -1.738998199196288 -0.36116179575083085 -0.7638632877752304 -0.49513028723084357 -0.17101891787424772 -0.6717264328621672 -0.35600696111460484 -2.3601947021627045e-5 -0.0004650884391556088 0.00020261904126520004 0.0651747935747888 -0.4244655260927074 0.022653333071306344 0.0001639714507444454 -0.06490416692737178 -0.37480187836875684 0.3053534904770804 2.108159771837618 -0.00010610119594051101 -0.017565761800984844 0.4116577363024264 0.10621400994757162 0.7553936029294285 0.004481875073293265 -0.1944376634767859 -0.9651081555505919 -0.13578059551878902 -0.36539984151308585 -0.1992071120706401 -0.17152054301779188 -0.28632920330134526 -0.060993761193515086 -0.02477703233917449 -0.6750371249580484 -1.8196634947148764 -1.317347089160607 -0.9061045207763344 0.00028459242807095327 -0.48543201784682377 -1.3591334209412558 0.5243182330323054 0.09420875304728826 -0.26682169747893525 0.009493946835284909 0.04270245306246231 -0.1412395950669762 -0.2147242864179988 -0.05101699526359906; 0.04249367189414735 0.0325039348723848 0.0006846044905316331 -0.0007891578797107294 0.00014232086047833134 0.0027713384964761457 0.0018505038654922173 0.00036388192596472507 0.005624355039685059 0.0014517163651755402 0.0008598141141663357 0.0090592888627782 0.0023740124330485592 0.05088368329768152 0.00020240276065157972 -4.331845534440843e-5 9.632840162890146e-5 -0.0005287457780133451 0.00484490801560896 -0.001331214878703531 3.670178030400085e-5 -6.931894966636576e-5 0.00071776101484252 0.19719101147528198 0.0020678121561890075 0.002362801055641111 -0.0003416528331143546 0.0006366231340380686 0.0005039590957132345 -0.0004650961926693484 -0.000761554823521721 -0.0003348781022325414 -0.00016923730894568265 -1.5692241101143687e-5 9.46756910822809e-5 -0.001435924747370107 9.095200053364711e-5 -7.054621347644193e-5 -0.00016357327791139675 -0.00036726958564164275 -0.696648234784613 -0.0012557430247188358 0.0002435091452076368 -0.0007774378917891134 3.385038443424308e-5 -0.00017659432638047326 -0.00010649547204260444 0.002848041038393575 0.1671408939387298 0.10018895038845192 1.5697000702983266 1.5529485342767884 2.2021609111181597 1.770063624945497 1.8470566326407503 0.9835788211922218 -0.2604676860224885 -0.36220309005736795 0.04364544676804942 0.3531261809941929 1.8512273418808465 1.363381006384319 1.0569307641741066 -0.09723592009762823 -0.3428555347425799 -0.24799782997346498 0.5285214334566456 0.004212529847626658 0.010613641155841836 0.008949572927627871 -0.00038018464293292076 0.0024853613954223335 0.012739191785759729 0.0033295311578799202 0.006205849469017996 0.06087649620193022 0.12963132598220833 0.005639681813000258 -0.1087511470422577 0.17123762700644113 -0.05369767836253405 -0.1401608274506719 0.045749453604400935 0.644815359749063 0.8591525902055888 0.14384156414563415 -0.07788859211312367 -0.09021424785254749 -0.15639448031969475 -0.06629004084097717 0.34928805856045686 0.7842614123923745 0.9538651167604145 0.6824262419359653 0.15378692752606238 -0.36377304467124816 0.00351162027287357 0.06310180315434799 0.4995906113790458 0.42012302636696186 0.04644562811812899 0.23552209861089662 0.2636336531176951 0.23243684218177793 0.22685512299059019 0.17993445680758802 0.19901676807455074 0.34467502347339124;;; 0.4762110155719155 -0.4048765842644671 -0.6926457204601358 0.09188907897045281 -0.05101057896519669 0.013205667105831934 -0.0005632759567850096 -0.6252662327646326 0.5074384253703387 -0.7937989119086168 -0.0007640477706988526 0.00890821778685816 -0.1996297451757124 0.7297295591949571 -0.5175852200887244 -1.9598686170508266 0.1563874725071243 0.4974307044889014 -0.0002707314107334996 0.003565227161585996 -0.20020225305807876 -0.6374828379456505 -0.36131012678283436 0.5353754230198586 0.3031529645677756 -0.25295661982014256 0.41583099786732886 0.7420185241950636 -0.49865385142102553 0.029635162196926048 0.00048508078178981706 0.29875355842196044 0.5677279674023518 -0.0026469054874709895 -0.6134899282948415 0.007244576162877681 1.076997450810502 1.3638926958296127 -0.10895308622685393 -0.43857017232506695 -0.6116978989789953 0.011055048721647497 0.24347476810624627 0.03082060379861655 -0.0002594053133783465 -0.00013724725364640315 0.8915490734497362 -0.051057375072110125 -0.9194979874013923 -0.1669158556827194 0.001437998199558967 0.06954060185517558 0.23997850960249695 0.10286148815923216 -0.09023492273195216 -0.05791600108780781 0.394676618872627 0.8987300549930387 0.6408303161337255 0.010034725736413168 0.19762677013169364 0.1862432219803204 0.9889767769154856 0.019198935055478733 0.09605936681316203 0.2996914572274251 -0.15123318932772195 0.00033878756909795806 0.00040578791673972066 -0.00019066467473239154 0.00029037301373017533 -0.0003430131353869121 0.4049215635335939 0.35896692155307386 -0.1787743093536939 -0.918209106499886 -0.00044983094055898646 1.2127404200819771 -0.9563953538159885 0.32360438831370947 -0.8229897032428111 0.7864691415109311 0.7779398797018686 0.4854554713006668 0.8318576228680757 -0.04486748215575087 0.27302151663624574 -0.013562432584788547 0.07167875370137472 0.09674726532375692 -0.031293169680134444 0.11748584156249631 -0.28151024758185383 -0.5983787876455299 -0.5150755603110905 -0.17597430256520494 -0.1129626364826507 -0.2672777144730375 -0.7514714883072837 0.27545380868337443 -0.43554572022844157 -0.2331707649392246 -0.00022543162057676378 0.11939112457081118 0.34033545911404095 -0.491475252189867 0.9476249164864832 -0.27203921003635745; 0.4848384500917866 0.19805897545863269 -0.5963587132391668 -0.723645373801386 -0.6320623202321668 -9.031879169380456e-5 -0.0012151718669114082 1.0461097845523597 0.016874568019072753 0.3595434702961636 -7.281775584826343e-5 -0.00529435137548847 -0.9173592182877843 -0.5790561753276827 -0.16160341938972692 0.3472647374518904 -0.11836915861686693 -0.9715346342767877 0.0017927145272665613 -0.0015265513309269012 0.00021367995869958083 -0.0003425357080748206 -0.5631265060293404 -0.16618033860148043 0.3071507328652797 0.03238597630000488 0.0028482010770418723 0.048891916616587795 1.0572618086756356 0.5849018453700394 0.27764959141358586 -1.0152280672395522 -0.2028795802186321 -0.13786719721789487 0.0007312378415811738 -0.0070549842702599865 -0.615011417924273 -1.2858597508061762 1.75941182835853 1.088844506020755 -0.9867936246803237 1.1882622112006376 -0.23077888360250065 -0.46723422475661147 -0.00014697426369641891 7.910038663318369e-5 -0.0005850960873576014 0.05552405250800148 2.0046228482015183 0.4495738354876981 -0.431672959822828 -0.1625652538933679 -0.4573702960123322 -0.16003514129857743 0.33193240046668593 0.346278868266415 0.5155512868761797 0.09917285489352758 0.03601817759009112 0.5400696486731625 -0.12157156281422145 -0.4495319125867687 -0.3414384417101677 0.038168010004056056 0.06923760858332052 -0.4195046471733806 -0.5912834067336891 0.005668182667073309 0.0029488749715748676 6.479502147103597e-5 0.22705766530191837 -0.7306710279883026 -0.8127825502482595 0.14760842948150754 -1.0779454887694673 0.083354140614583 -0.5965958225279178 -0.7928674533761153 0.17405409503941272 -0.009895811467117996 0.6275988595513663 0.2580280281919187 -0.5374032505514978 0.015392663008422456 -0.908187372015559 0.4176159216282446 -0.22317143630906103 -0.11379961174609693 -0.37394922736221203 -0.1643731573651262 -0.4302546982690391 -0.5391874528967616 0.5804105052795466 0.027761225071451578 0.014456899099321532 -1.4808706164247005 -0.011380826924942107 1.2824493923494364 0.05696492597836091 -0.16786761554794952 -0.46870061932734597 -9.93272195852994e-5 -0.014480852413239653 0.00021110122361219836 -0.006403274446062712 2.084810195459605 -1.0322464073493802 -0.39509467587196695; -0.571549618457467 -0.7645156348176403 1.8320711320549163 0.03452890958921771 0.0003647809806412499 -0.007668763033701304 -8.739416359566357e-6 -0.21106433913431466 -0.5368037749179638 0.18500167918086466 -0.0014226269944028576 4.741828385771438e-5 1.1117668194345907 -0.7995665741919074 1.06567018104309 1.7435320643411787 -1.2025849968846642 0.8646979275044574 0.0805008357317001 -0.0008991806128068666 0.20067996630385282 0.6101524819109313 1.249399477783027 -0.3438964825418121 -0.7942910646227802 0.35865465936307955 -0.5266852108044903 -0.747522572561125 -0.3913224286733629 -0.002905506963309029 -3.432865354199217e-5 0.6981202408965143 -0.288395668372619 -0.39312362067781237 0.7105162278122067 -4.4140205218738e-5 -0.004218473912173297 -0.16409515564665345 0.33284637952290536 -0.16811526837310778 -0.9964934182596724 -0.9119663152682744 -0.14700046312296858 0.4354678261725117 -0.0005458434854993187 6.444357082732293e-5 -0.8761666494555103 -0.0004890322044713204 -1.0891901001753925 0.08250863866659668 -0.373125259228655 -0.43366926511855736 -0.2794816518298397 0.10668992992061918 0.003001732622669386 0.40232917101811694 0.2536343250091207 -0.1413880836571157 0.6922124823040393 0.13539189160844087 -0.49130733126750964 -0.11951820039353366 -0.4725555072436522 0.6252415987239712 0.3005192156706324 -0.06560320593362076 1.8708910390473885 0.03523389345173412 0.00036988501701242806 0.0026231843897040544 -0.5766419128891053 -0.00030631402089353 0.6291283071142038 -0.5149132552936926 0.5011965630755871 -0.7072769120927811 0.0013135605812989116 -0.8465509483674782 0.20917016047503856 -0.11775384346812615 -0.1595139849750176 -1.1145160945868455 -0.10923457650718754 -0.1898541656093047 0.5043600107572879 -0.5270320583894926 0.027842548703888217 -0.09611623389770792 -0.056137816312005484 -0.30334079456352225 -0.010514097321726507 0.286488718825262 -0.8454184718519808 0.003710603233933932 -0.547267596298272 0.26774880654890865 0.49468443661476064 -0.6049210830405173 -0.15225903623915218 0.7568243688502035 0.8496722409090652 -0.0006201792281878677 -0.0010166215375715234 -0.3002017479405222 -0.6482106508076191 -0.8053990463444138 0.649431452958522 0.6400127844092298; -0.335362900591119 0.9735489778966462 -0.546546981530009 0.5965248643767828 0.6833883762004639 -0.002337319377668914 0.003404922216728971 -0.209116893440057 0.012869332954330282 0.2641658346886657 0.004218765818354916 -0.002089447300119975 0.006785719514143959 0.6484554677936873 -0.3865826826935287 -0.1309625912069092 1.164596312041999 -0.39278106198251206 -0.07747552846878655 -0.0007623840040129691 -0.0009740380735943535 0.029649933471451975 -0.32470262307600367 0.00534648597465097 0.18995259272042395 -0.13410412972807578 0.7964081075726167 -0.0012761845202222122 -0.16877296272252723 -0.6116805912923843 -0.2787595056438643 0.01735955454563042 -0.07654359353637041 0.534531705997646 -0.09860513869170336 -0.0010505823807122284 -0.45669920706121814 0.08603652806899696 -1.983331413755009 -0.4873594043285882 -0.3877650130701507 -0.07244174361725315 0.13419037091522823 3.5020853651176006e-5 0.0008424945833789647 0.0001183146234876284 -0.015061005322729927 -0.0005036788235207464 0.004215435555244816 -0.36645046611559134 0.952825124233679 0.4245107437062265 0.30213750277136325 -0.049126319701660606 0.00821991945795798 0.1706443001061607 0.6343206318488176 0.6414192379886691 0.3541990319347251 0.5376693201696185 -0.05112049457655981 -0.09993007410165007 -0.08379176168417089 -0.5144849620691962 0.37023616470657245 0.9144929767536532 -1.128459587274962 0.0002320056505896216 0.040545102701280214 -0.00030527942906491607 0.3493379466840791 0.7328412500994288 -0.22289237273675286 0.00047253579194945724 -0.007982366016025984 0.23388933918308769 0.5938998031406596 0.628010901651387 0.5649196892956242 -0.20546457956805741 -0.13900176030697686 -0.13870181516329816 -0.2170136551193006 -0.2580145645682629 -0.4318396062365021 0.276883675149654 0.2811286623161249 0.396776635540637 0.23255935858793805 0.08040644397453116 0.25587843655296166 0.12107424084926285 0.5483277927337453 0.6024136570548052 0.811811866037754 1.0627548227437127 -0.6610272420374796 -0.4750564335461083 0.576260257806096 -1.1082617958079317 -0.3773097751345888 0.05430482010903662 -0.09784983581718996 -0.0037028555743032986 0.024421885081286402 -0.8505579846088919 -1.1139073924724197 -0.19505301768580424; -0.054136946615115984 -0.0022157342731715162 0.0034802831743949883 0.0007025208649327492 -0.000680257983741765 -0.0031092659027679107 -0.001617734976672987 -0.000662319213355512 -0.0003785514257779136 -0.014912072257077176 -0.001959273297404943 -0.0015718373951074296 -0.001563575485237902 0.00043772253094545804 0.00010114112889006815 3.440646466655934e-5 -2.9629047592403363e-5 0.0021870642659408317 -0.004547290379446619 -0.0003771112138392591 0.000282644869120729 -0.001977041728657953 -0.0002602218948485452 -0.030645087851217036 -0.005965225530699029 -0.003979886114866038 -0.688402095712497 -0.04211168373030417 0.0014874341412800588 4.9090688727759366e-5 0.0006591621020305834 0.0009947133754469365 9.087472526977483e-5 -0.0008939826144677658 0.0008476013327570094 0.0009051306933132722 -0.0010683519128376821 2.5682554219962582e-5 2.6292100427809147e-5 0.005200339006008076 2.982749954989142 -0.21490920103675754 0.00011420770399471358 0.0009107739318320801 0.0001097284791951195 -0.00012461132730173184 0.00026367741586146547 -0.003473966407899283 -0.0001501961799785572 0.0012838476440160146 -0.14946490338175494 0.10218317345052322 0.19473593546831175 -0.0003899570796132971 -0.25291912981536113 -0.8613363383028848 -1.7981828626067449 -1.4979340642181196 -1.723260007962581 -1.2231655861876352 0.4663726185265972 0.4827369651016321 -0.09119106627749478 -0.16812358171430974 -0.8360523557736874 -0.7290765808740768 8.514428898436827e-5 -0.041472869338495005 -0.04426965060660724 -0.0021920353073777827 -4.4072110622334854e-5 -0.0015208949548457262 0.001625052337214571 0.007865368467161746 0.7635056010636 1.3082425387949963 0.0018322897465183061 -0.2013329199897706 0.008251409005913124 0.009509846189592105 0.4939065889734392 0.20872074004729382 0.08571160247611745 -0.05297940413152167 0.0038093446266975134 -0.12260005623265512 -0.35882129134719787 -0.17329835731204363 0.12584893138490477 0.2905602426303604 0.21618352871793836 0.01413865165974051 -0.0018095785794573986 -0.03550669771466095 0.23607439147228707 0.3263412896972844 0.2906862688303118 0.0648058387102267 0.27050534076197896 0.2438512338223032 0.43188387378131105 0.17958545127796113 0.11357274138857791 0.18430237772040212 0.2898565810583545 0.06262208768356778 0.5490974303767948 0.22217411918489885;;; 0.2502948947977489 0.8058660978474255 0.08365183485682298 0.3035466670859541 0.29162696219670015 0.013165308889663064 -0.0005145586585797471 0.32689758195619323 0.40099096015719293 -0.04492105324127734 -0.0026262994685818213 0.001451077515201245 0.8690168737766649 -0.2491962201313113 -0.011434124598657287 -0.5167000128648019 0.7439689622341508 -0.9853969900825298 0.38557772567961834 -0.0014890867203869263 1.0415394685021675 1.7821316160093088 0.03633728424314187 -0.04230622093979703 -0.9094709581903135 0.5474152962409217 0.7262819710662404 -0.0987841470280462 0.48205095378152096 0.4619421537148959 4.138573725930506e-5 -0.007337336727225853 -0.044067839418830565 -0.08904411654111147 0.05460931778142899 -0.011974019905231063 -0.5995738145770897 -0.5201251485583523 -0.0008027868644968088 0.7112756637858412 -0.4745892559478906 0.6762163233657081 -0.10617330715116255 -0.8567593974439656 -0.001569488647016081 0.0003526798667894161 -0.7336109713717616 0.22249925002223678 1.7257589758104355 -0.1770377730278808 0.004908559253031091 0.013923850002090279 -0.3773149664953663 0.125229387735647 0.1569246508135468 0.27111144648889207 0.18091920180014684 0.2426483729118681 0.31032969000104116 -0.11262450344292087 0.3147001008023188 0.17229621471884882 0.8330208297274037 -0.5286753566593063 0.39096012164823474 0.09564750676777203 0.2661405264025931 -0.002282779803657489 -0.00012858033144028485 -4.17475599973992e-5 0.00011871114139809249 -0.002052817809890456 -0.4359992377851331 -0.6348550107701589 -0.09847791380810839 0.5374959327897921 0.010546508010002011 -0.38575886871788595 0.9203888780293127 0.3241699514256211 0.13554724797034548 0.6600532075129668 0.3809860951077765 -0.28712350270929055 0.04311273934912941 0.11540574234201281 -0.09475640916778245 -0.061925601286539615 -0.2233783898297956 -0.16886875471976248 0.018753848858524613 0.10572456067465426 0.00766367891166072 -0.5054524529518767 -0.9882002285993043 -0.7284244540610657 -0.39409317147393563 0.0015076013744191002 -1.0733349363358715 -0.5508844244805503 0.2224267377619987 -0.8348975323077936 -9.325079285324267e-5 -0.06977931839732596 -1.3658691046797384 1.7859405405251767 -0.10432142162145394 -0.4641368949600418; -0.8289614766534832 0.013916722678623275 -2.0585016572257264 0.1374518138264928 -0.40428937463046055 0.0004663998499659338 0.0005923653084411288 -0.5063996423843496 -0.531736372658963 0.06213482248844881 -2.5535915844404104e-5 0.00038666767138994466 -1.1504157020161248 -0.08715977566322747 1.2961820235993036 0.4490172280075595 -1.3663667952089902 0.9805120811349919 0.00024365023139475518 0.0001647196172642528 5.7017314289253124e-5 0.0002882946131549492 0.1554861310751597 0.9418308489976085 0.44963301623088814 -1.2062118742698025 0.0004517950636615699 -0.004409268062588203 -0.9391293733083577 -2.2559514244866925 -0.9212373114622973 1.054736247202332 0.26917732685699863 -0.09278677361661308 0.00033271097909702666 0.01145599388979766 0.32741900089475756 0.840057142419756 0.05995409937275492 -2.1786882439164654 0.8121980421927701 -0.2153985538057413 0.3655667870068593 0.8555957979069281 0.0033725309672908584 -0.00017959101915288912 0.0008089670980349168 -0.22148104700035418 -2.320628879002837 0.9466810385269424 0.7841406319726949 -0.6568431965955251 -0.23837614899458084 -0.5571317437108156 0.22715072441354786 -0.10601875314192498 -0.31615580371972163 -0.0002528724671282936 -0.5737769098653098 0.5388045678553359 -0.011837889432094227 0.4597993955693389 -2.021653787824245 -0.00839580990381753 -0.48289802799145837 0.7212989186455728 -0.1554916563891263 -9.47580739496013e-5 -0.0010553693374035313 -0.00018367039843836957 -0.18298739321440444 -0.4810011854334956 0.02263076797546655 0.24363450720395544 -0.16173941209049467 -0.3262877917331614 -0.010413686863345012 -0.7123524980505939 -0.5783659974310769 -0.39790903852351 -0.6770476419719516 -0.835486420203983 -1.1226162303417249 0.26253590483289524 -0.4313299921812915 -0.9525464481016223 -0.7729154563617431 -1.4165146603017247 -0.7108273557815691 -0.6134674351120872 -0.5287357582569557 -0.7119874940300556 -0.7215657164529354 -0.6379120368148441 0.36795889733178144 -0.7117890212237697 -0.0737549126887956 -1.319117902489679 -0.28042995460370823 -0.7655847671445386 -1.3488686340123026 -3.9308127828835486e-5 -0.001281866409874902 -0.00037270058628054804 0.1108046271657329 0.7898238509213719 -0.6898881637220916 -0.12110568400883275; 0.39288261278652 -1.454427996014738 1.2902968990289303 0.8027285427414873 0.0007277738131588774 -0.01228171382510179 0.0022441445399968593 -0.7278832448193554 -0.6568747458639688 -0.014151640663794058 0.0012082871705705435 -0.00020445795691580946 -0.09916415391232286 0.790004232263337 -2.238522663547191 0.06624154979537676 1.0534696138191686 0.07152384663814411 -0.35059464657484146 0.00045155076702744226 -1.0417816347188684 -2.2302561469628044 -1.0330902594200058 -0.4814348900614707 -0.0018322889874418445 -0.25990025595256067 -0.6115436649702182 0.1023098158270558 0.15856481544460282 0.0006356857274217691 0.00017746010714825007 -0.6610763927345079 -0.4689471395533415 0.2334209799006862 -0.3201576304205405 0.0003322480588125842 0.5781141317046099 -1.1347460705243009 0.4772035654084671 1.3989130350809118 0.5382262053016369 -1.2062350072538968 -0.26058911689739456 0.0017781000687476726 -0.000624802801031087 -0.00020881272087462755 0.7344987760120145 -0.00042045848573932264 0.5991236248561016 -0.43297092272297083 -2.1013634187007684 0.20823959274851525 -0.12925035004082408 0.30315756128992505 -0.6882676887136321 -0.0841145060155366 -0.11829234980282832 -0.42624934490849326 0.31545858292488443 -0.11725580616669626 0.003886757332501399 -0.7546093940407909 0.8859951586691032 0.143734802633495 0.4329041555846491 1.145993947629676 -2.12994146000291 -0.3552105701759221 -8.691391055397177e-5 -0.003114199977212605 0.6621305556269114 0.49489525193799117 0.009999191909845386 0.4081440159349011 0.45095302641239116 0.37442072879158234 0.00311351517760464 0.593218390737471 -1.3753368881935497 0.3739043918238647 -0.08705105381908186 -0.3256565868261973 0.3683756210190722 -0.4700599677445565 -0.589004290708633 -0.5051635759175123 -0.9018831573281637 -0.162817270621156 -0.3877612081929281 -0.2922775331729816 -0.5960837971302965 -0.7133963812602961 -0.5767214681706954 0.023607574140588703 -1.405522108844613 -0.8269053172432564 -0.5249252999681651 -0.4567020275828743 -0.15074684012052364 0.1305854421322142 -1.527105938255676 6.972364132000011e-6 -0.00024250926586358502 -1.1637489293339962 0.15804773045634804 -2.8203214828745278 -0.685988570418565 -0.41521888178312916; 0.18396158757149564 0.6313886461619083 0.6839238989711316 -1.230273377140336 0.11285329579784494 -0.0017705847709732902 0.001170662370576521 0.9074916764778628 0.787280499707829 -0.0038538652063750886 0.001155125285822726 -0.0008188212995659827 0.3807263327389087 -0.4521964387581418 0.9538403328882169 0.001494799609371555 -0.4309686064297452 -0.06896624364280762 -0.03511699190387922 0.0011583752057048894 4.138014380093569e-5 0.4490474018815624 0.8404653739132746 -0.4908926837530426 0.4587458661587135 0.9165784786629562 -0.3034189427891419 0.0007262967793510366 0.2995079295791347 1.793205740154308 0.9222477066615139 -0.38668318640549426 0.24383373891191262 -0.051641959797861285 0.2657565892892493 -9.457322320103093e-5 -0.30765539886437526 0.814963762278834 -0.5360917794601674 0.06830790474132661 0.16848692310347166 0.744664401047223 0.0013525498806728194 -0.0003094128703593589 -0.0012281112711408262 -2.151061201928119e-5 -0.001646838336418283 -2.9272289500741766e-5 -0.004690004137652291 -1.1219996286299245 0.38313226118173666 0.01685262095292865 0.3867798712767037 -0.18414011232463887 0.24521390520664552 0.27521797203886295 0.2987152043379421 0.24297920175249837 0.2848382177118718 0.4676669565506715 -0.4075981391525941 0.015311767590182974 -0.5282072012788736 0.39847901166818045 -0.1517886828448013 -0.19719696013529417 2.019023857209164 -4.183579200969446e-5 -0.0004321401298795426 9.009217720079639e-5 -0.4791755439812943 -0.011790973193421801 0.4025798716395569 -0.0003356716186877769 -0.025469566336211336 -0.19200966179420964 -0.1647965869061871 0.32733034709684156 0.4038694192423726 -0.7090975275449113 -0.445531405028742 -1.0609485449921532 -1.0861266518213117 -0.6995971981272485 -0.08763769729426937 0.13354590791648047 0.2707849740058242 0.13064589994478093 0.0011653310186607957 0.06841161746974446 0.19868876099108665 0.1198472471877016 0.008963073798649327 -0.26656717395450724 0.2168155778783206 0.481179752536769 0.004434428539346294 0.0034850446007477246 0.31023066567749696 0.06572230961538882 1.6804585045603695 -0.15248879941137208 -0.9815927158144023 0.10726898291863089 0.0007960869545418661 -0.7720768977221397 -0.08547298254206366 -0.34015333937752706; 0.0018223814977187155 0.0032565293267811024 0.0006290243688416464 -0.013453646513598056 -0.0009186571772433855 0.00042058985644608356 -0.003492613560434762 -0.00010637123035106367 0.00033965865790981707 0.000791736622997685 0.0002884229280329557 -0.0008144659301093974 -0.00016335058712611694 -0.0014517977106564767 -6.55683416719646e-5 -5.356454750586538e-5 -0.00010317441458393012 0.0023273059522013867 -0.00010973743229239276 -0.00028555886960965815 0.00014376875861075268 -0.0012111655412217952 0.000801470188429653 0.07280294575670196 0.002924364788153778 0.002118355318485383 0.1882288416294582 0.00015730248422756566 -0.0009943254969008 0.00016784489006702182 -0.0012292410436241658 0.0003606686648960675 3.913203260774634e-6 5.187005489962766e-5 -0.0005409876292347883 0.00028035117982184977 0.001696080842097584 -0.00014968561593677103 -0.000263098456557754 0.0001916403083862435 -1.0443219146499882 0.0007528366467067851 -0.0001569128389750544 -0.00030508766135096027 4.987175189713568e-5 5.723448525738174e-5 -4.9933401869500294e-5 -0.0005684722466425262 0.0004362824739519131 0.7853272858538338 0.9291819662933058 0.41782713289199097 0.35816159425406746 0.31288490700988236 0.05897840827989182 -0.35619615937029336 -0.04518625261553896 -0.05912535728874492 -0.33684958077248756 -0.7765912147963902 0.10084917044986805 0.10720201616242023 0.830845000706612 -0.00514264773855166 -0.18917756639662422 -1.765743412907727 0.0002687327802790515 0.3576299438455389 0.0017030037092773303 0.003249525758447577 -8.632957261072901e-5 -5.0275501183356266e-5 0.0007894062602643514 -0.016587840750009807 -0.16526613417757682 -0.3936192080540034 0.16155025058192543 0.17756262893416735 0.6294445883529411 0.4089322228189357 1.07408285284943 1.5620383445093668 1.4593811660361882 1.1942447637482003 1.0648592408350643 1.208758373760641 1.4987700488518652 1.5106116322646395 1.3208016227856318 1.0062021055350867 0.907376945537641 1.1998120674279957 1.2816604319133207 1.3863240895806392 1.8089478622338155 1.7859390399913229 0.98833895559155 1.7708272840973867 1.1942810653826061 1.1201614398774857 0.9730893299456105 0.9874186674828626 0.983210342282994 1.1266319653989718 1.0962206601031155 1.0166339891501186 1.5656711383041741 1.3406148001295308;;; 0.197625772415429 0.29535875034117837 -0.34510944184801373 0.18515753644866542 0.17863791113362648 -0.020799123613268772 0.00039653012979724226 -0.039187248535646785 0.2954654295468566 0.72733038969696 0.0005173533727554998 -0.0012328980409393286 0.7931734271420026 -0.2985489023571103 -0.26086839339319945 -0.3651230599724433 0.035228013069683685 0.6345657919225387 -0.2298969623806188 -0.0007099175613743095 -0.0017883198795061001 0.30547741719923216 -0.01216196746438485 -0.05404267941422261 0.4846954484951921 0.0435015728110486 -1.336364346741687 -0.5840223629419939 -1.2849086199101372 -1.362163078865765 -0.00037725850276668007 -0.14488237399163287 -0.3370450857487232 0.05072441571719196 0.12276081630188132 -0.0019821337065228095 0.105754505074658 -0.4577024956119203 -0.0007432475807443622 0.6113844570669116 -0.5823663066550677 -0.031738437178947795 -0.8206108980184941 -0.28958433289058416 -0.001137390548148167 0.00028299878051106536 -0.594130854114935 -0.0005131992154411625 0.5083489311026067 0.0813077533305324 -0.6193155896150355 -0.07189474199981659 0.4559311578122149 0.7237833843985646 0.11813528196885148 -0.0371422778618704 0.018253410085314593 0.3236953839576696 0.17845955950943548 -0.5142631694166568 -0.11369414151802806 0.5955527095219709 1.5395491135258048 0.5046736373697712 0.6146706288466169 0.9059395900263556 0.5956455153439729 -6.974654404418967e-5 -0.0007088122633576104 4.4023519142166384e-5 -5.858806812075917e-5 -0.002186625678826223 0.9006328402498219 0.6656810393287877 0.498692637115078 -0.17685418620724494 -0.00028683021136646433 1.1862924847354668 -0.9333094290268651 0.8125308252548498 -0.5909374544387219 -1.3572926304867667 -0.1190636946589447 0.45582912635496237 -0.001233562821567666 -0.12389829281479738 0.08935046597160062 -0.1930962588585735 -0.010064581199376156 0.076906363337246 0.13391030957996045 0.1675012244402852 0.4808544354802169 0.2326703344038109 0.8873174214402421 1.8938955682733647 1.5809787509761042 0.2612124004709593 0.5430417616123971 2.107246610299672 -0.6640466358625853 0.9600911247385158 -0.00028094543530025537 0.15917026908807239 0.20531646823330016 0.5012332163098354 -0.12465179801341007 0.3942163622394193; -0.5153260384472046 -0.0018976903910319196 -0.840408475164601 -1.7018627466960596 0.5090519990927993 -0.000563027053775211 0.002169894266489649 -0.04765846453857008 -0.6256426676067234 -0.11663011621543634 5.571427021453402e-5 -0.00018077159068368348 0.1533725142002219 -1.2053216092135024 0.8459644302764634 -0.05244318092325224 -0.1639866509004904 -0.2442557662391288 -4.547204469551937e-5 0.00029538831640174475 6.640690453027378e-5 -5.1173375636881686e-5 0.003456205271569263 0.19966585928849565 -0.8728665370578229 0.006859465544906948 -0.001123099265832718 -0.5291602380994265 1.0563330043611592 1.007742922462404 0.04184046026669507 -0.01355135306285273 0.13578429870348155 -0.1331017272547455 -0.002989495614209731 0.0026351276208016142 -0.12579243415380692 0.5285864967933609 0.4513293358137107 -1.2044378170151755 3.290054656659687 -0.9595682779958067 0.44556133205811954 -0.024610544472457325 0.00048020704557551853 0.00022835163560383848 -4.2206511241125696e-5 0.002256939801366297 -1.2463016709477064 0.553869301950992 -0.02448988404361655 -0.023977943726773063 0.33466509633527947 0.26489000465196566 0.731786858733441 0.7694941620982783 0.6494889478765075 0.24797031039307948 0.30855303077799584 1.129013556150952 0.3304459244750198 0.03146361383139948 -0.8341566961909542 -0.30368000299283304 -0.3557659114723877 0.24300990143615023 0.02877495852990556 3.1689165119080045e-5 0.00048418282351560764 -6.9250011196702e-5 0.7616498131737575 0.30652340384603555 -0.21159797572744451 0.08841079546201772 -0.6948517812162834 -0.9756893293898408 1.3393674461016696 1.2198272798069352 0.8773417941739408 -0.0004037576590863287 1.0834705052390794 2.4127949030687317 1.9211836358187486 0.18355703662576625 0.6192171689846102 0.717759456885233 0.5781079891555891 0.5332202238009267 0.43561900519665536 0.430940335581421 0.4943758377970486 0.3742574870611186 0.5374339019077139 0.5541469939507871 -0.9311699351198421 -0.8397494202627673 0.008495154295405762 -0.006286661986316733 0.5328489890533682 -1.6108898961420113 0.583330557273056 0.0001312616307066671 0.0016985262299238706 -0.0009105128708153215 1.3585811555809244 1.1229846823810214 0.7130596131669816 0.9419084267729985; 0.4130019661058729 0.31083194988827123 0.45271770298729197 1.662640595891172 0.00013523893576761648 0.01868844992200436 -0.0007055702094637364 0.6256943247852982 0.33317758241010337 -0.5540370539453395 -0.0010927321265844043 -7.936149995271231e-5 -0.9516208380923689 2.911406928469434 -1.2496880347072996 0.4180972933605092 0.5075384597191575 -0.3939163847920843 0.08911183409450427 -0.0003104639685721781 0.0008359081120221621 1.037295554055746 0.841685576607359 -0.11256397389763208 -0.09548478409941366 0.5564737392704311 -0.08995981579442985 1.1042845108792074 0.0030364613280424394 -0.0007423541833551235 0.0002040921614395339 -0.005720907570791589 -0.012249734419592593 0.006465098996410039 -0.12380143356232878 -0.000190709025802108 -0.0015858719242628873 -0.07733304438501819 -0.05030536202042611 0.8200360132008809 -0.5069192385649971 0.24230051734868488 0.37373721322019676 0.3144905094926656 -0.00018166497626052614 -0.0004912781717134124 0.5926988903369534 -0.0006805652123425066 0.7359734759202816 -0.10101050547626647 -0.7177085724178658 -0.12443359787232887 0.1888953790303455 0.5472710953984529 0.9081712983062584 0.6391742541963431 0.522926127343888 0.4618162971166236 0.681978291612943 -0.016180335698037195 0.2683848254412833 0.18269383785159923 0.15939412391109228 0.2769069874208518 0.5066077328346816 -0.8295135667501411 -0.9566217620651367 0.06355109278103245 6.580685033074287e-5 0.0007535136326764909 -0.005921014638412606 0.6202102645495573 0.012350472622912024 -0.6681498242715849 0.6123584659845678 -1.0071030032674215 -0.07551556153048034 -1.089263637183129 -0.08062877461509442 -0.8211986362214563 -0.38975125240893266 -0.9555735383579396 -0.8105821519504612 0.40116263456266066 0.25304493144123635 0.2122285883638287 -0.016730863202773442 -0.287094255413424 0.03938881157676824 -0.025320018967842802 0.01956451722154567 0.8432565665109616 0.5728425982044266 0.4150136513066269 2.20428836057042 2.6204651485128836 0.9063014076373247 0.4028443638376433 0.4261628408528948 1.4532202434560522 0.4247003282754241 0.00032511512880859607 -0.00017985106637252282 0.5709823770201381 -0.4047852278837479 -0.7360545571290693 0.2599978002762124 -0.2500895978732269; -0.08956281628965054 -0.6011380458120928 0.7343657856175433 -0.1465174437028097 -0.6883165520990885 -0.00021071437154565248 -0.0016334917708826777 -0.5397570677654703 -0.00479567954909803 -0.05975661790213356 -1.4027274726983817e-5 0.0008154761122138582 0.004660645601844396 -1.4078288436789002 0.6644086479715654 -0.0004511930838091364 -0.3790432474897558 0.004130352499363286 0.14115005457948177 0.0013770375318014124 0.0007166166276877799 -1.340974956806934 -0.837299484331237 -0.03200740956695679 0.4825830281418071 -0.6095531878257155 1.4245153436237092 0.004906518541972157 -0.00859958869432817 0.35404189974464034 -0.04237242144984497 0.16401782737877213 0.21350417496133586 0.075919559436364 0.004372049713195073 8.248405207660764e-5 0.02150908243216496 0.006563897948327724 -0.4002684396847782 -0.22650342822652175 -0.10470463134883307 0.7460574971317886 0.0015622353187400313 0.000112791999900474 0.0008779731959057494 -6.776976548028786e-6 0.0012436276713916716 -0.0002410743039478996 0.003806814122175746 -0.3069393221427905 1.578521764976167 0.6313332732971535 -0.274242461077835 -0.2868996395071524 -0.11918123123164005 0.3561752288401742 0.26783382277127643 0.008115516625255009 0.3451870754778074 0.7569014103112683 0.48580628210838345 -0.02727186891387864 -0.3450785393116893 0.2055748267557043 -0.25473435444822046 0.34902466185128306 0.9927635679286696 0.00014197290478154556 -0.00019638773943189418 -8.961514195285232e-7 -0.7544369729730667 -0.9088136816960667 -0.7041168775645334 -0.07806563725704743 0.5256170425109348 2.7284922739238575 -0.7896755464467006 -0.8594499532172825 0.1335657836270434 1.0280051849435465 1.542622904447022 1.6281538550353798 0.7847945850153698 0.46873137315776386 0.6511651604270963 0.13108295155038957 -0.0476124110151374 0.3598226589563091 0.12829123335284812 0.09809993577852091 0.023505932782866164 0.0824285658882252 0.10179702780552934 0.4347441661021941 -0.11489534389578625 -1.2924532664672528 -0.12138759243169142 0.9086487801292492 0.16640671898033502 -0.5303072286906761 1.0995693311160115 0.3424888951278689 1.1977448522857295 0.6634987154443404 0.6397069070960223 0.896870165218067 0.7838808984712285 0.5431312916873138; -0.005738883784446836 -0.003154964026324863 -0.0015655715922205447 0.0005820580590317905 0.0004914029368950712 0.002884415116585273 -0.0002273624159404768 0.0009084560543890172 0.0017953351988614352 0.003093398365949485 0.0005336917583413543 0.0006775550193618659 0.00041425114829993134 0.00029242678007856276 0.00018334985247043275 -7.985938100451428e-5 0.00026342560140491975 -0.0005239933906888831 -0.0003194542486717131 -0.0006520443182566693 0.00016938823526588444 -0.0017468410724073727 0.004319669916693567 -0.0010517964096841785 0.00107284452023739 0.002718410199328873 0.0029319181782403434 0.003991571620240934 0.23413874291526388 0.0011206108420756563 0.0007051275244770476 0.00013680724650505546 6.3465034984004805e-6 -7.346895220481709e-6 -0.00034193683853787584 -0.0005447689405533045 0.00011471857124684389 -0.00011485474475015255 -1.2286527762046329e-5 -0.00047922502609520684 -2.096064480090789 0.0029487006942810296 -0.00024988257856232434 -0.00040842412952463733 -3.9124717072574835e-5 -1.329526785346261e-5 0.00023054261783102804 -0.0008221010696347285 -0.0018275501973575464 -0.22722722766246747 -0.2170077188996489 -0.4110269896982349 -0.7052491721000049 -1.2490448449418305 -1.6389122077769107 -1.7277013672729251 -1.4585023080769866 -1.0415975080926276 -1.5141779573781817 -1.3554714613475265 -0.9709428905066585 -0.782438292291091 -0.5197080019342537 -0.6834754485534943 -0.5107780957606903 -0.6684605865636477 -0.6605622797374116 -0.06365500830688889 0.00035521032894315414 -0.0007273909892024266 -0.0012332374941575052 -0.01573336102069996 0.002731540419244021 -0.007876373262173096 -0.9418163643942971 -0.5688457550593501 -0.4738895079131221 -0.45740617414199036 0.003030625840975489 -1.0189336163178537 -1.6454047028384469 -1.728082589259405 -1.7763323742247128 -1.5092801707011532 -1.522193698031375 -0.9371727039846538 -0.6031151809092788 -0.4128523684852384 -0.5932344689268956 -0.580626615729345 -0.671356597381421 -1.4674438439005906 -1.6929279633978866 -1.636575145763419 -2.045540502995034 -2.382158030056228 -2.3743877204771433 -1.5664188824515353 -1.668460310498995 -1.419269728923037 -1.4435535808019064 -1.3030363966259 -1.1989825820139806 -1.3927408486817354 -1.7988193030264992 -1.7850335067798544 -1.6322865139010125 -1.6291664828265047;;; -0.015121192482167851 0.7463949624685655 0.5201698935219256 -0.003554850390122652 0.1867491469914791 0.02345902687292655 -0.00029443316131705805 0.9180508844226155 0.2160116117574011 -0.24905874205636325 -0.0023126005983601858 0.004951477796994684 0.6361666787692533 -0.31201643722056577 -0.19080173669861794 -0.4121957674418856 -0.4681210866119 -0.5174316788046545 0.16334105208276412 0.0013526254021800149 -0.007442916238146384 0.393208376930676 1.0473906469915994 -0.6062084736116475 -1.138780968440878 1.5576464056143542 0.5369106216281474 0.7500091347588334 -0.8354850593572071 -0.6837765828874309 -0.0009776443129833761 0.010427537581473335 -0.4389182502871106 0.2118832768675665 0.5691462948778109 -0.14798560116474405 -0.5237019779946002 -0.3517605469089715 0.21354341934582027 0.3243527176174957 0.006337737058841056 -0.1282329843970198 0.3276629375804612 0.9227918363489453 -0.0013915235890655023 -0.0062605871744630184 0.4372058725439279 -0.0001888816286579491 -0.7266651229984916 0.4923582790826572 0.8297836788290385 1.266430779538719 1.3664199417365974 0.1702604160823582 0.49579060055940694 0.1825912354734754 0.21988882060076012 0.28442755043655327 0.43964883903373075 0.15935674743093423 -0.056720254922504015 0.4632003841573757 0.6222780141400601 0.8825994879727912 -0.27333336419863985 -0.1855742488486722 0.6174874084998925 -0.12304667970349363 -0.000539153615034078 -0.00031902711824301634 0.00011114257975923038 -0.0015273476480186148 -0.2372703245119789 -0.40615283321645723 -0.024194566184279398 -0.001969925587694011 0.0007625814138837692 -0.028759025534695337 0.55107977729787 0.31779719138965445 -0.0009874240942985633 -0.7435118117238655 -1.0228143006123578 -1.2862440091603662 -0.07629005804499459 0.3762848360870992 -0.38972880237399005 -0.02642921170723343 -0.02163929572315757 -0.22005772172471338 0.0015682988928406262 0.011972314305295299 0.17729734643607095 0.603536619647005 0.5729117351486843 -0.7746073407108072 -0.09215420097541757 0.42697112520640274 -0.3194637044535123 -0.4843801980319502 -0.4374927415033258 -0.3002804113175792 -4.102685671750005e-5 0.07728858202415159 -0.5452538151481577 -0.24446718447136465 -0.8147760011698166 -0.8263307632302584; -0.6053434162290466 -0.04996374577080187 -0.724731937977479 0.37654954495594933 -0.3505154089819931 0.0001734617910274353 0.00123576780148762 -0.3731816246063787 -0.7235688621334787 0.6153656066017862 -7.781823794092417e-5 -0.00034232871817441217 1.6393293614290816 0.9226863894323275 0.31020741138434277 1.0502607585975514 0.08820363652485719 0.025093177016897113 0.016730694932610996 -0.0002722896117750055 -6.361462745996878e-6 -0.02400638180585515 -0.07907394056663752 0.33530316228155055 0.6662532371191402 -1.6781881791936548 -0.0002613974579560722 0.0009616421863905608 -0.10127636170093328 0.46501082049280174 0.24887364149783195 0.3738904840380581 0.6256203324434416 -0.05343738828351301 0.0008650317639651724 0.1442802767680808 -0.00581532493035835 1.0273611870270263 -0.8717951724523226 -0.38694669787923397 -0.8409990352129842 -1.735482835275671 0.39396642530162646 0.2669564837853948 0.0027215686442627995 0.0001564067779485209 -0.000520661138308806 0.001570452349447113 1.2936923096382518 -0.9625482217569833 -0.5197621517926448 0.5376076030241264 0.42631005603427824 1.0987938782230344 0.604699663313755 0.6638790670753796 0.08421483957356306 0.6790164834492513 0.518988334158528 0.778271535004586 0.4730038614214872 0.06953387286564841 1.3104065412554713 -0.15464273198525116 -0.30922460095652066 -0.6048622314954809 -0.6419690756448878 -0.0004938326751710657 0.0005857504149277301 -1.1746140817534451e-5 -1.296291520583679 -0.8449465772372041 0.19628845090907168 0.39835827776354293 0.22236832491949254 0.15408772639809473 -0.4837836136094169 0.302747944511508 -0.20113585059522548 -0.00725244393493757 -0.14427701431042755 1.195143213013366 0.6452810266948372 0.37965830375939025 -0.6533896445619188 -0.362631853868244 0.010407046780230711 -0.1920287877774722 0.10286333002182671 -0.00027724380050802476 -0.12072268094235952 -0.7576777229818422 -0.3224061707072996 -0.3451391327372629 -0.5410843809995858 0.07124822687430528 0.015415666024326733 -1.1574059108561112 -0.10369749598479384 0.38098248938277196 0.256022522344398 0.00013310437965352584 -0.05599708440063114 0.0005836208341481764 0.2470593551953724 0.0043613993167976265 0.5841169404064167 0.6902249776008849; 0.49968825689014806 -0.27973740296560584 0.03940732377046508 -0.00020447940556642545 -0.000519680303122272 -0.023846429793827194 0.001399529708760112 -0.02171186960523303 0.513891459865261 -0.14994693258493713 -0.005353098390425582 0.00019716373857561666 -1.8062733685151875 -0.9195765800072188 -0.33540587819573764 -0.8378218026268726 0.9240965394599677 -0.008808957372604755 -0.4378134550611934 0.0010162352481118903 0.006734130308342079 0.3662995192798552 -0.012832257274430577 0.2870235138430544 0.2396180675804341 -0.646158550256112 0.587008849291814 -0.7513844980766106 0.002659388445316706 -0.2744750147391647 0.00015810482993708604 -0.4850292497359696 0.037798044108650605 0.10912838864094385 -0.5945049008983765 1.780858886923792e-5 0.09985478433160654 -0.03497644014749329 1.0262278485744696 0.3269217040412635 0.4279513434941073 1.8272687865664121 -0.7231202396693258 -1.1888435148426906 -0.000249522047637608 0.006161193198859732 -0.4736367592946133 -0.0008286203447094712 -1.1926541188323496 0.19337188863500884 1.5657860443179001 0.09617401947296897 0.5257195263969687 0.611005913325456 0.7627338902133021 0.7284979902403695 0.7557325370719084 0.03798830208812546 0.2219529296856078 0.797485625925641 0.6752095822252451 0.7010673074480399 -1.28487558026643 -0.14795511420880994 -0.1456396377460605 -0.7399302112529925 1.097348493940757 0.2804136302624403 7.924254315209279e-5 -5.1661230521066664e-5 0.12729949765025692 0.5215824637120833 0.0019612277719137775 -0.04289977230975475 -0.0966353695473034 0.026803762448049284 -0.004515021550317317 -0.45013176796485194 -0.9201920074220052 0.42166524993592003 0.1724305037823758 -0.26638960621291785 -0.5222119517451822 -0.41935375385555024 -0.016378636718652 -0.8340480840511267 -0.45200913105998386 -0.12677330783152888 -0.47075436531332465 -0.19385254451220588 -0.4151763061298337 -0.44010325628107505 -0.5771755289990803 0.3271144651447412 0.6316741117731328 1.1924477835293101 0.021665557996523158 -0.14098027596298052 -0.24212189284154464 -0.0002856961410825147 -0.36230351719542825 -0.0004161198779968946 -0.00015752523962653554 -0.5903880694604479 0.1119504161041794 -0.6122964849815649 -0.7772172819727388 -0.4842899375675188; -0.16778582015287702 -0.4361270453593999 0.16377836628969583 -0.3721691045112106 0.16199265513032995 -0.0021725029642194393 -0.0009636718142974384 -0.5239112222531667 -0.006472518305455646 -0.21396994735614316 0.0039542868760249865 -0.0037045309477064733 -0.46896121266418145 0.3100597428421899 0.21619612989689832 0.1997479813099573 -0.5443961876760445 0.5238479797100805 0.25736065436748345 -0.001563793222701574 0.000863144249573731 -0.7340893372526408 -0.9550461619602935 -0.012929741608221537 0.23130596488234292 0.7657589297671473 -1.3887187624460047 6.598698656418232e-5 0.9334335497484446 0.4950441568116548 -0.24791534999773807 0.10083128287176824 -0.22461797499561062 -0.2682486237840921 0.024484277018034677 0.0030404595663315694 0.4295940673584701 -0.6409062897484341 -0.3677218266667727 -0.26457044492423315 0.10532032971448871 0.7339264364133005 0.0018290547780268785 -8.692844530846907e-5 -0.0010926109218643472 0.0001964972987967907 0.0365894835084087 -0.000306449327502554 0.6261326569585004 1.2911727620618314 0.39918472929361387 0.6072260327339185 0.3350098017886549 0.667219989357069 0.49708431369136097 0.35958135489743553 0.7247655714905763 0.36358758233426647 0.5322373622336488 -0.10049907601317805 1.2201557604801376 1.1107241659765354 1.2570719945803415 0.005991716667041387 0.6023070209349844 0.1259302827287929 -1.0735716155778714 -0.0001286323734693968 0.0021755288547261214 -0.00013002368207666216 1.1685585528648506 0.3242952644751215 0.03615637331468911 -0.018784338969311525 -0.5793734258055494 -0.44722705643573407 0.4988934579981027 0.17267192769630163 1.4836726132837792 -0.7268771311081875 -0.38629396273661437 -0.5484721498145406 0.5629767200318616 0.7004981629118417 -0.0472017859401713 0.27071567169585853 0.27467467676371515 -0.09666047208937702 0.0005244998138885917 0.08015574314060742 -0.008212384227211503 0.34055860350430556 -0.20926673229981044 -1.3570913165777287 -1.0787013840482567 -0.8062390096856015 -0.5284251973764532 0.13801524675547863 0.23874732052731124 -0.047899744621550916 0.491649965444305 0.0731030630583155 -0.03955164307258698 0.31874439692376605 0.005060919907442589 0.7126254690660401 0.9393760401927179 0.5522642933476848; 0.28856217197394346 0.019433231627242073 0.0013763543953924518 -0.0006211106490496872 0.0022932871633063244 0.0023864440940926483 -0.0013771925346332356 0.000753832042163041 0.00013830881627225846 -0.0023899846043426405 0.0037892303507017057 -0.0011017818696894158 -0.0002614590189660434 -0.0011531150467327532 -0.00019592638688552182 8.830161249393925e-6 0.00021709830311956335 -0.022700520549718276 0.0003810536783348579 -0.0005327778158153254 -0.00014799685702343007 -0.0014121771520353029 -0.00043828719023790224 -0.0031884609047359144 0.0016036988589608107 0.0009413940682651028 0.26506068898399954 0.00034773414482249497 0.0006684828643790378 -0.0018033796778609962 -0.00013875201704760686 -0.00012005475533003063 0.00011784873062905124 0.0006743465590947487 9.297238565858816e-6 0.0006470562414623927 6.84512348818888e-5 0.00028208977787268474 -0.00025426880119452304 0.0002427211447078696 0.3013896249455471 -0.6974794033070215 -0.0003381779907887025 -0.0008178768463410869 1.2087914304657885e-5 -0.00025351010114202496 0.000362064380585533 -0.0002465010485771385 -0.0005057247659107078 -1.0143547080225142 -2.2749923006479076 -2.5074384347697327 -2.6534593259564994 -2.5472801969879177 -2.360308467777825 -1.93454964768666 -1.784601768736808 -1.3650199183081964 -1.7128274651115152 -1.6346148323479832 -2.311648949204366 -2.3445257304475993 -1.904880969709443 -0.5859933584457714 0.12589058196623654 1.4044364088683527 0.0007047887821096689 -0.15674448551030626 -0.0023013681977718664 0.0005124581716582796 0.00032232748881232874 0.0005961966980178174 0.0028642725163043697 0.06947866673198054 0.47783503661763965 0.268305493177284 -0.011357404252252281 0.003470921291737646 -0.9134245325644186 -0.005332866282449372 0.35912789735896467 0.36323035473795817 0.3367685056308412 0.6254412963446845 0.7932601252657369 0.5496794301364131 0.556656209890028 0.44189177940561153 0.38900583120076687 0.33403176689681985 0.5425430724065641 0.8452500614533163 0.9315510855701193 0.7715793645232452 0.4151999181260253 0.3171503399927933 0.5834981743310209 0.7333998148572104 0.4265357727525395 0.15158314941181172 0.05212377091005104 0.22746036375760703 0.09574727956956217 0.19377146967838207 0.18118312394116337 0.13977680107009177 0.06850030254342074 0.06813142984920767;;; 0.36432941851003803 -0.04185334573987889 0.05554583523759061 1.0983514015679796 0.2100859974694686 0.0004178822136144489 -0.00014383549622083532 -0.19609377728002395 0.4240885882107399 0.6836067890348916 0.0003998716750549428 -0.0052524677741962005 -0.5656841009574981 0.7349349552575616 0.8453846534641586 -1.4474936467595603 -0.3288555012183337 0.1991912642486848 0.008245001728087507 -0.002854511292214239 0.25199169756042483 -1.214257990169759 1.8431299218607196 -0.5308864508802811 -0.13109231139166214 -0.9543621637989309 1.3360976876576596 -0.7009667646312026 -1.6226852829599876 0.16131193715538417 -0.00010558429433325967 -0.05588543422138825 0.22032760829034181 0.10986913075286482 -0.0012502017846448574 -0.016713429003862083 -0.011995945539999067 0.1188777389953672 0.7159372455248869 -0.0005425126523406398 0.519883940546369 0.36789113951912367 -0.4703133068505336 1.016762582217747 2.2127938230392575e-5 0.00022826581212243566 -0.00494195611459531 -0.0007910937894467855 0.0028575949547478227 0.30963220609163594 0.2299489760836766 -0.05352407233497019 -0.17970246974525816 -0.3039404153854545 -0.023049725009441906 0.2962791865980353 0.025154544786790592 -0.05027611458002292 0.16024566274881585 0.2383995519660278 -0.3232446459861873 -0.03272432511229155 -0.7911193789524222 -0.16797934572584192 -0.29139310541654284 -0.4998410178567981 -0.1255284064289658 0.37970976955640046 0.0007279555799055324 -7.527025997304911e-5 -1.95677684852215e-5 -0.0002561981931851784 0.24313773870802954 0.38930501179359606 0.19008311957816615 -0.0005648065079966035 -0.00559508483808389 -1.641813260582776 0.7094991739823717 -0.25238673455544264 0.000682152783370697 0.15680888024167508 -0.2847352083092565 -0.681742456786369 -0.0837416605657607 -0.10044218914242964 -0.598443122467163 -0.6068230822332431 -0.0820456316852006 -0.12953323075448203 0.006891478734710047 0.3146202165787992 0.43877701767785826 0.13225806087343545 0.18560692289320585 -1.809129909254369 -0.5700481160938639 -0.2574393843575973 -0.013483479873969894 1.2519718861980231 -0.7668830153157137 0.7885438589818408 0.00033690811356009635 0.38058973817097314 0.012792096095263435 -0.0986072969923341 0.3167071821151124 0.6352323306085033; -0.9324721709350958 0.4598183925275559 0.4349344652171252 -1.8441240771042053 -0.3845652136682546 -0.0005070145837412629 -0.00014601115318891474 0.19367017068643969 -0.6908138940327971 -0.5280326985370563 0.00014151229426453526 0.003331892358040509 -1.0755027144265175 -0.9146892051447595 0.7135862260419005 0.3965690547360745 -0.6680849907055614 -0.840515776088169 -8.863290991705848e-5 -0.00016869915021774945 -0.00017001009363719696 -0.0019707665182315454 -0.9780186576280515 0.3185944322834277 0.593611126979917 0.6791912028792113 -0.0014404399815477773 0.000786094996735036 0.6695711383364487 1.074438478680544 -0.13119929144517983 -0.014241943003938832 -0.16541817136097814 -0.2048181270947607 0.0005267422460219505 0.013051084593665135 -0.7952777808095022 0.9833612010191883 0.34527557115323965 -1.5268305782351694 -0.3273304831687633 1.459546041698453 0.6465503854519855 0.8898804481151145 -0.0009214283163444708 -8.812655841798078e-5 -0.00044746656530417884 0.0010417210743418736 -0.0002857507147478231 -1.7809138646011051 -0.650063845831891 -0.3457540760069514 -0.17819781884741828 -0.15063275595506515 -0.1903480009154816 -0.4026045322670978 -0.5341618300518618 0.0344051129268083 -0.5980007745448368 -0.2805873889114519 0.09837159263004162 0.02913340618337883 0.5832095606252854 1.0801102755579919 -0.1646245766671308 0.6192072461051206 0.004123936315066597 0.0017679280509407854 -0.0007645290295095312 1.615610392701665e-6 -2.042176290309278 -0.17752150564435068 0.23945713558734738 -0.2529912139866284 -1.151981955306283 -1.0624697660009819 1.131209571457648 1.198289664202452 -0.992616941149647 0.0031387004542547618 0.5243514301816464 0.9600834646488187 -0.20892428757720352 -0.32258967976434283 0.43826574980301336 -0.4969792729752937 -0.20558887697722308 -0.6597241887598887 -0.5761559318145648 0.006536964615621718 0.3558943955229136 -0.9946700228401124 -1.1269905739966823 0.5465059463455129 0.3268894816762373 0.37471932947859216 0.5661843102740047 0.0007664583651956176 0.1785153464426387 -1.275318802247995 1.820455905548451 0.0001396918991421422 0.0020963650776120654 0.000608630427625239 1.235592966908232 -0.7520765752735911 0.05211017285624658 0.26048183494012683; 0.2864213129298518 -0.29843337740515247 -1.170799477301698 1.2175121813845347 -0.00016587287465850625 0.0018651912225735947 -0.00033775058917221324 0.8178936018882219 -0.0457186753351017 -0.1560554768566928 -0.0005495835562211324 -7.75512702626949e-6 1.4771032923571 -0.11196286981742092 -1.5601101571928837 0.38389698643147835 1.0090472331707567 0.4816080670586034 -0.8162789392500033 5.278853763704256e-5 -0.2520498108476561 1.053068678939132 0.4028238686725579 0.21458077395115133 0.006942547924919913 -0.7106499618631323 0.390731123282645 0.6972251756514178 -0.8213599940650769 -0.00018643909242597236 0.0002348904225909688 0.10294616216888407 0.23082700919222243 -0.00021995790766940435 -0.16391781034347366 -7.233141931660314e-5 0.46697215500250744 -0.7096241190875583 0.3949582581240473 0.6768695664604483 -0.9648582534933015 -1.2806549292758929 -0.17630657464116076 -1.9066798378091405 0.0006842465494602295 -0.00015374659737402767 0.005435258056168258 -0.0009899227045060473 0.006979321388520768 1.0714819575582015 0.9232992670777151 0.0915108995399148 0.15110051208705128 -0.14662765629808122 -0.23329890372278936 -0.12013213325591908 0.12280697608279481 -0.30890475003663653 -0.043096272798156726 -0.029366064061368585 -0.16385846480913704 -0.2550058725040276 -0.6008472832675458 -1.5293681771994936 0.7083566052030209 -1.0247586223173637 0.07301802683635192 -0.397737552898046 4.6128286242337975e-5 -0.0006184710438019183 0.7829675451183478 0.6399626815083754 -0.3935732021612351 -0.6629835253191515 0.4103425171285978 -0.5941322981302051 -0.0008937242912728816 -1.1831043180539518 0.16792138875823592 0.04583902540035865 -0.0924508868458022 0.36821437094548565 0.3618230712477674 0.27642877372064806 -0.9541257274222203 -0.8597724941647121 -0.4922374215279763 -0.33200104447831735 -0.0012021824838912133 -0.06850622670713548 -0.5483236646415415 -0.06043796965195898 0.47969020565393566 -0.136143861427058 -0.22204825636587583 0.9716393895479262 0.4625125112721646 -0.012632128307401414 0.283266896053061 1.1776952874660196 0.4078543818416758 0.0006596113869977725 -0.0005193038698862606 0.5389247196188213 -1.1539347188217768 1.053224529536077 0.5815959828103053 -0.290833182200219; 0.4929236187380676 -0.10216729902882331 0.6880664846630693 -0.4714177130759476 0.17562526521522165 0.00017216715970662272 0.000530728743595395 -0.8144177758961949 0.3127161702659765 0.0008896937073972576 0.0019841036970858392 0.0016602919796282235 0.16243975680998887 0.28895328396624564 0.00115752501188903 0.6668864334420113 -0.012149891006288169 0.1671568840748923 0.8102561960762364 0.0011313154504128036 -0.0002731293484952057 0.1618580108417592 -1.2694934764125025 -0.0042498389776506685 -0.46959562827566126 0.9840391246235803 -1.7275711539888567 -0.00035445964476653324 1.7731164459893118 -1.2325559186904662 0.13021508537974524 -0.03295368859681324 -0.2856488783950884 0.09514146111801405 0.1647869888585019 0.0022417759523014414 0.3395999783521725 -0.39265859668257025 -1.4560978732059016 0.8514628801723193 1.0770344100184797 -0.5523457544224604 0.000227758885569327 1.4322846105318878e-5 1.719511643387231e-5 -1.606421463423412e-5 -1.4639789617350919e-5 0.00022119801708468437 -0.010680278970359457 0.1290980845425418 -0.9902030686599069 0.0049647819066425715 -0.13777811008006774 0.23000673725687967 -0.023993694926128118 -0.1500587732471229 -0.16719726946912455 -0.11883682637281374 -0.04328631653732684 -0.3230500810362834 -0.16690864844627262 0.004198582752432958 0.44093322513323513 0.37783689369580825 -0.26202541544845653 0.02070569736506843 0.047686626936809355 0.0005539443423230545 0.0003330609289757771 4.409961507528229e-5 1.2596611164135998 -0.46184147964865907 -0.785200707196429 -0.4839305938281023 0.5495324069759312 1.6401912128873124 -1.159337308662176 0.8928450896411407 -0.4171167694806601 -0.38176104339087147 -0.6422833248015711 -1.593044997560089 -0.0061189179402233755 0.43961408398652535 0.2153178458932993 -0.08377499360866196 -0.7945042749672974 -0.07219694608342639 -0.46925392593489523 -0.23411286604742987 -0.19534165777788393 0.24692469516987084 -0.0037682763073561263 -0.5762319915320053 -0.1691964391097872 0.42446817387914604 -0.505041283542898 0.6207369394336508 -0.8011534715644973 -0.08057221781710579 -0.4342823605925603 -0.0019850283833566583 0.7779734429686546 0.1397341942014397 1.5929424227084295 0.8944942779186564 0.2251353216221431 0.649465055004844; -0.21120217924286164 -0.017364370353701253 -0.007747307816087021 -0.00032179277236117317 -0.000980176141777166 -0.0019482260121534037 9.686849498656834e-5 -0.001052219398442833 -0.0002721891088176087 -0.00040830734853975414 -0.001975904110184185 0.00026803856355373673 0.001643766216926911 0.002763835738373304 -1.824732506440984e-5 0.00014117214999627615 4.314975942651047e-5 -0.007440439294011588 -0.0021336256444035233 0.0018391064543821424 0.0005012527293636428 0.0013020669070992442 0.0015583435072765378 0.0019610836233527234 0.0001342647624864756 0.0017817981592714392 0.0021827830301002103 0.003309953627816214 0.0013576926993040688 -0.003008058053035996 0.0008548999371768941 0.00013490365325626675 -8.756772649775793e-5 2.7493131551229615e-5 -0.00014571897640535092 0.0014928998772121118 0.0007015929948213293 4.377575557308963e-5 -7.32015962722341e-5 -0.0009593557452575411 -0.304729613902784 0.005563502480776588 -0.00015826284586050262 2.2484630173417985e-5 0.00019785871221997628 2.967155830380699e-5 -3.1195586651418066e-5 0.0005180974025262749 0.0011291133418386903 0.27070161640872564 0.4870186713304064 0.3028024668953642 0.3445778865856929 0.3711940903817213 0.47069032457384097 0.37651625217210444 0.5533975786514009 0.4436125780626649 0.5241377011315046 0.394603982043076 0.5556401666115554 0.2543982086805074 0.3678238764614473 0.23940035367153517 0.009686492329109187 0.8846866967039729 0.0006998163407379128 0.015705910948381717 -0.00034261576561411627 0.0006480260783069834 -0.0004328034541842992 -0.00034349802218051884 0.6961790350622873 1.010600321340286 0.002023911623587627 0.016975657751871237 0.03461654633388497 0.733782824793135 0.5323131478896996 0.5851700520917007 0.20970062868235628 0.10793828172410967 0.137955342578916 0.2882892788435384 0.3842837922916683 1.5409689498910975 2.0907736959396597 1.6707452615548757 1.128657671918552 0.42561535889342567 0.3808794481618018 0.49356308074340133 0.21229162697224455 0.03361184574011505 -0.12125170909378015 0.03830301634870437 0.04639257809059263 -0.3514318851338478 0.3528547089427676 -1.0737761535989419 -1.027144911481853 -0.7873581338846241 -0.7798874122899405 -1.0598572824188595 -1.6873927668901487 -1.097034935188808 -1.1755486594038074 -1.254346038353255;;; 0.11829560914896411 0.06926860831578352 -0.8186685423863381 -0.9236590702350751 -0.04940376872044194 0.24366492116146934 0.00010780437192443251 -0.19884630356418703 0.2414192824497184 0.19083892824560605 0.0004999116568159711 0.007636881150883429 2.4158695206244842 2.3841097946531598 0.6236820025919041 1.1180351377459674 -0.4054319610430536 0.12311376900780122 0.043553655309626224 0.008924310112680259 -0.006255979023735921 -2.3168863221746645 -0.8635957916099347 0.8799546819652833 -0.304475730907822 