CenteredRBM{Binary{1, Matrix{Float64}}, Binary{1, Matrix{Float64}}, Matrix{Float64}, Vector{Float64}, Vector{Float64}}(Binary{1, Matrix{Float64}}([-1.3425249779960087 -0.7153181246867725 0.01266062368136239 -0.13349708307682553 0.2486402680603344 -0.14714834590745585 0.5574681327011901 0.19605552035061138 1.5702712289679652 -0.01132870241060939 -1.0067770011302812 -0.5657554570059935 1.2221880936105165 0.5898490915188999 0.3627934823669607 0.8795843513413055 0.0015111385430045796 -0.8387402858919334 -1.6189237527416473 0.5384281326303364 0.9517196072125249 0.46401147507859636 0.16341221607258458 -0.3986801157896421 -0.19783885591174252 -0.7723923560363093 -0.174578212861077 -0.44923700605743466 -0.348051722178414 0.1300756589493923 0.3605403528318152 -0.21497208055158656 -0.2799002751046281 -0.19611375176958434 -0.14033458992799477 -0.5477665221197051 0.40310160619417984 -0.0950888826694105 -0.5939810046837675 0.06905477808158828 0.10086285211584281 -0.3082769926991606 -0.831570281637323 0.7580872463308881 0.12068308879870576 0.500943135644678 -0.04911168227363687 0.8317590243432109 -1.2360767264038934 -1.0495205954786102 -1.0608907012509443 -0.04951135943429181 -0.4269954842271266 1.1108491405616636 0.3448689725385872 0.5329406573172074 0.7313316556756114 1.6579882721114638 -0.13443220135876358 -0.6161331005906943 0.5828715946214406 -0.11555108314929484 -0.12685915511533935 -1.558807888106896]), Binary{1, Matrix{Float64}}([-0.2741976566183511 -0.12976859670040983 -4.740249030759687 2.797810284062266 -0.3334751363360094 -1.0223069293750857 3.321623003629913 -0.6603518451883271 2.477625989453254 2.5002815975597477 3.6804938124582685 0.10264505820734007 -0.3625908834235613 -4.3395531285851865 1.109293413876502 -1.4632694690895993 -1.4534405570395945 -0.13233099377424537 0.7025605040151518 0.710726119243075 -0.9713405048972649 0.9256323026899124 -0.5029157787377845 -0.1804655733456218 -1.0144457413276418 -1.4272635612672695 0.23979382291734788 -2.159977236122895 0.96554552201012 -0.8606488373198662 3.8564347859442063 0.29513948137355156]), [0.19836021801594697 -0.2168307612150007 -1.284713354911524 0.5773413578105705 -0.5092527183289508 0.4100436081996831 -0.06610589937040047 1.0761896204193124 0.5406044593571057 0.32373985185714055 -0.25000121216390647 -0.6126091484838931 -1.285505839566202 -0.18745805828723514 -0.1618706317403193 0.031456758690843675 0.752384789545804 -0.9825773754290952 0.6656531340114796 -0.800723852821771 1.6777642099874117 -1.6747938127243993 0.5637740472500876 2.7441116524526823 -1.5820585616175307 -1.0500128455329245 1.2189697467661949 -0.20882685301091888 0.0060378531746625 2.0700521187234555 0.36205656434868694 0.0637688455985652; -0.44812406466275256 0.6965751491128168 4.08365697727983 -2.5196687300654474 -0.6776970178898534 -0.0018056172096959516 1.541043674503107 -0.0036253742504963344 1.5983781670094503 0.514721318915505 -2.477291537523751 -0.13969625660235627 -0.020984235142760037 1.0259282282260547 -1.758652762340877 -0.9861751021738182 -0.009058818386841323 0.8390967416590022 -0.3518556319374366 0.4629910192221796 -0.5777883900373462 -0.205254384627513 0.618680256125887 1.8663741317975422 0.05654280412830647 1.7704497233861982 0.014661905695242311 1.946661759733464 0.2904239564675613 -0.8620784458406332 1.0782900158396729 0.39254977477800407; 0.41425427194122316 0.28780667234404905 -0.5817865035543872 -0.0008488171248086197 0.6243877265586443 -0.4738912044002054 -0.13047877739919056 -1.5759730289145173 -0.5475954489450896 -0.32340821694538785 -0.0007827600798966641 0.5043930029825572 0.18658541444378243 -1.1683240656619924 -0.8488568079758606 0.017130923561478592 -1.4343808368846287 -2.0125151515064865 -0.38841290447992494 -1.0867547757795823 -0.17125077967755428 -0.29720998051193365 1.252312984796428 1.4484355182986155 1.1281305408193734 0.02641661248584108 0.007119456944813165 -0.3369793995660724 0.32648818335677515 -0.549810447536435 0.0045712846040004826 0.8300312076715288; -0.552762880666296 -0.016617148859695126 0.17862159085995655 1.4577007116576643 0.4928904428696186 -0.08651631094570719 0.2441645292319024 -1.5080610448229992 0.0013954451573450141 -0.8925860029754196 -0.24650237673284847 -0.4210622148901037 1.3902053251165267 0.4022326677101328 0.15617176269879984 -1.011287881862581 -0.23503455109635105 -0.39545755209183897 0.047691316425713524 -0.12385517794023346 -2.1003492613953765 -0.799370815286201 -0.13500194774144555 0.3790100012629591 -1.2394521717714417 -1.254511139773233 1.1327680286867792 -0.33900913119811593 -0.07195939228426738 -0.3304845965910525 -1.059984593709058 0.14300231023510257; 1.0727210286685993 -1.8852353476410764 2.2837898881615137 -0.46342893788026496 -0.7884140074645912 0.33402880394422213 -0.873488470671823 0.06785249141979093 0.6161784863736189 0.3449031715745571 0.0019711673861120306 0.40244343050501535 -0.39283068228497836 0.17533744387053354 0.3040600310326647 -0.5720582591280691 0.4393137003570902 2.142623260782147 -0.5548335207678654 1.384712605701568 -1.669779696162103 -0.6394016131713524 0.03589940336397296 0.49014259478588473 -0.509878959687782 0.6827803078037016 0.5267400841380453 0.9839012288788184 1.769936133107364 0.507724609955689 1.2106790549255144 0.22815357782664958; -0.2945044440662023 0.1549178594859698 -0.7629531893989088 -1.4698123400939762 0.6925356118083258 -0.3449362345566641 -1.1071747342824538 1.0248323548603822 0.07751898564559968 0.3314004585893273 -1.0766747807006165 -0.7088092154159724 2.517052302201632 0.27707642772539476 -0.8266687374429171 -0.3061496230252297 -0.6316814536771269 -2.040127043056694 0.2917161460187082 0.8831551311842155 0.3475461292607038 0.13213541729991318 -0.725880980113064 1.1274328064053873 0.024925849481030576 -1.2221696763177208 0.5223004502614635 1.3521269168232903 1.1447692342053677 0.014885755256780932 -0.5156574135154103 -2.03733042955238; 0.1698516314025873 1.833230070140999 0.307476148968978 -0.14154647325915418 0.8751890583604679 -0.06977638490996046 0.36426420314734975 0.17435320515200362 0.6712180583971022 -0.8263531253674863 0.12516000602279403 0.502861427837311 -0.3176752604645832 -0.560879452170457 -0.10751567553891185 0.27306397181641906 -0.8553669405508441 2.3734606793504733 -0.01575701371667232 -0.7164282776267893 -0.8433506931733165 0.16896631021622852 0.6952529524739663 -0.9182247768775219 -1.2179348791847802 -1.185975520327384 -0.022814031422873388 0.7039884478922573 -0.49368506734664924 0.63594455281153 -0.855735160498783 1.1467062764092613; 0.0005858887272773465 -0.000862714494518585 -2.85076899816881 0.10924268467699724 -0.42814124212412064 0.10058408036430497 -0.7159574500996742 -1.168336704929102 -1.6990904154077036 0.5879393178160558 0.335414077700692 0.9130971227219887 0.7624885172793695 -1.4465685599826872 0.23760806483426278 -0.1471483392319112 -1.2856679952844179 -1.1018449614827386 -0.8384512155490589 -1.3421012712315443 -0.15184155826432888 1.2905680201233731 2.2618079026918663 0.6563514869050409 -0.001362783015724121 0.6297415398007388 -0.5769235534181663 -0.15463550503441442 0.190874653062253 1.0755340586259992 -2.127700398603641 -1.4997706499756411; -0.02157740050398632 1.3758078494841441 -2.0576709848564168 0.48904402810131964 -1.5528263115728522 -1.818945760400815 1.1876226392192881 -0.23322078222650236 0.6520435345210276 -0.6289221249355759 -0.5243804706095573 -0.046484526246711046 -1.5175105126434159 0.9060791222403084 2.877288321708525 0.2727349824012049 3.3086587511951913 0.41759466331404493 0.2757082624129089 -0.00036057581524131984 -2.93742079839497 0.8494788722221289 -0.002940806009664704 1.469550761305413 0.7980129186491273 -0.6334280750139244 -0.42071878383168726 -0.12633675337837652 0.21954505258069842 1.2409390550574277 2.072074334737783 -0.4841698596848003; 0.6279875702331296 -0.050352015303501155 0.007438561363735518 -0.06452833083534608 -1.2940418849461661 -0.2824737935157974 0.42640520830259065 0.823376000222701 -0.5956434478787987 -0.5777118796787526 -0.5165037135809256 0.7701689356569044 -0.24367112982707437 -2.6023128056349045 0.14247784504085118 0.0155883965414456 -0.0014199917139435532 0.3152729571261285 2.189351270910809 -0.0412500921603426 0.3428346206125786 1.382184563371837 -0.8047922190360146 -0.6376192312503394 1.4510612322101812 0.9315946900828846 -0.010151286329176138 -1.164175242770577 -1.3957688525485628 -1.0266591367988755 -0.6936812035404893 1.1758239517320261; -0.5092615375189203 -0.2540355902855469 3.2430786483331304 0.2882659266470929 -2.0519968603824696 0.17185795194645928 -0.252567698690167 0.08017924871319339 -0.7869171608329244 0.8427392427214617 -0.105811393101046 -0.004054284950795348 0.7187687107672404 1.0374046903925709 -0.8288464359392129 -0.42845197060919293 -1.159311969837911 -0.7108161041150388 -1.507027933361776 0.7386094514392725 2.3223083443917507 -0.3422073617175029 -1.8117436450650408 -0.14379366118350798 -1.3485659818655544 1.5264040382929214 -1.1137412748601399 -0.8915573541382256 -2.186883978097353 0.7930940328175033 -0.4280301651221256 -0.004421896511587291; -0.534025860691345 -1.4675137449492943 -0.09012541607932352 -0.9441525019466691 -1.0971018338866796 -1.9975580992601323 -0.17783832803998537 -0.8263518659783591 0.33010807551947835 -0.9775870740971182 0.21239679909370573 0.39028437683788697 0.5753569558984752 1.4802674851274884 -1.0640040301371803 -1.2325537839912182 1.7691600931996072 -1.8629694643780834 0.7882624523383328 -0.22921265128560692 2.9662705308193917 -0.17446928186834554 -0.03919132296745726 1.7271953179293211 -0.33044203813645817 1.1990089811257691 -1.1533699998163265 -0.2508594751074 -1.0755519566321814 -1.1144942864055167 -1.140252529974564 1.2579047305264512; -1.3136925730655202 0.004800235729626232 -0.1628201433103257 0.6221443928480206 -0.33900610546249665 1.542707057542865 -0.2827211898838442 0.22142109059702866 -1.7024591952970105 -0.4671577232931619 -0.001440155099097767 -1.3824375339161852 -0.16113505112571702 -2.4166051819976313 0.6404234039505552 0.42573653205778395 -0.2653245533256366 0.8539559807631311 -0.11463475915047397 -0.0767987646934907 0.8610194731399714 1.2982011854200148 -0.5178634394895406 -0.48149014014009245 1.0613706493524042 2.361654954466349 2.2657344306105904 1.6248478702018232 -0.27565362796078274 0.11753424229813925 -0.2511208466532087 0.0036567479501330357; -0.813415111366065 -0.5802338736836157 -1.3680894770129601 0.9658276073978368 -0.009647918676934994 0.3228429053567193 1.3359968098589767 1.3814282441839048 -0.6344915792229772 -3.0273956492620195 2.4406407071945853 1.8796931266220955 0.027207794860976745 1.2084531687177988 1.519578708637941 1.6329870221580594 0.3890045644717448 -0.006996074719550824 -0.3375909866770593 -0.20037046350772775 -1.6479303873994702 -2.2961184672471626 0.3861359907731345 -0.4742668539527121 0.4165247469510457 2.1273109707262385 -1.2523640692023477 -0.21648640598436356 -0.4032647736001746 -2.9696368066363097 -1.0641886735201322 0.7309807385488599; 0.12706663077290836 -0.5798660376628328 -0.8074345396520644 0.17819212133751527 -0.30882519389342217 0.35062952275898424 -0.0033603232573581896 0.6166569239389585 0.24986991619778945 -0.5474056923910741 1.6326848248817072 1.8542683371245332 -0.9282729960876902 -0.24242075840342092 0.4365808371082842 -1.3694317462123933 1.6367184236892933 0.5749744545318166 0.7187535836994965 -1.2799081694249526 -0.16444161700699794 -0.2595557661737359 0.8696820721641313 -1.2587591222132333 1.52877385618466 0.3364187929066537 0.7372906916820698 0.005192914028050338 -1.4763449419579506 0.13622487035802225 -0.004290161266300205 0.2604820409485786; -1.3824930477123267 -0.38965494077173557 1.9062895805146367 0.6944099941414331 -0.02373170183663266 1.855378146461386 0.2719596393213351 -0.5193520663405463 0.5681526600432343 0.4025996693579049 0.49851817227001616 -0.6149239834291839 0.17425860473981633 -0.33839821927574576 -0.4827692378734482 1.1208501842513592 -0.7009090224588898 0.007169189526328582 -0.05528467588236317 0.3463990599318023 0.4284568475511354 -0.3581606138627857 -1.0571301306829648 1.1054148314036376 1.203556501385335 -1.4543922038763397 0.26997871942998597 -0.9663189028034626 0.2596030448391998 -0.048478696592863274 0.14099652588392805 -0.9719052518826439; -0.016704991266866618 0.22516258922212518 -0.042275862917475315 -0.7561566082898044 -0.24570457066051962 0.8038565741719313 0.5987322259697996 -1.3272372928018639 -0.3205104554104386 -0.035557674425455196 -0.8825692020378727 -0.23179768741594117 0.6485422469803992 -0.03262973788259878 0.6821493959610987 1.2064673752087258 0.35818442791056637 -0.0017144382572356286 0.33731758260437267 -0.08479890915145838 -0.7741584249952592 -0.07706898487011271 0.000914080766763756 -0.008141732988535025 1.0134038433266057 0.2144908648600058 -0.2922222534639201 1.0754540656214424 1.2107323645494235 0.16867991615204442 1.0139434518747035 -0.9862776031535114; -0.291917314662016 -1.6167022311313035 0.5818201030688432 0.19083038373446315 -0.08254338348093944 -0.0824356629896939 -0.2539732111331167 0.7895782180260624 -0.8374568018302013 -0.6943717008056501 0.8072182197945085 -0.8093752686482791 0.6188996391490653 -0.4061054527133904 -1.0042823576847657 2.11757734135147 -1.3232310045414128 0.49082151425421344 -1.3785817188336484 -1.4628148119095281 0.26797161323569335 0.12774825834997608 -0.006307538575981905 -1.1706830818213814 -0.6240434677465049 -0.6043818038021557 1.3572310294294307 0.9740650290070246 0.04256635473206941 2.427389320249039 0.7596612190576133 0.6768583402824955; -0.6018552932722271 -0.32759848146371723 1.3663892129815378 -0.21329353291667388 1.462760615075925 -0.20999372326397184 -1.4189016901070384 1.3657816636597344 0.42761642710558273 0.53058307266094 -0.9494982321220802 0.8930429048536611 0.22059200066275242 -0.08288588313239806 -1.6917424089132325 -1.4892201584852338 0.4985660624134074 0.4999872032341384 -0.13017465990030194 -0.10493581390761142 -2.0463794598258755 0.898686990186312 0.7091237068263717 -2.2993232078694494 0.7998734204125982 0.005352663202969025 1.2549624977732257 2.1175974694691773 1.8200620794163618 0.48688117598598935 -0.15960803677139107 2.2427610900301436; -0.5985237377244411 0.43616348723384546 -1.3737169870635029 1.333641145190572 -0.5841847166330653 -0.4050813801617996 -2.735558852253855 0.3535651906662657 -1.4309508712949004 0.4808220946262253 0.7938960350029591 -0.47990480144399866 0.8257697167628122 1.1229874138108429 -0.3791326107736607 -0.36947161654485994 0.00028267245783156913 -0.7969708475751035 -0.3531932185903221 -0.17108674303218463 -0.41670464085892583 0.40703876478393947 0.40533592476440555 -0.7135010435521819 0.4776473185188592 1.0333039155612656 0.3565583652274063 -0.32083298952888684 -0.4523958642685747 0.7386519622641518 -1.0879006006513965 0.648349470272487; -0.888110746920166 -0.000132153148810268 0.004238624522156582 1.0704214749435663 -1.7298024788024577 -0.3389035780725006 1.1789273637007667 -0.14846328308849832 -0.3358880219860426 0.5293336771306371 0.14790557656161896 -1.526377397229331 1.495542226353472 -0.7914096199257249 -0.243061392937903 -0.003243529139922179 0.1272674721607498 -0.6151245305970374 1.3090063021509581 0.33532202454662263 0.6562282508008859 -0.3219007250054892 0.13200033720361207 -0.6959026371765943 0.3689847871295214 -1.1827188828712305 -0.5508251502685496 -0.5354789242614006 1.5142195454502867 1.8038580606271155 1.0827477883717793 0.10450502873212633; -0.10805473155874937 1.4984478413128843 1.0920972106730955 1.1820284674832895 -2.020763279418374 1.475958478589172 -0.29862849998995655 0.8740638229168268 -0.0019283521459664342 -0.16306840848040846 -0.5077543816336394 0.15670880722999792 0.9579285811991531 -0.21981447031213477 -0.8226448654238241 1.615728027919666 -1.4476804788211615 -1.066275088155629 -1.20373215187022 0.4426990909050903 0.2998763652995763 -0.020489379062077352 0.025483731431035692 -1.1454850577322802 0.6978429001394222 0.4472256053235246 -0.29764016946797106 -1.753637209886631 0.27711763190698424 -0.7019314878091074 -1.1221979705300646 1.522134530180232; -0.628404358360929 0.3659758223560443 0.19004331140571376 0.4508372241333011 -0.19314457298436244 1.7506209203269865 -0.13309549453081532 0.10404572437934087 0.004022362606998099 0.6228267933662004 -2.857635795483737 1.2189563113776425 1.1366541958520378 -0.8975654493036503 0.7397304110111151 0.8006139720827605 0.636421043335958 -0.879745057165944 0.250185204779762 -1.10186004868117 -1.0290702033668422 -1.6963772196873166 0.8595688764274707 0.34474340675562504 0.4515217174318203 0.25007874036338096 -0.28104925152575777 -1.7232610195633586 -1.0768949848332596 1.3452544848781525 -0.16901660694112705 2.3862690578463632; -0.12770872037365452 -0.6530547191301856 0.41995293238313836 -0.1998946442694493 -0.6630624969470826 0.1441298426396476 1.0355789802822004 0.0032919602596983956 -0.2071353527495555 0.9137832917397445 -0.43186776090976337 -0.42544968704886893 1.050748786004763 -0.0005206031300953794 -0.2391361399343291 -1.9503676204958516 0.8289747119743045 -1.6886856809111639 1.3669100945997845 0.31629929312019867 0.5858513142103188 -0.8067974497627487 0.1091431254047971 -1.1913776009572765 0.4102096500268091 0.6594948010521672 -0.6460121094442414 -0.011344834493623182 3.7272167843321773 -1.089876812376388 -0.0019037651047157426 1.251086065526893; 0.2761381270620062 0.36855497632568857 0.29907760538229294 -0.04039201234367173 -0.2068721211332428 -0.5470006245833048 -0.06431733746079157 -1.9411177848247727 -0.0075713910198076904 -0.38552227456003896 -2.444681303518528 -0.055853475317030214 -1.0909417205450662 -0.7357522304857099 0.09812897602232382 0.1756757236424081 -0.8018880630968961 -0.3439653239893225 0.15991846544869107 0.3977404981811404 -0.5880895833305053 0.7138780778139914 0.13336099500776766 -0.7842162023330141 0.1508561315738277 -0.5481936235225767 0.16516071423829448 0.17532842386085012 0.6088673489699313 0.7848374531724417 -0.6105102019611552 -0.27983151539039547; 1.4651861258479515 0.46763254357350853 -0.4434979088860812 -1.0119197919857572 0.30553315450868973 0.6715008323773577 0.25139270390385104 -0.2590465670025838 -0.6042334166007521 0.22320637605879437 -1.0342167929859702 0.5454182016312579 -0.6535268443803 -0.5326323662258619 -0.5319334062495048 0.3942402424004978 -0.6616825709555443 -0.4105089257274196 0.23944206922722966 1.2414419788025826 0.813489200008546 -0.49967716700494835 -0.8780014041295874 -0.06551563599083009 0.18483797831664847 0.1273660982301815 1.1796922125678435 1.0652773467512522 0.1022593146681897 -0.6411637811061948 1.8437608701707529 -1.7499067518136842; 0.4021722547771593 -0.8336299891459275 -0.8871373206884252 1.0986262679057517 -0.9395088574768043 -0.12116316277336543 -0.4345396306705882 0.8956789400305893 1.2058826708065877 -0.5824982821786401 -0.16467315334410867 -0.00723106585444152 1.183516703544047 1.0141154865969317 -0.7114710604442466 1.042763069310528 1.3490846737025841 -0.5240899528911633 0.40068919661840885 0.5237035936164917 -1.341393448453315 1.2466655919531324 1.0169873950045667 0.2723864758588689 -0.3317371847748298 -0.0759013469547513 0.7031996242301664 -0.4299798550653743 1.3438032555733253 -0.4680336383429374 -0.535548162683798 0.82331589798057; 0.004320740367662303 -1.420166041702068 -2.9119623410846778 -0.5104952419855794 -3.127019212252029 0.017910251936660224 1.95753576541082 1.9883639117664251 0.4270065647385557 0.019318970679351347 1.314123867944971 -0.9251362163048613 1.3926846053578985 -1.1443542599800778 0.597275239343997 0.46643183681539413 -0.763983558067921 1.7384712214442986 -0.33978116802125274 1.731660266133442 -0.767859731999369 0.3687013313054179 1.2297221824040934 -0.02648030717711048 -0.8483066294218128 1.936083256569615 -0.43031801990640334 0.14252169240816231 -1.564257256514181 -0.1346232959771642 -0.24983779455826183 -1.3430358372864808; 0.21437273958895625 2.021772032755261 0.6732882848558976 -3.0470407241293724 -0.38835259465592775 -0.6121546105170194 1.0877995262146267 0.9622089989127817 0.3603515707758335 -0.8010050134078217 0.8049360929311875 1.237317903704877 0.5274556569187797 1.0363166473951313 0.5304640441166638 -0.050605330314671355 -0.11407597649702739 -0.677776592278363 -0.010657440338338773 -1.8987096075497725 0.845972668776582 0.0011509068160271661 0.5083818422590232 -0.43113181143633567 -1.65586054597171 0.00975583023327668 -1.2292328351234392 0.1403427801429092 0.22526980682588613 2.2880620421586366 0.2938315188998408 0.5435251987316595; -0.7825477265409112 0.11325100072374363 -0.0927605298387591 -0.4399276518356599 -0.38640182242280685 0.07619071537509747 0.3903204762558827 -0.4003686393839252 -0.06986969882177238 -0.49926890029501386 1.5279035551889 -0.25284958640895444 0.979448757615523 1.8575253325198007 -0.9772805963406405 0.5664213034242286 -0.4468570049927239 1.1397211111509273 -0.0099100205279958 -1.3003336293173642 -1.2771804172366346 1.373700970407651 1.3754810505885182 1.2327054966379194 -0.032279625845053596 -0.5841558147690539 0.5504643932456935 -0.05155547312261928 -0.2765440785365061 0.1949585284437832 1.83918452854931 -0.49942478132848694; -0.1303277616654367 0.00789476383891984 -0.19391288411964488 0.1748889688188973 0.04533414780350573 -1.1380883648376254 1.084272965711686 1.5051390572946157 0.6509284954378651 -0.15773356204662628 -1.2073552849026425 -0.25718634922539296 -0.44766451553497416 -0.5035265203831455 0.30876104982508484 0.7345259329847168 -0.0032162780270648004 -2.0611424932455207 -0.0946462122109975 -0.37870486144001414 -0.005661984356719239 0.35486661214056503 -0.001377504879401758 1.711853335896888 0.8005822774293477 0.6406724069303245 -0.1364204769781226 2.4593870109961644 1.2667750534480915 -0.7987097512632045 -0.7189250827784469 0.03311153698542844; 0.7095691876443463 0.6213878441106082 -0.9565909537595585 -1.2625670051703564 -0.6521918553406233 0.2590062070707881 -1.0049487078214825 -1.0510019992368156 0.3728574650419933 -0.3574115204661382 1.0338622057019946 -1.0286165414100326 0.45039695854457473 1.7510704418631962 0.02183019521318911 -0.2790880128915957 0.17209421891174204 0.0012886783220999087 0.1540565347394833 -0.11598775660698613 0.49234839168635713 -0.670070949573056 0.7616357528552151 -0.9753328645598213 -0.5448065246392548 0.512655549032341 0.7082931376585292 0.5345859349495318 -0.4352971148234646 -0.3311642959418208 -1.129514228991027 -0.4647611531983223; -0.9614213087794079 0.20891556622278615 0.3373196914336872 -0.5170734008057036 -1.044025939497577 0.030285594623765198 0.7489047460391411 0.45079098289086744 0.17965119632858043 0.548773289524274 -0.7311491810000328 0.24344588136050138 -0.04716071289905247 -0.02340565383134129 0.33796890498855314 -0.49783964825331034 -1.231050275875018 0.5549811974247837 -0.31892894561279184 -0.007993241536786962 -0.24361995414704551 -0.29623392694526307 -0.12825897945213868 0.23759212693299947 0.08122631345350072 1.5416163605064797 -1.2745046698507878 0.01831190126068178 2.5621858020451422 -0.04887348149693764 -1.413473166840053 -0.521942801154275; -1.3279923089802816 1.0438690182775394 -0.27242262567615666 1.4857696957704087 0.0027555155815965028 0.6693812433318245 0.02273055606467527 1.1099427643887863 0.24734997964603542 -0.1662049964091247 -1.7541502212464684 0.7529312196772764 -0.860117982331199 0.3257937695800295 0.527504979915307 0.6579678825031693 -0.00024292969567413035 -2.5936602162945657 -0.535217377009135 1.0788547259944468 -0.552351491266979 0.08875204761310836 -1.8875787741166024 -1.4053470176314862 -1.7349588050185407 -0.028097982327645495 0.3077349584144532 1.3370316205300903 -1.466723138622628 0.3241300316225179 -1.1488381929773293 -0.3244132440857214; 0.32188054807040084 -1.822883400071827 -2.013456656468433 1.2424296731194453 -1.5904549332575475 0.12044242167928428 0.6472907428106406 -1.170519712457341 -1.2167370093603196 -0.49464061401766796 0.8633669937771313 0.5197404802495771 -1.1513943558776902 -0.4127152865405381 -1.2984332118053405 -0.2990814413767973 -1.1083234635680577 0.3655684560686627 0.7873014408904119 -1.1702992852244765 1.2281010214457129 -1.000500320216196 -0.13754465275732067 0.9853097444033583 -0.7385843116031516 -0.5025494918143786 1.041985382401738 -0.011108163867332809 1.3463225245390678 -1.6881025711378972 -0.3961105909598635 -0.47327273996477787; 0.20479820353829195 -0.5052924881891192 -0.5170501101708237 -1.199755050700739 0.051618471882423606 0.3629616181919219 -0.19029370366610363 1.279855836597041 0.30895465195563826 1.1885783507535195 -0.942525327681959 1.2833407381647757 -0.4898621051527014 -0.12000692316773959 -0.019342946329681834 2.0980508644116265 -0.5824245653291577 0.7496117229976264 0.9550280856629393 1.0929330464605405 -0.012756568034378697 -0.14071289890876182 0.9010390887312546 0.8643081821006013 -0.6717076271370741 -1.5147691372294718 -0.1781528060578849 1.11176742504256 2.4833501078491995 -0.15792201455743768 -2.050765610812083 0.4768638677285172; 1.3375980301355042 -0.9891011183819562 0.7082944330740744 1.726421826038385 0.20062120096260522 -1.8105623678248302 -0.8428415939901489 0.458581308886353 1.268112799563062 0.07264212096945434 1.4206051516080827 -0.372573461579284 0.14365219901692716 -0.0015376790899397604 -0.7121506847141251 -0.7402843280309781 -1.3877160625335276 -0.16423388306960746 -1.9086467661790907 -1.1382219676719343 0.6616566041838654 0.19672600576527835 0.013525077731575501 -0.02544803999315779 -0.22199599531322187 0.15016849056918205 0.009855683628850842 -0.39356295183593915 1.3615237100562096 -0.6534291284424605 0.5512565145755106 0.2324326268671771; 0.20960218554517715 -0.3858125470841499 0.37381203759402004 0.14862926736965681 0.525362287596169 0.06405423945908188 -0.9554414380961387 -0.29152664036739634 0.1982011530218481 -0.27729463536553406 -0.0010117185410683973 -0.04292195793730366 -0.47812125715732784 -0.8695632015401378 0.8622907871488842 2.696101536664131 1.6222084450627763 -0.041962026188485456 -1.2161272107375314 1.413312834373164 1.318172796576319 1.2544288515790931 1.2006100319309596 0.06320061083997017 -1.8814989318510669 0.1568209357407375 -0.46125335528520445 -0.20753770603075297 0.12140156212351402 0.2010563162363534 0.1535106830770316 -0.43061449416159925; -0.6049094437294272 0.29565420539441795 -0.9580541756103501 -2.179335226562117 0.7495284422854479 -0.18432671670370368 -0.18987177401029304 0.5495710430703045 0.9940572754960035 -1.1391613257095201 -0.6722198747275064 -0.008404578556611945 0.14461178733134628 -0.6169343881800581 0.49689641000807583 -0.713897221475677 -1.1178402656437771 0.607188892511311 0.8999976667423406 -0.7147225832542136 -0.4593746467263915 0.6615364858470901 -0.37982668991473156 1.0679797402671118 0.03677768380249809 0.2502448227837796 -0.32163433689168347 0.47708627095094813 -1.1072150646723655 -0.9568152897139818 -0.979396403206041 0.24562028497315924; 1.322722497693395 -0.7848780101664716 -0.11326945482036326 0.9099725174324359 -1.1972511969451292 0.6150172757646084 0.07406970601137212 0.47358491188224716 0.8844062129396879 1.3363295647873927 0.4717599623022224 -0.06203368333601718 0.4484574861630507 -0.13168282275338086 0.36113747269976654 -0.5623665440041852 -0.16426493934389758 -0.002494375333577563 1.0222688369871775 0.1193472681289166 0.13423430717490972 -0.352717288044523 -0.8865060602006077 -0.23982856467015254 0.8252511782371909 -2.0454127215484332 0.08888070857973865 0.4723049034048074 0.024682302534427592 -0.0981066021398162 0.640006245562175 0.35286518256367366; 0.5087073148711935 1.3354849295933688 -1.065309599831066 -0.13082028097275272 -1.3942862942482448 0.36510252861011006 -0.8700525156099477 0.00984886587669621 -0.4201579812344901 -0.1607516603220609 -0.00011589765088109835 -0.778994815089635 -0.9300557828486227 1.2390624885914285 -1.6004278285368074 -0.6653044252027123 1.4781073413499035 1.6365937281632832 -0.10129864004440244 -0.9032550270625153 -0.22805402417766618 0.45266430475528585 -1.109638046222528 -0.7121292682805994 1.501617556172296 0.9583320891661552 1.1946981729302335 0.8932015759601216 -0.011137463377423417 0.810854265549829 0.008663872817462217 -1.392964687706214; 2.2363176430229803 1.1739197336379699 -0.06628760644555125 -0.7687502654905319 -0.47515417332681203 0.07418880499134314 0.5587603505151955 -0.14353663594104987 -0.06447722150942586 -0.4868616070128911 0.5831323373185602 -0.6659507806133631 1.4841392199495953 -1.4769784371400825 1.1458044286244 0.20726283839293816 -0.3098710226310811 0.7000035246945809 0.012023819800541397 -0.2230557116807948 0.3170966579275172 -0.002102702247199454 -0.3343838364677864 1.0745643685802941 -0.8398679876370353 0.464704799913455 1.0834246943180599 -1.0508543327905444 -0.04142253155685596 -0.5246258388311215 -0.8233302235639613 0.8812186330987453; -0.13150304572113442 1.0020963988916523 1.124133736250113 -1.444105851256365 0.4166276846780717 2.001626814804638 0.510100613226078 -3.132394173960848 1.5092711885660592 0.9308009528798151 0.08448890054455287 -0.4363445563822557 -0.5150694923485293 0.006729393009257128 1.0597830674030813 -1.204494031447113 2.0660966130628293 -2.610770502809958 3.379788887856845 -2.3409500223855546 4.6276160491406975 -0.0073922370741561745 2.0441172709286133 -2.4391254923042167 -1.4339393921658716 -1.1265595047800767 -0.6474126588938632 1.3073999615347296 0.7217640581229103 0.6786798926332895 -1.4415161557279499 1.5016707990209928; -0.006700957524895161 0.6455670726506593 -0.775314610869997 0.45321331226997896 -0.19152154099083268 1.0498602936609005 -0.008493133405072703 1.303762800899566 -0.9079709415736296 -0.8821413833120593 2.1809835189560713 -1.4828724866588687 0.28851338064160204 0.1356939107123564 0.5501889552909156 1.0052765382343773 -1.7199566752406583 0.5401849699042066 1.0674069335037608 -0.205340592241884 -0.33369564679609987 -2.732932977243387 2.050339452380089 0.22461441960027778 0.2706951834169006 -1.3232094196531328 -0.02049272760571647 -0.4712541570847016 0.6642415117368209 0.0005598094687006978 -0.005144756347736933 0.32576344411890457; -1.9532024623177988 0.018287281442037565 0.92752990432465 0.3430299588719529 1.1932882833911063 -0.5323414624032863 0.5402625777322962 0.7116993115895148 1.0607169176638276 -0.24943528487244235 1.5251019514146005 -1.8287912325580675 0.936053336670829 0.9321524816055582 0.06954348605147496 0.8335058444151762 -0.5535204853571812 -0.0026445319286131485 -0.3620728177618339 -0.13533090824965952 0.018247608894209077 -0.36018438934939345 0.23862562270256343 -0.310603171403885 0.41807072458606864 0.10624764912623785 0.27248915130810103 0.27569439298195675 -0.12635875597247928 -1.3829307688783177 -0.049080544681583065 0.3790873393774261; -1.4233134963274658 -1.5361942120154577 -0.0011084325109524148 -0.03905423397992273 -1.7422427835589274 1.5106522274326442 0.45062471373327573 -0.8692759548127079 -0.003309633207386046 -0.324570670804187 -0.008287660665301707 0.8020818811157221 0.6134980227194768 0.06275659930791982 -0.28076525859437956 -0.1934628553133278 -0.6125485999016939 0.31432053004706795 -0.2535718657483124 -0.9400692135266192 -0.538028366614771 1.4815807845326 -0.4322299487170362 0.7129746963223045 0.4056442800123378 0.13834437851211853 0.4817723448503973 0.8734353649393367 -0.8572586395922475 0.8163405225640655 0.4871542713635092 0.23278238855819663; -0.8030291944719846 -0.7693757725407163 0.5804931189573959 0.5087668469952249 0.2322904387276456 0.32941199362434803 0.7114539211147537 0.38477365353150855 1.9961031912978022 -0.2556581453225265 -0.2413285288408822 -0.6076659830139077 0.37798211048461616 -1.4563235657383065 -0.9467245411909543 -0.778826666119608 1.3795470146621593 -0.36454456412730213 -0.6260806354446871 -0.12432429260088013 0.13698881952789027 -0.9501656648082419 1.3981841239954846 -0.5503289427966512 -0.19947772581332637 1.6669649569199905 0.10829390961427662 -0.7182459376822286 -0.06750387439985762 0.17265882775111127 1.190197790889785 0.12898447205724; -0.025327767465262354 -1.0578015799725944 -0.11338452752013975 -0.06539595276570724 1.0881283036047087 0.0030081520857005357 0.7089260668253223 -0.008117784132234724 -0.46844472824956596 0.013058025203826996 1.9860471198011285 -0.9208361071809118 -0.5646855031082105 -0.24673981407958664 0.6500923095230515 2.455448730124096 -1.116523590039449 0.16204542984178666 -1.8576247070801357 -1.1119518280589409 1.3164554043569732 -0.0035562335242656264 0.5358605618057155 -0.6546312526215972 1.1849264843729073 -0.28209954237217877 -0.17648644493164745 0.9299990194669426 0.241926080858257 0.12529256553230142 1.969283964044002 0.7046049840885977; 0.7123113399759056 -0.4845688489105369 -1.7855362875157108 0.9601198984245332 0.4917912192266031 2.4385967655020284 -0.011952151570272776 -0.5171022560543628 -0.12348851597743045 0.16037961798481512 2.882900260419687 0.17417452281560508 1.9864750275881307 -1.1613770812725335 0.5448218355816936 -0.8283365773677678 -0.6924558204741894 0.002223525172844968 -0.3775983721562157 -0.07161916003120047 -0.0036036314029654604 0.6522009540732165 1.979270794833726 0.4498671208696562 0.002107243175507884 0.006802910024309323 -2.7739001927180276 0.5613114475576373 1.5079595425634014 0.7369935996414675 0.30103979286222077 -1.2399866654208036; -1.1275451574181223 -1.1780931841215687 -1.1835265430934054 0.007265475726307326 0.508970259415453 0.8643179364766752 -2.0174329168536977 0.6649628262270306 0.2539524668042595 -1.125374300692636 -0.979199979494169 -0.0026601321657044575 0.5530870563836927 -0.8588195693934272 -1.176156759578847 0.08868589076330519 1.4078342877261882 1.7041003096612723 -0.812739863476022 -2.251315948224106 -0.011302320414623507 0.6655849323299843 -1.5008418961276857 1.1791841809879815 -0.7126086623283776 0.6323833782769929 -0.2233315444195545 1.1316961814738922 0.48256376767502973 1.9751251185203915 -2.1497590292777775 -0.4612699424343591; 1.1279262898002897 -0.41917443297354445 0.6763145995017678 -0.4899179050608567 -0.7867912173501196 -0.15507189231959995 -0.7999217961682012 -0.7311936309076434 -0.8213017426105853 0.35880836461337545 0.006308788976309845 -0.8572981670783402 -0.2893005471895534 0.2459214195967863 -0.5321156935997954 -0.6413435713236616 -1.4295282150606987 -1.3082872000018362 -0.22045523888695828 0.3282335540403006 0.12183136030464917 -0.6984703870706015 0.9794277288007148 -2.017899202810775 -0.08401510526037527 0.7402916388369513 -0.7252429624955076 2.8082639285787416 -1.6232908611124932 0.6264198778520259 0.549994961060276 1.0989183351137144; -0.00026063687537088105 -0.012128507440852376 -1.293281047258876 -0.443373993119868 -0.08829255351296332 0.8202754153732567 -0.385599752045178 -1.0868969029918052 1.9924655358937367 -0.6122416496622038 0.38087960590916903 0.164559255372984 0.6523986890066656 0.006769541878607514 0.3887316326165404 -0.37982726968073144 0.4816725294085745 0.7206102206606431 -0.6909296037265216 -0.8728702534214134 0.007428693378801489 0.05576161768816399 -0.3896193567775886 -0.16562616552308343 0.48673753592007096 -0.9560144448301267 -0.07556501194649878 1.9645429094686455 -0.9469254539333856 -0.45583281484476945 -0.6524328887732844 0.3364674868639215; 0.5570044619830599 -0.8997180848949703 -0.49952504950886406 -2.1784944691908863 1.9665723209965724 -0.20052210188039507 0.03565521555413219 1.1788526390245873 0.03403662212952415 3.670814298609853 2.985988263597885 -0.8758345576327343 0.35416125170382096 -1.4365710351362475 0.23586793432687955 -0.6016697431721156 -1.4089029948130085 1.1286999908609445 0.43089047917678064 0.6044126346944054 0.9192848529227814 0.658057643496367 0.03633161922638324 -1.225593647572048 -0.3566011101446961 -0.8733357982339139 0.013270007291792393 0.10767818659388657 0.02208686516470051 -0.0996871002655598 -0.003310268881914309 0.371952036654926; 0.1361114965619924 -0.14427526700747728 0.434979147251642 0.2594115049655668 0.25752000164814337 -0.43317875734350264 -0.3047817115412693 -0.9017224203268007 -1.8130219951128737 -4.125149619759178 2.379123296875743 -0.32496087952635655 0.7030531798336638 0.6172904910846041 -0.35903590290907617 0.13700419372808248 1.4927149578054961 1.469119531831694 -0.4414922508392109 0.8917359324213733 0.043499959183397004 -1.0607708690709499 -0.8247965411424626 0.01645090452817124 -1.327445918424908 0.31002862839569817 -0.8696970571395758 1.1101626824070823 1.109654096253937 0.4927702918410186 0.19871256224058634 -0.8224690720007967; 0.1404637677911284 1.7567972073305025 -0.02873552885190198 0.1952597863881989 -1.0040364880613715 1.056871079181746 0.3147390017539668 1.0635168937892616 0.007286324292895381 -0.5680153216983975 -0.7960938505382495 -1.8186449006739713 0.0030608227684952908 -0.7279409509352922 0.08524043392760464 0.752768145650925 -0.8905737196307897 0.2060264292682884 -0.4260795583169872 -0.0013105930577707414 1.106980226926306 0.19798691606058985 -0.22670747384578585 -0.037122349814885026 -0.017654193940762553 -1.083514416218972 -1.1432281452980606 1.1000104400450046 0.19791912243520296 0.3031245613662784 -0.28911249473190853 -0.34344147771634415; -1.060972663739223 0.6023404188247096 -0.10757549846416005 -0.08819315445433892 -0.8308790288231175 -1.9325778803950138 1.0095419933173375 -1.295430418264227 0.11162418426565202 -1.5636995905517024 1.4639560342324653 2.106068911257532 -0.19174257461394192 -0.46036312226614706 -0.0024791727805272747 0.001514647428087791 -1.042170585294855 0.35893608296285023 0.0009412702752888112 0.17978158735263558 -0.0026236326796265402 1.3510743463160888 0.0014922500437214823 -1.8453254730432471 0.2574038003774295 -1.2465053201678407 -1.2075382324601345 0.006104535959678153 1.2714167555668552 0.00033379717224722114 0.6891132619793626 -0.5980987223894388; -1.7307365309959801 0.10565416761187618 -0.8540444271412099 -1.32049112470898 -0.00018712654544188 -0.013001462165879395 0.13779250248673186 -0.3428000174184552 -0.7021450911321784 -0.3343959594301765 1.2472060532582858 0.9873897790925223 -0.7946038005349175 -1.2505818609208448 -0.52743797381245 0.6418230272560767 0.14276595658714544 0.07900747211297192 0.6161733419427143 3.114350957984816 0.9899345244221743 2.8628747576709817 1.2089259782375172 0.3394703491621792 -2.022426514700922 -0.8962329307562857 1.4629806672761658 -0.24889117383162573 -0.1480992653706846 -0.38375717878357896 0.17899935195433336 1.9367908841232973; 1.437548657090294 0.49274698936441713 -0.17839717555050458 0.23276838254396784 0.5935370020570433 0.07056417573978488 1.0593573020345648 0.3758248837866521 -2.4736171639388598 -0.9075387502559129 -0.0023652194696520143 1.8674255138788491 1.5525805563847401 -1.234161823807734 -0.9916586261142453 0.5847213753446865 -0.6521066839551372 -0.01408371769201703 -1.3073872059070124 0.06495457283018327 -0.002818090087296761 0.6577342674892649 -2.5287600026954378 1.3283096247008406 0.7270946037013437 0.34212036110608 -0.42732415174907956 -0.5615598783705671 1.3102410896297443 -1.3170661261686905 0.5777778747343059 1.5370799397996755; -0.0023012357467573873 -0.3058272508271841 1.0254649246616918 0.6586849339982633 -0.6945998223023825 -0.9311406032021986 -0.9389426790388871 -1.4817161726248953 -1.0081071876810836 5.702926198299788 -0.9328877992384722 -0.008300486653940606 0.9264117158990641 1.6681167637939518 0.6924874590015361 -0.15571472106306955 1.060223665408633 1.1904181190938596 -1.3506443201493048 -0.5321648549270082 -0.8937862688643036 1.7612426993341819 -0.18672029541693477 -0.012718732848333133 0.2733385345263013 -0.7651821663947319 -0.22051494313871692 -0.47524919031608304 0.6839234811249694 0.58177269329223 -1.7115098681019476 -0.09006076517249442; 0.6480635567169836 0.23800215748165088 -0.24989640863725301 -2.6604310431036624 -1.3245129463766083 -1.7769178554927911 -2.09868961159596 1.1842834424662751 0.538545548417448 -0.24503331818476112 0.5275533176668504 -0.28764531102407914 0.9991111291184073 2.18755075564013 -0.6669968661899243 0.5782296692444004 1.884370605431681 -0.18852195730192756 -0.7465064588189854 0.6080262622692885 0.013745017571257945 1.1717726583334263 -0.03581572283512938 0.7582880988739973 0.001115266078630072 0.9821810262480362 -0.06345850276091394 -0.36388526434716045 0.03619685823256684 0.03431840129030322 -0.10588281634985063 0.23956264595478538; 0.11139078329104898 1.1640966411514386 0.0254698713562888 0.019196590325796632 -0.6148914554868372 1.0843064211287259 1.1153282878470498 1.7787224703150144 0.35919960900351217 -2.8106310966102934 -0.006485127659215501 0.4331189202530956 1.0816931604689344 -1.6992927873322932 -0.7898314157641827 -0.8843385819154118 -0.4508591582546047 -0.031687824915784216 -0.3306420404029861 0.25312882588246793 0.06417139421283011 1.232447423233665 -0.6209546911171839 -0.9531251556103982 -0.06776507234198653 -0.20837914886289297 2.0122978243655725 0.07503710183653836 1.1789775094790549 0.6555797284458493 0.2772636698367926 -0.49671057244571365; -2.004081953274176 0.2471169423903695 -0.4172547498603178 -1.0028972623491539 -0.48711038313943433 -1.0681077707308544 1.1677298791720905 -0.7901384681447527 -0.9673324987512029 0.06001196610335074 -0.07502908612014098 -2.864650421647322 -0.5395566754133744 0.003647736851223063 -0.5095350150579941 0.056504793060181524 0.0015395376427456498 0.2904161349636057 1.1841539292117667 0.005449329421612634 -0.041212198207182506 -0.5319277249785825 1.0197878098305906 0.8672397548219359 0.7033887757193713 0.5753166128600072 1.0812461603055947 0.2350003990481134 -0.8241793257990998 -0.13768035102374657 -0.07318308569838589 0.6954805183952266; -0.680052250881153 0.3318031501755758 -0.837216059332731 0.08718782597629794 0.44541180656816937 1.066426836869525 -0.17094699408308048 -0.2458162923063778 -0.42868845956676893 2.2062820953299185 0.7717780848115248 0.19668733531057753 -0.41688451990939407 0.014463900501040345 -0.9519557657317768 -0.05203060701908896 1.1809104838566433 0.24638757372413134 -0.45814298634493217 0.4599975762886181 -0.3473106816806061 0.16894337290799882 -0.42959953944538704 0.7304367796125245 -0.10329926107380136 0.7597098932194165 1.0217489114170606 0.0016299376563240554 1.19877306605678 0.14996572736165623 -0.009309377842693561 0.543208393393909; -0.05498493917977456 -0.46205758998401575 0.46946431067498035 -0.9266633703606054 -0.3692348587101561 -0.0017858872802884538 0.26613589249169695 2.0183031744822877 1.7197370931103144 -0.3887983389933799 -1.9885772156524812 1.3515587064889751 -0.01304761287010793 0.7454904965802351 -2.253328869569518 0.11517031534852144 0.0006298668357052384 -0.5688769130292621 1.1529956962287382 0.7561062660036832 -0.4063681151353425 -2.0328200821860434 1.140402778415577 0.6181130310550099 -0.3108907402273943 -1.6649148253326838 -0.399710393552369 0.2457056785915533 -0.9001744856022647 0.7798090602953037 0.004909268544843113 -0.4779616538138312], [0.35013089005235604, 0.4165575916230366, 0.4944371727748691, 0.48085732984293195, 0.5409031413612565, 0.4908376963350785, 0.5772251308900523, 0.5410667539267016, 0.6382526178010471, 0.4905104712041885, 0.39757853403141363, 0.46956806282722513, 0.6084751308900523, 0.550065445026178, 0.5459751308900523, 0.619273560209424, 0.4986910994764398, 0.40625, 0.3612565445026178, 0.5708442408376964, 0.619273560209424, 0.5598821989528796, 0.5193062827225131, 0.45222513089005234, 0.4649869109947644, 0.39970549738219896, 0.4734947643979058, 0.4720222513089005, 0.4538612565445026, 0.5268324607329843, 0.5485929319371727, 0.45549738219895286, 0.4595876963350785, 0.481184554973822, 0.4905104712041885, 0.4492801047120419, 0.5543193717277487, 0.48331151832460734, 0.39970549738219896, 0.5107984293193717, 0.512270942408377, 0.4631871727748691, 0.46138743455497383, 0.5759162303664922, 0.5161976439790575, 0.5654450261780105, 0.49100130890052357, 0.6016034031413613, 0.4258835078534031, 0.3910340314136126, 0.38154450261780104, 0.48527486910994766, 0.4430628272251309, 0.6091295811518325, 0.5471204188481675, 0.5505562827225131, 0.5765706806282722, 0.6524869109947644, 0.48920157068062825, 0.4199934554973822, 0.5636452879581152, 0.4860929319371728, 0.4802028795811518, 0.3658376963350785], [0.4672466711940452, 0.49346591462383166, 0.2826828061739907, 0.6580339189508446, 0.47487261468222564, 0.4286877081650091, 0.7296179285902912, 0.4499223494169257, 0.6291162359878852, 0.6147268886569618, 0.6409668517093784, 0.5132046509697661, 0.46433290980892883, 0.26626007499358284, 0.5913359693757675, 0.40214351217862987, 0.3958842494006889, 0.49561667280349403, 0.5385446040961206, 0.5561764103951294, 0.42289711083732046, 0.5769195482497632, 0.4646786817130825, 0.49032201968805234, 0.4128472736126966, 0.3892903859278331, 0.5234069247456915, 0.3439182977640682, 0.5597226516966191, 0.43981434966386995, 0.7743390368386467, 0.5286687105931036]).w)