CenteredRBM{Potts{2, Array{Float64, 3}}, Binary{1, Matrix{Float64}}, Array{Float64, 3}, Matrix{Float64}, Vector{Float64}}(Potts{2, Array{Float64, 3}}([1.838057223720558 2.1034760331198807 -0.32231066872985015 1.9987817503631586 -5.618004338473747;;; 1.4912373300889576 -0.472018673326871 0.339861350723657 4.441223326293206 -5.800303333778949;;; -0.913285004227308 6.320662849648166 -0.43292861437657365 0.13213288912426824 -5.106582120168552;;; -2.246663305032788 -0.5556522260341745 -2.979698137050335 8.512383054458937 -2.7303693863416383;;; -4.091899731784349 0.8718276939723867 -1.4573791384427248 7.517096256569042 -2.839645080314354;;; 8.430456688181103 -1.5182359543555228 -3.570369001905872 -1.4660117624237943 -1.8758399694959143;;; -1.5094315828868532 -1.8929913706403403 -1.745001993700859 7.307101020821458 -2.159676073593406;;; -0.44067252076527025 6.746911575726223 -2.88961061092499 -0.017085399034739046 -3.399543045001224;;; 3.2534698170191954 1.9687919291941096 1.1967878944744043e-5 -0.7756294232701003 -4.4466442908221495;;; 7.373785891722367 -0.025735724648545302 -2.4585402313868956 -1.283252077289068 -3.6062578583978575;;; -0.7025369523456402 -6.2683104635744815 8.48171018786264 -0.059539050726885916 -1.4513237212156325;;; 8.856402506725647 -0.7350088569289712 -6.500916668894837 -0.6469250035493385 -0.9735519773524999;;; 0.8919023517057095 -2.2986605680802743 7.444453518060825 -3.5929156443024444 -2.444779657383815;;; 3.8302692454673504 0.5731834064584382 -0.6973464447069364 0.9465480611354212 -4.652654268354274;;; -0.3767781326705063 -0.6026625722307482 9.627777669099132 -0.3183424638119307 -8.329994500385947;;; 0.615126228585434 -1.5025516220600303 9.95986816149236 -1.231325885808092 -7.841116882209671;;; -1.763812141375961 5.453947440869913 -0.31521146026986524 5.593040092248029 -8.967963931472116;;; 0.14035731875491814 -1.2195987943999302 4.320392876989365 0.7291211328691556 -3.9702725342135086;;; -1.1425368677865975 -3.3144371808650277 8.104201792747245 -1.4445970820726073 -2.2026306620230125;;; 7.364506349245364 -2.0580391439221404 -1.7391262253703335 -1.717910376910919 -1.8494306030419712;;; -1.5733223512755883 -7.107324799693155 9.725267717283467 -0.5132047643942659 -0.5314158019204588;;; 0.49049355562661756 -3.041953353327226 7.34577715902952 -2.723398941552737 -2.070918419776174;;; -2.583660470154787 -3.279548729815778 8.610211195693461 -0.6609429395813706 -2.0860590561415244;;; 9.05489552025761 -3.000107005296795 -1.5780392259777734 -1.0191975098791957 -3.4575517791038446;;; 0.9045138628831477 4.648149867878783 -2.480032927551723 0.602654703737027 -3.675285506947234;;; 1.2464514894644776 0.022498109659649088 -1.7652933209708663 4.001613021193795 -3.505269299347056;;; -3.173435004083243 -0.8682253237321499 8.648871046375692 -1.2942186168311982 -3.312992101729101;;; -0.10640476284292938 -2.5506842360451962 7.770944324035234 -2.6657376478601447 -2.448117677286964;;; -0.5498952823822735 8.29591725775583 -2.7242708369941893 -2.3073686440344585 -2.71438249434491;;; -2.846719730220884 7.221238920958936 -3.1282548563900465 0.3189681943106943 -1.5652325286587;;; -1.0160091473500694 9.077063113375013 -7.428341888890437 -0.24088175735638215 -0.3918303197781243;;; 0.6479799389830484 -2.2773339982169096 2.5305008819088823 3.2237267703356194 -4.124873593010641;;; 5.794013738854313 -1.6880646611302954 2.711764386213931 2.3675360101631653 -9.185249474101115;;; 0.24967018663768936 0.8449451357139418 -1.8235722119872788 4.833129956432117 -4.104173066796469;;; -1.8005420263905847 -1.5413919834855379 8.097136500925215 -2.4501311843352878 -2.3050713067138053;;; 8.888537748107485 -1.6927550503410065 -6.4197937408979255 -0.17910477560472038 -0.5968841812638317;;; 5.473248806410436 0.6317523212537812 -3.2978611716004225 0.29289064343836324 -3.100030599502158;;; 4.314750354060487 0.04347998995435365 6.7478643611435 -2.3044917746776474 -8.801602930480692;;; -2.7923010442939 8.042852571211325 -3.1039041705626986 -0.5094394723161181 -1.637207884038608;;; -2.5965366924924944 7.616150012407027 -2.2973697512616496 -1.4907096039001773 -1.2315339647527055;;; -1.9798487197013706 -1.5626932399264022 -1.0866471406992126 1.0536399188110106 3.5755491815159743;;; -3.48941287989283 7.436443458512951 -2.3465335361897677 0.8781232018672841 -2.478620244297638;;; 4.38606118424681 -2.139842072954593 7.220313106972008 -1.9298913604601884 -7.536640857804038;;; -0.6449747838344289 -1.6939645498237768 10.503212918344131 -7.825903123863041 -0.33837046082288325;;; -0.7408322868882358 8.050873964943221 -0.767078576514183 -0.3730210119029222 -6.16994208963788;;; 9.164352165276018 0.31161334548546843 0.7003304959932568 -5.102021457413057 -5.074274549341687;;; 9.234417739788846 -0.40935828575312827 0.950753721182333 -1.9113665209625033 -7.864446654255548;;; -3.41109375585855 8.320480312127092 -1.4387411185315229 -1.7103635724969168 -1.760281865240102;;; -2.3861043336942696 8.982144014889123 -1.300768260898428 -3.212265071835098 -2.0830063484613275;;; 1.1647751634701247 -0.5343664881066039 1.4032948129642417 0.8041010722264115 -2.8378045605541744;;; -0.28134866986804796 0.8279413897373037 1.5873937389244315 1.5330635790888691 -3.6670500378825563;;; -0.6813427859012664 4.013136532619529 -1.8589867110249392 1.6992237265601384 -3.1720307622534625;;; 0.796820804439748 0.8990884470327636 -0.17046240250611983 1.7690135734308776 -3.294460422397269;;; 1.471935225792521 -0.4669012908716989 0.9025566042139225 1.481064516725606 -3.3886550558603505;;; 1.574831616451135 -0.2705112646931599 0.732578062485757 1.876764111417726 -3.913662525661458;;; 1.4837864425986638 0.23665522082602172 0.004474537582792748 1.5777945601836667 -3.302710761191145;;; 0.6657612119111993 -0.30447939177802436 -0.9019287379122919 0.5682883255718604 -0.027641407792743523;;; -0.21489769680164622 -0.6243929051889342 -0.7747885594490694 0.13905216572917709 1.475026995710473;;; 0.897433670856737 -0.9534156217999311 -0.08898723158505632 0.3858700873484988 -0.24090090482024834;;; 0.9826376488569335 -0.945642136106696 -0.5881136477035578 0.7489921267064592 -0.19787399175313897;;; 1.4229500307024023 -0.5537423678906366 0.6995575234902393 1.2495413581600536 -2.8183065444620587;;; 1.7444978024562485 -2.25479301356844 3.971352326643309 -0.8133779260658783 -2.6476791894652383;;; 1.8638586817136973 -0.7586023221847163 1.987820864443403 -0.8552003550508211 -2.2378768689215627;;; 2.175690778934768 -0.5290611001740793 0.5116098262032028 -0.47723356346295576 -1.6810059415009362;;; 6.260106829045141 -0.824431983821684 -1.4165463090952373 -1.4639112116199995 -2.5552173245082206;;; 3.6302775681632014 1.0818641521568313 -3.3585941786080067 0.1079246054805514 -1.4614721471925773;;; -3.2932939385792857 -1.704233304601607 9.016409441978537 -1.5896064972472954 -2.429275701550348;;; -3.660431269195084 -1.5158648569734074 9.067405311268196 -1.5643113465704976 -2.3267978385292065;;; -0.7253631702828933 -0.7654152270617246 -6.465717285201574 8.841266861710437 -0.8847711791642463;;; 0.4454334923108243 -5.326382689596202 9.510652627100818 -5.183986726205825 0.5542832963903834;;; -7.8248825861730475 11.310074229424217 -1.5589431852888846 -1.8635692540969229 -0.06267920386536133;;; -2.1565592792974417 2.619097297659557 -3.1158197770841833 4.9191548364192625 -2.2658730776971936;;; 8.766549827715687 -1.1632212825969415 -1.967272532534064 -2.252359314524254 -3.3836966980604273;;; 7.40791984265541 1.5089582336785332 -1.7305501856525851 -3.0364619847746375 -4.14986590590672;;; 2.1383800510140243 0.45437552917686047 -0.8542769146660687 3.924219873025953 -5.662698538550769;;; -2.8286213026979166 -1.1334489745845224 -0.4318094272692748 7.722606829608632 -3.328727125056919;;; -3.532924922297678 8.047096213395648 -2.9842502356724845 1.191480228917463 -2.721401284342949;;; -1.400237315853533 7.9183507727431826 -1.2122916459874624 -1.835228253264554 -3.4705935576376334;;; 2.383373129098206 -1.9296158818792042 0.2067167435083723 3.4244357873079063 -4.08490977803528;;; 1.4135490995431585 -2.86982489129119 5.379405964202682 0.055105358394837343 -3.978235530849488;;; -2.2413204479877074 7.193386427943156 -2.8550145179771507 -1.4770430034549271 -0.6200084585233705;;; 3.4718899574398048 -1.127487657872433 -0.052330042562761865 -0.4880463440953258 -1.8040259129092837;;; 1.0867252270907974 -0.7972434536346966 3.074951033302793 -1.7129158450911133 -1.6515169616677807;;; 1.8804492209686858 -1.4513260268827488 1.9086260818084637 -0.8190690699544438 -1.5186802059399567;;; 1.3314955791655287 -0.9192109373024783 0.8132057783327937 0.6222190577558011 -1.8477094779516456;;; -0.18044583215462315 -0.9388561176092675 -0.109078649089081 0.5070703030115602 0.7213102958414115;;; -0.010359125394891368 -1.4035949029341332 -0.4042434344056953 0.031627503559275426 1.7865699591754445;;; 0.0720515763049308 -0.9798353553250826 -0.7965872935652705 0.19316438807583075 1.5112066845095915;;; 0.45798934741432035 -1.1661589262027439 -0.14067322646520336 0.34588601882248277 0.5029567864311442;;; 1.3610839726640915 -1.3713073618205072 -1.1751084517144703 0.7657501245944835 0.41958171627640234;;; 1.1605497823188735 -0.8388563794777394 -0.3533435646257943 0.9116462812517998 -0.8799961194671396;;; 1.4407591795279424 -0.6015945097851965 -0.20942689102704373 0.6783151768427708 -1.3080529555584728;;; 0.8463040067398825 -0.7539176409701688 -0.06723356042538775 1.3017193414245614 -1.3268721467688875;;; -0.20211796098546284 0.6655407753729181 -1.5516208226818609 2.2343401750212193 -1.1461421667268135;;; -2.7255559697105625 2.366305801664515 -0.848329433402522 2.2397083462997625 -1.0321287448511933;;; -1.3942911023170539 -0.8661467303994842 -0.5848460636253183 3.7283476199524515 -0.8830637236105949;;; -1.3426721217747912 -3.7505030599320572 7.619695097760844 -2.6825700404055164 0.15605012435152038;;; 5.050254420735252 -3.5417324396449423 3.162684661959685 -3.603599203361747 -1.067607439688248;;; 3.437730924066963 -0.37741665397715224 1.007262451064394 -0.5849439707998795 -3.482632750354325;;; 6.530140835033036 0.40347492323252737 -2.87944662704816 -2.6809622576142025 -1.3732068736032015;;; -0.506515129892887 -4.9966207535868365 7.4510254687757556 -0.7211829366475666 -1.2267066486484661;;; 8.96749948763224 -7.167472456902592 -0.2844041539896056 -2.185526811597195 0.669903934857152;;; -7.459447785195381 -2.047273925178781 -0.5447681287690989 9.148144999877756 0.9033448392655037;;; 4.524921421479381 -2.5708410180271026 3.646082849902993 -4.060262437693465 -1.5399008156618055;;; 7.094643046752764 -3.0395383580319684 -0.35405920206821684 -2.543600788010944 -1.1574446986416347;;; 0.052343084079656765 -0.7550343964586317 5.96587095076144 -2.8521901127331692 -2.4109895256492964;;; 3.824201389992266 -1.5001221320510676 1.4346024373419815 -0.41647246686697315 -3.3422092284162073;;; 2.2046715587092027 -1.3443697383291913 2.8832002457752224 -0.3939664255127028 -3.349535640642531]), Binary{1, Matrix{Float64}}([0.9276261292095003 -0.2992338682472293 0.3709919482117296 0.038165817792637134 1.1012734747792867 0.8530426125026753 0.5908941234507042 1.1600137564522792 1.419091039159007 0.9733392822115648 0.7476267960306086 0.05818220630326749 0.026794808468033837 -1.338401614736283 -0.5313107365259281 -0.040991656203586455 -0.2553753421305333 -3.8080389276330666 -1.663562303742268 -0.8831474851555976 -0.5247791372317221 -0.6847193958541066 0.35825164539654897 -0.9521912075360672 0.8898430526424705 2.632777445242579 0.4411958686673277 1.465985218127086 0.5433992373646781 -0.33084405644690335 1.1502231271033023 -2.4571054365031544 2.026936064705982 0.2892390553733375 1.5753247851373344 0.4904799192806873 -2.086562509521467 0.6256963467634764 0.8793489738467936 -0.0060043592060276835 0.6600967789896894 -3.0073948561730814 0.9175864433042052 -0.5685344762457367 0.6594470871019547 2.084314120868466 0.19941445483344192 0.3493167383003532 -0.8065091288240779 -1.3084341878930008 -1.790837013789438 1.7344490163526796 1.93168641131744 0.9649664154006133 -2.452916581506302 -0.0498577120405048 -2.7595993352788484 0.5458089647731644 -3.1166376593865883 0.6678639557074607 0.23212901164225921 -1.848321505800933 -0.08862060587514597 -0.9515134935557928 -1.9345343033343891 -0.6566612303870287 1.5013699937177272 -0.8594834672985717 0.24106378379794394 -0.44330644331687075 -0.7993912524033603 0.14891353298508853 -2.2558014219854123 0.7638717289324967 -0.7046751312430003 -0.4823028469006466 -1.2612725218300973 1.320980813184507 -0.9210923000079693 -1.896204428782805 0.25071308150884186 0.04527477948994267 3.714819042385181 -0.9372331470762678 2.045911668783458 0.47654059626937173 0.6833787638667446 -0.9479921142371139 -0.09993685772664242 -1.7588842660865416 -1.7613638793232427 1.2351558069431228 0.4664189281039316 1.2602270631270902 0.11491080281391315 1.5359955321332486 -1.1095252708770678 -0.8857651286094644 1.249254473110548 0.1564012334282608 1.2900611801539406 3.303043428932266 -2.4888490411158424 -2.314172960581636 0.29494099229720167 1.9353990083414991 -0.7204666967491768 0.19616194233703213 0.14220648098727862 -0.8129465337296189 1.1597702641917491 -0.6270661717485324 -2.5538544579749023 -0.010626232493620859 -0.9463794857802098 -2.458766317703712 -0.3541285675962634 0.47821266657203915 0.8663730919433165 -1.0686851343794754 -0.23971823923717994 0.7464248739114887 -0.6773635483789412 -1.1008220414404557 -3.3778126104692014 -2.1862676669635963 0.04337303152013522 -1.871781789084255 0.10504724782077635 0.9691639153991284 -0.7522530600438879 -1.3024022626031082 -0.5013159926682351 -0.06706398637123373 2.718632048223764 -0.2605620681341066 0.38910131456983005 1.1114032483762328 -0.8489708677589026 -1.1881232580357235 -0.11091265499170457 3.623217042090883 0.3274389317240148 0.23741858028488724 -1.4515875343124869 0.45936569923505677 -0.3262255233959033 -0.21140123948654527 0.24090368925737632 1.0864671543801783 -0.7301130933284078 0.45650353249364617 -0.3364150958881801 -2.0869880961344136 2.160032341573609 -0.37777704808909246 0.6560575424510338 -0.185614671061208 -0.8712977508633489 1.0749440747816257 2.2338258773730746 -0.4866478957315414 -1.3098042735710889 -0.3983188098617112 -0.14359923874378083 0.35832514198465376 0.09265957737176658 0.17382064260466049 -0.8936349184379313 0.21017339563273996 3.2086171821485507 -0.7659347158469455 -1.9750248531833439 1.4299769325266012 0.15652017877227564 -1.6692071051612583 -0.9273678405515896 -2.2856716243223976 1.7396053385883763 -0.7047223750030884 -0.8446188212928576 0.3048305200594478 -1.5243820116685816 -3.18662360671931 0.4606049512218093 -2.6419433837124653 -1.060921104133871 0.8604634035565943 -0.23653021629503543 -1.7460489593781028 -0.024929844753778813 1.2249899541118134 -1.855854380843652 -0.7657557317848819 0.953873643984027 -0.13722753526126075 0.1494783273660602 -0.1500992005510223 -1.2198656712166898 -0.7300951856511657 2.0441952793681866 2.264105625582002 0.17196127654590584 0.16958217814237958 1.3752471044551373 1.3500118947999689 0.1288401719601981 -1.5462917476984452 -0.0008151905527950872 -0.22536233123511165 1.209275893425779 -1.5463213174778938 -0.4422228199475657 0.5577717778465748 -1.734237948816596 -1.0348706585219043 0.45851008205829713 0.17611837973693936 -1.4168425084542413 -1.3623982184977248 -1.0049611867157897 0.25399078424163035 0.4693955664347763 0.07091273696708522 0.5704155140560709 1.2582284327005122 1.5677190735015225 -0.08706463019064004 1.4041142544164718 -2.6461382253616206 -0.3550578642935941 0.6398375148778598 -1.753985268927871 0.9035533292984357 -0.28899995998673317 1.3955139525196176 2.4147469020170336 -0.5538754799153291 -1.5098233623933233 1.146091992146857 -1.634836775935452 -1.6839484763167802 -1.0430922049096478 -2.49901538312339 1.4906263398617754 -0.9908065697099938 1.3362642336066366 -0.03536222398866745 0.9592000739357439 2.045725401472666 0.09879539628393345 -0.26969255309165274 -1.7964450079432732 -0.5321656140111417 2.4880308166486937 1.2802942219746702]), [0.007686142781402813 0.5480813541524343 0.642487254781222 -0.42025275898616393 0.0016411496094711764 0.04444440063920397 0.0007801844426444889 -0.3086182856187104 0.4626884745193344 0.7151411015090792 -4.6702886727475925e-5 0.010853377299992348 -0.2577684154391827 -0.46088038113717184 -0.8359182354117385 0.5876644480772643 -0.013462125563698734 0.5714252379227766 -0.13979699368752946 0.11229063317942507 -0.09810038365132857 -0.049156549020729766 -0.003994924310443134 -0.6077941144653871 0.4045529694637372 -0.9237141565193187 -0.4392823308197752 0.02506678547523201 0.10675552489475972 0.006122776438171942 -0.0001343001816986505 -0.08010363269133648 0.5321613425048812 0.1853787348741203 -0.011878886694756542 -0.0016192457108057659 0.051012995895768694 0.1514680980036362 0.009959612313356816 0.059674074748581996 -0.21914289496258924 0.0036255746949006105 -0.37405761091179274 0.16395897413468605 -0.002014914409322826 0.00014857383383764942 -0.0082246870827048 0.0014357135970711472 0.4564575129663902 -0.12438562168748234 1.0563551245920224 0.6874459605535578 -0.04828156931765417 -0.26366520453864384 0.22141756907827895 0.178272800516324 -0.1452965622118127 0.45863626496688714 1.033874122518166 0.6022197464438056 -0.7839135899490629 -0.7710329481699356 -0.24875162613031818 0.11614096936889423 -0.3431481892340687 0.35467316446233266 -0.0029953631851825794 0.0038603023178286956 -0.004930200339957459 0.0010015446168023592 6.920966278889707e-5 0.005159293900106539 0.006180526049868751 0.7368560386683709 0.5611571702416804 -0.13624949409236464 -0.007478300906826541 -0.24810112695444303 0.3218235630439524 -0.6890530382701774 0.013621837673415469 -0.2001874985325778 0.020462453349823488 0.35054357668082625 -0.04426622538951425 0.31716594543462245 0.0001542370549554216 0.0561480948123817 0.0516296704561798 0.2397829058286978 0.13276194008641032 -0.1521393675223788 -0.4088975224605567 0.21631267770526155 0.021403900314237917 -0.15147115482523235 -0.5846719991451897 0.2733525645319161 0.7234784654174976 -0.012946114499252969 0.9853879129741242 0.015667977982980495 4.133075070230026e-5 -0.17016387149072865 -0.39304804568822443 -0.05811171632729804 -0.35431657573270425 0.049964491999507574; -0.2882789557275373 -0.0032226945404474636 0.36258313518458124 0.7100744544453955 0.02014050508804923 0.0017533857516328414 -0.007813905856939068 -0.06536296070557808 -0.4564619493221723 -0.5403519168182854 0.0002627925747510262 0.00013475669336486512 -0.08886403499566657 0.00582055052981225 -0.013436547518927455 0.0067147373501996324 0.03150387674625791 -0.40405855206738367 -0.004462324477490717 -0.11720242160952396 0.00036687505720353023 -0.0007797332502196827 0.2199501626566566 0.24340251242803776 0.29484182199716896 0.33757593950829884 0.009148482190162259 0.0019081564146050487 -0.09318206969949609 0.14926695306960663 0.17496130892935116 0.00351145307256973 -0.42947242438590105 -0.1307336426756113 -0.0003013850536453394 0.004938921012260531 0.03650925088923565 -0.10622176473398241 -0.5299215174235858 0.2816183097957135 0.790411727253644 -0.003852700981389974 0.017257865381639526 -0.0014484146209983804 0.0010674307866816136 -0.000968618960566735 -0.006169956981148495 -0.0018902712384785882 -0.47048487632591146 0.04899294221149024 0.7307339653067759 -0.3054027556338411 -0.10932227752976625 0.5808517812172775 -0.0746461787870688 -0.48213345680437125 0.2655000502078041 0.17168384797663425 0.010459104043147873 -0.8321516107617388 -0.5765236940425432 0.03280867868413702 -0.22712216086912798 -0.3473294457788426 -0.026891893471602056 -0.10035495994379623 0.3584153303380897 -0.0003227754111537008 0.0005967644293735405 -3.336395170778943e-5 -0.10388048175867722 0.42902986156149875 0.0030321317618160156 0.09077952080707886 -0.15796991989446377 0.009552534572675811 0.050451373030404915 0.46204517264002976 -0.4767431365004269 -0.2906987733152654 0.02418675213530252 0.3673648693488578 0.2289394983719666 -0.032480761659267256 -0.0009066712477505488 0.008540360900547656 -0.017665136997895417 0.3401991697617259 -0.5348592452628317 0.01583815734835632 0.34943092504401013 0.08864324672109929 0.2608980551651212 -0.4437247333529263 -0.5297795070271534 0.11882518947651528 0.5309725109447788 0.003669249554438328 -0.5935820381415285 0.7215218395395901 0.0021320914506221143 0.00014446569318874074 -0.00201127936625781 1.0617184532585728e-5 0.4173756959123676 -0.6674697528588678 -0.10411749064120229 0.5706626501379922; 0.09975987301277277 0.007334964786812504 -0.35455878838211474 0.006076103894867013 -0.0011039939952366953 -0.04641523012713936 5.394211497904052e-6 0.12794923710909248 -0.00017795931815787786 -0.04231825160352371 0.0005285385024732857 3.0377088093613334e-5 -0.21772874771557624 0.4445528050017767 0.3223295638364329 -0.6059008668799043 -0.014494345099118807 0.06427633233238633 0.13783504700655164 0.007652447465264905 0.09844224722527607 0.04431689201391776 0.02391551852957482 -0.3148936331611643 -0.6857360024614558 0.010937011197378778 0.0883102641603377 -0.01515622499189177 0.008041758024672975 -0.0017401084617963524 1.559238815032328e-6 -0.00833652888337568 0.5169746454000513 0.45095602733084406 0.012977918800046265 6.102537735124078e-5 -0.09583586819443447 -0.014908389441517528 0.00444115416210066 0.12160908433048956 -0.3135267161872285 -0.004736833490815987 0.3481767773461949 -0.16127272967525408 0.0005735951123490545 0.0008419717995062389 0.009923137961700962 0.00045410726523553653 0.012257869070018962 0.2656553781367798 -0.9760391148908011 -0.13765082151550295 -0.29122080098706304 -0.6048686771189441 0.1940118336154781 0.1458906100649211 0.001559636116576935 0.17768998340789247 0.08807991722306714 0.6987473754228762 0.8754599246452037 0.02865919945974546 -0.3065831603644839 0.4154715935953188 0.007362555040431369 -0.22081090681421303 -0.5177952638625192 4.845187680351773e-6 -0.00015342464109647318 0.007553933560501214 -0.004589829154452995 0.01525368584066781 -0.024378271705176202 -0.006890594852233575 0.10053138045985194 0.3517386901349451 -0.0023970257244360104 0.01507225026718279 0.006419349216963269 0.7007752542687575 -0.008734295420978163 0.3640199095920315 -0.006078761210715511 -0.4741197935017819 0.004917366841652049 0.08131107152165373 0.05704302648799346 -0.03418391595296425 -0.03165389157847222 0.08359205339715102 -0.05730066015212039 -0.3164512756351973 0.029980682496490118 0.019704508804291275 0.04843166893950137 0.6025189999260547 -0.05961048886250637 -0.1333787882348151 0.09446600457090613 -0.19658431011569813 -0.21020785011267 -7.645392776915745e-5 -0.00013067662699610622 0.20576453184477222 0.0021800261860237765 0.30466911421794657 -0.06703352128715881 -0.3540785597255247; 0.1909120273225074 -0.5491143509802748 -0.6489857571847893 -0.2914770191514687 -0.020339647683262366 -0.00032352610035440543 0.10621647550678795 0.24631938831136185 -0.004056153686049398 0.1446982435060545 0.0011995376568870275 0.00041786116015484853 0.5643170184840488 0.012109372501036081 0.5271599660998798 0.011501368999626805 -0.003618129359362471 0.19385560716041245 -0.30654256254746254 -0.002645287740363245 1.4737204546714437e-5 0.0074158588253690925 -0.21438649041563648 1.3997189964863448 -0.009286818046650408 0.5953814497675177 0.35191273433737674 0.0028032590602552437 -0.0011903260089107083 -0.15223912982644225 -0.17444771472738782 0.085533080335437 -0.6194742438150462 -0.5027347821528614 0.0012282305879167438 -0.00019967782100253792 0.008711174311017438 -0.030417240666981295 0.5154164751942847 -0.4648054547904384 -0.8058400035485467 -0.003197480010829633 0.008660643587453627 -1.206804599842899e-5 0.00015497469511497754 4.825122860503718e-6 0.004693706621323442 0.0010201884562733837 0.008497609976530904 -0.203982811698912 -0.7864808057440329 -0.22613331348061347 0.22832857955795813 0.5004658074100558 -0.23024753987208604 0.17964728556278126 0.5363380617351774 -0.009331528866353724 0.025241622792587595 0.49653000991094154 0.7072641057893428 0.6346753161411912 0.3862133861840666 -0.9018999371032816 0.3731995492712201 0.41603695616443354 0.17058067273032568 -0.00026049740578642697 0.008618600408629499 4.684605926414239e-5 0.11343796250991992 -0.440453791311585 0.019357920785574564 0.019401589502345898 -0.48595241722131505 -0.16356985317193085 -0.04035709351145982 -0.24466571478256832 0.2706298513252127 0.06792936262511767 0.0014413132716198434 -0.5119125199261237 -0.31454442961063334 0.21037735952404668 0.004982787366257136 -0.5272361527824461 -0.06350112192105506 -0.008967248702555981 0.4875015351418839 -0.356970532085691 -0.011598062968513772 0.4198162311778665 0.2086066325495583 0.34086587611214875 0.48369584991136094 -0.10434919754446065 0.12485129863954988 0.01552437083885707 -0.2507325090481322 -0.5154896425292381 -0.7244073939983185 0.001217905227318529 -0.001968653582677867 -0.00028930433406081655 -0.02712820198241352 0.41608024668356425 0.6922107272798941 -0.010766870615238993; -0.010079087389145643 -0.0030792734185246446 -0.0015258443988991743 -0.004420780202629891 -0.000338013019021346 0.0005409698366569537 -0.09918814830399127 -0.0002873790961658416 -0.0019924121929548733 -0.2771691765933246 -0.0019441658473838633 -0.011436372241605675 4.4179666376674664e-5 -0.001602346895453194 -0.00013474700564678377 2.031245281352991e-5 7.072327592210158e-5 -0.4254986253481916 0.3129668337059311 -9.537129480277004e-5 -0.0007234758356977505 -0.0017964685683374087 -0.025484266460151814 -0.7204337612878311 -0.004371970952799905 -0.020180243953876555 -0.010089149868101461 -0.014621975958200533 -0.02042488721102589 -0.0014104912195399568 -0.0003808532590797029 -0.0006043718332945572 -0.00018931970398529976 -0.0028663373764915806 -0.002025877639561126 -0.0031810228578034684 -0.0003975529015873111 7.929683884504335e-5 0.00010427575384375933 0.0019039859156533719 0.5480978874447203 0.008161439788134984 -3.767540349534237e-5 -0.0012257617924351781 0.0002189138151771805 -2.6751795637657157e-5 -0.00022220051917111092 -0.0010197380801014796 -0.0067281156870286195 0.013720113038124277 -0.024569169263964442 -0.01825906992360028 0.22049606827652535 -0.21278370696974536 -0.1105356840346022 -0.0216772393396551 -0.6581011858477457 -0.79867856748506 -1.1576547665769685 -0.9653455210158844 -0.2222867464429405 0.07488975388486192 0.39624356117986337 0.7176168199179113 -0.010522021605980744 -0.4495442538687569 -0.00820537602071367 -0.0032818746885689195 -0.004131739856949108 -0.008568960284859924 -0.00503686125957859 -0.008989049990688114 -0.004192306892083128 -0.840146554125562 -0.01776621358575363 -0.06147187744332539 -0.0002189528876825448 0.015649418829798797 -0.12212962708570146 0.21104719469156769 -0.030515607659359668 -0.01928476048218778 0.07122123909955876 -0.054320381043823744 0.035272742429355616 0.12021877492562218 0.02396899537600159 -0.3531960999185874 0.027381931243240273 0.017757415511485925 -0.4132941420097863 -0.03986883474138964 -0.0905878477506129 -0.13315832926877527 -0.023751912137946828 -0.46552383703287703 -0.011541321576632605 -0.15916739669039637 0.026370077201256892 0.0034982276045990323 -0.052904760313757696 -0.01695389497571861 0.004069278825229484 -0.03532197320451535 0.0006205255722465549 0.004832108284655015 -0.1667431396188287 -0.25578171179673603;;; -0.14629619631938154 -0.5527116986293169 -0.5490341789003859 -0.015084856652608614 -0.28088081925873426 -0.005570265077846479 0.004682548818735848 0.2002273140418981 0.33259757153717445 -0.1580925527818257 7.986969526346611e-7 -0.006245731700991244 0.22797942772148225 0.022134916329234876 0.13850872377209272 0.17295680078130524 0.7360868531300738 0.15123078282376454 -0.1827025772807914 -0.002774537763926346 0.00187219867161157 0.050858443726247086 -0.10651458514048286 -0.8005361012140916 0.866716803948572 0.5124682585250688 -0.06368316110404082 0.06816786235917108 -0.39780132932536594 -0.2059875284754401 0.00011846935819907857 0.5875315868917076 0.4101138343359413 -0.023454979674269582 0.013922748374476268 0.007363352857352493 -0.09737480497286825 0.4444505327834171 0.005347739683721925 0.008303607469427087 -0.0054767112278202145 -0.06728839019891414 0.11612275565420788 0.3687393631184901 0.001370533960791009 -0.001733919792466722 0.056434517343889185 -0.644510918204695 -0.3447656417467163 -0.13614089560003545 0.4311263417389582 -0.17949958637866276 -0.0537821150922391 -0.14848748434085113 0.1858830129684596 0.18224606628642614 -0.04851608944904871 0.127320424945974 0.39689378885586596 0.33866820407192266 -0.33464463598392047 -0.055172275120368985 0.3095914256608854 -0.32383534589985297 0.009040967216032678 0.46751913660246486 0.016175940869973354 -0.025577698146883984 0.0027121478887017327 -0.001120247439830388 8.467741610479026e-5 0.0008954529481336338 -0.06966993104747632 -0.046514026920934724 -0.08289182524450296 0.39829803796274493 0.32900611105559524 0.030360251456829298 -1.159527915006452 -0.49948126023131295 -0.588598869583937 -0.1507737422125086 -0.06266124965745051 -0.23354144766238674 0.5640082895636532 -0.007251659941365577 0.030935999186023164 -0.03265905451775992 0.049521231141791286 -0.18154648751313152 -0.050507643210212276 -0.14483454890356068 -0.16732919527870438 -0.31804832316785364 -0.020453019538988725 -0.42952546362209265 0.5827746342971992 0.3514139594850832 -0.2497104594588243 -0.16826737678638232 0.25208121271487327 -0.014101658219428022 0.00014800363654387795 0.08524524506691017 0.5044770450524991 -0.0021745062236326 -0.07910594659078439 -0.16326042805572955; -1.2033083222633583 0.36208974638428093 -0.37229779338948815 -0.7506730990470464 -0.4326716882241044 0.0006548224679862887 -0.0023943313799941377 -0.38809222887828165 -0.251598047333761 0.07678223198626895 -0.00014568036030040719 0.0022428717924970086 -0.30066425642573386 0.4270683762326973 -0.2720054629491854 0.052793929007899906 -0.1963633074460863 0.24444727667008517 0.0003428207821819217 0.0004748291797362353 1.7216657398018644e-6 0.001586181983752843 0.004526870353939035 -0.006544040199718562 -0.8237448631090082 0.005892874337616098 0.008408912586660527 -0.0007206992807869581 0.4488337273145821 0.1386287779147827 0.11808164724295123 -0.003816980671758793 0.027257797439267255 0.048527338636538825 0.0008847708332403591 -0.003181726135225876 0.11631178985191866 -0.7413623030002234 -0.050183189556652755 -0.0009243480280321073 -0.24514941225919298 -0.07891574806397599 -0.016195651334127606 0.025046097281429255 0.0017856247426057078 0.0009181848215986834 -0.0022649609237908475 0.6475905532847325 0.021635122411751972 -0.08944839316752526 -0.43772603810735433 0.10478437449018514 -0.004186291084325144 -0.004221023738151857 -0.8426364955134842 0.008330574157572013 -0.14850642866325217 0.0036638575707603586 -0.4340306174505575 0.00808825812402157 0.34401866317493984 0.25162028345650067 -0.533741434711907 -0.08111506365281554 0.9958595010256496 0.18557380807660162 0.603993433973424 0.0010766723162876277 0.12492290269360555 -0.00031146927671357223 -0.12705059963569565 0.19539152752148298 -0.022014348508620735 -0.22766380219706847 -0.25505812465123334 -0.48773909102661367 -0.2702139663878972 -0.09930190307084535 -0.38244098685366207 0.0050255655544420045 0.533560035635398 0.7831506678872571 0.2221858633228715 0.0898999745955491 -0.09733081278932341 -0.23847874089382864 -0.5221647904178778 -0.19616385164951095 -0.07025952058578444 -0.3014984989577816 -0.012435612722729849 -0.5062450864209314 0.9965079858054676 0.010264263604847666 -0.20706535754011166 -0.001668476073153046 -0.2853096462417023 0.048961526072135574 0.2129754846945834 -0.09871705072869603 -0.02399833122828814 -3.5394474991563e-5 -0.228095532943209 0.0011652776943151726 0.010714960209081475 -0.08033529416434858 0.3265166797659373 0.605004290836955; -0.05774428883571515 -0.4660063309355304 -0.2158576482084552 -1.0444440498199694 0.00019616346465981498 0.003344467673594224 0.00039364761335749176 0.004714014056354933 -0.12280902293616476 -0.10997031714255541 -0.0068821463898103286 9.638085902746394e-5 -0.20109193611112222 -0.01206449130830346 0.14206147263547042 -0.23123012489625344 -0.7077175123498441 -0.5474686832464363 -0.008891720790705958 0.0013055362687167706 -0.0030806174030812033 0.1552844719510066 0.30191167196833496 -0.0036491544543717515 0.4580262479413713 -0.05001415883310798 0.155712979409726 -0.07008503547774472 -0.0037683396319006727 -0.0019239076991946638 -8.70186555729036e-5 -0.39013390603274495 0.03629699110805007 -0.02627080012131572 -0.021005408922265868 -4.372450084888896e-5 -0.02302742240321852 -0.16402241633031422 0.047895825710593753 -0.2155180028346828 1.0918430253335993 -0.0447005200508289 0.3207887024885692 -0.39271497505843034 -0.00021964950914457677 0.0006613831128252809 -0.00801941261545539 4.9831247510384066e-5 0.3040660645801133 -0.3817050556231489 -0.004298390155217999 -0.07494767039274165 0.3434178144654511 0.23099842562132664 0.05419954128342354 0.03454259015582732 -0.5380381976968651 -0.5213177978512894 -0.3772042653912967 0.13587012311159774 -0.24685582819378799 0.5459000686397174 0.33234018515916763 -0.02539057782520749 -0.8494491253490021 -0.5613755548845166 0.009577878403462978 0.008474873827842382 -8.549735881787588e-5 -0.02463837385346206 0.033572359463480216 -0.2435961421947008 0.08051722644601077 0.26885670166701364 0.003458885644795332 0.06843937265493891 0.008454748992161584 -0.6449650221631393 -0.42024284522208905 -0.535730745203788 -0.03204866368525524 0.048539720824786664 -0.09169959443445883 0.6014045933356098 -0.32122930706513375 0.0982605691227597 0.39971707117271993 -0.2897365419855963 -0.010156347278112394 0.018805095052704387 0.006935170360800062 0.30435055591405374 -1.2258749665314124 -0.14592945338919305 0.37720034121121554 0.5920487055741375 0.1872549009013794 -0.35011088546269825 -0.2584880335403584 -0.8842692068515761 -0.46504258676730353 -0.0025169348845077333 -0.0008323056228018472 -0.09761951647019167 -0.21369687061698384 -0.1254871594129144 -0.1592252735570603 -0.5256932847695744; 0.20489679367575148 -0.6221089569871738 -0.018992421090378117 0.8679720859368463 0.1903729153404949 -0.001326922948625233 -0.012187489614851492 0.17402653963568618 0.03829218295815775 0.18516100320432183 -0.0008795957580966171 0.002534644912957704 -0.0012486910740923704 -0.42244928449094743 -0.008428670379117886 0.005499011903589779 0.16767963983953432 0.1480597345526834 0.18832584178438816 -6.702168683329644e-5 0.0006040132662947006 -0.20429658632004366 -0.19725108365421284 0.8102746601917775 -0.4949974200318661 -0.4695324158252187 -0.10226669208579549 0.002992016285238409 -0.04170229725006547 0.07084350645592973 -0.12285561438409079 -0.1934852116615868 -0.4739685816646134 0.001880623315157495 0.005626083486771073 -0.0012325061335031152 0.0032517921132774155 0.460934043780707 -0.0024912548610875798 0.2272051487933964 0.38490196370444335 0.1869951688341755 -0.4206902256470442 0.0002952881363844637 -0.00285095409722935 -7.962335575191356e-5 -0.046040611793016044 -0.0027164352242708776 0.013326051685028888 0.6072252349502745 0.013867234408363033 0.639692730898725 -0.16335398799403653 0.4684952762614161 0.6939733623597776 0.12975058693312047 0.12002701069863801 -0.40139659497727315 -0.022465267934932403 -0.28380564750722853 0.5882705798906873 -0.3383682149061962 -0.2063163086125091 -0.012828675099385763 0.002344105802548414 0.011371161040474954 -0.6378537631546525 -0.00037329911712235067 -0.13784552102922584 -0.0002316339226738301 0.06831038555982155 0.036987436300242024 0.0069267942567658855 0.004758380578922467 0.09108033275082784 0.022041569650530574 -0.33935281939443784 -0.06242446356540153 1.0432195996520428 0.3625237970721424 0.1910389246842521 -0.4993446801909635 0.03138571641647481 -0.670936445183854 -0.27043238227687183 0.09120417451270507 0.050259342379643815 0.2219318533096351 -0.08593287421335635 -0.019842457907393994 -0.35116339202135205 -0.003901302889152052 0.18357514281234627 0.05996309469948809 -0.0010775358860441427 0.0006305159326584981 -0.0648890903177273 0.0074017897098749485 0.0009149662664926482 0.24754864885336142 0.011336514610532781 0.0005387948644674916 0.0004457492660843461 -0.20280472604819738 -0.5112484868524557 -0.005041678369271776 -0.21046630164663532 0.045558639530690115; 1.2024520137427035 1.2787372401677402 1.1561820415887074 0.9422299195827782 0.522983428677684 0.0028978978848911994 0.00950562456275229 0.009124361144342428 0.003517315774593547 0.006119634733790314 0.007906623811254718 0.001371834136509068 0.27502545588946625 -0.014689516762681242 -0.0001360630792598467 -1.961679654150121e-5 0.00031432682632228986 0.0037308891999032106 0.0029256355049272326 0.0010611940023066368 0.0006026837994351306 -0.003432511340962876 -0.0026728735275783322 0.00045463567640449605 -0.006000768749068988 0.0011854417956417558 0.0018279611934497774 -0.0003541438858777941 -0.0055617611072500675 -0.0015608481960776466 0.004742516438513397 -9.54885256170644e-5 0.0002999587813547556 -0.0006821821561110197 0.0005718062277781681 -0.0029053960877746124 0.0008386454108907195 1.4276641356002998e-7 -0.0005691209765753464 -0.01906640540010856 -1.2261188655510296 0.00390948947954351 -2.558116160529142e-5 -0.0013657734778735144 -8.555509702278988e-5 0.0002339752137946714 -0.00010953201162689765 -0.00041303110327696707 0.005738403069822154 6.910944043510324e-5 -0.002969147884748895 -0.4900298486175057 -0.12209542029485033 -0.5467851938037398 -0.09141942109817645 -0.35486981753294594 0.615033705110528 0.7917301103118283 0.4368063619209207 -0.19882093780031337 -0.3507887788879186 -0.403979862069653 0.0981261325043632 0.4431696624772618 -0.15779544869522852 -0.10308855083502477 0.008106509907792128 0.016399451119876323 0.010295967805736434 0.02630172449267985 0.02508317719628908 0.010321725424842155 0.0042402588533204085 0.0005627468720670959 0.24341073150011314 -0.0010398892416007145 0.27210592573457815 0.776331137342557 0.91899214743016 0.6676626428085165 -0.10395142705045779 -0.1815719663085716 -0.09921073564743699 0.21317332491508179 0.12498421256767582 0.056265657199729466 0.04125237767949089 0.29662759484323203 0.11682751093546188 0.48408234932560273 0.40717147759349415 0.3506303822995903 0.21312103319230294 0.39375041825271095 -0.148604428246071 -0.16148528181155025 -0.419830798639149 -0.05766638980439551 0.2943080420381066 0.903704985513293 0.22562319067018563 0.01611519271445983 0.2283340856633826 0.21401371975716374 0.20975335220785898 0.21303863817016738 0.1222808420285427 0.038390782457658895;;; -0.035983903511653245 0.6182934319460277 -0.037018569751746125 -0.03034351006506031 0.00793298565342306 -0.001646576665870686 0.005062770625250324 -0.022578923065959468 0.11316584906231487 0.09689574383371015 -0.0012596193231054072 -0.002080021543902398 -0.35187957742041526 0.003915326665519599 -0.24361691258354898 0.18812383637884642 0.2574399615208081 -0.4193694344928756 -5.0251594891564073e-5 -0.0009858183625076702 0.0026686136631349634 -0.020342135317718113 0.03148722994309277 0.226316316720133 -0.7914934510178399 0.326122559384781 0.7245575323482721 0.14631254516333406 -0.4561752585081589 0.10196119300765454 2.7688856681310055e-5 0.5742879502563987 0.2015658394171241 -0.5431383157901224 0.005388876023377941 -0.010190744348699475 -0.26662652316851754 0.05029775821588098 -0.02054390615539019 0.22189621277516963 1.2487442758531442 -0.003965124351115165 -0.2762224300361592 -0.005322939535454982 -0.0007162660452523856 0.012848167649796524 0.23658643117439432 0.15204518860407545 -0.009529909321398902 -0.12128247849971625 -0.15881919885531892 -0.23968167571276752 -0.35546750770194513 0.33031083414505935 0.1484291685028559 -0.02989919234779203 -0.34185769946890937 -0.048856884963470355 -0.4371591226458149 0.18191525739245526 -0.8596374902869631 0.014364075889770922 0.025523584213468207 -0.5898386588031289 -0.3916082358410202 0.09334471332498151 0.49060120583376526 0.2649237127953757 0.0008234545420229245 -0.0008072226358838779 0.00015380530266204654 -0.0008140915444150348 0.04933877393465654 0.519742641771036 1.3329511155029972 0.512871349104143 0.19395977819515908 0.3485086230254252 0.05926107987901115 0.5032391667107321 -0.420247394910237 -0.34518554089694026 0.1860768443398986 -0.14161840421683505 -0.4019964781538026 -0.4944468539266323 -0.12615383198844843 -0.0515260339893138 -0.3305663630360104 0.02519882479566018 -0.6212595531279167 0.09517190527812042 0.28187024822076573 -0.01655544815778044 0.6097183681422407 -0.5407063216243411 -0.5395167940408062 0.3278465454725272 0.034450414244049966 -0.25227363548697435 0.00496353971931747 -0.025546618353693273 -0.00032174886625899987 -0.028038047026995788 -0.38568071715736435 0.10708407735945223 -0.22146200310459926 0.14668693722789786; -0.013845513847157449 -0.4537476711072659 0.007951742196405587 -0.04576625856842109 -0.42170284703403726 -0.00072959580331393 -0.000565622888463219 -0.15061686118205023 -0.4649840389605156 -0.08883620455183641 4.5903959797916584e-5 0.00031642553684139437 0.020899906802448243 -0.24716465649834404 -0.02958223825044441 -0.5860362627842618 0.33818341752849695 -0.11877434160550862 -0.013617940644033339 -0.001512247995299384 -1.795888985899234e-5 -0.007832072872934191 -0.025115420708107242 -0.34523279276809715 0.43481017345427786 -0.44155000566472985 -0.0057614776351383725 -0.006368678724365492 0.46056249452080594 -0.0016874047034004442 -0.20044512509345788 -0.06371996988801033 -0.03856488752384833 -0.3003757219377873 -0.0018688825890368615 0.0033293309273434673 -0.043275367970590325 0.08582540308749617 0.047708148958075916 0.35495835910757567 -1.366658394142989 0.28484310591085504 0.0027831732001045344 -0.4685856572867276 -0.0006126359964210206 -0.0012867516952782725 -0.005422457793009877 -0.15252560933721399 -0.042844286968064575 -0.06894472765278797 -0.0660396626436192 -0.225365885271675 0.5820777368953044 -0.6197420802709674 -0.4826364179378538 0.0007333134668004884 0.18224141925099646 -0.18025859841893288 0.9849594908614102 -0.15505612011678246 0.009762341759124937 0.02892665583346347 0.12144301773541027 0.29219112913640843 0.3741973645880623 0.11152452077156984 -0.0014756666423307331 -0.0009491980924162778 -0.4940449512810532 -0.00017507135027072443 0.6168033940690499 -0.4769900702883564 0.4924394377837979 0.6197118879846767 0.40125357265036 -0.23325109738359978 -0.529373223355835 -0.3109772008672603 -0.23583935698204084 0.45950391678820546 0.22220587920748897 0.3559690283895961 -0.28556468170515525 -0.08149867508600435 0.10140345483272138 0.0562140630563764 -0.08321803854350336 -0.012011279041325032 -0.05128680623694799 0.31293778835804126 0.04847035040135663 0.03225230434892506 -0.09209522948976163 0.09918717128091696 -0.20426723866732596 0.5883590461009044 0.658886060828883 -0.16057651399030992 -0.0717301381168344 -0.31548536074892125 -0.018189286210246115 0.0001709421625302718 -0.001028122425520481 -0.0003745379628340328 0.3376072824819178 -0.07405887632138934 0.043557770643998905 -0.34068919749598364; 0.0372206868119142 -0.2606181910760727 -0.008209325588260779 0.43969916729295777 -0.000716888168181444 -0.00581978678597466 -0.000731408111838053 0.3077191598751425 0.32654834503534846 -0.008522011620346812 -0.0009604472619189935 0.00010019985815872 0.34110031520650247 -1.306814983242148 0.18003581315778622 0.4192229428138158 0.14113369801920797 0.28700689582327116 -0.03710763853857287 0.00110303843046866 -0.002313298491008456 -0.053156821564160614 0.2984857098553275 0.15109086925191656 -0.14580592045063176 -0.45081189435438307 -0.542699375937514 -0.6812507835596485 -0.020577914497010626 -0.0988083415198547 0.00015052837760611606 -0.21762151159181245 -0.5769836089237551 0.6943778183349799 0.0011486881010387764 4.06527380844092e-5 0.011696142411469736 -0.23456667687232619 -0.6932452240252821 -0.15535471920229893 -0.274556295285378 0.1142917817550041 -0.2991493797273005 0.4759501603969611 0.0009707569814029635 -0.010924800554593784 -0.2276147766797811 -4.6032245708288225e-5 -0.047197916650964226 0.2742540781355794 -0.015486837024575402 -0.11654445193007633 0.10824170806737174 0.13731378869735597 0.6265985130454311 0.08887450099571612 -0.4178785133454939 -0.016564626146910812 -1.4350922758552163 -0.009027863107998453 0.3655788965756632 0.2900532867878512 -0.503182088154781 -0.25294215415652976 -0.008723661553902466 0.2459543012332821 0.05317931609255832 -0.2629523349603472 0.0001434580604206069 0.0014499584773565227 -0.561899432697496 0.001771446118949969 -0.017561442261048468 -0.44659678788845286 -0.7731029029578489 0.019182984137737513 0.004440043959286165 -0.38539063004036195 0.011165394221377844 -0.6097773300733943 0.816741170798664 0.28626889188910837 -0.07431786051701077 0.3168728584365519 0.07167419771187745 -0.03832632514274895 -0.054198826075275 0.10770295452032816 0.3750716293150489 -0.01237944980047676 0.47913420257513306 -0.5148677518828894 0.04676575302144943 0.02081523092462788 -0.4999299545982436 0.09975723293385619 0.18591015291257715 0.3399186467169209 -0.006840414930860498 0.4467918809665925 -0.00271021399283604 0.002578269244910934 -7.021378098781205e-5 -0.004575532905584084 0.20986794111214224 -0.10430220819649592 0.06302839209755881 0.3317940527663115; 0.015538616123394468 0.1003570025411689 0.03974053677315087 -0.35700539457184866 0.5402711386673913 0.007350218114891102 -0.009772183439491018 -0.13459620556867444 0.024499104148647824 -0.00030359758976780736 0.00023565714082468341 0.0011767522001453635 -0.004834393112153537 1.5601571017838392 0.0930042810997547 -0.021292182914582677 -0.7367050548826958 0.2607294889714823 0.05074384961645834 0.0013851420922835567 -0.0027739877439693205 0.07766112397572339 -0.44423573018189766 -0.03238223456356037 0.3753762914093473 0.5188072811340819 -0.17684485748384618 0.5380550162362746 0.012688352891909884 -0.0036326110478532973 0.0017339911308797962 -0.2940512356479959 0.4138928443287047 0.14890497495452182 -4.158042135480822e-5 0.003534097757606926 0.300323083489324 0.0984438712272651 0.6659757932401316 -0.4218433837172426 -0.29845485171985275 -0.3761464436667468 0.5727664911608514 -0.00013371564912617254 0.0001356062559883428 -0.000136916695321751 -0.0034917992584071666 0.0001753459652697472 0.10369082053149527 -0.07748967684608896 0.030514623295889592 0.5924454748709521 -0.2982100482480769 0.16598134706398568 0.008631717608477491 0.18439338370046213 -0.10578015330478292 0.002359622508901767 0.5199506769837846 -0.022279682674148336 0.6091983492403252 -0.2706961539878656 0.14550238620212086 0.3376710061057081 0.03308725167342595 -0.31985069436108865 -0.5359519148304673 0.0016393257902901938 0.4954989582304776 -0.00024033021096003652 -0.05455960245433317 0.4762956917691737 0.08570585272224152 -0.005062619984208061 0.06421798678456049 0.02025916958452087 0.321555173158071 0.34670245311006503 0.06619258637289503 -0.37731388491829054 -0.4040472094361485 0.010340300001638611 0.3087084390456134 -0.259450380793355 0.03935747614164412 -0.08153616357441175 -0.1401709915439132 -0.2611276630586342 -0.2700070972610887 0.23960812758072902 -0.03974617516656223 0.008117080452155239 -0.5877836330032378 -0.4655980667290624 0.08591318932774232 -0.12664120387149205 -0.3037268639923016 -0.5762880071695208 0.22608152380115784 -0.021334437979739575 -0.013683974278622104 -0.034615451471558235 -0.027130239069715956 0.010339624069547826 -0.17282535951753353 0.029058515526540412 0.11184892714544126 -0.10417513870256023; -0.002929885576497969 -0.00428457230385804 -0.0024643836295495584 -0.0065840040876277706 -0.1257843891185956 0.0008457411402681732 0.006006443814541966 7.282994154167383e-5 0.0007707407142044881 0.0007660699282409044 0.0019385054844018004 0.0004866439487569205 -0.005286251476381868 -0.010092788708866632 0.00015905657645248292 -1.8333493817659008e-5 -5.2022185817324267e-5 -0.00959260869636918 3.1981161039427674e-5 9.885835054837511e-6 0.0024366314617018056 0.0036699057790895327 0.13937821109158455 0.00020784135960798643 0.1271129066048465 0.04743205950024997 0.0007481787082264004 0.003251900884405367 0.003502325592453634 0.002167164263453906 0.19853291672829065 0.0011047668714200256 8.981270177461677e-5 0.00023124443840799206 -0.004627101114025047 0.0032866629256646726 -0.002117334761685905 -3.556583160853731e-7 0.0001051879824648761 0.00034353103679623837 0.6909252652950756 -0.019023319647997118 -0.00017785459749631007 -0.0019078479256523608 0.0002225388042820999 -0.0004996987046027153 -5.739744319618298e-5 0.0003511070135771204 -0.004118707591067557 -0.00653719513698617 0.20983107522762393 -0.010853461956433209 -0.036641889012654125 -0.01386388963543353 -0.3010229812189107 -0.24410200581518668 0.6832749468681898 0.24332048702041228 0.3673412306558365 0.00444840850647398 -0.12490209728815022 -0.06264786452322002 0.21071310000378174 0.21291867771754214 -0.006952718866565583 -0.1309728409687448 -0.00635294045352544 -0.002661505532902359 -0.0024209195518679824 -0.00022733428024188372 -0.0004981642198828753 -0.0002629760553522836 -0.6099226221796475 -0.6877951218830519 -1.0253197719800689 -0.31906240544280157 0.009418228043318832 0.0011567547721319244 0.09922029650875681 0.024348131492747217 -0.21465244565976743 -0.30739267938340287 -0.134902741163346 0.16569460165964248 0.18956134946755968 0.5580952795874167 0.40374168815114003 0.21696202156894487 0.27678863721899816 -0.5653652909339537 0.13340117531798926 0.3793264618036886 0.3512428612507842 0.36215111268129807 0.00856563579558659 -0.020768753538927535 -0.0015525557083524285 0.06909932897038258 -0.18196138499751288 0.14230155324904273 0.029619934762386793 0.0574128584178103 0.02855032414248325 0.02264849382586608 0.01103085308083783 0.04221849163189261 0.003026913217600275 -0.0336166537956655;;; 0.2190634401129747 0.0018929038880259113 -0.23032106914579528 -0.2703119937222973 0.014608880913716184 0.004275783128819666 -0.001334737449507045 0.021813577027441196 0.09634746951329999 -0.29179196649236716 -0.0006883404542662314 0.0017615753414030018 -0.04656576719376848 -0.04695749454684465 -0.02811530398030918 -0.19798805540339207 -0.5236596851186693 0.11709032249300926 0.3411081779142933 -0.05070466204975243 0.007444807206581193 0.23331048224414377 -0.003538980437350716 -0.5530595297338637 0.08570179678728168 0.051855817679592894 -0.23029879181144403 -0.1660406162091105 0.07211279740874964 -0.022035628940859097 -0.0007747972222652027 0.2114809646609316 1.0958686074832829 0.15994027639507932 0.008515021928963654 0.004463763283715019 -0.29805318914232504 0.27635208034346415 -0.8484360020835535 0.00821681187982768 -0.16517784913950137 -0.03516897490613454 -0.6004606437354293 -0.011389649450301262 -0.00017684566340881938 0.04488775864092893 -0.2941238517195652 -0.00020497379830248697 -0.01957053925411462 0.1680997425410958 0.6860277193690683 -0.5599329671309229 0.10199259081414508 0.394828698265479 -0.11766101410952519 -0.37050307013635575 -0.32670071462132977 -0.2764452129479152 -0.30377452792766013 -0.24336677354068834 -0.03507576660922001 0.5404779478759577 0.020685627532475916 -0.03511082817140941 0.3917375656285972 0.2562513777682798 -0.23060114982984756 -0.0028843296299893113 -0.0024556910652418556 0.0008014405532280637 0.00029469640694708725 7.33149478463994e-5 -0.04706199588379589 0.07209774728371955 0.4376024726368949 -0.010217430257905087 -0.010793689526680118 0.14839042638184943 0.43277448934665486 0.0858476115647716 0.4459730527927171 -0.003177326731968793 0.40436547673436296 -0.3770588059575318 -0.17594189272442798 0.16264538994035163 0.1930664330244796 0.10482863388485494 -0.1003238269114729 -0.2108172058429717 0.39273197472249677 -0.1031048307139687 0.23523180531990295 0.6779431196795277 0.008679301991913543 -0.16756334271666012 -0.01560725539564478 -0.6314395176212156 0.13848121431083987 0.5661061819924004 -0.023108801717468045 0.013981427820867486 0.00017742684974479393 -0.0036959106360861726 0.40579396148111235 -0.06561240153864573 -0.29176175149270844 -0.22690009258054614; 0.27734101910420594 0.3110835452363152 -0.6103713320677759 0.31946082720686547 -0.04923379085092526 -0.0006430857964008752 -0.0017403204408651513 0.07456785926731592 -0.13202363824172417 0.49362547512512955 6.061640653825956e-5 -0.0006946485912972644 -0.0005015214027069211 0.2545640815446434 0.15900150983584954 0.5758239040498434 0.4514661175110858 -0.4318609359903716 -0.07277234800351354 6.7647181914460436e-6 0.0001431501989865309 0.006720791003009017 -0.0137694916487234 -0.15635018475595655 0.40120070052180945 -0.164677187798135 -0.004336530995481411 -0.05488435278408181 0.04151410181128791 -0.22977287929719994 0.025434956208528894 -0.020945977639963476 0.1829101173164199 -0.013249298275587837 -0.003258378433413339 0.0004023389976340965 0.27589824609282193 0.1149730685840637 0.45707049490568374 -0.5118256881604858 -0.25087135961712204 0.03125288094752808 0.8912715700337512 0.005259914787965679 -0.016258484938108223 -0.004850289835035892 0.0081158134047738 -1.1745531188838233e-5 0.3795652796264914 0.015812068036548256 0.20759246055590252 0.07711939145366781 -0.187366452479897 -0.1456949292880346 0.7076959339308824 -0.7214198777199863 -0.12490239416574898 -0.36708756168569806 -0.5105866571480674 -0.015527354960382645 -1.400927567008947 -0.8422133443726031 -0.30633364883172204 0.4812976827837458 0.11382888977597498 -0.5564949832211978 0.4445163309746019 -0.0001151301451895002 0.005526248893073737 -0.00015406954523487212 -0.0041474545289102065 -0.34397046564731387 0.06659411810989062 0.0598248741483742 -0.06407172388804891 0.1774636983102631 -0.04134025595237452 0.09422435411635702 -0.8594898890428393 -0.7146004606055456 -0.48492932772096203 0.05132463795321916 -0.3994834562758374 0.28303008308538524 -0.10278902951993107 0.008897203915672594 -1.0086076424479564 -0.17967495423699092 0.4473917737244419 0.07816905456446573 0.08650331939514155 -0.4252945524777689 0.13139254950763227 -0.27070176043927774 0.33785157713263636 0.5624229460558645 0.1871763605891855 0.6865188366101767 0.2812975042576251 -0.15609907830710532 -0.00452341448871063 0.0001453080124370036 0.0022546120463408535 -0.0017204801149569473 -0.9353352030738233 0.1875011074546248 -0.13906579321540177 0.16758577505510935; -0.044870837671566195 -0.2976895907340659 0.33967241990409386 -0.35778649599290147 -0.0002752139671960702 -0.0020671566611623585 0.0014079495830183744 -0.36238820164196067 0.05675854955749193 0.04151114892517724 0.00033859243981978907 0.0001089801014804379 0.031820384097280476 -0.45489793530106787 -0.1268045553984455 0.4344232469373933 -0.07962697254058781 -0.10941800724462279 -0.27302044649455914 0.0037648982099388315 -0.007400506633485816 -0.2284295207225104 0.05817942306869449 0.5400826400198339 -0.8768238273453816 -0.1432920527783436 -0.33221638216855276 0.3160356522824697 -0.038495477978651126 0.009914423410084233 -6.546880711511257e-5 0.31383780464164646 -0.4463595814688156 -0.07723959161803695 -0.0026934442824108665 1.4493817935416346e-5 0.005306370963973429 0.08627357952202273 0.544258046755332 0.1956451767627637 0.1966581544699934 -0.0074436574142892654 -0.29020910856209575 0.0032507724137343535 0.0013975018324115871 -0.04013713453789334 0.2907649663926069 -0.001328766396628022 0.3603195489831079 1.2653334275545634 -1.3674045344551875 0.01768932429644349 -0.2713620182043712 -0.7370268799327045 -0.64543215358783 0.26913684725294307 -0.04374729842028984 -0.4885237105208642 1.1219833855699788 -0.43699910639475054 -0.01603398939612869 -0.033684501727474295 0.10165721600848829 -0.5190860093305633 -0.3721859282507259 0.04624528229328322 -0.024339145618047727 0.005444720719267695 -3.8465866397186855e-6 -0.0008553479747885149 0.0034804564920300858 0.7323648412972326 -0.0017714478718755156 -0.14088588044248487 0.002672986449000928 -0.16764168474039695 0.0006541229358319556 0.020773302624408876 0.4119917786792501 0.7484711046613476 0.28257154786819244 0.36065008457437164 0.2254835722028923 0.09181720185704274 0.05915838495578664 -0.38413513068833005 0.1872110374863584 -0.223417344932941 0.14849094303586544 -0.06829288858693727 -0.22757846911627622 0.394720244888779 -0.457320227323675 -0.024049700675899024 -0.6389857275422862 0.3265023266289736 -0.453985028034481 0.31162084150058417 -0.43638429557541003 -0.06938476102039959 0.028921804743939124 0.0011105134975949906 0.0005288394113838255 -0.006752050703158546 0.5712096156345134 -0.08398113698355067 0.4052354150300617 0.4994388108481105; -0.44955790204835105 -0.014890811848925687 0.5070783100466333 0.30653070669359295 0.041777939319394684 -0.0009871690898672007 0.0013304889003693495 0.2623101261430599 -0.029138781519829866 -0.2421980396790814 0.0005248400458173447 -0.0010063727087538644 -0.005749798408992664 0.29808759167186893 -0.004160869503056769 -0.8120386926313653 0.1519278017648459 0.4235907212997147 0.003910799797483593 0.04194514852783629 5.0494327374870344e-5 -0.01804092026892713 -0.03310492061757038 -0.0732204113611418 0.0929870957982406 0.13912147138685488 0.5669695989710342 -0.2828952075618336 -0.35246155205246904 0.2353107268852126 -0.02687814678073795 -0.5053684868978854 -0.8325247642304183 -0.0697664441602038 -0.0017546718671053283 -0.006307352025365626 0.01689161808076111 -0.4772910626653834 -0.15343914295552374 0.3060593159243394 -0.2800957911934606 0.0039091048355799195 -0.0006216801591604108 1.0601070965758635e-5 0.015040172383582675 -5.2560318331948995e-5 -0.004793216265677163 -0.000625202030066156 -0.7179548133118521 -1.4503024732866538 0.44327377735539253 0.4873394557316067 0.08923316961572396 -0.22200695409491442 -0.39977728881324026 0.011482828679227623 0.03901048240157034 0.0472746135627539 -0.17181860429025644 0.2928332341293941 0.31837819281241064 -0.12739848832112677 -0.07170891723252301 0.0852737921885777 -0.3578421362099352 0.7338316224964833 -0.18660115033700786 0.0036995246688880175 -0.0049099618367920905 6.960983079851725e-5 -0.0006843486133636468 -0.3893632494281591 -0.017851725679779804 0.013307140327330895 -0.3665242030441058 -0.013555009301029914 0.04628355148368554 -0.2582855759128879 0.22922454199636383 -0.13862176206278504 0.11563698549083384 -0.27056888998013245 0.003863767478871172 -0.005873337794658382 0.2226252534866928 0.15209077260130083 0.3751121156026039 0.30664898548099595 -0.3850027360857093 0.2772968788149914 -0.0061024449090301205 0.39694491028692724 0.0723825457491256 -0.3864100244771087 0.48356799782324544 -0.5667406733048382 0.8212131016256558 -0.1125987135691604 -0.007625255818607466 -0.3440518983589199 -0.003485864579634154 -0.02651023640442998 -0.0074631135262613205 0.0038313880462524084 -0.04411558468881246 -0.01859836253055972 0.027214280717121456 -0.44239616328876696; -0.0019757194972634374 -0.0003960465413494831 -0.006058328737156003 0.0021069558147402767 -0.006877815414989538 -0.0005783715813892317 0.0003366194069844723 0.003696639204143694 0.008056400690762114 -0.0011466178788582134 -0.00023570843790916195 -0.00016953414283231108 0.020996702908187594 -0.05079624336859982 7.921904596193206e-5 -0.00022040295247925537 -0.00010726161667465954 0.0005978994422704816 0.000773816786295716 0.0049878505937858576 -0.00023794509945677836 0.006439167744284749 -0.007766030365049989 0.24254748583112815 0.29693423423804977 0.1169919515100308 -0.00011789399555590995 0.1877845242725562 0.2773301308110826 0.006583357942762197 0.002283456601589369 0.0009956952352707864 0.00010562089953129931 0.00031505765874927 -0.0008085273460341197 0.0014267559260810931 -4.30459952313843e-5 -0.00030766578416710017 0.0005466033780614704 0.0019043835935550315 0.4994868454800906 0.007450646537315803 1.9862422934299436e-5 0.00286836117763547 -2.343614477221033e-6 0.00015222605033225663 3.62881878616642e-5 0.002170687756185503 -0.0023594760436326107 0.0010572351544463252 0.030510577174824298 -0.022215204350795128 0.26750271025439915 0.7099000650501746 0.45517452257971297 0.8113032719241714 0.45633992480579827 1.0847818715917235 -0.1358035962039949 0.40306000076642745 1.133659130201885 0.4628183865452465 0.2556997225232809 -0.0123746374703508 0.2244616090560889 -0.4798332993368485 -0.002974885189698756 -0.006144785612976901 0.001843250595599928 0.00013836713599680605 0.00105665024329668 0.0008955588303940157 9.10513255605944e-5 -0.00434388131693976 -0.009679532153741061 0.013950425989068848 0.0051962710595371405 -0.005102507209727393 -0.21450092097942958 0.018903506442211355 -0.3592522584307814 -0.13822850581548957 -0.23422936014028906 0.008084858809762143 -0.0030527161981203717 0.060501764231005006 0.25321805633451466 -0.008385320195918967 -0.11055615376312515 -0.07635583894954806 -0.245554380092332 -0.26326577198396856 0.01831332674701414 0.0032183659127577916 -0.19111314940550908 -0.15462125666333967 -0.5387971787847156 -0.2541014469203849 0.024230832825552547 0.0034295556940243887 0.0021962760418737072 0.011272987073530496 0.004502235218791847 0.008337053407949258 0.0024472106470098424 -0.019309206401868693 -0.001622151039072922 0.002271669966093191;;; -0.18006040069787074 0.02302180213593769 -0.2884978038529932 0.00840221364284484 -0.06197614804687866 -0.0027586076785138737 -0.24465545939718558 -0.03343189677506149 -0.20186228893597255 -0.33701927443491536 3.1508230989683175e-5 -0.003351474140474228 -0.0940726150855326 -0.1276868728990096 -0.4131861727012794 0.9826138739091184 -0.04387588414396538 -0.0032110128385283427 -0.5155804151607305 -0.005797416411706308 -0.3690079193318226 -0.026926284012781843 0.1477486024683613 -0.250005942443011 -0.23375536618912268 0.2583945378400336 0.15169645649597976 0.3868898435339893 0.26027644183691057 0.006493001943511806 0.0004849275279855287 -0.17752860785251987 0.06673676362323284 -0.36431856212733443 -0.003175324842748077 0.007658712641301415 -0.11432951416385065 -0.030197583580554282 -0.006101807920557129 -0.12977905288499225 1.465594572622547 0.1330044015284999 -0.18483421627425378 -0.06508634204468992 0.0002366783010064481 0.00048649439897590827 -0.0188416291764277 -0.000774851097202946 -0.11871664050072128 0.48106715375972786 -0.2599989165101806 -0.11431857760946071 -0.3319986134976525 -0.24387425374847388 0.06341981490644868 0.20321359260366054 0.15698402668304984 -0.16280818389959126 0.01616364998978193 0.35673067424092264 0.07322276392755858 -0.08072972388681829 0.3669490497009022 -0.5741959442878094 0.00437423594572471 -0.49385750597001343 -0.6638805992048469 0.04574366711007563 -0.004573789123461692 5.498481791546536e-5 -3.0718860342383354e-5 0.0028245604712226384 0.6843640333485929 0.36761647067422343 0.0863617631081808 0.00208112318213399 -0.2139309105912777 -0.0033787111873127954 -0.41906295824796963 -0.21930682813869493 0.1749781798034238 0.03450704030389472 0.4550114685082956 0.5990743104493885 -0.005740564610807993 -0.4110338870954656 0.03509633508076595 -0.13890679934172262 0.3712656899900189 -0.0010720300608963154 0.13545095763228465 0.14708386098039508 -0.3264565967000216 0.1885526958732275 -0.5708397644487332 -0.6150676047676816 -0.6362295725991175 -0.051924466928548255 -0.2456573536534925 0.08969231262096826 -0.616073757281725 0.011308975191603766 0.0002151191943165335 -0.03137670795070373 -0.309466597483958 -0.004807380788673209 0.572164997393424 0.31687395826117487; -0.09240514441718016 -0.04348638054666157 -0.405156242302703 0.11289328285405915 0.14393610262816325 0.0003054396357256294 0.0007655662326581325 1.0451112247494536 0.9982099975411701 0.7105181819806174 6.370623840028686e-5 0.002429227991526809 -0.2728580102801621 -0.5803423970309181 0.007177404674862761 -0.08940821529814648 0.31403079356141583 -0.12076974426350076 0.1531401547240079 0.0010311010689236428 -0.00023944707882683894 -0.08445945766730424 -0.879055943403598 0.019880155406062194 -0.1970052395801388 0.8194119263102334 -0.2041834125010983 -0.0003403145800600136 0.7510965208705509 0.157686823586982 0.04560332320233367 0.07165240841972702 -0.12598012063663058 0.11192243831552373 -0.0005190516803071087 -0.0036626596955231464 -0.06074647351674196 -0.1924280896872885 -0.6968382088002744 0.2529619946337302 -0.5157146775489487 0.5809403414970092 -0.041746459550946725 0.0024679918222124315 0.0009996435015561477 -0.0003237525058643965 -0.014893563023705382 0.002186189232731366 0.3435356686052111 -0.5249169444343347 -0.2236846001544776 0.38366884953507546 -0.022481218062505855 0.11333242713391047 0.004245267049945793 0.15980424780240132 0.2308500050556686 0.31499299858310187 -0.14238535752051854 -0.47597780459926475 0.18179437111354174 0.34310265429546444 -1.0297455727576448 1.2892882252298068 0.5177148082247066 0.18828688342152855 -0.2012437174340797 -0.00016098810639026475 -0.00018627020787348987 -0.00014914598346946323 0.02894986260608645 0.33698833055182187 0.14518707949647297 -0.1637389944618212 -0.28216161209097773 0.08793516573782932 -0.06400322257936952 -0.5882095231516992 -0.27038605452557757 0.09343644723673047 -0.1459904548752789 0.3751883261927403 -0.02768762896057472 -0.8258212270800447 0.03460611753236149 0.5710556925790873 0.00028671336360921865 -0.30759456275703206 -0.26216105171129855 -0.31849077016435123 -0.12053791611570182 0.06681787225704264 0.7197836098751644 -0.5983817361078498 0.1889760130716593 -0.14918885763624515 -0.025270038490714263 -0.8169169903744514 -0.1631605702731581 -0.01295853097265148 -0.0017102418803044217 0.00015295924075794378 0.00019821240063527324 0.0008334518851128794 0.003969980836424537 0.18097863186177118 -0.01131778397957246 -0.02143687638469511; 0.3262367178607154 -0.11372093281372542 -0.010820416738810066 0.005691321157289571 0.0002038624470650719 0.0013612223259884613 -0.0012395949870434631 -0.7553277708310713 -0.10042659929233227 -0.33980929136260873 0.336261245253049 -2.608852549142692e-5 0.5702822755227301 -0.32813902995739447 0.3765468479827137 -0.8801582496441744 -0.1909087807047641 0.1647833453374318 0.35747043910268395 -0.0010970822833848554 0.36893745725061755 0.11112466552107043 0.5099354787531275 0.5956174405331142 0.34903172782215813 -0.699889724240791 0.09748879156978166 0.022024546325208425 -1.0267050600559506 -0.04855830916698351 -6.130725042262911e-5 0.0348339710266287 0.07353705820807661 0.001659472151823494 0.006403481116466589 1.0794741406560479e-5 -8.566566653182058e-6 0.23929698000632083 -0.0038056885630280268 0.009691071012297743 -0.41001735190742566 -0.022589753771373178 0.21948539514897275 0.06353614449717755 -0.0003069365302404898 0.0003211585439271626 0.033833062781244476 -0.0001344848545839036 0.31793583645339957 -0.05845449283950579 -0.07996412882770466 0.11175062192514933 -0.5727029430066889 -0.16643020633412153 -0.28521436072868595 -0.3946591202787837 -0.08089750926931126 -0.14342816667515826 -0.009266975287735946 0.14831504503880844 -0.01749761962538822 -0.74324578444939 0.8915436576138038 -0.6648360246814892 -0.12982674213292542 -0.06832587615579502 0.36383585189613055 -0.05538868806943958 9.769878614048637e-6 -0.007347903803476439 -0.002917095526550008 -0.031091414102286746 -0.5391423133394496 -0.19324576934396634 -0.13821249622056161 -0.2046619711310658 -0.10850977672016018 0.00387505171106124 0.6824128215516297 -0.5883272011687477 -0.06227628571686741 -0.48015339796083467 -0.1304149555210959 0.38014373494289594 0.3098232030188902 0.04349452023088343 0.06900425583983223 0.21028660805314103 0.1231903633627079 0.39489577371132284 0.005613991753603135 0.38119232807112313 -0.010973765828176107 -0.2565775924756687 -0.3984564468408783 -0.01151925994862325 -0.06471517848773443 0.07626554722083631 0.19330594379107993 -0.2784607436495463 0.3880195870227176 -0.00022428658228770116 0.0009804308257568466 0.037464797657934125 0.05147273166724291 -0.19164458303663373 -0.16553209551970066 -0.027195493964679778; -0.054893915508046474 0.13356294677504024 0.7043883347956444 -0.12554376362627934 -0.08104668810875004 -0.0008170905602453279 0.24756372753163727 -0.25445379047894684 -0.6940935638089171 0.35326035405655404 -0.002033004621736736 0.0009579077362025723 -0.0065963833457373874 1.0384588999233382 0.029467498471666423 -0.012959081896583107 -0.07927982259439553 -0.03066700698037024 0.0039509504831606035 0.006620177484951531 -0.00016849334749512653 0.0013445280319963825 0.2006480637624609 -0.15122029534144366 0.059893538742230704 -0.3876345165315865 0.015279570481477057 -0.42041119018781387 -0.004674262615017707 -0.11087273111151083 -0.05236182906173342 0.07154543732231299 -0.014405368004737741 0.25016205487116794 -0.0017662939940437693 -0.0014216955397515331 0.174663256977195 -0.01658708358699514 0.706701318778573 -0.13911577837864791 -0.834864340623201 -0.11094879338615789 0.007248795290000396 -4.588214863217738e-5 -0.0009889855995576658 -0.000623361567338515 2.337939713465074e-5 -0.0013791950585254134 -0.6478876300905296 -0.02719481546359051 0.4091113065925243 -0.13053661593464497 0.9252298572102847 0.008420130917186143 0.14109036389782037 0.14084686398063864 -0.07737820424803729 0.391924134173327 0.0035424280573305273 0.06730994874398553 -0.6283413562275753 0.4768834632367682 -0.3522283110449494 0.07477912901372755 -0.39036703884160107 0.03445668866305964 0.22479448231468385 -0.001359174804601948 0.003923728716967282 0.00014267929916622727 -0.03396597443227581 -0.3165078036392397 -0.28394557559556094 0.0009830994090783188 0.3312423816078536 0.04025849489510407 0.36727198047316784 0.5800017624549045 0.09153177381730242 0.21865834653535235 -0.5445890831904964 -0.41031256189080867 -0.8319849982203207 -0.3403849924565423 -0.40249937494141497 -0.3303696130727846 -0.11982938818520901 0.2802689857339717 -0.13143615310453777 0.004751596810054406 -0.0017144333926553082 -0.8521640232855329 -0.6130911310588665 0.5777193195872817 0.1316227755806876 -0.01999901721718733 -0.000777375181389886 0.22285419939817847 -0.20441880007602295 -0.03866285189831487 0.0014533729406957297 -0.02674892036434574 -0.01197382628293781 -0.017364208599671662 0.24515906869321014 -0.007407604635356422 -0.40856304597684145 -0.4721965774251064; 0.0011227427623819706 0.0006225644494090483 8.61280988617816e-5 -0.001443054027914238 -0.0011171289195996148 0.001909036277045111 -0.0024342393800663733 -0.0018977666643740481 -0.001827545503948239 -0.3869499702396472 -0.33432345510070216 -9.573061763727153e-6 -0.196755266811298 -0.0022906000360160606 -5.5784279634654265e-6 -8.83270702144084e-5 3.3693881709211994e-5 -0.010135581255032423 0.0010188708508780558 -0.0007567798587840107 0.0004784025075270265 -0.0010834518729807292 0.020723798419648543 -0.21427135815472173 0.02183533920487264 0.009717776622110413 -0.060281406046140185 0.011837114908676196 0.02000635996350703 -0.004748785251999443 0.006334885581836856 -0.0005032089161488308 0.00011166681005884963 0.000574596788819353 -0.0009428105993676343 -0.0025851521474332963 0.0004212972700507734 -8.422315148291863e-5 4.43865052864875e-5 0.006241765617612215 0.2950017974570283 -0.580406195867978 -0.00015351461377263766 -0.0008719121260678946 5.960032723555996e-5 0.00013946113029984078 -0.0001212499782460422 0.00010234177758089693 0.10513276553264023 0.12949909897770312 0.1545363388998386 -0.25056427791611907 0.0019529173565624944 0.2885519020314988 0.0764589148744711 -0.10920558410791684 -0.2295583182213699 -0.4006807821816793 0.13194625476114202 -0.09637786342445193 0.39082184081186316 0.003989390803975644 0.12348117648788803 -0.12503538527423574 -0.0018952631959048276 0.33943981004122026 0.27649398242811224 0.011165183870356159 0.0008265607357538515 0.0072993856698642095 0.007963926213081748 0.00778632671848198 -0.006463223910055345 -0.011614806277514236 0.00276996359550492 0.07438718731599839 0.01917192941763954 0.007711420173046216 -0.08449558259538495 0.4955392355353599 0.5778776439792189 0.4807705933550083 0.5350761141936957 0.18698817414430263 0.06381061900097126 0.1268532873582795 0.01544208390100162 -0.04405423168835802 -0.10085884853689053 -0.08008457029612968 -0.018812599877530662 0.2570699619769721 0.23073788371189977 0.08868731312300933 0.6486974226372645 0.7957747395697374 0.726992164758956 0.5697217106839848 0.4199307802115936 0.2403898138995444 0.2283110391986161 0.015511272514271729 0.010580063862229157 0.010442667007328378 0.008864816287080435 0.022880936598892156 0.013247928082690565 0.2039549895133064;;; 0.13160705791137656 0.05078790222296636 -0.1820300223986756 -0.28431900185745673 0.0039013100557404113 0.007475302928695558 0.002178168666981463 0.6093775507181614 -0.26343663764145275 -0.09409117852609618 0.0022763928088470895 -0.009228389688361024 0.15012225613717148 -0.11394531661796031 -0.6369913316124983 -0.22672469161058406 0.01711542517654969 -0.009719287880439634 0.09253208178020793 -0.0008417946464799516 0.12441024602786838 0.00374465072213626 0.001561648485968545 0.32141875496952016 -0.1075382741744017 -0.009958515388117078 0.6034294311546122 0.07810189886936943 0.012446505290748476 0.005356584976160358 -0.001361905029170099 -0.3111320746216821 -0.1552767736992747 0.5552739964623278 0.009640507200003957 -0.002967885795815569 -0.08138053702636605 0.25167495365957476 0.021191436039930088 0.11167812689831964 0.23219382677823894 0.3334685659978093 0.14004106758679022 0.21814104207164614 0.001244624708425603 0.2111957448815703 -0.0059152248995001325 -0.002641270495136025 -0.650652162710798 0.6692827802688333 0.1552211891159722 -0.18398128246709503 -0.17597652416863002 -0.013750403742187563 0.229412096577173 -0.19903086244122553 -0.17168066127641612 -0.4696350355176822 -0.13459493124692778 -0.004340020489405202 0.24878844993005697 -0.32398473290959556 0.3005346028899207 -0.44751908571654553 -0.11470200657920594 0.08992329984736924 -0.007889471549724116 0.009448679927831794 0.008971530546682906 -0.0006063170842497153 0.0002629017978140954 -0.020766361090359235 -0.49812453130277345 -0.03195951846300332 0.4360034195196963 -0.8199530090642615 -0.017457676061976752 -0.28174078498085703 -0.4845475947409649 0.006125953517861871 0.22146609256424704 -0.488262482267965 -0.28043342697534107 -0.2787869016020399 -0.1688275263104818 -0.08818367308102111 -0.0998412152850737 -0.406748909903714 0.016765989762643718 0.13611688011371367 0.5820871558532342 0.07152986793189245 0.382626026639064 -0.1764322060551673 0.3270557858082339 0.09901119882340108 -0.5612035973686215 0.7772256153535134 -0.3351787613380433 0.11113982667095353 -0.16257210361703242 -0.0037721263984973235 -0.00013597023480699014 0.6344014642199658 0.3241903232819667 -0.4356992599454802 -0.013533790756024847 -0.40209896333613565; -0.09278494581829301 -0.07715669482014358 -0.059007368811640426 0.0032481291638631216 -0.34671837256292987 -0.05701607996019427 -0.0020863762548444112 -0.5092110482945239 0.08714834543920323 -0.8132295509675327 9.658852714984086e-5 0.00588004247482271 -0.00352275577937439 -0.33170724272562785 0.4497405839656485 0.03467625701938862 -0.975074628735778 -0.19833601799783565 0.012716421155785428 -0.00032268817830877097 -0.00010607515435208477 0.014481142470542113 0.00932703138592075 0.2290294595808332 0.18957387805590806 0.8631592995335591 0.00011975308900529871 0.5597115489944353 -0.19720822650418432 -0.005742088851688656 -0.055790167049766824 -0.1116714625156413 0.007118359165729882 0.044758164998382304 -0.0026105254236753086 0.001187507129223764 -0.2673036024042913 0.269931686484928 0.21551111872862094 0.05092937848853587 0.9549211898607519 -0.4110418730358699 0.013755153648191965 0.38608876629575917 -0.0012442149817599652 -0.00043914875382468653 0.00011381381750505545 0.0020804468484615928 0.24749685663267648 -0.2756798870578298 0.2642565352341144 -0.29887351483323127 0.6766703174397932 0.2934874894408303 0.3521619451137775 0.0020964696096143405 0.20595939300197222 -0.08711673647207366 -0.7782082193615191 0.09559799893043192 -0.25662966433561607 -0.005610523720577783 -1.093612020368361 0.5829384436466998 -0.02588075336196536 -0.09255365237288332 0.007953860793837432 -0.002477598730777635 -0.141975171473264 -0.00020735388377832222 -0.15470096897981864 -0.34047838296729055 0.721973221073991 -0.113054482273231 0.22050918075011625 0.6780850845389959 -0.7438821595804183 -0.6396794036962388 -0.44395443376478955 -0.1191988792245398 0.10372634298022314 0.5495993415358609 0.651087776964631 -0.27358569751110473 0.09831821429248289 -0.7892551107320108 0.31467857068259997 0.8038014178089307 -0.2335385731441311 0.007981086034690624 -0.10745584404776684 -0.08863495625478944 -0.24136082406508477 0.576900545052057 -0.21082867197206973 -0.21760040032872371 0.44995797868189563 -0.35849855548645887 -0.1424147983463774 0.11271984260076827 -0.12935897762514229 2.0695402543719865e-5 0.0018520070650829281 -0.0009074292454860842 -0.12023897835163956 -0.23330959917495384 -0.44344082571652516 0.004586815516096297; 0.21134700380790414 0.0884233111395143 -0.02703330799272111 0.0034375826956246345 -0.0022220889484487875 0.05107325024286569 0.000638007018994844 0.024543556466436897 -0.13143309046181575 0.009365686922263167 -0.004179750071357519 0.000275008823981968 -0.3285526418755319 0.783854156972413 -0.08971119234469323 0.18366564160064539 0.4508658844529872 0.19735754976263886 -0.30060739118400087 -0.0006518442134774135 -0.12328135605621748 -0.015056692218442438 -0.07308902870901568 0.18249088684891637 0.2762245178567569 -0.23661189670253877 -0.3256301807141726 -0.6280325571554647 0.2002273346381707 0.0043103107772487085 0.00024129164295517627 0.1843327750427868 -0.558638160167723 0.023976542091730387 -0.04117766975260553 -0.00011068263944558583 0.14421642637322793 -0.5472717608525249 0.030668671543042265 0.5682702035963855 -0.7034434780994627 0.019175912902957695 -0.1434989946223464 -0.6051253282329125 -0.0011969784024862752 -0.21049298807988873 0.003919419218956143 -0.0005224689053795479 0.41479836489646116 0.3340431392584491 -0.4270801860410248 0.47587520911627296 -0.9997940742405351 0.13235109646573975 -0.5768151502950541 0.007408148801429397 -0.5493372678508728 -0.020638433023242166 0.47919704537130503 0.020507546384828667 -0.05511454396362936 -0.21404755887125834 0.7028686896376795 -0.6948601298514692 0.010473559132047495 -0.4386592335184832 0.014068799476488746 -0.019876180456053952 5.3669991684747426e-5 -0.014636934721316818 0.337081953168652 0.259444799818628 -0.16553675357222292 -0.007053574410889347 -0.6826313724894517 0.00793666503723532 0.590239113272342 0.131601023930008 0.918797292590047 0.007570309153995101 0.3427445570105327 -0.42471046190954265 -0.4256317678708285 0.5501609740041535 -0.32167247432720064 0.26721445595950477 -0.19612980576188993 -0.0060085769226621705 0.5804492955090873 0.17068113618264316 -0.23407753158963523 -0.18096218493225877 0.09317244821264764 -0.009637095801726208 0.17069060352753224 0.473661228204446 0.12047220508449777 0.2833343505159094 -0.06340159685222926 -0.19622164081739357 -0.05321712848679938 -0.0003597772883805394 -0.001637638002421921 -0.6602710464107661 -0.013678341452564975 0.1056410838094672 -0.14577765151722522 0.39936594727244884; -0.2557889979419126 -0.06798513397613992 0.2693060626158893 0.27878939726277396 0.3423624345077975 -0.004555575604650518 -0.0007963664808797226 -0.12080149426024565 0.3086568096617065 0.8973329356989018 -0.00019316995645490755 0.0027517137301976227 0.1807766304742642 -0.33707626861098955 0.27680029508632326 0.008442248186511164 0.5073662345851115 0.002190654913490243 0.19438818859189894 0.0018595437083348523 -0.001047372296203645 -0.002762327444446629 0.08184548693243288 -0.7277755437291975 -0.3372940504473815 -0.6018886547544261 -0.26586310086979764 0.009431572616957375 0.002450531131887842 -0.0037184221386159177 0.05672300045515693 0.24173362794822606 0.7068067262609669 -0.6237560435447809 0.03492044068811252 -7.685531191018821e-5 0.20504306102214312 0.025739806135463422 -0.2686436721962889 -0.726174803605038 0.7917818788980869 0.011012920801228149 -0.010511188036187592 0.0002750861621149184 0.0009676827074998778 -0.00016108852753379398 0.0017078789607249782 0.0009727045885928507 -0.012631669235590788 -0.6851093220254572 -0.007950637208433062 0.20547045611485734 0.9784876324601269 -0.060972708861577914 -0.14854506764633946 -0.10614087805637684 0.1457451490257146 0.0688911030402778 0.12383145207077226 -0.29799516945764115 0.09236091169639336 0.7806523870385389 -0.0805874035237093 0.6584530029400314 -0.035142294741005026 0.06624744751007441 -0.018386731168529645 -0.0021935687672736915 0.005116227303206017 -0.0003802673554368698 -0.18780924527610385 0.09451430356199478 -0.065263409616735 0.14365279767328987 0.02527970967668979 0.11599851263646392 0.20998639905551386 0.7963177135220691 0.00811705277061714 0.10327020817447394 -0.6719809722509602 0.3433610896745342 0.03151090588938315 -0.10016607210176785 0.39189424117423877 0.1904871442936589 -0.34532570231890397 -0.7800232949523049 -0.4366876143805184 -0.10353880867573824 0.17740077002623095 0.19057445251427507 -0.3843603564450099 -0.5926007767187637 -0.401481859715051 -0.36541943323424914 -0.014873116257906084 -1.2975159419593933 0.06918922103272089 -0.031652517825483416 0.32461920493636814 -0.0006814507724389103 -0.03341535405452834 0.003441348251396927 -0.20914884202181994 0.5469639929100368 0.6039523762608701 -0.00447955616428135; 0.005619882040924947 0.005930615433802831 -0.0012353634128521706 -0.0011561072648049986 0.0026767169478407555 0.0030231023932835357 6.656704974782687e-5 -0.0039085646298288625 -0.0009354269976412483 0.0006221068724638892 0.001999938691815496 0.00032162465935872437 0.0011765110434706191 -0.0011253290178352892 0.00016164490521975735 -5.9455195961095894e-5 -0.0002729154788703858 0.00850710120214618 0.0009706996561085538 -4.321667006871634e-5 2.455747890483532e-5 -0.00040677352978930593 -0.019645138095306488 -0.00516355767007211 -0.020966071290881752 -0.014700232688477099 -0.012055902659647262 -0.0192124633252975 -0.01791614455662269 -0.000206384763104493 0.00018777998082481224 -0.003262865853689503 -1.0151559698955224e-5 -0.0002526600076594749 -0.000772752711835651 0.001967916617947578 -0.0005753479647136815 -7.468542744126243e-5 0.0012724458846955652 -0.004702905378202922 -1.2754534174376153 0.04738447333387483 0.00021396142355180364 0.0006204337033923657 0.0002288859683207598 -0.0001025195203230753 0.00017411290231395554 0.00011058796346112978 0.0009886104172510675 -0.04253671044399525 0.015553098899371232 -0.198490867930804 -0.47938735149075534 -0.3511154733028045 0.14378617625044315 0.2956671220865586 0.3693133870996022 0.5084991019727202 0.3097746531663695 0.18622964463178573 -0.02940515332720492 -0.23700957153710722 0.17079613136447014 -0.0990122310187162 0.16525149555012883 0.3750421385339229 0.004253542447927582 0.015098668026273483 0.1278337436316903 0.015830873044781726 0.005165359289456372 0.00728564067702702 0.00695147341774042 0.008414777473833812 0.0008390625429493528 0.017932746851566466 -0.0388856766854609 -0.006498548774981397 0.0015876831450903452 0.002232408378208899 0.004043979695957276 0.020012512967112435 0.023466511992155433 0.1023776972107589 0.0002875451709608518 0.4197371835598682 0.3266181526832676 0.3889793639697504 0.07301090225291842 -0.21124029365530922 -0.41795455024206307 0.007492820740880675 0.14992270565838306 0.20176953352360014 0.11456414235135451 0.01034740653512569 0.005646529860134175 0.5954545315764295 0.4718059355039291 0.004014489371155205 0.02052900479260598 0.004792659056773054 0.03333695522667432 0.023335663184889447 0.01887583854405778 0.016403782400930024 -0.0012001082710948136 0.0026257567118718127;;; -0.25087004394762835 0.14865663920730215 -0.0070045530572240364 -0.15410022761917544 -0.3971821742192897 0.009690166413848122 -0.002538516728109602 0.05211123389219699 0.2000024216217957 0.6088133991997653 0.0014865195527248567 -0.1411556009776526 -0.2918281269376113 0.010216263305359626 -0.009951283400588996 0.41955370616787296 -0.5781072131905884 0.2517919408363063 -0.07414750489085194 0.005602019726703607 0.004470340669633852 -0.27872165681617045 0.0012766542368620043 -0.04019453135087048 0.07464818171329929 -0.18425172135929732 -0.06033721337433448 0.004696941651941596 -0.00787549034987646 0.0032386658338005316 -0.0028336282830181358 -0.8373621712524779 -0.30966853228458524 0.15144982915274982 -0.00024756558122266363 -0.0802053774713628 0.05151508130985956 0.008894090780341746 0.001451055545268374 0.032557570545561916 0.0009029889455985766 -0.49421311331497714 -0.13604190077509803 -0.01923756242864334 -0.0013847014635306246 0.001962635200454182 -0.3119633088210241 0.016731642491924197 0.1481499379549418 0.434928163425207 -0.028881099976008098 0.1645020573480879 0.10370596109532614 -0.3113863367027528 0.08442003304418269 0.7212241646632753 0.206766574433691 0.12301185291301969 0.10240314208874694 -0.7035680570018878 -0.8952608195478505 0.5264208653272731 0.13566592861716373 -0.5154739206451375 0.5647139254656329 0.2974060466976587 -0.6020327236153306 -0.1913652715088933 -0.001038699247340721 0.0013691504372599105 9.1802400146984e-6 -0.004311230066121943 -0.4963729137216538 -0.17936446073216633 -0.31393901708740846 0.47218267930972263 -0.002493629894084333 -0.4044373452713329 -0.652079489826593 -0.13113732500296665 -0.0947076012031358 0.15985329872355775 0.4401759677710389 -0.10064045133488994 0.32205662807727364 0.008314890191560486 0.051484426598915896 -0.42240869788683955 -0.3698598404951066 -0.0930100134898966 -0.0087441358516707 -0.1974909724433462 0.005008716045127171 0.1997174826688895 -0.8164613971231063 -0.009626601852427034 -0.629882547231838 0.5912728026014759 0.32715582734351883 -0.023913411112955064 0.542423154010824 0.04829242804917558 0.00014693473983599638 -0.07011731478781161 -0.7746367595210855 0.40588562392310334 0.005058613333251204 -0.034597800540814724; 0.5966309011712316 -0.1408738848665389 -0.006730448371588104 0.550064287035848 0.11597055466035237 -0.0027656686553266677 -0.0005833265699120953 -0.6388172352816028 0.17739812211232642 0.3308921064867403 0.0001216217444356497 0.014914706559257106 0.3990775104272577 0.13250466229563274 -0.01141886861272315 0.03944612352973707 0.27219009495145013 -0.47775347643956284 -0.012715710686329857 -0.003235364008373077 -0.00010591677219885502 -0.00351534503380462 -0.0009845941487855048 0.0006993401600735048 -0.13843871001969701 -0.009247526411465623 -0.0031866758314192107 0.01054732236601937 0.03799424167350152 0.29774968179125183 0.34545657953740055 0.4444779269661463 0.4461875331207596 -0.031513499624001504 -0.0018977053753483515 0.08408300444584066 -0.21748256741491098 0.664646275954296 -0.4897577602981365 0.0002691339148856151 -0.01506673784664069 0.260451129073751 0.4752655957666536 0.01983431750309195 -0.0007226585342971905 -0.0022307217842876693 -0.0005883412132220013 -0.013504141113829438 0.05169661669381359 0.11654890297715668 -0.03070176240512669 0.08951207686023825 0.43871632586532383 0.9588847693292322 -0.6648270440073799 -0.2232422118848832 0.46226815729904935 0.20146124900195633 -0.01701454288654965 0.21300434292850431 -0.023952286258407653 -0.048628061626371684 -0.4532541206944607 -0.030874285397318988 0.005051010557908156 -0.20839683662078565 0.16217664029399367 0.0010096821265414824 -0.0002750743918779413 -7.175723950793352e-5 0.16457797130900845 -0.058144094578839324 0.2854577567711266 -0.034258104100994884 0.2885924996402541 -0.45148330160924416 -0.2258272828423734 0.37803804631255605 0.01819626492807059 0.006586145275771276 0.7831554512900362 -0.6197284523195149 -0.5557901428536527 0.49611166508705984 -0.09232901134702202 0.032300798319049986 0.04370417494277995 -0.05329972320279107 0.20868894287510512 -0.28191919593637177 0.07467395117378556 -0.016172119747310996 -0.12222803903431873 -0.6835126302299391 0.7556286033447993 0.6320852096780589 -0.16068789009732262 0.3954969942017844 -0.15562109864266868 0.18354406804416729 -0.032954059430854526 0.0002627306059957082 0.007225161128487212 -0.001610421521279341 0.0028078766771315474 -0.31317311125741326 -0.2186471706281065 0.009772174986107251; -0.1874087948389999 -0.27092530745342885 -0.02370050645958522 0.0059208243894865314 -0.011228681501941276 -0.0024264587977583076 -0.0004809138705924066 0.19433971071614511 -0.37424980022073434 -0.5236920283295282 -9.855139642015919e-5 -4.430727531648647e-5 0.08009631580474708 0.29818050477538594 0.008352490558460105 -0.45507125801436193 0.6806791821635618 -0.5045372404124093 0.46581050324875983 -0.0009830688653675998 -0.0041265133786182314 0.2777973455053778 -0.04310216988554542 0.15462020553978154 0.0037411080597558456 0.035594792309835296 -0.003660569008340709 -0.01322703349801657 0.004928534361789077 0.009010748979236297 9.907210622234626e-5 0.2967344766288331 -0.008019342111550629 -0.5018472775869465 0.5958379834409413 7.04862151049346e-5 -0.00764631701701934 -0.33615824422257745 0.1035102396368833 -0.1857306139416411 0.1604106415210571 0.1814430493845715 -0.33954998607092385 -0.004563025642038314 0.00200421335452851 5.113592759147423e-5 0.30807208566410205 -0.00029157399805487767 -0.1337501938073717 -0.646394269305945 -0.829407803309342 0.0768017209204129 0.15445021140301168 -0.1333104480104386 0.396999584520526 -0.00939820021858789 -0.025477064151048015 -0.6013426087096854 -0.19707554260136118 -0.0005072289263310359 -0.014184803087744405 -0.897649512660547 2.097771196843377 -0.05810845096777684 -0.2925212842150933 -0.5097097147189357 0.3845357758847003 0.2213984544999378 -0.0003760443260343796 0.018324097670121754 0.34715408502036427 0.40396125749525197 -0.015599025814753288 0.002236556863908824 0.021772741251344884 0.008344927148586862 -0.006083486509080333 0.33341754681556435 0.4607634292049331 -0.23354251442193444 -0.24174488473772515 0.5047820307164208 0.676854063176839 -0.481456536819902 -0.2218490604643648 0.03977094329761943 -0.3799602543300162 0.04976970596651211 0.33811062695286936 0.10321065588032742 -0.09023723380882666 0.33891716962871776 -0.35951618992477336 0.6434996995533454 -0.6264628713949454 -0.5692353791779756 0.7389747504210417 -0.42660188552767186 -0.18962188974639319 -0.5198579885352755 -0.35798477443919 -0.00041904237573563814 0.00019093678394577437 0.1818834609360112 0.9614632937924171 -0.09547958518879318 -0.08374930774003067 -0.03185197859189289; -0.0021632210639261074 0.2669548126861919 0.04066285338070016 -0.3953081878317596 0.31392726915155156 -0.0015345131702608735 0.008001382090421217 0.390870799775327 -0.004467744771675589 -0.41496739048098275 -0.0008152762271924237 0.1262726944639497 -0.1828064317789963 -0.4432003811430823 0.013281654844911237 -0.0037493110428643626 -0.3747090450305039 0.7287539073227214 -0.3830676475087755 -0.0021696525504319056 -4.9057096074932774e-5 0.0038323854230415495 0.06031059818346988 -0.09778668486149802 0.06593177446670037 0.17997975750656497 0.06667176099036332 0.012688845904799306 -0.02211215205563047 -0.30882603617593757 -0.34393974947124595 0.0985274653250919 -0.1284886175022495 0.38321863980528237 -0.5939115759082186 -0.0040127762923126 0.1750592443814218 -0.33726630098367777 0.38478536236478167 0.15138195043889216 -0.1733927651725481 -0.19420732912403144 -2.5516982441639168e-5 0.0005768125557393316 -3.7900576279066546e-5 0.00010261846954237698 0.0044079411121843975 -0.000841743238173985 -0.06911381028619598 0.0476902812905643 0.9030451315673418 -0.3843030409119342 -0.844501643851025 -0.7027221398081398 0.1792503250067821 -0.020038649632176414 -0.00883288715457099 0.28820736744596576 0.14161392415598256 0.45565765281325743 0.871562567068211 0.6301101580413738 -0.5900319530230049 0.8774526999480865 -0.31360738952783324 0.5418163414446743 0.06788113077875498 0.004660726382645192 0.06601232893095255 0.00028673787090412195 -0.5045445663899456 -0.3327971540977188 0.20896271020557705 0.014805133077349507 0.0012741898613304505 0.029626352929919733 0.23968013377442968 -0.2987112395144346 0.18775643413683346 0.638053854707501 -0.5494639139846907 0.00899580545431956 -0.5468881821290861 0.023343423838291764 -0.012566929311057342 -0.12216973381028601 -0.038273956440697886 0.05445324931029082 -0.1381028940027464 0.14121832197343415 0.22057907989002645 0.09841846612063605 0.5478137302229991 -0.14371088769310775 0.7315311195159941 -0.011103451208668302 -0.09821399796021354 -0.00012644804187046213 0.01410593931485759 0.19495331147113268 -0.11587260616717027 -0.0016040716683030014 0.014843446523618405 0.00517989227920775 -0.1491546250957046 -0.006737212671090747 0.29940714761741655 0.06405974516518578; -0.15618884132067723 -0.003812259573526362 -0.0032273454923028005 -0.00657669597439949 -0.021486968090672947 -0.002963525790502273 -0.0043986249218071136 0.0014954908979337058 0.0013170012582877993 -0.0010460868759946827 -0.0006943136735479234 1.2507229762253406e-5 -0.0045392675153972245 0.002298950766704055 -0.0002639933900591946 -0.0001792606403837798 -5.301889391970245e-5 0.0017448686929444155 0.004120359837197447 0.0007860656974689757 -0.0001888534227418315 0.0006072709215557039 -0.017500488386000962 -0.01733832948748655 -0.005882354220058492 -0.022075302045637304 0.000512697223731094 -0.014706076424743706 -0.012935133629783668 -0.0011730604283510377 0.0012177261106411557 -0.002377697667593419 -1.1041222374230556e-5 -0.0013076917470841826 0.00021886342384835352 6.466310272981688e-5 -0.0014454412593510595 -0.00011582152838252094 1.110275120315261e-5 0.0015219590423014065 0.027145872552533125 0.24652626398068603 0.0003518080618098981 0.003389458011850369 0.00014104721957837165 0.00011433218669963636 7.16232579596183e-5 -0.002094184141865894 0.0030174494448122844 0.04722692161301705 -0.014054465876865015 0.05348718578319512 0.14762914548736336 0.18853415519209896 0.00415710143588909 -0.4685451029276278 -0.6347247804271213 -0.011337860651256419 -0.029926980756818683 0.03541329018645711 0.06183534182579148 -0.2102534490817281 -1.1901510517430751 -0.27299604293785323 0.03636373771938546 -0.12111583680261173 -0.012560823342118412 -0.0357035915002312 -0.06432251096569949 -0.019908228738777855 -0.007196670179441871 -0.008708778752571944 0.017551472559703463 0.19658087489190287 0.002299586334479017 -0.05867065777898504 -0.005275734528891615 -0.00830700834235284 -0.014636638443244114 -0.27996016055837114 0.10276094863551552 -0.0539026825747831 -0.014351705965139357 0.06264189922944026 0.0046883730451705045 0.0417831020020561 0.3230456092290183 0.37148546581282765 -0.03883683533012151 0.1305002315725068 -0.1962716614033147 -0.2236725435586966 -0.07107821730903416 -0.015993664299187936 -0.044235454342741745 -0.04211977743898794 0.14980968486833257 -0.5600414632337178 0.003981221730685421 0.16527402013293063 -0.03561171397360915 -0.04653204461113265 -0.022406479175887388 -0.115335616906128 -0.04047978585275851 0.009504285194193923 -0.0020692825825305884 -0.007382141018585419;;; -0.16316198545642327 -0.45742351360671285 -0.1026405404013478 0.36047505762008997 -0.017953251904876646 0.05147375305206022 0.0004921538031015937 -0.005962167433745184 0.2041742895119427 -0.0683713413109437 -0.00011184076949802488 0.08385931048537676 0.34424189868603966 -0.6422883820677767 0.3170969391232384 -0.10929545996189338 -0.05592518320396221 0.5780923660035369 -0.2628211787602153 0.001778134598102794 -0.29811076606438003 -0.00531992348587112 0.11324072846118956 0.14040543903762825 0.005198465517130171 -0.19351406066818 -0.413703630213734 -0.7914828411934426 -0.18647204419475796 -0.026094656055107877 -0.0008941622072069175 0.05118772068935828 -0.05893150089147476 0.43230205786745535 -0.008358659045787536 -0.022123829486984155 0.15982663163672356 -0.04296917703889139 0.008845658201854387 0.41768840577742894 -0.7834638349064473 -0.0015292191343380444 0.2529481605748944 -0.6868895996111758 -1.602059387973174e-5 -0.0023800133274969465 -0.22191898952077455 -0.0004507344935272702 -0.13419631646760294 0.6173041287250804 0.19425998642956882 0.6263948488858889 0.6219164375860076 -0.21793252441761043 0.1491586564190318 0.013331520558393373 -0.25640193392594773 0.020850119579619818 -0.0686807661649626 -0.4061851845834477 0.3869076943664427 0.1925416950332137 -0.14231349791433762 0.028336903302483007 -0.04402454425990345 0.6601030682506417 -0.0031177947673406113 -0.0013381740670215842 -0.004491268802744755 0.0020499814931328516 7.672852344557606e-5 0.00860257184350036 0.5926398704875956 0.8735341853745358 0.006498301770989951 -6.697428693180746e-5 0.0034649235423905825 -0.338990912437162 0.9241800458040121 0.23725355403060486 -0.7280646114309947 -0.36514740824475617 0.49963814355554464 -0.4387514843853834 0.0009378729696777056 -0.6322185881018507 -0.2905758822037196 -0.2788292045133398 0.2182319494845348 0.02163527536845119 0.07627697535819003 0.24174103095261398 -0.07652500717050605 -0.3580717871963312 -0.6692751414550295 0.00912965654048284 0.013967286577754688 0.03464037582120771 -0.6427547003517152 -0.18293845535569872 0.002525880032380654 0.026579578422434125 -0.00037217325093810846 0.20296999147590514 0.020909383666838505 0.08065384790983786 0.30957245686180423 0.1587468859876725; 0.15419396681092593 0.7700739174815617 0.35054858063999983 -0.08549051532586999 -0.3475954621924842 -0.00036227477078080484 -0.0021342677811027316 0.20212142683573514 -0.7754933996540523 0.44574849393400356 -4.937433142232153e-5 -0.0023056633987037535 0.3506235118660986 0.9186871282139822 -1.0284915141681885 -0.30691243203635715 0.1367021122744919 -0.3402911619915409 0.010026603799912872 0.00022036819869776026 8.933711870660377e-5 0.01077248706253331 -0.013308347602977715 0.502736474193202 -1.084000826406653 -0.00028420874277206227 0.002476424368552065 -0.005718524528128877 0.17858181902353518 0.015441254101497017 0.18405920444308693 -0.0016194438156177167 0.8897093290306896 -0.14822502964591583 0.00022506718881864515 0.026887387911561398 -0.1986030111164213 0.04907465784084301 0.3807991231704636 0.5398676810839332 -0.279174464943893 -0.3538260996061297 0.0012504720350557743 0.5047398454730145 0.003493195709193591 0.0002447185785367941 -0.0025549868335513824 0.002693974805033912 0.2868379748593533 -0.7220759484271086 0.010249296790937031 -0.3396875067578977 -0.08914578040071194 -0.0990891221941708 0.18725502285330273 -0.35546149685724193 0.48573080737775065 -0.012528685285761282 0.26232509498176504 0.4772857751991051 -0.000722927204866936 0.27683327381908024 0.18659177083027292 -0.0005084167545196204 0.114269688860768 0.006249079757045589 -1.0876068713999443 0.002540234578864332 0.0005773246420522292 9.959856600090395e-5 0.050955086136780195 -0.6149672515498118 -0.403512334957474 -0.8834794509754537 -0.2930176702557802 0.021658759087517507 0.8158861516065918 -0.03453057247670901 -0.19235991811771547 0.4537886116807257 0.433186426171575 0.5852263028237539 -0.5950741562301267 0.3442886327928027 -0.4765433441508129 0.42985711782516334 -0.07756883386261473 -0.11475170074924348 0.25022511209101433 -0.035666153989188355 -0.19936070847443807 0.06470457565358792 0.0659018373586414 0.08615556034251157 0.32867143099576757 -0.0010204400089985591 0.10066400070576381 -0.4229041523379955 1.0129719982335423 0.45939181085550107 0.0429794979041197 9.961173584532173e-6 -0.5498952668984507 -0.00025180221815291487 0.028968639015680014 -0.06349168124326943 -0.0125263337031201 0.030490875408362383; 0.15074449645100388 0.005296906469774601 -0.0509678388053807 -0.2624269254901622 0.004593477061383825 -0.05314136886466137 -0.0037943013875670994 -0.05648631058166886 0.5230338142569898 -0.004220331079288295 0.0006733434035146524 2.1363778077968583e-5 -0.2536136819762117 -0.30008304408434683 0.23702492565560704 0.40420285617804597 0.013888939941878045 -0.29825138167739296 -0.057801986360691227 -0.002239060556985729 0.296772840272619 0.01692543134751449 0.001024446272417779 -0.6454777020698826 0.8581738710137522 -0.19394304897527354 0.10936674552635241 0.7866727666614165 -0.0017785090823939087 0.004193035938596174 0.0002336640162183139 0.40405062627867316 -0.37120507205399106 -0.08775697278798193 0.21162346263659215 8.984949771220568e-6 0.0006888211196311654 0.16489252813189656 -0.2990427450439295 -0.9541745328297585 1.5415131145547494 0.2310941335770944 -0.25469850578522774 0.17843929835893121 -3.972533159629871e-5 0.0020956390595894816 0.6273166963751288 -0.0005520485278480567 -0.14848857224395892 -0.27839062821247385 0.2595969255079152 -7.069066722277721e-5 -0.08163125152860841 0.4324999109529556 -0.6200864729874933 1.1763495443021528 -0.0005727829842804646 0.017548372581016887 -0.014950471531190071 