[-0.3004359257423821 -0.0885668052793917 -0.05431481228420479 -0.6039717359730624 -0.20570666728572579 -0.39167412281272723 0.6407333978937163 0.5724519761156446 0.3376347916263159 0.9480366570044932 -0.16710034921349812 0.0414328713764013 0.7931487382777604 0.21017521476521608 0.44889871713671575 1.5893989231018253 -0.5900927114803006 0.370159404163863 1.0393836869598023 -0.1621574429977395 0.7529399012171631 0.003514776531920067 0.13995542558564733 0.1427605957745551 1.048211101631493 1.3835492199297446 -0.8580538428980901 0.623688916717309 1.4220218311878647 0.8222863814911544 -0.251353265090861 0.027348553052568628 -0.043479806200633575 0.4980606832438191 -0.5005313261735207 0.26680294584914815 0.37757795221378676 0.6878596723228311 0.07865877772663088 0.3758456545975562 -0.46626112121093827 -0.38269067006928514 0.5231671175783981 1.9021844990221788 0.19509108444212475 0.638655319736305 -0.8742179153209488 -0.6021675001284761 -0.9344179588099607 -0.23294868158322868 1.2965379902593426 -0.11137052985896989 -0.5551159765097868 -0.4179536253523793 -0.08398132832803325 -0.07064250623737311 -0.5023560542029776 -0.0019744129495276514 0.6558195152783748 -0.009142069390867617 -0.2356280591750445 0.014276450956668331 0.004162941611646735 1.2057772836150347; -0.08651407914841827 0.3338613786820458 -0.16820371861140412 -0.23431329111205285 0.1725470174329035 -0.27386096125046333 0.7892771305050502 0.1341291752186694 0.3087391654565287 0.3740689130692525 0.17938119100688033 -0.051906900793347435 -0.2800236646003279 0.5461774110529354 0.019840660289441696 0.41450032997181574 -0.3113091561398271 0.07882619416102814 -0.011949172958765488 -0.0009227890014548639 0.4633135039374455 0.7991813264474684 0.4065507929714176 0.03447064297859615 0.34298291550518284 -0.22265125381944348 0.11393399018923907 0.0015032713254723544 -0.5288615419848703 0.5937706801126771 0.2269377625000343 0.035194933329456675 -0.17541614627174762 0.08286309315062294 -0.4253594392705969 -0.2235795065551777 0.21139960791569146 0.11596286473059096 0.18420384575164014 0.3192110379495735 -0.11415087435746443 0.44411350775431596 0.7605321774583068 0.34053296216059326 -0.24174808410255194 -0.6594742678915879 0.2912626086200428 -0.48270420365381395 0.022862443513071082 0.0438630182895495 -0.21633921634641332 -0.28037777348340165 -0.12698709815481699 0.06861215102743169 0.039312633420724184 -0.34340103823728185 1.044654832711018 -0.02234810822014572 0.44432196099079385 0.08665146260547053 0.28355647010193424 0.07089659161249158 0.2898255701679293 0.39845206572599506; -0.06165351180928069 0.01175883295209486 0.7854131422212214 0.009083135001081736 -0.42220356187594343 0.731769914734582 -1.0152017806421414 -0.3119850923027271 0.05364209149059244 0.649035149247733 0.3261382375835145 0.3476970204303142 0.23764473551438564 -0.04607814736711778 -0.0903382021498931 -0.023121015233933295 0.4993718241453058 0.5631824847564397 0.4556762102224337 0.32190967677838866 0.3958683114623525 0.28184274915596075 0.6179871726974384 -0.40721141320355697 -1.4018267379518994 -0.29894474069960136 0.0053014555880302764 0.7532316131585709 0.6195376553000197 0.204784571261233 -0.9949677842128479 0.7520796851736595 0.18909746134739777 -0.8693040480037983 0.14209031423176008 -0.05238793481860541 0.615968277189427 -0.028325158233825098 0.17638693661680924 0.3914280481502112 -0.12299540181534369 -0.5273809029216407 -0.8870079475891943 -0.1535986841462132 -0.31214697904722233 -0.7374897676367376 0.4003179712565799 -0.13499567868537524 0.21773642692998252 0.40282725883302234 -0.0033819398954113814 0.43190842812616725 -0.024344904787812212 -0.43918243675507423 0.921335217087681 0.5986921454831589 -0.15654438738208223 -0.15582072415504256 -0.4549991856576777 -0.5256767428986157 0.030321199492977652 -0.7044477478651114 -0.21473584023904735 -0.2299180145257734; 0.16222564511423554 0.34249380788823236 -0.22919861575881684 -0.123060716217941 -0.2439132370417363 0.18214644880341524 -0.5017306670838918 -0.3295725884901802 0.1973093352666482 -0.06799429501340533 0.4559104926528199 -0.41485632750388096 -0.07628110541443003 -0.2113528711531773 -0.39957031264830545 0.465316304111162 1.2059694491374942 0.12053027257776354 -0.06250315919119473 0.012616418836485087 -0.6209510071897323 0.7712273218619559 0.8290389881312139 0.04692115541416313 -0.05914369402716616 -0.19803241192541648 0.40090039636616837 -0.4253897683261276 0.1526000004702374 0.3930893963040446 -0.18527691953920752 0.13971594707009294 -0.07589531212620448 0.001678121259339913 0.002491562258576149 0.9917168779601429 0.6678291674759652 1.3829963479776435 0.21405914789771338 1.3024648706758288 -0.0337247628941677 -0.5244666683941746 0.18708151436631693 -0.041219572645487416 -0.9571270348162045 -0.24297405539341793 -0.8434138225491632 -0.5661139972697677 -0.5137936854937302 -0.17278639990653014 0.2738546233155223 0.12822811099531692 -0.3972427578758819 -0.05192443490356391 -0.5093381787162782 -0.6696172057496311 0.15839955049335327 -0.5662670413256224 -0.2924871291885664 -0.2865186163214762 0.2233407612260452 -0.7828734580537927 -0.4559192192665376 0.07138965952575292; 0.6771019858833616 0.5675545494328328 -0.0930078853112641 -0.21901768443337627 -0.016529192220234773 -0.446559253282534 0.5930989462299171 0.1525779342181527 -0.16732507932393592 0.18847335357249062 0.9921446237241782 -0.4915649841430502 1.1465376073097422 -0.6064353520910556 -0.6885214135127345 -0.3640924924815369 0.33105023678172046 0.35362283792084176 0.6241524468717891 -1.177909208721968 1.1583968013039543 -0.33872657914573656 0.3860228934919355 -0.23798109388416333 -0.8076212273176007 -0.2659475299107623 0.4451729646215483 -0.7411851432894622 -0.6209758170496695 -0.3213388858862432 0.5523800678947163 -0.1167677110187271 0.6607120888574859 0.3572438738221477 -0.7437008927306099 0.7879756288822267 -0.11643078763348415 0.5181717615005752 0.04028120983987363 0.38692691660994105 -0.2438230428519552 0.3438412589748771 -0.9943047307960975 0.4216636091350854 -0.42021692084591555 -0.1252594357626172 -0.020405919379014717 0.30563573863698873 0.2685786075427507 0.08159082790201534 0.24624327899757595 -0.507948024655237 -0.2967035733672908 0.2422329058198005 -0.5102554046847547 0.11637871416769065 0.17948552456448894 -0.3792669087627125 -0.40847177447273597 -0.23144454374072995 1.0014221099880023 -0.4981182585215693 -0.16257832971849964 -0.23253435538125797; -0.32240139731444917 -0.060157419056971626 -1.0061154456946073 -0.7514351910853571 0.19444498359864767 -0.08430837151474901 -0.740789458400821 -0.14434520062547543 -0.008705060678112225 -0.1548469806019535 -0.25220027547005547 0.1760046768273588 -0.40666742911997467 0.5924786308819777 -0.16314430854200593 0.3228793309640965 0.001827501384329962 -0.8866379408728541 0.16762279614648967 0.2252334363099152 0.056298953734253 0.01109206239113773 -0.7266844881007594 -1.0977309099760173 -0.4129292666470831 0.26002082645483593 0.034746624763759296 -0.5255845621384854 -0.41006586938133355 0.49231720923225164 0.7440983634314499 0.08544139122548607 0.0014670435017790785 0.5281053919600881 -0.0003045424939441246 0.7276254861085802 -1.18937618506229 0.03729197262283496 -0.7126037530312908 0.48114039824936133 0.13434612135019663 -0.2641336357682748 0.3718807547165147 -0.13993819108860067 0.24483039198317788 -0.9186177619317073 0.8216311293066538 -0.09342919451095687 -0.12826802771622114 -0.6352470750298868 0.4486032928302696 -0.6843109698813588 -0.014039739389590336 -0.3482164086313401 -0.33215976945897285 -0.5975428863137545 0.2833116561971528 -0.6496536212491719 -0.48977527434310036 -0.3499389414702155 0.1680547267528759 -0.20126646778410517 -0.135189964176014 -0.004823953921045532; -0.256016237156539 -0.07740851922943846 -0.5369434462433587 -0.509800617672835 -0.376462753255807 0.44140280840174784 -0.8416023048499263 0.17278616388897988 -0.2927258190801788 1.1580758165733025 -0.4754870828954172 -0.2935230947529745 0.5029038659432332 -0.5246057727941933 -0.0008113705571620636 -0.27534147068948184 -0.6999306276012113 -0.14005920317832884 0.09841516537798083 -0.1746007223568386 0.036026094092072684 0.5541381849183041 -0.4235362348628138 -0.02026033207491602 -0.2397426180070519 -0.4189012709234068 0.32365828869021634 -0.2897032337428227 -0.0013720706355865556 -0.03022107824314814 -0.12219902565647364 0.49979517790537 -0.2542134402784973 0.0719964711309431 0.08216322293466014 -0.37419831630065503 -0.6030075954929576 0.590265974158552 -0.033513358045337345 -0.3085617702705544 -0.07849927139181771 -0.00022071019014990525 0.05085693005325083 0.4448410673722473 0.41529422368576663 0.14718691783721288 -0.550718489236892 0.47436615200155463 0.4767002781090388 0.10444152245180076 0.8332943393475898 0.42549616642687577 -0.2635633039003972 -0.23674952406241173 0.2868438269446682 0.04535453523862896 -0.6346903883525378 0.09142344596282102 0.4886863965137472 -0.3099848426440902 -0.36362387369160853 0.003913794495409406 -0.20513484333776977 -0.08793533842754532; -0.022086079762170932 -0.7635035419858833 0.014730405015320153 0.3101043813453657 0.4440880314507824 0.22816081930587293 -0.015805495988133668 -0.29277351047027356 0.3340981668660696 0.4554402923920225 -0.5299988716971503 0.22576066682886417 -0.20347767233312386 -0.42481974190942146 0.118145830003115 -0.3295397032825095 -0.46124667108474476 0.24991229857980052 0.12649346407720405 -0.0051134755955174185 -0.4782586865765603 -0.3494394743934586 0.21356267563187464 0.3989828779630355 -0.3564534985442914 0.0604939742694399 0.010771549243664767 0.6173891812404239 -0.048193923457975886 -0.03895981646410449 -0.06731543797459281 0.35687430809075316 0.024430361165588284 -0.30485770044467075 -0.5257359504980823 -0.20817597633271762 -0.9303937274983409 0.14418113842533525 0.2090641822451955 0.008290886840508738 0.4840156002379156 -0.18598248491544234 -0.7685136550887912 -1.033444710130446 0.005077036244484533 0.3228915106854573 0.4041414150263759 0.3724125055024291 0.3385510496375486 0.00024391926264294043 -0.29774500377810986 -0.3458850298471901 -0.15013605552169706 0.15348962009045464 -0.35659274072531294 0.6803399766405529 1.193016211626529 0.45463905346407557 -0.4495758392535686 -0.33191355747751816 -1.0714006163697323 0.003250169347724751 0.05196176900765456 0.05537451951122273; -0.18027524063807654 0.06139709882241159 -0.2771435807891166 0.07246362007327121 -0.4260248297916783 1.1763415827913786 -0.27289088324774496 -0.23359589400245884 1.8920870221924004 -0.22406524410029624 -0.19626174026547807 -0.09372634544256811 0.011869915736158415 -1.26935852971367 -0.36949853399180865 -0.38426831777539533 0.6680404048509418 0.802892407973761 0.9061619135100552 0.523320826568305 1.9971162977542156 0.09528105523849709 0.1789757235795463 0.3079800714297244 0.026016482683888776 0.5264727789653573 0.011170975956003183 -0.3608155503830186 0.10931970380114474 -0.31573986736598875 -0.0009420463226024638 -0.6135286618578503 -1.062315944818275 1.4578671843548623 -0.5991835932810097 0.9366067251646722 0.305303016895043 -0.23298902956274387 -0.7724160352838381 0.8458230955057527 0.9778516443666414 -0.9314648400305362 0.174647415378974 -0.5734280315177169 0.5898385811599415 -0.82284910838773 0.008021900280885804 -0.9828476178102158 -0.16094134137387459 0.8078508277986004 0.7986113558383264 -0.20213306979162882 -1.315477628690712 -0.8227970546686202 0.07211837267293451 -0.41298995559650203 0.01487160717628775 1.3894051864763433 0.46189694234710776 0.16364652719740747 -0.02923011702031541 0.4716981548576173 0.8205905283171182 0.061514527834007585; 0.16993416394158295 -0.5988088822856883 0.1871461629953115 0.12140934715265199 0.4836050698722199 0.2100281672731886 -0.6583949157797707 -0.5844166708061133 0.005169869622314183 0.5490344647354287 0.2862128875064082 -0.4102199745422088 0.7203635501651757 1.4832373161301713 0.5045838454649012 -0.2453362680044167 1.595386244116463 -0.21802852012153148 0.2775851461609944 0.0466387813462709 0.6456385261809626 -0.7539090635140969 -0.20524895066111332 0.23593887310792305 -0.17257060227855184 -0.3701249185360533 -0.2360397449123538 -0.27773854873130394 0.25526198451367466 -0.00936470647610947 0.04270874851013953 -0.7984308900779574 0.28400722795437233 0.36591870943489924 -0.1884827600768164 -0.4947108622308646 -0.22604165563234788 0.007829330156750908 1.2497104040314295 -0.6356853640637874 0.8076635946287964 0.10494030866903416 -0.5265934294245765 0.5103483435163866 0.1883797753657054 -0.14159221529367405 0.14077610132500193 -0.12332447417962326 -0.7609961232360236 -0.4454548189407376 0.40493243913501636 -0.01849563150614234 -0.08655703530343678 -0.5574971801471457 -0.005124231876277544 0.5530909360026414 0.778534592308022 -0.10406794529724887 -0.09638726941435899 0.10347465311804815 0.2577034404740991 -0.9217459221162204 -0.18837810543213696 1.23223929732007; 0.8682292043840251 -0.03733715909998007 -0.3166136044621989 -0.1034201530092072 -0.35414378845945915 0.5822560644682229 0.27034991643205425 -0.659236815012146 0.34960660335416743 0.7975128650486816 -0.9626903819891833 -0.620919679387531 0.025411394171164906 -0.04188312376014307 -0.3157311865256007 0.6637552960057536 -0.4195234932100025 -0.011695925570967027 -0.29828602269224297 -0.7985781265928594 -0.061768397134112606 -0.8574672001838188 0.23880857171777337 0.9222879848922257 1.0382591199099571 -0.08816740350351071 -0.23884172698226636 0.7002258502199386 -0.2782496665154633 0.6922010236313862 0.17415860072802672 0.6180161031449837 -0.3281940680259023 0.07067627495016877 -0.014690900952088947 0.5431211198740671 -0.05184217978054194 0.13082252077731174 -0.8231191437379622 0.022571230806262714 -0.03295836792689324 0.020593353638746724 -0.22381222939699197 0.09778722641080384 -0.007208056012290994 0.06786847270738045 -0.08586826220805369 0.05901022889346469 -0.27317944192325155 0.002022511435858579 0.1642572489038697 0.35555720172929006 -0.13303274123265185 0.6751676304335993 0.13049072364727538 0.6031769674871088 0.9866203592146572 -0.19303751574589198 -0.05836914057939477 1.682171974740211 -0.8471066082133765 0.5388233955374332 -0.9821676493466642 -1.3454354093239498; -0.0015974321090718724 0.052807015664294604 -0.4438707151676102 0.1655227063549298 -0.1841509750653604 0.16561697725956695 -0.525883436994803 0.11400281136883215 -0.541107402136504 0.0011704783984618707 -0.11272499490254742 0.27262134663376136 0.2378271252353203 -0.45291942237264093 -0.6177002707792155 0.22307261094491748 -0.024543100000860078 -0.02027959039892798 -0.23077194688368474 -0.38864491573208954 -0.3843549533697712 0.5931714719773663 0.5129141487828094 0.14763593236999403 -0.08754164174047584 0.4127206034028206 0.3276541294892239 -0.1250557915528636 0.6093239149002273 0.12345223383792082 0.13258929303036088 0.19320403459769425 0.28765415137944295 0.5453712300280866 0.1540843467543447 0.05467158510452362 -0.4207531050020111 -0.5315218122233544 -1.0731830597547187 -0.1771571887058003 -0.4127916442333354 -0.6071562769811795 0.534398654275056 -1.085082088212474 -0.6025747463241458 0.1923827713725925 -0.016393477867257027 0.04098084862193673 0.8405298525100765 0.9613001866355627 -0.008127063356950482 -0.08893544146733655 0.6359899557922728 -0.43958506315498075 0.14932676677379134 0.24663046599660637 -0.4383180376825455 -0.2998265355413243 -0.14910429359110913 0.000916367552590335 -1.0915962983672756 0.2177497747311463 0.8212816177201732 -1.2988628085084617; -0.05701505002298499 -0.2351015917491417 -0.03898144369213499 -0.3894628549705765 0.03832185254488781 0.44156284859297434 0.7864897923910288 -0.012526399053863201 -0.3457082929081759 0.10984377080576085 -0.278020950134962 0.04560971853281561 -0.2468497485520492 -0.024829412006737682 -0.14439400305531339 0.08940493326696804 0.19433547567019685 0.2721747784708275 0.03753825185543332 -0.1683842507003952 0.27055816941022093 -0.5626651404089084 0.004490795333926009 -0.4627486522914305 -0.5012650349768738 0.21018027952279825 0.4977901050952934 0.11698586518275188 0.21753572105519403 -0.021038016165169926 -0.016307377990007872 -0.3810637072232192 -0.7547160869574144 -0.051840991112190496 -0.9682903383648821 -0.12099221563168129 1.1482609579087333 -1.185297269552879 -0.655530767138696 -0.7246866895243698 -0.2662313948187492 -0.38019258439011516 -0.9843496787264921 0.0016610907125429591 -0.630965784208708 -0.6059357530933315 -0.06502574970326995 -1.5506494119948884 0.05797782882485152 0.14901003990036518 0.22914707593302092 0.5770189262875413 0.32986839573189086 0.014772813445875192 -0.6787638317189286 -0.7262750815773095 0.15503526318715033 0.06567417544204537 0.24519490875706926 -0.435723798587513 0.16154671400190407 -0.6026682954055931 0.46141204685673315 -0.12273566596452569; -0.5878895881321092 -0.0722277942080952 -0.2256920969026217 -0.014021951255100775 0.3891331016720738 0.033060486524724486 -0.25361939239245607 -0.0044964841710600995 0.4135485030770029 -0.3750896631441454 -0.017935948632201267 -0.023116629581635403 -0.19406557319592238 -0.2749741981826699 0.3002442559235938 0.7159882755797886 0.315736099639731 0.0008563709103207846 -0.31419962598051887 -0.44560494830403147 -0.5208728821805315 0.43991229551020045 -1.2708387675300465 0.9208323575883111 0.578322443260587 0.6424350729513473 -0.5407831805312391 0.1496963008697178 0.2262658258474741 0.9903833864070813 -0.23743624625186352 -0.008286441193059392 0.49287293304422297 0.5230619538153132 -0.14630907259315915 -0.5664991668530094 -0.17237679648721146 0.013048438953478177 -0.052444965819176424 0.10549976281879472 -0.2641472668999265 -0.010013764943020809 0.4196386705585622 -0.1809100984441035 0.003410401229914764 -0.3084591345283065 -0.27781560227097385 -0.052491627089090824 -0.1687019382690182 0.46753670112216345 -1.262781030132908 -0.5191200336664135 -0.34887247695446744 -0.9467995116486769 0.37909265411711274 -0.7604042439981892 -0.605775080436474 -0.019793800952496613 -0.005942542160905971 0.4434674539104387 -0.016811890568254835 0.35353998339128034 0.07658596246202867 0.43232600861849063; 0.1178824336510569 0.35732784538858114 0.6740396040419748 0.4435106342943119 -0.736407407172863 0.7745892811424954 0.6210939885212503 -0.01700018178547445 0.12213227011160584 -0.5876998514755535 0.3016725369150849 -0.4733262429638681 -0.059218727238755695 -0.23796392238430847 -0.428047912047753 0.0765459271060622 0.03610910068691575 0.18783695595806885 -0.8142832744834729 1.0449656561290057 -0.6692506510437201 -0.43907817962566026 -0.04210948470413343 -0.12241204520352973 0.007213628591335586 -0.23535951163536634 -0.008753265437688585 -0.2367117858987176 -0.8253505070346989 0.5629793349250073 0.5062720489547643 -0.006059842195808462 0.9164441712263404 -0.021905609232185805 0.24565023143657996 0.3577484370949382 -0.7758294200830929 -0.3139729075941432 0.23528093296357627 0.20308102075496165 0.41034533181004174 0.5210643006274889 0.4733342090381807 -0.8905226137335505 0.14364570153958597 0.3441488110815947 0.000625525059872134 -0.17465626302616086 -0.018839690713353705 -0.6948380039869392 0.5681545574016429 0.0011494856263293178 -0.5558113587611703 0.4015012660117741 0.2721388438208632 -0.0567197479777151 -0.05205168226403751 -0.11887958052528984 0.5527957276891324 0.06965771853689588 0.2715777055193032 -0.5943182416081834 -0.07116937354845825 -0.09974193508442644; -0.6248728995243658 0.4159409198099929 -0.22158339203186733 0.22820895352312576 0.4628416892208503 -0.10943255154456205 -0.31814718912206275 -0.20107857572591664 0.22039499020713552 0.5528304078600759 -0.13292076895141358 0.6438601579046366 -0.27858391522635706 -0.121947911019944 0.010180601557779933 -0.13670754985230663 0.088059378807111 -0.3756237769880749 0.855010252224097 0.20767348514512043 -0.04776581602461306 -0.043300662869411484 -0.19331938132940263 -0.7584394943100756 -0.029609026821985948 -0.0363377038188139 -0.1433960092980535 1.0594952987616963 -0.38376230002777734 0.33924784444347494 0.12302194836872983 0.5534752749396111 -0.20401812891995855 -0.38768201639534916 0.5353048104947814 -0.010030680805101104 -0.7373569154605022 0.14797053527747528 1.125882823574731 0.6292429737814803 0.25109644237173995 -0.33310027806241865 -0.27354767064439905 0.003822163559004682 0.13122289691621145 -0.3624250575664314 0.6217362226155233 0.2024121579993727 -0.6190226441313357 -0.42525538299727295 -0.0026119970791223615 0.3761160417548377 -0.4248285417822162 -0.2722591717385446 0.5992276066940597 0.3332085816089271 -0.037481093752350925 -0.3669628742200228 -0.7663681028980813 -0.12798848508413327 -0.8630464546502754 0.36730599822859555 -0.06273406346306294 0.059482244924395196; 0.5023969579048517 -0.04113215261436519 -0.5683117116535249 0.9330561094398239 -0.40838542889146556 0.5647192021853237 -0.022488331960096117 0.034411952766866906 -0.38655998821397214 0.24606663223092912 0.12934051799413085 -0.17589590724355975 -0.5124829575806703 -0.24030934637498672 -0.10854609179047407 -0.003224315687066028 -0.07752002271723829 -0.6393598166471461 0.028250680861659962 -0.4592891565746401 0.1918421629375105 1.2351523221998988 0.5863229939279294 -0.5490630095660529 0.28563926042534526 -0.6361458887614645 0.18184113252408865 0.010911649389887375 0.5936989161207656 0.05028899241378323 0.36527730778514966 0.42949229190806165 0.004691188381197486 -0.5135204989559439 -0.18448693512539507 0.28118816237458655 -0.5740652912578216 0.6396443201422769 -0.11513167091006465 -0.031144156310974596 0.6755227561052987 -0.03756526968175039 0.28498822745579067 0.02096661545877868 -0.35933368542396477 -0.22200076598896412 0.906274860621021 -0.3239830027939228 -0.4241946745627155 0.3212462506670834 -0.7372434847501731 0.04451002838961432 -0.3077126619818039 -0.025397670488058775 -0.42432398117016323 0.27194180929771306 0.7937124774464974 0.3859143480800058 0.19677274239167036 -0.5898522615034734 -0.10312659232014751 0.2357117097378358 0.8101246872777901 0.05691024408674169; 0.18680258824323892 0.994645849070837 0.19524194198860798 -1.1279922316132232 0.49409777756575524 -0.5500658870639853 0.24861848354484256 -0.018401708865779756 0.7476042033303161 0.8184586588432198 -0.18837759335735382 0.41397106982856363 -0.0400834377350786 0.5373858775876644 -0.42294245217590876 -0.13311974765406748 0.21726663692692805 -0.9518187363428626 -1.0434206236927668 -0.30283463228936697 -0.3565310852176081 -1.0216684858538547 -0.06259152128425954 0.26496442248411123 0.6080746412467007 -0.0034963622726406785 0.8013470283707708 0.15698251863095017 0.3671498393900709 -0.48889022634421103 0.35196573972637946 -0.015529938162188827 0.16951310583660167 -0.0898057464860626 -0.24601030595779416 0.07419782114297521 0.10846646298803446 0.9261415357658148 -0.5754030725279894 0.4861998725407959 0.3346756929781559 -0.20010038623018958 0.5208604169324699 -0.1686148275331303 -1.4939873661871383 0.4225514250300959 -0.29876402335272473 0.6357868509597496 -0.33274309671020874 0.504342037770888 -0.19065150940579087 -0.23300302105681187 0.12220354980036198 0.7785675077786801 -0.009660394748552216 -0.14582170250558218 0.15146453340730406 -0.5765800069630754 -0.307856534933562 0.6001913577496338 -0.685112244127465 -0.3751174064383961 -0.20294527398525453 -0.007337167435401301; -0.3503805847872849 -0.4182339254237668 0.7876930228862451 0.05102711962844482 -0.7407816102062583 0.08980122495271901 0.012004508114520016 -0.055575089418707105 -0.023451127544587384 0.03265149738178901 0.17648377104660723 0.5737249392233172 -0.6052505664411232 0.12422186549517347 -0.15414931777046545 -0.2681567221862735 -0.8374909711086961 0.10790642690724259 -0.0021467791355597268 -0.19759444203614507 -0.19473462628224705 0.5848133180412544 -0.3709618313170317 -0.21879822733190563 -0.1053497453298844 -0.21916813553861425 -0.18799177727547314 0.2660141053406264 -0.19688723592060553 -0.12938816095035982 0.5120443982283275 0.42715564721715865 -0.7145682535177564 0.004032784859878827 -0.39843884077395597 0.04671364087712402 -0.04251863567499073 0.537500923605544 -0.11919849290100935 0.6551503717596168 0.11260786625857691 1.131127977926268 -0.9555174125288617 0.3359752248003586 -0.30813430460456426 0.11790177648676517 0.47349977598726095 0.5228070376315873 -0.04744833390810335 0.28191830683549796 -0.653471671212122 -0.06140713981819693 0.6586291232106132 -0.03989760545580886 0.001028142431818967 -0.0641261872232084 -0.27294537528747387 0.5972333154520285 0.25627631732655787 0.7135072052465503 0.4169133792703331 0.306230812622141 -0.07077288721171085 0.40478002961381326; 0.680213134780241 0.4689492496978627 0.21191816217244624 0.04754099868529807 0.770910069428637 -0.6260203045221113 -0.24882815162573338 -0.6485422982325996 0.727792114377504 -0.1262589780908059 0.443287597526249 -0.1743341914595244 0.2501931915593871 -0.17488227037635432 0.004677372943446432 0.7752485966206929 -0.32708566144947454 1.0871986024116345 0.0010286407576848152 0.005677054208241602 -0.1177356124478398 0.9540727775664275 -0.502435066666154 -1.049648856256419 -0.2720772726887152 0.18865005388604447 -0.47869873524301587 -0.3901963215466278 -0.07172129318529603 -0.039959113608222574 1.0393230851164814 -0.7605717915268275 0.2977693152891769 -0.3812999781962409 0.13788315830867764 -0.0559845806591752 0.2208592947784559 0.3813387953813567 0.4261171158450471 0.11530224377832506 0.5292883789585684 -0.4041760832410471 0.378272010798746 0.00020665718991201478 0.3742490348038805 1.3578154842290484 -0.6944018434425229 -0.3105358150552521 1.3393267008106582 0.007604400358828003 0.018747029756043556 -0.4036224680639354 0.1998369609874961 -0.027757909836158712 0.004279590570412793 1.2603016550666313 0.08268517841412173 -0.4912089635412554 -0.6381011432520833 0.1159766007015969 -0.13849681256923185 -0.030717328244585545 -0.27540266191326634 0.24997955698187477; -0.2653478694148091 0.510749942721545 0.02867166100863401 -0.8258374896235814 -0.15849882765479412 -0.4010503625156602 -0.16736455159197994 0.3261405852461738 0.5684145165621322 -1.174337397997528 -0.3091046858300012 0.2584395955624948 -0.6244995311874153 -0.10925757818367353 -0.23855034739061332 -0.686260409886891 -0.9842984959967005 -0.002313760841626456 -0.009467049691377228 0.054294831973808244 0.12979738249830458 0.8078091937364427 -0.02379426604007966 -0.87560939578959 0.05287315053959105 0.0047274617346575055 0.3494818202840572 -0.007460247393302207 0.36823926154437653 -0.2343689887402648 -0.0007593938832349459 0.26805014506317837 0.08990392520511867 -0.06750977861925635 0.5524778315378122 0.8967541005110843 -0.19798387203419243 -0.2942259892087109 -0.6179376951991066 0.31527922384339974 -0.016086236162242015 0.477441269724425 0.25698154409089907 0.3231334533156367 -0.16326104836674482 0.9957463732423169 -1.1448226649867603 0.15528204608453014 0.17037249967754547 -0.5006447088034163 -0.3656725037280907 0.9562410708674721 -0.2506658870837728 1.060851786131544 0.19303502501263914 -0.8466735714559996 -0.6275511337410624 -0.7237556391771124 2.03648978791204 -0.4446072029394955 0.11580452333208938 0.1945396061535105 0.6125536012533206 0.00521714863672291; 0.07288430068869618 0.008799558014238679 0.23912540393724765 -1.604897753139021 -0.6547730658586896 -0.24243920335816546 -0.640310869349962 -0.15701489655878773 -0.04878398511973889 0.09894715656786914 -0.07484220299346256 0.21963981987995632 -0.9490972534803224 -0.7544793598944297 -0.3070358164769026 -0.6009667524031278 0.2973289813497979 0.12958147031646963 -0.25382390132260463 0.4344972167148613 -1.192261123334093 0.8591372282516381 0.26013985801505224 0.2494111076649986 -0.20633395937963792 -0.04420887014655766 0.005377780839382298 0.6154670297995711 0.34747118030063745 -0.46965798858081703 0.14901204679936278 -0.15459640746207148 -0.579143464188014 -0.1695415866697738 0.7048822577173037 0.6942626243257528 0.06913253357249814 0.059519088037098544 -0.018912232280595402 0.4895426385050017 0.09279802299571675 -0.6880067397752416 -0.28083523168061425 -0.886353574113244 0.8154968768281294 -0.0936176043843188 0.15165010796035355 0.7808827033245535 0.17941635216706459 0.5320668494163486 -0.3587257835735328 0.41842978730474595 -0.1702035198814796 0.5721442202375993 0.7631151532430223 -0.06698212389512542 -0.17653540799783135 0.941781772563406 0.28068320622862514 -0.5343279224738117 -0.4187449475324455 0.003979879668854915 -0.24697825896991057 -0.05171128070108698; 0.01882482972740054 0.31279881047733205 0.01763541753117387 0.1441412010144626 -0.69739032748965 0.3407675505866374 0.008409347231716203 -0.009030476523757639 -0.43107878305029107 -0.6323592075193392 -0.06654838877237731 -0.08384971366325339 0.18567608686748832 1.278683920148611 0.1771637096655677 -0.105336787260378 -0.5094384748437175 -1.3274708501000874 -0.29199432248020424 0.09582828093091107 0.23437317150831452 0.7768564304052096 -0.7012035516654165 -0.24104350208364625 0.5015343829871656 -0.009730935238457354 0.14951670571771883 -0.8080179598040863 -0.36849235694205845 -0.6005224708307116 0.19658412217611448 -0.3905400024093215 -0.41497993706482555 0.16903951084913008 -0.3131648901156096 0.501685149221412 0.4639540425126678 0.19347005180111015 0.5318554892290839 -0.36885574276124106 0.08240350694614605 -0.2364226140552056 0.9872231469334202 0.06241599032961495 0.03307548601971843 -0.11431502427928689 1.711475090752199 -0.046113887792715975 -0.5852982731753623 -0.1141080766963834 0.7418163707868579 0.4223293152838456 0.7562160091825463 0.22834907434501092 -0.5447249308733824 0.3821982366087337 -0.5752180107364661 0.9899419374629039 0.18766476319999512 -0.5511369596921115 -0.5533467495680056 -0.0729762580607481 -0.02348174661877599 0.17123918351673711; -0.3018470506817745 0.46518006070449097 -0.019261890676090698 1.1713834380708328 -0.23855087213678805 -0.8232453327494831 0.25760890816015 -0.8405968969963706 0.042651061874771426 -0.3034081578273416 -0.21815228604837955 0.12884460639143724 1.006917958212777 0.17770475496764684 1.0686214201121964 0.5304370766949745 -0.2323627990877897 0.8170863542844313 0.11060620229408721 -0.8397227845010553 -0.11889286317865831 0.38098382341277454 0.8856173081976497 0.14981681961515916 0.1649031564560625 0.027128082785056726 0.10737662780785431 0.03377743162342381 -0.7888080271656476 0.3638475775123748 -0.3954303133527108 0.5146308690703413 -0.02578751386399163 0.008390442260644978 -0.9046304089522844 -0.0614233951280275 0.03372065423869913 -0.47472452465196346 -0.5240218251586797 -0.2168573653148404 -0.2060227465640167 -0.05980898012505837 -0.32773451586077224 -0.6243730827832069 0.012823685960953636 -0.45945849539854644 0.3664965763044664 -0.39241252974421414 -0.12126795276802477 -0.26354901717247436 -0.22938983470999796 0.18622464613096207 -0.38851611697224475 0.025170180643012557 0.2769972870233685 0.5261007508313532 -0.26644431806562535 -0.21523667706683308 0.38779720846939264 -0.09115510435919567 -0.2043174424779539 -1.0235218420032257 -0.40911653750032567 -0.7858591896757575; -0.0038298120911678373 -0.46507490379119526 0.34719987251750606 1.6660998982430522 1.1402646804683712 0.2047858957763465 -0.7356847686957196 -0.20810831638969254 0.2862189358424414 -0.9615444248100062 1.1124516569191718 -0.8351734449921392 -0.05445039525404516 -0.4449862890526637 0.6039791964487203 1.3336384809483843 -0.026623726902595613 0.1561730150447997 -0.0003293814715651771 0.6326775107826703 0.520101778528622 -0.5734304273972086 0.6909746617442858 0.6718915323110676 -0.41545812778165747 -0.8725994783805379 0.3710508091073246 -0.16512650069523224 -0.21789457162917092 0.04781298333180433 1.0425862560422874 0.09783248026012809 -0.24764461518487388 -0.15748529571078138 0.2524520587161101 0.3407181580869568 0.847304250718716 0.002677606426272107 -0.3311751477059113 -0.06424797775537601 -0.15426769543209892 -0.14414734614933622 0.005743345934322228 -0.017019825925542444 -0.2339933581599668 0.7194800937275816 -0.15862152554403325 0.0031778606548433213 -0.0395565492226718 0.8554379372117031 0.02671254760428093 0.07861124785513876 0.0012149279966272805 0.0023424908313915394 -0.8177508772143873 0.06987500209646703 -0.46128708117207246 -0.4182529153137757 -0.13369180023296018 -0.46675180266070326 0.0195812158185931 0.9396389696105386 0.15283527945310943 0.005270152200732674; 2.177523694240589 -0.695395542048284 -1.0401643281126478 -0.000429333592307141 2.3790606879168053 0.1941910532568318 0.8079711382191965 0.06983019825567102 -0.14080875678452426 0.5374512234414814 -0.2091636023392776 -0.07685146036407353 0.92487071542039 -1.1295571981670074 0.5316528649824047 0.011362634809091917 1.30301325972798 -1.0510651278986476 0.4583464631301142 0.732042721193373 0.08415696954836016 -0.7979320025455728 -0.445253528407045 -0.06539353264004892 0.3975635235315594 -0.3578362898644559 -0.021698652489870726 -0.01072537099398702 0.21283284164190877 0.8599866903436498 -0.9124939356234673 0.5888541250917682 0.6019021307216702 -1.181501457186581 -0.4609781994177705 1.6143082020325756 -0.13208286981261116 0.12975017922381346 -0.38064606439777415 1.471943940509998 1.0815035616848516 -1.2349065654740106 0.545789376179383 -0.3012099169269208 0.20505328972001882 0.8323340530881795 1.2400717072292176 -0.2702277575469714 -0.21540248350142094 -1.0620062549744433 -1.41362776365253 -0.08135953303001654 -1.1442021838701346 -0.11395089642568658 0.26778084569777544 0.5793867040513393 -0.05820451629593498 -0.024234755797735336 1.2159665038073557 -0.09543609183898864 -0.14932855842694875 -0.8964501137721143 0.8859421317259281 -0.0644989787603461; 0.7633358726181666 -0.3982099543353783 -0.6237430640006766 -0.13202405588663133 0.02640773599488246 1.243981836342932 -1.403670164918864 0.22147181541085645 -0.01263772077676433 0.004982861346137054 0.038832682667881674 0.02553381767593927 0.36284928587403026 0.1643435333185699 0.08406714139182722 -0.7946799508414971 1.0091028687895554 0.8308363099067344 0.4175287284026243 1.091830086882791 -0.019015153047449065 -0.6333812209041556 0.049160162036760637 1.5445587194793364 -0.41536629748903836 0.5311336796367044 0.34475804271013755 -0.6657459646879631 -0.0008699483895524798 0.011203170305112363 0.43344119294896966 -0.04312083108229194 0.9566698134213145 0.08126579496684685 0.07856843589043734 -0.7376863439559735 -0.23331945387502034 -0.05826043812096676 -0.07078851781965041 0.2815009774747771 0.28079800108858116 0.4044223859953994 0.036862238816593715 -0.6865242857613778 0.5553611303027793 -0.04465794736946872 -0.5656788927435399 0.6521982796593233 0.36419849953800276 0.059167226603299004 0.10880692679675731 -1.0691325984071764 0.01703089135022738 -0.11767794698116504 -0.15337774153628897 -0.007607505431874014 -0.5129832315677899 -0.007742021426219765 -0.05557535413664236 0.8911632691103979 0.3639169295207972 -0.19732326554791305 -0.3465164383994907 -0.21043931585030848; 0.25711616995188197 0.02691238500716182 0.10876905347559099 -0.5017544804331769 -0.26164188396687194 -0.5752962558780539 -0.1736033443929538 -0.8212167233948987 -0.15946511923123008 -0.08178810546205567 -0.08147381055056936 -0.07729181558935592 -0.24624869082381323 -0.34319762234719503 -1.0147953357581356 0.19374407797018195 -0.042628087323322676 -0.053556140387129726 -0.4715664432726753 -0.694598747680314 0.4734792343449934 -0.0267313307796761 -0.0018458218371209423 -0.019535684939690066 0.24240899005999386 -0.006208617658556481 -0.8203366971786568 0.27103749691325746 1.0979959239341581 -0.23012359290977558 -0.00847953274236313 0.053015471279403495 -0.31481272229936214 -0.4048451715493463 0.07539155983227859 -0.7056962282288947 0.28595127809131915 -0.05833069604560431 0.7529491939812852 -0.5267213936251933 -0.29915615836093123 0.23175651977169381 -0.15388131309379963 -0.16852258900132702 0.21490579395889478 -0.0008149998888717884 0.10228745476809684 0.023963257848341152 -0.5049472402808557 -0.9543242437558914 -0.14501079369779044 0.4175285289321975 -0.2714274359139468 0.6472886116787888 0.022144198036937342 0.15003637815722068 -0.7940157455474618 -0.7067710793185576 -0.20205434522826024 -0.4898910418870825 -0.09143936803519168 0.2639393699054005 0.15289780935699357 -0.5663045587715436; -0.6252605125761516 -0.12110203195796485 -0.3517901045629537 0.2269572506135178 -0.3679224227539235 -0.13550814921034238 0.4827960328890143 -0.47518939567941987 -0.10841699331465421 -0.8776242181141815 0.6372610900489396 -0.07130903113628978 0.2524494403011713 0.024668821518967782 0.009374983648385946 0.528171641023601 0.25302387219452793 -0.14495742093492597 0.007224720334867098 0.8280836127214596 -0.08869077487083701 -0.06894372365289765 0.5629260359736412 -0.2122771124782695 0.3080605646301017 -0.26494083012296993 -0.0917030254110551 -0.4621593195869997 -0.00788040855156971 -0.4995469144290929 0.12460241388375852 -0.24525806772638364 -0.7800203850651775 0.8131868933136499 -0.33486468123287044 -0.41611021152952854 0.21305044372954599 0.6699939158049286 0.19568729788257005 0.03624969474449316 0.03275748930545919 -0.08479230310511304 -0.023707236656294865 -0.21517087367116386 0.10431279671654059 -0.06339901282898551 0.20694726901856117 -0.5774092407268445 0.4598721531978111 -0.3386393986300036 0.1833909812185836 0.18086933525875404 -0.07761591241155176 -0.10993675444567723 -0.32032850258595374 0.14210253242772608 0.27498856960278734 0.16246252581295395 0.39723605810182794 -0.19466685832771657 0.2841267272718519 0.15279347702750595 0.17055516980123658 -0.0068483589055746315; -0.36111401693672573 0.24859387321983284 0.08116116374172458 -0.8030850918533425 0.008995660532854997 -1.333252789806117 -0.3318023154786165 -0.12221167513289961 1.024296914086264 0.01694158376110012 0.07830351550635024 1.0251427391877412 -0.225759477214338 0.5939613106871622 -0.003861320126548925 -0.30545213812879835 -0.17424841231984647 -0.08820949343803276 -0.1121421269391967 -0.08706969090749019 -0.23193513544373726 -0.7304596831063932 1.315478570652186 -0.0842860965573737 -0.1864839463306426 -0.7217198718839765 0.17668173500410356 0.12955496157261784 -0.19231858885395658 -1.1094077459479805 -0.8681245091345309 0.8349414420561205 -0.03525481620602465 0.21118716146698804 0.8424865653784928 -0.526740202136221 0.4535041336486521 -0.2856710903840279 -0.6075346926090383 -0.45029504927187736 0.8100707765913853 0.14736116383891873 0.11069749468086315 0.22603117178646642 -0.6693418347241825 -0.4657661939910499 0.3375786707743954 -0.05637760947149164 -0.29811277408391296 -1.0872537584747084 -0.6200542231397225 0.28928414578247763 -1.0422549681339583 -0.19331996758326256 -0.48581300627364493 -0.0032062604699579908 1.2144064604166631 0.23160758255008695 -0.4815514086771805 -0.42310345653792114 -0.1518114882933128 0.7058243509384244 -0.38520433919432157 0.8413678793146898; 0.11942162860568714 -0.06922134932410562 -0.2768832738143721 0.6103021049603017 0.01574897330949483 0.34478439701512864 -1.1824638370111988 -0.32746819107397274 -0.7241642219514286 -0.44141583838919196 -0.6929021890448983 -0.2838360776942669 -0.7623352708483122 0.697741790352077 0.3965492031037455 -0.12393303984761359 0.1544758498411789 -0.2673073603043585 -0.0037723373486011273 0.3718433613808459 0.33011037534987653 -1.0769316195566683 0.5028298238691492 -0.6891650069908907 -0.02555069461036353 -0.8681796551869172 -0.9104472651571786 0.2931956623738134 0.7051592898555865 0.22718007994092665 1.0051158272941447 1.0228049744311125 -0.5619050399055476 -0.6878717006874205 0.5515694000888053 -0.09380815315369755 -0.5086807037315708 0.24781111868443742 0.8699015755458422 -0.03993083786576097 0.5789162148084112 1.2684379511152537 -0.2106949287064496 0.3752786825671344 -0.16365553155425186 1.0443313487037442 0.8260874789104794 0.2619371073159966 -0.22846939378145273 -0.014229039830208958 -0.36458921776431125 0.5237020783017947 0.07225768258817653 0.3291242478504291 0.9458878362985279 0.4209636877238779 0.12824615341098256 0.004345423029055304 0.42391920891955126 0.5814850735843528 0.5173570662880586 0.07641474824547842 0.401499003807551 0.04779482544241755; 0.4056401652729263 -1.5375194913769854 0.6485681278918588 0.07331644007266644 -0.06966364809168486 1.2618163063402055 -0.1907586061649624 0.22190313951263113 -0.6037388503657577 0.46055235644669723 -0.3604689146959749 0.3290742769867029 -1.774305884723268 0.10863826483381508 0.052925148903696824 -0.36007706729721706 0.33832132257476144 0.6715197216892553 -0.11395540732267694 0.476029193170152 0.5127391214318365 0.4459843916561737 0.1514914106248347 0.10764375803000485 0.29454800360268646 0.16234999674367115 -0.5643371777023697 0.26235633707934064 -0.07211568025642144 -0.02454583636290478 0.0022099676348235927 1.0614686541416967 0.33523275270567643 -0.1346090834846806 -0.48945013052395514 -0.11799468967818198 0.3548623024698326 0.45117708814418794 1.3101605040015925 -1.2929271547238916 0.3835632568667888 1.3734383272086026 0.13570455141791835 0.36108489613722816 0.2838964617712998 -1.2292015080623004 -0.45033560532746075 3.2530066794071555 1.1333760128561328 0.5574514123496971 1.4157522969330596 -0.4862574832562694 -0.07433043517661198 0.5320210636623751 -1.1662189822033897 -0.04856763280054594 -0.07119319021139953 0.10422164454068553 -0.5768156483333171 1.3183917479530607 -0.3459895850593183 0.6544879630853565 -0.025006557186325554 -2.002737496444332; -0.031981390617518785 0.012783838390487967 -1.4955175005073214 0.009462576831042277 -0.2813451110909934 -0.9819073283750506 0.10203414778320599 0.8967081805381338 -1.7154409256163514 0.25403329133236524 0.5144783781428734 -0.17030530840489239 0.3322152319029499 0.24504086790941007 0.22243074489941114 0.5907394814580716 -0.06193160345135681 -0.15246583534287614 -0.5582037274455959 0.08101994250395432 -1.2867615814316216 -0.5933313199400609 -0.8674861848829667 -0.9788695702879944 -0.7641746531328429 -0.3823349968656717 0.5278205165347355 0.004447268322804664 -0.17391506078951421 0.0031162205187408526 0.3986218052875888 0.36323085198201327 0.5295880849682313 -0.8729784391116907 0.6854526432252052 -1.4275488794378814 0.003216153012807757 -0.40861959653571067 0.3801632693132193 -0.5020099136488824 -0.6616804425915808 1.2860980560074178 -0.10584503764267597 0.4074442827276025 -1.387676199187992 0.9643039064627089 -0.5535447010544122 -0.18000689494966984 -0.00841885013522441 0.04125785985572591 -0.6676379171693447 -0.2759201817159112 0.39081693825577374 -0.7400882704251864 -0.5396030190816679 -0.6864305995012321 0.35118497633163337 -0.844823772384966 -0.7655005027594224 -1.1268298285795206 0.43064178488272564 -0.6973929025108099 -0.02209111077630196 0.5415027235669607; 0.5797200310376222 0.29891979063833385 0.7158156252793018 0.04034320322920304 0.5256139168734753 -0.5620203127484257 0.8094343497780494 0.2439834541908409 -0.49892764695204356 0.0025520572433771825 0.25752127081060905 0.060672333377492504 0.14619216065381846 -0.1198540132161341 0.7079868777304589 -0.29683433345882615 -0.02319127802265508 -0.9356559819721175 0.00877257677193623 0.48612948771635456 0.5860298873924823 0.036540000271222624 0.1595789748141421 0.3421282619275964 -0.05418897604626081 0.003645962564946938 -0.05992778314634834 -0.8277282661644675 -0.06750983471442255 0.05574566217914533 -0.45455777131686204 -0.12108520598708608 -0.14119430649057602 -0.46970430790327616 0.2022963389373553 -0.023741934522928738 -0.39099379188372857 0.358762760153393 -0.5740482429606981 -0.3099185758827756 -0.09994895548911724 -0.04830569120242056 0.373227231761589 -0.13414613879228865 -0.04492788820376452 0.7545955214771228 0.18552928374104224 -0.005807423224167267 -0.17063548163527842 0.22689450004082398 -0.9819920028781441 -0.5652087183513486 0.7662159755925468 -0.6251951018599118 -0.04285439652177106 0.3967987530122098 -0.019681421672804653 0.14581396288013196 0.9888940136410647 0.41376223120510713 -0.4514767268004756 0.05979239697983788 -0.0036199786302689206 -0.6799665355927136; 0.27651070433864705 1.057861547347564 -0.2587997726176133 -0.07178970637225614 -0.3871500311786049 1.606593307511494 0.09390470595418 -0.23024358606548453 -0.033418063498966456 0.09706280552308254 0.07531934504662609 0.06448055053907058 -0.23648302834236576 -1.0580855832145366 -0.0722867591550824 -0.294877732416578 -0.3974680235806618 0.19015451208587414 1.0533319988698586 3.1818209082652016e-5 -0.8390029555766175 0.7112933216506016 -0.2967955697868704 -0.014316924062904322 -0.08643334283884613 -0.038086247071778496 0.7351220066173 -0.09316337615566045 -0.1790036134081517 -0.43407469897435935 -0.25584576166346473 1.0879470518841556 -0.04410079329280412 -0.29767472070672435 0.14184130409295845 -0.17920759729008628 0.3428227735374916 0.4085738168758108 0.8533403744005033 0.25786244281408083 -0.22078387915299066 0.43953993672339636 0.24754441521864062 -0.7108678110054761 0.03281714572047806 -0.1352884578592969 0.19284518026653133 -0.834980675673939 -0.39355271746187875 -0.34579997821942976 -0.41534546738011796 -0.7747616080777228 -0.005747268536126585 0.053402743286969395 -0.38277387914578137 0.11956161322786314 -0.2734205981993902 0.011657523760670757 -0.4315707907394327 -0.09940218339841524 0.265220484340558 0.19167844165728445 -0.0019952872318252423 0.34016740215057656; 0.31275685196689695 0.18742268833024667 -0.18950974582158606 -0.1138148548463935 -0.6564009061272866 -0.40173229484906403 0.6143598375453031 0.0002631462335836881 -0.32776741671280857 -0.9663705368917528 -0.03755912262604144 1.3210264716613334 -0.4026999134392693 1.027966099128859 0.390098642335485 -0.8540629524854804 0.5730503508420361 0.052236851406341094 0.533271231655877 -0.6608380008315415 -0.9685431755269374 -0.1510569270228622 0.5409038989758231 -0.7238405703381982 0.25676295401468635 0.8751385865647712 0.1625203919594214 -0.7561595038451528 0.5456904492356707 -0.6842989057741227 0.25521635024840666 -0.22439422772878606 -0.5755402280245312 -0.5378867063868343 0.16921649169015066 0.5404480305688895 0.5893905742513909 0.5287414709585093 -0.08707805670821456 0.5837168417444203 0.2411132238628062 -0.08669172382056857 -0.05450058939122208 -1.0341941293829628 -0.48136585199589366 -0.24616751525030522 0.25104671539174495 0.4311460278505763 -0.5020510731584893 -1.0220525528308182 -0.11229013758778772 -0.19428185838875775 -0.029575412636669882 0.6126960955228523 -0.035852499128764294 -0.05549578804677906 -0.3023192564543776 -0.5230228631786928 -0.8868774098018276 0.1679615370159214 -0.1541062303688687 -0.8664504288091183 -0.28376873333817504 -0.21089612900255233; 0.34103875122224336 -0.8600355723576072 0.4300822802796057 0.6572801661867906 -0.5503540685312441 -0.5426637117571749 0.009591389108895593 0.03748923011261318 -0.0020759277803632627 0.38473245154815194 0.525444039936288 0.46068132354832425 0.06022095916664068 -0.1591479461004735 -0.3702643062611803 -0.7375962058824324 0.3857671139044542 -0.0038113226629204024 -0.9546777214001998 -0.35237035145214185 -0.3733970093850173 0.0307776484925923 0.22086311876084827 -0.9573176908798927 -0.022144041644092893 0.29416002277696823 -1.1511755772672838 0.3869045879309727 0.3893168058536542 0.4777907937774386 -1.3489430876718111 0.6243746518381632 0.3956817163035881 -0.33409469383601575 0.9717549473666167 0.46060147025929304 0.003188896132080517 -0.09417678366974981 -0.1692843518771806 -0.7107871860478095 -0.45228444690039515 0.08778233606539915 0.028400521664063143 -0.13539155729728866 0.5377970976478199 0.1850526912311706 1.4118913927100012 0.7390779887669497 0.23229093251401023 -0.09403083226777632 0.6386899437371071 -0.1598258874381069 0.16276225972901065 -0.15951950415047808 0.08988447967491309 0.116985707768885 0.09033013570765093 -0.6572397555130065 -0.016062910206570045 -0.2596875489746705 0.6956384041178494 -0.9364425450772158 0.5636882030356519 -0.3937685150128877; 0.38163750968863375 -0.4134054267572601 0.11864614524345574 -0.23993565201851672 0.22182893943280818 0.035676654389569205 0.005099679183304964 1.021480585991855 0.511439484789919 0.13023617291209474 -0.05929557060677201 -0.04803741934983893 0.3585426745876778 0.10629515800951758 -0.6820536056424957 0.40523562461877616 -0.15431377449789002 -0.2246915465397426 -0.46074747112756737 0.14067827109878023 0.22039784146935476 0.4738021692391991 -0.6613179444532784 0.2917136587573993 0.0483744469781083 0.006980919854225619 -0.6337201987364989 0.21633080179154238 -0.2831287701885653 0.17858807634331414 -0.04570003156943071 0.3674094410983382 -0.11017401102828651 0.20969687650661817 0.08971363046205529 -0.4943298494509373 0.40827070743955773 -0.18833883155461367 -0.11702713618974046 0.561600626077865 0.4378120101056106 0.33914705471613876 -0.33134696013824755 -0.6414048903298188 0.618090961867835 -0.014669126367120333 0.5448057281443478 -0.31750835612474715 -0.22664576278700607 -0.20193105512696632 0.5705113712130225 -0.3944466083614405 -0.23271744333078945 -0.5375868554225186 0.38537341966979693 0.8592164537517195 0.12441299761430584 -0.5264462869306834 0.30309225777961396 0.2315370999865115 -0.1405714504041187 -0.2729638767076237 -0.4828805749988545 0.12795062089700265; 0.012610411418440076 -0.00821552396611873 0.06691072339653996 -0.14070494352065616 -0.0786672593602953 -0.8155640768900396 -0.05254733331906876 -1.0555230208705098 -0.28822798236859043 -0.04739839604583156 -0.39209184942449876 0.05105702949591571 -0.4420416238353205 0.3128400791302301 -1.0186989118822833 -0.07585739283517705 0.329828492834062 0.03136725585447317 0.28799777701348683 0.4305541040209974 0.06759603347068918 -0.05025675299079304 -0.18771208692010038 -0.1499626995914539 -0.5625298158525747 -0.08850068811598596 0.8428392027099977 -0.33045983832312215 -0.28158588296734044 -0.463629531082072 0.17924073484710298 0.3917758390075811 0.09674433543487083 -0.8812093732235257 0.8660888311985024 -0.0026809790517047403 0.7608687808590933 0.07986687989818288 0.054378990018890884 0.43449987534016 0.3762824611545459 0.12885675214008388 -0.13293175351193998 0.2862070480360209 -0.16042237470349102 0.05025773714180709 0.10581750907439387 -0.8318403546328416 -0.2316337995396883 -0.8894723568631117 0.6563962675186625 0.18556149078094228 0.7237413011292632 0.5785866059010386 -0.17118588007315527 -0.1401947649731464 0.3128143929218404 -0.3440617769883833 -0.5631958142002486 0.1754223698522869 0.07588178631500161 0.5417887051966372 -0.20367921886950757 -0.8377907989002817; 0.06199471814525474 0.9342870366054051 -0.9373215012417623 0.014347685546835296 -0.4817876080079083 -0.0513414701368981 0.2856077532121892 0.7565646219818886 -1.3049442036378653 0.7121375252900982 -0.36270423232601817 -0.43671371752609006 -0.09620617780785563 -1.85043630410034 0.3246199374756329 0.4348275980916664 0.48147433039032667 0.4627248167350024 -1.660392654922315 -0.12885379234719213 0.4034977481900705 -0.684932359240104 -1.0316281757407453 0.1361267105477991 -0.7074586302909807 0.7129736225056195 -0.6644803995837857 0.38500686005781615 -0.8676054952826548 0.005911349352876079 -0.45643608519271184 -0.7321458223087088 -0.10821741991024637 -0.273600192711888 0.052580726271258225 -0.6509611688926149 0.6346945496608526 -0.45832782257209875 -0.050091443181097955 0.39608672118882127 0.618889556610003 0.8093418460827488 0.6094660643212358 0.3549872920015299 0.16232094077867182 0.4030328681321802 0.04914456776715254 -0.014101637209932533 -0.03528784927728292 0.22826438936425625 -0.6281395800980962 -0.1781101158763085 0.15381435569392185 -0.10632462646894288 0.027150467514944248 0.5851977345800107 0.42196468143675886 1.1664298845821126 0.6709795419296508 0.7806311002284735 0.09778251059357011 0.16161320906947257 -0.5550680283971154 -0.09698665118819134; -0.2175788243640518 0.7461648552304301 -0.030266075975006537 -0.09408346308808282 0.009718816593958365 -0.00014466592290497893 -0.010452012928194039 0.15214624478984706 -0.4151172678033014 -0.3578986670802633 0.8995005296477037 1.0751239791860878 -0.011719019930032252 -0.0040766845477937935 0.06817420062433285 -0.10452186344858574 0.5007245778334867 0.032245493025331716 -0.07588586114853771 0.5800937864582068 0.25242761547508336 -0.043948711829503224 -0.7041857877421378 -0.21558688267000845 -0.16145957215651763 -0.18426106417885665 -0.06165475898814848 -0.13240235548139978 -0.024547199239479917 0.0653457651579918 -0.09612713363362282 0.43744650049756445 0.4469981149976886 -0.5633995922134181 -0.06989264772259414 -1.6013822508759985 -0.18640547025474083 -0.430117220783051 -0.5926915598955285 -0.13198872882726126 0.08590914986521313 0.39927235142477757 0.7066747638852307 -0.6172398911055392 -0.3301461831662588 -0.2563248734642525 0.32615565661361723 0.05035488106353359 0.11830726941562336 -0.45523027458158427 0.7040246963506969 -0.33337367839859827 -0.13211197474070843 0.7997101319686449 -0.0501190115889321 0.302685216797285 -0.0023136741043141306 0.62902963519563 0.014236018326408898 -0.22869754773173517 0.335112100214205 0.26045549404558493 -0.03229265341702222 -0.18992418510330394; 0.09863739915152654 -1.7563501531190946 0.4481195274467107 -0.5395146607154855 -0.13375475418681104 0.2926350390160616 0.7629736174768815 1.0413320779279098 -0.8784462512676166 -0.35923447947822873 1.0313100901032592 0.5775145398656685 -1.143504621770454 -0.5049747772546574 1.7935444546901427 0.1553007113629691 -0.3685579540348838 0.5293086646687072 0.18953217267863126 0.7665479734140226 0.5348223585330778 0.6706511041688666 -0.3532729688300971 -0.831879277728741 0.4396023189131167 -0.588212617216376 -0.6351461227890892 0.6236858358025873 1.7870494517122615 0.9393655150801556 -0.8439521729983022 0.919109795237359 0.731436213507492 -0.19119938789045768 -1.379109486904896 0.6072306926492956 0.909256332227964 0.7528296136797966 0.11373802100762413 -1.0019583296719985 0.504118969314366 0.6406838763397127 -0.9188925293509622 -1.3043932679728512 -0.07599278576573425 -0.6265292639913148 -0.5759778613396772 3.4585046619198785 0.21728532016831886 0.5398265505030893 0.5751725254092548 -0.6865044940001727 -0.6754183777261479 -0.10215870634681487 -2.155131323524825 -1.0514177392580222 0.10141853055233467 -0.31594849049191065 0.47564348852700444 -2.3047643143088807 -0.6647027531975174 -0.0388168212795582 0.7145419760736863 -0.7700741895251048; -0.15313338503502852 0.22436129192631812 -0.13442711153537723 0.42527118981438783 0.016176088017823366 -0.4500507757346801 -0.1279410339638517 -0.14627694847532755 -0.4340338228732179 0.16496832005084416 0.38952054940092423 0.25110677609700416 0.8148632326478172 0.19231704315017387 0.06233025701403031 0.45698670230487964 0.33941239520218486 -0.24630403434541567 -0.16050366596069782 0.5474292369290359 -0.9033047589816751 -0.6734214127785877 0.6071631910879461 -0.6378019717119846 0.5226197425584821 -0.5709054721510669 -0.682662818641908 -0.5732606939589356 0.17612362206568047 -0.666868046269475 -0.5207836193480053 0.17201240830246056 0.3480127288559706 0.02578322110473929 0.0716553817323916 0.6673635193245439 -0.3854990638635445 0.23701987635884678 0.24047469796568258 -0.3712830513257815 0.5669471984403052 -0.1754523795878751 0.017975021554871032 0.22243760866158035 -0.9657442366148358 -0.1795508117859218 0.40958088398144904 -0.045962908090614624 0.35208503401372904 -0.046062296852900454 0.6002700883319596 0.2297922888074811 0.09120145798826215 -0.09005563932279731 0.38205553609059123 -0.006856826890972347 -0.74811099119532 -0.12660164198939972 -0.38948134145989544 0.06887968275542233 -0.27775883565810316 1.4525997399162502 -0.006351170204893 -0.9059105625083353; -0.24746914000180742 1.0790051991877585 -0.6977832159578072 -0.1891994478473037 -0.3912998369634951 0.24039726121967284 -0.1888973184772839 0.3950428656982411 0.6958246646200533 -0.40406934617752005 0.4704548335717961 1.9465712670923707 -0.44108626669210316 -0.7352399029922414 0.6836104888232958 -0.030625670235192387 -0.49047413571034837 0.4534900755202099 -0.09437123355652649 0.8074916325002542 0.04367812133052744 0.22483569915414114 -0.2867892810970457 -0.6942398054223347 1.125623872427983 1.1606901069172442 -1.1682827813422907 -1.710671036929115 -0.2349921110496379 -0.6030766867755311 0.43005351578507167 -0.5763911587027901 -0.2078217376769835 -0.37000367345830537 -0.9413528029843885 0.012883522993256647 0.7623738693334456 -0.03779745317842244 1.238223459755478 0.3312778449731067 0.053403355106692814 -0.1703051856440655 0.9117671309582389 0.0664930987239421 0.7228098545298683 0.1935770466601326 0.6792905675512249 0.10481578612117232 0.2938927553839883 0.14886019382381382 0.11772644215640984 -0.6777354091836977 1.1908208213138491 -0.010694809500462464 -1.321136767323416 1.3684178624181897 -0.12455710803923532 -0.6532963487740814 0.20050231781216743 0.44681605450528045 0.3447950926445759 1.3358428060558127 0.2959746467239446 0.9981365993430348; 0.5312642279571351 0.008536288181262668 -0.38194322492823657 -0.1403173250630872 0.07565599544824779 0.7977665048147203 -0.3518220575074571 0.20539798217173758 0.18921313117681302 -0.2902183658448742 0.22863963324284606 -0.7929375431849965 0.2596169124984479 -0.4742424612026553 0.08792479678266775 1.3618597689763423 1.177376329342862 0.4348591454241489 0.3725872407738266 0.7609911730913522 0.46068265453974766 -0.5944461407782987 -0.2980997374504503 -1.308735034598351 -0.47863823638029557 0.07255005894325099 -0.03497919106752699 -0.022841757728485644 0.25329301969330614 -0.033623462705639186 -0.2657668320539224 0.09746680903982957 0.11595041654310911 0.06539063507636678 -0.19098536199791435 0.7809174273677207 -0.23304051170943046 0.07480955302105359 0.03191751109870408 0.06276045705501404 0.1155321767782054 0.8923758729373642 -0.10523432783594566 -0.5017524222917953 -1.1034486338596083 1.1184372418258743 -0.625382587637034 0.07264465892113182 0.8118541325719736 0.5402587949374161 0.048032199410238945 -0.4159771357991189 0.37747360245881795 0.04368478709979601 0.4194179510730838 -0.9010563695128807 0.1883100925551664 -0.4203146081971317 -0.8848000453375149 0.6407439659996452 -1.3343264794885978 -1.0133619108974254 0.5036395791546103 1.443828006345331; -0.7183441999683902 0.33825535462083606 0.1877234983405763 0.17578151754682358 0.03132856494583703 0.791430214521711 -0.24060730874273412 -0.9984338418076251 -0.28539414565691673 -0.00022845610320617671 0.7199221968754763 -0.16898595079228937 0.2217648056864805 -1.0019194531678206 -0.3704231033006877 1.0600666992358871 -0.014648094888783587 -0.19196698771494874 1.1963789429069616 -0.18959101639506917 -0.09947723246654241 -0.14219593405160041 -0.34244591271572444 0.8142392032173976 -0.11420802454713246 -1.064395040368145 0.14547466318208271 0.762037892370187 -0.2672052473515194 0.3030501980305199 0.37451435857959975 -0.2270164691151038 0.6152128933942156 -0.1088539062862321 0.2968960459041805 0.20080270553795715 -0.015684119873623708 -0.014078756632950346 0.8550589445885128 1.3635016791330712 -0.2151650605069358 -0.10669414034692584 -1.4950518098577694 0.1744912044083786 0.3189265848895733 0.21987912653130498 0.6189605504121948 -0.18336505891371635 0.2777252030300193 0.09150147636912506 -0.8953849651924785 -0.5597232210894064 1.1413615982278251 -0.229279421111659 0.06465567449373594 1.616305541004462 -0.09912251897695365 0.9570731775812974 -0.07942312332216081 0.3235852741447339 0.3577447272105424 0.3573864541457488 -0.7197825139153985 0.21344416839194202; 0.74724844134513 0.5516345893910216 -1.7910880703946943 0.687718050278928 0.010265828401106243 0.29253525190732727 0.746125900885148 0.9310946497400615 -0.9216257017660908 0.4670347687854211 -0.6245477829677697 1.1297514700559144 -0.5636126863721785 0.3225320224884015 -0.7354916364809568 0.1124321892226895 -0.012658989940431036 1.1908423458159492 -1.0275470320028508 0.03025861450733179 0.31890411111145855 -0.2780041969752996 0.0007709820037546544 -0.9714686983024516 0.14226829743937808 0.6380137062319572 -0.7836265539415892 -1.4321297971835714 -0.4881822821638952 -1.61991951165804 0.5464413967833096 -1.2732123908875344 -0.844667976628052 -0.29474171781579805 -0.23795431980183204 0.18723090883048554 0.08903797677467974 -0.2850797479293016 0.6771583088253703 -0.5950541463838984 1.823752250570146 0.9974234170428136 0.6645950810681119 0.7728852462689706 -1.1711290526271323 -0.424301846351591 -0.40734301782715593 0.6454162170069382 0.6924957735678376 0.4598546127856776 -1.0445702393301899 0.6344927548837775 0.34720601566014464 -0.5446914539039778 -1.4786477370350228 0.9520498868692445 -0.8165739238178763 -0.6019676172113875 -0.45559690738490327 0.27411027266851407 -0.6475062203213177 0.5503492961170866 0.3312352018656989 -0.04403314686024912; -0.35445729087704364 -0.3610985222239376 -0.6223880940862482 0.15907307823776462 0.11138508245849692 -0.66652609281413 -0.7289261627690616 0.003784575182590015 -0.02042483185829055 0.6253045543288303 0.2248081765499922 -0.7807946794537264 -0.08768024122900081 -1.0861180725734283 0.029814896475525765 -0.45928438153491347 0.08623559968410884 0.1806898901861614 -0.3892157135034819 -0.05189479552756806 0.1939066479403803 -0.0031172697681121583 -0.09550405243040572 -0.18330392996651756 -0.10929669913289156 -0.07646386990747377 -0.09091778418518574 -0.022485661934147003 -0.7838687361912533 -0.3630423923738495 0.03766847871195586 0.9327466352938744 0.642424091621049 -0.5562364642899054 -0.231431676233536 -0.10385403156724778 -0.9233548893537395 -0.7543370766487384 0.6395207931114482 -0.060613650002585145 0.0208389637507683 -0.012900912256775256 -0.22245956768286979 1.1965838471234778 0.1482870454818603 0.5915130231020216 -0.257778432821026 0.4616855099603719 0.07255385678630522 -0.7474442690510165 -0.7353398094169404 -0.15910754970425361 -0.386686816663954 0.311713593883584 -0.855722538620619 0.5089394647401494 0.5711250191768354 0.27909921351746075 0.8195934584417058 0.0065341111852695 0.8041985878484504 1.1560020442977035 1.3350487183649093 0.001840374699329927; -0.2562013608123685 -0.0851921002198579 -0.44048522884815206 0.7305291790135297 0.5195146646520366 -0.560383307396256 0.44524656499763754 0.15521217372620863 -0.2758470583474438 -0.494346205065559 -0.01243286014119662 0.3802493558378271 0.39585295261229947 0.28486588731303175 -0.7195807168260454 1.4085907497787233 -0.6719951017969367 -0.43139424245269625 -0.3053979827768677 -0.6584173297552429 -0.23216000834987544 0.34517192494256743 -0.40916318728071444 0.03638284231114696 0.5273498558763952 0.19339983189574586 0.16604831658777733 0.2686117501901767 0.0068291519224504245 0.00235471789488694 0.6097428133511156 0.6130322320721109 0.4257585148511955 0.1523340520790912 0.15122136963201616 -0.04211043438155409 -0.34931045042805425 -0.04232416217881788 -0.8119947070045728 0.586099974699525 0.09306258792520605 0.26785323474823575 -0.6407534557901217 0.18012878272395652 -1.0990867323157627 0.1731704589524604 -0.5608818711707249 0.7583107904845272 0.5504452632871392 0.34222811658622493 0.22843590436764696 0.1412201630299957 -0.28595264981589463 -0.6711549824003948 -0.4879154177422933 -0.340126500031634 -0.37399334462540884 0.44784619969649314 -0.4097640511821242 -0.297606591697161 -0.10884953501861978 0.3777776507179053 0.009727742136441966 -1.2836798103562113; 0.404176022835047 0.0011826483165721222 0.016587404484407577 -0.379859485320166 -0.0003662222554431143 -0.5968512762779447 0.7791667527858447 -0.0792228051316664 0.05591390625249721 2.4692111168631072 0.5883449842877938 0.027158547868795527 0.7512989591207683 0.27037589158872005 -0.014097063456850962 -0.5887354938628592 -0.4077023276153992 0.2761273839524536 2.011114603051984 -1.5094127773316284 0.9175754837588016 0.44793335717524546 0.4460697097553773 -0.7036645218434584 -1.1651788097067128 0.04669715627835972 0.24921271173866827 -0.744743042017671 -1.1838228853471433 -0.27356040443964247 0.8910233087963798 -0.4876009731012355 0.1184086089173697 0.009328966088807285 0.0008281714657706718 1.6968782719120679 -1.1414874833769064 -0.5047495938317957 -0.1565574487502343 -0.14522958742191833 -0.7023521972473452 -0.3579503087246753 -1.4177453512871478 -0.0002679675515293345 0.9401114663046073 -0.5853402134690499 -0.009933251216562945 0.5527118841982374 1.0820998581324839 0.15312079297875159 1.140867704522148 -0.43437867176716016 0.0976019937552216 -0.31530148474103364 0.19297687684455775 0.4505733004629647 0.5678573971316316 -0.143415892935552 -1.1533999380670925 0.01703126971199761 -1.1395997398457927 -0.4555039583328825 0.007838919991902064 0.11503611723607654; 0.04822845928789316 -0.7220715041821026 0.01969212047342652 -0.4003065169764261 0.16467172892291604 -0.11467102793972499 -0.06925321559582107 -0.19437918164992124 -0.4882581385971179 0.6415790761808967 -0.9781509120578664 0.5262494477353357 0.9715595148767634 0.6096319546295779 -0.5990147403424761 0.007932613067708535 0.24382294806503527 0.3707318762719873 0.7343527893329329 -0.06632133075271593 0.3212848557831878 -0.046486901020583456 0.17471871003199396 0.6019653492982171 0.051731386418360656 0.38230307947037584 -0.001422658408782376 -0.7382721263076331 -0.7818456308866121 0.2007005578939299 -0.47429817925376627 0.6192896161816385 0.7473814741941485 0.05052151613547628 0.01730376439128616 -0.16371686892119988 0.34770341651652376 0.09629370049380373 -0.5427891732652597 -0.09899047166438064 1.3613531390964355 -0.007910485943269272 -0.6262526937318468 1.5296630825403132 0.020666275932439967 -0.3326867482116663 -0.4666318992407838 0.25960874491436253 -0.02591342358912016 -1.359959191779016 -0.36362614374818747 -0.4467724070500717 0.19343059404347826 -0.7525765499538245 -0.5665553851316767 0.9556947809965898 -0.8263057841696941 -0.8774757530680045 0.8693986028520945 0.9521795551154891 0.3262495694723916 -0.7783166482711075 0.04563083180058953 -1.6290811037218522; -0.029611760736356046 0.15087989251228845 -1.098239419173964 0.15873517713596455 2.67464678467125 -0.06315860545771777 0.5064247931426691 -0.3410948889415745 -0.536751803419238 0.009946937552174311 -1.4809481394101602 -0.28740773006537507 -0.001980895397770544 -0.28386198632618215 0.13389043260592776 -0.6872318115960492 -0.16558755968461866 -1.001852263915089 -0.7456744567294751 -0.20928567189343456 -0.3305248134395855 -0.5792934347506105 0.15620274270028978 -0.08884095853820353 -0.06086420488215219 -1.0699784624391864 -0.30792548299026523 0.835330342800111 0.40563967262383216 0.427533439708866 -0.559651321600842 0.17867472214476307 -1.8136764179992624 1.698364948632142 -0.31489619531313556 1.1206348951338219 -0.7837294926787506 0.30846698730768146 0.3291146600546697 -0.05075496095473881 -0.39609861852782396 0.050985064034017175 0.3680561443880846 -0.11344660449420571 0.004496294651881607 -0.26143313154255904 1.6552200762544353 -0.4164859955185787 0.2215703327782886 0.39498019963056963 -0.33311582514176397 0.132480690648698 -1.091431813183877 0.26404471143093255 0.07964749436796419 -0.007166864679218722 -0.6644043725425963 0.7399405436384623 0.26606867729487377 -0.6994629010267994 -0.016989498996953154 0.2577585178543328 -0.09207648379347114 -0.9602415200994936; 0.18705670554692924 0.491482004943192 -0.0474648702256186 0.04215134714839785 -0.5631725081839395 -0.5198441606801618 0.7413278967377913 0.13979050168670376 -0.10411810360998507 0.32418367298183637 0.921879615739283 0.2291635165532837 0.4000793284936073 0.011201358666173567 0.545964620606214 -1.427600310014371 0.06047302288079667 -0.05601435299344128 0.41652131826113425 0.5176013194491883 -0.13693165339573868 0.3130657328576974 -0.16298151661780955 -0.7285025864855781 0.4937980358551379 0.40291284584213294 -0.0712301683857971 -0.22973998699379466 0.8370732545362998 -0.38887289526278523 0.20939521093753824 -0.4011757092114724 -0.14827200506603386 0.1257119548276621 0.007970099165695582 0.7270141547959471 -0.6930124447838697 0.35727989959859646 -0.6711289183316212 0.9418306066717934 -0.04306219008264713 0.31488240618586283 0.0536147322000023 0.045546411323884727 -0.09707237198646475 0.24426629134714495 -0.13404395435670832 0.7099241113584928 0.2994568372230351 -0.2754472514245231 0.5726686672010491 -1.1450320320459282 -0.4260078375797773 -1.2020784422482629 0.8652669322657239 0.34492664705383425 -0.1466955551159149 0.5823828266300134 0.6385601386893973 -0.4097200714342968 -0.237356779577086 -0.43403419383663283 -0.17847890212041523 -0.012950628971288817; 0.10699246672952437 0.325809211056406 -0.3030975074328099 -0.7403728529056617 -0.7386169703224262 0.2504691272726254 -0.33827114762945015 0.037011142437513925 -0.27181069405015623 0.3123324885350161 0.23730485602273266 0.1085859274082336 -0.016623644905048834 -0.6224858489257918 0.21753111891448143 -0.3567786740703622 0.7001990992676334 0.007452864649671469 0.019594894988944875 -0.6018083558916965 0.036142436756587557 0.0010091425526854813 0.08039041513769904 0.41852523332370967 0.030339329901434134 -0.827542460948555 -0.2741025202779545 -0.26668205950155616 -0.003634325644072084 -0.44000408589932105 -0.619919343976803 -0.05111791669688679 -0.07435560169457149 -0.5356607307307679 -0.0444661157524794 0.5441312386453417 -0.26800742883834827 -0.4990486944170043 0.06614656909283517 -0.31884178914506023 -0.6390526920716231 0.22287667576683715 -0.07751164613040915 -0.014788584635149931 0.041228876890258705 -0.19958422668889997 -0.7622790279846299 -0.035536400355357024 0.026841395078036834 0.3562739622338175 -0.19806542405852345 -0.03974842047913437 0.7706412015447356 0.3404978374139869 -0.3715597885085227 0.32528434280183427 0.3288716516722432 0.7128930479927418 0.1678413118668328 0.47817060594511906 0.048215652121332664 0.07870054927852417 0.010960085600090328 0.9664640841348241; 0.4060313848315174 -0.7279673064822075 -0.776116683810252 -1.054244273849518 -0.04283112784703382 -0.19133304213862964 -0.028917488381385453 -0.08388744224979891 -0.11208142341402223 1.1740035293328037 0.0017579457680933746 0.29820722275340417 0.0008516452800610545 0.029711560880803668 -0.5789527712510605 -0.16392741987290219 0.6852393011401148 -0.5261705398545561 -1.0303862473829983 1.1778063970768469 0.0901014292839302 -0.17394195577947003 -1.2187052830724439 -0.35386284984184996 -0.15576327504232115 0.33957515490531576 -0.5773571009107921 -0.1383387867835125 -0.11609578807073757 0.17597726896201407 -0.6226012430665667 0.4990225237315037 -0.6774493430335092 -0.14205355097247857 0.15021630039452158 -0.4117316833030784 0.046765460537201015 -0.009027614207089467 -0.5962015449409759 0.2627132974729106 -0.5402717920421455 0.42705692656139915 0.1376650850214684 0.49321901168795085 0.20539312516685554 -0.9731313689901783 1.115233323447138 0.40310816353645246 1.371508647942228 0.09083633877568008 0.5039337669167181 -0.08732594937384172 0.6844915068088592 0.006056910788741089 0.5163795665910922 -0.04808665234684866 0.14349771017085272 0.5092092941488863 -1.198789612768477 1.240429072300469 -0.18193613980970946 -0.029852877378867798 -0.81238288095955 -0.1809859819238546; 0.6215774606508621 -0.2747204126773737 1.338386456053848 -0.2155934294628993 -0.07075232401646261 -0.25413586885547707 0.4006050627083628 0.20357101038254727 -0.005056527516196268 0.14691436939685834 0.6104654088228957 0.3617036163312313 0.000788424966972052 -0.19305927169869533 -1.0463808059795807 -0.6034224069345504 -0.005331001464202513 -0.1307271863350655 -0.487807066590932 -0.12179694575826751 -0.4506919979513844 -0.3865124472265554 -0.5592737417327375 -0.7519886808634414 -0.46986160493579926 0.3346303035801877 -0.48583302000430756 -0.2701715915154869 0.30081000376872247 -0.7068771680791056 -0.7236011608927054 -0.5023239064238811 -0.17297154953045416 -0.3831765709570104 -0.6822278838689747 -0.08915743615911137 -0.4724154761064611 0.7882347922211259 -0.22187414685812135 -0.07473589593438736 -0.13276448583972375 0.2814837332341574 -0.10016351994685091 -0.34380284377047854 -0.4884948731155251 -0.10003992294049882 0.8048823948185759 0.2715982727497625 -1.0007410773324403 -0.020058676878598344 0.28939475447927754 -0.046644877071183484 0.008541864581990993 0.203121622423702 -0.28368353952875347 -0.3822946373121489 -0.023704071633149935 -0.00026751569414251025 0.03852596789065198 -0.8115462690065359 -0.11588536613925049 0.8295821626661353 0.6549577571348831 -0.7255654506280954; 1.9285568028991178 -0.1644604640682286 -0.27166903475777365 0.4506750503865695 -0.13043196406170265 0.736588978994149 0.10715059317660676 0.29603421662430046 0.6306552461610824 0.5699617815255401 0.5481218592791456 0.1227524807730482 1.051392110954314 0.4907292841713678 -0.07448521258311833 -0.29326494710074674 0.14285777055706292 0.13442701171887256 0.07976411088494846 0.47282766155317496 -0.4913839820447878 0.0693974335564326 -0.5487076172989094 1.0368705644239986 0.7331456531729826 0.09242066699203384 0.0011762212484397567 -0.0011317958281367615 0.6519732644929231 -0.4451082193005864 0.01253956694558499 -0.4471488647753782 -0.6436259261422002 -0.5214123803531118 -0.5300239373313267 -0.1402070164168693 0.10703020140285538 -0.31764929462794667 0.4666572817184611 0.034968654300089344 -0.00909334711647115 0.9668346613812246 -0.6417406639274849 0.31069547617365845 0.3356534860002731 -0.2891538685496874 0.1722240887001011 0.2296039322859053 -0.2895076110393972 0.10398284816946869 -0.2744865406931718 0.0025723805496387564 -0.8156088939861832 -0.2735902244520385 -0.018764986546279075 -0.12583003245214197 0.2589156983919237 0.06258189924451595 0.005722488965249808 0.2616203610010161 0.8858763063031078 0.11177607114664778 -0.5677923508197363 0.03680152261830391; 1.8956202802309585 -0.7738791391582447 -0.6731057522302053 1.0025427737877048 -0.5740878996580372 0.7512338453786191 -0.5520643904649645 0.1866721942993605 0.15811544701276908 -0.5957557491599113 -1.0891018243792898 -1.4875025235759032 0.5464099676340949 -0.8138551775505636 -0.8541947962842033 0.1475966783482694 -0.6451030057503473 -0.2843687057625256 -0.14513393988761325 -0.5928128394169498 0.09765454016811434 0.09915349979022794 -0.6823768730241551 -0.0210799878340428 -0.3849855648387908 -0.4279596283955528 -0.6489082147138591 -0.4623809772900634 -0.7700578451530341 0.3274803246518635 -0.20005140219417186 1.3441775579969508 -0.6144978086077078 0.8483567938888585 1.733612120363038 0.7863765501867771 1.261042820157812 0.7753306454740211 0.7643479350164224 -0.21768103764730662 1.178593295180795 1.9483573997535268 -0.6816258647724273 -0.002408296451016409 0.6204335568414557 1.9565966384915907 0.22475313144447376 0.520830802699334 -0.2478265767631463 -0.04834568643069669 0.6279832549153938 -0.5159474132592384 -0.010749895570629005 -0.99313260029007 0.478778408097853 -0.3397413355193028 -0.3981258538937955 -0.47969636942309096 -0.6745599379681366 0.2002807691336376 -0.21431481928036386 0.13479728289179563 0.14101283511340934 -0.17460514904505453; -0.1685361409058251 -0.10981784867623226 -0.2802740515835947 0.3352962473238053 -0.14762408040447136 -1.2172858732862708 0.25325965841887277 -0.4428888688149153 -0.07038510425291013 -1.3231704310685808 -0.44215974934825086 -0.2536115200450926 0.9152571594598395 0.018316908915902978 0.004862964627363143 -0.09851715458084932 -0.0006192547981895148 0.778940665599804 0.4455668826509532 1.0652387262040517 0.6376327965849303 -0.45357263396220004 0.6605595999034998 0.5639146616500831 1.216912539802404 0.6101707608015201 -0.47152079949706427 0.09147357089495116 0.5548142319184055 -1.4054010119308717 -1.1009448476283181 -0.296774976889621 1.1003583938047503 0.52673723094549 -0.7327747370228862 0.2449518227366074 -0.3580047816442165 0.30876677434086947 0.16510653185306992 0.7448456745331493 0.12251077116516186 0.26969515852651693 -0.0017897805018678014 -0.05268872371462032 -0.33077735430992816 0.1299747528303557 0.5392327010320291 -0.014298412559865881 -0.13585873826844666 0.012435051647227453 -0.32267981397960277 -0.3657629874217375 -0.0844119885432361 -0.7341791072777991 -0.2767426439094797 -0.1630199971777852 0.5285249837159256 0.5703579996506147 -0.17925203171160436 0.13156578395828936 0.5528637579064613 0.6795672932335578 -0.25405406066222735 -0.7034084492214895; 0.5710039620980819 -0.09353217571913183 -0.15823306359444816 -0.6724018006435317 -0.6326980612595816 -0.3416616550076823 -0.2612380978380179 -0.4771217978935249 0.4574130469543793 -0.035186651210011494 0.7318370016363687 -0.23444986024549108 0.7996146036225306 -0.0034966166899828353 0.0021297269208859103 0.83996770885148 -1.1370467746390716 -0.6942292696720017 0.1331446375805321 0.38040724702209794 1.2799253841907865 0.6757613387603963 0.17293316275737974 -0.03196504390695334 0.5072208945873342 -0.4800128657895432 0.023983422340709694 -0.16367723401173023 -0.05306269742760831 -0.35110358018958904 -0.014940418198772044 0.6825643749454972 0.43509900935091844 -1.0893238349127061 -0.5415700675613915 -0.13200641704809746 -0.0695212682301374 0.20788575470976772 -0.6345624686968361 0.049241634039840776 -1.1745110029732932 -0.26453199193910193 0.46809947309431726 0.25270708727528607 0.414605815609795 0.131470924200294 0.9522043554856142 -0.0864143688199882 0.33350611162771154 -1.1251607542390016 0.15022063169864835 1.4933672716217938 0.11296461387646196 1.0092791661933365 -0.5588459108135023 0.15788732543325026 -0.4167964654384725 0.17810870221549088 0.016531303917436926 -0.7267035279127102 -0.26287977024308 0.13527641366910503 -0.3922054984229956 0.605746487267963; 0.10486210466990692 -0.9122588150302652 0.6152764448309448 0.32789386099961887 0.4276516157757798 -0.573066338535197 0.27512885707115337 -0.23481076994476568 0.57059860984735 -1.3267045514989153 0.41708126549175045 -0.9605664925739924 -1.4572477664916128 -0.1577955740444953 0.5367417962601972 -0.14911744608326422 -0.17576467627251327 0.3188532011485005 0.1783303653412254 -0.7745049833290293 -0.5042029609105702 0.5857754604860813 -0.5525243426636647 -0.28964104586687067 0.23211266582892048 0.4196311886617477 -0.23816015459342887 -0.006854388216113949 -0.8383906413986251 -0.2806641124845593 0.6278802654702573 -0.5714256381762627 -0.13733983267525693 -0.8534453445426997 -0.33683337903815175 -0.4074801778168319 -0.5054662269367917 0.3931946458224578 0.07385487560921755 -0.3613791311499049 -1.2810272449607456 -0.12336085339872709 -0.3701301127826769 0.0053342875151221785 1.329982389725209 -0.3508098809354142 -0.2387217252461771 -0.019894569567644824 -1.0470835409737045 -1.1391383912390591 -0.2490614664654631 -0.7620291641797746 0.04201417485342369 0.5898808275405746 -0.4224831332833826 0.14092514097781267 0.3491243554563924 -1.2096570331152454 0.22777456105886754 -0.0807036543975117 0.501212369361832 -0.22295690204966617 -0.18798892337319417 -0.4509354015927079; 0.6565987840886888 -0.8314783615644752 0.2272660988828484 -1.1721680808591555 0.14075659641075494 -2.023374002126126 -1.010632834773824 -0.40198701486199356 -0.08609750789688793 0.38441028010154893 -0.09112249287428568 -1.1714554996281714 -0.24948794014023368 -0.415740403803601 0.0006990542424581598 -0.12602365629592835 0.9526173447336147 -0.20355113656743318 0.4564027950585333 0.7605940263187374 0.0766918540093301 0.46405046842505987 0.3119452303984702 0.8630084599304426 0.21377937670054734 -0.022489862303868752 -0.0012389779552111429 -0.007953066612212224 -0.012714592450917352 -2.019135849262879 -0.08796868117423176 -0.4374128593543471 1.2291776151215545 -0.14218733590115376 -0.002493671274728343 -0.19566666720404882 -0.2353713273088211 0.6900200592627398 0.28950509527868157 -0.32611227566007217 -0.35495065717725754 -0.4538290664081493 1.4508548936067782 0.4688870046304383 0.6916386192759327 0.08211677923837633 0.489340530267081 0.017815186534136655 -0.541397117389864 0.3041922359267329 0.04528715551165814 -0.49019034070567086 0.022389955264832718 0.040572773588151624 -0.261137257695389 0.6621597198250041 0.19480021762788713 1.2458013775842787 -0.6859700434701438 0.15825603847310749 -1.177670090343169 -0.0034099852631079386 -0.3463507228078082 0.056827033818452055; 2.8369182235151217e-5 0.0879469506342287 -0.12683021916309345 0.3144362422673136 0.34273146119748327 -0.8169089818867904 0.6112316944154272 0.32891881426243313 -0.3275982205163026 0.019356090086421716 -0.027623905153694575 0.6563217077676515 -0.6004731762159851 0.5848296466742371 0.16159355846294846 -0.12565596812946034 -0.4287108601889342 0.2677644051879542 0.4739589668569883 0.16283777603322538 0.10387927998973613 -0.09248560034279299 -0.061616525788457104 0.6372432649837915 -0.7694697654001221 -0.3320466550516172 -0.0652164343900304 0.23256753152084103 -0.038359717023286694 0.42532479923589867 0.6964322904395649 0.009435190004219775 0.07872744927555793 0.07637509835892124 0.10782250747590078 0.723130237304049 0.10476047058472891 0.05371781894614883 -0.433443706855848 0.18417746806486565 0.15405194741915895 0.3448368031523675 0.24660097234135603 -0.06420027321078187 0.2582913041764081 -0.7331153787450756 0.10136147946896355 -0.25174448881040723 -0.5168104660811496 0.23006031202659755 -0.0798515779615297 -0.0028553992015461094 -0.326540408688985 -0.12656989744841615 -0.5178228204855851 -0.004271568355732193 0.6318988489161395 -0.12881868149971715 -0.18189674425836744 -0.5472746254177867 -0.05171493303918334 0.06408472016937039 -1.7784178021688961 -0.04177184006674629; -1.0671747383985806 -0.12079912161017917 -0.1570368983177228 0.7106005022680191 -1.4292851746058963 0.43982169286738204 0.18202912984071293 0.14104244850877148 -0.3320242474200132 -0.29512025324928387 0.024686089299972194 0.1919136960951898 0.18075163016759052 0.016631138886737278 -0.01797357287845135 -0.06859122372072195 -0.5122915393961499 -0.15424369666856255 -0.6527518725450825 0.7174930653736025 -0.17425158344719885 -1.2436764489567937 0.21618031429441806 -0.44539386365067724 0.3707910812262158 -0.6936629237319261 0.41059691432005213 0.5108684970986792 -0.04746740589841439 0.2813424049387524 -0.1712733928556062 0.8120695719640181 -0.6511546731071101 0.3385883238990134 0.4406876618656639 -0.08657978855280489 -0.8115094900585506 0.02402918147221398 -0.7949537499959923 -0.24241428921360075 -0.05211829023153921 1.0989187179638844 -0.2739419649635543 -0.8237958419564677 -0.6624571278335398 0.0988400254458779 0.4993510337354626 0.18117569336787748 -0.6039241388810004 0.024369202112255982 0.3062307404918668 -0.166445567604176 -0.34130094349281437 -0.2706050847969465 0.2992017573306111 -0.11127635975961812 -0.19499939181830322 0.18206384586945257 0.811560900283669 -0.25973484400139335 -0.13663231294201877 -0.5681386833326044 0.34773008917449244 0.16712399499498834; 0.3466143539899542 -0.40441344110777877 -0.039368781434537176 -0.7069954759649566 -0.11824811947485625 0.09319435981217855 -0.11501303173448177 -0.15797696922275759 0.09868097583928315 -0.8639207084837378 -0.48188860974913433 -0.4587017354355696 0.7162821306332141 0.007095868152174383 -0.0324497431989335 -0.15712900759800694 -0.35300506635748324 0.9642554568743364 0.4823523848499731 0.7503615100321727 -0.08183546385695122 -0.186044295495043 -0.6522915116255454 -0.3584358294781651 -0.4197774850101469 -0.27346023439718364 -0.30538511628984094 -0.004765831932221653 0.0716876967546058 0.018856496834748212 0.17109257365496647 -0.11472213915657423 -0.5816973135116109 0.9238755570455421 -0.006123797392594858 0.2850679261625067 -0.6786922293477412 0.4817466192635099 -0.10601288879388497 0.21351836428089777 0.19063184799037172 0.47768640446200583 -0.4658471572309936 0.4829863618728151 0.23166615378597594 0.19786933202228615 -0.5409783019779589 -0.29600648199348306 -0.4520461636997247 -0.07869718675039439 -0.4296129351657402 0.11726915667468127 -0.13412622462344337 0.7203727673476326 -0.5908978336557108 -0.07616573472125701 -0.569436602205211 -0.13349326105643924 0.2239130059397208 -0.702843688800708 0.8747258896689888 0.08892912804759656 -0.6667538962146133 0.002544868331028671; 0.9832022200877235 0.3477253525283553 0.3869955696141105 1.1393855126044654 0.11767771255628302 -1.0499722354359344 -0.17035606462024364 0.19877532418261307 0.6371297677973767 0.8420498167202594 -0.046295099579965276 0.5901523767758138 -0.016913050153987398 0.12923658926797868 -0.8807246013480896 -0.38381065398020237 -0.0836430475370426 0.7198891379924691 -0.44303884209123395 0.16702439652317022 -0.7337933588647763 0.6002398582445553 0.589289257544986 -0.137686066927888 -0.8208781113427639 0.3013019202346023 0.05282066981733793 -0.39270978037444804 0.12563471518169322 -0.7449728678226665 0.27494229316604546 -0.26350056308559217 0.0017078632688679986 -0.4847718184634505 0.16490024766731368 -0.40205308395064177 -0.7500826175178473 0.28980118072844463 0.08337916236828048 0.006427278013705219 0.6682697062804775 0.568587619580851 0.43583714957884623 -0.5266894665829894 -0.6067223817185914 0.5471486422547392 -0.44641868016442177 0.13960022827321658 -0.40443851279807413 0.34245094648202906 0.7653578457948509 0.1627851041360133 -0.7273363035148209 -0.7814943893670377 -0.0007248847377693019 0.3221587870705771 0.44069962118465744 -0.8465406771549322 0.22363767892687691 -0.3778251604436195 -0.7041841458592826 0.026351963704816097 0.24607959616660832 -0.009436426385939344; 0.8856415187717221 -0.7595967863783938 0.3228900418836337 -0.07513413600316154 -0.008013043941292125 -0.4457467159567053 0.36174100254551395 -0.24980293373271978 0.806967567164571 0.40049638902121676 0.5022171539365107 0.05708639318387631 -0.27846821505443947 -0.8381330759183226 -0.0014250844836872607 1.2588507546237688 -0.33364298546987153 0.028218943950821862 -1.1897990785968864 0.6258181741009787 -0.4985500903309944 -0.06500925758558183 0.12681964032552767 0.16723610743573894 0.13462151464420694 0.027853213230481937 -0.5282175681463857 0.18370583159140258 -0.7026727760903773 -0.01258288305703131 -0.039055696051275 0.05231298467944679 0.66412650712357 -0.3678158925965123 -0.002393557513444557 0.9595843103692722 0.22355732818154292 -0.643909360502087 -1.4013356880635655 -0.1894055046549259 -0.005043214649332475 -1.1868553582371282 1.0618749713784004 -0.627934117995911 1.0069966217953943 0.3950224103556355 0.37577560248160774 -0.30490915848734373 -0.4810705034219297 0.06844327249138196 -0.5305056592384723 -0.016819765240367216 -0.24277646296928634 0.19343581832941353 -0.7386677198823967 -0.23644410651285747 -0.2928286362290827 -0.2874445165971125 -0.5210506044765338 -0.2607294555027504 0.022527739338381713 0.597045254007914 -0.15933084476586254 1.1063994555734484; 0.3621265135148858 -0.5910708376399618 -0.15177502968996576 0.01390056500349722 0.03655261565012796 0.2960053670402655 0.24214134879373117 1.25013248584504 0.491844021813016 0.2819345595995824 0.4295819103444968 0.5254932891164451 0.6837933571061681 0.01244051103595267 0.9276929376265778 0.00964584926490404 1.0528741270891082 -0.08963364602583405 0.7432056886079889 -0.5997145707788157 -0.5891011034331289 -0.027128163203294916 -1.0776178134924426 -1.2062673805857478 1.3883621265746895 1.0336974349745935 -0.5504494637905237 -0.9325374071205662 -0.7398384451192961 0.7485444773353986 0.3373463601906194 0.019603835817095048 -0.32535352555163144 0.005236427428418497 -0.2012321409415757 0.00012567334752904512 -0.8638056675143164 0.48508519398441957 -0.31072555857476813 0.26088514929411194 0.41299774671851225 -0.7145170679453098 -1.1146896850990768 -0.17969840059759692 0.7932337119339692 -1.4080203119708083 -0.41690461734584106 0.41319543237872525 0.15062991536465825 0.18433469950477624 -0.15256982847000525 -0.7123641365415455 0.6491042783056902 0.12085684119440815 -0.39393850989606566 -0.6812752236602194 -0.3851494455050955 -0.9353036529949112 0.517607013571586 0.8759275967251625 0.41834279986558776 0.00589030285861569 0.8491837555594344 -0.6195208783979858; -0.9497673598823335 -1.5823358886104482 0.5885016157045037 -0.8944275058152212 -0.8591419720299242 -0.06518399182582205 -0.5504783809298857 -0.24136164187384784 0.6309976345489735 -0.5358142794536762 -0.6752360281778599 0.1762590608793174 -1.503077564549827 0.32406178270819774 -0.44014107668472874 0.16598122171345656 1.6501842858201747 0.9009705168070722 0.11688925714052195 0.19870645119047947 0.5314123600177052 0.08504675947947062 0.47854013867976414 0.23628837747741147 0.1366582495125043 1.3199783001262535 -1.5526440855393948 -0.5647661773902548 -0.8820098335164357 -0.002516242255147608 0.5508370669958383 -0.223609494760644 -1.0361068587706388 0.7505108421544541 -0.09499035832648074 0.9165307968101909 0.5027500489365226 0.9680393003128344 -0.9721842931328277 0.7993801147310189 0.8963793280963469 -0.7109716868435063 1.058748015927681 0.763658761098654 0.801171646727978 -1.0025656095034585 -0.005143357833897529 -0.8007411517428629 0.5351623982041768 -0.9672672380358054 -0.09074909793934469 0.19404664113372894 0.6779365576169234 0.636803923578376 0.1171193754716958 -0.09077527614254088 0.682513941026754 0.6236300705356365 0.023138003569168952 2.098753367674635 0.33567402874662594 0.3803796578732261 0.046375466986648836 0.3632072225145137; -0.15859384811270416 -0.6323742562616604 0.28147871184485646 0.7363239741328951 -0.4198261015338369 -0.2970609245936517 0.5838205852499733 0.9634378801249709 -0.48345034624343836 0.5487470328751867 0.14040850226793475 -0.39039625888296214 -0.5263520746639675 -0.024026491345147206 0.041763643468609044 0.4830806539830988 0.03704978481696819 1.0001842842117301 -0.028384309637188403 0.029159145225596626 -0.6367329032806838 -0.04955723718425192 0.436400954966794 -0.11062815222717058 -0.41412952771738637 0.2239626956736442 -0.15064443390953997 1.198264163413283 0.22241154273205854 -0.34936157574139687 -0.21921016681731173 0.19635484051565089 -0.11973975221117061 0.471890785933814 0.24490814809854933 0.17756619777870877 0.043400050309473547 -0.11887409045111129 0.19166030322705752 -1.445148905328537 0.5316001027532468 0.3395485600490089 -0.015597113987643327 1.6087396499058058 0.050161946446332574 0.02411352547670208 -0.4289903733004956 -0.25387087029765293 -0.33671648344007227 0.03284474628789641 0.5940231032410644 0.9836849408607428 -0.2897522164139015 0.1840269459733799 -0.4817778923797445 0.40432840287478367 0.0016739683193680577 1.008746807293373 1.1621627930367635 -0.2952150062099647 -0.0740423579791349 0.045875602753418274 0.0024582895056751526 0.8844961572542317; 0.5453346443522217 -0.15371968134989072 0.21465536308145514 -0.030055637719867818 -0.020215792337339344 0.7447599838299559 0.8681593913724104 0.521883038920668 -0.0034732698033798316 -0.1390988769659758 0.2763371765775879 0.41444431661953635 -0.40912463032418267 0.11384281731146817 -1.0303639245004597 1.5583456969294718 -0.3606930130189655 -0.2469892662209049 -0.2732064318760928 0.9488329614101516 -0.22146528495090698 -0.7412186367676549 -0.42671990591092296 -0.2638482996380222 -1.0283861952550104 0.1305636849038199 0.024802845461707735 0.04140811887445724 -0.3210469683004873 0.21190685871349219 0.15196479910757685 0.4499235479446751 -0.2749294345886886 -0.14406443587013257 0.855816999321495 0.5566897229390818 0.3561292020381602 -0.24900982411195177 -0.8023698604953866 -0.5217995604027277 0.24905963497136147 0.03855659894164252 0.2908048734861482 0.10091115537683706 -0.46514048327964636 0.12123575540461261 -0.11383131113958275 -0.20492753459169968 1.1188773620128698 0.4615572788209956 -1.176454048158013 0.6798071634911417 0.48003458101742175 -0.28067837634830795 -0.4642357933556725 -0.6729087147921832 -0.39724658519247324 0.6985780708435004 -1.2724359109439771 0.35226940312708727 -0.5972668892555038 0.2885882548612316 -0.2254407533034443 0.39349285013064006; -0.8449366709690436 -0.00020767430150233433 0.04979263172098235 0.21159598488715176 -0.4023518376642954 -0.11526796180733696 0.5168711373157489 -0.111029667832475 0.013718435605112385 0.2641112059967405 0.22939567417360895 -0.0535098599440409 -1.0665679358094284 0.6399325575958817 0.24664852761096748 -0.0028023608368780073 -0.4050334279206929 0.19463231500682834 0.44461112449097157 0.3789709499345291 0.4827396044616481 -0.168417200453833 -0.6996505840249375 0.5241402703836944 -0.4771804566614953 0.5801531699710105 0.6240259415335142 0.07591904680190652 -0.3394333916014253 -0.4409707598144246 0.8955442299756174 -0.4606424506332948 0.2724059554499433 0.04604861200750729 0.23671906845347646 1.270515981529187 -0.0027304917005402302 -0.7205963816160543 0.00696039388938527 -0.4416500310836108 -1.0891158820371034 0.30837500640321236 0.048921780407323326 0.20503355997865608 -0.07637324714666689 0.3033367817179386 0.6756679312399133 -0.07278776508850221 -0.17979526195768278 0.4571890401422715 0.7934663996715045 -0.2688122637781431 0.02042471900975086 -0.764406844227225 1.3530635068596786 -0.39561928602152896 0.2091998305496781 0.29800532653532213 0.3510425626644923 0.09706046317711735 -0.9571492251304768 0.3393741894801001 -0.01824837316033185 0.40074732898880727; -0.41975232840942717 -0.23014591843800028 0.40255118302013326 -0.483978271196694 0.36958252322028307 -0.2570720274551496 1.2344699103244086 -0.3443398274312533 -0.2381402968598629 -0.09246192912477862 0.598768194724125 -0.4210262815907835 -0.0047258500093498804 -0.20697885466832333 0.00634081159224086 0.22490098662283914 -1.0115529097461862 0.678904210648975 0.9283636310622074 1.0752922663525597 -0.4630637620994742 0.4116520042138724 0.1830022955900289 0.0007064166994481417 0.682765267308516 0.00020535220560427634 -0.21846887095867018 1.188550000374429 0.8939637774122776 0.3834842492313506 -0.8520186389676458 -0.1543480064319871 1.2768016844210428 0.72020689681915 0.3344061228960809 0.48705752847905814 -0.23953628315256265 -0.7911967496443871 1.0544685201798687 0.020471693643739373 -0.49308015901283087 -0.03304260155071349 -0.10942763039931473 0.2748324844890415 0.7972704234671916 0.3987724451455525 -0.0924424455524014 -0.32700273791670836 0.9220436611546774 0.2914914676853494 0.33969813070469834 -0.4203970223930138 0.09179469852648109 -0.30945007693876897 0.07235650225623837 0.050763684525747595 0.29520026259235027 0.0823872676295245 0.13139213379820486 -0.3773345266816013 -0.11337788327962375 0.15987835039858755 -0.3712950141709695 -0.195041576321569; -0.34040660141133594 0.6450707592483751 -0.7269156912749235 -0.7930159056019657 -0.05112842421549802 -0.4719166202711594 -0.08938041623951332 -0.38883393790100734 -0.19262315220228093 -0.5344043068297009 -1.9772055200516603 -0.6067442125556695 -0.00397050465600311 0.017183402346068855 1.248455083574255 -0.06803343786148046 -0.5841939656530667 0.17624455446553264 0.8115700876089227 1.7668654432679591 0.277424540046363 0.8556308405339819 0.40055253825739373 0.11454711447348669 0.5316017705080194 -0.22496317507585759 0.7036195729158019 0.2105660249239072 -0.23209413838473036 -0.3157082775683922 0.8875701723673267 -0.07901007306771245 -0.4748375481336025 0.35633959211651844 0.09687988876809499 0.26740514816757194 0.4096138727280264 -0.31250409602731555 0.26271470582492096 0.1351173666785502 0.5155200966176393 -0.09217928975038196 -0.7539159563196864 -0.34886822569608295 0.33788121098654084 0.7583690258233828 -1.081548630696022 -0.01179993099665787 0.2719020163736346 0.4715393892553916 -0.5870204992302657 -0.29766655634246014 1.4349649803201854 -0.909246682609561 0.021887903388100347 -0.1261324586337159 -0.2360578532612017 -0.24189247570182779 1.62561860236012 0.104612325502051 0.0864827657427572 -1.9556614676223072 -0.7868440662665992 1.2146693198469507; 0.6566133860319111 -0.3308889025245331 0.13961850985923338 -0.05300983072846096 -0.1930750046032466 1.459507171524139 0.3721217909346315 -0.0058684638342497665 -0.6144782041121821 -0.2022199626100267 0.5081619440686074 -0.15924402653919076 -0.08893124352867163 0.7153349182720524 0.3424129582318359 0.9546664948788539 0.20444974619563652 1.522244100198945 0.17654062227914585 -0.5583190433088899 -0.0405418083321669 -0.5629559558390749 -0.29868916619679137 0.5524299144871272 0.06685982618755765 0.8673629018364445 -1.240942626689604 0.11953082055180855 0.25417116793160627 0.2907367519647885 0.228213277559115 -0.4969610251690286 0.5001873090531693 -0.4780473635487286 -0.7297502121503995 0.7829130534651115 0.32680533738547207 -0.4429647399371454 0.2724828585609047 -0.18216337889587092 -0.05784148546955315 0.3840352175048585 -0.5047768812352766 0.5826394092295738 -0.013599690970954583 0.8055136590463948 -0.08865266595952853 0.07610016055819416 1.2354563445782807 -0.505686268929367 -1.496324246394012 1.7945159911309585 0.2608519702766813 1.4897082352293887 0.2050645277463353 0.8547322070792056 -0.6370967066018358 0.07205323950661668 -0.15792490951674998 1.2699925941252381 -0.9495162670008115 0.5110845553655762 -0.934347670151542 -0.037597487376512924; -0.018175115181499432 -0.0926097235318034 0.17811110974943736 -0.9370985025654999 0.15564038421710202 -0.1774810795682023 0.0012102166873907058 0.04629135970360223 0.4000133834056589 0.04935924494919004 0.4384881105378683 -0.3329140003052362 1.232826395126434 0.47049830774607554 0.3872326317278831 0.44887890431033395 0.4757085001174635 -1.7008613241009685 0.7009584596697603 -0.74232721844119 -0.16438677318838907 -0.2118191804810699 0.18896016020330816 0.11390012667682027 1.2344923837517443 -0.637914695554012 0.3322911297887889 -0.8121910972153189 -0.4799804593968848 0.3176339337956156 -0.03119858647573897 0.8744067442193078 -0.09049537002433289 0.4603898533334915 0.45521861438477756 -0.06654606494420424 0.6434222971187812 -0.25453118354153603 0.19982161146495728 -0.544719035212269 -0.5088166140016235 -0.7973689686856421 -0.03860367088575691 0.3220874140883999 0.13216179903231634 0.8580940612668406 -0.8866680339682538 0.463364439021634 -0.03735387546327831 -0.9448112951481761 0.42883135679712264 -0.7039461189610554 0.023334177862293127 0.16855817304673232 0.35562413273983706 -0.15770913817969598 -0.16066418297121118 0.06393460949702925 -0.28438547754975413 0.8795795938011649 -0.42365150817383423 -0.003260777688277447 1.0927077113455008 0.05026375848100803; -0.1725461037485224 -0.6637348861468189 -0.6965042912982866 0.4977573699110357 -0.21029035194753118 0.6359481544453304 -0.4503607905383415 -4.340153246055263 0.04942890136378443 -0.012967681839309561 0.032099910286984286 0.13790236089444147 -0.1692057451475458 0.39834997656090915 0.7977026893072124 0.5392882024828133 0.1491993366648179 0.24227514363395483 -0.01930720816590336 -0.5103610672154502 -0.4296419180663367 -0.18281845377609654 -1.1962671596954486 0.0017991109982782904 -0.7086087712315704 0.07805179440441774 0.37603465316952267 -0.5445961477928067 -0.1510360201469451 -0.013810943589028978 -1.1177065799938155 0.47930484070120083 -0.17817999087775777 -0.11984726973264838 0.08706077467538663 0.3500359136988596 0.2756795141557355 0.34166627388639187 0.00019186235848881708 -1.1114090925930857 -0.5747459226253764 0.12646318233297507 1.2726072328983988 0.643381000129489 0.1714724800563862 0.23128718398495968 -0.9393008367237989 -0.3745231841393699 -0.12433279192820049 -0.6238716019418477 0.469225935452733 -0.694740262191805 0.12308577976457301 -0.7314319380313602 -1.2385211102344142 0.40907047218490644 1.082748399402109 0.15961881047987853 0.006126842348716738 0.04148679371236362 0.3083606142633289 -0.5706609207136376 0.29769766019285193 -0.5813347851997298; -0.5471664907731713 -0.40857164920381916 -0.006270875168060181 -0.2337282082746318 0.2463548463919764 -0.7905662694624259 0.2569829742482932 0.4745177723337659 0.047503862989564376 0.9106168407608741 -0.004178426154116332 -0.3850703095117899 1.2096319002330314 -0.4464226271818901 -0.10721918753673096 -0.042508346108823876 0.13445434461578012 -0.37852520714333776 -0.19603608335698683 0.38863863481380734 0.06427422399812675 0.15883706508533213 -0.34073465687792276 -0.6031570316127837 -0.4714275467574755 -0.7293270456090195 -0.36631537331591246 -0.6819414009517416 -0.9381863537391253 0.8372324147412601 0.3689188412354369 0.402923582933548 -0.4414239818559266 0.6024828800592306 0.32316144380464196 0.008032438099479561 0.31083592117856007 0.3303173321638098 -0.12306152307220318 -0.3659278838634643 0.21308201806862537 -0.42704087370930627 0.049898471327812596 -0.38823146933487657 0.3966461619478935 0.4560334334140557 0.4314846301806218 -0.30492356115843594 0.7505004029999056 -0.4845760463066547 0.2650567258361277 0.1494510960103687 -0.5695854704714508 0.6044338993075049 -0.21505530482933394 -0.8440690374192735 -0.17638529470377334 -0.03924610184833526 0.03936014368149138 0.1959916528116471 -0.39369120244549705 0.2289985201374045 0.43354269733213746 0.19521011434532345; 0.0626292837840875 0.1253838950003046 -0.10549238871223261 