CenteredRBM{Binary{1, Matrix{Float64}}, Binary{1, Matrix{Float64}}, Matrix{Float64}, Vector{Float64}, Vector{Float64}}(Binary{1, Matrix{Float64}}([-0.16912690267362704 -0.10006016607560052 -4.348406886708769 1.9092643285773077 -0.18144718139407853 -0.6699756452398038 2.854674825798208 -0.4395693399429375 2.018656741850098 0.9843277679263444 3.804581469922276 0.09784123815521882 -0.25710781566136093 -3.498742900938278 0.9839761698158361 -0.9347271922145157 -0.8470585903946473 -0.23959617864259894 0.6639745622956652 0.333744130494163 -0.7633564908743156 0.510529694950913 -0.21468877946818787 -0.06955623490924233 -0.6469968663086628 -0.9324942919734643 0.26732225409574767 -1.489244537082889 0.43640420513368716 -0.618460594630187 2.4038913937448227 0.1861349509739379]), Binary{1, Matrix{Float64}}([1.150490450310283 1.9097517095813614 2.1105863524905253 -0.23232973959782954 -1.3258800807460138 -2.3315605269081665 2.183791091077902 -1.5887419353620746 2.702858191058894 -0.058455845657653986 1.7596577062986452 0.7008597320775959 0.5562299336321845 2.940745456068672 0.7744850992554799 0.34616280302600566]), [-0.6361163706893924 -0.22898872194857706 0.7273422278572366 -0.0072695057883186325 1.34233488451045 -1.6254353552086975 -1.264156724265988 -0.021931287567051337 0.5704040900582655 0.58871700136091 -0.003833608945568247 -0.40408605317749635 -1.6342555237894973 0.15742083867713852 0.7570937537173026 0.046188961248543825; -0.5286924690974084 0.5069965383539882 -0.9745275243647061 -0.41335828343126263 1.0259643114829564 0.30781087043259164 3.0025345990530745 -2.174584452751544 0.7887138658511317 0.8396858966935415 -0.9477854219627954 1.3990550684181857 -0.22681158426406023 0.5471005999194745 0.005190709502335186 -1.4723082642719525; 0.4154931823766886 -4.98115184420051 -0.6091004812152995 -3.459763875482619 0.12988137316130807 0.0038872512519971952 1.879512910660284 -1.7062102367023606 -0.0027659148130399678 1.3541779858754694 3.818704521957362 -3.579366985132117 3.5023630967688724 0.10271636444320895 2.7611879848970373 0.30437539467208546; -2.2679718621812537 -0.4352819002068122 -1.495237885927888 1.9892280200322043 -3.547169979576777 -1.4874776254143138 -2.7907336857493528 0.733828809107502 0.008652351977879887 -0.16450672037081812 1.4609143029806357 0.005145565854434665 0.17500557624040958 0.7382125754752464 -0.00029815765723775794 -1.815721924061313; 0.6116612404275392 0.28088444934395085 -0.3132311109174759 -0.789720513109787 0.7721348330209744 -1.4724721231071645 -0.006596486727155184 0.7579725942361534 1.5412688706547921 1.4874279514034632 0.64396257445049 1.1720827050976665 1.6681771145801907 0.27629592907985606 -0.08070131459717164 1.817056701206354; -0.4423354371129446 0.0012360292539646458 -2.269490920687972 0.6660324306838875 -0.8805257603882534 0.6699331131681288 -0.08727025584471532 0.1151018282027673 -0.7531728491323113 0.4985952615748902 -0.5784616284940958 -0.6083451453588571 0.0022634067558147905 2.774109783144395 0.4925090210838421 -0.47804806169282166; 0.002557633873457928 0.7865429579987625 -0.0033224965156035536 1.4118176098278832 0.1581931230340702 1.2126622686033794 0.09539783394003311 -2.7492504518175935 1.9397603018991905 -0.3758368644529741 0.3230280543062729 -4.055227689533907 -1.5138587070377558 2.141067852234633 -3.7388387361368856 0.35299625099662824; 0.009588630933915846 -1.3611987492356161 -1.5484901149068806 0.04280164406483344 0.9249038436117496 -0.33421713210093257 2.1080839000611458 1.7196065639928715 0.11647316610375422 -2.7031628083494343 -0.21955691736014218 -1.9705434205814696 -0.902304309561345 1.3229641565816597 -0.23130014843648963 0.2054186394077089; 0.5046591434377469 -0.011943864952626337 0.0011394847889977155 -0.5111698686871109 2.8117008261962257 1.905169430308289 0.7786850902051854 1.3940235083744486 1.631238096915007 0.02287664157433521 0.8744025625308203 -2.2145779247140887 1.3641968901112502 -1.4232758670903203 -0.24659514606944014 -0.3983936310985063; 0.9391096478412411 -0.6956399054258475 -0.0011084133966821935 -1.4702936722201456 -0.6595670896120405 0.015459873946535965 -2.5868960104394927 -0.22006377462674925 0.08321807175280914 0.8258912298626727 -0.319488371786284 0.01711542706880934 2.0203429460800306 -0.556713484017878 2.713625322790455 0.434474686935799; -1.0680512128459643 0.27689694431580636 -0.0004355550253150818 3.9040591746141193 1.2178953677400213 -1.9135525333304932 -2.167078621591526 0.32560436504231993 -4.197563776935377 0.00328491618685379 2.450707146282348 2.9158859936877266 -0.8401142480261741 -0.21905183588485314 -5.741806236942274 4.136079316746353; -0.8764746879462102 0.8140940931362854 1.5889728485251893 -1.7550509742029 0.6706040615087006 -1.7862732390447136 0.44732256498523404 0.32099451673110285 1.6407691231509536 -0.6398859894532936 0.43419685576796 0.7534316903192768 -0.0929319551429084 0.9060940901815856 0.021144415871689345 -1.1379908329319794; 1.6547783486238674 0.17243492060993978 -0.8400121575872884 0.8910932211152135 -0.2194489951067693 -1.984967811709706 -0.4413739817104846 0.817891902844919 -1.682719823049396 -0.8640430762818478 0.11245540093330106 -1.1606931648689147 -0.0031806779205993787 0.5165436668911968 -0.1424391750094107 -1.6184976532788646; 0.7467854356930714 -1.9702607766494966 1.463104941123838 0.9239572955945328 1.0352275990844113 0.9799873338194194 1.1797573325555522 1.181060638118298 0.00019416060063056077 -0.0029219861926297885 1.7404613025255946 0.02065239408824803 2.188530905964295 -5.017147207852036 -0.0023543329704791417 -1.346308994746933; -1.7589091977373172 1.6242928868519455 -0.0006906086603788738 0.7693143193288647 0.843468836535916 -0.0038480864770877917 -0.7959053376008347 -2.6430473538662125 1.3988034578320827 -0.09467800024175503 0.7979778334194585 1.3286996948434742 0.06941557328432446 -0.02503361359979808 -1.4716789293434243 -0.972720842391981; 0.18982372495765704 -1.5756422725219685 -2.572649822925084 1.810544669694086 0.2836730286852432 -0.0001465524869564605 0.5318230301103649 -1.325763896965015 1.1354223505420178 -3.010620455088753 -0.03683815850818001 2.2245883943274 -0.17064045668341102 1.309242859455323 -0.48971797942390827 0.5415394531855713; -1.4684773953657224 0.6940116505065521 3.2776602545697977 -0.17139753906846872 0.257623427618937 3.715893700339128 0.002690092124912602 2.067076519584551 1.2917680466930361 -0.6673121913618115 1.3400202126480967 0.20823169484815027 0.7667008138022366 -2.502822998905153 0.7018422564391124 -1.445089717936917; -0.8635371496068922 1.4630050940148738 -1.6528373963682026 0.0006173779353039229 0.5667604810848518 1.3359960755695215 -0.4684104200383483 1.7100004964784614 -0.6802929299188805 -0.807819875199624 3.7820339610345446 1.3170064357456448 -2.793051242744149 0.02874438728817859 0.5196527062762588 2.140909587406742; -1.1112387342360108 3.3561746009457134 0.6377649066786442 0.24948976678265875 0.0810152840024826 2.278572929488336 0.008472494567021566 -1.2817296188709018 2.067021695572173 1.657733923906803 -3.2491898394925975 -2.545739852928776 1.2851117490246533 0.00023252343759374447 -0.002699121006294777 0.6208917731934338; 0.11646432868243074 -1.9515517350328266 0.5974824815431241 -0.04799749596802689 -0.46293884052626083 0.0006975223670377406 0.648595626664583 -1.1303538309310521 2.18985374790805 -2.560018430681425 0.0028193372719258793 -0.6204089514336227 -0.9196044251649622 0.11966882892795899 2.030023716851564 1.8140796402532766; -0.0015519269357318225 -4.893767563478909 1.7578646537641767 2.436465086993665 1.4617206543314079 0.0988350855890725 -0.9231474573724193 -2.1486194794049127 -3.321756867841765 1.928298963500065 -4.4823246659990135 -0.2542506409830501 2.2279673350133833 1.2931616080179391 0.7945428283953904 1.7077339662444713; 0.7367305969211309 1.111235134194738 1.5310193329548036 -1.525672889441836 0.025798348965832024 0.003965297560412794 0.29593924897815815 0.003696962029159151 -0.7719375885644695 -0.8139480409743034 0.34306348151663985 2.6924498015221783 -1.5119840147865797 1.3547508317463872 2.032952905365903 0.5999149159226151; 0.4355128870336851 1.7682792449350364 -0.4334428126771913 1.222583755057382 2.031996620532907 1.1876379938247028 -1.568599989019242 -0.007819923781567711 -0.2556709018664401 -0.1868903603607966 -0.5674395944894748 0.2600904586969246 2.321718785141593 0.07221737752945687 -1.3624575250169075 0.4088018057607254; 2.162504132180233 0.21581206049670038 0.6825005227930974 1.3236981332009476 -0.7284983895857203 0.03475432713702627 -0.4604394595671416 0.874665273655455 1.679003587125033 -1.5969219295672452 -1.1100420259416548 0.01182665700393686 -0.9570598479819233 -1.3376810523025184 -5.5467771033903624e-5 -0.5886339690576547; -0.7054278405840945 1.798082884302972 -0.412014542417872 -1.1173947198618308 -2.2911771337047484 -0.3662849579640212 -0.417910650113316 -0.5369269480183891 -0.6255268551196134 0.7377775231358676 1.130609758499111 -1.7071917482749426 -0.31228115373046006 0.0026178226876781663 -0.5896619040027918 0.09101752749166078; -0.5393605399364019 -0.113434969037513 2.749904193519175 -1.1417602272128577 -1.5849253939867982 0.318523284177671 1.872723569235194 0.32230016828827773 -3.5258861084047823 -2.057219670154089 0.8043341277033821 -0.8937806722226553 0.14049426041674593 -0.7084854166621929 -1.563845878838084 -0.21012138478719972; -0.12083925441630002 -0.0014652500530294653 -0.8269773741116887 0.015636588101571244 -2.318884401544313 3.112505693553615 0.9218439752665893 2.682370069040765 0.307796892003133 0.8172255256746936 -0.27184748142481496 0.8924021630196879 -1.2660708740662872 1.5840487320919394 1.1204317632698433 2.0810529474191095; 2.639960943638761 1.1360380700068196 -2.0024059903852645 -2.5009784865202382 1.2493794708873365 1.1866003996365675 1.2690198384684817 0.5467017786740965 -0.7055486637967182 1.4897417542560027 -0.24121098183947937 0.011594238311446363 -1.0726817967004725 -0.937962166479243 0.003964012927891169 2.1822322220004935; 2.796153057860862 0.22183915673010926 -0.36150322393247014 -0.42909183373679355 -0.017671807031314227 -1.0970692806316604 -2.1251731743070916 -0.1892122609642501 1.2846247056003102 -0.7797203123618225 0.4745518698929368 -1.1509432112360172 -0.2430500342725115 0.7806366975721506 0.40181172889129513 0.22944182234808297; 0.38637956631683523 -0.3394666782463283 -3.2928921338780297 -0.48779648926610475 1.9230661095763564 2.9074897146275998 -1.2118846282737257 0.21778496132417646 -1.9199429367546266 0.7753142732888859 -0.002038160565994822 2.0769479006510307 -0.237846743507627 0.0021719697487242737 2.4241064501942877 -2.6460995938903737; -0.5144874268984017 -1.0196249027691802 -1.2016286187220304 0.018295441473967295 0.41186213278705575 1.52812900909981 -0.8917389731729772 -1.70167365600772 0.4683527465851151 0.21183067025127478 2.6568390058817704 -0.915065316778886 -1.7098643309964292 -0.0004900311275074204 -0.5471793311912724 1.9165431167942983; -1.4758309513128995 0.0010740443082428378 0.3083328935987544 -0.7013798970951144 0.1425220882993687 -0.13786526577710706 0.7114599744430434 1.3155462722728226 0.08912316591830119 -0.47639617785489063 0.017097324122482264 -0.05571345301485549 4.049296480960655 2.35288006732269 -0.1100959756183875 -0.004335179121623444], [0.4664594240837696, 0.49149214659685864, 0.2825589005235602, 0.6596858638743456, 0.4733311518324607, 0.42637434554973824, 0.7302028795811518, 0.4494437172774869, 0.6336714659685864, 0.6158376963350786, 0.6418520942408377, 0.5160340314136126, 0.46449607329842935, 0.2639070680628272, 0.5932591623036649, 0.4005235602094241, 0.393488219895288, 0.49247382198952877, 0.5363219895287958, 0.5553010471204188, 0.4213023560209424, 0.5716623036649214, 0.462532722513089, 0.4860929319371728, 0.418684554973822, 0.38857984293193715, 0.5274869109947644, 0.34424083769633507, 0.5592277486910995, 0.4430628272251309, 0.7771596858638743, 0.5271596858638743], [0.5970291525881039, 0.6558855602387613, 0.6317406305197539, 0.529474300273928, 0.39841721190910623, 0.3407874254124594, 0.6561465618263106, 0.3646080312775039, 0.6908708167679035, 0.5060332546385343, 0.5955523344587614, 0.5635787027553164, 0.5309685464312777, 0.7041330411436261, 0.489755253997801, 0.5552731864663114]).w)