[-0.002730663283202312 -0.0034986018420335068 -0.004184074555473826 0.014441510698482861 0.03811704955174944 -0.03840792669112448 0.014131262386632863 -0.017548418317698752 0.013465437502560886 0.058558485351472955 0.011562377367430604 -0.04998687603802904 -0.04035230739620682 0.01692324414436434 0.009412742387588463 0.07306210704747124 0.018552935766058723 0.055003226320077286 -0.029342283698862603 -0.02734622808909558 -0.025905221271854007 -0.09307454250046986 -0.03939045809206356 -0.011831153977059075 0.04227764488023849 -0.07004967460348578 -0.026181361646019544 -0.07659488764060333 -0.06979769133121885 0.020892900958912036 0.022543923474747977 0.009421569369438483 0.02556931018958357 0.030429526340411475 0.03506756814152948 -0.012955475881178229 0.015368720954909692 -0.008942891045937628 -0.046130704857435145 -0.008445119799863897 -0.08713870682727556 -0.022575087538041994 -0.05037369454818491 0.01154869725930895 0.04189368684250427 -0.01132889506414285 -0.04569393114814029 -0.015127697601220924 -0.01239696345595065 0.04113731574061609 0.022941383050919962 0.023584424583005494 0.05141344400711798 -0.008655578738278711 -0.0390616920121381 -0.01137743013618384 0.01502448958022374 0.015899198126995258 -0.011407425214238699 -0.012995303158699775 -0.0626789703017455 -0.08268616351704436 0.02242869107444513 -0.016665705336259183 -0.03969381909058068 -0.0021318184437014048 0.028579594252719023 0.03970080482940881 -0.009809435271768812 0.004105090733474915 -0.0004116441962324517 0.03216320670373439 0.024360480802659658 0.04026232574167046 -0.00893108232164649 -0.010343720891554409 0.003617581680160061 0.018009228608810806 -0.08990746677597158 0.017809883452075792 -0.04077523388450027 0.06413964111159251 -0.04437564117933052 0.0703859073633705 0.004334814419746414 0.026150891008732136 0.04319236824046138 0.020882517680633723 0.00813203969796639 -0.007455419480016317 0.013023748894584053 0.009870444806691409 0.05019353375721677 0.004982670276086584 0.024476664972155615 0.05087191628604368 0.011106987057682038 0.020450956193927013 0.03488014992639607 0.0955255139157573 -0.04335430666386495 -0.021964310300577862 -0.01368802272549293 -0.05043231863861673 -0.0002731871174203131 -0.049407334974548404 -0.048411070678936866 0.017471144692871376; -0.012781110525141344 -0.008435713701166943 0.05613446820654949 -0.04402326928382095 0.025710692244458818 -0.014268418657136281 -0.016324078057171933 0.03654274078166335 -0.008195599724662897 -0.08188996580949671 -7.944973594990629e-5 -0.008299299988738684 0.042466305325572176 -0.02530200857418396 -0.001596487449865862 -0.05493014499261934 0.03321856637347209 -0.06747562312043466 -0.007129887109497642 0.06686373993766269 0.0007395431245280191 -0.00871776897787546 0.02313207236266195 0.0012975162981702418 -0.03774753160599967 0.0884544467055451 0.008577386439312757 -0.042798845590525894 0.06022711844727683 0.053129600677491944 -0.011477244142586676 -0.05512399356122518 -0.00012304894308525825 -0.0013855755612394859 -0.024170653736653287 0.04275519094631042 -0.023560755168460363 -0.041711822097391715 -0.010914201356660519 -0.020531793573880408 0.06886633356197078 0.004437340311511316 0.003312889431419887 0.011285449091399011 -0.049258661651691564 -0.021091393939149487 0.007326673333087697 -0.0242366149937336 -0.03583825601157879 -0.038670687740672005 -0.029210653678466935 0.0019370495819244962 0.003767982567218228 -0.03075782006871946 -0.024257042265234844 -0.01621742999387824 0.01605162602918071 0.02403266222040583 0.03446813866017634 0.03239396251878646 -0.024738684277230263 -0.006750302113922003 -0.08879095337282661 0.015816786574887352 0.008649540298065635 -0.0006891087821577338 -0.0043868140687556515 0.00019047372294355987 0.032021611233626096 -0.00012604516875437495 -0.035743444448603424 -0.0009145137694096673 -0.03716897547817319 -0.04133204911200412 -0.054917959155611686 -0.09669875782600161 0.09979665580677279 0.061809511567722214 0.028792423017698722 0.008363427491502592 0.09603571480899231 0.025855784713412225 0.0545585726975245 0.0063409412128304496 0.020514701762081276 0.08693353740782825 0.04794165842622815 0.041742567390593316 0.06070457344583126 0.04655879469149914 0.01604508259598312 0.05281766665018593 0.08835073790566902 0.0627877496804881 0.05678234336786344 -0.06066935219187617 -0.03297835022482604 0.0019361009779253907 0.0023372594119976447 -0.09861638708975673 -0.012117498667108656 -3.642365652003208e-5 0.02623116830062871 -0.014924648022217931 0.031453492386713355 -0.06510413115383144 0.007538680474437456 -0.0006704485721436698; 0.011199095297804962 0.04036347156906233 -0.07282908910465874 0.0009300319395867091 -0.03186943991799425 0.06631465055316833 0.029797587961228673 0.001353998778284183 0.0178261279794445 -0.015280598235653241 -0.022244385796827783 -1.024303229746625e-5 -0.005907358617897886 0.06468133925058615 -0.0037771310208533485 0.0131183008713302 -0.04104634318046626 -0.010763058184835476 0.0069584776501375395 -0.0051088849800137 -0.027097138142060034 0.048574088164507305 0.04519068840519734 -0.008881271890224668 -0.0032700505804247712 0.02944268378481081 -0.03734233666267062 0.051935665792267195 -0.005173507279669563 -0.0006461571662491318 0.0006706392676910245 0.03287691764232424 -0.02323275205002772 -0.027080624564926117 0.018215939603201295 5.8492706140817574e-5 -0.05814597951406046 0.03799092117756399 -0.07874206667920584 -0.02884446507653001 -0.04049187191781669 0.05286648939242784 0.04334694895014345 -0.039254933688634565 0.013767154635440565 0.03242324330577954 0.01477733420576507 -0.033106794432743836 0.023939244530564646 0.02519032493800025 -0.05741264499033388 -0.0048768005130256685 -0.020727041274172162 0.022840350054368366 0.03349914227191693 0.0016318135985426449 0.009248549044904497 0.014761290969874977 0.01113023541459973 -0.035516945010663103 -0.011016731884556924 -0.0034672698216645214 0.022545425266585116 -0.03934060900304209 0.028812989609348107 0.00874994320042988 -0.03082085562788627 -0.03708677770843752 -0.00028702102331493125 -0.013378671659460412 0.01242268908053101 0.0022705940173930812 0.0103400967248079 -0.03844677373032153 -0.0004937542891774886 -0.04200859204265748 -0.00892640036896852 -0.04135403531345225 0.060484021799150314 -0.05790500467257983 -0.007702705990079458 -0.04266231492633125 0.05593796687487456 0.04799387966153883 0.06904390416824834 0.03596841120430634 0.05093295969337002 0.02101821138561487 0.021617509488659207 0.028581412712419367 0.051675933986382074 0.09272087378896657 0.029333764194460862 0.028419068164538788 0.06686304753684008 0.031169489085183102 0.10529750491198793 0.04233032201302329 0.013308007632976444 0.005924798900182184 0.03995981981649 0.004599433738000062 0.04182994319963063 0.0271900732258772 -0.025251511541959117 0.0580175849048045 0.020858033768931618 -0.028893018007450526; -0.017038162786605467 -0.052695696526482684 -0.028219512149754513 0.017646197073365375 -0.05085379933982219 0.009353058495737143 -0.0013996532725766852 -0.027597972992347154 -0.02876422739255601 -0.03589775795556927 0.015475179162941758 0.07230084478339997 -0.006679539017209987 -0.06701987883029172 -0.004059656549865615 -0.031116025846322348 -0.010915888840257546 -0.0026396732257900507 0.02259984000112287 -0.05178254651549855 0.04337260741555304 0.021472608238759024 -0.05131417584346076 0.008154165631385022 -0.00427853949669531 -0.04562640526437831 0.04227040894819786 0.039912158616447486 -0.039101487260582664 -0.09054750556428255 -0.038266016914619345 -0.01770181192698265 -0.0023641491597363525 0.011385668409016012 -0.02684641018905517 0.048107831684097886 0.00837789448651637 0.012734182751460193 0.04202930445769543 -0.012280929776616184 0.009192220681676433 -0.025044894394507463 0.0036095670893657827 -0.00010274276377635585 -0.0065367968995698016 5.16677546259737e-5 0.023677681384278157 0.07475389469027503 0.05581774123100438 -0.017262852347265024 0.034937506010943975 -0.05016493877328156 -0.0755264176292829 -0.028388225072557057 -0.03245636648000967 -0.007675626523789812 -5.524255149794262e-5 0.01435807413417304 -0.01694105007179245 -0.009524992784647345 0.021713515878391713 0.033471414587381246 0.0023565658223797742 0.03291315965684289 0.018408951262871606 0.03041414572967539 0.02086488593476553 0.009341748480444141 -0.02365959950962429 -3.197270411623161e-5 0.022496217245309737 -0.043815990905867 -0.031194276187057203 0.010609943015732927 0.02916477797095829 0.10668274922546686 -0.1013942345120531 -0.042644273086528496 -0.04510208082674925 0.052947109713901805 0.01015191490398165 0.04557840686628567 0.03488126556972646 0.019610811033543823 0.06689121022917123 0.0112463522658034 0.016613661431480197 0.04160595760433219 0.009785047487153519 0.020141064328683997 0.012713781662978723 0.02242432915260999 0.02718600657819458 0.0705203944255675 -0.03421487160318965 0.08419850547858837 -0.021243615370707365 -0.01773833191130097 -0.03370548332512676 -0.03418035713724439 -0.010841797319649616 0.007289410388537951 -0.043749164113210094 0.03208518371338212 -0.018329371934728916 0.0260071182763675 0.012388632465400758 0.008568459822839032; 0.02135084129714416 0.024266540500620805 0.04909820760333758 0.011005529572386 0.018895497461608173 -0.022991363700644717 -0.026205119018112923 0.007249651750098378 0.00566826163521352 0.07450983664924626 -0.004713720997594675 -0.014004425724334786 0.010472899705742516 0.010717304009525173 2.0532632996362482e-5 -0.00013423707985974642 0.00019072988119299015 0.02587512821098291 0.0069138531570998385 0.01737391964694514 0.008890208873832992 0.03174561507507898 0.022381873167665038 0.01126074393772848 0.0030184768028812562 -0.0022210506224918025 0.012675902921179538 0.027545908822414533 0.05384556742419424 0.01717116109412771 0.026528698314767025 0.0305273184764451 0.0001506399632657581 -0.013348994623261884 -0.0022664438190223173 -0.0779660394553709 0.05796011924109477 -7.03907856948285e-5 0.09375766843560608 0.07010230822689051 0.04957202450144505 -0.009683847771389703 0.00010428907725578474 0.016523530101702953 0.00013461707331653913 -5.462205711318279e-5 -8.775777499063047e-5 -0.002282787662576673 -0.03152176629403959 -0.010394100590679318 0.02874440960693688 0.029520265121377245 0.041072032329118845 0.04496127382518686 0.06227595848546569 0.03363867305530925 -0.040269422102811 -0.0690512254514491 -0.017249898788744923 0.025643278435223765 0.07672087058514099 0.05943232086524963 0.041460271209416574 0.007276368107571036 -0.016177662079704665 -0.03634316170424613 -0.014236810490842633 -0.012146249324358987 0.001734444571081938 0.009431598798856104 0.0012361823189951323 0.010296703954149205 0.03366267413776283 0.028906554084922254 0.03517801779547738 0.04236832153474662 0.00690639739408878 0.004179568223447725 0.04573310278587181 -0.02121541598490037 -0.05770968983839423 -0.09291151776495916 -0.10100216396279499 -0.14433153927128362 -0.16078463057924727 -0.16029919188667013 -0.15868064779153973 -0.1252492540611741 -0.10023917011961037 -0.08782585225258618 -0.09345854713992796 -0.1778333143984539 -0.19506404243554124 -0.16670988254668098 -0.11390718427366948 -0.10557055865793899 -0.06218252637413657 -0.04697904727357472 -0.016819933646243394 0.03134643141106164 0.026353782834133217 0.010111889830559882 -0.010623924661556325 0.006081709721575343 0.01240057820739499 0.03048676294720785 0.007625723970167035 0.0035238620638837893;;; 0.00818375725259189 0.031147211178142033 0.07327040487241443 -0.018917024958466817 0.021545663298269322 0.08028908023459673 -0.08534771016296308 0.004405090659533561 0.029393988779904123 0.03449096160803088 0.028990962602872764 -0.0026110273220352597 0.143502067594421 0.0826656886011693 -0.026652999599097782 -0.06444296478160172 0.054319335261570324 0.0297166128895716 -0.004846809776989443 0.006703384910305832 -0.059282292545509645 -0.036288799091873165 0.10562655321536325 -0.012725819818199183 -0.001461708393024823 -0.04955163667398318 -0.06897097929897533 -0.05626784907853321 -0.054541153543845186 0.015312236583681856 -0.03995506324627919 -0.028984221126197682 -0.03210697136075714 0.04130998681930857 0.0030396525483784415 0.040844799552547766 0.015908187889522706 -0.022496655566177068 0.028058647482151595 0.007197735286364346 -0.02272745577934579 -0.12339350945467616 0.05627814775290938 -0.07112682097422207 0.03078946632338674 0.05159376215460964 0.02623223776495492 -0.03828646628137674 -0.03944171585352992 0.044658640440679784 0.009038755219051809 -0.016588503070778065 0.09699517267144397 -0.010990719427351718 0.023766306535528848 -0.0008681711647304508 -0.01110277229831813 -0.013456207518111116 0.029516731028782703 0.02494623587546398 0.05627367735378257 -0.001144091603206315 0.12322493379033135 0.054689769829268084 -0.028313210087736605 0.01185476033213427 0.03421756799112733 0.014607846718621795 -0.048539549142962914 0.010929574920095232 -7.32614517083534e-5 0.019421044278256815 -0.05407418629845527 -0.022655477189985673 -0.0471573470780522 -0.05844357171765376 -0.002651316078683543 -0.012164241398715688 0.03755791358895221 -0.04692708096126377 0.011977552613937424 0.052999799381520586 0.008757872027440085 -0.0598178140452488 -0.010458368577947439 0.04673095121608591 -0.019058906970462912 0.005486630913838251 0.01950960954792028 -0.002057400129903832 0.017828946686121217 -0.020140026822171767 -0.022552777954711077 0.005613215889294653 0.03857541340526391 -0.07047331727901669 0.039749625481299976 0.025273453317850088 0.025396852636089137 -0.0017540178144590571 0.031202679351910814 -0.03215086111579439 0.00019014601245559738 -0.034486516369292876 0.029469333500775206 -0.014970981828047208 -0.026195228825049828 -0.05347275590276502; 0.06227935827105232 0.07635188830733779 -0.014859026162598857 0.03500595201530318 0.06435156451074428 -0.0960104382992094 -0.02400669673408176 0.014066233048349142 0.014127415518570292 -0.0009394737892129453 -4.2506078488215055e-5 0.031487910369423104 -0.04943459886191225 0.07205598434161378 -0.042232121407256164 -0.024775429737676016 -0.05923240670992613 -0.05550241945757768 0.026300319418397795 0.00902996468135923 -0.00010604691622952796 -0.03191516697909168 -0.004404230212306356 -0.023490930577476993 0.0019968915547940004 -0.012738788764625208 0.07724707634594954 0.06830375084210227 -0.0693846403169374 0.030648135182546093 0.018707908600983734 0.0024266827723960875 0.006233989811457026 -0.004547959818471825 -0.03798991554704316 0.02852144714180187 -0.0508533316315377 0.03858986675162634 0.07938022620559078 0.07799633867599079 -0.06046315625219352 -0.0034832632848834713 -0.031657925910075616 0.011805981778150872 0.03570574840878769 -0.004245842336908751 -0.06106465139960648 -0.016844483537013778 0.0285799057144793 -0.05814326413131356 0.07340305434432373 0.09335497276643304 -0.04240959524151851 0.08928309088608943 -0.0441739210781046 -0.0010652726915322745 -0.013867482938764827 -0.03112582948810009 -0.013498651386031946 -0.09446829130173952 -0.10116297077218535 -0.05749078620730018 -0.14493715152926598 0.02386909672322225 -0.019156791514566 -0.08930113935549161 -0.023527960721957612 0.022847483647310683 0.0159228414913769 -0.00021053721377565097 0.014073463838489836 0.00198085594908054 0.031159669279787028 -0.03789819856670022 -0.018927219597259924 0.0288340713470968 -0.02423604497041341 -0.06581230145267299 -0.009196234423680059 -0.03305955462817953 0.035769553800306796 0.08499442961704005 0.06569057997499218 -0.01546380203712396 -0.00829968874688385 0.0031857904372444884 0.015559833923247116 -0.01037506414954773 -0.004348174502208396 0.024177515051183512 -0.002935192737034683 -0.01863091851116999 0.032477266099678465 0.05489137219770844 -0.10307032985302665 -0.0871097920662685 -0.08896762118873416 -0.04444512863068495 0.018851440529257073 0.05721301263608133 0.0049864272175326905 -7.365494860788853e-5 -0.049929143182772834 -0.00041806234562900125 -0.04736597558968528 0.0017172259097468225 -0.015029085184053726 0.02810132188164039; 0.014719822822602115 -0.012141241621613928 0.04356363556933693 -0.00998887063871632 -0.016105671010309276 0.014831928954741532 0.05808934583541294 0.01581580707160311 -0.036009754194174064 -0.007089903774907268 -0.0027090149184229202 -2.5014294244336404e-5 0.006912783391324401 -0.03506648094071085 0.0746948248560733 0.07546568992578968 0.019222175187435638 0.08439021911468317 -0.047893397424977315 0.04614096274630553 0.000641303266345853 0.03310373478890983 -0.08057214283173962 -0.047944096496456756 -0.0036335238171229228 -0.019116072444210493 -0.07214817890269008 -0.03725113736041333 0.00041695316092398526 -0.008338454175231335 0.0001286905948629166 0.011197280859655843 0.025381996804271844 -0.003119468742104971 -0.026439072852417738 6.140271720479579e-5 -0.08094766182796269 0.007161179797408198 -0.022988655524532747 -0.04724715617719686 0.04602279489512766 -0.04238602763700078 -0.014697256405882334 0.004033623948355455 -0.08014598696316279 -0.047419719884928935 -0.01896154800085144 -0.00918598672890522 -0.02639033978989827 0.060508351232270406 -0.12895104952500608 -0.05146819952938724 -0.07839365878842934 -0.06574643443115187 0.020353613293534467 0.00877146589127136 0.004249522500868473 -0.00376811162853868 -0.06978810638958127 0.10598659097935187 -0.03349847581833269 0.08467187326898586 0.08787122063885607 -0.04014989687462187 -0.017096587798773943 -0.047542732868308006 0.020983999585332355 0.02224782017063901 5.927261454455443e-5 -0.03342200450969119 0.030102757718350137 -0.0354362630142377 0.04620832662204661 0.04352964808353108 -0.03789008033235501 -0.014803662636584971 0.014194926339000073 0.038115985152216515 0.02181205921462943 -0.010590424000781815 -0.07767634201676672 -0.08106904189168256 -0.09753038660247615 0.05351508309772687 0.02199724612138966 0.0044813137140848995 -0.006133577242772793 0.03994815092869064 -0.00517869705991514 0.016366690731129886 -0.0027555197410454456 -0.00851826529345349 0.010439385136097264 -0.02373873192547485 0.05057479628654639 0.08309666580328337 0.04879671990607802 0.038316908180528776 -0.029931150577243135 -0.020477766399119215 0.024762158274941354 -0.006255180054109945 0.0033853662198746956 0.052973231419603195 0.011214736390360833 -0.00938746649723803 0.052865255968502715 0.044657814790695735; -0.012372166221541057 0.00495525655082473 0.007678584170250165 0.01673911147721468 0.02479092814500563 -0.01821917849208714 0.034223623839655826 0.010356201138423662 0.0347676090468221 -0.030836627678671277 -0.009682240795919339 -0.024395125104899277 -0.09817352720804226 -0.03919077057041206 -0.005752326256704247 0.013841904726603661 -0.014393979470513256 -0.10187557150478374 0.021413288173507846 -0.06711904430509255 0.04875527382069071 0.0022025669792661174 -0.045247684054609896 0.02404409120851004 -0.0472190358463186 0.02643753626505274 0.045787406597867605 -0.02453593425027633 0.10204974284101259 -0.042045072160615704 0.00561126403004368 0.013007329676189287 0.00040788056338296274 -0.029412238371751578 0.055825694295619975 0.020738943590473555 0.07172540633162122 -0.023186467797679196 -0.06684580684660019 -0.04087651838321416 0.03966909386274941 0.13204834172064547 -0.00997391370536503 0.00024217905541556556 0.013652144484611946 6.075830519895077e-5 0.053622880215690796 0.05781100923824492 0.02758185686687371 -0.0007648550052154974 0.08986793413961024 -0.0026160735192293193 0.04974776355769162 0.03248242154245436 0.020147548738198292 0.01035992308176623 -0.011322630888785441 -0.01879144128316164 0.044305834048614295 5.8763424245870476e-5 0.11846774019529262 0.006359043539143274 -0.040127367347753 0.017013849367458235 0.036392080825660596 0.07195248394239345 -0.036665824477876946 -0.1040690208022008 0.012732174882342713 0.00010341541844328146 -0.0570996666507348 0.019512407385081806 0.016623122392227963 0.005924695215416339 0.022145345701815554 -0.03571107282961933 -0.027747274970322783 0.038098292762373205 -0.08377396749147217 0.07157297869329729 0.02363807226659951 -0.059650821405237996 0.024308100893041865 0.013886474820518182 -0.0101821759680114 -0.05186556817563845 -0.0034445926858956213 -0.029138189403630926 -1.5903077981730814e-5 -0.008558109918287548 0.013675135004765792 0.05975481627715268 -0.02232694795989324 -0.04340461334494909 0.014604986449819887 0.07588678500945173 -0.001268975807004776 -0.0443571458243514 -0.0064893771269493705 -0.037164487767124284 -0.058406211130045224 0.06405500340111393 0.024998589825036333 -0.023486670480462612 0.0008319521111388157 0.06662323269310054 0.02772588858802665 -0.005751777002224756; -0.07281077212470527 -0.10031311441469061 -0.10965359844940267 -0.022839167895334724 -0.09458248494370995 0.019108607601958275 0.017041437221976076 -0.04464333191790947 -0.04227925915112244 0.00437504363476061 -0.016557200810042288 -0.00445674364824423 -0.0028067249157908976 -0.08046442143166016 -5.737759301510453e-5 -8.920013311560284e-5 8.487573143342867e-5 0.04327115895810665 0.005026599610061118 0.005244731967121946 0.009991762374702605 0.0328976643027889 0.02459750388329263 0.06011675568362288 0.05031737650167233 0.05496896161776613 0.01808467525784828 0.04975116984712061 0.021459097858846008 0.0044231545696190875 0.015507200020388863 0.0023529278179564624 8.310418164530467e-5 -0.004230319886980206 0.00556364155546247 -0.09016659300202799 0.04416739923835647 -6.792318517827535e-5 -0.017604411316609423 0.002929600598055878 -0.0025012767263377592 0.03721445865591496 5.0948268413609956e-5 0.05504503619230018 -1.3722536235767297e-6 1.1041762029100638e-5 0.00017108141981219655 0.006505927309050813 0.009670293062075183 -0.046258872536421136 -0.043358694177979724 -0.022682196647038428 -0.025939682199187745 -0.04502835857004023 -0.02009354748915701 -0.01719794511677486 0.032043363624999925 0.06714158991791153 0.00946419269821622 -0.036523298977322205 -0.04007997095855714 -0.03239603899762262 -0.026031635552168444 -0.05542281904532669 0.02817450857541596 0.05303662794927191 0.004992217623374887 0.04436587026562932 0.019825260154698755 0.022599551384928324 0.012996706545603181 -0.005478044598181463 -0.039916931995606336 0.011099332457738472 0.08182930130585157 0.08012423583676127 0.04043970968041966 0.0017622649367989589 0.033600229111570595 0.01900408089692782 0.006291163335922999 0.002725634298359912 -0.001226166292997993 0.007880058164127717 0.00694298717145303 -0.002532487191776855 0.013077242975884211 -0.005921528289350233 -0.009966834907815015 -0.029928695734122022 -0.025813369212806882 -0.012465605650357429 0.0019630746788285953 0.006638757183420847 -0.000684866288603536 -0.0014003414674499265 0.001690251608360937 0.02521191295665748 -0.007827765461153702 0.0021832593446212173 -0.0025450537143396367 -0.025575307282601708 0.021355041125406215 0.005418017775781288 0.005849953587410425 -0.04398201027756213 -0.03936683054742582 -0.013534603767346349;;; 0.0007851594050990767 0.0050509816875815555 -0.013417921605793921 0.009525975254066458 -0.012575366553342822 0.02487861226499883 -0.0468077377801315 -0.028706404318292418 -0.0030748917136601095 -0.013473208822563303 -0.062192799331370396 0.030033663768413592 0.042984444338212593 0.037827734042393014 -0.09690510013614996 0.028379082545314637 -0.025181440573361486 0.02780448852615827 -0.00999122338683776 0.028678959448981113 0.011218102909254178 -0.039215556472497144 0.03566597969917077 0.004581892832241067 -0.04495498050579043 -0.027015704746854274 0.0507365110438179 0.06165595408413741 -0.004099944502062829 -0.05762329192630654 0.049481979556541544 0.003467531250913348 -0.006352992622002059 -0.004594214777512006 0.023372716791997757 -0.03245241542769572 0.0038741137288382283 0.0255154250569426 -0.05129337803405346 -0.04953361014111425 0.028588930397774378 -0.023624444948689323 -0.01631712240472569 0.1505537142864748 -0.0658063569209852 0.07274598085469466 0.0018792490472244337 0.008967241548953224 -0.017732339639126654 0.010240705745890668 -0.01508978027068991 0.10026612570923618 0.0016364920691793292 -0.06836538621683205 -0.01668161721810676 -0.0077558511303565305 0.02071327807098033 0.0017153545560445083 0.022389227873332036 0.03718844213917795 0.00032237344805010243 -0.024550653395260483 0.05780350227230063 -0.007271790648097436 -0.004386859528468557 -0.004037695597456265 0.01976777737814848 -0.02154888955834217 -0.014845944330084782 -0.032748431329807384 0.0002347732316605963 -0.06741285883480344 0.018495977592542432 -0.009029875265044713 0.015904059392627675 -0.0509563553622168 -0.04509798737794925 0.008009920905837834 0.07256453705939399 -0.040871158150590454 0.09657810114481653 -0.03942303117178967 -0.053161140422982554 -0.026407037464592775 -0.11579754934063749 0.008300715684222786 0.008811094337376335 0.02542627071879386 0.0012183088418018747 0.02600339167781596 -0.0019919733906614044 -0.01723261725411985 -0.022747953622799147 0.0048236651012978716 0.01408466628011039 0.05248275189008795 -0.011103896835823126 -0.0052335672981931635 -0.023777161310041612 0.039314305291348356 -0.04755601574172866 0.027220671995906134 -0.0001613174130720261 0.01707643523440527 -0.0005703683043462638 -0.037306453223970755 0.039094648703090984 0.007472689448328005; -0.0021698145963256143 -0.05484202914897851 0.022004906246942933 -0.03004730715312932 -0.009088485769985152 0.08342845744184825 -0.06835396371183505 0.02640991471556066 0.014241256138183797 0.00483379197776605 -1.7163765592350232e-5 0.003342526017349578 0.012979674846915088 -0.07380696920333289 0.0314879576783491 0.09754632377165699 0.02278847375630248 -0.07019186251234218 -0.020208643564623513 -0.12169100855318249 0.0001909753616736477 -0.021911092286439296 -0.03465164642488731 0.03137497408709786 0.08889523997810135 -0.007041899121929791 -0.06369718446601312 -0.011601462847424752 0.038001909866761385 0.07671520132180217 -0.026601447562677388 -0.009023459714867668 0.007563240187204758 -0.047332349756136365 -0.014042321936275541 0.08011056594652999 -0.06602744182583102 0.022363256793108036 -0.09761694723581373 0.04537980203930174 -0.009226311989582856 -0.08029472448201684 0.03388089446226526 0.029189701235436953 0.02100446120770008 -0.054609599532461625 -0.05420951527687459 -0.034449494331253334 -0.019471925069314236 -0.024987096259676968 0.020797956761524582 -0.011784247176290563 0.016564947667788602 0.085658601881291 0.01403505454949205 0.03986691684401728 0.02174375230926202 0.04108727390111239 0.019894389070433807 0.011012198270349204 0.06258362589362455 0.002465126973401905 -0.07005874994176331 0.009877685258141774 0.019451143454310385 0.07148077313498376 0.048191046723674254 0.03236042084782105 -0.01536427303200217 0.00010014003031108365 -0.11571291593859452 0.054313702385490374 -0.027984408586607994 -0.024448818613793177 -0.025455322876290664 -0.02560515396049895 0.042935788414728684 0.005464589477044164 -0.042108867730585774 0.004162610391815392 -0.05626153362767455 0.01055707700038774 0.026411703752699175 0.059247289819097576 0.04967726382128516 0.007578246031920054 0.03041499992576973 0.01685282843148392 -0.001846133834237673 -0.030604806484645457 0.024426129860910504 -0.005345283250185439 0.0372991839103886 -0.05241771902758742 -0.02904402082032278 -0.04152801369097589 -0.014757859501604662 -0.08428576267237191 -0.03667811739748093 -0.014485578881034824 0.07682583092456098 0.0002101399367679311 -0.036495757859377385 0.027552453646704892 0.05789644263871902 -0.011812513138303091 0.01205513990011134 0.009511378584549458; -0.03141844617090748 -0.011294490551579842 0.003886757792779183 0.02152713449239155 -0.023599903020903912 -0.06784881914296645 0.019285150986007228 0.06515248622233334 0.007964939378742725 -0.004830309298533827 0.013031845389986864 -0.00017900399520644192 -0.0629899673836452 -0.02567066486925576 0.08736294261180083 -0.08171841558946945 0.010997443465983824 0.06289425919801064 -0.008230799981843843 0.0313130767518156 -0.02336090516182282 0.07126432829191413 0.04108405058553409 0.0042101979619956365 0.0316400110544384 -0.07285046162386316 0.018100105806085537 -0.014781212723810134 0.0017098174990354499 -0.01708326433910364 -3.0112668753448546e-5 0.0069314377196730255 -0.026403713491597473 0.009157672524164643 -0.054260204328460945 3.671584940646136e-5 0.0010185307283530085 0.007993178623498545 0.08508215760680404 -0.01678951129774473 -0.05733274954521916 0.007643630781585084 0.02480824496042478 -0.13868856325759024 -0.04615460626479325 -0.01745073285471793 0.043141933101512285 0.03782151779515324 0.021527178098213206 0.059571281438534754 0.004158312816302453 -0.004398210845807678 0.027738464921680743 -0.009857291077234329 0.02130968872763287 0.05864936670532724 0.01835540155247213 0.025203641686612016 0.04833114965672072 0.06571758417272347 -0.012996065991429417 -0.009024881426481307 0.04243679924579308 -0.020324496763458686 0.020189472599793135 -0.04318666596496908 -0.028615890624296682 0.03576328781764084 2.7206138771241965e-5 0.0031590574464152557 0.034330297778115124 0.025540962142202996 -0.01274844276968837 0.023386398844483975 -0.0351406454462123 -0.006507456311666949 -0.050190065464391434 -0.015826447385771072 -0.02551076575575606 0.03228574502041887 -0.013633082307722678 -0.02367858466254159 -0.026900377938748467 -0.05663664444961878 0.03829992014496177 0.004439539089791144 0.013063995339898427 -0.0036267545479576322 -0.012016181025956621 -0.000833647503292193 -0.016269359429340085 0.01485715401660355 0.049030452492083106 0.03885487012993564 0.032490237390795755 0.011600440869536474 -0.06477519856008537 0.011305586004909428 -0.002979602535239197 -0.009422548425570075 -0.011207420722360391 -0.06254415949768855 -0.03397500758312464 -0.03568950007675734 -0.037474688388269256 0.0204597014133314 -0.04462758640166634 -0.0011600852689619826; 0.034117328358817894 0.03961063697744236 -0.016599950257206834 0.011967986874520256 0.0011252139883715844 -0.060070998814811115 0.051790439803208646 -0.06058658338126967 -0.021158642740399674 0.05604131706572987 0.05672876270644603 -0.03922962332924213 -0.010641020956968077 -0.0033338591237125218 -0.021981901460092376 -0.04426917013197718 -0.008789187584250385 -0.008158966338028262 0.0697501217830804 0.016853135932063286 0.017166408378244596 -0.056510512319962354 -0.0034677185202614115 0.0006562394902999029 -0.04343391485408468 0.13482790338462464 0.019161078724629615 0.030343229736174045 -0.009695996055135953 -0.03747799498430129 -0.016211084144505835 -0.013792028276911929 0.025109896097136368 -0.003380885998496986 0.028775057709144236 0.013994629684241599 0.06287693206398647 -0.05646936506223549 0.02113723786626716 -0.12494805975463665 0.06422894390304691 0.02376213702141047 -0.0423206521387651 0.00021067045899590293 0.09101170081525435 -0.0003421917289550268 0.009184559838580394 0.006567456755192031 0.018508695092656482 -0.02603258709923812 0.05114477594126873 -0.005139059905067862 0.019629604484716536 0.05044202219645078 0.0317673530264593 0.019727890894227 0.07865325933084402 0.06446492141205369 0.014364288258663888 -0.0616289083334272 -0.002021487143650668 0.08441603949788859 -0.007593391834018018 0.052815048382561 2.811608188703608e-5 0.02800012701485044 -0.014337303301554303 -0.03937370894132902 0.04292427231518636 0.00014813215476630997 0.17173596459741142 -0.014272156008426004 -0.04620400598889095 -0.045005971999887213 0.014888235191838151 0.058216973918229525 0.056589174968472156 0.06310934586089621 0.06103769708524829 0.03896500626806371 0.002918217157494038 0.04990346031090096 0.04927666524056695 -0.010339416187150193 -0.017612727839022832 0.012653831563300126 0.026171138307008138 0.04293109009701487 0.01883538746114713 -0.007428556863866624 -0.027737500236059504 -0.05214507523333972 -0.14111663414316072 -0.061899089749345854 -0.05143338817599573 -0.04954803005015822 0.060731878321521035 0.03241312939351675 0.02597618937627577 -0.053908610155776186 -0.03362639951953324 -0.011713314802779972 0.022236157206377935 -0.01657379629563265 -0.036791695765499274 0.010441732268928241 -0.02134147895642338 -0.02555422762672401; -0.0013142269966838788 0.021474901035534434 0.004126207823278639 -0.012973789467848945 0.044138541355860296 0.019612748250930484 0.04408611070275068 -0.0022694132383319168 0.0020273389371332595 -0.04257159092239879 -0.0075506449994701425 0.0060324375386854034 0.0176668691554856 0.06498375915390814 3.6101306092403145e-5 6.217940447499109e-5 0.0001847109353255646 -0.012347918873798467 -0.03131945484977529 0.04484583642032249 -0.005214581487349601 0.046372832786984654 -0.03863066533955615 -0.04082330437163448 -0.032146355672664634 -0.027919837891977436 -0.02430051110851994 -0.06561650824907655 -0.025915786808598056 0.03546934992790931 -0.00663933518060487 0.012416519021193223 8.356982925840729e-5 0.046149778007980716 0.016154751763594488 -0.06168949605248232 -0.0017421346953466813 0.0005975045886863042 0.042690929796795986 0.14589137915419387 -0.02625881276601928 0.07251340162771062 -5.1364879199249135e-5 -0.04126552272331741 -5.519883717598833e-5 -0.0003434567385600796 3.773289557469123e-6 -0.01890672176804516 -0.002831608482428803 -0.01879230382551033 -0.06101126524840586 -0.07894460778207008 -0.06556950914336522 -0.057877946783675416 -0.05043047908547746 -0.110488323313215 -0.13946569126355848 -0.1324711915558226 -0.10497905485915046 -0.05228931624882342 -0.04788844620659458 -0.053305631649548706 -0.022588159742312385 -0.03509644622914664 -0.035281872607522 -0.052256538587408856 -0.025005630175971752 -0.007201110165790712 -0.012741261091870657 0.02934110169831473 -0.09058811966859259 0.0018303503155360766 0.06844087975264487 0.05509826703424114 0.02980367373803713 0.02485199171615318 -0.0042369105408601605 -0.060757408858007136 -0.06598260065830046 -0.03454220352970753 -0.029601702366913347 0.002641078523042552 0.00437314936846491 0.034135808282264174 0.04543309321341341 -0.03297233236923411 -0.07846122791005261 -0.08158343469933502 -0.006191381442754708 0.012863619173988318 0.02157270319515049 0.05986582172104147 0.07753495136348816 0.07063827354569976 0.033902505325412356 0.026992850981509678 0.029905076575992125 0.04580061457213889 0.037458691866485976 0.03850243217103273 0.015564005059061307 0.046826662367794446 0.04839592564919612 0.007634407491279829 0.016940309819395764 0.018217532680014196 0.014819276754887391 0.009730244862808527;;; -0.009475272835273413 -0.013387224817745395 0.005822678664755826 0.0181241887469816 0.05809442860871964 -0.008154473365843103 0.011896439196756047 -0.05794990445275331 0.031227238903871697 0.016146459009427752 -0.04933179582655195 0.05803117854495722 -0.0012174136035452826 0.04288846443015985 0.034993373946664276 0.029942089975726994 0.053703075083296574 -0.03867174381653503 -0.04762262068897062 -0.068366535877663 -0.078009834441793 0.03986635973560527 -0.07528399676684513 -0.058785754819025794 0.07595608965386663 -0.00996745886963686 -0.014025283293913447 -0.09937255993547633 0.005742290206830736 -0.050709536305844134 -0.03709903842520529 -0.02414550569268086 0.03995089186465417 0.028238621400392863 0.04058436024735684 -0.0333561920996499 -0.008650395249457462 0.008228901099351944 -0.05631144136933945 0.017247491652060184 -0.01869276563806137 -0.03843728671253571 -0.02211197674557109 0.031347779284487794 0.035109649687118355 0.0045648462005604224 -0.011004957316954552 0.039321615049052856 0.06453504700640957 0.01946572927430455 -0.0226827878833086 0.15298721635136706 0.018597054310991883 0.002215547032842642 0.02553906502236649 -0.0011914919963642388 0.01894212519679963 0.008761468489816421 -0.009650140803783852 -0.027753064668669267 -0.05076074416577068 -0.029189437451268896 0.08555934786001451 -0.10155375540590554 0.045050841265575 -0.01191731009115165 -0.019514923485928714 0.036740608548318544 -0.02195910190627807 -0.001583117545111132 -2.4785968828325583e-5 -0.031407231284113726 -0.017743931340224842 -0.015630611585945437 -0.025844651846608717 0.10264667726441011 -0.07948455698450585 0.003906216763311617 -0.0009726296523632262 -0.017744199586770752 0.0001772579854718999 -0.0799450584238757 0.07327436170278885 -0.09046693851190528 0.10109483237606176 0.0036777736844839396 -0.011642728728491236 0.016941379014494086 0.01789338383860809 0.003921862749130521 0.008217727285051286 -0.005181356678916976 -0.04741294349974164 -0.0035615813225838336 0.08674324679972277 0.07568050743837028 0.05093200881283169 -0.06890050078049689 0.009720277535760392 -0.009241642484357087 0.013168886254862193 0.0003787088811590663 3.3115896064253346e-6 -0.03281861078904263 0.004541199883342553 -0.011447649597854949 -0.012932498865717946 -0.018398649601859517; 0.010229632488335126 -0.03798781120053081 -0.016346905460897693 0.014765914493380838 -0.02934305987359756 0.11902423449788299 -0.016243890390064176 0.03401060625096975 -0.023071246601755017 0.011846890182903967 -0.0002270003914756017 0.0015360088947211394 -0.02829813176644451 -0.02060972065973637 -0.00386958066830838 0.12847279987200544 0.024042201989244325 -0.012758217819579448 0.0048306079127683615 0.01793340400043325 0.00011866469723392469 -0.08815694024226157 -0.011906147849815321 -0.02653846151264525 0.018263521012677596 -0.026787574885650364 -0.0888456247783736 0.04816658195156616 0.027248949094782635 0.005070700138478757 0.05673306278261289 -0.025306095074639483 -0.04793596807196725 -0.008654814272242885 0.09878652692634979 -0.045072401652503584 -0.05789114288547828 -0.07164850528839468 -0.0776047601930875 -0.026099665689863473 -0.01991385977568036 0.04204777740506376 0.017136914961837082 -0.04195586433277237 0.00810799567171135 -0.034414764950564614 -0.028433603378889352 0.059224068313457244 0.03246774933598996 0.003947689086229552 -0.03527561556433197 -0.0011980082739846915 -0.004188415496233132 -0.017406328655731215 -0.04162505918578916 0.02658632777863003 -0.031721669382593784 -0.0187029627861518 -0.025305533126874367 0.06751721296495274 0.062270885000327306 -0.0651763998837318 -0.03015232174932372 0.1459367328470882 -0.0243543026039691 0.055380429953722214 0.013664167559625151 -0.06202471661207102 0.029571195464280973 3.199779672223226e-5 0.030607715756468524 0.02132058110832287 -0.0637773705661062 -0.0416853006371351 -0.044950723910431624 -0.03679169791858466 0.01438413566719091 -0.005113484211940909 -0.028351711895891578 -0.042075852964292296 -0.047117677777915305 0.04211230898644107 -0.012842151715560694 0.006682254021421956 -0.09018955493320936 0.000540151422673576 -0.023760148068699458 0.01419885246050783 -0.015524155145230475 0.03139235234879956 -0.009590985287701108 0.0016861651559610985 0.042442325777872034 0.07316859553007793 -0.10360824460266523 0.034023972320934896 0.07268084035147303 0.12219874434611801 0.001965689614880397 -0.04179717101719851 -0.01622617112737374 3.301857876211832e-5 0.08339696520168739 0.059355424747602546 -0.012977539763502216 -0.008314661892968412 0.014355924797878318 0.055454760619738676; -0.009450736801469482 0.029424762896250813 -0.002091945919232121 0.048584002498196964 0.07268042459118847 -0.06238063706756951 -0.0004128061142245625 -0.03998803456000468 -0.02537295581971985 0.08582474203347966 0.01625245533542178 3.8198216973989254e-5 0.027095717584123585 -0.01020094716777102 -0.03990097312570472 -0.0938418552207095 -0.06682595197401561 -0.014457090639820775 -0.028996916503554786 -0.02877540550767031 -0.01240142972806856 0.010421768606866283 0.027575189472332624 0.06750200363734828 -0.04271470317716002 -0.03547580159465599 -0.017934360121163333 0.0254397769411321 -0.008015979129928831 -0.08183686985431123 0.0002569300575173652 0.013189415918646223 0.020875423188588167 -0.014926203331066278 -0.03628143868612446 -0.00012025673100575186 0.03388388160733513 0.0065734855538191065 0.14424454982261278 0.01937120420673418 -0.025382082717404476 -0.003148353338184084 0.02993577756009426 -0.022772082193815952 0.051517460539433055 0.029739376265462806 0.022040780464744874 -0.028195044052392697 0.005689874667425463 0.10348471357770749 0.02854509925098999 -0.06906546864192824 0.025633174184065032 0.03779241364132584 0.017748519746289253 -0.023536105277671082 -0.008306906184711261 -0.026695701776221978 -0.021008085772732887 -0.019418571331133085 -0.013517723993515016 0.040501403007121545 -0.02194738998331532 -0.04361786525855873 0.007338062324641367 0.003962481847716455 0.02373213440515364 0.009111434717355597 -4.878743012524327e-5 -0.018188129572095174 -0.014729552849585586 -0.013430938788211002 0.0526216307835326 -0.0377124475655914 0.04234044840881514 -0.017166740870873193 0.053097735811461495 -0.009408106567980412 -0.03226743083444294 0.0399785660611137 -0.0024261307646999057 0.02047989957194021 -0.08514706762786751 0.05013869216995605 0.020471882466373208 -0.018991826621250606 0.03609243656645476 -0.017013840342327946 0.011467415455802968 -0.02680872953341697 0.046973164994246384 -0.050249045124557946 -0.06278422015741514 0.028113505765412893 -0.00863630629204439 0.03278361608173185 -0.06602909521455103 -0.047838099209560746 0.01231453060189722 0.0075409261852509134 0.024809108347886067 -0.013007531366484295 -0.046906067750422935 -0.019870620993060598 -0.008425211969612134 -0.03174914925028265 -0.007081433200474504 -0.013168058949473852; -0.01417492164675209 0.014020130749241275 0.003548787392852777 -0.017021127709038852 -0.009166387930031309 -0.039948074292996814 0.012905995740343122 0.006479871123963133 -0.011392687792718771 -0.07896194571664848 0.03315876399524425 -0.06615330882119677 -0.04842541777424066 -0.008385534465872646 0.008841518241613637 -0.06470830773973892 -0.010902826802832851 0.025670027109391858 -0.030688700319514012 0.04325324103534981 0.039343319449259916 -0.036570782742655204 0.005008771411679818 0.021170179607316063 -0.09373701024520785 0.03109530004748103 0.0025482007523806357 -0.006902412336592581 -0.0672761087024598 0.03482426085400261 -0.06649844769818423 -0.014170647852066119 -0.012938888613164418 0.04618865971247429 0.013778456903112699 0.043546650163650294 -0.048391285204223825 0.05678130548286051 0.04319886634733366 0.0383682703465864 0.012435554711649404 0.0196154960190906 -0.024910459291785394 0.000248608011440687 -0.09482456929166787 1.7411000064860508e-5 0.019467951341718116 -0.021279326481692083 -0.03678364686659271 -0.10206818511062708 0.08879786241000243 -0.046712844303636834 -0.04719087176881813 -0.017793149976056126 -0.007610077171409173 -0.027122490805994603 -0.03569101562467284 -0.005483700132237664 0.009076827421282473 -0.0134736279923359 0.031271961692620184 0.12079477065829383 0.022913241718836512 0.027085353470709225 -0.04436987815007618 -0.015296543469439766 0.03557702869736786 0.044511119039090205 -0.0182883322279703 1.615239774503308e-5 -0.052926448397252294 -0.008458284591288188 -0.010157567992388797 0.0482099236262528 0.006594645859484089 -0.02126454101802815 -0.009495779244768892 -0.06268321389962855 -0.01816005653865387 -0.0273771212444532 0.06939021654621276 0.028426031434641133 0.030048797496178073 0.0038784107862065743 -0.02734434874293326 -0.01446899973144055 -0.03726299000276764 -0.027263849037933302 -0.0019076306054690176 0.020376902421135008 0.007420353968141357 0.05293781748664842 0.09941709844689964 -0.09423127544070126 0.057827471243100476 -0.08817686955270818 0.005396833530858114 0.03954498382621811 0.02076825398570215 0.07239005008599404 -0.020264890196825043 0.03704385374578974 -0.009498959566597936 0.029666402679520025 0.042519120789962575 0.0773373326435458 0.018042390154329558 -0.009080961870021527; 0.022871298795159853 0.00793014237278412 0.00906738532252121 -0.06445297802952055 -0.09226540539627924 -0.008541049771473554 -0.008145738432810431 0.05744746163782511 0.02860965131032194 -0.03485614550916289 0.00014757688736153114 0.006547923164544409 0.05084524556010686 -0.0036922621367798092 -6.433839426481012e-5 0.00013527311271597055 -1.6498295692437997e-5 0.040217025166543394 0.10247762959927106 0.035955296349550254 0.050949280023367724 0.07443959464244522 0.054606183732648014 -0.003347966912993297 0.04223210275582364 0.04113553530246219 0.11825706744106973 0.03266861337937066 0.042300848530775266 0.09265144516767401 0.046607493283259256 0.05043283270074024 4.8541631889329356e-5 -0.05084626350955798 -0.11686790539069486 0.03500220031950894 0.08104894173182443 6.4813152363115e-5 -0.053527214607519476 -0.0488873005155173 0.0515531534194968 -0.020077633373434555 -5.025648457486612e-5 0.03313155923065984 8.946339340511973e-5 9.313148447652076e-5 -0.002070171110619084 -0.04907131282842532 -0.06590902414323227 -0.02482994682761451 -0.059384558213351854 -0.03601089513181729 0.007149058769994352 -0.004808482042381139 0.005947551588542587 0.025263760301399898 0.05677746599517824 0.04212089620479501 0.04688693228210863 -0.006871948972814487 -0.029264378533661792 -0.0669303363304147 -0.05637287784621198 -0.027850465653333135 0.01633527716382892 -0.03212905824084725 -0.05345840717621793 -0.028338445692693327 0.010725026100092645 0.019723096922739037 0.037073071459197686 0.031975873555290045 0.03905723911518725 0.04681843616241913 0.02186028148874112 -0.027423697456924124 0.021498464750622334 0.07329858791623825 0.0797518289213516 0.047218607734402555 -0.02002366598906944 -0.011073181569146707 -0.00533393985553871 0.029767581534320707 -0.004032811166292337 0.029242901245533644 0.036573430233503575 0.013137457905259331 -0.01192901354371157 -0.028882387985648118 -0.053020260959737914 0.0008064191608654063 -0.031662260567614904 -0.0034892445322057177 -0.032326167148113635 -0.054311226288328844 -0.0629805874806118 -0.045005128182278455 -0.04476875173824016 -0.02889216276968937 -0.0014869332785494755 -0.02444804983922662 -0.02699524947427294 -0.03633259564501935 -0.025657568940190775 -0.025825871902439783 -0.012384382886015432 -0.014807090198383775;;; 0.028263232034635394 0.022970193813352236 -0.028005743478817707 -0.00038398205063087894 -0.05472295973278127 0.06537024703285728 -0.02704296918207082 0.031060753715247198 0.04845547911841799 0.05428982040226155 0.05795049598253252 0.025018548097185966 0.020098147431475182 0.044549225531130915 0.00720635435486346 -0.038044763683051416 -0.056676182173797794 -0.02233933687394105 0.01982657423809968 0.020884676901482623 -0.1153650107534895 0.012664847696801226 0.062288257019608405 0.021242494711400436 0.05316154922685877 0.07572777306946017 0.05978295323804633 -0.09275062110561684 0.014000247163515778 -0.030443707990309803 -0.025942674802384137 -0.010281575144272985 0.04463153060984731 0.004774340486909385 -0.002014389106542074 0.0032717532210917596 -0.013469303235351685 0.07309840943204589 -0.04267044887872534 -0.044622505137447185 -0.003740578914979517 0.08519980327857302 -0.00562086193677092 -0.024504550456034925 -0.03700186492054023 0.11434707535431426 0.02280167768168845 -0.014697375851579405 -0.051435207346498264 0.042054968098484864 0.0398527404478231 0.06943687325923281 0.012020859435108503 -0.011474920084901415 -0.00022213786195227495 -0.005728411053154411 -0.02863958131875625 -0.033590655104337584 -0.04551680466280426 0.029644773418766215 0.04946668442145798 -0.03551552945226686 -0.070547298846997 0.0028945701956730155 0.02376925766473572 -0.021717895167974875 -0.026812148145662608 0.04262687329087171 -0.024347339435366933 0.05663426290491194 -0.0009687962972609809 0.02300190348326412 0.02382314994617144 -0.007302968740755292 -0.04318051825328833 -0.11375702545790188 0.07818173504501989 0.05103794165777865 -0.06898914761417775 -0.03717881292822283 -0.024190274045971922 -0.048803656847292265 0.002028296609676105 0.06353453797452706 -0.010827032024291949 0.07459232674915792 -0.027759291434553787 0.002892620375180347 0.0032951255304074388 0.014535441151315094 0.007677675268713366 0.040427580612412035 -0.032678807494729185 -0.00023940311338183366 0.05859853990016858 0.055272641906440746 0.012899385706319018 -0.03098989134981592 -0.05178248233862517 0.07414791627821377 -0.002552869912772489 0.02234922198085321 -2.7435806298631168e-5 0.0008202077391988781 0.05704502147885676 0.05509060201028734 0.01798353947660373 -0.04121615630830106; -0.031352680729853276 0.024515744583017526 -0.019032852858376914 0.042451971964657643 0.06413748390479858 -0.06532186249624891 0.020069210782303983 0.011053580241770906 0.07376344981733514 0.0442911574814319 -2.1762085080277963e-5 -0.02104651683687891 -0.0217411069366176 -0.018475120126586055 1.2156834675932114e-5 -0.0028626516298083573 0.012613840701194052 -0.07216246845219496 0.04874969936007066 0.07376902595680486 -0.0002885436551120458 0.053807850768336225 -0.02248699863445749 0.017240890649051085 0.07498549573157358 0.0382866248712058 -0.04842735723633149 -0.015329633771727934 0.002523786821182644 -0.003404882429623624 0.11173577484648457 -0.01698759556833294 0.005791561004331369 0.01586954966585603 0.09709907625604779 -0.0216045588682278 -0.00954130301128765 0.009739030056216095 0.03558634998251728 0.004267911768588267 0.0018239678428609504 -0.05162762927100342 0.009474769026483395 0.02834271707563707 0.007028524042740822 -0.04500764387817625 0.03502267089251965 -0.03979537470351215 0.01517916461721754 -0.008534217146096465 0.0677003672131685 -0.1057799573100097 0.04415159378063263 -0.02952464984339729 0.03374202859733363 0.008220691357821722 -0.005416300932273742 -0.046365708657593485 -0.015264835358502416 -0.0018349779084085814 -0.12349420872244854 0.12809160231510644 0.04946342380359844 0.0683094089645015 -0.004701262389687657 0.07156893568618176 0.04689016610664088 -0.033034200852961514 -0.07417752453233857 -2.5988531438305725e-5 -0.03124485519548893 -0.09900657484614749 -0.011757796965271603 -0.012439927662272985 0.017895833932854592 -0.042067547683354654 0.04518605707031829 -0.034082297303009976 -0.039725706895954886 -0.05981442611772768 0.0014626098537939237 0.003615061024406098 -0.011637357638842 -0.04050468507366114 0.031043425305410526 -0.08623094695075705 0.045703581299538984 0.010944249131295507 -0.00430608570387224 0.002740866161403272 0.01758888687370256 -0.010539414871786484 0.04415124908985066 -0.004855608454539293 -0.009645070265987437 -0.038258553483540375 0.03382911916045138 0.01367772691172593 0.036948220624359346 0.050519370954660525 -0.02723607935482061 -0.00042056456117148245 -0.07982073523326745 0.0029970358881698605 -0.09493652809259005 0.036694340380038826 -0.027593269547871047 -0.0039671786589909365; 0.0128538335418469 -0.04997166629568859 -0.026086281667901102 -0.07729229219542769 -0.019214746381828903 -0.015187421278336052 -0.007090914670803842 0.009075650557912478 -0.089678284545048 0.00215691911714478 0.021073221925195174 0.0001459273409659276 -0.017554986224594185 0.01797941559218643 0.013552189311486468 0.05142268374465611 0.008697781566969492 0.04635340810388554 -0.018186115722658994 -0.06743518825615616 0.07954454380895724 0.002661828389616463 -0.013746187677598313 0.05887476028606337 -0.07749531397888094 -0.08391660696856015 -0.03822994359815884 0.042285951755413866 -0.05858877644001544 0.06957451768606703 9.86244273962117e-5 0.06159331415858843 0.00155197017075322 -0.07900020335028014 -0.06612762097406642 0.00037367215931974655 0.0111865655170545 -0.019767488150928207 -0.006128782258202414 -0.006264811366945012 -0.017333229134738372 -0.045074852851961604 -0.012134275662770325 -0.0400399398032168 -0.051751881481503906 -0.06935198752854042 -0.03423458881768774 0.03235201719024188 0.007795532008339794 -0.0030234596178595895 -0.030550778303039084 0.13232880828597982 -0.09790661963866058 0.06827836008921982 -0.017789688059857995 0.04079344296736883 -0.026825062935523006 0.03291008432020439 0.0338812982291071 -0.006065195564180488 0.06790447345069837 -0.16662730217183389 0.037546725281410315 -0.028559042565087116 -0.06618124387832658 -0.07160478163228796 0.019086722577643874 -0.019156881934716735 8.36515388511115e-5 -0.04441061501254049 0.034679291519388956 0.032809137411479936 -0.038060071731723405 0.001068681496836363 -0.048421406478692815 0.0406150851660868 -0.03425206098432968 -0.002575371592106429 0.024712703267481786 0.06868402104425646 0.03732538631588327 0.04140238024317467 -0.004591477344238619 -0.01775007110090961 0.017894536510151063 0.028492988428465645 0.02259471764680518 0.021999496214685933 0.006925363854202568 -0.015569146865258406 -0.03139152678692473 -0.019962130417674147 0.02691121201073351 -0.04704136028067058 -0.00484328692550738 0.0065191727921311655 0.015219951208345668 -0.03134145616776383 0.04119453577502527 -0.05897489823500954 -0.02461208861068294 -0.01545343768368832 0.00591101793681218 0.03499654390263596 0.024783613530769952 0.0032490131490284773 -0.005697878954168388 0.05303438565129736; -0.02808754019977683 -0.014231301887075054 0.03962327803900675 0.05027800461982432 0.022402029455663174 -0.013484966606407247 0.009884403069805989 -0.03205668928581136 -0.027845122039472307 -0.08684360625916342 -0.047302941300321734 -0.03297645478697296 0.05739883128859252 -0.03822483255404512 -0.021036939161716197 -0.010356617893688896 0.03534333771060667 0.04918120955555893 0.005095878438377772 0.01256635790090342 0.05956716972174196 -0.0233067819719786 -0.008940516924539354 -0.0630097932653464 -0.05863122367030674 -0.01759721244198895 0.04496811253577215 0.06729225770552183 0.043015467622554725 0.012213508092265722 -0.07543236580683542 -0.0008491980633824058 -0.05173283142047131 0.0056163626821346254 -0.0800347299149179 0.007447872237085004 0.015400173457562158 -0.06281593829429537 -0.058618253316196724 -0.006358822966299102 -0.060141646277924565 -0.009933179867443846 0.008235586818262815 0.0002161483664355715 0.08171431295218205 2.310926009276991e-6 -0.02347535881997826 -0.035215976136744556 -0.03239740232373778 -0.01913704820027322 -0.08137187545447304 -0.058578306692594395 0.05170813108450536 0.00038481165402855135 -0.023178190483120698 -0.03761289116155728 -0.030814767777957375 -0.05698056198651461 -0.06535162081683063 -0.0494617743795582 -0.011079246046431922 0.07788050270446464 -0.012730782110536618 -0.009317503735577595 -0.01782934312008801 -0.07220233238043613 -0.0664022358003541 -0.027618641776369354 0.04941510757963293 8.507278060394552e-5 0.001504690463874927 0.05217200857549085 -0.002010599875168106 0.0029653041688864276 0.020872961663480336 0.047973623658159346 -0.025921181620571204 0.09165819233286565 0.14042251984113757 0.0374308099068248 -0.02038006735043791 0.018266379317287283 0.055033215194290504 -0.0024601850461133754 -0.04386300414722543 0.0007829430708198393 -0.02045614572349138 -0.01851449808453689 -0.02648913203907514 -0.029657162988476263 -0.030749216113587444 0.0347220393291761 -0.046888736524357405 0.06628518899893941 0.025978823427011806 0.010608162295248129 -0.07325283876004629 0.055159855509328004 0.012057658092564276 -0.08656321065950943 0.07530236758966748 -0.010755950192626785 0.04424716509079683 -0.014550780589507985 -0.003299988630249758 -0.1026756647676359 0.02308960454348878 -0.0029069633927641387; 0.018323155353147803 0.016717029786393885 0.03350159996608898 -0.015053702338423418 -0.012601807245851583 0.028624003348134933 0.004180270000764691 -0.019133295229119218 -0.004695522351232828 -0.013894290741674814 -0.03169901452232566 0.02885849618569998 -0.038200885558855924 -0.005828688442686164 0.0002662386606903401 -0.00015865053810743682 2.122219502756888e-5 -0.0010328123333084552 -0.05548603631388912 -0.03978487250303476 -0.023458159122097665 -0.045827744882775315 -0.017114553783013242 -0.03434835238116848 0.007979492690755326 -0.012500578530116876 -0.018093764939328166 -0.001497954583590914 -0.0009507251672377093 -0.04793943535839933 -0.010459358664661226 -0.03347494538260009 -0.00024223036446058057 0.0527399505153801 0.051077663739478626 0.010511261250731296 -0.0035761327279773235 -0.0002540130430384119 0.07183113447060721 0.05297822770210303 0.0793914864847815 0.02143585871183586 4.4781754795032435e-5 0.03598562481717909 1.0909407121267098e-5 1.0245126393124875e-5 -0.00011440093654210071 0.057356709501594244 0.0608579130446787 -0.011360243134255588 0.004369546096520522 -0.03740741754260854 -0.009973964661585906 -0.02766360181494967 0.00744798780759734 -0.005672832110478864 0.09169571296451037 0.10402684142824128 0.0922519626090302 0.027717174433381044 0.017202296896724093 -0.003829273395470319 -0.003732068127475132 -0.033327432859509794 0.06494259172336654 0.09395607349451719 0.02723749526173197 0.037182851273175895 0.049026104849221465 -0.012282732141537094 -0.003970330490513977 -0.008976474624087426 0.02800531862599167 0.015708910737305484 0.052833129135646216 0.06723586431701038 -0.06319454951043728 -0.1060384650955279 -0.05642036859848672 -0.009121591905130738 0.005782345226732634 -0.014480163737575791 -0.04083267682088599 -0.0028195967538429388 0.0057520743559557885 -0.017637311297686364 -0.020082861788299 -0.017321867636624903 0.02057472835833737 0.027950002541016303 0.03687418075809625 -0.044648074652127515 0.008505082918502417 -0.014148817150347713 -0.07008900613568557 -0.03414142351027966 0.011304382684930227 -0.006506234903474183 -0.038417932153323724 0.020870821661644674 -0.020901329711391445 0.004280730456633376 0.029689988011957075 -0.024263006940496712 0.016407881713213106 0.007641709228281256 -0.007781995518053073 -0.004944087291241222;;; -0.01892135211620294 -0.009177349174106867 0.0023601183679059236 -0.026531376197102895 0.0005280598387309498 -0.026546077788488744 0.07200874204652298 0.009561107989892674 0.013223915354424298 0.05559166375291277 0.028154876974137478 -0.00708789504344137 -0.0050847377955418474 0.08374947716502536 0.061888517307179806 0.017857698254457075 -0.06362558211686525 0.0021670024657232416 -0.05310884319609217 -0.05009524387591149 0.046556250802296334 0.009407825601212805 -0.006955796282351786 -0.0008116453734002173 0.03145056902717227 -0.04855970848770503 0.05571492697229245 0.04340457400328462 0.036439924712294354 -0.08647553489501847 0.00713033849009853 0.008443983044313283 0.026486180485412215 0.01575191805714119 -0.04224459508650234 0.039002618382651455 0.039765656673695665 -0.01096934447355513 -0.09032806092648187 -0.013478672369811063 -0.0673894715609979 -0.050533821222393284 0.010344361405992753 0.09587665505601085 0.02412269838119894 -0.0015834021107954455 0.009331931462954217 0.08059237775255577 -0.026797420457425305 -0.04549987227358668 0.118159108048659 -0.004556391870125508 0.03736935441464021 0.0741669320422694 -0.01379729195612478 -0.025991837526557274 -0.01715677295194987 -0.02748002888501187 0.05416170713565017 0.035681577597442726 0.00607853799964929 -0.019355164005970104 -0.01425754237734398 0.004436535897969502 -0.009969606068410948 -0.037452238439443356 0.05404329852259442 -0.0486048059383775 0.14150001444335963 -0.005360782580370923 -1.4975195080167994e-5 0.10896768561598297 -0.0022032545358182587 0.011453097995188248 -0.05573853384444618 -0.030119503481972933 0.08665425032829874 -0.026080786828243906 -0.029139250162452394 0.015906907262967323 -0.03778897327565604 0.009327104694197064 -0.06151045735527803 -0.014212748690833102 0.046100667860879484 -0.006547813090924535 0.015226368627680086 0.012360841618999542 0.006536256505607633 0.009552464386272556 0.00901383460333364 -0.020342313026458236 -0.06150696644315727 -0.03322416604959364 0.12204952103431634 0.05560458225172668 -0.0034939832162120777 0.05508734568542049 -0.060417258697070576 0.005014382908607757 0.013792023737501439 0.027867002862381376 -0.007806058666481477 -0.026469297433101346 0.03995853441317631 -5.847985611644897e-5 0.020384760348370026 0.011871815067984714; -0.031111928073235103 0.007205759731122808 -0.028226915401471424 -0.019276537000913245 0.009060852767192144 -0.004953318544353582 -0.05594457287564396 0.035195682251176266 0.05169225604531968 -4.304192689796226e-5 -6.106679095773762e-5 -0.024191474472609078 -0.027206074688840794 0.04254832844616272 -0.019841544283044132 -0.047506787894373216 0.05895464595674247 -0.015719302996404182 -0.04581841789730584 0.12774007295433665 -0.00034772929291962905 0.08678559351844166 0.06728490104959217 -0.013858177381150414 0.01053118632873488 -0.005974688781549797 0.03918315303358412 -0.10086178389022694 -0.06490199485969202 -0.025667229325166786 -0.015362129097789357 -0.0018599085901479853 -0.013461772979426063 0.01782301995517449 0.09689935855911731 -0.02324259648425762 0.004463048529414943 -0.014576559818586682 0.10211273471280591 -0.031353460797039365 -0.048235940320775134 -0.013381840744096646 -0.08602591567314863 -0.038681824555054686 -0.041066517351531925 0.03952631950693969 0.07222689366027135 -0.03023065680961917 -0.03291912246908793 0.03693577475471597 -0.07788406997856043 0.08805712581469377 -0.02529786004644096 0.010644806267552513 0.007476864847770402 0.043973543320425405 -0.013818489989002638 0.013497438820022167 -0.029930102669602127 -0.11515512561691638 -0.00429363404842372 -0.01778999429289371 0.028944429713838427 -0.04060411675545337 -0.051190443479395116 0.052569564842974065 0.07365166018456981 0.001198588922042182 -0.045894414164201806 -8.810329735813141e-5 -0.04250202850022368 0.04885342747594235 -0.012564901753623422 -0.015596574667349065 0.10201527404131028 0.006773936274283207 -0.0249316546402376 -0.08519451138450691 0.01772229006697348 -0.005287581360835051 0.04634471955355972 -0.03985306284313241 -0.013255569215978431 0.06164696935220709 0.07686633812840615 0.06475901092947615 0.02057935063687789 -0.0056004680895111545 0.037980439983310674 -0.0020949528392988294 -0.013435383207971956 -0.04657848869602708 -0.06453635510957599 0.008201014361407718 -0.044027978491796196 -0.02090045474806175 -0.043283346569964506 -0.0407443660238115 -0.03409196170390757 0.02692882074426474 -0.051019058913135906 2.8837897354751143e-5 0.004145955760055473 0.052213139705358416 -0.005056145807462531 -0.020268936161170936 -0.016922299814313698 0.004261384015295571; 0.02608094775809406 -0.03196083722060682 -0.00884814880626979 0.004558629668340012 0.07663276928998068 -0.029524753950806004 -0.057224426653261024 -0.06362556571166036 -0.09615263359241878 -0.07178424494880223 0.00962981457771231 9.942487362785729e-5 -0.04268903712184164 -0.026513877681356584 -0.03665512589878776 0.10252603787086606 -0.017109764586147373 0.035665387277233195 0.029078210307699665 0.0016365819163407932 -0.044844520015329625 -0.01314948258175216 -0.05968724325960485 0.024123248010705617 -0.07610236736751318 0.06607512000586165 -0.0990711476134672 0.04106198524546499 0.039097383783129706 0.09534505113973994 0.0009668048265473207 -0.02006844288963669 -0.007301447948011846 0.002901767575898622 -0.012996127317888384 2.4869498880601186e-5 -0.10527365530579527 0.08333251623629424 -0.05542364283112991 -0.026006492708215676 0.07007862289003976 0.003048158484383122 0.08017818883272795 -0.056246347826648134 0.0779998445158229 -0.03816588836610542 -0.036480894989590576 -0.017685783464939566 0.03485869811625966 -0.016234318915796984 0.05304824005633058 -0.017598004004206635 0.031089501631053805 -0.06479204389842654 -0.016134230284588172 -0.005071541790501544 -0.01668694634607792 0.007662515182362658 -0.0004941187046594391 -0.04485307150867861 -0.01610458629118245 0.07071131757092487 -0.09511221927270999 0.03508880484027261 -0.04406733415271849 0.0319341550679252 -0.038102727712732536 -0.02806041811346283 6.994917548614163e-8 0.012660487267504772 -0.04200462807943438 -0.11498420595116701 -0.031096566668835496 0.01106205224347241 -0.07213517258369045 0.015718963648289928 -0.07277320317430165 0.016749206181379837 -0.005274763333158991 0.011297448228902779 -0.02218538287521777 0.025101235953833588 -0.014185716853451527 -0.013835085246359373 -0.10533161482641881 -0.032478675523477184 -0.061320455689909445 0.01509319461492593 -0.014288080023709763 0.03200711444333411 0.02408544091723177 0.08503018015182885 0.06610666552033355 0.03600286640423256 -0.0009914231473520114 -0.04316153080492039 0.0532203633924138 -0.06473367702482369 0.04591750350695151 -0.009856455715817503 -0.006461246529025004 -0.041042125167369777 0.010708747726051683 0.008323189292052259 -0.00647371992419509 0.001564130713765866 0.017789037023375847 0.010206154416570202; 0.015772938562133992 0.01077396650576257 0.005815000896093767 0.026116555791905378 -0.005312264488259068 0.08966625514289907 0.01599137056367738 -0.024729624889091195 0.0029124750336515623 -0.028961582199150872 -0.031232259680072722 0.0289125862565105 -0.044657228732979753 -0.0640644996751645 -0.0053300818975343224 -0.0726935243892368 0.021733144703444517 -0.007013654977388815 -0.011391415684703806 -0.07863056219844478 -0.014742620605056033 -0.0789883850110373 0.0379820265945667 0.02336531427033524 0.024372452433332758 -0.012662069421397476 -0.006175481554711053 -0.005046850795245463 0.031236940475928364 0.008945824236318019 0.03771357397392149 0.012792213189623133 -0.0057530280834064765 0.008880395800036476 0.024130498345123243 0.10026931636750494 0.030631194571628377 -0.0578776953972689 -0.0005462520831270514 0.06994105007076462 0.04355042431040882 0.028924647281935046 -0.004394128147760706 0.00025275651231398353 -0.06102292990578916 1.7456318710568835e-5 -0.04512824738201537 -0.051465817398535355 0.03664810576350482 0.024547846799641695 -0.048531773137974014 -0.05566773126481127 0.012573287014563436 0.05555917809422917 0.051701157325299965 0.00845484580260526 0.029684263790066574 0.01462853464241635 -0.037858227165972 0.08786482606426832 0.04471480931530726 -0.027598162255907038 0.086607911671625 -0.07982470755347751 0.0429477338830594 -0.08809916069763377 -0.05235582799438684 0.09236011087410434 -0.0418506043614612 7.215056552278791e-6 0.11426375037830477 -0.018830270899769963 0.014156959317643705 -0.023810812138865527 0.021248755633861565 0.009706354865223055 -0.0186822938782339 0.06829043504350729 -0.004652135732921509 -0.005110048075574716 -0.012965567879694046 0.020597112461639634 0.11668383892856996 -0.03983719967638102 -0.04455085410948357 -0.013900742887516542 0.029044259942071812 0.007619171872995608 0.008344503091771654 0.02934807760691695 0.0028164179363425515 -0.010485004844050454 0.07220153467429462 -0.006050917415984119 -0.03528276517991023 -0.012460632729336969 -0.06824886483744182 0.041550392709590295 0.07503127037977336 -0.036799766404664376 0.035154443350938105 -0.016414024933203028 -0.005269600405956895 -0.018368212016892285 -0.04209423359065254 0.03500018201315708 -0.016412723929143582 -0.025502029590600352; 0.008179393869209985 0.023158460157828308 0.02889994494374152 0.015132727737770755 -0.08090941740764472 -0.028642104859250735 0.02516888691870462 0.04359840035968262 0.028323987159023244 0.04519720532193828 -0.006491365080819326 0.002267358385912093 0.11963707833920403 -0.03571942825466698 -6.176522781358973e-5 -0.00018342384171310852 4.755604282564007e-5 -0.015099431769163433 0.08124046647040216 -0.0006508487963211726 0.013378619111008959 -0.004055551526864986 -0.03862388810220224 -0.03281873952649022 0.009748159578273276 0.0011213466847906554 0.010348549162301691 0.021442075436722798 -0.041872254111660394 0.007851888844127302 -0.03044858819277798 0.0006921552458482605 3.0068525432168685e-5 -0.04535710138825078 -0.06578913449984981 -0.11605420776477937 0.03041375553105629 9.108345311648061e-5 0.04418522112793292 0.0008975758043014725 0.001996364681324448 0.03194285620017177 -0.0001025064178113526 -0.0012012391866220227 -3.3095639700743644e-5 0.00020551465125059716 5.0317248380362847e-5 0.01878987992053831 -0.011790260953251244 0.0002505696350259941 -0.04479150498845517 -0.010234998675550357 -0.05573428301381649 -0.07557887250562456 -0.02924649993235741 -0.02136500980597185 0.01797794549696385 -0.008308459759789302 0.0141207414045834 0.03646179346388394 -0.03039512697535038 -0.005967997016154022 -0.006182579735409477 0.08090348357068877 0.062279649817465144 0.04104767922617786 -0.037236403000044854 -0.016893475744306198 -0.05375506586687212 -0.007218816446327996 -0.029742118603566542 -0.024006636240988335 0.03170776364063347 0.016892236567553932 0.004609676752964792 -0.002079751305823254 0.02973290136447441 0.02623565698786369 0.02134385916155942 -0.01680672605546034 0.026595204477008135 -0.01517239026653787 -0.02773209550386198 0.006238064261366398 0.026915462946616744 -0.011831779427557886 -0.0035295235167203446 -0.02947274001740993 -0.038573119556980194 -0.06881270359722477 -0.022480310248936004 -0.007624373585293101 -0.012264878641894893 -0.004928797300062518 -0.041747354215257895 0.02091803603059243 0.06180583123120458 0.00884030465362441 -0.026439553485746715 0.01471301846760938 0.008533838353721361 0.029560309340836675 -0.0017790444136687859 -0.015698819547417045 0.013665564909133855 -0.016236896709635552 -0.004838773628288597 -0.0008373239092501367;;; 0.02843185421003509 0.012096819442760398 -0.029033320131011262 -0.025633299019061234 0.00048602032092119927 0.022909981675034375 0.012828029751799596 0.0333476124751175 0.0016720830163110961 -0.04965368942266614 0.025059999822465196 -0.008380927045699574 0.0295220934770174 0.021545378347448758 -0.017497417460662683 -0.06271054302436636 0.008166793465730654 0.07492654767941799 0.05288506837630047 -0.024246155991654014 -0.030575884022850417 -0.04203831051534137 0.032688154417726475 0.0204967381109635 0.08437578185064405 -0.03050733374121254 -0.06713222878554428 0.03740406659431857 0.001825465443710442 -0.0021313731193028924 0.015877224131141652 0.04206526465492556 0.05043244412640178 0.0010714963321560782 -0.007763760134373499 0.01932889451066008 0.06470440307084879 0.005585554199829075 0.09713611502050988 0.012112980796915949 0.03470630363865926 -0.04919187075888389 0.005433209113262959 0.01831471878837092 0.02612152996023406 0.022696929596352694 0.06952072429097499 0.015648998898814433 -0.05552327645638965 0.00019513647088928318 -0.04775655214176814 -0.005558119359774773 -0.046851242712596455 0.09024652287664951 0.011986989697999578 -0.027385797959026247 -0.03389517905561552 -0.05468477442256724 -0.0028287892371044216 -0.01851917644195943 0.1345325676679711 0.07378074328062371 0.04669941188901235 0.010165419050447943 0.10134230321939997 0.06066063717521796 0.02239772595564096 -0.03467361672285757 0.004311317790971574 0.006535677330383252 0.00028818204525436807 -0.016543089192128487 0.023464550921360537 0.011109711586121215 0.08122686650884604 0.050670334612206346 -0.06780417268440116 0.055539549482485635 -0.06665944818990739 -0.010686507376402284 -0.0096351911837862 -0.01695944968501476 -0.0022077536613749264 0.056233856265354876 -0.018657733303079814 -0.002456315656715459 0.0462942473785829 0.0035844174432528653 -0.00924634516898984 0.07604906046136727 0.013955723685480198 -0.019115225199753994 0.018085602506769896 0.0015614386330245376 0.08300517193505084 0.06692103940291692 0.0008643051238659416 -0.015983104518413817 0.0323064606223907 0.04596897672258533 0.028570007052374027 0.017724133429738564 0.020371983778423596 0.010691887149827673 0.0671376837068538 -0.010010153092608318 0.03303601649360022 0.05969927318432051; 0.04884260860853314 -0.028674847808632633 0.026914966768877866 -0.029044099682212707 0.006306400855437427 -0.019844361126949858 0.051930861411504235 0.002127398932593428 0.03674480318655621 0.05456204781479922 -4.689191882939699e-5 -0.016647559518694996 -0.04823064798172943 -0.12019859416849543 0.0031371789160759733 -0.03209118513621616 0.04511565285643464 -0.09704862980020708 -0.08525998541425059 -0.028260398559644993 0.00015904745143893482 0.01758561244163594 -0.04127538507650246 -0.0063793124473587055 -0.05039160858923027 0.012214737165418708 -0.004973242685250919 0.04002218111105356 -0.006973876529032502 0.002953523483061245 0.0034848783377381095 -0.07560395399647661 0.003937141345438895 -0.06040165155028904 0.017689002519603286 -0.03334313503378217 -0.08471614558092727 0.012292654341986276 0.05887520170986001 0.011856222674516142 0.05336967610476178 0.013758093407065394 0.03312012941952844 0.008954742248762979 0.02403903880215768 -0.061028315553460076 -0.08179563035360503 0.006907974721643419 0.08064630316851228 0.08963185635814828 -0.0483232412594671 0.05381360138725732 0.05456006819885628 0.009031014670467916 -0.07877678946480655 0.03782557412216903 0.02734479600231521 -0.0557991820660818 -0.001790759689791029 -0.12273432664938787 0.030544252026220638 -0.04510586886191641 0.033983599306734426 -0.07507220608049642 -0.05084699943461223 -0.028170170642315213 0.001384765527242981 0.05453470861615198 0.02256255975799203 9.312482753267787e-5 -0.03325461846426383 0.023127580086428602 -0.017611298053442966 -0.006227693361809717 -0.06362599581953876 0.04919585347877164 -0.04987366069879731 -0.024636126613590867 0.014473830322647966 -0.029655184758790122 0.041480084060105706 -0.06267399988046236 -0.0031828560331503882 -0.10785304786021938 0.02377179787694113 -0.07692218421149405 -0.07070474913316062 0.09278819085981133 -0.0562489811189696 -0.040244917887348734 -0.029259463593648852 0.031554529430379306 -0.039960157473869704 0.01714851301929041 -0.05406145739727623 0.022505289752965632 0.032121810793031336 0.007966868820362766 -0.036901531447019506 -0.041718168770487 -0.029225344190176156 0.00010986249822428343 -0.004635636070127652 -0.016758064549735628 0.02241135494944684 0.06404613787024309 -0.025055043160419302 0.06189140070635183; -0.028883132384409177 0.06662828929781034 0.05268932158691963 -0.018298417693683282 0.04148696038897281 -0.007356233584868112 -0.008501125583431563 -0.03892928418896655 -0.04032810506435699 -0.019522208774650423 -0.009307337650818249 -8.634352968391677e-5 0.017509818038848223 0.06818578610809974 0.0041705472513116435 0.02713551596332353 0.012700031913622798 0.0254529061197803 -0.01506500682951202 -0.01913477656816833 0.019764509043354694 0.002484623479754537 0.001474141280213485 -0.007976049905266886 -0.06038224059849865 0.018570642517103726 0.008114669903997927 -0.09264838378739826 -0.021214427641968656 0.018227470652372443 0.0008727159075893567 0.08242510575077433 -0.10099290054356004 -0.009752537514422958 -0.01364529136972398 4.9322119525082065e-5 0.05865496927570157 -0.030808347874840356 0.001236953036928937 0.010615038010945061 -0.16015972142315682 -0.06222258882127576 -0.011734458729677499 -0.027345601081415347 0.03495401479188917 0.03828799256940109 -0.026438367571214313 -0.043458127335340956 0.0010615764003342537 -0.0759918564161615 0.001965546172108236 -0.06148387624241993 -0.04331255454335862 -0.08845132314440933 0.05558034443360044 -0.07202637860356928 -0.04808997150434891 0.04921288115105424 -0.04551181328362782 -0.005590796396350792 -0.04701561108776144 0.056702224914173316 0.0705968659040154 0.08804346940721089 0.017149585075300063 -0.05310846513676191 0.0597203629985989 -0.008851007317464094 3.833832565364337e-5 -0.02275492798091389 -0.000778155428459541 0.011982368978703684 0.01518287999888376 0.011020465155891132 -0.00237318572422112 -0.11263251661187149 0.022296368969031418 -0.01752008228498988 0.024232250867693886 -0.05671860499889312 -0.015189182505112317 0.004037466299995931 -0.0616711146041959 -0.009295815648673475 -0.08994534307096172 0.046502491475425595 0.060287534072689185 -0.07414884767551537 0.04687948512577399 -0.07504021538055204 0.01598586471983018 -0.07393458526880166 0.023777638491979072 -0.10502709365564407 -0.015666144682533346 -0.034404250586950264 0.055431459541043296 0.026643463424012886 -0.013456120644867774 -0.03981891973234661 0.012174231393892395 -0.03547741447563456 -0.026444437514463272 0.03243316136707916 -0.027409994383000888 0.01764597627058872 0.05524883461439846 -0.0404328670777268; -0.010150249013409806 -0.023112700480758322 -0.04084180050019821 0.054204985016419176 -0.008517124370150491 0.001203744394273284 -0.029095380903114056 0.004671854576938324 0.000644635560332082 0.04460847494572096 0.004719077422846143 0.03374299851131815 -0.006710237619746207 0.05320592383290709 0.010292499909384557 0.06813877422797884 -0.06593477256774632 -0.019980786182785867 0.0058305995380703735 0.031057576140079157 -0.018713861671707722 0.016639265919548944 -0.005436533716040254 -0.05131267747340749 -0.027398351147585254 -0.05721882904602639 0.04964524621034154 0.04586815269272392 0.02444898295660756 -0.043862075888922804 -0.01974937074870277 -0.07929400155728793 0.04653843802393782 0.05698544540294344 0.022793601505934635 -0.04236571902781536 0.01775269016910982 0.012940774486742518 -0.04338720200730366 -0.0011399785153033222 0.005307787605642402 0.024412623127039457 -0.026867176671737457 -5.1667811360162906e-5 -0.08501595188301446 2.4934776357203103e-5 0.03853343124657237 0.04731655488126596 0.006047866208580736 0.010003368261316906 0.12220821378618245 0.05274299824963529 0.08526370458972884 0.03432007035300486 0.028157405729146462 0.05426589559610516 0.021344272349553783 -0.03922862326717334 0.021875503158595593 0.08850247554784349 -0.026739862953330057 -0.01017947145919209 -0.0647875909126246 -0.016803905152665017 -0.010316891150448173 0.027403972593107836 -0.06345494277253197 0.008856384647753185 0.013905627337968293 1.944136964177728e-6 0.0473661821142217 -0.022022085292910117 -0.020610587109984185 0.016819653027742357 -0.004742991206131263 0.018529150256110898 0.06287665099414211 -0.027788268168966263 -0.006764139758913795 0.055940253975802934 -0.00595390857313086 0.07810741246068584 0.0383871303440667 0.012966635727042044 0.028731085093791683 -0.005447970016281034 -0.031890577320743796 0.0002242825426495849 0.0035242368555771053 0.0018421810145031808 -0.019849713933696937 0.027592505091377936 -0.014329056687961745 0.07795773821265961 0.012136686132752206 0.0015287809892813578 -0.019031258595215747 0.06250123194331755 0.05650119264809974 0.0734772472256313 0.046069616435579074 0.07545999308115163 0.0430918492877526 0.01686590486749487 -0.02022472903743874 -0.003237681546076894 -0.0041041590934391275 0.002996449792800034; -0.038241081420749244 -0.026937560451179784 -0.009729167724588022 0.018770831378538057 -0.039762257195180936 0.003086868642510313 -0.027162384676758213 -0.0012175817956826972 0.0012665833011576096 -0.029994624563203617 -0.020424847675663695 -0.008628168417239663 0.007908974085610013 -0.022738494119960147 -0.00010280861610949172 -0.0004725620307198532 -4.7705668041766326e-5 0.01664996218379464 0.04160932432939177 0.040583754979388174 0.029366189199764504 0.005328808674401952 0.012549623094602754 0.045171301715069584 0.053796418484670115 0.05694078310471649 0.014345555356455727 -0.030646016610697793 0.0019138557706831504 0.024812454872792017 -0.00048544762776634966 0.03040758514806465 8.487704778155533e-5 0.012097247329612482 -0.019073552521440443 0.056330637431412374 -0.056395916934732906 -1.0635153717511455e-5 -0.11386106775999517 -0.033444262967073826 0.06677595407409338 0.0732437430460548 4.829686862355832e-5 0.00012780785564160926 -9.86316712664574e-5 1.8458611349082247e-5 0.00017984238727197655 -0.02641540116638286 -0.03223246932103761 -0.023838504674192972 -0.028093966557055434 -0.03951460403469791 -0.049659975532630046 -0.045146284755712966 -0.01694795039593993 0.0073207068443213435 0.03329608220809543 0.10049969860476815 0.028255859051927682 0.05834182393985461 -0.09132134565310024 -0.07519762787368851 -0.0864922861871376 -0.006332777224497407 -0.05732799770963962 -0.00678597398924868 -0.02004791170895087 -0.019866469223583493 -0.04081784321258553 0.016124181686033783 -0.0136215902667527 0.003455225419906318 -0.000425545756817146 -0.03272213640794498 -0.01048469375895488 -0.005762821735217394 0.032504813420024946 0.014404927585061365 0.03471750675847933 0.04112004315828259 -0.01070180179807633 -0.002511429195204651 0.028674593954654524 0.04794837151649593 0.05610019340330872 0.038323978409064964 -0.003986454997367681 -0.02244804317019841 0.01509160430660836 0.037393891792030315 0.019167589122035405 0.03390277594679841 0.01242597316308248 0.008359403790669512 -0.025414255987993472 -0.05655085955821364 -0.06938631686272481 -0.08112845966927938 -0.038450001178603165 -0.03790913544538301 -0.057588510691669335 -0.05781657453347991 -0.03238375948158528 -0.04323288883466606 -0.04191431523586101 -0.06844427950214658 -0.059125648854140254 -0.08415425660574556;;; 0.02964557957565187 -0.022141434746790613 -0.013540950534289357 -0.031355464592264244 -0.07371818994903098 -0.02721187959655354 -0.07417990899205988 -0.028572281262293702 0.04221132391342404 -0.057314107293826085 0.008556896291762667 0.027750088897612428 -0.03490392900704643 0.025523201086333654 0.05666599396175685 -0.018326983778597573 -0.05864918730523943 -0.05334985909325808 -0.006858546473761976 -0.017928822077317687 -0.021971786141119474 0.028588273679599336 0.11170206763101677 -0.0015952933758887262 0.04185169009481903 0.07768909738680936 0.05645547677866158 -0.04868571207162621 -0.03477052862277526 -0.03455874596886521 -0.03357440399495544 -0.01366231245066318 0.022888484383002526 0.02313929405226987 -0.0011183113309600513 -0.02986374224867032 0.01658001312625515 -0.006379970593679975 -0.0094411526213778 -0.07820125954664166 0.05818401533055027 -0.05958151163460603 0.016695629605681737 0.017211121425172008 -0.07816725053902991 0.001587698210283054 0.03243116026602288 -0.018524984431042196 -0.03700013868702921 0.00516234647319619 -0.09158235822795982 -0.04053740869320926 -0.06546325114493366 0.02010252674757373 -0.012603238736475376 -0.03669342736294358 -0.006116295013412047 0.03401552751176403 0.021745646601609856 -0.009579312789594535 0.05123717168329095 -0.004424267969715305 -0.013866120240522388 -0.09307056249210285 -0.008893690760019647 0.07068595903463995 0.08768924912547221 -0.11007131221805518 0.00013208425437235657 -0.08441289809968308 -2.568406851447789e-5 0.10505927496456967 0.004821674787130679 0.005108730215286026 0.0143076072106053 0.1187966376033788 -0.044800485869402384 -0.010388193249273012 -0.08321926278367076 -0.03218523942892832 -0.03652042602361458 0.011394769699897929 0.116055934456901 0.08525645248945037 -0.028132965586047432 -0.016567990851405135 0.01252220563258748 -0.014687269323078945 0.013837789802992351 -0.02069863340267365 -0.010530421399854013 -0.049782558885724436 -0.026960252003713898 -0.021019805094257205 -0.009456807092832416 -0.036503077649950595 0.10890897323249062 -0.056929853377797365 -0.007581045479815669 -0.01868783127407505 -0.01697435024993478 0.036549225961670526 1.8290199156854651e-6 0.04054403512743414 0.037520821715838655 -0.013293750737066309 0.014770214719389463 0.013021451184878649; -0.02809675173677792 0.104419470241756 -0.02389462819869153 0.01516379784062966 0.00793865059455882 0.046538098852375115 0.000990748099694009 -0.002380496987315962 -0.054685092308111916 0.047678453817131226 0.00011896844625679598 -0.014937779308509131 0.05104680987986291 0.05857822950363341 -0.05579068272829416 0.06813695185048227 -0.015989572713111425 -0.06007337236451893 -0.0038811479195589235 0.022310526569399632 -0.0006342441160811364 0.0034904057259412787 -0.08615821632591586 -0.03209099951615089 -0.011064922467310103 -0.03448068919145156 0.062042178948325824 -0.014133676805543437 0.0031604237867150437 -0.01123559800913587 -0.009077067854227286 0.006676275046408575 -0.016107503991223147 -0.005885960819338562 -0.02004086639017662 -0.005968480011625539 -0.0150992058551626 0.0982397210303705 -0.054684049188539266 0.028142353431295487 -0.04165366954830406 -0.01604491312574723 0.003212474927718327 -0.05951286419885143 0.004948389237881473 -0.04809416385087309 -0.0568125440203751 0.05757551803180234 -0.0218354284160052 -0.006760515129608375 0.11412441982035472 0.01112414822780694 -0.058583337904070526 -0.05586417992400518 -0.08078499041480766 0.011104464442966068 0.020296129978409717 0.037427607232415686 0.007473929310839488 -0.005155356039398389 0.045381211109186075 -0.02471581136751411 -0.08468056669081406 0.016154134821146336 0.09381245286626737 0.013927969905744395 -0.054399418450576664 0.03585357482510158 -0.0348837552050694 2.838808513872711e-5 0.04944140044182059 0.05195498582822813 0.00577639464061392 -0.013136934175958206 -0.02244889030127583 -0.11168026709528482 0.038901352150303076 0.01330588200410664 0.04384198293699514 -0.03933181812108777 -0.0447401577133639 -0.009667416402855 -0.040151761409067184 -0.026268307764712583 0.05900808401492549 0.12997604913120073 0.056608268562482376 -0.0036737935897992006 0.02430429848152319 -0.02218022899539069 -0.0012992112029603735 -0.021834734596279617 -0.008801641307711845 -0.018414294758401718 -0.06827865683048956 0.00436691983968343 -0.017100910315653407 0.14363805318095074 -0.02546811019749099 0.005645790919240479 -0.0050501564877025295 6.487275028774094e-5 0.006974886988316788 0.018875562774544663 -0.0020142130280515797 0.06939136207794787 -0.02153848982297233 -0.011891551687360311; 0.016452775928840507 -0.05371267093403995 0.10374726408245495 -0.04183101106474904 0.011225293161234216 -0.03450204241124205 0.0672183023290799 0.055536656789711085 0.021795865075868445 -0.006288397639495944 0.022690516175255474 -0.0001564472498105205 -0.01240999642044204 -0.006907212280312577 0.05347141928128933 -0.04951499415129137 0.09800590113594934 0.04164977870839264 -0.016670150178262882 -0.0790949814576838 -0.017106412456732372 -0.007489826087716646 -0.02710660169910378 0.02759107976801219 -0.02201351684683594 0.05933476648239719 -0.02772590793428789 -0.0029079463693117884 -0.03669721073076401 0.00672115211432814 0.0002230276744642909 0.03452226961754567 -0.01027304788642251 -0.017387446424776232 -0.008397984780655393 6.412072710724773e-5 -0.0231405086494529 -0.02765320750438284 0.0644025367991018 -0.07753626368148026 0.06026890210322861 0.06134161979921138 0.06076021615758464 0.037689450502191656 0.004935067199948022 0.046469129088261014 0.02704512971357517 0.026637393641987035 -0.01501787106821232 0.007988075608762883 -0.035124777070762836 -0.04675260743287326 0.019343242537382184 -0.04120214172387796 -0.009088495923347577 -0.012549046188194418 0.039126132476405444 -0.03754186623172211 -0.05159000712507046 -0.011832311847214715 -0.10327769618376802 -0.015799091164438304 0.15829514175534765 0.010698069469880004 -0.04824417072653937 -0.005394087128509285 -0.012405475826253076 0.05404856884980976 0.000359506153591027 0.06461206708694978 -0.05693230398790862 -0.09433160554358107 0.0009746326177270395 -0.001097037710084024 0.0012412101601532595 0.01770640192166083 0.0068851954101373705 -0.06150003672601378 -0.03511721896703812 0.007397337717472834 0.00587630745498687 0.010446196357310778 -0.07725583841586857 -0.015994526644804646 -0.013507623550674556 -0.04006990800439658 -0.007105131035693489 0.06700500025301298 -0.037331590702559356 0.008511377831677297 0.020918873813124707 0.09639797411295806 0.05004813048317322 -0.023328745934020585 -0.024223631889474514 -0.007889198207572744 -0.05770668577985492 -0.08840983754098056 0.048892651818325215 -0.04833732926936395 0.005363843898009746 -0.0007336928108640861 0.03502867080050365 -0.010854030865884228 0.025513629630958528 -0.01766058324949549 0.054490693291217744 0.007775974530552332; 0.018587595237949377 -0.017572611071252565 -0.04305752371937207 0.03370251116305265 -0.0001831256711686925 0.041816968595274985 0.02708261102914372 -0.010685181697551132 -0.005758302939219007 0.050902312203606706 -0.04799194036205579 -0.013931811076903005 -0.004812052712040022 0.02320489118577125 -0.05432327147343723 -0.00026549779191638756 -0.02330325405358096 0.011683291974979452 0.07966655610340942 0.08850528896655738 0.05040095421896216 -0.0335512313612741 0.012396451567269352 -0.02975978629416798 -0.01135733408256531 -0.09071446605898312 -0.08358889428700135 0.050301325439708326 0.06193462026427382 0.020315403313027103 0.0060029122841829385 -0.012855666351446936 0.0034066900917415315 -0.031565662952395546 0.011652028946790781 -0.0016122444991301167 0.02678977294061975 -0.06416256082824251 -0.014233305088435656 0.034677659401346275 -0.01923005645979476 -0.02923008974183765 -0.08071081513296695 -0.00015582929933819666 0.06835199508658493 7.13574107532488e-5 -0.002653721224428776 -0.09076273317704085 0.06726950176709673 -0.03100459593753743 -0.006838334002159422 0.0011310910708396847 0.04417658719507988 -0.020508621939185963 -0.0055641976332736235 -0.03590462386459855 -0.023598474506029928 -0.011708846321197747 0.0338376711904887 -0.02659019593902539 -0.0951156728198459 -0.061634889245335694 -0.08957012207359344 0.06943346826884834 0.007109220403920289 -0.0221593854305829 -0.01466812062022231 0.008536592652356673 0.02249468097959705 7.076458486492205e-5 -0.010674665981377167 -0.053960790510471604 -0.017189078871112397 -0.012728334776704084 -0.014120181164022005 -0.04700507634577287 -0.043498513003054746 0.05626519587091653 0.09761025993163872 0.031749431292778574 0.0650796595451005 -0.037048487526893055 -0.001626061391291764 -0.04160089966785169 -0.017635259339304835 -0.017957312225338005 -0.01984809206909806 -0.03448458750833566 0.01897462125303242 0.03155298328749361 -0.006923380651130036 0.0010062062646525672 -0.01527209862272264 0.0893013414555683 0.10700987681017908 0.017078474261496807 -0.007488433568983006 0.05451631324040719 -0.024244622627259165 0.06975847691026273 0.02368152829657914 -0.03656272239789861 -0.00984989802009029 -0.061026593700654296 -0.05560052555113623 -0.022965860384160562 -0.06646520691730903 0.008590866916068958; -0.03658919900566385 -0.010992753489672888 -0.023254161630101983 0.024320166653330977 0.054737371864406636 -0.0266411454398545 -0.021111752465857725 -0.013898696842550289 -0.00356379374196155 -0.03497826108741591 0.016625559448780854 0.001275948737610227 0.0010791682596655921 -0.10039910949542573 -2.345904131478561e-5 -2.94761286769506e-5 -6.388706401753371e-5 0.060090160774404926 -0.052256711531825636 -0.013792012000955546 -0.010688511505029181 0.008962378043450134 -0.010833701173266472 0.0358549994181954 0.002584083301892318 -0.011828708618771876 -0.007182853505698157 0.015426009806773113 0.006372695302550423 0.018757788550645835 0.0364255318905355 -0.014680565861844123 8.537740290160148e-5 0.03169977614424046 0.017905133555001285 0.03738034603231873 -0.005130071562259396 -4.398210406517909e-5 0.013955970099250935 0.09291751039548013 -0.057569191425680045 0.04351489470297953 4.249444198225562e-5 0.004768121570825973 -6.820098538451157e-5 -3.402085842422378e-5 -1.0024734794182739e-5 0.025074805934293676 0.006583936404149999 0.02461468898518674 0.019421049480527353 0.07503477682743591 0.06052675931654214 0.09747241683949537 0.10804092270790422 0.07404263297277046 -0.02970749293537319 -0.022192422191259855 -0.011467239977867591 0.053157176615233025 0.10177498621113688 0.10657405974700342 0.02982166724958225 -0.0032151100677718287 -0.04378381178362863 -0.05706045638129216 -0.006216234228420153 0.011632575890787158 0.011897483817508967 0.019701678342729644 0.018191253595979683 -0.008721864738745116 0.0056163768256407625 0.021853576447460284 0.021020254094539278 0.022182303916018064 0.0425124513120167 0.0023171521002636154 -0.023115761117924998 0.032370288539764674 0.010304616736891105 0.02487493787253935 0.002977726759326502 -0.001392718412081452 0.00026776446110133575 -0.05538083805006103 -0.04217725109027831 -0.014159349831799182 -0.01978511883498861 0.0028145012788934306 -0.0021658605591802853 -0.025786886895606563 0.0009858614509751624 -0.026538495668888787 -0.005050780997382604 0.022946881756343112 -0.02661294356799929 -0.05281467550258002 0.008401126486240605 -0.0083791072860642 -0.007020865456951576 0.0006823164968044307 -0.032155488788645825 0.012461026664559723 -0.005419712767609371 -0.015471167707225513 0.018742788729674165 -0.017496740944139628;;; -0.023186997587606204 0.054204560572015094 0.04262275722264167 0.015712844796396164 -0.012417290473061237 -0.015635824703678636 0.030280304676532598 -0.10309962566378669 -0.0017263383294530861 -0.021679485980197366 -0.0542217857510746 0.02345587570097103 0.017874774363348573 -0.05899015182930729 0.11543897603311465 0.03471557945116342 -0.04858450422886311 -0.022999531092219364 0.04008317259793115 -0.029768453109363505 0.022551538055056157 0.011482816835842421 -0.004387753894990285 -0.07132269265785904 0.005745029603106618 -0.035408996542022494 -0.054945701690729834 -0.03539462934501065 0.04385126490944089 0.001773872323964899 0.014539381444567276 -0.008743640777960908 -0.06021682580134706 0.03259260379184882 0.03287209153499976 -0.009902962543683006 -0.03525956638559531 0.0066125887667692835 -0.015775173400336275 -0.01617617731831747 0.06624294849865447 0.05176447128984386 0.04168729368898227 -0.018984428959365914 0.008962873498191032 -0.038420033423928864 0.009249945836166834 0.08616625610186775 0.03038008671640424 -0.04668848572146543 -0.021386482574633218 0.06957102967082017 0.0039870661244398725 0.03549776999129208 -0.04352689188350697 -0.012875331073534217 -0.012759110131306487 -0.016538561820185982 0.03993720092501454 0.042330477338201195 -0.01326320597385078 -0.0425659378458437 -0.05273390045507874 0.0031189276408740067 -0.0318795232065091 -0.018616493452529446 0.12392987104833281 0.0050102297060048906 0.007891536815094356 -0.021394637015260978 -0.00033638966158625077 0.04677019986339086 0.029174944399307075 -0.005167810555732256 0.010314312673348817 0.02655250189358363 0.12002357872517286 -0.0019598486925093135 0.06352785357922294 -0.0018393675202520274 0.0032636174652625233 -0.044512015951409425 -0.053997116595579916 0.14279049264756968 -0.03621070416098626 0.030993760950783388 0.03386961124814872 0.049385535143025655 0.022684912779672967 -0.013281618791526091 -0.010071703878893458 -0.01686097234568134 0.0034302219237915756 0.06929360704803537 0.04180027588152389 0.08930697989769525 -0.00037019024772561954 -0.007891148149250678 -0.00441368654047432 -0.05317935981044185 0.00035189970260381603 -0.024991317437856885 -0.00551010970568815 -0.047776557130248774 -0.04552402438063067 -0.02277413019341169 -0.08119817290260742 -0.07488620727446668; 0.10668032583744756 -0.014272254005584668 0.005063379884946099 0.04571876293474325 -0.003986208627977911 0.06504011530774634 -0.00935578999550349 0.06817833208747232 -0.0279021271325696 0.004263174406226629 6.0774860831774325e-6 0.03324830004323289 0.03114160682751605 0.06388421624462803 -0.0774411636354425 0.09108634369318518 -0.058128022396536895 0.02075658166011099 -0.0523336014854824 0.01599683347762001 -0.00048057603298719894 -0.05902219382156607 0.029169187215245085 -0.03710382674376626 -0.009719411838602731 0.0028520616134174418 -0.019128332052380966 -0.0991128070207181 -0.03304275253117054 0.016622911639981416 -0.0257712586967305 0.01368403648830444 0.017156219383925142 -0.02624972023197252 -0.022924917213813924 -0.04931646648371429 0.010510688464613309 0.05411223020819498 -0.06457991208296418 -0.016725979895548988 -0.04334857463511305 -0.06497189161153044 -0.023220151176179187 0.037422361394972146 0.03530827691870661 -0.013134822257971062 -0.03713589313380156 -0.07556358717691124 -0.03304005962706038 -0.04088492936059295 -0.040132973412479775 -0.040220444762214064 -0.015898415865535243 -0.03489586637669489 -0.014532977566090136 0.008265744196481597 -0.024658982665287033 -0.008260381661675307 -0.002072499153551337 -0.05870413595771599 0.019525405205287245 -0.02797604882270393 0.10074160093074006 -0.03225841555639725 -0.04011744540458463 -0.11840781039739827 -0.060064255931258505 0.020148419086492595 0.010032409971490694 -4.041765806260556e-5 -0.020445481394026473 -0.02403860893215351 0.0204850877726386 -0.011478601018671849 0.06505975355125682 -0.014681545271312423 -0.0064897814481661735 0.017661486237613867 -0.044199491030953136 0.032268451090970804 0.003870843233551495 -0.0640213249185431 0.03678067591380832 -0.144868041162427 0.015397447531180346 -0.08204414185516311 -0.05492430653870686 0.014155548019922576 -0.026893441588231773 -0.03854853468874973 -0.00629530198548671 0.0326664856004924 -0.03980404947653647 -0.043931999710858954 -0.01510489285681857 0.0660311946541876 0.03867478481080615 -0.026551139378225515 0.01753140958430583 0.06672708319335188 0.011172124839123145 0.0002295035709128015 0.011160759717128812 0.06422244602209956 0.010971685248314959 -0.02080956907427603 0.0820389928588049 -0.012733216119046476; 0.020220785413934062 0.04140289355314499 -0.005505091603184008 0.0025610274748046453 0.08387002505076796 -0.030172221785862367 -0.0010149210507048709 0.03924694879999389 0.049858301633443056 0.11431816675589225 0.025104864452371214 0.0002755641328051498 -0.05502795827458015 -0.08049366559506056 -0.020642244530018634 -0.08506857614893547 0.10750779443327117 0.009144133217877997 -0.010829152043923573 0.005189711774470988 0.005136156698213881 0.016095540911973488 -0.02900394606688654 0.09823419205118575 0.0012509796526583977 -0.051538759036444746 0.01293124604472804 0.013124371551334278 0.0008012884866702606 -0.0794478740263904 -0.0013409877743592797 -0.0354497660820142 0.03409690052113461 0.0028933354491740013 -0.002140872347964475 -7.468305723717707e-6 0.007253276985954918 -0.027656425118063113 0.10939003985924067 -0.06668538686535236 0.07445108806767149 -0.0003447335755937705 -0.030376478011265053 -0.03381391744291144 -0.01769886434130135 0.05135124940990639 -0.019108502840182243 0.02497095394235848 -0.0934537815024435 0.05218998402146789 0.08363762725549626 -0.02272821755780075 0.004682195081053534 -0.06193929373649286 0.005496864660529014 0.0016217594511583771 0.0094036434263664 -0.005590968887777488 -0.019209270466082267 -0.012826236855267067 -0.007250034969605784 -0.019861057959704304 -0.10936145137586599 0.005214258881020905 -0.03378666734041218 0.03422115584498279 -0.03132300237260396 0.01418057849768212 3.6534649106503614e-5 0.02699837929150234 0.047204462495831656 -0.003094130987850435 -0.09963696439005641 0.003676020369666195 -0.04092814991453246 0.06438433866552304 -0.11391598276991224 -0.0004903018918360709 0.010578649183142138 -0.02997754181682077 0.03490137980819133 0.09306477353146213 -0.0072880208539826885 0.002826531922209426 -0.018937834829406305 0.0727593675086639 0.0784784257410893 -0.014179870477997339 -0.027786208494817447 0.016787353109190647 -0.04014583232350307 -0.03938432095699866 0.016044354520612095 -0.1360466918393455 0.045936801925861706 -0.04985053642403286 0.00041824189430337167 0.05295341192130814 0.008846159664287416 0.008423103479278073 0.03599905389943943 0.020654611393921884 0.0031200092034927218 0.012103045323525406 0.061037982718747955 0.01567917753471934 -0.00455673980905989 0.06089742126544098; -0.07340043089311893 -0.035332366916686904 -0.010537351294558598 -0.0240804217519478 -0.025260524751699247 0.021618056065475462 0.029748108722263116 0.010730416417079586 -0.007067798448620942 -0.028533331453414808 0.008799243631459314 -0.004058732714540537 0.04116311261714756 0.08296947655944464 -0.01739338405485048 -0.04086892820435236 -0.0006463962702452709 0.01791888592090485 0.04221811955074639 -0.0033488489266678837 -0.0331048731823968 0.008767079514483718 0.023126405001818066 0.06328756687865766 0.00970233372040531 0.06873064633057534 0.029250373891876912 0.1264139327306434 0.021540782861136153 0.010110761840251933 0.03099175855098583 0.028842469067241267 0.008995066508591111 0.02167745109405562 0.047252265927561266 0.014790197419275926 -0.017666299766921596 -0.03295908053996248 0.04337460973984398 0.1333471346315373 -0.032113689161910916 0.003000916344800268 0.011946731455777557 2.9695057974351685e-5 -0.026692313483214155 0.0001697103947033153 0.04691046021638791 -0.032050491577425205 0.09075111165193962 0.05715368382960284 -0.0064040889564637715 0.0026358137038775026 -0.009156442445673346 0.0231865529604448 0.005067839336188369 -0.010006654953749406 -0.00029509010725478917 0.0023818066757141164 -0.053432399539449074 0.01049161417623561 -0.006684000845676693 0.0746111836264253 0.10656308615122194 0.0033206804633334457 0.05960046576651532 0.07238748553990715 -0.018384839832718027 -0.03625411176799746 0.01384666620038966 0.00012828585731074487 0.012720043321184607 -0.0008235811477059053 0.044853835251465544 -0.001605908323298933 -0.010403439339856733 -0.03535174102157645 -0.02831815854876612 -0.05665018007060389 -0.02450858708998168 -0.021517776450258135 0.01237000462825202 0.09027308697403308 0.06718968553343162 0.05592233405694872 0.0426702480766709 0.024844663892254374 0.04014844485382517 0.05722065171584366 0.0221885796409544 -0.006619780483565947 -0.010547456500319713 -0.0042866187780244355 0.011110262441277557 0.151639562184855 -0.038650807150503376 -0.038382447018699216 